{"conv_kernel1": [[[[0.8655319897346168, 0.09303659431032947, 0.15138690564233812, -0.010742350765356894, -0.6536886210846041, -0.10331688160810887, 0.2882794782704286, -0.014113053524344957, 0.08126302417278017, 0.4545129495446606, 0.43075328166414234, 0.7405753351217097, 0.721515556451578, -0.08169431406756779, 0.16655198555358716, -0.03179147576681952]], [[0.44217875435591497, -0.5995542976194065, 0.25028179544877777, -0.6572513610928052, -0.9073129824003145, 0.6577409064756046, -0.4161187780860491, -0.16359773986240844, -0.4551793134798022, 0.5132940097017927, 0.057676699023819666, 0.2056460124795366, -0.4826085181687263, -0.4541012971466064, -0.9389822201014695, 0.8815959126011744]], [[-0.5574131068782173, -0.21557190336788504, -0.20784511728723562, 0.3842029129969859, 1.1301609418662115, 0.2591386293637406, -0.40290491231887743, -0.4291737777862351, 0.20008268087099734, -0.6256835123554423, 0.16607150591958586, -0.8097451720347704, 0.11260970350791295, -1.0175501073970483, 0.20316223842370362, -0.31450417070523473]]], [[[0.1085089527444564, -0.4834451345676717, -0.1236971107108521, 0.7465168937401725, -0.3212505704813318, 0.3654482301925102, -0.30696636353045287, -0.2677973291038738, 0.7308177401136547, 0.1848733111800987, -0.5427641092353284, -0.8582995598603081, -0.43612865314712546, -0.37683046614255944, 0.5030186933544593, -0.6890196324153564]], [[-0.019147573341563015, -0.77295295754811, -0.13467535551011275, 0.7369633406287591, 0.07729862571466095, -1.2904138324011616, 0.40938192285948305, -0.062055656981881605, -0.17237736674567966, 0.09945640746482465, -0.5793091395904311, -1.1877961414264642, -0.40469100183342416, 0.33769740756018657, -0.7450672044406952, -0.32512778321841046]], [[-0.08744152972276652, -0.16691249892480695, 0.9699381173337113, -0.27675259950536474, 0.4453963853173769, 0.3413634383117331, 0.7314896125543028, 0.3034810859723492, -0.025837995299755234, -0.4931984429792881, 0.31050646912399654, 0.16840727058149305, 0.29059147831951, 0.13831805999417743, 1.351810183774091, -0.3778330506639524]]], [[[-0.19912640213261024, 0.43931859204505036, 0.7693772940034895, -0.33641911037726296, -0.27816253252712975, -0.6001201365834342, -0.2958044445943233, 0.04771516823772527, 0.07601393294365481, -1.1052567356387404, 0.6325168365105641, -0.8809483578162851, 0.8837507797514264, 0.062392392114465095, 0.5993211191992038, -0.8534477345494771]], [[-0.22736749353619676, 0.5914389723093524, 0.2676699136306826, 0.6417881767325107, 0.4524280534166244, -0.18002175361669043, -0.3769795283753671, -0.7677633801320836, 0.44837644954325195, 0.7701521683302119, -0.25661451236529137, 0.2476169666542952, 0.17692404040519166, 0.05148886259026341, -0.1294125703896579, -0.06001842538265281]], [[-0.21669288335700151, 0.2268740079907384, 0.629297301068612, -0.72616749671905, -0.1036076873300165, 0.046308721986241794, -0.10908295766608801, -0.23488757680163952, -0.22654523453197048, 0.34987539268210693, -0.25815308632545836, 0.13555227208466894, 0.14773365831604016, -0.5931312909899107, 0.7569656520352043, -0.9595026192553291]]]], "conv_kernel2": [[[[0.010115363340402134, -0.068408060931113, -0.024989380482618628, 0.05690804428160129, -0.06274844206354029, 0.024162676175984932, 0.07757692291024706, 0.1813445739908097, -0.1510658472127564, -0.14157037951333845, -0.14807963387184417, -0.12618861581042734, -0.06013730116659921, 0.07975373532373821, 0.0778691194665984, 0.08952618881057214, 0.06404814908648464, -0.033085298392866745, 0.06814657342824158, -0.19649476687055353, 0.02568184247065893, -0.024514665564038293, 0.05348103909438214, 0.024251443869471378, -0.20041011617240911, -0.18323565451313845, 0.09126108639662035, -0.18596262532430535, -0.08214573403265277, -0.1266385672005422, 0.06355497744536061, -0.0931641774411227], [0.05032529000625795, 0.058797799548493145, -0.13462716351331933, -0.10362895135269322, -0.04289789809627104, 0.11874434227393826, 0.01708352892341384, 0.009540253411057647, -0.017117820910031212, 0.05386268191191488, 0.20179954152848392, -0.09744029158243643, -0.022345693387306406, -0.01851072316543487, -0.3898125437092747, 0.15176466275701092, 0.03508967674329319, -0.11174736669911299, 0.13168469146618, -0.04260014715450637, 0.24066353745220184, -0.04078274940650291, 0.018080766469566467, 0.05265979127129791, -0.08918627402881076, -0.28986721074831656, 0.05140685646053645, 0.020557681469176272, -0.1441356053158103, -0.1825105794886288, -0.007545022091119627, -0.03746640891486363], [-0.020255824710167455, 0.05291711292986246, -0.15561905743887566, 0.4276125982121684, -0.07240754327807938, 0.06309258617216738, -0.1505562853563876, 0.1624945387815148, 0.2581602112481202, 0.26281285951022587, -0.04361806950511522, -0.11903239395931581, 0.06592711410497784, 0.051854696019948625, -0.16758322365159647, 0.0152611527010536, -0.035641612240017904, 0.05259538751973997, 0.020299274549345908, 0.2301686555060501, -0.031689313101259595, 0.03145923911110912, -0.11704825408936441, -0.03411045290265047, 0.026158114482507468, 0.17785058658170447, 0.15662652237965294, 0.0368240865904046, 0.07025631388456333, -0.09393164243004702, 0.12172968835629219, 0.13708870601760206], [-0.036540291570663734, 0.06957448953941807, 0.12593698278074564, -0.09107960969739998, -0.04142221031116999, 0.07851231500977264, 0.026469879970433374, 0.0022603059958929373, -0.10511531816213342, 0.1521903565923744, 0.2639962708404894, 0.04116866881964132, 0.07084834064232495, 0.08174739828500154, -0.1032715245462006, -0.0079734897783336, -0.11257538037595836, 0.04300519236510122, -0.006097662022426784, -0.12974834440562505, 0.019054321313797508, -0.1631601620469383, 0.10314521073113209, -0.29267037725861356, 0.14033712765847492, 0.04504168546218055, 0.10121751905530381, -0.08586144140503088, -0.04208723120981422, -0.3073340758011452, -0.028901540012306277, 0.09236193286683107], [0.173254789059904, -0.021409123359791313, -0.12028570248575828, -0.1123509875698575, -0.04018983999160607, 0.036381131759028025, -0.22313450433534113, 0.07135775745432818, 0.03909341827356404, 0.01034591481160006, -0.07547498833457773, -0.03647801773562744, 0.01106438131372395, -0.04553704341110705, 0.12030767865416851, 0.21994959695492114, 0.09107959450839331, 0.002140748439668893, -0.06540045342417579, 0.011585085529945334, -0.08205323864244288, -0.10372574049078785, 0.003574351553480814, -0.08581196387424353, 0.08375249849109304, 0.18440552133751462, -0.06086818828910474, -0.008923168433870508, -0.034530172579318924, -0.199386371855378, -0.15353907722081797, -0.03121235297987436], [-0.19525999741600086, -0.08976759433108987, -0.010512409500745567, 0.03527238398324889, -0.47670273546804437, 0.06673325086262971, -0.2410654526215788, -0.06677080207565145, -0.003485084199757742, -0.11099354384390046, -0.06140881948435706, 0.22082939704269483, -0.007418996966894459, 0.011671838974320536, -0.086653658230327, 0.07458348485026435, -0.218155832844834, -0.08624185733090979, -0.036976644217459345, 0.07849995115497733, -0.033499503055499064, 0.17237082342486873, -0.08583769497943532, -0.08245698042228625, -0.2128196409308575, -0.14987140354292208, -0.1834987252379669, 0.19005436329575578, 0.16344808212867426, -0.016330503069191715, 0.1643850616515784, -0.10564346838357963], [0.034546403100669615, -0.15620293103913063, -0.018546313217856405, -0.12073771308127183, 0.13068872944382942, 0.24820337779554136, 0.09926720489457333, -0.008326815400435162, -0.1236736364917663, 0.04921868031334748, 0.16677522519639462, 0.033993238431100005, 0.12872172225105238, -0.10566631163128945, -0.08143409426723033, 0.0474105967930507, 0.0023623252655846053, -0.18222637806490116, -0.04878920963556392, -0.00088025959972001, 0.0019129030700288133, 0.11880678013243406, 0.03735792773818393, 0.13282024100643586, 0.059160645936683014, 0.0683909615525757, -0.04400107948834342, 0.15987201107070798, -0.1812996916552149, 0.002196330466654146, -0.2556899000433747, -0.16747412731795042], [-0.09036489608129476, -0.21372754346235373, -0.008342524946002895, 0.15714202428214777, -0.004019898932113369, 0.005808976355059281, -0.03898344856489262, -0.06822120449355923, -0.0032409272405409285, -0.11379828180274949, -0.09467325824273659, 0.26057959346098714, 0.06865965922224433, -0.13400878839925712, 0.06346190765949654, -0.03701912485522685, -0.06435186226216821, 0.033257585451440703, -0.08885901624756093, -0.013516972436434545, -0.12745683873404123, -0.07184342548863522, -0.003895926336726238, -0.1539281824250719, 0.13977786759789057, -0.1478576158243787, -0.08983982967023472, 0.08952668648608622, 0.17520731270272188, 0.15208544805535312, -0.1842394239392496, 0.06268322592086538], [-0.1925139958719933, -0.005439006037140079, -0.0543439842562328, -0.04234855421576998, -0.30391649100974133, -0.12389840273350443, 0.020907300767684635, 0.0474760091193687, 0.2455033498828026, -0.07999068394644997, -0.0804204933170697, -0.12127288227226021, 0.0316039150087687, -0.1368939743807471, 0.03100322205379733, 0.13660389986132773, -0.07604089594199251, 0.08932789649265502, 0.06350524989349768, 0.1670933632898169, 0.10444699345632115, 0.08177610624573725, 0.22638952349570002, -0.007909785471096354, -0.05293946256342235, -0.049357738284463, -0.02161325813872104, 0.18081763056324057, -0.00487889858405353, -0.0194939688832312, 0.08371386806644761, 0.08876939080352277], [0.1963948710296777, 0.14176537002930528, 0.05952409595907482, -0.0550751955930721, 0.10590297597237443, 0.04822459034355518, 0.11980359973108663, 0.05605780345687652, -0.009377338162170549, 0.2678397420619741, 0.0605011449429837, 0.09832449364195416, -0.012756146179669334, -0.0363294758358676, -0.10263268116613669, 0.012852283516938364, 0.1484450561006815, -0.10183601992036269, 0.055002961515120734, -0.1639148872258323, 0.19630172091584236, 0.2945250692295759, 0.13230036406083728, 0.09914848067148531, -0.02213773553048562, -0.06215910665183019, 0.1270339435868687, -0.05799569776172071, -0.008458632393148887, -0.08995064764214544, -0.018600324229255324, -0.01694640074887766], [0.22896697704098334, -0.20667120825564386, -0.05884816822764286, 0.1053357266590913, -0.170340777692358, -0.12354124253022274, 0.2245768383070018, -0.06966545025665768, 0.12165241919232511, 0.18655223663267784, 0.07855499582061015, 0.12218540695643663, -0.17650214145408466, -0.0017851898892500332, 0.1691809346061064, 0.1194471029776185, 0.07033125729300244, -0.16596173486113364, -0.18284913909443315, -0.10325421374414638, -0.08060791885156139, 0.09231800276933116, -0.1699629299785882, -0.03514069189024072, -0.008574637590447408, -0.13727056434264998, -0.21314925676142346, -0.15653072248466798, 0.23161827355629613, -0.0477138850433856, -0.07566011392682016, 0.2844180123526032], [0.018103319384367114, 0.10986634368514776, 0.11324278448242295, -0.016041291479899484, -0.08303504209092646, 0.05751018111526606, -0.10377938844101825, -0.18793883789514457, 0.06809838372621635, 0.029234979659782966, -0.21368139233354014, -0.01402632148161992, 0.077765505462697, 0.031904875018167106, 0.0762778927572229, 0.20503694033625383, -0.18564950731724883, 0.059296541672882154, 0.07494164055317282, -0.04877637550628737, 0.042485413553123144, -0.08633881223049333, 0.14237540332906087, 0.038797596403539865, -0.0846225372239147, -0.06720468183326388, -0.006401099909552986, 0.019370129160119084, 0.12622092846983463, -0.0638321006181416, 0.0406541781078956, 0.05574089679786685], [0.021151007479022918, 0.06706033590189407, -0.04964249581064332, 0.16852664126269873, -0.10323239520958917, 0.27651285523971353, 0.13902638516506155, 0.031849824759616334, 0.03485330374738261, 0.04518229184822273, 0.07529644604506432, -0.22899062046186625, 0.20919551414579585, -0.0658467178828246, -0.10436860494719276, 0.17778886747653266, -0.2815866373728225, -0.0872393220956286, -0.05357388160799267, -0.16984375958664877, -0.07395928813062576, 0.057467512702201046, 0.04545252619363128, 0.22623961032996895, 0.05028572926863628, 0.05910482389118288, -0.24767556565007512, 0.08664949493004287, -0.010982602211833028, 0.10664917019062604, 0.10918951563777243, 0.07272188849294096], [-0.0359442071079931, -0.1485424800839965, -0.08587925868080795, -0.11903083300920689, 0.030198427198463933, -0.20512952498406398, -0.0273810944140685, -0.04458152001970623, 0.12588929857885167, -0.12511173036345255, -0.24593925488045382, 0.2902754501344517, 0.023518837551296284, -0.13291374969587144, 0.01203509747249201, -0.02939460465325824, -0.01620062849112023, 0.12036384193969156, 0.2217043581133923, -0.027145562113425163, -0.2043031965969502, -0.13436728642524828, -0.4548222467805727, -0.035903938779464156, 0.17716257864299997, -0.1872808343842159, 0.0025605535107665407, -0.10747928604791294, 0.1871312317113206, -0.09880858111028616, 0.058442405303731355, -0.0270031583183338], [0.05541279050353022, 0.0812572769803357, -0.17812223041458977, 0.29271709675188623, -0.09282245647835417, 0.14323954304669406, -0.026883427431045513, -0.10905450139705222, 0.2925420966406297, 0.15763072445424764, -0.09109278787014395, -0.2753495442824214, 0.10641258053261721, -0.02071189539702645, -0.3106333230303478, 0.03631518335856142, 0.025596647994283562, -0.026208454410416082, 0.1495890053946864, -0.008803390171042659, 0.16425262445528238, 0.15052912651423972, 0.020329069485449363, 0.020815302182260628, 0.030918671575463585, 0.011513992609572804, 0.18835878525396543, -0.06309620626557826, -0.07221301320312006, 0.07743193943793594, -0.005479237883027161, -0.039909686178284866], [0.05836212078416501, -0.08710711785939486, -0.013027849749273105, -0.06999549810092454, 0.009893445298679108, 0.05747635530329706, 0.14518191445446102, -0.22785322610542236, 0.18413262478922887, -0.24016569803103086, -0.07907653056894398, -0.028177074901717163, -0.14768475137027928, 0.1134548909970628, -0.07281285857035642, 0.07427465142307411, -0.15020520187112346, 0.13931402821485137, -0.15057087739760117, -0.09024215533173363, 0.15953311008530704, -0.08487670549054761, 0.19389105912229848, -0.14331571815015523, -0.14535827198066306, -0.01827245972433488, -0.015538672567514936, -0.0372484908511451, -0.1270786622347923, 0.09454074889121411, 0.06978346476743745, 0.1560038348170027]], [[-0.1573438618147634, 0.11600132201593007, -0.2063658595955075, 0.08185023941405152, -0.18481693987111636, 0.141908930593983, 0.08432868632513679, 0.2039877839510875, -0.06487263632693914, 0.018103028994878253, -0.07705590130594395, -0.19082857402166853, 0.06691399162160223, -0.15242821904824985, -0.03140420067557439, -0.09069805280010386, -0.04087939150286605, 0.09681379356858699, 0.12791320521093114, -0.051497733208870605, 0.10525879794070402, -0.0958948623349343, -0.2357147180487603, -0.05357239549110371, 0.250520896927275, 0.14832197407002048, -0.34781307868417277, -0.2013994545970667, 0.0032919424845677856, -0.0006627048866213643, 0.11310327572863021, 0.09209379962293006], [-0.022229550259967264, -0.14111800550995338, -0.024583008345595042, -0.1988094715610541, -0.018386934693088962, -0.05966099943643395, -0.11195855619681565, 0.01681309051763574, 0.013118392810022287, 0.11889421641435799, 0.0034390071767288074, 0.34837283782132106, -0.007856791239159213, -0.09114404755102859, 0.09692148582313598, 0.06569521669256713, 0.01718517293432522, -0.15336979873033016, -0.11642660585317678, -0.08036525981000875, 0.10873434203476, 0.006481139876120828, 0.04863495153383549, -0.031880291860824965, 0.03803640494829399, 0.14859047957575086, 0.22795737172044458, 0.21797082508172508, 0.014117218075868342, 0.044350542167104, 0.015037072307228942, -0.09046042772404113], [-0.0799137103321541, -0.03613281411078817, -0.019233868026724867, 0.11138037964497967, -0.024440347196624378, 0.05820173233048086, -0.14276098162510695, 0.22110649483622496, 0.16686684576630484, 0.030967773697133456, -0.0003214239238452008, 0.17172262677965866, 0.036885370528503866, 0.12189159683297483, 0.37118276902836606, -0.09131103009603418, 0.013661873409515963, 0.3717927331120956, 0.04564419382501196, -0.026226121161940844, 0.08937783825387603, 0.07112039054278592, 0.24246720858729562, -0.01563128703609064, 0.08763223552355828, -0.09985662556208497, -0.02245292831543304, -0.05262106450143743, -0.06263882982606656, -0.034715996578916164, 0.10981719146179438, 0.10954249363405479], [0.07120801542740667, -0.12443136450125884, 0.16456036540667868, 0.000896788848415308, -0.05249795447923155, -0.0003047450572114283, 0.12334345138764112, -0.06821118305027783, 0.1326072559800433, 0.10265330254642023, 0.317120590988006, -0.1979635490470156, -0.027620451131983838, 0.0023603429565608523, -0.030390827695931218, 0.019296926404811805, 0.09629187481687569, 0.17944250113994906, 0.032867481146559595, -0.26205723927368585, -0.1348393807092492, 0.08788790641565869, -0.014060678014072693, 0.0816539311460574, 0.0946430014055451, 0.012143044508261631, 0.138148641836663, 0.024776352321072344, 0.06720286930348132, -0.015188085451038343, -0.020409509360151807, -0.06848035059092222], [0.12461965947908217, -0.0340217400005507, -0.08887988421068432, 0.035533302436524285, 0.016209695710271085, 0.02075141402461927, -0.015150867078432197, 0.20229759977692013, -0.10903355899369697, 0.027465856719482797, -0.07849466773380537, 0.012387529663818392, 0.010011230021898678, 0.27394225112047915, 0.16137659900578374, -0.12629538878360483, -0.24200919934140241, -0.0061895997682374655, -0.023323622010520847, 0.21233489558693472, 0.07302921007811504, -0.06761043306356684, -0.03822720016154462, -0.1568506590005605, -0.20652270799280287, 0.15216002074686633, -0.0836045869419233, -0.19405751920517117, 0.07015545122849759, 0.06721314831170364, -0.10613331508491643, 0.0461782982217644], [-0.0505128465643282, 0.06314455187527905, 0.027966862280916018, 0.24470966230487007, -0.13409068994960466, -0.15494686132803082, 0.031279072623292596, -0.07321696771225666, 0.08887785553086698, 0.014697236741933309, 0.04274554249753895, -0.027727741525097153, 0.15229079915930896, -0.0303939324834904, 0.007260600544061748, 0.06054585048844404, 0.20394044705563796, -0.12392103852066856, 0.14728172308592383, 0.08611612303670668, 0.0015070310459948024, -0.12203682748525518, 0.1276772759835623, 0.1289427423190844, -0.09486281182646437, 0.1650030755372001, -0.09504137195705188, -0.1443428850977453, -0.02056094326359482, -0.09955658400258438, -0.009729301970050086, 0.13932945549071418], [0.1050348715713517, -0.048963200545025495, 0.23657232074268547, 0.11163413504140723, -0.0023552791721559636, -0.2172692539293807, -0.1275983945636822, -0.15953516654578284, -0.024773930603081536, 0.02448722309095243, 0.007364699526914559, 0.21549624382619703, -0.07831953837699805, -0.10443795397495433, -0.006985518908226281, 0.1550504991439337, -0.02484496391422098, -0.020625275676818006, -0.17466736233660318, 0.08168247561783641, 0.02648001063325393, -0.0009251776627321636, 0.12247580620155313, -0.1232622378695891, -0.1584950473814965, 0.09393136426001529, 0.1653087631823622, -0.025477229984249238, 0.018767449102125314, 0.0629196563135317, -0.07015274754140739, 0.015077633356885008], [-0.038614531206723174, 0.17959872632755536, 0.08254559177956193, -0.1341945573175777, 0.02756835366159285, -0.2111168367114151, 0.10976690047884678, 0.053510263149542714, 0.008634768671478566, 0.16163221668758979, -0.015831931667173973, -0.02254430457658881, 0.0629738648707605, -0.0813614389461607, 0.004020571720607511, -0.07711802614903321, -0.11756093530399786, -0.008903179109403862, -0.03174049717947846, -0.10865635635907073, 0.06963429970953533, 0.17240744865117127, -0.02606074756733203, 0.06738125360052202, -0.18431049226299043, -0.16613318391944265, 0.1263504884233925, 0.20886717429551352, -0.004350899672163767, -0.06850751156282496, 0.0826733041453903, -0.25907419139067145], [-0.05141348913302325, 0.16375659728635586, -0.09778578337650388, -0.06494590122169452, 0.07120904987309176, 0.045376803441933594, 0.11424682820616346, 0.04276754926505729, 0.2598517137952002, 0.034428769128866235, 0.056769283329841484, 0.079529585204622, -0.1460435109895572, -0.1404538653632762, -0.1270234993709181, -0.07806832831402055, -0.24467159449537385, 0.13235263503332642, 0.15109126897387787, -0.012704929464104987, -0.13718666275149383, 0.10202003657665837, 0.12382156370522795, 0.07714908804103358, -0.02110345186132463, 0.1950678126589761, -0.09357467740952262, 0.051038001444030784, 0.05166649154335121, -0.20092646451196802, -0.11149004867367832, 0.07952789174805877], [-0.0590509859246535, 0.007802221546706847, -0.05125578764644698, -0.07065575809966536, 0.12461697898405415, -0.006223892398509271, 0.13594499854582687, 0.010340762364460852, 0.12966526363027872, -0.022873955795425213, -0.008459822318253658, -0.056623181518090725, 0.11756965005024042, 0.06883146095406104, 0.12177394587088312, 0.13875010970332602, 0.06528655174576224, -0.08888511886530522, 0.07078110285706762, 0.07143408214918712, 0.1309850275112027, 0.034970491021346826, -0.18655201763743695, 0.04379914056828363, -0.0932247568464621, -0.2445103261931371, -0.09825718883613957, 0.043102044375387644, -0.08085233015554602, 0.07213884262395061, -0.0015617404713918208, 0.07786551757464666], [0.13101797440021215, 0.07212227348106533, -0.04632928557260029, 0.055046525278352666, 0.11105362601176749, 0.2414475335890815, 0.033273159875576934, -0.04294973023748492, 0.20305058030952067, 0.1539021085107724, 0.049385262122764916, 0.17950523821984327, -0.07493563230721255, -0.2045711265872936, 0.004631273577277411, 0.06055275671459121, 0.08544145413320971, -0.014866474325541506, 0.06234569150468758, 0.1344457022509524, 0.1390701057636848, 0.04825341391434116, 0.008168941501385021, 0.15864071784149875, 0.05075366798754883, -0.10818895992881372, 0.2268558831066779, 0.027625671896811154, -0.07222010260852892, -0.15967366375779515, 0.001038542064151445, -0.09393653729168762], [0.06935606166259213, 0.028148472958263233, 0.14538588447417247, -0.10176281205844816, -0.06952403312540525, 0.057955123514518966, -0.13800050946044337, -0.06174871313204463, 0.05689094810393136, 0.01657399072053516, -0.048417907210761765, 0.09623046406871305, -0.18431327164248837, 0.02753729753452267, 0.04638130888705622, -0.1825684883471959, 0.04945034281023555, 0.004621746220444599, -0.08186983999633084, -0.01260083713997302, -0.2469016255550258, -0.007929022038320518, 0.09493808696923116, 0.2199134437332974, -0.25061162128875675, -0.19427438452676601, 0.129244801300172, 0.17616477575117412, -0.20159382739940165, -0.223723559410236, 0.093467933206318, 0.06802781017068224], [-0.17278731779823148, -0.1023674560935927, -0.01158672964163825, 0.19014123582145706, 0.0949072284562929, -0.005900149843327663, 0.021222736983676514, 0.13877072765427856, 0.23625701065763133, 0.2784213499361911, -0.14035659257202565, -0.03830832243592139, 0.015812664817958615, 0.07687813558458606, 0.060244566842721455, 0.2684534147989103, 0.03444108300738947, 0.025001335479877887, 0.15934279907039642, 0.01598758962796886, 0.0762771492503066, -0.0856896712129207, -0.046783376073814796, -0.12313371278727257, 0.048266709177885794, -0.15309358860731614, 0.20000812810545285, 0.22272227499016653, -0.022978244149906735, 0.21562319596331184, 0.04289844260629176, 0.0251451128925148], [-0.036289554236245566, -0.17489858712536135, -0.13790784338566342, -0.1875665893093697, 0.08061618975241827, -0.03539123184353804, -0.14426016239967426, 0.12154144037363337, 0.024212705885866343, 0.11103643263531629, 0.12670457363011672, 0.11506735025887467, 0.09624013308378444, -0.1423525760666079, -0.04677279843053279, 0.05180328803234822, -0.18780834612384886, -0.13958850577577064, 0.049064098136467914, -0.1273380580288557, -0.057405838459783386, 0.2006199569122135, -0.15814994635579518, -0.10448746439498165, -0.00217361502816887, 0.31063073714864353, 0.12470547936482085, -0.0748247456256703, -0.04254611718517451, 0.012425596764503355, 0.1324282343627951, 0.03138839962476303], [-0.3177646712526998, -0.289050896211635, -0.25655998237290606, 0.10507666968511681, 0.11555712527523945, 0.04930342030410966, -0.2616408664919219, -0.0209182999984869, 0.07020072397346837, 0.024469037356287377, 0.016207742366709115, 0.1998202488701054, 0.22920108614220422, 0.06580883772770152, 0.0770156026477596, -0.06080330996799978, -0.07902995876098833, 0.12873687622422486, 0.05361761711493182, -0.08216633051736114, 0.1389015771047609, 0.26283708378692466, 0.3368879502507957, -0.013292608567648261, -0.11381057771599798, -0.0410859614194838, 0.19074738129752017, -0.08534125913667939, -0.08644914047326478, -0.1036821608443294, -0.15624458000796063, -0.1206020694961127], [-0.013721266430278538, -0.1590107310476662, 0.05394620844696256, 0.260715081145454, 0.04894012886119992, -0.13518099765876643, 0.09618038758235857, 0.14766639729396994, -0.09228559389138176, -0.052422838156373636, -0.04570496516750386, -0.09646315483382809, 0.0081693443554204, -0.1735273156924257, -0.24790620644351646, -0.09475561566196647, 0.01665863911770626, 0.12936293511717425, -0.10151959513608277, -0.019919042211228713, 0.1895910690231835, 0.07236337109733029, -0.04740745707298032, -0.19777148271268974, -0.0014635991017220137, -0.09829094645942521, 0.2500088588084604, -0.09323762363508031, -0.025585958544261943, 0.03169054096471823, -0.03646469939656261, 0.10228887354564714]], [[-0.039457998472378124, 0.10489831137110502, 0.07829323426461843, 0.14663157427797366, 0.004963747604050444, -0.1435595312658993, 0.20282531302589613, 0.10475899628775676, 0.11532711456086474, 0.1682442440864255, -0.15189805640245577, -0.13205061919988484, 0.011138845186460961, 0.03299835558634918, 0.2351281922136424, -0.09546839598092463, 0.07142180457794631, 0.007274891098982512, 0.024379270520090195, -0.11542962195886806, -0.10717211120996621, -0.06648776360703358, -0.10617452245318626, 0.0018815613634399011, 0.08754055904719263, 0.036903628231673126, -0.21180856759890052, 0.07328783234517659, 0.009021172732615374, 0.2566634694233366, -0.22255344324563495, 0.2910357588283539], [0.022249113150853123, -0.0007645687185551616, 0.02323924973549589, -0.05807509325275795, 0.00028698035896090765, 0.02027874156360462, -0.16854045132438625, 0.03739126892095687, -0.06368811450312256, -0.1418131957864202, -0.34132416475153515, 0.11641003673395468, 0.20047245738381828, 0.03473944678941908, 0.12295396563191432, 0.0041952588665211815, 0.1420639337204667, -0.01648178501173226, 0.06409460508775165, 0.04148237882195173, 0.2360476175716205, 0.05317502744335047, -0.21489618066831256, -0.14840197669991542, 0.03279640065035532, -0.07283080355188268, 0.3313071156838646, 0.11129142367168827, -0.08690642788006472, -0.065965394172375, 0.23085949179211301, 0.01877832910867567], [0.04809364435518597, -0.09175230452258204, 0.05299960331270586, 0.01234518647346119, -0.07953737897950794, -0.11620319225638082, 0.07897302947323064, 0.13997669403189872, 0.07746600135466186, 0.0788922966807244, 0.020155650950979452, 0.08079521981305438, 0.08569913326353701, 0.12002931092952143, 0.1137674356381905, -0.049888978006135856, 0.11269745911861942, 0.007292252771837961, 0.12093253651976525, -0.026535597601663415, -0.25082146050181564, -0.11481980413879676, 0.10554515659942523, -0.0897355926176646, 0.024645383385358606, -0.18109763204897855, 0.13668005194695645, 0.12705640434973037, -0.13204438012727227, -0.1411421284013109, 0.1366680548127043, 0.17754585634468203], [-0.1681494625145436, 0.0924785857003175, -0.05299308683371499, -0.05872665452607042, -0.0839143171249539, -0.10493413754998776, 0.23431266493910732, 0.18315112164920047, 0.03988565722673474, 0.02909104408613268, 0.2040068416894088, -0.24489726000152534, 0.04125138715117387, -0.01681011776163488, -0.007907380634508398, -0.001394912207397514, 0.12931898251801646, 0.10566094004942833, 0.005949038357706545, 0.005689879715707582, 0.017092864769017172, 0.22361835830238766, -0.12611666784537798, -0.03982407009982076, -0.019545116594414564, -0.1258797336713291, -0.049255954924884715, 0.2698455674969759, 0.27851563152960696, 0.061139360050228714, 0.026114610924720064, 0.07943785161489886], [-0.11627674361268932, -0.24774351432817132, 0.0003401310191310552, -0.08623468248347085, -0.01257387145191737, -0.05033705290947864, 0.012225066201836509, -0.06272286466796279, -0.15174724230198106, -0.0634337382284043, -0.040266461650040414, -0.08742599145627226, -0.09059913329606757, 0.09858503155727798, 0.06497086411650578, 0.04451581470323578, -0.009302889334904486, -0.1097207424665888, -0.02490178201155527, -0.1655085079655447, 0.06386271416053334, -0.053940211702557944, -0.1710581750198701, 0.05935482075279761, -0.024042176861666844, -0.11337740624124604, -0.07441940064756059, -0.08459372610626359, 0.04207697719923642, -0.1017178122847244, 0.0005475570681874582, -0.013671095509358187], [-0.017056785086088287, -0.28478700359876247, -0.0024769844836023246, -0.19200039724122722, 0.0699374888399836, -0.009929501890051904, -0.05078649480498445, -0.005310377900307143, 0.12365153955727151, -0.1446977535810101, 0.06748236022359612, -0.08330523328393329, -0.08034354773948915, 0.06601920414940567, 0.004258501019095253, -0.1814940844916204, 0.03974680619286201, 0.08722792560244949, -0.036272006686432864, 0.05879714932625292, 0.025490887856199556, 0.09017026342455754, 0.15087354579753076, -0.07302054142973173, 0.12072927465413083, 0.1345307667232166, -0.08689147251875706, -0.03850900108887008, -0.15808448527199023, 0.11634449235195335, 0.04726129974328183, 0.1400113180513794], [-0.052271861587732074, 0.007997757331767344, -0.010278311869847893, 0.039472511142120685, 0.08334645327719764, 0.04361280012344574, 0.11531371559937165, 0.03282242158328546, 0.04828339969319419, -0.010715990928937194, 0.06958084461996042, -0.020306972919735145, -0.23158970981662685, 0.15431628514501075, -0.003911074289723309, -0.06975562733467569, -0.023151327637104535, 0.1515072668013408, -0.16701279090989513, -0.12064322676455429, -0.2108072885220879, -0.1389920898708608, 0.05160658376377935, 0.11830501673659871, 0.41385140174246826, 0.045250379370233684, 0.16228232868327958, 0.06472319955827371, 0.03218276954107548, -0.09347541982556959, 0.08834332824728454, 0.019018699271392027], [-0.1385792262854198, -0.0032479404357901357, -0.21427953045637077, 0.14724475890153324, 0.23300041648685182, -0.009694535624191529, -0.045574305723419285, -0.014717806669602457, -0.09836779801884529, 0.08390081692783753, -0.20088075598430985, -0.10897108562985178, 0.02069350860005783, 0.10781025362398686, 0.19013595639276687, -0.047092158644873865, 0.017118286981480265, -0.007542969908107479, -0.1668411360081921, -0.04144238301795724, -0.17399213000377517, 0.10845088435679594, 0.017397980547133197, 0.08939232071866064, -0.07613439156145482, -0.08615610238553893, 0.17513351230352744, -0.08231156528855227, -0.19446155562039777, -0.03740633386549452, -0.1110165662077716, 0.09707205847675628], [-0.018291799712049018, 0.07522881258032561, -0.13919512374242518, -0.04480147226680644, -0.013306434511249401, -0.3208656963368999, 0.19519898207968714, -0.1434925138089385, -0.05803179125448222, 0.0795367913092529, -0.1561914321010462, -0.06313213042008327, -0.13438966445343045, 0.05859991958210491, -0.06112116246398069, 0.10596707059294402, 0.047042072193749986, -0.129687834172526, 0.15101195040355245, 0.018601998856052137, -0.026450604115230283, -0.12049028321587885, 0.08578648815625056, 0.024128275070792116, -0.1719995509153473, -0.011413203698148078, -0.04856047365410448, 0.08449136860736049, 0.14282007041646214, 0.040497822028527315, -0.14331432871594077, 0.06371273373768281], [0.03702270178291213, -0.17250729445097548, -0.1489254185988117, 0.007629500939093254, 0.2510940496510454, -0.12491669279282511, -0.07493877107692305, 0.21039303080141203, 0.07845926934003881, 0.254004457678814, 0.34872821010781924, 0.20565698044775685, -0.006881998605880791, -0.020039007779201236, -0.07239248846251557, 0.03489081753533578, 0.03530669334272513, -0.04916926709581581, -0.09572288296279427, -0.07395205038455752, -0.015156847259442179, 0.11587879514393304, 0.2287984697936517, 0.12637888216442547, 0.14098186580187855, 0.11726482161913694, 0.1422392149599394, -0.09943786484127212, -0.029258626350817385, -0.06378828550588718, -0.17543348278922385, 0.07832468576153152], [-0.05616999010192308, 0.14040474449867552, -0.08759526190752154, 0.1554505707978983, 0.27751444533778236, -0.13437363663319526, -0.12439356551462726, 0.07762579045394045, 0.09254126061014772, 0.02971165018429524, 0.14694522785245237, -0.008609079653483414, -0.0013040395924851067, 0.08148272143397012, 0.17307688559665232, 0.00096537989007802, -0.11284081504218937, -0.003714705231263358, 0.007084664610094236, -0.1246939094714393, 0.11527381892293576, 0.11477815541729242, -0.08584855937496454, -0.04215122445798946, -0.004331776283021562, -0.09679508662355502, -0.026592940650209652, 0.2450914378493558, 0.10529191591125033, -0.13804373357155264, -0.10998179843685578, -0.1101957995786868], [0.050725641302009225, -0.06173850627097724, -0.09851436638200185, 0.1657733889796906, 0.06237753551199693, 0.11583233636196885, 0.03504905947225906, -0.23924556276849165, 0.02230590457581246, -0.08052004242367197, 0.05703886476750619, -0.08047270377678227, -0.15121403723913648, 0.024312303215379562, -0.02940358089973171, -0.1691195970636546, -0.029351060575560146, 0.02724362807567823, 0.1737667380779827, -0.08250436483789185, 0.03076064195966464, 0.04017158764204602, 0.08874676143550601, -0.09818925489466929, 0.09222042576937776, -0.03652988879426755, -0.250841094733748, -0.0038336352032425167, 0.21417990823330282, 0.16983097011153306, 0.1374069404491392, 0.009072781485890113], [0.06952846426972852, -0.11505957294043849, 0.04632620024602775, 0.022737628565369022, -0.13040965606142635, 0.004801440176609538, -0.024811062191937502, 0.18441591884373776, 0.09776819378988925, 0.049484117655903215, -0.21945932260950893, 0.0011282239237018165, 0.16273847007710113, -0.0803247502573913, -0.015103422365559172, 0.03576176101799675, 0.07060485081196542, -0.013212608571491192, 0.1774341759658227, 0.022363989428364157, -0.02024733712612226, 0.1355177883942929, 0.08876904403211641, -0.03130818555402257, 0.08364016288170942, -0.2240356731395708, -0.1322811566431036, 0.005298539606981084, -0.0518255023879177, 0.011269204641351158, -0.029426111090885887, 0.012832777453162605], [-0.012730983916975209, 0.1564333535978388, -0.07467997035994073, 0.18924568639769015, 0.053423873035348186, 0.10704796767219742, 0.006855204058095297, 0.27532755043010915, 0.21642522010540466, 0.0014156502568994464, 0.08067502539917293, -0.05154301059353627, -0.14045765095534302, -0.15345545823709164, 0.021029538669619027, 0.1573766480628167, -0.04951664435298315, -0.06391287144468946, -0.008333165209908565, -0.14514090860566267, -0.16418149710836974, 0.011904318608648613, -0.0964371333727566, -0.07126882872257558, -0.14280407202314185, 0.08170220081379147, 0.009420549727880643, -0.05390633018368059, 0.04749810807581911, -0.08388264040913976, -0.15740569031144108, -0.013426953929160716], [0.0014534877732852159, -0.0696432672252394, 0.1895949055005836, -0.061886830899134666, 0.20381503019495772, -0.2698072026923914, -0.12855390479161152, 0.023619130693127197, 0.13726887232947454, -0.0700378373344721, 0.08347162712433369, 0.05640978217413993, 0.08332254345143622, 0.20473981996142934, 0.27434279564139835, -0.043985729361491185, 0.019006526376005042, 0.24156963015607485, 0.07309844240034188, -0.2529777379029286, -0.09299130201275203, 0.3271733066872351, 0.06232638530642895, -0.13059341515081657, -0.014197373475398843, -0.11800667467351054, 0.10624664472767105, 0.1578486503429688, 0.15559610007962463, 0.09693051947699441, 0.0843179272494947, -0.016496689996882304], [0.017957010620224062, -0.12313881578908582, -0.05361105299895323, 0.04907088064603772, -0.010470793839714873, 0.1020646246647159, -0.06256585159976684, -0.04344495651895327, -0.2897081539894411, 0.026736846112120977, 0.19975391658430255, 0.005974533929527097, 0.01586208493313314, 0.11088684676281048, -0.07797038884180046, 0.07720474362978745, 0.046645283043961996, -0.0155083069554383, -0.1582932545629332, 0.02182085641190513, 0.1773216174269676, 0.13230748774295625, -0.03717206218849561, -0.07116136870343431, 0.07050730353143615, -0.0799090885616734, 0.06415764526934921, 0.10245923158679904, -0.08479783654294767, -0.19706313525392183, -0.07723124812673511, -0.041568106625061434]]], [[[0.10770401225866313, -0.01004789413155159, 0.07611543932788263, -0.14412649288983734, -0.06746197240710462, -0.07534016518756048, 0.18356376160953666, 0.0334014316077216, 0.1426498721125548, 0.015956133608987042, 0.21625356711200064, 0.10548124174156985, -0.07120119524246067, 0.010474797899741898, 0.043351948294548776, 0.0340628226325475, -0.16034561775717676, 0.04364232525492723, 0.10376298356510337, 0.06883868340375711, -0.09778596347153518, -0.06122162812183946, -0.28841654305719155, -0.09118845851509388, 0.027363805363402136, -0.06986218806529323, 0.030649425470564515, 0.2665245219935033, 0.017012588632034923, 0.02441056922383983, 0.03548995470899884, -0.1456598710228905], [-0.08509252837946706, 0.09643439317166837, -0.07465296593384468, -0.03913957610900413, 0.07957691797519, -0.028574365258452958, -0.016306400557473833, 0.011522609732409496, 0.01952475295051747, -0.05025510762037979, 0.022518006746940482, -0.06646250861096657, -0.10878185722971459, -0.09059021234588926, -0.040889948785866194, 0.021339502105495095, -0.31298367941362915, -0.036961828832314414, 0.008542477265359583, 0.009830754449465256, 0.07767844015054426, -0.04461155723419042, -0.014368070850242906, 0.14032733488645083, 0.18495351421987719, 0.07906911163728922, -0.142359511991437, -0.00516227640130504, 0.07065010366723354, -0.13944441459929077, 0.08117403704183823, -0.014000741666579905], [-0.014860093335919639, -0.2692783333394634, -0.09747734370190073, -0.11726412472075835, -0.09100720950708448, -0.0207202715894352, -0.037001279753313014, 0.05334591608540307, 0.12775645045328432, -0.12419848486718015, -0.2164900993395894, 0.007096689045664127, 0.058065918703705637, 0.28218271942317685, -0.20233548755019135, 0.48881982863886186, -0.13229133888952918, 0.30624122086654026, 0.08114955683027988, -0.01995815791436692, -0.18416767932562073, -0.08876337396301444, 0.062249794885085995, -0.14703915464318978, 0.040383584216279925, 0.14137675094849192, -0.040823474720577166, 0.17903739717589112, -0.06302807421404057, -0.18822913770146737, -0.13399682874173444, -0.02544728571792968], [-0.05954498815672258, -0.20782107634606756, -0.052441285123099875, 0.08313066396709497, -0.012910245374819456, 0.012352831095592239, -0.07392361180008963, 0.05381358083373234, 0.07112968007989372, -0.08676063415272828, 0.011221811408389749, -0.10968491050758447, -0.24830068548318485, -0.04325266564327817, -0.014974776244129639, 0.07296267163186784, -0.114994001074156, -0.04363977732140098, 0.12662656519402524, 0.1153510235429066, 0.03632100878889347, 0.25375438056813693, -0.03842573425402263, -0.041114587030523266, -0.03140639607105589, 0.06243470126961701, 0.1985819602441579, 0.24963056581587353, -0.1502495009019952, -0.08929737946036324, 0.050897497561717256, -0.07795297931787201], [-0.2551699453199378, -0.007697636439592392, -0.008335189181417341, -0.1463685872340281, -0.12308917728553795, -0.07399345140116569, 0.1634309262670189, -0.007522816271705805, -0.13047975013150676, -0.06084707884272034, 0.002946824979070503, 0.07075321908194329, -0.007060954795452445, 0.22829604637801373, 0.12770470486009247, 0.17694730236975878, -0.033950461665530195, 0.29220535808192605, 0.09408567913639829, 0.29037512989647274, -0.10021291064805202, 0.1279905504540206, 0.050343130937178064, -0.08639322900376753, -0.006594680125908396, 0.060126433133944744, 0.171830005320457, -0.012701390003121713, 0.18296763103175928, -0.03493145507929194, -0.03595781142923443, -0.08280609432203569], [-0.20153020283940298, -0.05373380192523882, 0.011766587523538222, -0.0850544864756068, 0.3908712943030762, 0.21181486225564092, 0.1795759736023004, 0.14137057865460723, 0.08879774006223111, 0.09963337135679065, 0.145136196674548, 0.20714789298973132, -0.10386351565624595, -0.010997113977273393, 0.15028740451481207, -0.05409449540077749, 0.08624536465448635, 0.05797578455764845, 0.011572374450730755, 0.21128006136345376, 0.09013013600063559, 0.18011695120236912, 0.14572344398757486, -0.0711565806776468, 0.15501959925474992, 0.03206341311724598, 0.11506780124609131, 0.04062315499893504, -0.018634197799365756, -0.29004684433236094, -0.1434253565974824, -0.22807804876558843], [-0.08161561381083636, -0.17122387564432923, 0.16221075595791357, -0.10023658110915105, 0.11541435291439792, -0.02706166631673825, -0.08573008728885338, -0.08440450020168797, 0.07751476296886234, -0.1824926419865092, 0.1294239680728568, -0.010905925161590698, 0.015150611198599501, 0.08914996862849513, 0.05418726273348445, -0.0233466992644157, -0.0074251456876574485, -0.18284073868706213, -0.07364907183733478, 0.1752602242265846, -0.009513696500309709, -0.0023884405912351077, 0.1674660605936642, 0.08149955536167064, -0.023654884888211113, 0.08390560296376418, 0.2875336630025541, -0.04886679912458693, 0.1314128023903889, -0.10678670929670209, 0.0540251786023491, -0.05097949895573582], [-0.050528301045834965, 0.04147909842122739, -0.08780844682861683, -0.0013726228544998205, -0.07941648678657282, 0.05175347654459863, 0.07054471117403538, -0.1769150134377668, -0.01339500487958708, -0.1083239694903397, 0.10957157494057211, -0.08025767141056883, -0.07556376529086971, 0.19061926525308906, 0.08552965471872857, -0.09230249808033261, 0.007000035242413532, -0.05653890127645805, 0.08737130321626596, 0.015433811571878188, -0.2510675825223414, -0.08243400390937031, -0.0180379113363792, -0.09411324261584579, -0.011990724401981491, 0.11028645707563138, -0.04303042540086458, 0.11825874710339207, -0.13544739979830386, -0.19968526281306706, 0.027453321880460388, -0.06028343833348872], [-0.10419025403333351, 0.32659898755973676, -0.1672427090964008, 0.07221000514016568, 0.1554445386359968, 0.07480146379347893, 0.14089201623108105, 0.14789175941904795, 0.017598183850417653, -0.03215136182116196, 0.14896604736841315, -0.1794358366744855, 0.04124470505096837, 0.0723615427888539, 0.05222363715393458, 0.15963756107189525, -0.07225126359498658, 0.01129860914453122, 0.10319913936545536, -0.10490634727669094, -0.005149738495859082, -0.13668610830778463, 0.1349351435393065, 0.14359004012728765, -0.07348472590801343, 0.1237232948207938, 0.07654044317431355, 0.06448419081524466, 0.0011112672648220174, 0.1733187249120508, -0.054179186577949914, 0.06899942921737612], [0.028865651663615436, -0.04415993414323399, 0.1295079881214728, 0.05650129949015079, 0.19218615063371244, 0.10967315860205853, 0.17953212508629637, -0.004710842063792239, 0.2085180456832492, 0.0034384309807319368, 0.083907043432346, -0.07409551120980777, -0.1389451453655406, 0.04459677626259128, -0.030472717061481976, -0.0025106027890055547, -0.1705503825191531, 0.1411889436357252, 0.13889627600581972, 0.17608307029359754, 0.1653476120645936, 0.007911385161598814, -0.02726869523715763, 0.10986911345169575, 0.09635341388668203, 0.07365616714124401, 0.09335284272853293, -0.09669923587077388, 0.09888477572961106, -0.07778642193636454, -0.25630032430066474, 0.08589296863814654], [-0.011497352193052033, -0.010054629724406265, 0.08500753122454989, 0.003012935488631914, -0.11931564168219895, 0.04620726736561952, 0.004240729019006824, -0.029500535386302006, 0.10756876660157026, -0.00573441094597171, 0.015179416287406027, -0.17687453920235846, 0.2513864627002667, 0.05965540793700701, -0.040312972885940636, 0.04613654061837416, -0.013764832729941582, 0.02259395839072689, 0.07913519490862675, -0.052053197437767144, -0.05566618889730124, 0.12073758788716162, 0.054676390845557594, -0.08380948088004511, 0.10816930544135682, 0.01842675342062263, 0.13447494598674545, -0.0878138136561017, 0.04256104667685813, 0.13344177282090688, -0.058126912433174555, -0.07267404970097242], [-0.14432380383887838, -0.03261960296708635, -0.11314113369433029, -0.04783187946837727, 0.19332453275129993, 0.14741454736831916, -0.14099713315234863, 0.05507291117681613, -0.12241995332375002, 0.05334767613162442, 0.10344334329933076, -0.03774009332594804, 0.1192114100944838, -0.10988858092154163, 0.2369200747556056, -0.0022526275248497037, 0.22030828983723205, 0.15734369118598335, -0.007021591544323625, -0.22745757317119467, -0.04551806263071158, 0.1954662773673021, -0.14337330693378855, 0.09877783623417656, -0.1358220818977009, 0.05172707173975666, -0.020780350726115338, 0.012615462985850283, -0.041332673539094526, -0.0891291942980941, -0.02707501978787739, 0.11433992931864147], [-0.18289668446843066, -0.1436670681622247, -0.04527425152060764, 0.23445395473024291, -0.039567666449983295, -0.025135775148986295, -0.0591979525021896, 0.08386915055230253, -0.11883348444108041, -0.04333311909081761, -0.011018033465904324, 0.050899566684508166, 0.02863691874804126, -0.029532545378872784, 0.17774722690039488, 0.09300588521649882, 0.21782350836262615, 0.05077774562773026, 0.40983991485635407, 0.1489836687892709, -0.12277265196153181, 0.01635459249389929, -0.005565193259219051, 0.10111117852160827, -0.059446809197157675, -0.006019803662897811, -0.06341932934500887, 0.10340760936765603, -0.1582469537010681, -0.0873231977312141, -0.022021498419245132, -0.11343996105179611], [-0.05901063634627477, 0.08973522375355211, 0.17963910873070812, -0.1024634376890894, -0.042331888357486615, 0.1132647369339001, -0.19542897548314545, -0.1657955981750384, -0.0212410490554459, 0.10146133098012615, 0.18074464117807484, 0.17923019838089851, 0.04952934244400701, -0.014014718385502773, 0.19617967993716276, 0.16778609839509803, -0.11226983012326266, 0.21420836620096187, 0.15159336607363208, 0.011023211690204844, -0.1929420652238007, 0.02022020392430478, 0.018024968375829835, 0.035530325273273246, -0.0514226318417593, -0.07919887392418197, 0.1353050977164195, -0.08494045537556107, 0.1693067336938899, -0.06104051723943509, -0.12477778114393931, 0.0757656028724898], [0.1079526429161791, 0.08129378229933783, -0.04490564012158374, 0.013467725928915842, -0.09553028281271012, 0.2913799990060672, 0.2339146602366896, -0.048904017504932805, 0.05984750499883935, -0.06468973789476015, -0.03142425658675566, 0.028296544580029427, 0.08669739162447035, 0.12378878906941848, -0.22763219749637456, 0.042230511776688184, 0.07699499924453082, 0.2632349512495524, -0.11631442347924387, 0.0932328650403986, -0.006159259431899016, -0.05751665661676131, 0.09821103768998644, -0.06590326202324268, 0.06639215369091077, -0.06234553351231786, -0.007898803365244443, 0.11971663051465695, -0.1762234632671992, 0.09380138471825322, -0.06349728691682834, -0.1771748693620384], [-0.08315892619977763, 0.1516891808028922, -0.02776441041861016, -0.02807083608259661, -0.20056767238811915, -0.17866388042786, 0.08962047532962415, 0.10193915256691186, 0.1683220933002774, 0.14895359859104945, 0.08672275246434986, -0.15880539652848588, -0.07673936510551221, 0.020548094086246745, 0.11035901539716066, -0.20683710604728392, -0.0801691032303951, 0.013998998407456787, 0.10365286234054413, 0.2199821522938726, 0.10559293637533264, 0.06076550001548596, 0.053032659962990746, -0.3539096071438329, -0.17003662281233664, -0.05359949371246181, -0.016438528272855822, 0.2879259039667155, -0.01553544207555393, -0.17411978734818434, -0.026675162428206813, 0.027693391960388513]], [[-0.03524165962275781, -0.18324921461230553, -0.01915505396748544, 0.03613920053229794, 0.051207635750274746, 0.30161218319345373, 0.06497038464173786, -0.05198177093363635, -0.026768406291378423, -0.062292283601663306, 0.04533030582557236, 0.10190201539758081, 0.12075903397563656, 0.008442152998781002, -0.19857131728835592, 0.022202816834948916, -0.24051773820301187, 0.07314664237708117, 0.20179298463048642, 0.07466667332359024, -0.012097050049659181, -0.1498005699227988, -0.15557476644973375, -0.1614925897870824, 0.15115802729963776, 0.009267352213044344, 0.16409784699736765, -0.186569336952053, 0.029612100484846384, -0.019915457663291947, -0.05129176983055563, 0.1490060302665195], [0.2622699815865463, 0.05453333273703417, 0.010183809356227525, -0.20747146480309037, -0.004934431428723954, 0.08055640652441395, 0.05821232134968385, 0.014835333912479848, -0.21954442810110344, -0.16768633856960272, -0.22141691362587892, 0.062891761022044, -0.29904923876566486, 0.19608088870861, -0.19295041630188722, 0.025026122421739433, -0.0708919418920345, 0.034274576299314324, -0.14894051712867915, -0.05948836060716509, -0.12669266378152957, -0.18597482268734536, 0.08244820985194592, -0.11531393505665577, -0.11737315848599095, 0.17145632640672018, 0.09354828652145646, 0.16152829352980375, -0.05764724835566716, 0.05815338567762801, 0.00761218811434099, 0.09362755176371793], [-0.07584419863171497, -0.020202843149534067, 0.06852491324121016, 0.07632697588465198, 0.24836585934189856, 0.2735254152854046, -0.16805327738419923, 0.1513813641031724, 0.13824609696654483, 0.19411826338335286, -0.013748655450109863, -0.12734595361843873, -0.06284354062459063, 0.2290238859202869, 0.0793811662283861, 0.2613358015314249, 0.08434831252163816, 0.07786705125558144, -0.05384340438342846, -0.02427345786153588, 0.03481310970295946, 0.12909612203773554, 0.03324248187150669, -0.011870880770349182, -0.10034973005748031, 0.07075545498352188, 0.16508966727130178, 0.2204657143438322, -0.17183427464485107, -0.08628533598416134, -0.2860664012791172, -0.03990808439317684], [0.13480094138655035, 0.06071367751972299, -0.08742970240168954, 0.009787203461526686, 0.10192826514642275, 0.020098374824539175, -0.12266854790608564, 0.18614390313647822, 0.09566210811510256, -0.1076325940665587, 0.26818140860915723, -0.0564999713645499, 0.028545364561588387, 0.00330428413528176, -0.19329568339634495, -0.2500652387871942, 0.10417571387580804, 0.03630047494186036, -0.19541273265528933, -0.028366637487702902, -0.016893091599023757, -0.006443928473143455, 0.04648472708370089, 0.03929558644139177, -0.131075984030684, 0.09870088525097584, 0.029769958923531015, 0.06714640687887215, -0.11287095975680508, -0.06640950623148668, 0.02093082874388373, -0.07352195502230209], [0.07816503785132971, 0.1810190045454524, -0.04692201075688818, 0.16475441485504702, -0.09729881769380247, 0.24437900447791472, -0.22501881930716447, -0.03881570204414843, -0.07387877820492009, 0.27819248460194407, -0.11231317093371208, 0.012419956313197167, -0.23549555404007003, 0.020596641414538007, -0.014178811580004756, -0.10182041079264376, 0.11217055592222643, -0.02848622569061599, -0.14518044943755296, 0.08074744304489029, 0.03289173770073926, -0.04209525600044925, 0.20742448031708982, 0.12514425853528258, 0.021815980862325727, 0.030290270681993848, -0.009796133663107975, -0.02205532945134538, -0.1077036147996301, 0.003934289076247289, -0.09838875218411054, -0.09743416132171322], [-0.04233037411868502, -0.12775178793395578, -0.1788142891541548, -0.059984546847234324, 0.011334282804009603, -0.008691841810113291, 0.09989532182858249, -0.022987483780355873, -0.153766821949255, 0.12470668296965984, -0.08317812369918785, -0.03358761387721002, 0.0026584293218977102, -0.006875369676399004, -0.05701988322876542, 0.022234650581009006, -0.22590147163329963, -0.0396351835442911, 0.13218671684974126, -0.010763454206120253, 0.05490862314993132, -0.05776547656617239, -0.08216025005112276, -0.11034246821362002, 0.16436222517014681, 0.1759396950155087, -0.05493922098346828, 0.024061282326602627, 0.129112799154292, 0.06672302676662166, -0.08005305375104309, -0.11766563018604341], [0.1188267540177756, -0.08186059887730142, -0.003362266486446431, 0.14295435626568678, -0.052384428765311346, 0.11574525623830387, -0.06494201858580931, 0.037445651433384665, -0.1512636488179924, 0.0344795451893927, 0.08719683720959101, -0.021875190703016693, -0.0026538940425993385, -0.06791606732828268, -0.01548809198296965, -0.07343814714365902, 0.19844043794090407, 0.07010611012668876, 0.14518545768559732, -0.2381969331808463, -0.08520569369008124, -0.27565698655832344, -0.0676953445862197, 0.07296357257418788, 0.06210856229146908, 0.008059527564874361, 0.042542561455289785, 0.0579758684749634, -0.15994246870821144, 0.08770190490793955, 0.04493689744202018, 0.08697227613768611], [0.10960297568925617, 0.11571876734370337, -0.09188090952304888, 0.004970049682814531, -0.011667103800080241, 0.06317258178637207, -0.14210084702499579, -0.025472411722806045, 0.13427931617104108, 0.16886087718782689, -0.002652215380937518, 0.060868074668122316, 0.03905960045616431, 0.02708389324566073, -0.2650728072608096, 0.28019953782870893, 0.07066139263775338, -0.0009555362993337769, -0.0030108290491963133, -0.03059976422045416, -0.06752856542097731, -0.07811453389405301, -0.0027142476736108623, -0.1128878099600334, 0.1921687763174281, -0.005045021919196503, -0.2887932331512346, 0.26317805290930146, 0.07580584115187104, -0.1604607933186315, -0.0852635316175218, 0.3443661724978124], [-0.10316912903906242, -0.047182643520025776, 0.25890659080556666, -0.10644638772261655, -0.29520407562554796, 0.29761593156426913, 0.1004732999691329, -0.02968746326642511, -0.021405906377566696, -0.19879439796103937, 0.030208814773169935, 0.027449258591610456, -0.01361038819853162, -0.05027913879308924, -0.009979956750437786, 0.23906506829241486, -0.015622777781646063, -0.07500709440386366, 0.16434382543580817, -0.13124128987570516, -0.22662203597464844, 0.03103187145714399, -0.023900260337484085, -0.006267802749621754, -0.083645274284579, 0.040963338175432115, -0.09348298532830457, -0.07827354476555047, 0.030551698710503835, 0.14763044542035153, -0.08399598507669356, 0.05981695889086354], [-0.0804357593228959, -0.016169479734821104, 0.061258378897845724, -0.05168445743841978, 0.011404086718960054, 0.006951390294857909, 0.008735117309120775, 0.13340811510471046, 0.10069920203102926, 0.1031964560516852, -0.22463815237452828, 0.14703732476183207, -0.09363373925926548, -0.03250377910635083, 0.017454356019790195, -0.031935618333641086, -0.08956498073919174, 0.009612548861086883, -0.011601588244849864, -0.03336005155751995, 0.04650113795187972, 0.1584981746197036, 0.0036717970206919916, -0.08535088009722405, 0.08847737560856019, -0.08978773456650378, -0.08544707367399847, 0.19112246964041132, 0.03658832046007308, -0.19206037593892047, 0.14183719992313285, 0.18855356480344324], [-0.03512912649521331, -0.00369407845968735, -0.12372711979817641, 0.035464478518786695, 0.06423433141811923, -0.06588053779613363, -0.12020224606863225, -0.027654502295169376, 0.1406286108007696, 0.17834435161937584, 0.020365970680855928, -0.1257302839641198, 0.16477251467908305, 0.06322286050358975, 0.025603406556602468, 0.045525607176172204, -0.15230722179140055, 0.1686347902025132, 0.1902475944179348, -0.03820451985610772, 0.03114094627152538, -0.07933241477456787, -0.10385053729373844, -0.022042210728956943, 0.036801802988330974, 0.16357171550342653, -0.06866118377222559, 0.03955453385801328, -0.009692347699371164, 0.027381784386877023, -0.25130034641269494, 0.2427085210341091], [-0.08936136268097007, 0.19270431413738456, -0.15626762570837321, -0.07930265887862864, 0.08697126489596903, 0.12290456194992458, 0.17153950812392657, 0.03591641130089715, 0.26036592382019413, 0.1178146695790826, 0.03575143107687916, 0.015147767466331535, 0.09731950761803018, 0.03735184065954666, -0.14437056032804138, -0.08979760099106235, -0.04646797898092515, -0.030468908337659202, 0.09154626309642619, -0.0976281395200212, 0.0976410787162988, -0.040110107801123736, -0.035840948394781094, -0.030409521888324208, 0.14591675232290696, 0.08516736746670654, -0.15516267848716464, 0.27963940493164907, 0.0360992570352552, 0.021432986680028798, -0.1336803520907637, -0.23445379315509307], [-0.05179755701596657, -0.013572691601419577, 0.011893771657477849, -0.04258825921247411, -0.08248978327494073, 0.06083975867521482, -0.14897796194153323, -0.001246827674716413, 0.06989020049502014, 0.06605825878457242, 0.02038346353179084, -0.007891993103232955, -0.009587951589149333, -0.1227625340244851, -0.01130182644208451, 0.03150293410152341, -0.023992479972001518, 0.16757160620908432, -0.0773622188780083, 0.1173652044025414, 0.04978250950526037, -0.10746012680572349, -0.10610141358347472, -0.02029063577485151, 0.09423975054792033, -0.0012294116144802416, -0.0266826843098516, -0.11093585216818865, 0.1356151064650418, 0.1636762496978697, 0.21257418412748105, -0.08591156925984744], [-0.16309137137568944, 0.14623325760433092, -0.21002671408789367, -0.017875499093620677, -0.15152653253811285, -0.05138232219756864, 0.09652933676907709, 0.139736255272807, 0.07852150792937458, -0.02723793898661017, -0.056092809283475834, -0.046201839553158416, -0.06231745931513383, 0.14576656837183266, 0.04651779643189872, -0.08566213616439926, 0.1555741658680375, 0.015205029416931982, 0.07305110142585863, 0.2631715905266528, 0.09455211917578506, -0.037450507691899684, 0.0734024875566063, 0.017661805173511683, 0.10955081714208799, -0.022531622414276475, 0.05503067230268591, 0.19911268316027636, 0.12515795073323413, -0.08067755072814212, -0.15103010451895002, 0.06554130156550698], [0.04601588510085976, 0.1741051506708485, 0.03384128235302788, 0.10530244066609282, -0.1796886726310366, -0.048694421861479535, 0.07995923015373248, 0.08902934175511486, 0.11435363198373731, 0.14392504732785064, -0.04842557764177545, -0.034479247874873345, 0.044546438456243134, -0.036891767467223745, 0.02810122207478173, 0.12060867919062003, 0.18819030778009635, 0.1983851865894789, 0.07816638022183309, -0.13148003854809287, -0.029822395514020064, -0.02473025099980583, 0.05697322428483937, 0.13575341278402947, 0.1781566407303506, -0.04390485016271906, 0.026395926950095037, 0.12630157981412377, -0.09438089964446152, -0.03382788450043524, -0.034392396246289335, 0.18245032877052728], [0.24207766346184836, -0.05317008589415287, 0.08150024297300244, -0.1423433500032153, 0.283984176862935, -0.15203672351688471, 0.017689606459251696, 0.1496636390643592, -0.1724662233676207, 0.027104010944550627, 0.4011884420828537, 0.10086796020920354, -0.04660497060636861, 0.044736472488337994, 0.029265707983888254, 0.0759583502808701, 0.04924445521492572, 0.1711335649700963, 0.07623344859351168, 0.04755683724827274, 0.21494673333390588, 0.048755316978200146, -0.09376671411157218, 0.006079843615287724, -0.09001185867714245, -0.017049125526977075, 0.10759170673250876, -0.04201530001194789, -0.2778105593902997, -0.09855245074473888, -0.1016167474336438, -0.07417608801961212]], [[0.08824374247483166, 0.0754210720878257, 0.05347258328754964, 0.028461492198154116, -0.13560324130100573, -0.2224929101159786, -0.03061729001345217, -0.16486442007641436, 0.19331411184956712, 0.00808943515988779, -0.19775963931940183, -0.027949749911226136, 0.005926629100373385, 0.1335506253612425, 0.10675639751247586, -0.09332913035189581, 0.06482498904805016, 0.1844584091651903, 0.05713676008495535, -0.05353511739190186, -0.006830410893139044, -0.10725242959293285, 0.07955312586272431, -0.11419606367118167, 0.06860771369820888, -0.02251613641903611, -0.055197152981625384, 0.17846910099426658, 0.002086067205632996, 0.01970967080279727, 0.10740477801419011, 0.06040353569087121], [0.009815819742421763, 0.0870878465169159, -0.12012593490627027, -0.026036515054158438, -0.18703411137910927, -0.112726872972431, 0.07317709074704057, 0.07572695498257832, 0.0805594522626544, 0.23926940347174647, 0.2067972221738601, 0.0618828652855286, 0.016041182393076347, 0.01826675724760821, 0.08721720550651867, 0.14402484527832057, 0.009123203439263972, 0.05017466079247271, -0.07373769867572805, -0.14630799268042172, -0.1549708707403809, 0.16642572644707943, -0.12338278365677809, 0.05890892305140976, -0.023827769639240416, -0.23248228213327457, -0.027677479725261297, 0.13936898966969838, 0.1272585319664537, 0.0177876545136946, -0.1342210119741361, 0.17605022529923114], [-0.12519343216236936, 0.017555412438597904, 0.1568453589164778, 0.014951240077229616, -0.0522985095974424, 0.10003976766898563, 0.020826660082469774, 0.02933335365238152, 0.0285955481087289, 0.03181759573693151, -0.013095688368288469, 0.040228095022416185, 0.000646218679421708, -0.15835489043869316, 0.13548384332650415, 0.11790634968813038, -0.01027307957685488, 0.13014620557009515, 0.15442193659995906, -0.06511490535876055, -0.009998783589668669, -0.04601065254347629, -0.009949111660081436, 0.1283390799070151, -0.033898707974777044, -0.11312403072903944, 0.12106610271532761, 0.15366552841497633, 0.1343247498027161, 0.12459347035486631, -0.11399161355323216, -0.08939608126398628], [-0.20220293480420712, -0.10880659171390444, 0.17993951943135966, -0.125012326649727, 0.11557336506932624, 0.26142472663231653, 0.060931677068657854, -0.050567031119449414, -0.35791487307827136, -0.041706798561662164, 0.0691780823335079, 0.24035658229685833, 0.19765998550041022, 0.17100063991153444, 0.17593077458630318, -0.13813324934978954, 0.02741702882341623, 0.23378574237594887, 0.014012234527993486, -0.033641751617764705, 0.026308345696007266, 0.03185946244350364, -0.0855264329905729, -0.017897054108783207, -0.14676744145966006, 0.1572829845958807, 0.0959856052435459, 0.056884396838663163, -0.07998165913583788, -0.02191034267521881, 0.11817083662398045, 0.06464965570526729], [-0.10716993037674481, -0.02127009065492669, 0.11100715878124943, 0.026337069113745275, 0.014612430871116052, -0.2082607740150388, -0.29612418761051046, -0.08429431872411114, -0.059551727315196944, 0.035272595447492706, 0.13591291862266033, 0.1662791010536902, -0.04897262848230298, 0.1410627331818871, 0.07093148573179213, -0.059588638942069616, 0.07230650770806031, -0.17798062494454525, -0.1838791152030625, 0.09198655212882327, 0.12160862197297845, -0.42466629128111605, 0.15077839139897467, -0.1323205138570622, -0.09563236398165413, -0.008179168357436838, -0.11545497830869507, 0.12430049597652096, 0.2514788440947518, -0.16325277461742202, -0.06924550361225891, -0.11065034354203458], [0.044103404797184394, 0.22265449538463924, 0.09743151405332053, -0.04132168097782992, -0.2512303800270581, 0.028960449970076227, 0.17437530204168897, 0.1293853111563152, 0.08758788078874942, -0.011316039636711371, 0.18973859776445257, 0.182363777097026, 0.07372290161102976, 0.16050148289596566, 0.11491311433531626, 0.1072963014477575, 0.1372942555951335, 0.07930550486323282, 0.24139294265615363, 0.09427981960381963, 0.09451717762350913, -0.12049347857943832, -0.12534562381985276, 0.02023844148404835, 0.04424979324006974, -0.10539086773547185, -0.032242422143612344, 0.13989877881577426, -0.021359770311083298, -0.04448930822506713, -0.13534835600051154, 0.05913824885821155], [0.15019837236479316, -0.11819153700009627, 0.012713952051411567, -0.001501220919523777, -0.10691307998150112, -0.1604461379769186, 0.053162612384092534, -0.15470537149916902, 0.0523832522349951, 0.09758898600602053, 0.1371381005854728, -0.12707239978045173, -0.11894189830925452, 0.08149624018767086, -0.339389367958492, -0.026320564747506586, -0.13372840711741757, -0.08310634468222099, -0.19027347854283524, 0.12310155510697837, -0.029963385528294348, -0.01578126844329042, -0.05968357137693121, -0.0073773394485680465, 0.006890039030351201, -0.14094243356498104, -0.09855724769608941, 0.08425130379075839, 0.040171428399433266, 0.16613913949938613, -0.016613388480907522, -0.04010824046385367], [-0.2015917950586612, 0.09087289070116682, -0.057114557240886966, -0.015985060605529, 0.032245492564647246, 0.08309300227375979, -0.01833350242925124, 0.15840666255913574, -0.19170617436388737, -0.0921137429207187, 0.17605024159812163, -0.20874744359599537, 0.26922284089866605, 0.2827940799676873, 0.1245133411600411, 0.0481430450412261, -0.019706237962160252, 0.1409674762395582, 0.10888815372129852, 0.09571414877795065, 0.11285331707477303, -0.04949042973796272, -0.024647455011584267, -0.11427565231893426, 0.0039955481905372, -0.046413885535583455, -0.08110953281227569, 0.0788389078129084, 0.20866090172501778, 0.08167707277459216, 0.04172421747832233, 0.37524064488833553], [-0.06549467294838232, -0.18366492843465954, 0.22517877070146688, 0.14946175078709978, -0.07172008376444083, -0.18589733790031931, -0.043376864030632505, 0.00020987007062777158, 0.06406639910204176, -0.06553538664531042, -0.1333826002791541, -0.12484324832593649, 0.0649397425527051, 0.012096846667717326, -0.2671746809099804, 0.1578296018134855, 0.014937108351184432, 0.15302408943141396, 0.040428099460822306, -0.0011247757647305846, -0.1170642860911948, 0.0425798039103152, 0.012889516674556158, -0.0477077571836036, -0.004847086878544036, -0.11865344515242947, 0.0187971395473644, -0.023860650804017777, -0.10876299044614278, 0.0007380298172746543, 0.07100313210033728, 0.07907332697972108], [0.12214135217294297, -0.0369923261629919, -0.0016892240387976773, 0.029474790520105862, 0.04264351089868616, 0.030430329247759777, 0.01651179106811888, -0.06140372444485992, 0.12640730795120042, -0.022171027493285794, 0.047951520482787224, -0.029802366047909076, 0.00949578548865011, 0.06903092572311004, 0.10132096679841245, -0.2984100730213064, -0.021276559998474547, -0.12036403651193435, 0.17823659676977743, -0.23644658203022534, 0.03358520692284698, 0.08022532783974452, -0.030182065893086835, 0.11082681892443948, -0.20332786996564992, -0.18256768711534566, 0.19147083222163497, -0.1456191576158492, -0.021947594625452507, 0.17589759310357908, 0.09263603433117015, -0.2147599656740727], [-0.1739868169066027, -0.10616973669508448, -0.04270217301730211, 0.04097428883427797, -0.26514460062205836, 0.1237553517571352, -0.03900065656432674, -0.16586425368728408, 0.07348372875064552, -0.007113451140953593, -0.10522384805320792, -0.11330669432521924, -0.025438270154685506, 0.27387771247649756, -0.20231164218177347, -0.026675849531970632, -0.11743386495485775, -0.09549723502358491, 0.035500271724926785, -0.09446409985040258, -0.18723112887936968, -0.13685550145742004, 0.01379110490517534, -0.005578839765092235, -0.11905474346198378, 0.09241026353299726, -0.03894746137354786, -0.04930541369592901, 0.03808241943211086, -0.026853176382847413, 0.04509323572426706, -0.04716048587187363], [-0.15362573385379322, -0.25485332916978415, 0.149439082459473, -0.35135442017314333, -0.10450386819992914, 0.06915431554181922, -0.04162293343064066, -0.10040582178845274, 0.1378605158405323, -0.10802086606533699, 0.04435096855558513, 0.4052582580715402, -0.0972266167919272, 0.008442064859648065, -0.09704241107374247, 0.10621664078265541, 0.004903761929131666, 0.14041775809586743, -0.07236904855491567, 0.049255994128958314, 0.05161480744052202, 0.09953872682080396, 0.01917470418959145, -0.06914485486167775, 0.12402864062036884, -0.0625141453028467, 0.1578775543836392, -0.013013833839708154, 0.08678599825912989, 0.07738489650484004, -0.06912216766442182, -0.06548218684770676], [-0.14484256702856826, 0.15717181606453848, 0.0866194174475251, 0.09924912955946341, -0.020454578143940638, -0.17914556705470255, 0.08666835339126362, 0.0009964857826121097, 0.22602151753318675, 0.11557322170217665, 0.08265080771344979, -0.0243222571360097, 0.0891700858605322, -0.084009843031885, 0.13932515726396233, -0.16353699262139704, -0.01630013496074886, 0.14624116840939147, -0.1075587883982359, 0.0008738891822126809, 0.1645989017236926, -0.010981833492245085, 0.032439456475879556, -0.24581473720523242, -0.011753798723181835, -0.04193058986824875, 0.0684797586731284, -0.031425429438056526, 0.1788887544591969, 0.10449894771751692, -0.023297237217671296, -0.13905799853364836], [-0.05900796673846115, -0.1172337357835123, 0.0348980611818547, 0.15055652189529153, -0.18366257753514387, -0.07456780761708083, -0.11701353916476644, -0.09957066727402898, 0.047640146017901924, -0.19564947376445446, -0.04542574696132534, 0.021041311695594797, -0.2799239351885817, -0.03333040998131669, 0.045801056969261705, -0.006708015036446617, -0.04094880033108399, -0.04823533337281711, 0.006887696517601073, 0.14684322985646275, 0.03367933984706591, 0.15076120645281355, 0.07895039606088806, 0.02049743012407082, 0.010354219795177958, 0.26270971188734743, -0.09265349776096599, -0.07835679896633009, -0.1111858808112298, -0.002894354457179487, -0.013660746231811498, 0.027120039499396825], [0.0073554204567551585, -0.09516532670978972, 0.11436112460348331, -0.034891561617770975, -0.043493137805572776, 0.0334553390706321, -0.0013894499421598938, -0.004206031661555089, 0.039047449796486174, -0.055568489443199996, -0.0802410945146015, 0.19386970172741877, -0.027647549858184434, -0.003927096114115127, 0.04781505137045761, -0.09137733629181904, 0.015041383391307736, -0.07712145548100983, -0.12061139747040917, -0.2458651879666674, -0.07575133444679918, -0.07104837514378785, 0.0005388154149066407, 0.03491439412746707, 0.09165091811471104, 0.013463153651910647, 0.08713948369447486, 0.06003391344874716, 0.266704517497425, -0.08114797432755488, -0.11564092263860251, -0.11926052153845916], [-0.2571395587138889, -0.002224331624813959, -0.13622882288528557, 0.0630948767397401, 0.026201988635061898, 0.13114877959393406, 0.13438529303730554, 0.0278825519764313, -0.1329575109730964, -0.16068483863411953, -0.17943022154272492, -0.04465564510511412, 0.1621221574740978, 0.0426803132820664, 0.03749655202792968, -0.1843585596706297, 0.05048954539113705, 0.11289897010135601, -0.04667324115636025, -0.0025623222702605194, -0.08463064850156525, 0.0760104220748564, 0.039539573050725856, -0.09075684062707028, 0.11608117160180444, -0.010638118305030277, -0.009600639015970476, -0.009515679133446833, -0.2129611178920183, 0.02233070609886982, -0.14336457194029534, 0.026994080345867408]]], [[[-0.09733244960518235, -0.03659963381722879, 0.0298460319131658, -0.1416470550816492, -0.09913293922524809, 0.07916203900756548, -0.06444266616901832, -0.02361402866967839, 0.31029372385391474, -0.1369859006297622, 0.0830006363695472, -0.14168614279080746, 0.1856965563819144, 0.037751821946016284, 0.040231360563977143, -0.08843705441725312, 0.04722898181205808, 0.13141031540035109, 0.03799248071089534, -0.11160636235141558, 0.012884060980274838, 0.14834288749393293, -0.14341521083291256, 0.07180766657994563, -0.1168100660651251, -0.30437548923505175, 0.12408631108394584, 0.010470191763082476, -0.20350846381940318, 0.15025251062119108, 0.12100132182894449, -0.09159228454044496], [0.2074133524833418, 0.09540256652597714, -0.2788367436648578, 0.06676991824873768, 0.03472295490944237, 0.08874659702903365, -0.07588047044881999, 0.16002991569917324, -0.06119698206993186, 0.02157952709525282, 0.017506994072722364, 0.2718218991435612, -0.02269977726086365, 0.08581873529369803, -0.1748084888198373, -0.028940823942811788, -0.10756769485341895, -0.018356025308126522, -0.03489312573873853, 0.033184652701394146, -0.1333230571556212, 0.14839492775117538, -0.05696145844782573, 0.008492590756365118, -0.08976207111418771, -0.16663127304248934, -0.062416295936572816, 0.09385419623562216, -0.008666000498334733, -0.24170408515683023, 0.01298768053433322, -0.2748502224174955], [-0.04253821780206052, 0.22434527828496348, -0.1937470905426226, 0.10119918192266977, 0.020029270815877975, 0.08748655984347235, -0.11422562119961124, -0.28103268172568246, 0.08529652055385342, 0.004042545810996718, 0.09740024803637976, -0.08870441160859378, -0.19586452557421669, 0.07246327766458892, -0.16343150801486, 0.018567653379528475, 0.07329270080893413, 0.05511459648791853, -0.007105609240023714, 0.04764434455910208, -0.011371928185560263, -0.06770662432691177, 0.06276705544570121, 0.053832861193375735, -0.01659459784926955, -0.16371019343592952, -0.10324743308973887, -0.2985432070102683, -0.023917604424106325, 0.04769889974442639, 0.17680637377856684, 0.061803656775143385], [0.10030894920097363, 0.18766178373453846, 0.1251029614184648, 0.12490938540453672, 0.2605085478144047, 0.02427117213503892, -0.06471476260098805, 0.0073279810852681605, -0.015704011365243565, 0.07569342062391125, 0.12541734410897937, -0.0046011005181920235, -0.06141264738737464, -0.004851616013240373, -0.1114462925328088, -0.026049753728047378, 0.1352917297498878, -0.12532386029028533, -0.2710199912152908, 0.01677194323452391, 0.08555477256016933, 0.06438438747687616, -0.02330916357687505, -0.041042084030647207, -0.2152357811533947, -0.1551099848946378, 0.015201988652167634, 0.11570921845135097, 0.28858220918884137, -0.018959739536667672, 0.0550850132164641, -0.05895096067842037], [0.05796075270733951, -0.019393997935405857, 0.0648870158529206, 0.015741295640552946, 0.016953058912008878, -0.11441083288822229, -0.09699980327178048, -0.17188846478627756, 0.0015262142329892333, -0.00016198893978673024, 0.15608721948082147, 0.25373302164874556, -0.04869640246599183, 0.11964665402984166, -0.06659893120354422, -0.024354180288206413, 0.01213660744837008, 0.18905390733403996, -0.19154502291093262, -0.09940669927281769, 0.01965999704631261, 0.08076901306653265, 0.04389822201822943, -0.07434055095142898, -0.21673825231363883, -0.20783569713512104, -0.14485982341276263, -0.06108805950731077, -0.12928319908984873, -0.14792203341110371, 0.14925305331005476, 0.07083370360407981], [0.08228794921778913, 0.014424358338909617, 0.09719966610770488, -0.09924486446685882, 0.1447459465636244, 0.07348229211366425, 0.09664889284152467, -0.09528469089683753, -0.02344630473929194, 0.31291488263526135, -0.1604539684631943, -0.04166046254558273, 0.07938124481130708, 0.06218388802256514, -0.1533745758820022, 0.12175853190424613, 0.03661857587227403, 0.07752710756705287, 0.14481333578759645, -0.030129927846505433, 0.021358130533937463, -0.303369249215354, -0.18531821649273325, -0.08931569208032768, 0.08860195374717458, 0.016299354849490032, 0.04917388936594303, 0.08766840248703843, 0.10654636424659934, 0.18848328756906516, 0.09933560256855746, 0.10415323708426003], [-0.021365609757547917, -0.02821475691489386, -0.029336373066227273, -0.10985326940691335, -0.08901957373413816, -0.07843001537056218, 0.050255072440163855, 0.025070819854163248, 0.03225701504368817, -0.16104380515201075, 0.1799303428446114, 0.048172676729271634, 0.041424509830175114, 0.012214846250379972, 0.12809753171905303, 0.04923978024346504, 0.047400056143306855, -0.17571359930892805, -0.11081504620609739, -0.0935154401759383, 0.12110957688135134, -0.09065323250691146, -0.002343551440662078, -0.23360318387747056, 0.05360691794518807, -0.018548558899809768, -0.021853681482346923, 0.12416985088200051, -0.0019904668508675134, -0.04789496758899601, 0.08605453765367514, 0.055602864797430845], [-0.02039828280156267, -0.11235814168967968, 0.19666484413919016, -0.1122818980045502, -0.015239682146693741, 0.237671178700825, -0.09661100790968578, 0.029557502368891517, -0.12005717143308627, -0.05238842694624825, -0.13784241946573414, -0.12061734865174792, -0.14087637440403883, -0.0111968885251638, -0.018046118037779644, -0.2155001754628841, 0.1515673413044176, 0.018538814462090034, 0.09315860824968888, 0.13020249785408713, 0.2437164774283543, -0.027975773503251856, 0.06631158311018463, 0.12168164815599135, -0.11631402766405405, 0.01051065586629302, -0.06773234300724838, -0.2000251029144128, -0.14788252419852035, 0.12488916102871915, 0.04089235561444035, -0.1605958961063512], [0.017113224540208832, -0.1766619072750486, -0.03876869025631612, 0.15196318687373697, 0.05938920392264969, 0.06934753836354861, -0.032719951152853186, 0.08044092328357794, -0.05416451812178686, -0.20955704222875807, 0.27344210260393254, 0.10262295215683888, -0.024464431470272517, 0.11910232047370975, -0.011069991130771789, 0.29360584083712216, -0.08595993120782496, 0.1995659459818548, -0.0770260778523514, -0.06862012078008242, -0.27973890703742166, -0.16809737592841412, -0.0639312812176054, 0.09779509737852918, 0.03758670545615613, 0.06686454787623408, -0.2659237396406755, -0.0412556065616649, -0.0007587313621026256, -0.05889080810610998, 0.11964266858535597, 0.15527241872738703], [-0.1347083028862001, -0.18017885501571773, 0.20628137632168392, 0.019073919650491645, 0.07138008431925497, 0.1797697526415831, -0.027312079143718145, -0.03161600479264792, -0.027776810554323177, 0.28424985227092037, 0.257063359188741, 0.0753634356973022, -0.1181167144502918, -0.05159055376008304, -0.09608787478803985, -0.03465846511082776, -0.061209258058040165, -0.00429226620067717, 0.021040904532419535, 0.19012200583639846, -0.05077015401521785, -0.036515822190328284, 0.11606815067716848, -0.02824498833330277, -0.09104222854307449, -0.1452120908230811, 0.03415194431485549, 0.09648291246485305, -0.1578100764438086, 0.06865117154128926, 0.18694077474196447, -0.09114532253027294], [0.07691433705412626, -0.0816732523831698, 0.09739082681574773, 0.18831095910913204, 0.18697907923798843, -0.012480549723501223, -0.15280043707667215, 0.09477254407842761, -0.07799884474699821, 0.060284351776673406, 0.17063332305098466, 0.019631227907552968, -0.015013059901243006, -0.013844349642055557, -0.14287405679029208, -0.06980469767817564, -0.10262048115001327, -0.05430964906474253, -0.07750833084938842, 0.08968906533752684, -0.08410467602952115, 0.0011100402170112255, -0.05483772876666237, -0.06549033053472371, 0.15819506541325712, 0.03597205429956371, 0.13303371034027092, -0.11034719912464687, -0.058740162447043866, -0.07756061981729168, 0.028607787820218833, -0.10984500877647224], [-0.010409421097896656, 0.09338651712235116, 0.052201491807285, 0.025252288901424433, 0.13536536936734828, -0.029067057540389254, -0.15855550223425155, -0.010481858094160537, -0.10849956849345752, 0.28893141605805617, 0.07372929292122811, 0.08758633691072923, -0.02829929152637004, -0.052816672829816745, -0.06295501356380002, -0.2657496409539864, 0.05683843227467115, -0.0859458863055024, 0.09435478942742172, -0.05411238878415996, 0.0425965623672175, -0.24224471466557718, -0.16553408302214692, -0.17439441016914883, -0.13110473525355026, 0.017180337296757935, 0.12384603421732462, 0.27647490871661684, 0.02541033080868709, 0.04775959179981299, 0.06917947309416833, 0.06951278068100077], [0.019266677232419392, 0.05747132825693501, 0.10251329222315549, 0.06646313710440559, 0.10486361276767735, 0.052839354201306005, -0.0168416787996377, 0.010081340499401164, -0.07972025904962779, 0.015997101605433155, 0.2002662374107081, -0.014534528105222355, -0.22039857537728788, -0.05427737355171069, 0.006359048226694949, 0.16180628621333426, -0.0511789041246848, 0.12092624972448336, -0.07443932779349294, 0.14097810731010785, -0.05554242806307312, 0.02344523739980391, -0.05101698387711441, 0.09395216473404241, 0.1625281097916261, 0.05370869387130947, 0.15847428124539245, -0.07527197507416244, 0.029077606331654314, -0.11487347983786367, 0.04670730899588687, 0.05046232174570914], [0.11495327574121199, 0.0783082184229432, -0.1565455891951452, -0.14496419313487377, 0.0858248349196018, 0.007507960842156046, 0.08549180307574476, -0.05680047608042436, 0.08239385346024107, -0.2014817661038487, 0.2826319311330967, 0.04433214038335398, -0.12573081864242128, -0.077338994851817, -0.2412567651084472, 0.1577467729388757, 0.03148754604462405, 0.19853598780122025, -0.016350038757373536, 0.04889305897470821, 0.07699481682603317, -0.20781044113214, 0.2338755846228437, 0.19306873192314075, 0.08476564853236036, 0.06365058478812102, 0.08384266517923439, -0.15481066981994598, -0.009064776683451839, 0.09992751325714049, 0.012238180596843725, 0.02250856590634007], [-0.015520361816102298, -0.10432806342715871, 0.05372741727014738, -0.06639359208523887, -0.15273009223195239, -0.141633074143499, 0.025088189456096588, 0.030054795019877217, -0.09985311976126209, 0.007181338527076957, 0.12303746124826102, -0.012554230782720428, 0.1021163678379092, 0.11374826856086999, 0.13182152217364157, 0.16577846395243875, 0.07885020532903145, -0.07847945730149956, 0.04690519457525408, 0.27777615787059723, -0.03856289216933651, -0.1895802747723759, 0.030011713533169868, 0.07480675216510144, 0.1009641616677368, 0.08201859978627997, -0.06561130455955295, -0.17794423926575445, -0.1734083415258217, -0.12324089562618969, -0.0813091081337648, -0.07757117116007207], [-0.062363290450560355, 0.011321627799292737, 0.2530030476450961, 0.11743225516037935, -0.08435760839517939, 0.03283626662183071, -0.14784741466183562, -0.2170734087929188, 0.13500171087001847, 0.11960395475863997, -0.057979539496720814, 0.002250752385076223, 0.03693714471634286, 0.01630782570945282, -0.036766961831093486, -0.16411502943357262, -0.0302361243918855, -0.053139445590828706, 0.10815714800386605, 0.03832297223826777, -0.2319041466669435, 0.09738201411493927, 0.06782030020104118, -0.01814901549689846, -0.19747828441756432, 0.06491310252230666, 0.028172945813679667, 0.11089852580454616, 0.0725814462096639, -0.19065045696854155, -0.02566881675753576, 0.06048997887249104]], [[-0.23170871323400272, -0.3339675460125879, -0.01877850861077976, -0.022387557558976996, -0.08848306296379133, 0.10030194536600809, -0.08882734038301437, -0.06531617902750353, -0.040931274530714795, 0.08975654688160786, -0.14019725146852535, 0.2162068083080949, 0.21206419550665037, 0.09495064789158279, 0.16837311726663665, 0.14779428018374738, -0.16421633367372662, -0.05667572143317047, -0.04646318303512203, 0.1395779481288541, -0.051427857120176244, -0.08644651085135545, 0.12637841413188788, 0.06783692990771724, -0.19451076812914206, 0.06226083089154503, 0.05231789670700847, 0.19247968189606013, 0.026810300960914638, 0.07803648278411601, -0.02497138994998032, -0.056171965675953145], [-0.0067442285836683494, 0.15913133049447764, 0.21564346411993918, 0.020783929909200072, 0.2785816780969297, 0.10057996332804947, -0.0653559925548948, 0.08511288602611149, -0.15029860484768368, 0.2500584658777022, -0.031093005313783284, 0.11579625831971949, 0.21527427832632307, -0.07938566659031465, 0.2239250796001334, -0.0681413303882711, -0.13850662747097817, -0.23899856655210125, 0.02091454348403138, 0.08462862217469712, 0.09039259994378837, 0.14289848915379819, 0.010045037270809692, 0.08391846427120542, -0.11146072542640546, 0.016481671941865256, -0.020673413653362893, -0.09822326983433456, -0.28534368539273536, -0.007330509668901289, 0.07532672810456602, -0.2397399975423368], [-0.06265133802825733, 0.04603935564691371, 0.13332437418069304, 0.18842268753123265, -0.15492593480842562, 0.3920791049523131, -0.03860677101194659, -0.04452271518055852, -0.14007222509433104, -0.036168722140059326, 0.019714402764774052, 0.3721997206006718, -0.1367367288690393, -0.034922853763018805, 0.09870628197749746, -0.1991663326827951, 0.06807663179273746, 0.11513671184125315, -0.05169290143940818, 0.18596111920931463, -0.021005306451402396, 0.06442392582237795, 0.13451594849096488, -0.17539218313918836, 0.18151872765245292, 0.036917803558398826, 0.06791211094123636, -0.33125822257951343, -0.03882470604361434, 0.03095041700549374, 0.024892986193852766, 0.020997179689194876], [0.021437893856745046, -0.006202715891660161, -0.07370025025570409, 0.012436777952270125, 0.022396581660322094, 0.19870051966775815, -0.021251289820497253, -0.035476049506265504, -0.04778238254547726, -0.054362168602221594, 0.1940917676981577, -0.03996618942652725, -0.28203529803422284, -0.06398812297312133, 0.11238493376003794, 0.20611439510442656, -0.15620744986624002, 0.01862727333843411, 0.137766401007121, -0.1799526433483634, 0.052831631188445284, -0.0962284880048997, 0.08268037499691436, 0.03511159822253781, -0.14471804119464837, -0.10060431086742949, 0.1466437603827185, -0.006772071279849589, 0.016592038708860727, -0.1540756883454399, 0.04885705196766594, -0.19656551515375495], [-0.18014983665810905, -0.10234633437072273, -0.13876477893625216, 0.1737431404816752, -0.20163602646330145, -0.03931738398735576, 0.02969998289373819, 0.03897423534230379, 0.053461439488290734, 0.04928087525951931, -0.23168407026652638, 0.2665756263754464, -0.1732258441802345, -0.1230036513615681, 0.13236800392356549, 0.16721581488860923, -0.15875549698653516, 0.15614579779505097, 0.04707256776369368, -0.1842633789536778, 0.14317525916656493, -0.06684604570410743, 0.16363759324555652, -0.015328692219407474, 0.11613801021722835, 0.04545539872889278, -0.11461746611247549, 0.28977187685080374, 0.06953317393934827, 0.08815399833961036, 0.23639866212864918, 0.04373374053924534], [-0.020739629907042895, 0.02590886249147539, 0.1685897182463565, 0.07792917079972381, 0.08167087925824762, -0.14017360413967928, -0.32791702715811455, -0.02793132075590029, -0.04985959458501881, 0.10384388527758848, -0.1089133830597363, 0.06294882878066997, 0.1454782893942975, 0.06991318721788897, 0.088222865383877, -0.052586972315607085, 0.007050320610470445, 0.040417644727725036, -0.05177822360453997, 0.016623476115682833, -0.11398483658351415, -0.12582277194728625, 0.1001090512925377, 0.08071081264365423, 0.006393494552664701, -0.005744496003200112, -0.018240563797039346, 0.004055963012819056, -0.11670185462310899, 0.114720080766257, -0.016164312312939463, -0.08552674558162615], [0.029856681810342664, 0.05247395481219612, -0.002197655784175736, 0.045006090520559906, -0.2834941525247094, 0.04017897025586412, -0.11815619065690822, -0.06273264958329577, -0.045885093291762075, 0.11023936100984978, -0.03104170942554904, 0.10859963868565096, 0.1926171620415956, -0.02286963961439479, -0.13082499001876907, 0.06592483339610197, -0.06391263791315674, -0.11007322904310424, -0.14673455091041623, 0.08733721511114007, -0.03677261127840616, -0.007429835955140476, -0.011745442132603656, 0.18352097026325126, 0.20761980418880077, -0.09675398620130099, 0.2557462424597327, -0.14413927378907387, 0.12207139423949347, 0.019509011802606325, -0.02150476797614293, 0.11629023724143772], [-0.06371427659866531, 0.10649982435784673, 0.026044258699143463, -0.05717682113616914, 0.07870538417909917, -0.13969769944912805, 0.09696275233467243, -0.03176231374444021, -0.04818537888942418, 0.009240727744657841, 0.0608109093547833, 0.05717809500433605, -0.03731143819585891, -0.06548628808592973, 0.20257564310758078, -0.059565707764441186, -0.04004201090868037, -0.03584607176253835, 0.033573241832180134, -0.014039695029127226, -0.16703585874752386, -0.06278997842458126, 0.08291168858458285, 0.015442992351435278, -0.06044363167001899, 0.09186979369293871, -0.051968125876517494, -0.1427310386786943, 0.17037893514176686, -0.11903409867398801, 0.06496339162636985, 0.03369154736877421], [-0.060194729164427044, -0.0012490655299029338, -0.06088828419565974, -0.17745005763157376, 0.16299737610338577, 0.01987520758706738, 0.11493699389983428, -0.03735986153580546, 0.07431477512099537, -0.028539201164484187, 0.06749297971691721, 0.19538515162631315, 0.033443066630446175, 0.0816538003405395, 0.012365255930371001, 0.1395989883257431, 0.11703856307105678, 0.12415498766801542, -0.06881978956224585, 0.02549930882857294, -0.07959651923322272, -0.09518286199312086, -0.10052429553253063, -0.01454371723935118, 0.1300368337502075, -0.06629537917254491, -0.09329514992992767, -0.09766811499750618, 0.07759233198505541, 0.0013874480990710254, 0.08274496640977592, -0.10036937033918333], [-0.0494658613936242, 0.1683813950115568, 0.07350214470731503, -0.2855734379257033, 0.05387578044665021, -0.030789777212009668, -0.07674288522809604, 0.15078111155010337, 0.07005739295875728, -0.09036450402718296, -0.04465626643203816, -0.05458259189911655, 0.12259968782553919, 0.21179401227523412, -0.145769461171924, -0.012108981568437411, 0.19360924168271462, 0.04067188769216522, -0.10475001329594918, 0.044867097217998766, -0.1280453071945104, 0.11189841688744949, 0.11325953527455536, -0.13170148962835124, 0.005214929576172214, 0.17097505433100185, 0.050609441724532675, -0.03526425407693172, -0.12825547155194691, -0.0787565466792123, 0.08125390796694039, 0.0038247295028852155], [-0.04695954959114361, -0.06225921592392089, 0.042902488196837237, -0.024284861628250706, -0.024210315244506606, 0.03542555678813009, 0.0004952555618855429, 0.06416647676001451, 0.07628242020918972, 0.1391545339948295, 0.08352612376172573, -0.0776576988911052, 0.14838253592183012, 0.2670696055231189, -0.18306579210336804, 0.08255905571847215, -0.10666608711243862, 0.14524913741560092, -0.15815732277260353, 0.01279845618135355, -0.2728636345214386, 0.02076735148285703, 0.06695051886209014, 0.10982122937832622, 0.0315706487202161, -0.03510448081514603, 0.00022663042476276036, -0.05024334882277777, 0.05146841408402934, 0.07622147875134995, 0.06788804718524216, -0.005518420328083925], [0.24020372606549262, -0.1258918597457555, 0.008168255306075253, -0.021689641227063308, 0.038488313608513985, -0.06673758740983611, 0.2567116319723745, -0.10242882071711365, -0.0728182574430114, 0.0027126192771646704, -0.032623451079038614, -0.03305802130397252, -0.048378179878891474, 0.0029999289858515, -0.10426196923359007, -0.06054864214419691, -0.01720390121320538, 0.022814556731777225, 0.17461417032736035, 0.005417460479203117, 0.03590527263120126, -0.12147282277301094, 0.03665325851785615, 0.0760882139833, -0.08033238312062647, 0.1907807526480051, -0.1365653566793388, -0.04979691836786396, 0.18247514111175545, -0.11336732917656471, -0.05408405078707352, -0.14174995968769574], [-0.016149534207347358, 0.21361160561732204, 0.06777813277050787, 0.13057877853637637, -0.14448033676455743, -0.06723570426926433, -0.02280416746781758, 0.053303590607163186, 0.014746256582443466, -0.02034152557266072, 0.028063336641521813, -0.014721868878906523, -0.12955103123898176, 0.12230508635068912, -0.14523191618787346, 0.018226951077806107, 0.13984648543549594, 0.16702022479975012, 0.13554999905198803, -0.1437096757596624, 0.17693048006962542, -0.08926650379067236, -0.0370115928850214, -0.025196084232657612, 0.12398351517186872, 0.0531840669410051, -0.029817449340515154, 0.030458890920874063, -0.1763805893492244, 0.08924718000010741, 0.07723136577755187, -0.05992142878640981], [0.08256046918159515, -0.22227080802446203, 0.09333564718789898, 0.10844930050084794, -0.10403644709188531, 0.14390032177295606, 0.33989358597841035, 0.05000664603601084, 0.035544660878819356, 0.0014564046913926613, -0.006270245441236994, 0.070942605744681, 0.08359959759818271, 0.1452479411977486, -0.03505319542551528, -0.0754665117161811, -0.07077765773637028, -0.010791910847578932, -0.16837727126587904, 0.01787517205801021, -0.22670267622402418, -0.06352244582583508, 0.09121849054743618, -0.024816923172539074, -0.09214966164092414, 0.05554060246795753, 0.08463349016816958, 0.09824277127625072, 0.05578784527392121, -0.07420138811778801, 0.09777919437155522, 0.03488492670694532], [0.18767024712950264, -0.19608836704526184, -0.019583467952670238, -0.10277145253205901, -0.2925315298277388, 0.036339385591698435, -0.09741669124332286, -0.09243115400330412, 0.04044818126280268, 0.03569259175141415, -0.0015916421685530844, 0.03060043958385019, -0.1720955125142812, -0.03271427967064833, 0.08851353361201694, 0.14062365264633828, 0.0635877828990661, 0.09244496604114465, 0.02265768638602116, 0.3677987352404443, -0.07970531114874477, -0.10365100848305597, -0.0030892040838634604, -0.051604723510490176, -0.0730992768241243, 0.03746784616856703, 0.019965278013492144, -0.27644418570053353, 0.18893350908001583, -0.04871132021612492, 0.18496010158383952, -0.08619081272633144], [-0.04545820135113534, -0.010370841085715909, -0.17668189506057097, 0.0011224979618796951, 0.09895015335328687, 0.05753054763129841, 0.18807685765342302, 0.0658236581096925, -0.16212938061303625, 0.06904241899755431, 0.043224082950865154, -0.16795218666207518, -0.09007144838858344, 0.09472012314312775, -0.11552467735248591, 0.08875771634290415, 0.15973527501666965, 0.07933468454991817, 0.012391313173328063, -0.2540420118633158, 0.10074003337331969, -0.08619677288978352, -0.07550374118496923, 0.1760514010763631, -0.06021920130334102, 0.03249756075811138, -0.16871132901384797, -0.09884056658087303, -0.09075271769037037, -0.09839747947389353, 0.012115772822764785, 0.05222244886967831]], [[-0.008813065996194861, -0.1792585405675566, 0.013305538170236266, -0.042875265510159376, 0.09042212854344546, -0.12100912239944947, -0.027768435504534842, -0.029612411715690876, 0.11774686610413913, 0.1350447909293306, -0.04255243686461582, 0.0006233949287785042, 0.1268633779027195, 0.03611607884317008, 0.22327698278248412, 0.14321457493501544, -0.12240350209749122, 0.3725719038707063, -0.05972787063287335, -0.17061830218619953, -0.14486100017110887, -0.003346240995797813, 0.07058032426392664, 0.006626786551998546, -0.06641204431769826, -0.15449923297356888, 0.2168313449034417, 0.1445131746135822, -0.08691275035399079, -0.26489179592304546, -0.1585485931913335, 0.039354658470177745], [0.13942574907354804, 0.04513971801815417, -0.19136640755897893, 0.19757281275208144, -0.05927949800381518, 0.023772567435009717, 0.24672793775937035, 0.07128865855987974, 0.0897858892643057, 0.09996873849115293, 0.07064254376364343, -0.26666729270602096, 0.08409012251672564, -0.003274884219766314, -0.28114744333247565, -0.049646643805218986, -0.12719428123575516, 0.15889621144254804, 0.03345178771488877, 0.09435190585029317, -0.02826408919418448, 0.0554216537440598, -0.07954480884724063, 0.015136212267439704, -0.15827932897313032, 0.20996883107465847, -0.07826785211476428, -0.12094022016556047, -0.25501240053842994, -0.11485886748082712, 0.07938595610028729, -0.2622232890075779], [-0.0029926345057699486, 0.27438485602605767, 0.029271373387207533, 0.3749383021790074, 0.15663567616830534, 0.19421066572682624, 0.17887550713059425, -0.17148680163874244, -0.0024432467770044166, -0.01991569209159474, -0.030260830721864876, -0.08591972640091505, 0.0587111442183819, -0.15433718353638243, 0.05064939423525475, 0.17832955238377338, 0.21505013013588284, 0.014587201961526507, -0.3145096795482191, 0.13919204414501454, -0.019961113420042864, -0.10641450961195417, -0.017266373125848545, -0.1639764817951153, -0.11313761020993897, 0.21538174079303982, 0.20308221679218139, -0.13678639243713972, 0.09082457317438286, 0.10489294665191985, -0.04358167900296784, -0.2041532629274555], [-0.26860821290005454, 0.11418012023132756, -0.08620059008967579, 0.10612815089943495, 0.0788946900022118, -0.011169110552035044, -0.1674566790171655, -0.15262993519630313, -0.030179962719944546, 0.09932043286638914, -0.2037717165630805, 0.10925544066045989, -0.022696914503935704, 0.051392599119031414, 0.2273469796818595, 0.007498072070260425, -0.0010814208129617654, -0.08314890375246765, 0.060480710834876605, 0.1590102245211771, 0.0027417538092512177, 0.049073153544333135, -0.10660860219683238, -0.025048648308638774, 0.18809278602512194, 0.030308945236270025, -0.01883650097284334, -0.12037374343313373, 0.08012048691995646, -0.13394375264729, -0.09384203527569436, -0.06340327833405458], [-0.1034972345449913, 0.039417957998825776, -0.06981543524632294, 0.14831489141670837, -0.09573552016330139, -0.16342724545009693, 0.18847131066846984, -0.068786486963085, 0.009278303903774484, 0.017684473159374485, 0.00618529843519301, -0.1851407446081788, -0.047406259337532015, -0.024060588151366264, -0.05036907081593461, -0.15485140253874424, -0.026672298839571576, -0.2304925793196659, -0.008961287025722672, 0.06492087304432508, -0.12027839507723224, 0.04379726172483643, 0.03225554811287163, -0.03322884168392422, 0.05474210228021912, -0.011179076048792053, 0.04703382480175378, -0.14662476436973676, -0.02304128982230831, 0.021404887510381783, -0.1223993820683677, 0.04422748028682091], [-0.16180078233711406, 0.11596435234504919, -0.09120214933590746, 0.15197898105619742, 0.03570145799939101, 0.020484155591760964, 0.027479578124660772, 0.06343566379779568, -0.12375668749146226, 0.10567340606091635, 0.17318825338790642, 0.25362273961447296, 0.012645164485102075, 0.10650916732472292, -0.14155684342201066, 0.000412152474406639, -0.06943658992108749, 0.2493271523714129, -0.027245088946594474, -0.011306122024570197, -0.08289666323692525, 0.18088755558817488, -0.13055636620855818, 0.22784291349841332, -0.1973700988823232, -0.2705787946695441, -0.1549470303360642, 0.16646092857769387, 0.08516297526021714, 0.12041201386692561, -0.008474301963235514, -0.012201334756674419], [-0.14277535199060046, 0.1819494753879859, -0.07863837783014402, 0.021574699658299352, -0.11819954091299648, -0.05187655041579581, -0.0909120901830558, -0.047504294940658776, 0.07122873587060961, 0.05103994114651794, -0.03666044456843687, 0.14557205641361295, 0.07529942041253938, 0.08630812668874992, 0.11396009085758715, -0.13753929868264186, -0.07279616202536661, -0.06895572622336742, 0.20005746001624455, -0.23763453961341183, -0.02048103539500217, -0.2677696410292712, 0.09646997720557166, 0.06595480660942346, 0.04675139375663589, -0.14294171291960922, 0.04681566840411892, -0.11108600279616468, -0.01266104463673221, 0.07213247868863042, 0.02248587967566615, 0.03186729487518926], [-0.1208140475666431, -0.04631475901345244, -0.13579759430038557, 0.03252757601877216, 0.1375123540947984, -0.0956406745244603, -0.03494211979625074, 0.15096831878224623, -0.020131966973035834, 0.03208103484382329, -0.008881144284141397, 0.017614941872154635, -0.06076555525180395, 0.10090880410851252, 0.09326548624637268, -0.047875220114025015, -0.04911609281428094, 0.06380287958185814, 0.1513636868729565, 0.13017882022799776, 0.09277200264405294, 0.021606859027252415, 0.058467365463717086, 0.2133890159869246, -0.03130576294986876, -0.1053948817428449, 0.10086751196515324, -0.025266976898487975, -0.03729641381791363, -0.1458785266043012, 0.144034004976066, 0.022508603113513843], [0.1123140568396987, -0.048294991279279297, 0.01976718901043386, 0.054922815185778955, 0.0492911662162174, -0.0768799886923808, 0.20920243813844455, -0.22124335684269647, 0.07487356002400712, 0.19332253213013814, -0.23948840886345407, 0.07767523380150036, 0.04689361553565231, 0.018980308205475072, 0.027313131994796572, -0.027247881140079255, 0.00011859604093256059, -0.1465085485239495, -0.2412546892923848, 0.019451366058814562, -0.15164022885663422, -0.2834842210476368, -0.11455031578588952, -0.18580348326414892, -0.0628353314886819, 0.12540552355246318, -0.1489082530754945, -0.05528431508093666, 0.006422223898840302, -0.12545100901249567, -0.11711089036156512, -0.16460967894927506], [-0.1395998583381251, 0.1395152356162492, 0.05917768541374017, 0.0017008276205365128, 0.04814423125516869, 0.0785662614763906, -0.055493199358628544, -0.10889303939963474, -0.20617766031397106, 0.15618296727711486, -0.10953452048039349, -0.09772224959005196, -0.09971759477458082, 0.07943587736741993, 0.40354521782266195, 0.13185499248299362, 0.2795876233793654, -0.026484576204213538, 0.09654678619590228, -0.04633004315947379, -0.00590656564711955, 0.1372947060931208, -0.0655025559799449, -0.1290644140348389, 0.03315123913890546, -0.01851261542026092, -0.04817865000360662, -0.027017022277387028, -0.05082102403632385, 0.042794920557727344, -0.12982031014998216, 0.22363435813495414], [-0.045588100456200355, 0.19392828568848597, -0.08942721288515508, 0.08697237072025034, -0.0032543126600803555, -0.06600742768946041, -0.10158915440471725, -0.023980296700536616, 0.2636318139911959, -0.15906772218077364, -0.35327064014009896, -0.06434684913113128, -0.0032650790718373158, 0.17079010980558257, 0.160207842643647, -0.09735397565103558, -0.030872859548885426, 0.008072206391061742, -0.03452596515575796, 0.026182804626914396, 0.0007458005833333985, 0.14455526489781778, 0.07981122570214728, -0.14670389232206513, -0.04320298377014656, 0.024732705586409366, 0.06265776805860429, -0.021166715916600964, -0.2504943731647136, 0.016904646512138986, 0.021666381265800477, -0.1766990988607159], [-0.037330199921363265, 0.014728901021979225, -0.12370430081828838, 0.03824299273502356, -0.0962765766259918, -0.01694280381802899, 0.0543251230703044, 0.10366079142608345, -0.07590527124452441, 0.09826223239903208, -0.003283164288595125, -0.005830411245330669, 0.16753478600240201, -0.10296650230326268, -0.15381590716710103, -0.18520192860222587, 0.1650104741429061, -0.05391479045225717, -0.13021426765765165, 0.184383511910629, 0.00950223082608947, 0.0688881457338547, 0.08922083703550601, 0.09808894771622172, -0.018256516803984393, 0.025747342229074818, -0.1480273478720067, 0.18070575175117815, 0.12312774784459612, -0.00455054816251743, 0.09675973752419781, -0.1505446343039802], [-0.009526987593919414, 0.03088294750494394, -0.10069543484666861, 0.012582940356882727, 