{"conv_kernel1": [[[[0.8655412876543976, 0.09305586083152015, 0.15141350266781425, -0.010770688689022841, -0.6536938002164852, -0.10327428080406073, 0.2882812682715841, -0.014113363958103923, 0.08132702563951023, 0.45445305531745117, 0.4308313576020538, 0.740555953318868, 0.7215390367833101, -0.08169434168551276, 0.16657428028415425, -0.03183630164525948]], [[0.44217841564002147, -0.5995517434917876, 0.25028842520153993, -0.6572326490813846, -0.9073151832738676, 0.6577661583987142, -0.41614093049852163, -0.16359775421329065, -0.4550790934823067, 0.5132226528512374, 0.05771051756311037, 0.2056169907460259, -0.48261776471637524, -0.45410133240913453, -0.938987907035644, 0.8816077441202951]], [[-0.5574137181649671, -0.2155824005368003, -0.20783664146057065, 0.3842609484857255, 1.1301854412072396, 0.25910465251105047, -0.4028949754659691, -0.4291713297365654, 0.20021630431104592, -0.6257644342447906, 0.16609413004600088, -0.8097619450104359, 0.1125424457698981, -1.0175501766860022, 0.2031416242570873, -0.3144902070466991]]], [[[0.10852836325578888, -0.48342679639047453, -0.12366916600862535, 0.7465154881682168, -0.32124961655372086, 0.3654857287207584, -0.3069633189301584, -0.2677973065266798, 0.7309173979288733, 0.18485960406788005, -0.5427073135257124, -0.8583050239115536, -0.4360816653013092, -0.376829439065795, 0.5030576015914624, -0.6890275266839945]], [[-0.01914339986325497, -0.7729533504821227, -0.13466859502956172, 0.7369926154979427, 0.07731204990283504, -1.290418188691668, 0.40938446604450035, -0.06205774665293513, -0.17224223983757034, 0.09944915218639903, -0.5792651284695789, -1.1878025239174421, -0.4046524016814341, 0.3377083896565453, -0.7450498078394332, -0.32511633809297136]], [[-0.08744243790041205, -0.1669534995960388, 0.9699154336740914, -0.276708712089936, 0.44542322534516327, 0.341294899794199, 0.7315270595657565, 0.30348168210455817, -0.025695112005017926, -0.4932673658541871, 0.31050118127807735, 0.16836958942072547, 0.29054514663239445, 0.13832425239391133, 1.3518021485193183, -0.3778182873894159]]], [[[-0.19912639454743072, 0.43934644979380183, 0.7693834737144387, -0.3363922538192362, -0.278170882683981, -0.6001113739713277, -0.2957892795578509, 0.04771376649327055, 0.07608916605868024, -1.1052485809566066, 0.6325456862994638, -0.8809525401237239, 0.8838459101715261, 0.06238603414548579, 0.5993529091467088, -0.8534479416969798]], [[-0.2273588926735884, 0.5914268825226924, 0.2676536685009661, 0.6418269956459197, 0.45241652917747555, -0.18004475069993345, -0.37692540892638965, -0.7677641222436136, 0.4484614429840982, 0.7701287727368747, -0.25661286327294386, 0.24759826252412695, 0.17698016855333212, 0.05150811948107667, -0.12939030994493428, -0.06001819854707482]], [[-0.21668923348513416, 0.22685063294725483, 0.6292644626834257, -0.7261666547336296, -0.10361871477909941, 0.04630854835711432, -0.10903586346664906, -0.23489090534789872, -0.22649103250260513, 0.3497930816371403, -0.2581548005958441, 0.1355119677952206, 0.14770175067648444, -0.5931239266439219, 0.7569994546341356, -0.9594984650363942]]]], "conv_kernel2": [[[[0.009921648733906427, -0.06855611903155165, -0.024912946635182016, 0.05668202245764453, -0.06274921272543316, 0.023891486218569354, 0.07747569393807523, 0.18115555395540303, -0.15106630826952216, -0.14155527764199033, -0.1480887833303931, -0.12600152072786241, -0.05998590068360208, 0.07989067490363619, 0.07775430615652484, 0.08923077163364676, 0.06410997578344564, -0.03264370996620657, 0.0680300017760068, -0.19651649507933736, 0.02549582024425753, -0.024678030955655194, 0.05323595479982151, 0.024323047024998573, -0.2002806899984846, -0.1833604038390422, 0.09143539991614585, -0.18585441249421072, -0.08218948103165571, -0.12664302922812393, 0.06345141213734835, -0.09320368470608603], [0.0503204458286748, 0.058808495294577795, -0.13482750769837087, -0.10327896501527534, -0.04288459724150345, 0.11883956488395984, 0.016984468629480852, 0.0095628359486098, -0.017183509488349652, 0.05378864402781617, 0.20164800437717117, -0.09738481548774426, -0.022600523490594562, -0.018408426686403172, -0.38968777574993146, 0.15178729284339787, 0.035095352291666174, -0.1117130811325309, 0.13162541738865732, -0.04268256977537161, 0.24053092012637264, -0.040896717304808844, 0.018206271272283456, 0.05266445248443889, -0.08927139632376926, -0.2898760837037104, 0.050885877352407245, 0.02017592808515371, -0.14413933399099005, -0.1825166656380188, -0.007554333206461989, -0.0375186139493539], [-0.020311086212151268, 0.05317017587538794, -0.15518214115956694, 0.4265290031539683, -0.0723470629724182, 0.06279027787319576, -0.15070224446788266, 0.1619140959407719, 0.2577257879412554, 0.2626074719735192, -0.04337613492312972, -0.11846140405749057, 0.06557668450889478, 0.05245180775677736, -0.16703705488874826, 0.014790301636725312, -0.03537741233504305, 0.05179704767690019, 0.01978021946724452, 0.23020156240065132, -0.032375978707050335, 0.030555935875452737, -0.11651339241118168, -0.03415935385694064, 0.025897263511857435, 0.17718894275383454, 0.15595867746699824, 0.03598962682561459, 0.07034340068651161, -0.0939854515677128, 0.12171132165503326, 0.13644655547824883], [-0.03658184999810799, 0.0695892543732092, 0.12610088420942, -0.09159206802103582, -0.04140874602251342, 0.07815269869156169, 0.02629928963640446, 0.0019371849236398545, -0.10536735163893376, 0.15198496563932887, 0.2637520396104922, 0.04126888852685266, 0.07086319495956248, 0.08203892921846997, -0.10315782092283321, -0.008305957923982124, -0.11235494654645402, 0.04311610351453583, -0.0063622548324500814, -0.12977571753140787, 0.018711252609940138, -0.16346683853787455, 0.1032192297859757, -0.29269301973474066, 0.1401940897807067, 0.04464922405629563, 0.10103708328969677, -0.08582782968126426, -0.042111550053858054, -0.3073394671188286, -0.028970011301205783, 0.09210384731487702], [0.1732499036630653, -0.02137057570329662, -0.11994145288156417, -0.11282215907250319, -0.04014660909897377, 0.035992823062359264, -0.22318528341850974, 0.0712980404689202, 0.03942293697153281, 0.010248628169270167, -0.07546791682215181, -0.036325709020777384, 0.011153273185949343, -0.04566917237512937, 0.12020075805298629, 0.21987530174823205, 0.09127193329098743, 0.0011365535512862096, -0.06535199711038303, 0.011568587974140995, -0.0821666326352763, -0.10349630133790759, 0.003417774987085701, -0.08581699661942867, 0.08331084832138354, 0.18397915561173217, -0.060202130300950306, -0.009014918447385013, -0.03455407196163423, -0.19941547363329784, -0.1535044822897161, -0.03137592215354299], [-0.1952945025750302, -0.08984823164967284, -0.010424954525874752, 0.03521133011447199, -0.4767116639550854, 0.06668279963963672, -0.24115159240281217, -0.06680225993992152, -0.003463145468616525, -0.11118204781391387, -0.06144942992678308, 0.2208417111671615, -0.00736418334899254, 0.011679363788032021, -0.08682594711768216, 0.07459718021833632, -0.2180360564429128, -0.08619370409935434, -0.03708902876425488, 0.07855234462793495, -0.0335654856785393, 0.1722321451979644, -0.08603935468538337, -0.08243416365412114, -0.21259224728044132, -0.1498552153196959, -0.18337351491879206, 0.18996513042114507, 0.16334996768872054, -0.01632269143199416, 0.16433786760076896, -0.10577801602549117], [0.03451694229693258, -0.15618403846158377, -0.018501831789187632, -0.12079571575912051, 0.13068179866128443, 0.24816496364378723, 0.09928929082159968, -0.00832900383929178, -0.1236287256303984, 0.04912874664712122, 0.16672551639927743, 0.0339479009268094, 0.1286821935242002, -0.10556817847065275, -0.08141231907109914, 0.04748792680332238, 0.0024495780852900758, -0.18229287198708702, -0.04884728192088242, -0.0008617065865402807, 0.001853839544196696, 0.11869285082681694, 0.037245806942333336, 0.13282326113157014, 0.05912893051555706, 0.06834967821846756, -0.044070674044042336, 0.15978574125901016, -0.1813098230733114, 0.0021876583043622076, -0.25567578821572784, -0.16762268482821074], [-0.090363864699659, -0.2137269476461963, -0.00834328845343624, 0.15714929907444666, -0.004020871916997211, 0.005807056926558296, -0.038985446770916816, -0.06822222576266986, -0.003240368934353882, -0.11379919326189546, -0.09467038227512785, 0.26057567809282556, 0.06866007654314861, -0.13400747139110092, 0.06346802461557181, -0.037022507209794345, -0.06434980860513159, 0.03325282295550311, -0.08886484883974231, -0.013516989297230995, -0.12745876529641778, -0.07184452634460313, -0.003894145561340158, -0.15392868028986198, 0.1397851990135671, -0.14785748985196343, -0.08984386035393192, 0.08952410912000935, 0.17520953386596466, 0.15208454885717468, -0.1842388795906199, 0.0626768606196402], [-0.1925641074265871, -0.005377314427243572, -0.05424631307404537, -0.04262433170376048, -0.3039071253538254, -0.12417167437664241, 0.02083648381044798, 0.04715109560810544, 0.24524115814668015, -0.08003770855957769, -0.08058932560040884, -0.12110474368989987, 0.03155353818615695, -0.13665702963495518, 0.03113356675986871, 0.13616527949519877, -0.07586391298815541, 0.08936088462460932, 0.06324297837812179, 0.16702480971670108, 0.10418983563999946, 0.08158233215838098, 0.22651322223029777, -0.007923099219162967, -0.05294455558356171, -0.04960128907561884, -0.021922714246691705, 0.1807733744268438, -0.00486891085629337, -0.019509400712425094, 0.0836983215493012, 0.08862218174008052], [0.1962797619592203, 0.1417150073037599, 0.0596127162961892, -0.05489626540076636, 0.10589451599695464, 0.04807179980640768, 0.1198901180449092, 0.05611941412874308, -0.00929634829854533, 0.2680319385409709, 0.060412617603561064, 0.09853166891962378, -0.01276068534195455, -0.03644801879258837, -0.10256183628289023, 0.01270412853418659, 0.1484443213679454, -0.10152966232640695, 0.054846751550915916, -0.16391714617481248, 0.1962466460900266, 0.29405579692060546, 0.13207822431901817, 0.09915950487834845, -0.022119676223522268, -0.06218404486790104, 0.12686391609294248, -0.05811076007128599, -0.008417353563434322, -0.08994672466428426, -0.018556707070765316, -0.016829833430178336], [0.2288977089351365, -0.20668697439526695, -0.058804235192343665, 0.10532921005593268, -0.17033822172383514, -0.12362130682528664, 0.22453005621509967, -0.06974670539323266, 0.12163438636279544, 0.18649743415471187, 0.0784696919867032, 0.12223148773263424, -0.1764490300177971, -0.0016725806345931336, 0.16911117691199173, 0.11933711052098098, 0.07051474146566632, -0.16585389024422575, -0.18295671242203895, -0.10329010277480762, -0.08069100897564324, 0.09228373335982853, -0.1700779312740723, -0.035103972212507176, -0.008434197041472392, -0.13728975822875347, -0.2131174370273969, -0.15639985225662895, 0.23156354715915436, -0.0477115726048529, -0.07565877486951339, 0.28433551027682996], [0.018007373786201902, 0.10983716079850601, 0.11317229653483853, -0.01597931881552836, -0.08302405885032234, 0.057591829859289644, -0.10386317731049564, -0.1878817237519896, 0.0681334537558952, 0.02925767364190327, -0.2136549296895628, -0.014041420754537612, 0.0778376246234811, 0.03179573382255679, 0.07627825802526153, 0.20515385194379104, -0.18572258428696262, 0.05933666899302256, 0.07494720133553609, -0.0488061560792093, 0.042431695973409116, -0.08633643988887366, 0.1422316679985721, 0.038843210314353414, -0.08463748987763425, -0.0672016591956989, -0.006305558829600532, 0.0193814826024753, 0.1262337690811888, -0.063833552035552, 0.04067651771666913, 0.05567344633525808], [0.021031548080806366, 0.06717094589406648, -0.049555055925490095, 0.16827407926438442, -0.10319835943735929, 0.27630022046064157, 0.13897566519491378, 0.03154878706740681, 0.034617612598670654, 0.045049826400024154, 0.07523704059213926, -0.22867610450001355, 0.20908541518290277, -0.06560117570330966, -0.10418049327501133, 0.17744554334813398, -0.2814364691174545, -0.08741374461191243, -0.053836307487809196, -0.16989582710498133, -0.0743032749730897, 0.05725859561395686, 0.0455935162158131, 0.22625665715017704, 0.050136423502732945, 0.0588644168108815, -0.2479915097550731, 0.08635715356774347, -0.010903449371944502, 0.10662298849493917, 0.10925109628712236, 0.07251121486876043], [-0.035943790584144104, -0.14854321957498748, -0.08588292367827742, -0.11902197973316465, 0.030198425106516682, -0.20511481499873285, -0.027394382191749722, -0.04458702705715786, 0.12588526778128334, -0.12511439564543633, -0.2459461444169253, 0.29027213016601006, 0.023520520267541426, -0.13291472646798821, 0.012035461373671659, -0.02938869492334305, -0.01619904484813909, 0.12036544338255042, 0.22170086779854226, -0.02714381887722218, -0.2043051263813068, -0.13436924215359483, -0.45482577288700776, -0.03590474758565367, 0.17716563431687557, -0.18728458844598184, 0.0025697067039625863, -0.10747106298997915, 0.18712727829194759, -0.09880869963188191, 0.05844850902810263, -0.027008870625194872], [0.05536695856590957, 0.08147935511491998, -0.17771388837438803, 0.29191153583628837, -0.09275548775981622, 0.1431241314439917, -0.026846831631144874, -0.10950438183150128, 0.2923969721212907, 0.15747036876094408, -0.09121302285363538, -0.2750344678786824, 0.10601115260158583, -0.020620674114970514, -0.3102995857246992, 0.036153630772268255, 0.02593643453020331, -0.02710290495851528, 0.14906938547694765, -0.008783998912105623, 0.16360729536664015, 0.15015849550053992, 0.020584167859891964, 0.02077458718503765, 0.030423378844327477, 0.011072365555778143, 0.18767469595667302, -0.06394252876362917, -0.07201355875334484, 0.07734622593994403, -0.005488942141596124, -0.040617341569814745], [0.05834887248551923, -0.0871627660857734, -0.013096435050650857, -0.06994574927718586, 0.009893877674539966, 0.057572502792248736, 0.14510681969853773, -0.2278568372809304, 0.18411802846654632, -0.24019447213739428, -0.07905623432970062, -0.028178826469556273, -0.14771374901252793, 0.1134850998010649, -0.07279747819076249, 0.07435107746815477, -0.15016060819612426, 0.1393643886577333, -0.15060840918167795, -0.09022031776429697, 0.15950591851765442, -0.0849366470437745, 0.19387337724145234, -0.14326521579506607, -0.14526547780684662, -0.018272236061591816, -0.015571493465776418, -0.03731372218557106, -0.1271365404146115, 0.09454797632472296, 0.0697730709933321, 0.15590907367591478]], [[-0.15735376283047772, 0.11598506532968568, -0.20617489643067902, 0.08120993321303367, -0.18480073848228776, 0.1414733471950718, 0.08420772668662124, 0.20379935395002355, -0.06475367939071552, 0.01801821780734117, -0.0770307682163174, -0.19061981318206844, 0.06712697667211891, -0.1521271638715669, -0.03125948544115152, -0.09086249637317735, -0.04074830297773, 0.09681909331451849, 0.1278461591501244, -0.0515945914382206, 0.10489490991509638, -0.09610163840215924, -0.2355546974165488, -0.053589588104894705, 0.2502578063564695, 0.14793139955899193, -0.34744941818841124, -0.20139469642206723, 0.0032291676981263573, -0.0006381279311869891, 0.1129014325414417, 0.09174951141476283], [-0.022230580899913983, -0.14113363614586255, -0.024760141937478622, -0.19844554870119646, -0.018411442440610885, -0.0595484073818552, -0.11193597304745755, 0.01683533726911454, 0.01318669804451557, 0.11904177351890527, 0.0033644390681877847, 0.34837752137106975, -0.008294037850248214, -0.09113494745931217, 0.09727893831955065, 0.06585481323022294, 0.017036795107407948, -0.1531468979182744, -0.11656127385943336, -0.08037673119041376, 0.10870968085971201, 0.006134845867333429, 0.04895853767213574, -0.03186831008019836, 0.038072334588709164, 0.14865301955847463, 0.22713532002212788, 0.2173051868332456, 0.014167877714793546, 0.044421336618869225, 0.015006712870662136, -0.09052536007807473], [-0.0799099059952334, -0.03578602871764653, -0.01875609799752906, 0.11071923355307052, -0.024428707578400193, 0.05841177456279056, -0.14271246895689552, 0.22094155370403526, 0.166628721834848, 0.031104397631118625, -0.00010900223550342641, 0.17162749426118387, 0.03619565270687739, 0.12154471969063492, 0.37058352670328937, -0.09112400229310608, 0.013357023908482526, 0.3705673502724752, 0.04519813369554084, -0.026052320707423714, 0.08890978386638732, 0.0702173239469057, 0.24253138469468466, -0.015668154678800984, 0.08772054270371678, -0.10014863119319735, -0.023104848822157825, -0.05402501596736759, -0.06269720358407344, -0.034838138675231736, 0.10999679227258188, 0.10852304384297039], [0.07120891152615501, -0.12432800970439353, 0.16491475013641732, 0.0002018236569203135, -0.05247864096594586, -0.0004197107115589247, 0.12327933745567415, -0.0683063792521558, 0.13244824261864566, 0.10232986895462451, 0.31708281432397095, -0.19781937317936082, -0.027515576359544405, 0.0024948374337358478, -0.03029708963416125, 0.01938067884171947, 0.0965507407925128, 0.17916928037889046, 0.03268800708841734, -0.2620249974964478, -0.13515702252963466, 0.08751311676548269, -0.014081671470655246, 0.0816486007212224, 0.09440112924020497, 0.011888839056739582, 0.13781119844354559, 0.02458825523560151, 0.0672554799936647, -0.015223320443715124, -0.02033444460298895, -0.06891823444111295], [0.12462169326392371, -0.03380205813028175, -0.08858280014246224, 0.035462310132144, 0.016236176761321677, 0.02081181480839807, -0.015121972292729387, 0.2024815492770095, -0.10877203324595122, 0.027770958015938117, -0.07863930625371468, 0.012232476374289468, 0.010228347300412726, 0.273200980893737, 0.1602318830627073, -0.12592743768138914, -0.24214396534736002, -0.006765141298544365, -0.023090721102618596, 0.21230197893944733, 0.07289361834950589, -0.06721210926699804, -0.038970030464841675, -0.1568892232841805, -0.2066699857222551, 0.15207637435118973, -0.08295600530210777, -0.19418182490682515, 0.07018329933203442, 0.0670920574714677, -0.1061031254029178, 0.04592156087094088], [-0.05051794356589306, 0.06311043988276992, 0.02808485328141997, 0.24451393474750122, -0.1340716444370804, -0.15479622873573287, 0.031105529639151225, -0.07330173980772366, 0.08896624838828023, 0.014571999197958109, 0.04244255610664572, -0.027732949809642242, 0.15229656445975287, -0.030362509949421954, 0.0069639779836819845, 0.06065592265363759, 0.2041219655243271, -0.12376265394025157, 0.1472264966948893, 0.0861306268002188, 0.0013597869622036867, -0.12213291557268541, 0.12765766657547456, 0.1289154963703017, -0.09485813221724936, 0.16488642020717476, -0.09487267384973637, -0.14447034065696868, -0.020670362449360612, -0.09958121838730298, -0.009767776225760026, 0.1391279383162372], [0.10503434560387953, -0.04892106606982908, 0.23662471697280138, 0.11155010501137351, -0.0023569271512758195, -0.21731871514162035, -0.1275329053452016, -0.1595085653950667, -0.02481948550668753, 0.024512942555424487, 0.007324060738015137, 0.2155192652627719, -0.07831385605871768, -0.10435020596768327, -0.007085238143550759, 0.15510197252043384, -0.024864038682272372, -0.020607188710085354, -0.1747733862290344, 0.08169215481098657, 0.026455076486162934, -0.0010359330171842854, 0.12245964117185583, -0.12326517628812798, -0.15844711161381084, 0.09390941205765897, 0.16524888315791234, -0.02559875834913912, 0.01871388077995052, 0.0629367605390428, -0.07019724477224831, 0.01490133303721231], [-0.038614568527843306, 0.1795983516012496, 0.08254613472040323, -0.13419142491928215, 0.027566892361606865, -0.2111166644841119, 0.10976752231645019, 0.053507589973137135, 0.008632296982220683, 0.1616351215962312, -0.015835340685875346, -0.022538562756423092, 0.06297530754690685, -0.08135604640296815, 0.004028427504144661, -0.07712034834771993, -0.11755637948366582, -0.00890529868689991, -0.031739834261331194, -0.10865445623557562, 0.0696329755105194, 0.17240434184207112, -0.02605349455006217, 0.06738164093977471, -0.18431114707122906, -0.16613588663164938, 0.12634987192373193, 0.20885854259081874, -0.004351291434752203, -0.06850526747270778, 0.08267237282287783, -0.25907872966039025], [-0.051417780374319454, 0.1638436271563132, -0.09756362495134809, -0.0653378572775441, 0.0712253963567248, 0.045263094196255446, 0.11423825166304727, 0.04266613612297349, 0.2597973563669162, 0.0343077995500283, 0.05684929420230908, 0.07969696461877261, -0.14612791328555674, -0.14027527661472464, -0.1268740838840205, -0.07812771433482807, -0.24451753968832973, 0.13213856668164584, 0.15093072694733092, -0.012657357975839181, -0.13741670917002904, 0.10159832772211638, 0.12388885169534479, 0.07714145453456703, -0.02118315442773301, 0.19489885012087035, -0.09391614002936227, 0.050742527749136714, 0.05171034053601204, -0.20093323334076707, -0.11145151134471597, 0.07931631119089516], [-0.05905589782060051, 0.007807157094863568, -0.05105353876172833, -0.071170971470737, 0.12460363044253789, -0.006283531283432282, 0.13598383558581054, 0.010331246779166494, 0.1297572479823424, -0.02321886307074526, -0.008434540797449078, -0.05671408735548854, 0.11774617598981957, 0.06890452862795729, 0.1216019541793124, 0.13874922275499438, 0.06531245032830692, -0.08870250215311395, 0.07068175873387944, 0.07132599774193424, 0.1308884316760499, 0.03453041612265743, -0.1865614307560018, 0.04380416404410938, -0.09341998840106265, -0.24467874936561193, -0.09837061068529394, 0.04304263166733262, -0.08081220387688481, 0.07214859926810863, -0.0015663360384889741, 0.07766971824560097], [0.13101137839328197, 0.07214624084430626, -0.04621852068024477, 0.054959354658798844, 0.11106191281791564, 0.24128667969139697, 0.033154788885309074, -0.0430502070052377, 0.20308816520022646, 0.15384462898466766, 0.04922949868852082, 0.17966589291475793, -0.07486213184472625, -0.20437224132971496, 0.004703056421194932, 0.060424719979314805, 0.08558588679576355, -0.014623851613897083, 0.06235359966188068, 0.1345118047074295, 0.13895258627073181, 0.04818248228905825, 0.008187676321437826, 0.1586275362449913, 0.05077137873939388, -0.10827292086929792, 0.22687044993141234, 0.02755903936882387, -0.07222068647377747, -0.15965849054744582, 0.000981427796226802, -0.09404663432599288], [0.06935075540859546, 0.028116639742135678, 0.14528808421287842, -0.10171389369755468, -0.06951642227829055, 0.05798519905768108, -0.13802492953354506, -0.061705309149268146, 0.056959044919202194, 0.01667581655651429, -0.04838329420814014, 0.09614542941535936, -0.1842487145789649, 0.02741099054846184, 0.0464111154051615, -0.18250742353723265, 0.04923269240021189, 0.004703636974785068, -0.08183455286733417, -0.012647122632724533, -0.24695924272118405, -0.007994281642574961, 0.0949072290457796, 0.21992113119305223, -0.2506516251997764, -0.1943354587095971, 0.12930500917030177, 0.17611200705248423, -0.2015840213108165, -0.22368599187514382, 0.09340320135157805, 0.06790810006593374], [-0.17279575021798987, -0.10224284546352433, -0.011431295711245687, 0.19002828935160873, 0.094899892490567, -0.00602901171549895, 0.021193440764006585, 0.13866605449359848, 0.23621017336174266, 0.27846859552379793, -0.1402816027560041, -0.03815506081464458, 0.015516206382204956, 0.07676670004516635, 0.060298223605807444, 0.26836453941999905, 0.03428091310258878, 0.024732293792266147, 0.15917701864701297, 0.01607037950726104, 0.07596388902695295, -0.08619022485810068, -0.04672156977891698, -0.12315046191552713, 0.0483101180106172, -0.15324464886765465, 0.1996309518692176, 0.2220508241379703, -0.02293530209768931, 0.21558427564313912, 0.04290264814847308, 0.024896180039400393], [-0.03628969268029494, -0.17489666672339613, -0.13790997429385865, -0.18755655250858788, 0.08061328382160877, -0.03538534636403707, -0.14426620020480777, 0.1215440331116661, 0.0242118185999297, 0.11103995556685783, 0.1266948678171088, 0.11507085669329911, 0.09624439144475515, -0.14234721113545398, -0.046772427766237364, 0.05181070419927126, -0.18780909545760668, -0.13956843313826403, 0.04905187177789316, -0.12733327439473233, -0.0574126556023862, 0.20061738781155494, -0.1581578437681198, -0.10448700102768678, -0.002173688753079918, 0.3106314419961524, 0.12470558191175227, -0.0748283136092414, -0.042544707143717254, 0.012425482278235473, 0.13242626938146568, 0.03138045995855556], [-0.31776433120548875, -0.2887308386065073, -0.2562138179045113, 0.10482866616678792, 0.11553822656162477, 0.04953333203511274, -0.26159782260476167, -0.020962941729259513, 0.06997629327764442, 0.024630833158394143, 0.016104420564846452, 0.19969721683332925, 0.22858036928246098, 0.06539825647154829, 0.07604955831749377, -0.060558021561655524, -0.07936238720676464, 0.1279529113193328, 0.05323377095491082, -0.08196431402966958, 0.13856045628105843, 0.2619143908990897, 0.3367490528499548, -0.013338544423022534, -0.11359396970818196, -0.04124953390266375, 0.19016803328098567, -0.08663498029154292, -0.08651773434262339, -0.10388901598380772, -0.15609566473887299, -0.12127998057308899], [-0.01373093312787401, -0.1590906158269445, 0.05392560052969725, 0.26082110184548646, 0.04893332894248437, -0.1350896042751121, 0.0960867963715543, 0.14765883633750318, -0.09224015712890317, -0.05241298622107134, -0.04576852397219321, -0.09645343940513709, 0.008161384018717412, -0.1734803786005608, -0.24779488645184794, -0.09474278144870267, 0.01670863262892952, 0.12941009622411015, -0.10154239857556077, -0.01991717418012982, 0.18953744723653848, 0.07230565397527303, -0.04734680424261762, -0.19776162299463718, -0.0013972977158928348, -0.09831364426004778, 0.24997886349703682, -0.09335787911830117, -0.025596729088915998, 0.03171734220041706, -0.036519188527660056, 0.10215235864524941]], [[-0.03947107824119105, 0.10495281094529109, 0.07859130544096907, 0.14606765856009557, 0.004969504740235522, -0.14370210302805994, 0.20250704520758206, 0.10476307558173127, 0.11523798916730314, 0.16816070309088424, -0.15199231282837408, -0.1319140198216779, 0.011347546454028582, 0.032925168095176184, 0.2348843760957986, -0.09542649206370103, 0.07164065687791284, 0.0069055557296497806, 0.024343467706142576, -0.11550707502129892, -0.10750030231923705, -0.06641100805803377, -0.10623021648909406, 0.00185290235246781, 0.08738960983043467, 0.036617249294823496, -0.21130005978538924, 0.07330322182685506, 0.009003654381972826, 0.2565961344698734, -0.22259504539797273, 0.29052103075948416], [0.022248401816892534, -0.000764632027650425, 0.023002037752861304, -0.057987375011644055, 0.00027600110646586325, 0.020406544630699398, -0.16845431396760913, 0.037309320661956635, -0.06358975328635011, -0.1417059698222444, -0.3413574049937815, 0.11638311845492709, 0.2000396721243422, 0.035025119233466906, 0.12335365158989509, 0.004248447975849306, 0.1420343155053668, -0.016342582586264486, 0.06381358494378503, 0.041457234218877655, 0.2360956919369165, 0.05274926135964135, -0.21433432121681315, -0.148383952322692, 0.03282795706375976, -0.07279412547047541, 0.33074238506101117, 0.11065519115192611, -0.08689913217967582, -0.06596889349254241, 0.23085476698971683, 0.018681467620277864], [0.048101961271110494, -0.09151649909648887, 0.053209054934990924, 0.012501929388707225, -0.07953349470691483, -0.11527489917274338, 0.07938825279712589, 0.13950786269434234, 0.07744151887759536, 0.07977133793358072, 0.019884260278519948, 0.08049917195458686, 0.08452472544436133, 0.11945465286941054, 0.112983701524884, -0.049235034290027936, 0.11201464824767071, 0.0064382163036429095, 0.12044369021624263, -0.026210107154620823, -0.25094083188917427, -0.11583004837648152, 0.10563101785997905, -0.08975731443814555, 0.025288416769281875, -0.18102170271112847, 0.13646831473702584, 0.12583018965483614, -0.13281270984027443, -0.14141613519115492, 0.13651849127566124, 0.1767942617415032], [-0.16814594374563677, 0.09266551896356234, -0.05275214292571443, -0.05904054543854311, -0.08388035885267839, -0.10483610048534997, 0.23436652792980717, 0.1831255056018444, 0.039582254061779204, 0.02897767477459906, 0.20373255240908808, -0.24504535938358235, 0.041050354668115685, -0.017108135951399844, -0.008778183221994532, -0.0010771732256559233, 0.12917126213811442, 0.10524149054641707, 0.005778057060566846, 0.005738649104696423, 0.016998053590037237, 0.22317659607546264, -0.1261801917468247, -0.039830842711271235, -0.019449063376714093, -0.1259190494295987, -0.049354558313209285, 0.2695804601179258, 0.2785141144714129, 0.061060754990254366, 0.026229814129381888, 0.07889035739933838], [-0.11627039642872404, -0.2476547889642371, 0.00022048735845690132, -0.0859752111299247, -0.012590912376661689, -0.05043355548638132, 0.012692937527780754, -0.062660586828167, -0.15154645587195756, -0.06293468321531709, -0.04048341026870148, -0.08764610169207566, -0.09073743579498238, 0.09812033716789854, 0.0638427893288927, 0.044823988702851134, -0.009798265877904604, -0.10973621237717582, -0.024831485569720157, -0.16558010199215112, 0.06388712749844852, -0.05430988612931245, -0.1713529567267285, 0.05938448648841208, -0.024053081476762578, -0.11334387170608495, -0.07392691321521114, -0.08410799390484267, 0.04185541968532833, -0.10186958086572774, 0.00028191046592642143, -0.01364664653965571], [-0.017056640686331396, -0.28477941409292884, -0.0021831572420229367, -0.19208136442187226, 0.0699959228222249, -0.009880374635180236, -0.05089057801337424, -0.005431238642389226, 0.12363122338718237, -0.1445859605206358, 0.06712134232212674, -0.08316226351703503, -0.0803717718897599, 0.06621980778288267, 0.00434707313228707, -0.181399277504155, 0.040006813195615464, 0.0873979156179908, -0.036397649117094845, 0.05872371991437129, 0.025347786162406447, 0.09004247586847221, 0.15102074765658363, -0.07301032728103364, 0.1207960218522033, 0.13450908588175473, -0.08666174014325824, -0.038339592640849546, -0.15824946376522436, 0.11639695357742233, 0.04710266158456706, 0.13980499265722096], [-0.05227238469422147, 0.008037697216203798, -0.010257542637479224, 0.039406239470456614, 0.0833353098533889, 0.04354302592144112, 0.11538150922725643, 0.032725792096600516, 0.04828498686228412, -0.010643510546012046, 0.06946482173753243, -0.020249932916850327, -0.2316329358915221, 0.15434544751364085, -0.003956936814351956, -0.06973078588812145, -0.023137369239232954, 0.15152755810137308, -0.16709069858249223, -0.12067204798141747, -0.21086106291554843, -0.13906129748704224, 0.05167276731626001, 0.11830477015997354, 0.41381550116091387, 0.04519094301164256, 0.16234497002265855, 0.0646859737778547, 0.032141440386483366, -0.09347336107220376, 0.08822661476656259, 0.018892238415250607], [-0.13857928776073364, -0.003246446206019884, -0.21427703444025434, 0.1472452739608772, 0.23300243152341768, -0.009694389628060539, -0.045571405171384936, -0.014718722438258416, -0.09836565385079067, 0.08389832188854952, -0.20088689962263057, -0.10897003960554882, 0.020688848428454126, 0.10780933143111152, 0.19013951802896087, -0.04709361202925266, 0.017116566723090334, -0.007546358498577727, -0.1668399898766349, -0.041442477110282774, -0.17399216494404396, 0.10844765154408041, 0.017401871667509002, 0.08939239906788202, -0.07613976824609292, -0.08615517200135482, 0.17513057728975487, -0.08231893665054321, -0.19446162772364384, -0.0374064670662433, -0.1110184283134085, 0.0970678304797898], [-0.0182887536001646, 0.07537341030783769, -0.13905205187123498, -0.045165353883357975, -0.013306666305995711, -0.3207825458564566, 0.19532016740252742, -0.14354367055993988, -0.05813303698834746, 0.0794425764718809, -0.15624025722788012, -0.06327529921996798, -0.13458484927138106, 0.05856941763698294, -0.06165220763575987, 0.10611356914918522, 0.04696642351858863, -0.13001742314062364, 0.15084569943176493, 0.018623034200215743, -0.02648488797246915, -0.12087547368749924, 0.08576690565798738, 0.024122064833969004, -0.17199101643432213, -0.011462994623527257, -0.048842085485496796, 0.08412347552501127, 0.14281318191743583, 0.0404258018305379, -0.14321128074023723, 0.06335139936796967], [0.03700711962869761, -0.17234656165709317, -0.14872874252097212, 0.006794163043566515, 0.2510728179396315, -0.12497670526777266, -0.07498809940327104, 0.21022486755257516, 0.07834975062048315, 0.25352065528030826, 0.3481371209606429, 0.20571785995988073, -0.006819051986405953, -0.01982185253940727, -0.07261140939261478, 0.03497676559604663, 0.035371914421909456, -0.04911069989607895, -0.09584328328115752, -0.0739622613912515, -0.015341706072712395, 0.11590812729870284, 0.2288674778925972, 0.126338929115768, 0.14083594132535385, 0.11711065067424999, 0.1425713789727756, -0.09949061209659743, -0.029364251312795256, -0.06398347368247861, -0.17537401798515273, 0.07801105496187027], [-0.056168460295782444, 0.14042563884655512, -0.08735884708103688, 0.15528430880972932, 0.27754103456903934, -0.13441647633771528, -0.12445482882386075, 0.07759331259771704, 0.09248912491863828, 0.02956241619490485, 0.14683242975842214, -0.008531216117359663, -0.0013162190615338995, 0.08158163532148252, 0.17306257313749382, 0.000934057417248602, -0.11261680927039436, -0.0037191636889785133, 0.007002903342928463, -0.12474014892242134, 0.11521611056700222, 0.11464536561546847, -0.08577217143607918, -0.04214094252488217, -0.004392503728119869, -0.09681141311608688, -0.026621827797977664, 0.24514018346712066, 0.10535408598948358, -0.13801947495731617, -0.11004856431437807, -0.11032709899505119], [0.05070254357047818, -0.06178837418547432, -0.09864553366997866, 0.16571011519556214, 0.06238134374038938, 0.11574208381989128, 0.03491038548211645, -0.23918122762344624, 0.022318360235041676, -0.08040366867252041, 0.05694430883091437, -0.08050007011105952, -0.15116956872997853, 0.024380028063184025, -0.029297671333697563, -0.16910719368023622, -0.029397353472419143, 0.02729074394584833, 0.17376394750162594, -0.08254933749941729, 0.030658536243711614, 0.04013888905346673, 0.08880900829738944, -0.09819012071917055, 0.09205839383208325, -0.036684583271701134, -0.25076967650064613, -0.003925571242979535, 0.21415818880640572, 0.16983886540325868, 0.13735378934822248, 0.008923994565387165], [0.06952145218739769, -0.11496055148990303, 0.04638456803836278, 0.02253182808657463, -0.13044672460177908, 0.005031593686876109, -0.02464116781501094, 0.18431176962792029, 0.09780832280423145, 0.0495165688415687, -0.21947353354837412, 0.000952338393306246, 0.16226645817563928, -0.08044746883631873, -0.0153399145127578, 0.03591191587813905, 0.07038398059053544, -0.013609096582277139, 0.17716913700823925, 0.022445769092297417, -0.020295982443771197, 0.13502054499439364, 0.08884238359443596, -0.03130648116308731, 0.08368043714449559, -0.22405444464223434, -0.13255866870088528, 0.0046722318680145316, -0.0519600453172775, 0.011173162452066399, -0.029439136982371848, 0.012532271051700303], [-0.01273098776979781, 0.15643257117260706, -0.07468159413651072, 0.18924366204744988, 0.05342457613259523, 0.10704349061772402, 0.006860361451129749, 0.2753382829239623, 0.21642305652786092, 0.0013979336805707708, 0.08066678158186004, -0.05154050530219073, -0.14046255558156204, -0.15344522925777293, 0.021023793819331397, 0.1573869423404305, -0.049517172027783204, -0.06389828013147926, -0.008343768006929687, -0.14513933867983847, -0.16417855806443377, 0.01189212244421049, -0.09643365336593651, -0.07126841900079142, -0.14280378888964415, 0.08170491040774228, 0.009406028945056754, -0.05392446222831621, 0.04749708733300844, -0.08388039838014895, -0.15740659249380026, -0.013428884391953456], [0.0014630691335535512, -0.069386892944318, 0.1896349458716762, -0.06177653788295783, 0.20373231665120622, -0.2692765178805725, -0.12788747375764906, 0.02326453873985496, 0.1374604340584936, -0.06928882623574205, 0.08321314202122257, 0.05629412906370845, 0.08233232659493255, 0.20435230190945103, 0.2737258506854519, -0.0434325519877203, 0.018326362271306042, 0.2411412762675626, 0.07255152831194184, -0.252851722558207, -0.09301465226754461, 0.3259956883270872, 0.06253161613439921, -0.13057611079676845, -0.013812813967051822, -0.11791592177625149, 0.10583347760491212, 0.15712711996228265, 0.1549499991250437, 0.09672409249357206, 0.08406222534212049, -0.017007178949947827], [0.017950119864224085, -0.12316799695841973, -0.05360961750359817, 0.04912437083336075, -0.010424398670745504, 0.10211075355016912, -0.06274328272339467, -0.043443691149420524, -0.28970417405576004, 0.026818858896370267, 0.19959814665910028, 0.006008774203795367, 0.015785422690010594, 0.11099962943331429, -0.07784410743678224, 0.07721113319241861, 0.04675502954993446, -0.015448037057705909, -0.1583318502171552, 0.021789406201596948, 0.1772401491349426, 0.13221302426248494, -0.037067473102540986, -0.07115546137364794, 0.0705958597011975, -0.07992248446844137, 0.06413856546714072, 0.10237118779846824, -0.08477796711249584, -0.19703990859836834, -0.07729093529013892, -0.04171393101243143]]], [[[0.10767790084916862, -0.010076278243421213, 0.07617358159364483, -0.144521695695624, -0.06742962602038124, -0.07544088818595175, 0.18331592072481437, 0.033111867496417965, 0.1424899395901302, 0.01571513339510657, 0.21603592107488892, 0.10562661006582187, -0.07120264071807064, 0.010798378584430566, 0.043385349837985886, 0.03395260095513822, -0.16032405814018166, 0.0438672696411088, 0.10347933148288885, 0.06875716202422781, -0.09811037853587014, -0.06141621080840197, -0.28822947236921426, -0.0912081294150209, 0.027152093125677852, -0.0701643302586212, 0.030690521467000523, 0.2666699951299049, 0.01700790160769381, 0.02439116446230636, 0.03539675423775638, -0.145719498757882], [-0.08511591335295818, 0.09619167187060508, -0.07463672325928733, -0.0389712400778675, 0.0795115324493048, -0.028688721440528146, -0.0163155724842221, 0.011681504354811283, 0.019670510192318837, -0.05019452190299826, 0.02221515471904897, -0.06643618300581469, -0.10876433222329361, -0.09083164113649464, -0.0404602959994094, 0.021232536483035573, -0.31307004127829136, -0.036919270816319946, 0.008603605840502654, 0.009528768224774725, 0.07767922964611022, -0.0445704024940535, -0.014289763918708483, 0.1402356125750285, 0.18504475467887455, 0.07909957450019656, -0.1425475259268499, -0.005329603719362378, 0.07075294629525408, -0.13941125751160638, 0.08105592153103437, -0.01398625547579946], [-0.014902566379699089, -0.2692118499005043, -0.09730111405608952, -0.11773653328590479, -0.09102774630995936, -0.021819038208584846, -0.03688175812086079, 0.0533997080214663, 0.12750209883547114, -0.12350791039878191, -0.21634686737603995, 0.007458393124800766, 0.057935089498596125, 0.28143557189845203, -0.2013064672458587, 0.48770676183766826, -0.13251340221088953, 0.30447981928642753, 0.08162948585253862, -0.02035557973712548, -0.18430701763432092, -0.0888593704181887, 0.06221928370741061, -0.14714115010777942, 0.040405677077893366, 0.14110084332662254, -0.04145129685727606, 0.1781949097865657, -0.06245445140486901, -0.1882116065582015, -0.13408648560552258, -0.02523936384645519], [-0.0595529874880251, -0.20761616036018055, -0.05245592344704307, 0.08295248220056888, -0.01293302103448285, 0.0120615831544217, -0.07395798865161499, 0.05362370259766299, 0.07127431331945595, -0.08659821975962889, 0.010954478946975035, -0.10936098466484777, -0.24828063713590984, -0.04318942256679245, -0.014652949258443912, 0.07271019426257189, -0.11492795084567262, -0.04370313696707981, 0.12662930219699506, 0.11512724724810533, 0.03617346213105168, 0.2536718321068427, -0.038183857045095894, -0.041237935772617446, -0.03154554254583588, 0.06224510547889408, 0.19846481256294599, 0.24951835366018774, -0.15015387393716886, -0.08927960118499692, 0.050965091204531576, -0.07791012165771033], [-0.2551712197245146, -0.007664092688882507, -0.00809993685187744, -0.14642465932025475, -0.12309913557926071, -0.07409434474298728, 0.1635081473003516, -0.0070325462386004005, -0.12992165303881395, -0.060456618420368785, 0.0030401032773026333, 0.07055841566881194, -0.006863274258386357, 0.22740770706870134, 0.12759576111014537, 0.17702397635471512, -0.034269079269272903, 0.29157461194376866, 0.09443813956146678, 0.29044976597887634, -0.1002183846772987, 0.12815858941633124, 0.04989912986532745, -0.08636617825099456, -0.006774757926868384, 0.06017646216651828, 0.1723197695604154, -0.012683189875685797, 0.18319057202518027, -0.034960604499819185, -0.03595112719202005, -0.08263315936522005], [-0.20152999952139386, -0.05374171164235793, 0.01187854910050305, -0.08521377724100239, 0.3908904747733595, 0.21184081810853012, 0.1795044709851829, 0.1412531266473094, 0.08881785137680678, 0.0992839720991282, 0.14503468249238424, 0.2070860647101671, -0.10407688008048274, -0.010802255705250107, 0.15035662131745345, -0.05409137384141626, 0.08628587665469915, 0.0581217878545667, 0.011215596898504227, 0.21132676597661976, 0.08988580944667342, 0.1797871178473791, 0.1457092338884726, -0.0711515698058165, 0.15488182725471297, 0.0320291380387629, 0.11475715995977569, 0.04044507341175808, -0.018649072102611436, -0.29005796417127894, -0.1434002764090592, -0.2283279873465404], [-0.08161969062293971, -0.17116443827536715, 0.16219987087118515, -0.10018815003241688, 0.11541239355459443, -0.027112080923086347, -0.08575511186826636, -0.08441709954040733, 0.07751361913806527, -0.18235432539433608, 0.12936977130168423, -0.010879972744558961, 0.015121787174960783, 0.08911026377156031, 0.05423623075713125, -0.023389893608332525, -0.007473147727257036, -0.1828065655936162, -0.07371434321949276, 0.17526824203906227, -0.009524742394601165, -0.0023706649403730127, 0.1674539705285377, 0.08151078267450387, -0.02366589731804255, 0.08392111707990729, 0.28748843357260134, -0.048993257654411336, 0.13146153540932137, -0.10678303673314916, 0.053992464088805564, -0.050979449123785936], [-0.050529042884244965, 0.04147901979978979, -0.08781168436767599, -0.0013675195310813785, -0.07941469657665597, 0.051756342204866024, 0.07054563031504515, -0.17690855882162565, -0.013391458566648053, -0.1083205715415738, 0.10956949145902779, -0.08025332839811782, -0.07556158976071577, 0.1906199215148887, 0.08553772976037821, -0.09230498895115369, 0.007002572185265322, -0.056533806001809635, 0.08737094205060116, 0.015436134159133785, -0.25106922866981013, -0.08243276106916941, -0.018035761678153402, -0.0941147245499755, -0.011992932172260284, 0.11028641784041184, -0.0430284217966538, 0.11825118136975137, -0.13544782451955706, -0.199684617752724, 0.02745245670296691, -0.060284962794701205], [-0.10420837647389666, 0.3267424773169048, -0.16721473489315836, 0.07206367812755395, 0.15541554587841286, 0.07440148258799531, 0.14094522281387106, 0.147747474789695, 0.017627999043394377, -0.031912896253062165, 0.14874612307816085, -0.1791143368112262, 0.04134204744148577, 0.07241631556544888, 0.05250583999844082, 0.15916921933451605, -0.07215141518870331, 0.011050972763865324, 0.10329751195068877, -0.10513524601719743, -0.0052336974450217155, -0.13663851874552596, 0.13503689922855333, 0.14346750210804018, -0.07346866970371074, 0.12358182315282168, 0.07642004976014836, 0.06450158879544997, 0.0012477265644036334, 0.17333942387037352, -0.05414218383465142, 0.06911366467544738], [0.02884790872006714, -0.04401212222683534, 0.129637212136622, 0.056328249650670736, 0.19221532087230156, 0.10927924235990487, 0.17934477621546413, -0.004729024360855161, 0.20840458878944312, 0.0032936256029713093, 0.08367302515004388, -0.07414241815729448, -0.1389924983448618, 0.04458539788183235, -0.030214111370185003, -0.0030860809272841745, -0.1705593008269603, 0.14132706729794237, 0.13888272188652404, 0.17592689506132683, 0.16515028588837824, 0.007898509370823103, -0.027133949329183064, 0.10979094240917744, 0.09612097137038553, 0.07343450783875495, 0.09321334872476195, -0.09668051068162507, 0.09900396348699052, -0.07779121367272146, -0.2563260078627754, 0.08589016403416698], [-0.011521422617628903, -0.01005801421537782, 0.08510323515636405, 0.002931892893364075, -0.1193329420859511, 0.04615724541654588, 0.004254224243672117, -0.02962301352288714, 0.1075463371500109, -0.005861692212606965, 0.014878728188550417, -0.17677632768493234, 0.25138427316264694, 0.05987616333568451, -0.040217498674275355, 0.045995109384629265, -0.013680739669901375, 0.02274753374701678, 0.07896286665940347, -0.05208707801842463, -0.05582067486054244, 0.12051547441828707, 0.054753059686731456, -0.0839022584304988, 0.10809195246101753, 0.018419114099422852, 0.1342700092062647, -0.08786696678815631, 0.04258131920001133, 0.1334445577526743, -0.058144961458854554, -0.0728177634760735], [-0.14433357147940876, -0.03275299899678754, -0.11319273796714402, -0.047845839575280796, 0.19333342188909866, 0.1476434969484548, -0.1411656634196474, 0.05517289621462413, -0.12242053473996538, 0.0532653624356496, 0.10353330763403021, -0.03795718204086765, 0.11924717799676915, -0.10997788512106577, 0.23693044104123825, -0.0021337539853840807, 0.22011921098415854, 0.1573824218136524, -0.007146651002379403, -0.22747462219491246, -0.04564896798851635, 0.19547161567776078, -0.14333979238909583, 0.09876726146708553, -0.13597011036176365, 0.051637889294399844, -0.020698565515352967, 0.012616932408102674, -0.04136838045188665, -0.08912781301805611, -0.027177883469173252, 0.11428622113800564], [-0.18294426347889478, -0.143726131049026, -0.045164936330296404, 0.23425289275522332, -0.039613723530296144, -0.025567304329500874, -0.05914620587924654, 0.08393384178080794, -0.11892226331292692, -0.04306526575125168, -0.011226061973122333, 0.05115396307013207, 0.02880236574709806, -0.02982466923555063, 0.17821778814844774, 0.09243105042467553, 0.2177743902539955, 0.0502840088768603, 0.41008320115909863, 0.14869046982313922, -0.12288760975550538, 0.016424216354571346, -0.005493310250464961, 0.10096467045227525, -0.059427285715025584, -0.006178023218777435, -0.06372235575248354, 0.10330999550199152, -0.15807354976633473, -0.08731019701737086, -0.022067843216062887, -0.11334759782705667], [-0.05901349707424372, 0.08973597054945848, 0.17963683140392628, -0.1024631245823725, -0.0423324523469392, 0.1132595789348818, -0.19543448994336282, -0.16579014057347205, -0.021241385855939834, 0.10146649342785503, 0.18073256311956654, 0.17923175446667142, 0.04952989347564831, -0.014016097050539694, 0.19618421604118508, 0.1677789464906289, -0.11226349757957842, 0.2142076015675716, 0.1515911762353019, 0.011028446680360978, -0.19294361289874995, 0.020221171254207672, 0.01802526182229966, 0.035529323390064656, -0.051424609865721026, -0.07919501899190373, 0.13530322218504817, -0.08495188762571308, 0.16930599229287116, -0.06103837557655375, -0.12477899062326217, 0.07576591907034061], [0.10791492487926874, 0.08134164097147885, -0.044760775760016906, 0.013239673991203384, -0.0955632130685866, 0.29063949611673595, 0.23403578765178107, -0.048595352283283065, 0.05988980644627835, -0.06410056885835319, -0.03143559948086473, 0.028442220733961725, 0.0867429971042555, 0.12283338185464855, -0.22703503544909154, 0.041436507495755906, 0.07671541098784242, 0.2618476354084785, -0.11580027316974932, 0.0928976495061725, -0.006223808062805878, -0.057258197936041866, 0.09780413571951146, -0.06596425760561844, 0.06647143701849845, -0.062310025495138546, -0.008376311378498673, 0.11910613172794529, -0.17567047328341, 0.09381420600271348, -0.06354661403165279, -0.1769857114211498], [-0.08316096695375479, 0.15162546754050762, -0.027783325544516593, -0.027978600625836625, -0.2005690513336546, -0.17853009459723135, 0.08954605807326729, 0.10188824531764928, 0.16833876823338748, 0.14892295264959526, 0.08674596860241189, -0.1588284437826865, -0.0768118085872774, 0.02062571142250585, 0.11047732898424754, -0.20672821238250455, -0.08018208674070453, 0.014072040273150024, 0.10350485382379424, 0.21998197103967743, 0.10544813504626986, 0.06056996120121119, 0.053112706260618606, -0.3539101182497154, -0.17006570749348962, -0.053672757376733805, -0.016528370629219268, 0.2878520476295592, -0.015638323277371528, -0.17411972341898715, -0.026700037471804442, 0.027525670049094737]], [[-0.035241954521775525, -0.18315798376198822, -0.019024603137722276, 0.03585113479656099, 0.05123523725629226, 0.3014674553420594, 0.06491835433749904, -0.052080158598402634, -0.026781246410744246, -0.062172473072459135, 0.04539804987041952, 0.10212689661495404, 0.12066780318351285, 0.008379808472587118, -0.19825496416591584, 0.02235021264788916, -0.2404607305302508, 0.07304478481228788, 0.20159260734585782, 0.07470137528061213, -0.012457540076293207, -0.15014946418789182, -0.15538742589780863, -0.1615150585122259, 0.15076087136578392, 0.009018469585561337, 0.16401818219994466, -0.18691535181981098, 0.0296664140719196, -0.019919422995873994, -0.05134860926056184, 0.14877294900258622], [0.26226022329727927, 0.05425727803230352, 0.010103499125974037, -0.20753733633651708, -0.004955554240540085, 0.0800899220470772, 0.058191289171931705, 0.014860811298737191, -0.2195348244697581, -0.16769007600758343, -0.22155766739859517, 0.06281396749191036, -0.29910911800354617, 0.19603962237951433, -0.1923404893789926, 0.024720121022423373, -0.07083081433844914, 0.034397482731819584, -0.14891117183849686, -0.059742679385565704, -0.1267065385490995, -0.18595979444927244, 0.08255104024820316, -0.1153145719887958, -0.11738728864088487, 0.1713716937094925, 0.09333209045569194, 0.16141275532938373, -0.05745050299347727, 0.05817955907081828, 0.007527877475752742, 0.09364666279846094], [-0.07585599225856342, -0.02049682913286807, 0.0682564570174916, 0.07573295192519569, 0.24833648087864382, 0.27289989839678, -0.16782816951088192, 0.15180761394854148, 0.13815478020803743, 0.19412424534112752, -0.013285784851254234, -0.12807222361350232, -0.06328621594217927, 0.22804243674059665, 0.07878059788537667, 0.2606082279269645, 0.08388867353852467, 0.07619342734442924, -0.05327081367234087, -0.024343330056884598, 0.03489733596703437, 0.1289467975177497, 0.03270593655884912, -0.011885937119228059, -0.10014059998948602, 0.07088260614435392, 0.1643114061283275, 0.21932056757442428, -0.17140352871523765, -0.08642341586212458, -0.28586081843714223, -0.039819057348144636], [0.13479609934916004, 0.06099663804057852, -0.08735575855688439, 0.009824478586714865, 0.1019067791952185, 0.019699357105160062, -0.12258050361331521, 0.18623428668944222, 0.09553924460061795, -0.10724313247260575, 0.2684087357138231, -0.056512144512863204, 0.028409664731527277, 0.0028910343911937794, -0.1929963140413026, -0.25038736246189675, 0.10399765586608027, 0.03586450743656976, -0.19530391792677934, -0.02832333718187755, -0.016931250789205682, -0.006577357239169472, 0.04638699328650787, 0.039311845873088155, -0.13110899079357335, 0.09880484143503254, 0.02936419758324469, 0.06663271341577585, -0.11265011344993191, -0.06640098790953085, 0.02095848317055268, -0.07350091362907137], [0.0781624126832019, 0.18109292591769513, -0.04707563384427267, 0.16450633985454677, -0.0973307991008026, 0.24450608594887166, -0.22490805503874353, -0.038324457818796696, -0.07364724748958917, 0.2781442165004572, -0.11240485389035092, 0.011561367443770594, -0.23524154931221888, 0.019943724770874856, -0.015688824651058794, -0.10146204838912815, 0.11166238081261505, -0.028615132199002878, -0.1448668178477568, 0.08085261978550093, 0.0329697390261531, -0.04203213369074108, 0.20682508759397766, 0.12511612812338144, 0.02183742397193314, 0.03037452287105223, -0.009268834053131825, -0.021869309207065812, -0.10780267266393569, 0.0037942105311556946, -0.09822656835382162, -0.09738651395813848], [-0.042330685241324, -0.12766591838456953, -0.1788033334127376, -0.06017849460576063, 0.011331134611699824, -0.008657407190704585, 0.09992351376422184, -0.023133991856678346, -0.15385058530387644, 0.12438519072683031, -0.0833825995430507, -0.033579835127159945, 0.0024098731245263006, -0.006555095790782769, -0.05722275060645491, 0.022460400545526296, -0.22576407462767825, -0.03930980853358651, 0.13178773068045302, -0.01072032428259014, 0.054804549747056404, -0.05819158100939236, -0.08189752410626965, -0.11035249797468825, 0.16431073573728625, 0.1759118743397111, -0.05523201277045488, 0.023836526788126117, 0.12898947067825403, 0.06665079518911643, -0.07999640471431932, -0.1179461127226311], [0.11882630428936171, -0.08185726489495573, -0.0035176967214429547, 0.1428560300603898, -0.0523851550100878, 0.11572179539588066, -0.064935464232452, 0.037428108060953584, -0.15125408356553618, 0.03442509649608113, 0.08715762279345225, -0.022029559991586695, -0.0027131618728816627, -0.06790330010139822, -0.015622371414382184, -0.07338591648858885, 0.1984310329604704, 0.07008539212066371, 0.14509467795165834, -0.23817146731792993, -0.08520683485575783, -0.27578495077517867, -0.0676756240892203, 0.07295521387205049, 0.06200790879671392, 0.00806089885864392, 0.042533573856657, 0.057851326239667177, -0.1598962839626118, 0.08770311140101171, 0.044943248454867045, 0.08697263262615308], [0.10960260101899277, 0.11572253328289056, -0.09188428487453353, 0.004966676395177254, -0.01166680796103327, 0.06317013495824493, -0.1421009095558869, -0.025468205335676952, 0.13428032548142915, 0.1688590655224089, -0.0026557377585665455, 0.06086899043313593, 0.03906000763525114, 0.02708714369015057, -0.26506713909807855, 0.28020124654408696, 0.07066455076093185, -0.0009543105307488621, -0.0030119052084219837, -0.03060093588359306, -0.06752855844523094, -0.07811542337261863, -0.002716263201999861, -0.11289039265154871, 0.19217186877821907, -0.0050440694324510645, -0.288788611363859, 0.2631668857577601, 0.07580556052240095, -0.16046040962747785, -0.08526596746983672, 0.34436602806104777], [-0.1031740692578171, -0.047021082542776836, 0.258971372433605, -0.10652197959584775, -0.295217415560832, 0.2970491104030924, 0.10051655389926094, -0.029630815933832436, -0.02146592174474898, -0.19857309697587944, 0.03027621658505846, 0.027531179803912155, -0.013645289743316597, -0.05043888320489378, -0.009654293317008875, 0.2385867590727494, -0.015681228467533656, -0.07535168250078332, 0.1645243807712229, -0.13131066473143835, -0.22665445552770716, 0.03102149942801261, -0.023987282150050408, -0.006252485787434583, -0.08365662769053361, 0.040958674435064735, -0.09369968735488007, -0.07859143575145187, 0.030813782977522575, 0.1476370533606289, -0.08400548454566267, 0.059874027658375246], [-0.08043827769579018, -0.016143246261456835, 0.06138317174301078, -0.052314394428113385, 0.011412978030642621, 0.006525292960697569, 0.008722467042669912, 0.13342879376626984, 0.10042595079690728, 0.10273052651543148, -0.224656145752807, 0.14701597054963655, -0.09358100146207199, -0.032286882960402746, 0.017569183261253656, -0.03224066971575434, -0.08935867965042238, 0.009808338801551445, -0.011721718124018581, -0.033409261875365914, 0.04628307359872195, 0.15830863828959943, 0.0036265932646047465, -0.08537016331256252, 0.08808613720382437, -0.08985430003936676, -0.08582171352821416, 0.19109143349126123, 0.0367849795634664, -0.19208952796085624, 0.14192495812895242, 0.188470369114379], [-0.035136729756970186, -0.0035604943098657377, -0.12365518447368606, 0.03530724077209326, 0.0642337083942103, -0.06606898709603877, -0.1201977964715088, -0.02782386542160435, 0.1405417857375837, 0.17827874072946026, 0.020064048516796298, -0.12565404420876175, 0.16467211545020544, 0.06345365112168028, 0.025768319830724223, 0.045525483049186535, -0.15219742513068088, 0.16879934849931597, 0.19004537003835065, -0.03823949931467652, 0.03102479138148764, -0.07959421658006804, -0.10363780569118987, -0.02208112777754878, 0.03678276963503016, 0.16342184429996884, -0.06886581329337456, 0.03938712930701297, -0.00967399846984653, 0.027356220454902543, -0.25132400939421184, 0.24251015975997178], [-0.08936177933838524, 0.19259300631060286, -0.1563700207909284, -0.07935518254413879, 0.08698868749641638, 0.1230415638835561, 0.17140955283961076, 0.03593214139711481, 0.2605104261265829, 0.11785082023030409, 0.035682964586274436, 0.014995338547715948, 0.0972815913703222, 0.037370256455327856, -0.1442716824877146, -0.08952496656421241, -0.046551691110989946, -0.030425305560613222, 0.09141482978513663, -0.09763192661596849, 0.09741456120562159, -0.040229848501223915, -0.03574463079017013, -0.030416876801343345, 0.1457151209682671, 0.0850585063341222, -0.15501749012522423, 0.2796730478352904, 0.035994982940107785, 0.02144413922963396, -0.13375283274292948, -0.23452343935016898], [-0.05180952018120216, -0.01367588613333927, 0.011908632951765013, -0.04296173918186681, -0.08250781054186158, 0.060308880081567755, -0.14897629700177384, -0.0010832539139860444, 0.06983179746587131, 0.06609345638303774, 0.0202688107819239, -0.00810677269519112, -0.009661166311886673, -0.12308601319987217, -0.011083588725624881, 0.031048257044405243, -0.024095962400661464, 0.167050445437513, -0.07716336989991934, 0.11720833053477864, 0.0496803697530163, -0.10753660140098306, -0.10619339488815452, -0.020325569504144072, 0.09415221751930519, -0.0014083644909528954, -0.026888552529928215, -0.11126155489013341, 0.13588256450754882, 0.1636425754091339, 0.21257079459269565, -0.08588732227501002], [-0.1630920402237151, 0.1462346831860711, -0.21003836486197994, -0.01788027695888295, -0.15152348768887092, -0.05138950914662323, 0.0965249212572807, 0.139737320899879, 0.07852648106945119, -0.027239056640407606, -0.056109133147502314, -0.046213575682766246, -0.06231983980224401, 0.14577310359131423, 0.04651794773547768, -0.08566588688690761, 0.1555752168441938, 0.015187430696577332, 0.07304614149315987, 0.2631743715648641, 0.09455204462042333, -0.037451707421991394, 0.07339845359433221, 0.017657642020652124, 0.1095548992325892, -0.022529440219717284, 0.05502617356671222, 0.19910283939639822, 0.12515599751841472, -0.08067778026872013, -0.15103243209413741, 0.06553975189969452], [0.04600677494075386, 0.17386307386314895, 0.03343248349331187, 0.104927562090953, -0.17972884199139577, -0.04944022690076546, 0.08008527762081044, 0.08944581426554672, 0.11447657568471131, 0.14384176372406535, -0.04840710714710449, -0.03514945251386044, 0.04419428342658037, -0.03751217076667339, 0.027188778424109952, 0.11995056295667679, 0.18786626433705378, 0.19758191751076712, 0.07868829701087882, -0.1314441573987139, -0.02973274210819892, -0.024893266509844657, 0.05654277985892119, 0.1357195425072816, 0.17831447536247166, -0.04375511901193248, 0.02610603316582608, 0.12550089819461038, -0.09425218811832962, -0.034002251283455236, -0.03420215389130915, 0.18270569680024454], [0.24207766193333574, -0.053182442987109016, 0.08150117112128583, -0.14221486512475673, 0.28398641662497504, -0.15199832734829274, 0.017665318256989377, 0.14957014246226816, -0.17243531333674428, 0.02727623295832522, 0.4010613327794812, 0.10094367905681474, -0.04676684159442349, 0.0449122411097402, 0.02944866522382684, 0.07606396688547343, 0.04927780917104593, 0.1713136138981084, 0.07604448494379791, 0.04757385201645108, 0.21479133941200065, 0.04850913233073393, -0.0935965624164506, 0.0060807409492024955, -0.09004716347505184, -0.01709766950997441, 0.10751302174150341, -0.04209280301137795, -0.2778683931691252, -0.09853454379169051, -0.10163922503177604, -0.07434989777972771]], [[0.08824401262633079, 0.07553803724592939, 0.05362159888145891, 0.02859668466302436, -0.135652248174616, -0.22231055353110998, -0.030536466614748153, -0.16479025529776425, 0.19323640662212868, 0.00835668708563574, -0.19766057835421347, -0.028085759076023818, 0.005700109561494443, 0.13303608499604083, 0.10612358944698981, -0.09311505496859775, 0.0645716431836251, 0.18403073980175838, 0.05697602678276824, -0.053512790125931554, -0.0069189326696693625, -0.10758156412779132, 0.07962894201929449, -0.11420703666302481, 0.06872795650138817, -0.022436161918220104, -0.05517101901451798, 0.17789461820815575, 0.002058019401082166, 0.01966669738785119, 0.10749521945040597, 0.06005601636059686], [0.00981484997926213, 0.0866636976593434, -0.12016285216861991, -0.02619741629779703, -0.18701912812206922, -0.1131871623252322, 0.07300661803932486, 0.07574998089066864, 0.08030307366216835, 0.23911866865384535, 0.20692166478060978, 0.06208320676040322, 0.01612575476244749, 0.018262828119614213, 0.08783863060072611, 0.14359805021281374, 0.009515195040157817, 0.05018487251313323, -0.07369907624126497, -0.14645822422347646, -0.15496355260783196, 0.16644230694085932, -0.12323771575482227, 0.05890015449101103, -0.023865918361853037, -0.23253238561012973, -0.027869892164704434, 0.1392398137566594, 0.12748079578889088, 0.017753134983100806, -0.13431237387231826, 0.17607275106329104], [-0.12519310163110572, 0.01699845537968386, 0.15630297892360479, 0.014297341204839482, -0.05217857466580223, 0.09959453097415323, 0.020988304097541998, 0.02929327673666692, 0.028511431515992003, 0.031586332725225486, -0.013149625481322504, 0.03974334171091627, 0.00021718634169110357, -0.1582624070440697, 0.13462342589260806, 0.11754707464881588, -0.010354856042610343, 0.1291735152764869, 0.1546004716211908, -0.06489424834195096, -0.009888609909581089, -0.04624301919549152, -0.010279649960772802, 0.12834508168643138, -0.03364954580784816, -0.11287094290433485, 0.12044993425984221, 0.1528715113631682, 0.13373659197431917, 0.12400681112622639, -0.11395255903662586, -0.08927337938765424], [-0.20220166896982283, -0.10879075495826943, 0.17970932114383986, -0.1252947539302217, 0.11552241108078745, 0.26126095202874094, 0.06111485582041267, -0.05053846877309505, -0.35784508692923117, -0.04202298229318366, 0.06910245998586302, 0.23983739022622882, 0.19737403720976504, 0.1706569708825997, 0.1751264727277092, -0.13822127324962152, 0.02713674449042607, 0.2332784946911415, 0.014077759185085132, -0.033565013515400664, 0.026415963423010728, 0.03154363873861803, -0.08566281425274319, -0.017910305951858708, -0.1467305071858325, 0.1574403832828785, 0.09569075679571734, 0.05640520676650524, -0.07986933849959596, -0.022013962689227274, 0.11829077258582253, 0.06469705647991764], [-0.1071673015204514, -0.021286979721125154, 0.1107246239820427, 0.02621012103127044, 0.014616288222034512, -0.20829074621951976, -0.29585471237484007, -0.0842595485822181, -0.05930090909231892, 0.03552935551784222, 0.13551676875687346, 0.1661984582784632, -0.04876517490034034, 0.14118102830643303, 0.07012914734393239, -0.05924846421632655, 0.07219738757912149, -0.17782892818599325, -0.18373948284636876, 0.09218367335108166, 0.12156912371860404, -0.42467180428820367, 0.15057311904256254, -0.1323254038627301, -0.09560521274415258, -0.007986113974864923, -0.11485528881841778, 0.12487345604423956, 0.2506822901178112, -0.1635618423034837, -0.06942451984027981, -0.11048740718120702], [0.044104264091338795, 0.22280271742386606, 0.09766014239387447, -0.041254322079814235, -0.2512340210713064, 0.029141012841616507, 0.17452490728854592, 0.12911389729664105, 0.0874536901216053, -0.011057499890879298, 0.18962643338283774, 0.18265988754223994, 0.07340678179432569, 0.1604291420404814, 0.11526753036757442, 0.10752747673434768, 0.13740658582530177, 0.07934962795411886, 0.2410559143285531, 0.09432785016224239, 0.09447324199972372, -0.1208050713948117, -0.12508889226463632, 0.0202231803471421, 0.04440776870331228, -0.10535622073930104, -0.03244692377358086, 0.13954307660495135, -0.02151473782365242, -0.04454329474149101, -0.13543477314148086, 0.05889801434585235], [0.15019856490559963, -0.11815079407333469, 0.012542562662172733, -0.0015207670151616427, -0.10691243547844216, -0.16040595847011238, 0.05318651884383123, -0.1547980989144513, 0.052371233276774, 0.09762250251575474, 0.13710434128917545, -0.12701650735162923, -0.11901465223090901, 0.08155774104389854, -0.3394380588814081, -0.026254778641360485, -0.13364325077935202, -0.08315252343477646, -0.1903211797764218, 0.12312833734793631, -0.029981428585572355, -0.01582591669446837, -0.05964404207928299, -0.007402242610608199, 0.00685663914028912, -0.140921653885103, -0.09855236176122283, 0.08410579345743158, 0.040122152611028986, 0.16606729532484954, -0.016639415008772248, -0.04012615683229964], [-0.20159186932953765, 0.09087102935966795, -0.05711417015515294, -0.015988592185756708, 0.03224575403759003, 0.08308687777106874, -0.018334631855680544, 0.15840977552677846, -0.19170320079373754, -0.09211522328144203, 0.17604633911567494, -0.20874486496338487, 0.26922384158770357, 0.2828030910893652, 0.12451116698738063, 0.048141442057783534, -0.019705048505009263, 0.14096713742458208, 0.10888803218415027, 0.09571460030501235, 0.1128528941111515, -0.049489834813725535, -0.024647534102502557, -0.11427624187458141, 0.0039957511902355795, -0.04641510685371674, -0.0811140763643617, 0.07883869824227992, 0.20866436297077293, 0.08167570330979759, 0.041724862695995416, 0.37523976110542856], [-0.06549423419447162, -0.1837456597213021, 0.22507982248401057, 0.14909297272556585, -0.07174540801531036, -0.186213096721021, -0.04325918309999749, 0.00032597360900688265, 0.06396418478163607, -0.06591540199057949, -0.13328300144797542, -0.1251021411522268, 0.0648557644259895, 0.011974631230786728, -0.26769381519102126, 0.15752754477746683, 0.014924034413716489, 0.15267161094693454, 0.04055725411109483, -0.0011042075888540294, -0.11696402568832485, 0.04249188542166726, 0.012710400514820943, -0.047704024657330805, -0.0047879050928373666, -0.118518149903574, 0.01845165014480466, -0.024163058261081293, -0.10864131102772252, 0.0006505938826804024, 0.07110935343228826, 0.07912341584543175], [0.12214139840708947, -0.03696590869674198, -0.0014685484906605604, 0.02902215605997757, 0.04262278970234845, 0.030261880341599347, 0.016499700114826214, -0.06151690636227673, 0.12608571870735136, -0.022696229627914705, 0.04780003213849536, -0.029725203474259925, 0.009376846097772732, 0.06881121474271511, 0.1008471698009025, -0.29834824727984155, -0.021077203528899715, -0.1203824412751101, 0.1781243683983738, -0.23633508706589576, 0.03361399908818624, 0.07988288918512153, -0.030077024302009085, 0.11080129628252522, -0.2033276377508761, -0.18255346588065605, 0.19103559674712936, -0.14593927132797052, -0.02192689237810647, 0.17558292773972145, 0.09271180633960696, -0.21489157774698772], [-0.17398699186412803, -0.10611547037020524, -0.04256445818091401, 0.04084682968031117, -0.26517533118220293, 0.12365853018995449, -0.0389030545675695, -0.1658588358684256, 0.07335747696484105, -0.007071969926313344, -0.10524458180046857, -0.11314766599917148, -0.025501963434984093, 0.27381161337409465, -0.20224666373252623, -0.026767450814198884, -0.11735814242706402, -0.09551899150817754, 0.03536204909205118, -0.09452276249767583, -0.1872889020964416, -0.13698514127656072, 0.01384210573631932, -0.0055834500700449015, -0.11900575682159673, 0.09240589919841609, -0.03913223789542633, -0.049421872724256084, 0.03815380508235295, -0.026848122582954652, 0.045105555557347084, -0.0473511367291961], [-0.1536252008999682, -0.25491518771443034, 0.14941354399529522, -0.35109912536232096, -0.10449637941541731, 0.06925167373369105, -0.04179409694225089, -0.10037738285690795, 0.13789672399136885, -0.10768988263130551, 0.044330233242872635, 0.4053016490173658, -0.09729430745135413, 0.008303559937709553, -0.09686384834179457, 0.106405924506517, 0.004932047214014593, 0.1404444028022999, -0.07244839103307828, 0.04930187308417696, 0.05154199584355697, 0.0994335004735844, 0.019389133197211337, -0.06914516148694652, 0.12398331895668575, -0.06252083461980709, 0.15792858665115292, -0.01310826727781988, 0.08662794281877809, 0.07737051232745244, -0.06917279029574824, -0.06561980289513415], [-0.14484312766116253, 0.156844693549936, 0.08658158368225578, 0.09873660996767271, -0.02042098072817222, -0.1795696533648898, 0.0866903474278612, 0.001168850794086227, 0.2257305789513589, 0.11529895094691059, 0.08285216323048308, -0.024408736738612588, 0.08920276790600827, -0.08406820320510772, 0.13910810362904363, -0.1639211376330778, -0.01621146360491765, 0.14582675662304503, -0.10739095982704293, 0.0008045523636569051, 0.16461338369292278, -0.011010764682833789, 0.03222725777130386, -0.2458119425019526, -0.011688703256344054, -0.041866198836312395, 0.06815636283905877, -0.03158495717446918, 0.1788829083583352, 0.10434402329147853, -0.023226461833732986, -0.1390807557566925], [-0.05900807600769412, -0.11723077137785917, 0.03488725805704366, 0.150553522964837, -0.18366273055446153, -0.07458281394413888, -0.11701707102191891, -0.09957115024492454, 0.04764175080231527, -0.19565528567660964, -0.04542480128283062, 0.02103313746699513, -0.27992630498021126, -0.03332595592459892, 0.045788167861558655, -0.006716920954051063, -0.04094241848554498, -0.04823768392575224, 0.006888789173880286, 0.14683707233266965, 0.033678186911863826, 0.15076296253289562, 0.07894234595005192, 0.020498306780293872, 0.010363594741038203, 0.2627057343137378, -0.09265804766484227, -0.07836396453525386, -0.11117974832017467, -0.0028935019992343846, -0.013661213533664666, 0.027117836866115082], [0.007358182421757804, -0.09558373632753367, 0.11397459366676924, -0.03545210693315178, -0.043399780834153454, 0.032957868244549486, -0.0012450146153379547, -0.004327871310028391, 0.03897039797941296, -0.0557441600165583, -0.0802915050599485, 0.19380101774310396, -0.02771478122376788, -0.003494649488309501, 0.04758247943831556, -0.09169796784052343, 0.015162035364249446, -0.077615314373704, -0.1204582504137891, -0.24570224579151578, -0.07569790380768746, -0.0710831298040548, 0.00043733847708457086, 0.0349512404443947, 0.09171001825533187, 0.013795005536938286, 0.086789169538401, 0.05969627603457373, 0.2661095590400416, -0.08166532410521621, -0.11565401562155853, -0.11904194990565102], [-0.25713956633186164, -0.0022318949187191592, -0.13620342446560596, 0.06324870932875162, 0.026205623005107793, 0.1312346661906757, 0.13434732575939262, 0.027790621348854936, -0.1329575644160136, -0.16051233402745743, -0.17944730557673405, -0.04451957172652637, 0.161933979142996, 0.04280255536988583, 0.03776439317620204, -0.18428785787920648, 0.05055432583461545, 0.11294885628805322, -0.04687041996627366, -0.002573600073244264, -0.08465367405474973, 0.07586728354707378, 0.03977580427232234, -0.09075791527767557, 0.1161379577802529, -0.010649207264910084, -0.009629480652856995, -0.009726658552800116, -0.21298381630227478, 0.02235713705758421, -0.14341068044558894, 0.026790931651870683]]], [[[-0.09734521871185889, -0.03653087824528941, 0.029816039763959693, -0.14158799226241411, -0.09916371066279334, 0.07905499642847216, -0.06443175571867402, -0.023756998458056334, 0.31035567191256697, -0.13691467988734943, 0.08291151549539406, -0.14147127030328713, 0.18571865202343799, 0.03759933669328809, 0.04043372575784564, -0.08855366892250723, 0.04736104171073451, 0.13101501492792172, 0.03805467437890123, -0.11166247605748, 0.012818598863281235, 0.14831982148876394, -0.1431967523215799, 0.07175283856650462, -0.11678651919095884, -0.3045027118967626, 0.12408352210958071, 0.010313073778021938, -0.20337947520779584, 0.15027877804639442, 0.12097287573259762, -0.09137425612392092], [0.20736393599674435, 0.0949843922802172, -0.2787694321983516, 0.06675752191993965, 0.03462957357770182, 0.08889550393222855, -0.07581685905569177, 0.16009438048940783, -0.061199932964167356, 0.0213653860052694, 0.017555236886977535, 0.27170064755071066, -0.02271355798267795, 0.08606952085625583, -0.17462187272531582, -0.028524567631854632, -0.1075705551359554, -0.018035974437840392, -0.03497797173626899, 0.03319215873484191, -0.13332141752821305, 0.1483008916902682, -0.05676982375732848, 0.008561751218727674, -0.089862880808253, -0.16664985879570823, -0.06244300207335362, 0.09384118673015171, -0.008704637349895886, -0.24169456970560302, 0.012805881623702869, -0.27486518195457416], [-0.042606075271601984, 0.22350056393250786, -0.19360531057317984, 0.10085037483897978, 0.01980198746944468, 0.08693221520894688, -0.11394176499014254, -0.280133743550071, 0.0856593405423716, 0.00473971504344195, 0.09729209916847202, -0.08915552240432231, -0.19508320890346553, 0.07187693584074131, -0.1629089993792727, 0.018142128765114125, 0.07275305418316057, 0.05387045743722928, -0.006172976388850134, 0.046971705567969105, -0.01134867313558042, -0.06728607076866631, 0.06273259564782016, 0.05370237213412851, -0.016405734920512956, -0.16399860142764802, -0.10287312311053079, -0.29736587709056567, -0.023606493243433477, 0.04772985506005071, 0.1765202900921795, 0.06206763924160623], [0.10028165015603883, 0.18750982350650408, 0.12527260991278896, 0.12493782444912578, 0.2603413835720608, 0.024081873333803714, -0.06462584988464766, 0.007499531910944254, -0.015619024224459477, 0.0759187226888931, 0.12501885998640386, -0.004720427941616567, -0.0611231217689759, -0.005168992571306217, -0.11083178274904529, -0.026193971293249147, 0.13519301626971536, -0.1258138080384319, -0.2706512344576498, 0.01649421867972926, 0.0855720339750112, 0.06449499966087589, -0.023048523611429853, -0.041277807546168326, -0.2151446922666913, -0.15520466132215488, 0.015261283090447835, 0.11587041088290516, 0.28875865530633327, -0.018938764427703626, 0.05498115079523764, -0.05878362483841742], [0.057970562052049375, -0.019467525648438937, 0.06491967486021179, 0.015691057901778226, 0.016907559286117767, -0.11428465755165439, -0.09699836177998919, -0.17128917112912648, 0.001688807955290349, -0.00019375291087745148, 0.1561496625515354, 0.2527439004713966, -0.04834972628211657, 0.11867811502562613, -0.0669167352676419, -0.02441303520867123, 0.011729332251569238, 0.1883230558415982, -0.19106453823357497, -0.09928601171194712, 0.019714356955184427, 0.08113420983286289, 0.04345086846599966, -0.0743047550215087, -0.21661326710118492, -0.20773184698990677, -0.1446479721730872, -0.0607920190162407, -0.12893319415183666, -0.14792987626692314, 0.14918985829757167, 0.07091625486218447], [0.08229260794173905, 0.014591301248226492, 0.09720331718341896, -0.09929033265937495, 0.14473112285322004, 0.07309292524777856, 0.09667936090599338, -0.09531195752840015, -0.02363156569685722, 0.312825279679816, -0.16050919205059247, -0.041452339170342, 0.07914661998237145, 0.062092875421921434, -0.15328751825888734, 0.12149843760160743, 0.036725749552596755, 0.07744319638990159, 0.14484174201845657, -0.030254260279180108, 0.021368194451389204, -0.3033699708918564, -0.18542214033072627, -0.08930537036308793, 0.08858012773354587, 0.016316665085166524, 0.04877586492694564, 0.08701788170229374, 0.10671148182094753, 0.1884933993801256, 0.09937381586425266, 0.10418746454276828], [-0.02135880369383292, -0.028277872072772197, -0.029336538586059033, -0.10988137240266113, -0.08903842130398996, -0.07858243169401596, 0.05024222506601655, 0.02515354550953648, 0.03227310599143679, -0.16098259542383903, 0.17982761934511804, 0.04803962129325135, 0.04149280820332132, 0.01213333419638742, 0.12808487412711056, 0.049166951596994996, 0.04740350762419424, -0.1758326716618767, -0.11076599172767737, -0.09361153088307476, 0.12109410852548552, -0.09060036395363917, -0.002388220703353971, -0.23361118082379856, 0.05361771366181293, -0.018544717436961212, -0.021814226892446924, 0.12415179653461733, -0.0019239521798352299, -0.047896243861563444, 0.08593986076792448, 0.05560111102732432], [-0.020399388140216683, -0.1123634641189883, 0.19666282742619068, -0.11228049773669631, -0.015238813206928548, 0.23767148707768718, -0.09661255760040525, 0.029557544599845737, -0.12005544039016289, -0.052386121345575645, -0.13784379952484707, -0.12061781015897954, -0.14087565869198793, -0.011197569043512967, -0.018038241506776728, -0.21550300303275893, 0.15156742564990947, 0.018538677102343915, 0.093157856153941, 0.13020100828145675, 0.24371592444712875, -0.027975078689462498, 0.06630919588485625, 0.1216824777779412, -0.11631384268892468, 0.0105124275191311, -0.06773429714108914, -0.2000277394587573, -0.14788767384960932, 0.12488906487426432, 0.04088651773566943, -0.16059694858084045], [0.017073452203958995, -0.17683374189186252, -0.03860402146243362, 0.15186660124931248, 0.05928155870092724, 0.06919066390686165, -0.03258161476469229, 0.08055459183864484, -0.05413181595581278, -0.20936664394366683, 0.27310605886710637, 0.10260778710925963, -0.024178043175932546, 0.11912564736599895, -0.010746595554217976, 0.2934874657421064, -0.08602283537889796, 0.1992912802400418, -0.07677524772321963, -0.06880539586875703, -0.2797556751811428, -0.16805001532679342, -0.0637597680600455, 0.0976598559973638, 0.037574115384554005, 0.06678939765113198, -0.2657909794942719, -0.04086430996766937, -0.0006541189853528178, -0.05887840262107375, 0.11952003196973075, 0.15538380542741367], [-0.134702779493641, -0.1801978985040572, 0.20638398346207423, 0.018880922520617363, 0.07133405999211148, 0.17946115300457155, -0.027318208941968382, -0.031539378020301045, -0.027956969007373687, 0.28414852567013554, 0.25661409945084596, 0.07546562307974108, -0.11801453553518446, -0.05168328762675196, -0.0959851339924712, -0.03475604129552776, -0.061023199080316774, -0.004246628029416512, 0.021266646643631357, 0.1898681490519762, -0.05076103091205808, -0.03643133797743841, 0.11616120616361626, -0.028494648610278644, -0.09101624772760496, -0.14533953019003376, 0.03411341153268091, 0.09649695342879064, -0.15765183708188363, 0.0686886577029306, 0.18684299705502355, -0.09099206829834633], [0.07691073340874399, -0.08157947758151307, 0.09748638023975914, 0.18823395665435247, 0.1869301754492324, -0.012700746447931273, -0.1527522419875119, 0.09465437902264329, -0.07810840700498849, 0.06020852512692444, 0.170622575940395, 0.019791184338134944, -0.015161679687014542, -0.013743615887946677, -0.14267924355681919, -0.0699018934502123, -0.1025123594648801, -0.05430143511022389, -0.07756637804611821, 0.08969857764631295, -0.08415674520167506, 0.001060332878486512, -0.05479979256607332, -0.06544594544343676, 0.1581257813434807, 0.03594755496892047, 0.13285909652347022, -0.1106790016980222, -0.058648960842353, -0.07756012207861704, 0.028629159337429988, -0.10982045693133366], [-0.01039925583268959, 0.09328951258103449, 0.052062912625816554, 0.02528984389233101, 0.13535524127833692, -0.0289711960404034, -0.1586463138032044, -0.010452362849593286, -0.10848183150973714, 0.2886559192412972, 0.07387305316599468, 0.08748177608681998, -0.028296414329782502, -0.05292457403243664, -0.06299497316831698, -0.26560909639563235, 0.05682794456551471, -0.08611478743402945, 0.09427446665153075, -0.05405870396885898, 0.04255026627869231, -0.2423174746885474, -0.16549748031061756, -0.17436768245852252, -0.13110882497816323, 0.01711284679167439, 0.1238342613488779, 0.27626935549942555, 0.025414069623419303, 0.04777107358046305, 0.0691034096691185, 0.06960527299918018], [0.019216222277829972, 0.05702498785829238, 0.10265030317364887, 0.06626112655011833, 0.10473501361342673, 0.05275865341580509, -0.016695893060285016, 0.010346268521512146, -0.07963137985999988, 0.016114309025901333, 0.2002632507028405, -0.014693244185302263, -0.2200501718530996, -0.054258857713010714, 0.006685082685653644, 0.16183704142522615, -0.051302742351378626, 0.12063853333836942, -0.07415210344790159, 0.14083655457696226, -0.05560079909515358, 0.023453896815324733, -0.05091749728597449, 0.09393912389076042, 0.16248203822983637, 0.05352438592912314, 0.15860858515406437, -0.07478429072879332, 0.029166916574553593, -0.11486481391662928, 0.04659063802986925, 0.05060288602456543], [0.11495248306273255, 0.07830468823364414, -0.15654716899187052, -0.14496100502757747, 0.08581154690355994, 0.007498947398496543, 0.08548908297592739, -0.05680219670451501, 0.0823906698315312, -0.20148415597477515, 0.2826193825575673, 0.0443180987419381, -0.12573156367151356, -0.07733678484038553, -0.24125118282631852, 0.15774685753611364, 0.03149015587682485, 0.1985388251514663, -0.016353211366408497, 0.04889373755906252, 0.0769943444405389, -0.20781142855111503, 0.2338804717137177, 0.19307117759058506, 0.08476437309765265, 0.06364794668835341, 0.08383805059517031, -0.15481433066583225, -0.00906882086579166, 0.0999276501949304, 0.012237999823133228, 0.0225042171446834], [-0.015559078432453579, -0.10517956650744134, 0.05385893682310838, -0.06677222107865893, -0.1529170943609654, -0.14182468434853168, 0.025260100409489637, 0.030982244184551738, -0.09955256600951196, 0.007522122063961075, 0.12274419577715785, -0.013255068157581493, 0.1030469661054937, 0.11318669346770172, 0.13191184922069144, 0.16567510226509882, 0.07833948859381415, -0.07935096490975344, 0.047748274082844426, 0.2773141544045007, -0.03854849138210489, -0.1891991350369064, 0.029653473787156107, 0.07476918520558481, 0.10100642778885546, 0.08194967079648754, -0.06529460772982427, -0.17677342957159037, -0.17317258598758847, -0.12323505188643541, -0.08150213639208141, -0.07744741916872067], [-0.06236384760035701, 0.011313716220456637, 0.25296523079304595, 0.11749576878106593, -0.08436044240513509, 0.032767928354839194, -0.14787389481823432, -0.21717436429458462, 0.13491641124885412, 0.11959422207739764, -0.057963236533652006, 0.0023210023818067823, 0.0367770491359166, 0.01631134555308714, -0.0366528541217468, -0.16410472353644892, -0.03023341017363098, -0.05329648595920051, 0.10807038710490806, 0.03834088793005245, -0.23190420252753313, 0.09731219380118311, 0.0678651715962801, -0.01814282620517436, -0.19744755440567777, 0.06490196409413385, 0.02800167083342053, 0.1104145619944155, 0.07260873367795738, -0.19064663004153068, -0.02567012468809671, 0.0604930301990894]], [[-0.23171451917501845, -0.3338301919024895, -0.018660708144582937, -0.022133751108454197, -0.08851282867126038, 0.10024245475131464, -0.0887945742162384, -0.06519832552480818, -0.040930615191030625, 0.09010229933414839, -0.14006343925601156, 0.21615667133266644, 0.211993700326591, 0.09423400763547302, 0.16889418374225967, 0.1476113192766086, -0.16434702371178256, -0.057308048074568255, -0.04621411923729461, 0.13958627262448703, -0.051415871647223416, -0.08632240849656313, 0.12633210862494035, 0.06783872898266707, -0.19439970299038234, 0.062274724942730675, 0.052179250885739416, 0.19192359842898357, 0.027069566006020552, 0.07803971640202877, -0.024983082112528813, -0.05608565043631303], [-0.006743994998095437, 0.15874632993928386, 0.21578320768549872, 0.020815402512833033, 0.278503447269713, 0.10052076525309032, -0.06537845093339126, 0.0850940231376888, -0.15032306680405133, 0.2501429480830585, -0.031145963267887197, 0.115925478864196, 0.2152242555999812, -0.07920295049354034, 0.22429000162937116, -0.06789045961589987, -0.13841463380193667, -0.23875167124430738, 0.020902049324038476, 0.0844372346124179, 0.09035803170915785, 0.14281653425641874, 0.010219484660960147, 0.08390860307197921, -0.11145301580112418, 0.01633933585991878, -0.02062863876689447, -0.09819782858053126, -0.2853913566296538, -0.007285586310287745, 0.07500451963134168, -0.23975412390960307], [-0.06271059848730676, 0.04486249419313594, 0.13313220455960456, 0.1877474662502294, -0.15503124128123474, 0.39091779086127276, -0.03865958174624493, -0.043277920438139474, -0.13986572614279377, -0.036292387965226436, 0.019869278056183354, 0.37148181708940736, -0.13588945261384386, -0.034995064428413714, 0.0980070136164232, -0.1997946666802796, 0.06777288548334519, 0.11429401411800832, -0.050576268364361486, 0.18523836999293375, -0.020887783181188, 0.06478079492202819, 0.13381395493726594, -0.17545447306578874, 0.1815531153436803, 0.036576355995610495, 0.06781913850827848, -0.32993942817355565, -0.039011194490381304, 0.03084804994154898, 0.02456175640136493, 0.021290945474988276], [0.021440894091901776, -0.00640228944931598, -0.0736923299146736, 0.012252404771201347, 0.022340699544398948, 0.198390435246544, -0.021217190515197694, -0.035009560535316925, -0.04761464270997717, -0.05420681149370955, 0.1939225583984488, -0.040427830756683436, -0.28175907889846513, -0.06444075680856201, 0.11247532610127943, 0.20586429419164323, -0.15640480116012057, 0.018160896610195203, 0.1382191589632154, -0.18025985948125184, 0.052851009581460946, -0.09599786910261122, 0.08252995830748801, 0.03508689106860729, -0.1446384659836787, -0.10063934377366675, 0.1467252095424715, -0.006575919775210269, 0.01688781520772416, -0.15407010190150333, 0.048811553513912795, -0.19652849620478263], [-0.18015183572216095, -0.10264830041371391, -0.1392300383808055, 0.17346279245582308, -0.2016369444920185, -0.03923895828601273, 0.02963516251578429, 0.03940145864696061, 0.05362275487146573, 0.04855640432318876, -0.23176640098503587, 0.2655212513753788, -0.172804823349467, -0.123112124671018, 0.13084627427455317, 0.16747790965691878, -0.15886887662184979, 0.15619399979404458, 0.04736544195729401, -0.1840674373520088, 0.14327977863980423, -0.06682024235383577, 0.16307413521550645, -0.015344290904135045, 0.11626223212712675, 0.045535602562641, -0.11461362649050506, 0.2903990572524338, 0.0691673167130089, 0.08801386004583991, 0.23655010620578848, 0.043899558603302476], [-0.02074824591833485, 0.025921723400090132, 0.16857052005411646, 0.07785696174447353, 0.08166268654263993, -0.14043318476685665, -0.3279148821723208, -0.0281334525177991, -0.050118300800208467, 0.10360299290129268, -0.10889257018983806, 0.06299647805119592, 0.14509202838487814, 0.06975495447176637, 0.08835546536516385, -0.052867371850671384, 0.00718985957702624, 0.04035342223022553, -0.051863377094107634, 0.016701583460470546, -0.1139273919924189, -0.12598365851550392, 0.10022190694309431, 0.08073290300022459, 0.006427273753584804, -0.005718044596303129, -0.018781093852374135, 0.003243179879207493, -0.11655660351616101, 0.11466368798933521, -0.016143856107840165, -0.08552018244037675], [0.029857686146195238, 0.05238320800090531, -0.0021996097352423353, 0.04505862066480798, -0.28349534781327124, 0.0400185721528583, -0.11820929654670712, -0.06267705610021265, -0.045942311951582306, 0.11017809048806983, -0.031058408366518214, 0.10854622126629923, 0.1926356741113751, -0.022884200971143923, -0.13076640682961227, 0.06577313806024757, -0.06384711648453968, -0.1100910353803027, -0.14668535776919292, 0.08726412204161141, -0.0367657755911451, -0.007449279064177226, -0.011775090013034195, 0.1835355972233619, 0.20761091680746915, -0.0968116833259067, 0.25569801218475663, -0.1441985035159438, 0.12207135571363119, 0.0194831820556959, -0.021573270581401262, 0.11633930763974247], [-0.06371504980244201, 0.10648953228419492, 0.026042976639646043, -0.05717726716318887, 0.07870300964714726, -0.1396988748203856, 0.09696193516333791, -0.03176193082452544, -0.04818702237762234, 0.009243782191555009, 0.060806979997159435, 0.05718208545722959, -0.03731222275765929, -0.06548596203035949, 0.20258245197788205, -0.05957294615881465, -0.04004019713750391, -0.03584471945778364, 0.03357258074168074, -0.014039565999089914, -0.16703478443428935, -0.0627909214879861, 0.08291104624333986, 0.015442261302549781, -0.06044190893952003, 0.09186593122917765, -0.0519679717250922, -0.14273103968923845, 0.17038374002571466, -0.11903157267027158, 0.06496044831234789, 0.03369213978758176], [-0.06019085155310404, -0.001422368529292805, -0.060855834805771926, -0.17762756439285832, 0.16291731265665632, 0.019508328146025346, 0.11499751404093561, -0.037044653147268645, 0.07434171301244326, -0.02832134164615325, 0.06719916559254233, 0.19521764324156218, 0.033724628266864544, 0.08148141464700503, 0.012453949837392533, 0.13936670925254305, 0.11696214421339561, 0.12385367021689249, -0.06843152597416403, 0.025200390078562947, -0.07957575045929792, -0.0949940752876681, -0.10059712908325377, -0.01462695499086943, 0.13012512533737125, -0.06635836841747897, -0.09322067883852145, -0.09735723626531255, 0.07776624200837344, 0.001394183518457792, 0.08257721833211537, -0.10031375880418324], [-0.04950248024624134, 0.16853918246461358, 0.07372916380350761, -0.28569005740939013, 0.053808223405013615, -0.03154238390733955, -0.07674323249131282, 0.150933586826773, 0.0698228668608204, -0.09020695666729686, -0.044607680183439025, -0.05432169621231756, 0.12259055289363506, 0.2112847187335529, -0.14546281514724524, -0.01253043880781654, 0.1936173158037063, 0.04060729704244321, -0.10453328220271024, 0.04463871629092788, -0.12808752822803682, 0.11198731947859542, 0.11325063151867405, -0.1316722038712847, 0.005299852375476426, 0.17092182754076404, 0.0501115265324384, -0.03537725198122077, -0.12812219056321564, -0.0787131255102102, 0.08117146178509672, 0.0038826422612641973], [-0.04699476084375055, -0.06225329231645472, 0.04294065346319279, -0.024295565719005888, -0.02425575499266191, 0.03528838456301637, 0.0005067500383736809, 0.06401533113945859, 0.07602795691105176, 0.1391119111651655, 0.0833502363936328, -0.07760881014594993, 0.14820686865868957, 0.2669755418386735, -0.1828968231707855, 0.08247124824785215, -0.10655503429096097, 0.14518539157785787, -0.15819894300166754, 0.012828579257447572, -0.27282311893940264, 0.020738408587892235, 0.06703498412265413, 0.10980549231886552, 0.03163589437056948, -0.03508854624965451, 3.323238961038847e-05, -0.050757982211471396, 0.051624938128376395, 0.076213671628588, 0.06781500967140604, -0.005516378001242887], [0.24018696963644828, -0.12595464889488384, 0.008111830653234505, -0.021516944719577005, 0.03845053676801796, -0.06662233514147514, 0.2566408403738264, -0.10249325220991354, -0.07279422515522752, 0.0027830983884819314, -0.032550523029962204, -0.03305494964097568, -0.04858151265390127, 0.0027385209701306476, -0.10405148352273316, -0.06044957153022627, -0.017293989374368345, 0.022684351631708698, 0.17462366876196175, 0.005462060236374345, 0.03589585032002469, -0.12153254019253898, 0.03670269596928144, 0.07610275425702888, -0.08027117860803415, 0.19073525776429817, -0.13667409697718738, -0.05012171327214637, 0.18238568090938245, -0.11336395248373148, -0.05410001567014487, -0.1416902432223549], [-0.01618459875698294, 0.21318392415145268, 0.06776549944921799, 0.13034598100861686, -0.14457610309280916, -0.06771697466848516, -0.022786816219906313, 0.05368994779649236, 0.014698114408906964, -0.020159181900009433, 0.02796514943875072, -0.014902128312213077, -0.12930931230231774, 0.12218188321360578, -0.14523445477278996, 0.01806610963980592, 0.13974189027303535, 0.16672166767514893, 0.13594774299895668, -0.14402490300537601, 0.17697860135919116, -0.08914555828693169, -0.03715516670652322, -0.025277272462772223, 0.1240561132106163, 0.053059242865185624, -0.029749664322360755, 0.03079141568198053, -0.17645301876830422, 0.08922422349851417, 0.0770134254698877, -0.05979670973107653], [0.0825573531845937, -0.22227881319036147, 0.09333458988934826, 0.10844689147722444, -0.10404222328176493, 0.14389155796163755, 0.33989718379526823, 0.05000022375321901, 0.03554825724515881, 0.001450377606364666, -0.006282487424835288, 0.07094213920521357, 0.08359767103837516, 0.14525414838429346, -0.035051104592846764, -0.07546920152599271, -0.07077747118901448, -0.010786639309291766, -0.16838049868009045, 0.017872486152250216, -0.2267033748330513, -0.06352687023729585, 0.09121766773676339, -0.024815115834253016, -0.09214035818693181, 0.055535309353877585, 0.08463852756037166, 0.0982415128178997, 0.05578807513120955, -0.0742004905001856, 0.09778252659029535, 0.03488103388401557], [0.18761593831339957, -0.19721852878637308, -0.02001469517652702, -0.10328002837175593, -0.29264262307246625, 0.035408843100273237, -0.09752121970171762, -0.09150356071751561, 0.04058844458946331, 0.03554578048800931, -0.0019201392193969192, 0.029890812392663706, -0.17140279033698866, -0.03256577172061175, 0.08767566114862606, 0.14023210201925376, 0.06342922421929795, 0.09222752623448528, 0.023443707388215117, 0.3671447689954431, -0.0795622091407401, -0.10349885807115544, -0.0034861755340302265, -0.05171076417527976, -0.07304716356764923, 0.03717388557992146, 0.019938762713049316, -0.2752231827090656, 0.1884653649876322, -0.04892870418295166, 0.18475084793333674, -0.08590241233812904], [-0.045459586178906525, -0.010387929273778183, -0.1767018550397693, 0.0011907193893876528, 0.09893356044727902, 0.05749492297816741, 0.18810149226802644, 0.06564110637694588, -0.16223708766721617, 0.06910081090478083, 0.04321348990528537, -0.16784413846236437, -0.09041182496154528, 0.09471499733387975, -0.11529947676005003, 0.08872389667137498, 0.1597735507392513, 0.07928848515938627, 0.012301616902475401, -0.25404349670095827, 0.10073379571545887, -0.0862920605252356, -0.07546211249468644, 0.1760601335820994, -0.060217235855932714, 0.032513740929965576, -0.16884506271091376, -0.09943517249517136, -0.09071152251572055, -0.09839888649079491, 0.012115848082579173, 0.052169466617346505]], [[-0.008811987247962776, -0.17937008125176734, 0.013259083001519602, -0.04294923404131497, 0.09038679198174752, -0.12107330576458102, -0.02770830319792653, -0.029330277315624955, 0.11797883944542933, 0.13477899950803354, -0.04249405328970781, 3.3442822575464546e-06, 0.12678603172978295, 0.0356376212079853, 0.22276145547277518, 0.1432092237611471, -0.12263571864247967, 0.37199287434384415, -0.05947691751749826, -0.1705992718968374, -0.14481426698511785, -0.0033988894778440586, 0.07035687301573505, 0.006636098025487382, -0.06638931677321588, -0.1543800030269833, 0.21686790337867795, 0.1441882572524022, -0.0866994662901762, -0.26491672920395937, -0.15830781886925402, 0.039415127826826865], [0.13940053147687814, 0.04486830196238979, -0.191050022493516, 0.19771446853177657, -0.05934790699729035, 0.023573640034960906, 0.24658539822532716, 0.07129059712069477, 0.08970858140748872, 0.10015200101420166, 0.07058627525525857, -0.26642900336270714, 0.08396717166554708, -0.003302074951235171, -0.2807521022460679, -0.04955415109373006, -0.12714121546321627, 0.15899358286476767, 0.03347975554392384, 0.09398739343528177, -0.028325292477328, 0.05531415973484028, -0.07935621193097568, 0.015136161161081896, -0.1582579343171482, 0.20969131410180716, -0.07824601712117112, -0.12096323259613039, -0.25488441085400354, -0.11472638375283695, 0.07916537903456994, -0.2623008478866907], [-0.003059054664771103, 0.2732504436563475, 0.02881253875697336, 0.37412697267565526, 0.15674779064998065, 0.1931017203076047, 0.17852193736769878, -0.17099089308256252, -0.002694702134188154, -0.0201683803002195, -0.030096645194008478, -0.08615103836104783, 0.059063638330895694, -0.15404642839355828, 0.04977632648597204, 0.1777287201874952, 0.21515583451227918, 0.014354346874068504, -0.3138342008035331, 0.13837975426340518, -0.019887476051159775, -0.10643496058241057, -0.017660222247569496, -0.16395624007077203, -0.11289105650808084, 0.2150446247620498, 0.20236065605063655, -0.13600378949882722, 0.09016519759793391, 0.10443616839058077, -0.043966189239061634, -0.20401998739891183], [-0.26860335188858125, 0.11369787416165768, -0.08636982501314021, 0.10574598282372957, 0.0788832384036474, -0.011793768785878333, -0.1675556332337854, -0.15227007992815256, -0.03025347435700275, 0.09890125587131594, -0.2038011675038609, 0.10894405234719194, -0.022413087996014828, 0.05142712674867121, 0.22690610590753016, 0.007149722192328553, -0.0010762076503805433, -0.083419016502246, 0.06083336055053623, 0.15879072428071697, 0.002845680833999106, 0.0491102198315596, -0.1069240861490381, -0.025030849708219432, 0.18790223410700546, 0.03023385972241743, -0.018995573698972402, -0.11996747547758534, 0.08010409356976551, -0.13408760942494027, -0.09375571520779868, -0.06323370911672038], [-0.10350332132569141, 0.039367681071219844, -0.07009556430816513, 0.14814305929393645, -0.0955973423311548, -0.1633953344340556, 0.18815300383769354, -0.06897219288818428, 0.009433162560191527, 0.017845073075777037, 0.005969139106626659, -0.18502970790881237, -0.047086352148332435, -0.023824647775642013, -0.05088006471698731, -0.15454783886895346, -0.026414936961210462, -0.2302573219407287, -0.008841720572847638, 0.0650241854355175, -0.12025359128957017, 0.04373897797994248, 0.03207334842795908, -0.03322161223242265, 0.05471809472252115, -0.011110907414205748, 0.04696638049731641, -0.14628176588509345, -0.02401541976628367, 0.020913490288439276, -0.12255754915448633, 0.04426469705467916], [-0.16180053647277473, 0.11593323464314258, -0.09119534656901788, 0.1517338312478188, 0.03572433760576545, 0.0205435779480789, 0.027569837614591725, 0.06316994467427346, -0.1238238093059315, 0.10554352137730831, 0.17313197772492123, 0.25377676818635486, 0.012437910624256752, 0.10657277261405626, -0.1412992222465513, 0.00046871152011487225, -0.06928290169907671, 0.24925228563674637, -0.027303996434628403, -0.011254956904595001, -0.0828978283616007, 0.18080213957903227, -0.13033889983013358, 0.22783188055711479, -0.19732172811040666, -0.27055642964733945, -0.15508399112632837, 0.16589657908722225, 0.08536231161592955, 0.12027764245733433, -0.008441484678062775, -0.01220967547048787], [-0.1427692672122934, 0.18183432379256337, -0.07859847226343364, 0.021547996987645007, -0.11816627699079929, -0.05195383848056689, -0.09101719376911291, -0.04750320943729301, 0.07116149595693685, 0.05097045157393381, -0.0365887530617681, 0.14555506156476586, 0.07535750259300138, 0.08619627688734936, 0.11397505961328708, -0.13760096778248498, -0.07280319429669813, -0.06895848213385826, 0.20010334578425162, -0.23770150845453353, -0.020484219090792684, -0.2677237858840729, 0.0964792295490788, 0.06597310605526237, 0.04673296414998513, -0.14297779124567003, 0.04677945383488279, -0.11118055443093744, -0.012580463541693735, 0.07203594403753905, 0.02250020099991853, 0.031840561072004225], [-0.12081393989786249, -0.04632118083462588, -0.13579631615011997, 0.03252234411141308, 0.137509534908169, -0.09564286714471049, -0.03494950615943756, 0.15096959807424806, -0.020137010214118057, 0.03208298508645124, -0.008875788184131277, 0.0176197754037688, -0.060762756118023356, 0.10090999332625142, 0.09326308001964866, -0.04788187535239121, -0.04912096964549073, 0.06380408692266161, 0.151363062486634, 0.13017104561925766, 0.09277086138035874, 0.0216073046367318, 0.05847005381341021, 0.21338850294938944, -0.03130716073129851, -0.10539571573183944, 0.1008641082287338, -0.025266952077965803, -0.03729175262459386, -0.14587835890340556, 0.14403462724543203, 0.022506994130488775], [0.11229307989928199, -0.048661851300886946, 0.019714020962438836, 0.05461750104241443, 0.04925695425352593, -0.0774896099878541, 0.2091188737649072, -0.22081600978671864, 0.07482758355616297, 0.19308887324347318, -0.23941718650988014, 0.07755277737583294, 0.04715520474367441, 0.019016832892641108, 0.026881900966361196, -0.02758490737297684, 9.648907529200001e-05, -0.14676822312323812, -0.24093008052859236, 0.01912895590080947, -0.15158330983694923, -0.28340066903939426, -0.11484409975459917, -0.18579730955063828, -0.06292796720579347, 0.12529341405523817, -0.1491142785997154, -0.0548358260337995, 0.006399175301399816, -0.12551957214805584, -0.11716126075532272, -0.164498630691832], [-0.13964116799832757, 0.13943494458138161, 0.059288230801470304, 0.0013575947623444505, 0.04811380412843464, 0.07816463943528529, -0.05558148854731035, -0.10886699159237974, -0.20632720714366448, 0.1556127139060464, -0.10966135215450218, -0.0980473411390275, -0.0998471798864907, 0.07904533829902216, 0.40310005849756697, 0.1314782187518099, 0.2794260737046431, -0.026787356833646015, 0.09676747297117588, -0.046472078340013726, -0.005856574228389703, 0.13711981661617365, -0.0655754741265383, -0.12905929346350534, 0.03308407455394227, -0.018697993737848966, -0.04846393254203142, -0.027306510973918383, -0.05038796704619877, 0.04270385852517441, -0.12968121397789406, 0.22367060723580484], [-0.04558599945867943, 0.19384468763388882, -0.08934346356992667, 0.08693318378335531, -0.0032680533851132685, -0.06617377914483963, -0.10153907480771529, -0.024065780811780565, 0.26355199572588145, -0.1590757582467296, -0.3532626501360675, -0.06426089999443053, -0.0034086512559315797, 0.17074019031682114, 0.16034314695335253, -0.09733586897949294, -0.030856642473754706, 0.00786828274718878, -0.03450018106514894, 0.026123645248569246, 0.0007093564731785339, 0.1445101288006859, 0.07984797587105179, -0.14670243682867154, -0.04325002468245423, 0.02475253726141247, 0.06254736048125824, -0.021452104196792564, -0.25032330527783797, 0.016881191574429143, 0.021670102361636023, -0.17670886990772466], [-0.03734189285743445, 0.014687917198834152, -0.12361979910254656, 0.038465683058125005, -0.0962793802528033, -0.016709522924788566, 0.054212449161770565, 0.10366562248275034, -0.07574341774304374, 0.09843630162862117, -0.003244555421824671, -0.005931062668989643, 0.16728042102641685, -0.10317943407072849, -0.15357629902481698, -0.18500693724891976, 0.16495557585067433, -0.05393827467065759, -0.1302143566533297, 0.18434792704178074, 0.009479356279677432, 0.06876332686819368, 0.08932298055877749, 0.09809952548357882, -0.018244520396570214, 0.025738511788798192, -0.14791408986664367, 0.1802681123515989, 0.12312854534429046, -0.004560127992718842, 0.09677766526852796, -0.15067633900283076], 