{"conv_kernel1": [[[[0.8654883099838746, 0.09341859867731124, 0.1517891564447209, -0.01143551587742976, -0.6537774524098134, -0.10258194882230241, 0.28823905462622407, -0.014119766953735251, 0.08199862897616282, 0.45377875636005094, 0.4319860542113113, 0.7402452247130741, 0.7218974982899953, -0.0816929717952277, 0.16691784699474746, -0.032521270375728856]], [[0.44204651879360124, -0.5995000978418698, 0.25040741469839045, -0.6573451283365649, -0.9073635954261192, 0.65814486432004, -0.4165304196641235, -0.1635979450509571, -0.45371252502860215, 0.5122414427933184, 0.058171579894284224, 0.20519677254910992, -0.4827601044746954, -0.4541015624649383, -0.9390223143526772, 0.8818019087934119]], [[-0.5575474167052484, -0.21572901772814826, -0.20756945768292304, 0.38473550975491033, 1.130500313337331, 0.2584861421815016, -0.40265340437287345, -0.4291344133109631, 0.20218230628109884, -0.6269779271922578, 0.16625896528070924, -0.8100115237100518, 0.11142217677214511, -1.0175523529822763, 0.20301024583584693, -0.31432859929798324]]], [[[0.10857748693799485, -0.4830467753028184, -0.12315445063813897, 0.746026071908258, -0.32124915521807884, 0.3660032847167317, -0.3069696490799318, -0.26779670936715394, 0.732089511116243, 0.18477154122267983, -0.5418695329126341, -0.8584064464164531, -0.4352732133227783, -0.3768123604713576, 0.5036344686631682, -0.6891565104540637]], [[-0.01932070191180097, -0.7729217642346724, -0.13444671500000013, 0.7369775939222282, 0.0774961334880925, -1.290522813467573, 0.4094790520704763, -0.06209208830404713, -0.17032536692959738, 0.09928330797148006, -0.5786239906092706, -1.187896021449353, -0.40390745660999294, 0.3378955942376407, -0.7448345763463398, -0.3249276573866391]], [[-0.08762418852942642, -0.1674886159878224, 0.9696755788758813, -0.2764249916899451, 0.4458683296806321, 0.3402746614280589, 0.7323977194908038, 0.3034444707018148, -0.023662629872805263, -0.49459793587821227, 0.3103873420259557, 0.16778018944276724, 0.28989781315390134, 0.13841420004645694, 1.3517642258082851, -0.37759453980736524]]], [[[-0.19934852305208461, 0.43991762468259943, 0.7695890488731071, -0.336380301910528, -0.2783555988997557, -0.6000279599635869, -0.29542406076769123, 0.047684629429126914, 0.07671739638377295, -1.1051189140062567, 0.6328824132797815, -0.8810411637488673, 0.8854658966694576, 0.0622617682590849, 0.5997800686805596, -0.8534514560132801]], [[-0.22746071270164472, 0.5914487401566916, 0.2675089557989849, 0.6421502639117928, 0.45215056328230513, -0.18031329034852447, -0.375865961023832, -0.7677745658162604, 0.44953446366820193, 0.7695612304192687, -0.25666286756676454, 0.24726183617351669, 0.1780812140067514, 0.05183709902427712, -0.1291094925451568, -0.060014096652308994]], [[-0.21683297707197693, 0.22683749585723947, 0.6288984244166705, -0.7262470439260471, -0.1037824339553343, 0.04650151778758406, -0.10801476868663136, -0.23497620149736878, -0.225743022795815, 0.3481782068068277, -0.258222832854614, 0.134930173478262, 0.14742033167813307, -0.593005686331478, 0.7575905562087593, -0.959429594327115]]]], "conv_kernel2": [[[[0.0060164143324776004, -0.06986410611643155, -0.02361381285047641, 0.05487042255683205, -0.06265808434732632, 0.018913329486666533, 0.07418089078287982, 0.17884776932599583, -0.1531655534654455, -0.14074317825981883, -0.1497419504313024, -0.12322905256576341, -0.05810847790556705, 0.08197421820032567, 0.0764598182924762, 0.08606212959358149, 0.06459795478357684, -0.02508564412825832, 0.06572020556824106, -0.19628883178884993, 0.023409014821198077, -0.026995128014696102, 0.04858171434059199, 0.024494853697017326, -0.19810005170463543, -0.1859121792075151, 0.09518044365034495, -0.18336915228908363, -0.08240711681794122, -0.12678234370064315, 0.06409875815619337, -0.09312208086633719], [0.05022858861582025, 0.059184979351483355, -0.1381328168670026, -0.09779012850937129, -0.04239125770523624, 0.12026502541305653, 0.015366056344018234, 0.00983359410967913, -0.02020118129355435, 0.05163327537047278, 0.19834189231118102, -0.09612195748393378, -0.027147751325325917, -0.01848808458531924, -0.38728889712362824, 0.150561096040272, 0.03526287474339697, -0.11045828690662744, 0.13074450672233984, -0.04408214865941478, 0.23879709500225932, -0.042623992300500735, 0.019795851034130046, 0.05232556548991972, -0.09078479079349326, -0.28947600355601, 0.04165401043130094, 0.01483684249866343, -0.14406431188742602, -0.1827676961041962, -0.0073499658176993604, -0.03869816335284688], [-0.02139521436651127, 0.060588958500710284, -0.14778489712760756, 0.41170479162791457, -0.0704889020223924, 0.055827636619824234, -0.15451246884863704, 0.15103806614942925, 0.23952633434306722, 0.25237615598445523, -0.04415918817633016, -0.10981669372808468, 0.056287494387815995, 0.05720453796584058, -0.15774205416819403, 0.004726260926249129, -0.03051295240376693, 0.043782549279070375, 0.006586738229041134, 0.2311875217988523, -0.042651950943671774, 0.01855708303091673, -0.10884229230906518, -0.03606859537608329, 0.0194947191493853, 0.16735075657637172, 0.14538391129822795, 0.028665743835391312, 0.07467492134539454, -0.09525114088391858, 0.12482775128899427, 0.12761562758326772], [-0.03737096716980443, 0.07116576107259277, 0.12894787660606558, -0.09893433126523271, -0.04101117081187641, 0.07156712172731909, 0.022164313944476956, -0.0030874837935334345, -0.11322858063815297, 0.14761214953553636, 0.258057179729563, 0.042759947135742514, 0.06992964911407872, 0.08542205897927857, -0.10067057998594729, -0.013733113058389241, -0.1084439915624782, 0.04616071779990467, -0.01213197378187392, -0.13032555197319393, 0.013853926713992456, -0.1677436581725165, 0.10421209057331675, -0.2936120456535283, 0.13758897797978803, 0.03812749149968034, 0.09952007113304615, -0.08440928857614181, -0.04123703868841561, -0.3073665323395424, -0.02815828800028877, 0.08906921095781495], [0.17308904418403032, -0.0199266471622272, -0.11446379117879461, -0.1201347575402964, -0.03911631030634323, 0.02896082524863491, -0.22422014253644593, 0.06870486839763411, 0.041198999777109266, 0.004471622127200712, -0.0754878936593724, -0.033922299705033014, 0.010728848152978383, -0.048403958820225086, 0.11774995040534864, 0.21846567158427097, 0.09414722480410724, -0.015826687125988333, -0.06685531392205342, 0.012389146807328527, -0.08440960181665848, -0.09819988472846705, 0.00044300166064995233, -0.0859502124579202, 0.07301947290016149, 0.1783577755000798, -0.04977121905141643, -0.00881711577314711, -0.033485971260682035, -0.20001762083503977, -0.1523580138780987, -0.03483456727768734], [-0.196062513064531, -0.09103965995795717, -0.008939780428189822, 0.03544688623127114, -0.4767833582886693, 0.0659007112840787, -0.24304766928793517, -0.06748073534490712, -0.003951762826311773, -0.11562588216823638, -0.06271055818155255, 0.22019582497121254, -0.00666666931811564, 0.011871855560534699, -0.09008890897168692, 0.07609123764129976, -0.21701769565261372, -0.08512726102542979, -0.03950324708130868, 0.08009263926623728, -0.03420975258024282, 0.17019427083409916, -0.09004622121002145, -0.08204040569424326, -0.20949766639017814, -0.14926584238993834, -0.1816265568864493, 0.18962644129244668, 0.16221513224777345, -0.016410717602538337, 0.16457633437220237, -0.10794760820522108], [0.03390522188406364, -0.15584801686064834, -0.017953806091763665, -0.12150486806934838, 0.13067425340206693, 0.24795350197038185, 0.09961943005113484, -0.008634403121747026, -0.12344463993280352, 0.047277261739846206, 0.16536074231155226, 0.03314486397844095, 0.1281656348796467, -0.10437352200402593, -0.08104755436504382, 0.048831376775724813, 0.003460671229270344, -0.18306601979209036, -0.05020534229388946, -0.00021054893985704133, 0.0011779295174233113, 0.11724436531865744, 0.03486851172242019, 0.13281263521897138, 0.058340316765424234, 0.06800036855793082, -0.04529033908774025, 0.1583195216471773, -0.181439463942518, 0.0019727511853778563, -0.25523111312730906, -0.169818034629754], [-0.0903482882766121, -0.21371394220419931, -0.008357328508145601, 0.15727569310552386, -0.0040349676010379, 0.005782280352277447, -0.03902398424726883, -0.06824054298237102, -0.003212849412953448, -0.11381786620021274, -0.09463160448856266, 0.26051456955834873, 0.0686783132679883, -0.1339945176913032, 0.06355881776284533, -0.03705739027153118, -0.06432927880475513, 0.033203511430966885, -0.08896141772290078, -0.013514816757483132, -0.12750087961687917, -0.07188046854929352, -0.0038614172738542776, -0.1539472471263097, 0.1399111908412623, -0.14785091968128192, -0.0898991577042867, 0.08948963606395244, 0.17524876049635046, 0.15206687607359584, -0.18423043516267001, 0.06256408838094966], [-0.19358299523853897, -0.0030584032778804473, -0.05245704487799351, -0.04638842892547669, -0.3035920691298045, -0.12952168719086365, 0.01848512431349063, 0.041957766676078985, 0.2377269388503836, -0.08130254541111848, -0.08501451280309472, -0.118211084864967, 0.02984499776918574, -0.13424162019497232, 0.03381172151208803, 0.1286657834410281, -0.07258286759064289, 0.09169896267567375, 0.057977821383195835, 0.1657950571864673, 0.10100358920303773, 0.07908903729932343, 0.22836556758250995, -0.008867650882450133, -0.05313748034858593, -0.053648453749521686, -0.026341242302029437, 0.18105588412510987, -0.0036436960813352333, -0.019753266404735088, 0.084929422561218, 0.08701903513271363], [0.19401205956321485, 0.14140599637307386, 0.06081529718969698, -0.050472683746526165, 0.10615010469547133, 0.045617003625344495, 0.12069093044332353, 0.05698106591065254, -0.011188190859636281, 0.2711706326639187, 0.05772571344493989, 0.10138570425503696, -0.013710974176365437, -0.039688134049089295, -0.10050263235415482, 0.010199877922684059, 0.14816996823021975, -0.09610143805004596, 0.051526895573970395, -0.16326579340626093, 0.19602903189345444, 0.2869890124378316, 0.12687174429434261, 0.09878591460971695, -0.02128211589326992, -0.06284220890278068, 0.12416705235070691, -0.05898301047404551, -0.007275510879530232, -0.09005019605533421, -0.015991559389559887, -0.014562026612548556], [0.22750798569807976, -0.206770384919739, -0.0581466169858194, 0.10602481889237239, -0.1702079298769569, -0.12496448654606204, 0.2231961943072403, -0.0709557622442347, 0.1208884597636777, 0.1854969856889268, 0.07661753158606478, 0.12263791814884951, -0.17554820861462306, -7.279882239455414e-05, 0.16789145798259744, 0.11832538937923937, 0.07301329449950075, -0.16320168340061852, -0.18446496861852957, -0.10352420829440231, -0.08144906547529847, 0.09205904374897661, -0.17253635836955894, -0.03501063649847435, -0.006398319872987331, -0.13762696861766177, -0.21248156540020147, -0.15373282424532864, 0.23087551106565063, -0.047850311797617166, -0.07489963163749049, 0.28305933865714344], [0.016059022460438267, 0.10946785585320107, 0.11186098854974491, -0.014543195423213556, -0.08272488621790436, 0.05926915625552198, -0.10558101559214857, -0.18672141470259795, 0.06817065736556406, 0.02938648538677087, -0.21345952625435088, -0.014211604060309108, 0.07913624398464185, 0.030000420703786994, 0.07659732210934718, 0.2074210338026961, -0.18710582563703226, 0.059931016053941626, 0.07531864665310685, -0.04902247357813011, 0.04185810199056855, -0.08642119671640072, 0.1394263573958342, 0.03931283377682136, -0.08503259160981215, -0.06692476275499543, -0.00492401809715537, 0.01992994165223031, 0.1264044652214156, -0.0639737162964708, 0.04178752210271906, 0.05466919332308534], [0.01873677945430388, 0.07059088022547072, -0.0480514167580166, 0.1655485646937511, -0.102192164924543, 0.27204490243463775, 0.13714088399767876, 0.02643148636850807, 0.02599965604579062, 0.041041287742268125, 0.07241553144984321, -0.22330321197525818, 0.20577965357562844, -0.06396809465206948, -0.10079674017920894, 0.1710975512058037, -0.2786785863305959, -0.08778500127015568, -0.05929506994713069, -0.17070220863776903, -0.0789375206121161, 0.054898811883116246, 0.04730538396595581, 0.22535661207258847, 0.046896604653673346, 0.05528947505684707, -0.25304028145258245, 0.08401415416010935, -0.008419178733568471, 0.10594092469413856, 0.11216265957682484, 0.06984931657060141], [-0.03594052732343545, -0.14856495311634535, -0.08594700928777657, -0.1189222968294881, 0.030200552967922952, -0.20485362794066025, -0.027596221938625605, -0.04462590164844326, 0.12582595608392974, -0.12514966626777563, -0.246085745202176, 0.2902174145086507, 0.023538656621414134, -0.13296833166778735, 0.012053673749803599, -0.029297328060768523, -0.01617302171391195, 0.12049541338364336, 0.2216880549979414, -0.027103652538322514, -0.20433815345925302, -0.13440310998987448, -0.4549014308323163, -0.03594890559064606, 0.17718052733072662, -0.18733463759965405, 0.002723376244621638, -0.10733114457523615, 0.18706792538706307, -0.09881367672857258, 0.05855175957884135, -0.027107863232084348], [0.05446791038518804, 0.08770165717456092, -0.17136116468573298, 0.2805977456903815, -0.0909897283144669, 0.1395848765956322, -0.027483430791562357, -0.11848304265934614, 0.28133212331320406, 0.14832591775901627, -0.09690372013454597, -0.27030248413591423, 0.09714187159147246, -0.023770142630196032, -0.3050121296475186, 0.031638053476076296, 0.03160660245628487, -0.03821687117997466, 0.13650804790809037, -0.007528541711740029, 0.1543497958372841, 0.14699749025012845, 0.023367951167522324, 0.01911166664900427, 0.019371209145153116, 0.005609585449692996, 0.1756744965838038, -0.0733378381254317, -0.06652717020528043, 0.07557573767870432, -0.0029531029208802522, -0.05099789324194534], [0.05806745766576863, -0.08811182048886251, -0.014344768271322219, -0.06885412985035841, 0.009936459605520089, 0.059401341304401174, 0.1436931986140839, -0.2277575557499018, 0.1837409814877627, -0.24097078815170714, -0.07896789891805332, -0.028560316200726944, -0.14807253280067126, 0.11412148664193139, -0.07244442838018955, 0.07620154812312852, -0.14970341599857695, 0.14034870881215222, -0.15120207591174203, -0.0897530595616119, 0.1590813881535001, -0.08608536986394705, 0.1931378552502853, -0.1423765636880096, -0.14371737860269534, -0.018245302300489697, -0.0160701393975185, -0.038368944599895136, -0.12816099392636027, 0.09461082405773284, 0.07007966664744933, 0.15449888616469623]], [[-0.15760656127637224, 0.11703838713056258, -0.20261002457655952, 0.07254699130680835, -0.1844357740635034, 0.13347963171477864, 0.08131122192907463, 0.20054750595884763, -0.06524813988663457, 0.014443291554633971, -0.07754844531865025, -0.18777321437258931, 0.0694260566974829, -0.14690546614008118, -0.029431336984279157, -0.09238431140359622, -0.038737570435223814, 0.09729282369633174, 0.12518687869553635, -0.052788202064570626, 0.09900615764689295, -0.09908718937618285, -0.2331077708435983, -0.05382364600258873, 0.2452368933004708, 0.14176043844634717, -0.3408693465982492, -0.19984118755092736, 0.0032808110598838997, -0.0002835540394637405, 0.11093238526222478, 0.08626276400123073], [-0.022247070970775395, -0.14119488904982674, -0.02767309411194262, -0.19271307926973502, -0.018476679902370438, -0.0578529237148576, -0.11145847504521329, 0.016958026763950283, 0.012664838104858632, 0.12078897154024902, 0.0018090610834469313, 0.34845651966040414, -0.015515025343120506, -0.09237231113152228, 0.10367150929030203, 0.0667379586067875, 0.014898171847970019, -0.14910992628893877, -0.11931636256969257, -0.08041931085499543, 0.10854015684433198, 0.0007416727708607287, 0.0536599698378995, -0.03173165343860858, 0.03893254068526069, 0.1498593969682237, 0.21249617366400433, 0.20750265570087467, 0.015057065227896061, 0.04530427684859007, 0.015103121497593396, -0.09168934247765723], [-0.0798979798298003, -0.02859004095654004, -0.01283826604966294, 0.10246052583873658, -0.023188787162276236, 0.06396075605518792, -0.14146309421624634, 0.2180704175349258, 0.15286909629207857, 0.02299375312876846, -3.160641663698427e-05, 0.16715058020885568, 0.023404969596384727, 0.11152296028270578, 0.3581647009246992, -0.08889850289418934, 0.007103861208751396, 0.35506436838766053, 0.031001645004128674, -0.02248776785706481, 0.08219150164442468, 0.057584756542634924, 0.24091188254968063, -0.016378455406251387, 0.08527176493770712, -0.10338861049027681, -0.036936743823979275, -0.07079078536966697, -0.06108407515787887, -0.03755504728673386, 0.11573565603658223, 0.09409539064173136], [0.07115424546329903, -0.1220013349371147, 0.17031854259091736, -0.009887814228704902, -0.051820960605481706, -0.002555060153048203, 0.12192858444895727, -0.07104794867679212, 0.1259249219864274, 0.0936174887077171, 0.3144965419819003, -0.19624096987050163, -0.02737421364841652, 0.0033498598489982508, -0.029084014070656656, 0.020107210542318163, 0.10040014971125988, 0.17632903416555146, 0.02752575765471157, -0.26108907270621995, -0.13998904243809876, 0.08255141232313815, -0.014865300071889066, 0.081578754720414, 0.089347075117651, 0.008590970341973125, 0.13202051406159063, 0.02358220495779367, 0.06922204577212433, -0.01588161513399919, -0.018158793324865752, -0.07581831092980278], [0.12462511391759645, -0.030659236297005264, -0.0850578967663387, 0.035792255693945514, 0.017061983664572605, 0.024288458188342764, -0.01425231274918913, 0.20654227265208122, -0.10543352961058268, 0.02988067644216938, -0.08153536270740934, 0.008222360673392319, 0.01353460543651266, 0.25903998011589874, 0.13881172062808808, -0.11890145995148532, -0.2461959914867888, -0.016248685973272656, -0.02039848270220815, 0.21298043777969464, 0.07061259664395421, -0.06009540110872089, -0.053268887254036154, -0.1575672612342499, -0.2109064958022082, 0.15175485665062594, -0.07321653802152, -0.1952532000300439, 0.07097480764387006, 0.06500519859110582, -0.10484532447802693, 0.0415608381226729], [-0.05072362208083936, 0.06296470675814093, 0.029744498373227627, 0.24222116874783065, -0.13348068787327827, -0.15212296559510238, 0.027853469375169942, -0.0742125048600083, 0.089916628106673, 0.011081102943778754, 0.03712945078427689, -0.02851934052302494, 0.15239023826191422, -0.029981517500104242, 0.0005422006254213171, 0.06316283241363399, 0.20628333399917126, -0.12134564176829422, 0.14527535274591155, 0.08656966654573124, -0.0005909722795849154, -0.12415189294866011, 0.12703539123990587, 0.12854095001566762, -0.09535425845948538, 0.16329718242967797, -0.09195218220254946, -0.1463005213872332, -0.022134336673092832, -0.09997311195655519, -0.009992602752595258, 0.13576670617370995], [0.10501089202509273, -0.04812906893138396, 0.23738617047071253, 0.1103057870828388, -0.0024307317091153916, -0.21764111709838502, -0.12635552052386623, -0.158837753744673, -0.02569276086867866, 0.02424120813898759, 0.006479910807603568, 0.21547208826098987, -0.07819554355881468, -0.1029369943698639, -0.009270045434653956, 0.15622827640760237, -0.02541074500310099, -0.019828924639539943, -0.1768111225526816, 0.0819581658320704, 0.02617571330807741, -0.0029489332330086626, 0.121838605228336, -0.12333983522570378, -0.15763563626760554, 0.0935867846769625, 0.1642176098663542, -0.027451539684539953, 0.017902079985635574, 0.06313602776360865, -0.07056890580253788, 0.012357201734657347], [-0.03861524601597765, 0.17959666951589442, 0.08255393095778951, -0.13414352220934816, 0.027544374867173607, -0.21111527719164724, 0.10978624493319018, 0.05347873985056873, 0.008592130135787626, 0.16167727700707785, -0.01588301969168112, -0.022458319356788627, 0.06299368371764512, -0.08127455550101918, 0.004153182735883199, -0.07717385371616402, -0.11747269453090971, -0.008931978516997532, -0.03172843011291539, -0.10862177218968828, 0.06960897813064808, 0.17235350505712735, -0.025953710950169767, 0.06738503750686627, -0.18432429270579712, -0.1661755000642181, 0.1263585079311045, 0.20875454135084343, -0.004352501595602412, -0.06846147172622459, 0.08265087616890561, -0.2591548853234893], [-0.05150418644010506, 0.16600670995980055, -0.09421713933653574, -0.0707861507955463, 0.07184168080148659, 0.04297441774048779, 0.11400135063770134, 0.04008284933119994, 0.2555265905339698, 0.030062413582833077, 0.05671095356783171, 0.08164406980872281, -0.14870107753487485, -0.13886628710372395, -0.12441220445517953, -0.07989161320246324, -0.24221178683184477, 0.13038469638359265, 0.1465321900496467, -0.011508393930119747, -0.14114652632978356, 0.09600742506913133, 0.12446682735999115, 0.07698898578940433, -0.023148887879532745, 0.19252582502176044, -0.09954267711279809, 0.04797901815516825, 0.053333276443403466, -0.20118886713331943, -0.10976357091695856, 0.07615622608567467], [-0.05919666915888651, 0.00870690154200884, -0.047692196354798426, -0.07913502170882271, 0.12464801006824307, -0.007630112485474218, 0.13604468623334315, 0.009896725289869422, 0.12877879850277044, -0.031318868841685714, -0.008066269278480427, -0.05921621133133685, 0.11979344657312276, 0.06986333657844528, 0.11815667546186301, 0.13921495714069526, 0.06489880486947566, -0.08451568067640913, 0.06748858180115587, 0.06983164007271206, 0.12948652082604203, 0.027996546682835584, -0.1872423991484052, 0.0438678202364321, -0.09747766129782198, -0.24681579355595715, -0.10091779492165835, 0.04403008894249126, -0.07950049867165698, 0.07204506605286604, -0.00026559024872264, 0.07451951759820408], [0.1308470713550237, 0.07306899093353202, -0.044448952773743985, 0.05421675588946728, 0.11138824137606623, 0.23811317612907704, 0.030955805861914445, -0.04454594184932745, 0.20261278396452947, 0.1522759981799199, 0.04627811539098412, 0.18179609183908413, -0.07432514215338339, -0.20144746034422797, 0.005447023595872019, 0.0583670468150772, 0.08771481282076274, -0.010476139967344976, 0.0620028245015238, 0.135813031681376, 0.13719611606818885, 0.04703548819793709, 0.00805540943702164, 0.15850209689390637, 0.051074910619116946, -0.10975122466611921, 0.22770329414229076, 0.026818026939867838, -0.07198501447973725, -0.15938135806201273, 0.0005614853885208347, -0.09580601045457637], [0.06923028535186784, 0.028002344331018725, 0.143921680739558, -0.10047340625337321, -0.06935164647209478, 0.058496612309748224, -0.13887095395108998, -0.060509515930791374, 0.057646618623766736, 0.017604986458731334, -0.04792077533521542, 0.09459573328529271, -0.1833105492188762, 0.02542727945571138, 0.04692255552919625, -0.18122499050396854, 0.045496329836722346, 0.005935485247153882, -0.08142938351539195, -0.013170774281471415, -0.24774188255884594, -0.008979913066448783, 0.09426279069326328, 0.22002430899881875, -0.2513157098748585, -0.19536383315636754, 0.13026515542613468, 0.1755785149754883, -0.2011778175900326, -0.22310227090187632, 0.09312301921869891, 0.06587523332976006], [-0.17295764178672815, -0.09924520269585185, -0.009170122415251239, 0.18941364029251184, 0.0952735220927605, -0.008177668854978972, 0.0206424155085857, 0.1371368118234897, 0.23051025323213983, 0.2754520481949884, -0.14078940761916522, -0.03679524363709775, 0.009287306326748918, 0.07243005482352041, 0.06102726772416874, 0.26599436585363256, 0.0311870143368772, 0.022160909309941364, 0.15406570342043335, 0.017883403623596476, 0.07104224077162177, -0.09294310600102912, -0.04686660946166334, -0.12344288167599088, 0.04812924940470849, -0.15539321037973994, 0.19294634785059303, 0.21368969081009262, -0.021157762120192717, 0.21474193415137044, 0.04460022676474682, 0.021181000635222387], [-0.03629251013168948, -0.17486659043918854, -0.13796092168191434, -0.1874133773178356, 0.08056848894645328, -0.0353270197412422, -0.14437345524527653, 0.1215672295499351, 0.024166117895886803, 0.11108130668152949, 0.126508281203629, 0.11511038095858853, 0.09632499348369476, -0.14229121996054503, -0.04677430593229081, 0.051886862031187884, -0.18780168343648387, -0.13922429119032703, 0.04886021412849536, -0.12723817967949302, -0.05752762940448273, 0.20060069090228294, -0.15830692516855713, -0.10448171970381376, -0.0021474492745365407, 0.3106563998727491, 0.12469638791309529, -0.0748670592568221, -0.042520201950241795, 0.012424272120140129, 0.132408102039443, 0.03124294819444602], [-0.31777868620019806, -0.28302240637120385, -0.252377793040494, 0.1025934794817597, 0.11591147581156806, 0.05647564503885349, -0.26008782935682506, -0.020724088634882218, 0.058921030270624744, 0.02027206124381512, 0.01156469360936269, 0.1947821331874835, 0.21719251775842982, 0.05484435213259053, 0.05818522953401469, -0.05684144750001852, -0.08684151961697656, 0.11960005233909643, 0.041562320509041704, -0.0779287658021933, 0.13352290533228564, 0.24866761802992413, 0.3318639869610331, -0.01419220030175404, -0.11245327899157959, -0.0430524151762553, 0.17855694208713652, -0.10345341366309956, -0.08553240357540987, -0.1076269031132827, -0.15128554689217022, -0.13046350920628447], [-0.014003470054245348, -0.16019482112617403, 0.05364561262114835, 0.2628624456698373, 0.04889726447849457, -0.13365746560996197, 0.09429513623690965, 0.14766337758823972, -0.09170497780413767, -0.0527980103564338, -0.0469920462455898, -0.09635686689689647, 0.008002616954520727, -0.17275707126263742, -0.24611785698362187, -0.09422350398600848, 0.017304618670839645, 0.13011655473278116, -0.10194877536352272, -0.019871171036574445, 0.1889542869854287, 0.07127238365986013, -0.04641749021495644, -0.1974839199413678, -0.00029161178672027134, -0.09860963403511885, 0.24948418822608476, -0.09517970703628466, -0.025618889197350635, 0.03215622637152446, -0.037243946955817994, 0.09974333061643077]], [[-0.03986282711546824, 0.1061159408545898, 0.0830408891420515, 0.13894432658752878, 0.005505831629255044, -0.14593778134783292, 0.1968190163893854, 0.10532211730767518, 0.11101802774105443, 0.1632533534591089, -0.15457138202875423, -0.13019871687434717, 0.013865773825069368, 0.03119459752737879, 0.22896029714731309, -0.0938420419738671, 0.07461501518207775, 0.0011762896439728157, 0.022216376544448274, -0.11668195544259088, -0.11204213651811827, -0.06489052547936254, -0.10773434194512656, 0.0015170005852146084, 0.08285110137154532, 0.032510255871356884, -0.20257907276251266, 0.07484677194478725, 0.00977678159471273, 0.255312164889988, -0.22322844218517776, 0.28168039096265085], [0.022234379338725, -0.0001642613147097176, 0.018832287316068994, -0.05676980974721412, 0.0004329678889639757, 0.022506660784266597, -0.1670151243558902, 0.03521380474300041, -0.06302128876710181, -0.14076691754163564, -0.3414137857951775, 0.11611392908689017, 0.19293044007878193, 0.03890976556211265, 0.13060955892039283, 0.004445478108342535, 0.14165147295411476, -0.013431625303684027, 0.058178818735689294, 0.04122686047975334, 0.23698109258923253, 0.04563874189525562, -0.20541643688091724, -0.14813090442981436, 0.03317902388328362, -0.07206872673705914, 0.32034628152880984, 0.10096944479967272, -0.08644942475699419, -0.06625160896654586, 0.23116081008420383, 0.017240086506943583], [0.04824786244547888, -0.08680740383821627, 0.05211723246249183, 0.0153541844328534, -0.07968144430901399, -0.09611155619313674, 0.08570690978271872, 0.1325962119763187, 0.07041531229762472, 0.08424105246799365, 0.014474131666599848, 0.07106607016290699, 0.06653920954860063, 0.10732153999198585, 0.09591170102885616, -0.036465118292474376, 0.09506537447163939, -0.0016672692900136427, 0.10472164485379476, -0.01962056552351285, -0.25232035868712954, -0.13177391284887965, 0.10338936496000835, -0.09036126880686049, 0.03303968953755537, -0.1782758199785737, 0.13095265018353566, 0.11111958968385578, -0.14438999310560185, -0.1466383005954742, 0.13753267786309495, 0.16717005183369754], [-0.1681111796672468, 0.09589463650520917, -0.04997900313013115, -0.0634589793072058, -0.08325561307251697, -0.10156155755754215, 0.2354806389421407, 0.18338810661335214, 0.031146642725227436, 0.023270976819994457, 0.197739215071267, -0.24867375574209113, 0.037511299318697025, -0.022843316911263862, -0.024652180807200177, 0.00428521075885581, 0.1258163163968713, 0.10100785199112268, 4.35371759359611e-05, 0.00662263252218448, 0.016125411598869953, 0.2162975877109768, -0.12829787320107552, -0.03996760729527719, -0.019267693277627996, -0.1260798391103837, -0.05229722482565226, 0.26799092733826047, 0.2792759824066477, 0.05948956146627505, 0.02906553791419525, 0.07084223488943049], [-0.11613299983105158, -0.24660226500793966, -0.004397769608459379, -0.08132407294057901, -0.013999853113504416, -0.05009967938105339, 0.019657607086048013, -0.06002838763568356, -0.14845854350215235, -0.05535222969520818, -0.04367572324076723, -0.09345129368826, -0.09296314016098293, 0.0913341415064464, 0.04422194497630176, 0.05119817196616249, -0.02228575009989789, -0.1071857309107754, -0.02522926225027268, -0.16604113318767152, 0.06448240852432847, -0.06008796331997179, -0.1777937550906334, 0.059826812400597416, -0.023546198988785707, -0.11260717605424674, -0.06546098983000208, -0.07508805471790649, 0.03770642501148973, -0.10430820867406279, -0.002745427134978934, -0.013813722189462137], [-0.01710156606746129, -0.2846159810881011, 0.0015963778533476794, -0.1929095679821945, 0.07082210974425703, -0.008832500757953643, -0.05315701718098015, -0.007659360206658839, 0.12211185205547197, -0.1441729696937022, 0.060070618650059866, -0.08124278515802157, -0.08130187392173978, 0.06934087022232215, 0.005006993377333461, -0.17972277303696765, 0.043456954546085357, 0.09017938285555886, -0.03943448788990192, 0.05777783212142863, 0.023655526727379722, 0.08774104535434389, 0.15267933517439589, -0.07274433782049627, 0.12176963006567752, 0.1343958937169697, -0.08275266696296338, -0.034911290158995696, -0.16087693368262887, 0.11697530911396117, 0.04459080229169718, 0.1358233904678354], [-0.0522903217797088, 0.00883876278796899, -0.01037550727775735, 0.03850825379528422, 0.08310560418597591, 0.04262858292183092, 0.11636633146136192, 0.031146095419349117, 0.04781143445755628, -0.009844947998361797, 0.06792470792567958, -0.019513316369572088, -0.23245878597990308, 0.15490997615649865, -0.0050893568637851785, -0.0689670726992707, -0.02341350526783115, 0.15206111910968154, -0.1690063533128771, -0.12097086026091602, -0.21173119671677917, -0.1403035970496623, 0.05255048413141427, 0.1182993535838752, 0.4131317736247454, 0.044332115339797196, 0.1634846643147652, 0.06429652400766257, 0.031458832944959665, -0.0934559334412268, 0.08637430333263989, 0.017195665669217434], [-0.13858016419556823, -0.0032252256691338815, -0.21422488967755424, 0.14724332926803396, 0.23303820538257822, -0.00969668647242262, -0.04551793769137702, -0.014737661095982376, -0.0983512946052349, 0.08386805052895091, -0.20099010086394978, -0.10896975169029784, 0.0206315041029739, 0.1078071671915892, 0.19020115640173782, -0.04713137605138499, 0.017082482883546943, -0.007611439201456922, -0.16684227541314406, -0.04144255277674758, -0.17398859602675454, 0.10839093177481461, 0.01746172882805644, 0.0893946607732481, -0.07622333321518421, -0.08613995454294816, 0.17509088794313685, -0.08241557549431187, -0.19446728452349243, -0.03740703225226836, -0.11105813859258319, 0.09700927177918993], [-0.018269497502614467, 0.07824976967007549, -0.13752546723771536, -0.05053553916873446, -0.01305404720800674, -0.3182017157262348, 0.19745917828187237, -0.14442584115297916, -0.06274268040428212, 0.07469903352978702, -0.15771351107028947, -0.0667113705509067, -0.13804204752490568, 0.057075021395307624, -0.07165070638261266, 0.10861426818643963, 0.044877399429483385, -0.13361511543765, 0.14571836720009373, 0.019140384113829692, -0.026671308460734663, -0.12691214310584303, 0.08473960944086131, 0.023945644584121958, -0.17319210989703268, -0.011643222299488453, -0.054761079656874045, 0.08032740177361565, 0.1433758087624632, 0.03893493140976768, -0.14053366749978424, 0.05833466558682623], [0.03660824989821838, -0.16915464914851916, -0.14660887296944236, -0.005442852571631256, 0.2508651147164159, -0.125496273727289, -0.07656459206451662, 0.20777353199299448, 0.07490660327545726, 0.24304409582515052, 0.33852517040445784, 0.20637227525484386, -0.005951264093466315, -0.016097177719936805, -0.07812113219350571, 0.03718307997331873, 0.03494842134179055, -0.04688360313147412, -0.09916848910858558, -0.07397929458711575, -0.017841837251625914, 0.11594113796557833, 0.22960229146540412, 0.1257108788566915, 0.136740333058367, 0.11506632864635463, 0.1483970783567941, -0.09930868644071618, -0.030498421833019037, -0.06700899342258286, -0.17399724049963972, 0.07295587582838714], [-0.05620423842518006, 0.1411166246165321, -0.08360243234177167, 0.1532203162531615, 0.2781525292992771, -0.13530602849778875, -0.12569630486000413, 0.07697150615630312, 0.09048390087915852, 0.026071916977581412, 0.14460391375789697, -0.007281654789766247, -0.002114844948790601, 0.0826827841213132, 0.17239473222998192, 2.0613072825476664e-05, -0.10928387364914784, -0.003598497468085016, 0.005058207189175256, -0.125085439063848, 0.11483639900703167, 0.11266757183471335, -0.0849543080636371, -0.041912365463248044, -0.005630020593232812, -0.0967577102609146, -0.027169985431871376, 0.24682313013754303, 0.1066370334726481, -0.13781156072145312, -0.11105768833847775, -0.11296682943794668], [0.050191063780991044, -0.06230558071392808, -0.10089031509497486, 0.1655125507704104, 0.0625010643767238, 0.11430026439389165, 0.032140095864839416, -0.2379262765006524, 0.02204749252551703, -0.07943859798721875, 0.055541997283718995, -0.08060526186934718, -0.15051935907577502, 0.025914205132647552, -0.02761701967458849, -0.1684065467393035, -0.03056602903504697, 0.028281979084597866, 0.1738363642772294, -0.08320714134854591, 0.02924741730436773, 0.0396429928702782, 0.089993693211497, -0.09811650420727278, 0.08909149186278507, -0.03904292690294625, -0.24939078320434085, -0.00499746407463406, 0.21427831975656447, 0.17002679659653977, 0.1364005400754579, 0.006266557980744356], [0.06932270967317809, -0.11249159783495118, 0.046167437542234, 0.019631296329085963, -0.13077648655110047, 0.00972592568477874, -0.022112347403003996, 0.18241792256193087, 0.09499028329225483, 0.045554622011563094, -0.21965940498821507, -0.00333793994991966, 0.1546484214242814, -0.08396209820235738, -0.020687138411960036, 0.038561494770325534, 0.06479118147718925, -0.01784175461410976, 0.16967684100657493, 0.024415910196800533, -0.02060246710000986, 0.12752862709270335, 0.08873755083358939, -0.031340720864186426, 0.08280786104629631, -0.22352175664740181, -0.1383222646448825, -0.0026311400921440707, -0.05306071947823352, 0.00919683290003967, -0.028219812364432686, 0.008422384082440271], [-0.012731079755596958, 0.15642572168286598, -0.07468924203336107, 0.18921273902435778, 0.05343997724470402, 0.10697573422597643, 0.006947440949642952, 0.27551990334665843, 0.2163241172160462, 0.0011441847567153056, 0.08054109995442112, -0.05148000560363471, -0.14055485600254766, -0.1532561581215941, 0.020943896582856055, 0.1574835909436683, -0.04949734364364089, -0.06362795776738431, -0.008528086008455036, -0.14511257618191048, -0.1640985890949513, 0.01170477091174553, -0.09636172917959619, -0.07126369437774724, -0.14278401962176535, 0.08174759699606989, 0.009153398862937564, -0.05412656189736918, 0.047485400878016226, -0.08383548924287741, -0.15742796295521336, -0.013453826882049881], [0.0016188924268423928, -0.06451912502452786, 0.18598139353504986, -0.060221496586770625, 0.20159725044741902, -0.2574948501484861, -0.11798000333471732, 0.01760911915839144, 0.13516244005916725, -0.06384597406799651, 0.07976377003350023, 0.05076900206429362, 0.06725372572672207, 0.19625110444411736, 0.26102293580079333, -0.0328806309820267, 0.0010251889448814695, 0.23941506913789215, 0.05697587404541802, -0.24940006936018924, -0.09332702893520987, 0.30761301477889763, 0.06319455149696866, -0.13056174997553677, -0.008647555943633428, -0.11493802357666275, 0.09724367271889481, 0.14964086428362197, 0.14477093955806264, 0.0925884480025321, 0.08334827272755466, -0.02316450549379341], [0.017736935260844206, -0.1235650371191232, -0.05363113540859359, 0.050443728437173485, -0.00943716368526593, 0.10281609757176535, -0.06574678741949959, -0.043423278941465915, -0.28984516369766283, 0.02759656281131302, 0.19671913006179506, 0.006783366364781373, 0.014404417987926162, 0.11266458033622667, -0.07578277042657765, 0.07746327124536026, 0.04839449423936352, -0.014509228364082341, -0.15907609000437242, 0.02126520916113698, 0.17618784685072106, 0.1304883119426671, -0.035354001571660215, -0.07098939209664158, 0.0718095916289455, -0.08011517559426805, 0.06390123714397644, 0.1009361541350962, -0.08416120133472646, -0.19660467736474793, -0.07847049438317137, -0.04448093673648094]]], [[[0.10720762777932925, -0.009333897427343339, 0.07751246032235189, -0.15018641168275765, -0.06676709893423331, -0.07783049452207884, 0.1780518806422307, 0.028755244859798492, 0.1372586705017237, 0.011059706571193793, 0.21118247600643789, 0.1084837289465846, -0.07296154249231449, 0.014691043110053608, 0.044450885090469044, 0.03191388278935411, -0.15987854957237468, 0.04892588890190108, 0.09832714488099893, 0.06720044292852151, -0.10273120541980221, -0.06387458537572918, -0.28483032730560426, -0.09259318020733533, 0.02337769404224863, -0.07510980832822213, 0.03236450514861255, 0.2699393229865265, 0.017953504248442047, 0.0240154541846119, 0.03520877857606918, -0.145762486102656], [-0.08544765700213972, 0.09210436542878857, -0.07376346319352098, -0.035832574957706295, 0.07891516169505836, -0.030318558117936312, -0.0161583373279312, 0.014281759353178089, 0.021856229584666202, -0.04898531202965411, 0.016926278423886592, -0.06600192900104364, -0.10861411729184275, -0.09524243321781198, -0.033138784407743004, 0.019197661935367892, -0.3138028049163273, -0.03616012825449773, 0.008978916737497924, 0.005073851532648948, 0.07771882748221555, -0.04396371358059674, -0.014326174468535019, 0.13857312171862116, 0.18650324662254253, 0.07967630797219083, -0.14612129403411683, -0.007766374925152604, 0.07255895999693758, -0.13899182581809272, 0.07873130553886797, -0.013863237398569423], [-0.015419974693100462, -0.2662603561586904, -0.09341644640313727, -0.12237233522957565, -0.0898867594584806, -0.04200975604596102, -0.03440614242923553, 0.05274239324383491, 0.11389189714721862, -0.11543708100384335, -0.21659488813867434, 0.01229264777090637, 0.052321783919401774, 0.2643826083072943, -0.1846180329125978, 0.46514008087463043, -0.1333655816082383, 0.2785694635030965, 0.08556178204289698, -0.02537881185488202, -0.18689367865972564, -0.08778598489807175, 0.05801406673504328, -0.14995819235907434, 0.03983038939408445, 0.13712883162167017, -0.05267306160277397, 0.17100972622686514, -0.05041928624499503, -0.18833380594219404, -0.13442829142261778, -0.02169438051161776], [-0.05962909519326761, -0.20365627714095916, -0.05200373977355133, 0.08118963611213559, -0.012811916360137836, 0.006929260343195346, -0.07483880642378198, 0.04992580207820752, 0.07015775247417613, -0.08511070712136018, 0.005504426448303239, -0.10379187167781931, -0.2502892870414304, -0.044553772767974203, -0.009046302559874262, 0.06688201831514469, -0.1124972566675804, -0.04265948587472579, 0.1258399899623738, 0.11160335764877093, 0.033608537007398374, 0.25345433680580304, -0.034811183452813955, -0.04414869786286988, -0.03399870629982234, 0.058907689907012534, 0.19681740230610226, 0.24996638576923727, -0.14746164425717861, -0.08926197400184428, 0.05268095462309937, -0.07683408597251415], [-0.2551842879931786, -0.007235472082069034, -0.004900313786595016, -0.14583958603951608, -0.12278680770304702, -0.07554198405485005, 0.16490123619451733, -0.0004365719975331441, -0.12414891884633737, -0.05668013126874941, 0.003910231936782119, 0.06649748455114364, -0.004888181977618897, 0.21122950955118017, 0.12523130697667692, 0.17717774957967594, -0.03973372296768511, 0.2804230614688053, 0.09817597242550496, 0.29325099332586196, -0.1006515686000284, 0.1325177732645281, 0.04022556082921249, -0.08609731032058532, -0.011152664855391714, 0.062310666403557376, 0.1783953456415643, -0.01048376056624941, 0.18744922639267203, -0.035723576239643486, -0.035228206996913286, -0.08040610947636978], [-0.2015511467841825, -0.053526192877623856, 0.013046601404534182, -0.08791812170307678, 0.3914610521585226, 0.21265335151852882, 0.1779658470242547, 0.13933230892439466, 0.08749736959328266, 0.09203310551798963, 0.14269864250218187, 0.2057273505163112, -0.10761864658097987, -0.008197497491376602, 0.15136169316878184, -0.05378279304716185, 0.08616977312102082, 0.0619201029172989, 0.0043114857270877315, 0.2126737690387195, 0.08644344716693213, 0.17517337757510235, 0.14515887295690066, -0.0712456556886519, 0.1517563157027048, 0.03192408141900898, 0.10955550388881136, 0.03815342634332126, -0.018577198192674733, -0.290276447487038, -0.1422783532154568, -0.23197412706569198], [-0.08172152380011284, -0.17015600927723376, 0.1617150282606782, -0.09950643778812954, 0.11552585114247849, -0.027839868116249007, -0.08629418023494351, -0.08444075484193177, 0.07715982255494787, -0.1806732049487736, 0.12857232502317498, -0.010384047677478848, 0.014663063897622015, 0.08823176590383668, 0.05485679899973846, -0.023935401562929084, -0.008543141026080416, -0.18197484648599457, -0.07512948012174439, 0.1758770167622468, -0.009472268595653767, -0.0017635967919512933, 0.16683776078396617, 0.08150758939646106, -0.02412746377808394, 0.08426365337938731, 0.28664472670715285, -0.050844957612478044, 0.1323187506211787, -0.10675956221533625, 0.053598078470616456, -0.050908606564102364], [-0.0505407573707585, 0.04149212338022632, -0.08786141553792941, -0.0012851804974859055, -0.07937342961490933, 0.05180312550422676, 0.070562771104444, -0.17682565272385065, -0.013331244059614328, -0.10828055472941361, 0.10954537798773342, -0.08017473908294791, -0.07552364803788554, 0.19063628546267147, 0.08567747025291617, -0.09233024910510029, 0.00703224733326413, -0.05643366426899999, 0.08735600896022679, 0.015479658733348172, -0.2510839166304008, -0.08241130232538195, -0.01801901864846658, -0.09414732473295338, -0.012032946436188841, 0.11028711892016396, -0.04300134574367639, 0.11813089982749149, -0.13545623863766668, -0.19967159625804776, 0.027436312643329783, -0.06031073799321278], [-0.10439702485637309, 0.32978805146328427, -0.16591330345518948, 0.07051928391823523, 0.15542661590183868, 0.06703072490833394, 0.14149973579233996, 0.14488255046199547, 0.015447553878514524, -0.028438671398721325, 0.14413304129894516, -0.17359054992041192, 0.04144618533633988, 0.07120600816303563, 0.05749017051464028, 0.15001361134347713, -0.06924115361091045, 0.008627414053092655, 0.10448498393638624, -0.10886298509076087, -0.006535293357868988, -0.13489063082407457, 0.13572169661256625, 0.1404731347448614, -0.07340236041867111, 0.12107690824302626, 0.07470545428230152, 0.06675855238780666, 0.004242325530233494, 0.17348784173277015, -0.05320067385245488, 0.07109264681331634], [0.028523566301408232, -0.04065042990243159, 0.1319672935885113, 0.05404736849201003, 0.19293248681091635, 0.10248003385510819, 0.17553705037662728, -0.004217366722844314, 0.20433262094446156, 0.0003215869027262936, 0.07925375746287984, -0.07505396862572022, -0.14068080049322926, 0.043784661453133165, -0.025779294607433827, -0.013247230871672072, -0.17012920109489252, 0.14442664869471167, 0.13852449077287976, 0.17318331881442808, 0.16231833101106433, 0.008135867678378565, -0.02550350049873817, 0.10805564727594202, 0.09222099189100158, 0.06962940727772189, 0.09202624029314249, -0.09526050976615852, 0.10229495238824203, -0.07786704720443438, -0.2557782122434413, 0.08648517693862065], [-0.011875678051880112, -0.00973329418102294, 0.08685593309871255, 0.0017885382184674463, -0.11921573297532488, 0.04554898603750354, 0.0039842833595740606, -0.03179385212470336, 0.10587756166680228, -0.00871238836547638, 0.009150091165536346, -0.17519280132843945, 0.250912126423466, 0.06291424937649497, -0.03854056673526135, 0.04411968795713037, -0.012388703950280324, 0.02667042338208631, 0.07534058009451992, -0.05200301612995132, -0.05783337035514784, 0.11744919822658027, 0.05566519971852352, -0.0859409664432374, 0.10610336161563697, 0.018459907182267133, 0.13100075559903943, -0.08808752721968795, 0.04299644396076785, 0.1334434205963309, -0.05815987103228328, -0.07477270056991023], [-0.1445753794585346, -0.034568240693703206, -0.11376875761512956, -0.047872007770467954, 0.1935829300498945, 0.1513885621560557, -0.1444972543927225, 0.05729825843892748, -0.12307448909101545, 0.05126676564620312, 0.10457829811165316, -0.04134954510271644, 0.11957380999449836, -0.11138186929135026, 0.23746081041244213, -0.00017851380073349648, 0.21705784053083652, 0.15783753651479399, -0.009321467093369352, -0.2276845343365557, -0.047094332836988405, 0.1952217371199351, -0.14254363005513432, 0.09821969805141251, -0.13855109712557998, 0.05039981004658523, -0.01938386449451551, 0.012888275415482323, -0.04153404282612675, -0.0891100597434092, -0.028607706998240414, 0.11366409545469901], [-0.18358438417839557, -0.14358136126379023, -0.04230661011157751, 0.23245367505412082, -0.03954910671965339, -0.0336999186759124, -0.0587803255031041, 0.08434509590666642, -0.12411439545993053, -0.03956617424466186, -0.015905685856109495, 0.05513938040674683, 0.029893697829462478, -0.03702755034976397, 0.18618644837905607, 0.08132297433227886, 0.21849966974064222, 0.043357036335307, 0.4126601752010186, 0.14465704156246942, -0.12448318755255117, 0.01862438892088722, -0.0063130173999550575, 0.09754454166067004, -0.059728432123104185, -0.00852813440100362, -0.06901289545472587, 0.10426011358569769, -0.1544094425527788, -0.08729892535496725, -0.02244300655950685, -0.11176301540785435], [-0.05905743773236493, 0.0897407830301473, 0.17963205935259555, -0.10244868143175231, -0.04231191639278943, 0.1132056510721487, -0.19553622020948627, -0.16571792353912565, -0.02126120412603662, 0.10154248645963057, 0.1805363649429529, 0.17928113275337054, 0.049540072052033604, -0.014023418612505216, 0.19626206402552163, 0.1676586596902945, -0.11214425798282202, 0.21422927381830412, 0.15154788092729232, 0.011173081415248828, -0.1929639245171807, 0.020221479833425718, 0.0180247221357548, 0.035497907052676414, -0.05145055761518351, -0.07912597182848792, 0.13526159235223323, -0.0851600592883138, 0.16928259863351378, -0.0610058689817437, -0.12483837139417435, 0.07576891067743985], [0.10748845959555459, 0.08313185692476692, -0.04192779970463619, 0.012442263466783928, -0.09485969893222132, 0.2768801940991006, 0.23658134874087083, -0.04495161452334022, 0.05323833379954581, -0.05755848500703141, -0.032834249155731014, 0.029321309820070668, 0.08485829079935384, 0.10310783620587087, -0.2182087354148597, 0.025287864138965697, 0.07359763209657272, 0.24125912193128318, -0.11010594189922954, 0.08969292324416323, -0.007238032967782185, -0.05041675720225691, 0.08724311324984309, -0.06830596701224213, 0.06606708295958125, -0.06080652809878879, -0.017905017104108772, 0.11461311387462617, -0.1650107212985377, 0.09352244625994353, -0.06321994103373278, -0.17448615909145584], [-0.0832133961378149, 0.15057808425839933, -0.028092457790366464, -0.026570708447117213, -0.20053519540531065, -0.17603376955773714, 0.08796345532241627, 0.10128355906940008, 0.16822535344664374, 0.14784275831035534, 0.0864221211903819, -0.15918684019759896, -0.07795032707485519, 0.021720138386639852, 0.112557780305131, -0.20499908809073994, -0.08042363129068766, 0.015363589536223224, 0.10059663987180457, 0.21990362027789262, 0.10364462927186678, 0.05741528670946043, 0.05422226342630924, -0.3539350253842414, -0.17083628455124986, -0.054561999877574964, -0.01811178155608141, 0.2865548966030577, -0.017282535155324234, -0.17412001552035547, -0.02691330246803337, 0.02498131172664447]], [[-0.03525542523858917, -0.18116500392921486, -0.017212290722528088, 0.032339309174171854, 0.05199825205873074, 0.299173521035506, 0.06385262192497286, -0.05449497739749141, -0.030631424986558235, -0.06208170987195832, 0.04509408348709829, 0.10551339422181794, 0.11702067107597258, 0.005682539611767279, -0.1929612361398302, 0.024240560330000507, -0.23955361145972576, 0.07266058705658802, 0.19638199296097184, 0.07567175838239464, -0.01831060082681799, -0.15463976629304982, -0.1525639308625233, -0.16186812352600283, 0.14362118402402319, 0.0057487089442008164, 0.16259665541491414, -0.19131148188290453, 0.031431083571707714, -0.02017081962077604, -0.05164024683400844, 0.14537415254802005], [0.26214260687503527, 0.05014847855007542, 0.008945275193522069, -0.20809354505957856, -0.005159367806573747, 0.07204568212870395, 0.057973265989221485, 0.015438335675468191, -0.2193013460895701, -0.16789773763406, -0.22396238425854753, 0.06182300912970478, -0.30011927468838223, 0.19576192228013617, -0.18205295517128886, 0.019354426223678486, -0.0698266191296228, 0.03704840219452549, -0.14881708394795454, -0.0643092278082351, -0.12691767017617675, -0.1856994777756272, 0.08358245383240633, -0.1153802272455838, -0.1174717358409809, 0.17000401906746646, 0.09021743786118283, 0.16006630701916177, -0.053399645191727074, 0.0585989448979724, 0.006244385201770723, 0.09419944433582376], [-0.07599552693833878, -0.022947562708181025, 0.061659560519205285, 0.06835654893043516, 0.2489407772730364, 0.2614165601900205, -0.1628926186708771, 0.15995778135668975, 0.1300033217379847, 0.18769084583418183, -0.0062022301710929805, -0.14142599423653268, -0.07114052238777803, 0.2094045197110785, 0.0666043771337015, 0.24644380056606166, 0.07403474115746739, 0.054415752908681926, -0.048151133566705744, -0.024584367173060506, 0.0367981182478496, 0.12935203714947216, 0.020871694525264394, -0.012332599934719458, -0.09969090458815008, 0.07449826400503166, 0.14940694603764, 0.20739268997151483, -0.16103954797273046, -0.089050376980199, -0.2792720430291777, -0.03815913053863588], [0.13471784244346188, 0.06558233742960162, -0.08605893302646192, 0.011149632839497159, 0.10203165233505102, 0.01280465815142759, -0.12078222552161257, 0.18777369580207057, 0.08972962234438603, -0.10241324901040814, 0.27173761715588085, -0.057755492284568014, 0.02510698488577502, -0.005804695961416354, -0.18858240506288612, -0.2567909458188554, 0.10132576519411884, 0.02985910957033111, -0.19531996661262221, -0.02713208255520859, -0.017451712837656973, -0.00736623176978348, 0.04376987617629578, 0.039531911195590484, -0.1323038591737533, 0.10057711927056459, 0.021751160921306592, 0.060820349964955084, -0.10853356844621041, -0.06648978519460151, 0.021994473843994555, -0.07324586697772807], [0.07812598972621468, 0.1822737882039784, -0.05129095657022476, 0.16137919980914425, -0.09770876179671252, 0.24820251773345414, -0.22270244923417765, -0.028268051326074666, -0.07031611784734751, 0.2757175416919208, -0.11307455962918549, -0.004613264026188493, -0.23064766787184565, 0.009468722109652676, -0.04331919263642952, -0.09413260120199768, 0.1002161053776622, -0.028665086501729546, -0.1412391351354488, 0.08295223297083358, 0.03448758334496536, -0.04063010176872197, 0.19580954071920428, 0.1245554858812552, 0.02148375776288396, 0.0322603326412437, -0.002050955560288148, -0.017626350948266895, -0.10853276650834696, 0.0015428812698396208, -0.09418831112558312, -0.0961324430732496], [-0.04233880676345489, -0.1262737014631539, -0.17905456857307328, -0.06355680503634381, 0.011372940085336026, -0.006970090980718693, 0.10034754153794681, -0.025475358695226307, -0.15648076772176453, 0.11696666697162604, -0.08740852490740803, -0.033928589966343785, -0.002063692221776641, -0.001552187129444016, -0.061252583498264214, 0.027109471846939584, -0.22433938278014484, -0.03198160605180229, 0.12386727263259968, -0.01028539974897385, 0.05342140930067445, -0.06457529115911578, -0.07770655611357502, -0.1105675782057861, 0.1628527098983533, 0.17572221705770957, -0.06037924971537659, 0.020584747369952784, 0.1275159637081154, 0.06529508118203343, -0.07834040062272604, -0.12165451536855969], [0.11881611422753126, -0.08176637794520261, -0.0065368900476518894, 0.14164972289025135, -0.0522916464299695, 0.11545910436195696, -0.06491316547511657, 0.03731467116385625, -0.15143235790294476, 0.033099680123653566, 0.08678264190672558, -0.024489410255229927, -0.0037452043640339326, -0.06753529205663943, -0.018178294336993646, -0.07223355510424982, 0.19747798752087575, 0.07079934268564668, 0.14323759156835156, -0.2377077327285276, -0.08517465278297989, -0.2775310796783086, -0.0674624426556325, 0.07281364612954891, 0.060210497486881884, 0.008223683211873185, 0.04216519498594087, 0.05591607534058839, -0.1589673255297993, 0.08774166508813797, 0.04548447788901138, 0.08706070998028467], [0.10959742522298188, 0.11577280124858383, -0.09193378525545627, 0.004924545961983558, -0.011659612983811256, 0.06313868434326994, -0.14210357781133862, -0.025404317712633108, 0.13430473606037607, 0.16885281711997174, -0.002716793665355555, 0.060924293371416555, 0.0390729523878357, 0.027140281694340882, -0.264977726493792, 0.2802383169281068, 0.07070135534785955, -0.0009062885566423029, -0.003038277612477086, -0.030612503202816464, -0.0675264157715999, -0.0781255274168847, -0.0027528615080360417, -0.11292421275125024, 0.19220796445189203, -0.005029150993978453, -0.2887087934832967, 0.2629739993958669, 0.0757948242423847, -0.16044047631100647, -0.08531616419855198, 0.34436809809294255], [-0.10324216188067566, -0.043984181079094666, 0.2600954366667978, -0.10681082543664108, -0.2950787169826939, 0.2870465110177569, 0.10155418177078339, -0.02884101613783409, -0.0255036801217308, -0.19600484836199444, 0.030867216774625988, 0.027963802414997508, -0.015204173952033023, -0.05450099307289919, -0.004892218590174502, 0.22933998338530145, -0.01630646973947083, -0.0798945086060428, 0.166346081566029, -0.13197015186850064, -0.22725555311633305, 0.031948646957850456, -0.02675520716946941, -0.006154754670708926, -0.08415787133251537, 0.04092611577327411, -0.0974933301796808, -0.08176258081018442, 0.03596583338796551, 0.1476253953279283, -0.08371516423111285, 0.060796421272165356], [-0.08047579925513236, -0.015223550690194293, 0.0625954820982669, -0.06194050521332996, 0.01187644312849173, -0.0011388710206373912, 0.008304730970269313, 0.13311427040586515, 0.0928657598544537, 0.09227675464903004, -0.22532111446020572, 0.1463612046215569, -0.09415177390147461, -0.029451899613899376, 0.01898467330985244, -0.037778393772194094, -0.08703510776265132, 0.01505080480955066, -0.014740210712916205, -0.0339485990788293, 0.04312794201470248, 0.15684458185876338, 0.002276540608137641, -0.08569170281313691, 0.08008257655720244, -0.09001992905184533, -0.09234395283351896, 0.19227508567620086, 0.040879657064324816, -0.1927467577989417, 0.14452393089654195, 0.18736338215211634], [-0.03524230401347125, -0.0015221591441110778, -0.1223696583499099, 0.032840518628747366, 0.06429763376137841, -0.06853914452679234, -0.12024222759249609, -0.030758342699460345, 0.1378981182708361, 0.17655654673646648, 0.014530626321150611, -0.12435612330900218, 0.1627988387258299, 0.0669459372884766, 0.02844890927398822, 0.04574633837412754, -0.150485806789065, 0.17256274630957363, 0.18579912715711477, -0.0386878277114008, 0.029298453328314683, -0.08342782684393142, -0.10034022124694515, -0.0227603204916839, 0.03642104504415621, 0.16094192407073307, -0.07201103772885414, 0.03685638889156782, -0.009050722891460644, 0.02685200028001735, -0.2513539478134045, 0.23970570353634335], [-0.08937364446960044, 0.19100485174023146, -0.15812099155806353, -0.07976548135387619, 0.08731536273906639, 0.12549776294547083, 0.1688651802911476, 0.03637241131919844, 0.2623394989069984, 0.11770363165289821, 0.033763148208964026, 0.012567825440409245, 0.09625190560237012, 0.03761094496916512, -0.14267944051681045, -0.08496038287701857, -0.048222643983231214, -0.02900962653639627, 0.08915423610034323, -0.09797076818943025, 0.09381803934709243, -0.042130643143329295, -0.034418788887167255, -0.030565299748203444, 0.141946695154161, 0.08352738014345172, -0.15252670830097448, 0.2805706108877261, 0.03448924077783015, 0.021650009963280377, -0.1348306081392773, -0.23559335085438818], [-0.05196245284548295, -0.014256143351861142, 0.011789337387637364, -0.04758722897162555, -0.08235418469039373, 0.05100020113438142, -0.14871470982991525, 0.0018197044335032193, 0.06550555769822305, 0.06474897335033346, 0.0176219512655857, -0.012224605919282299, -0.011704158621278818, -0.12942395286626707, -0.00785336424304336, 0.02223068404709063, -0.026010867438305302, 0.16082600799377691, -0.07565794521486831, 0.11496538971318487, 0.0480988949416581, -0.10748143966717329, -0.10923311250329915, -0.02098687778481837, 0.09195122417954973, -0.00390517209197314, -0.030288942369182222, -0.11407040895565822, 0.142052352290182, 0.16312970797725815, 0.21356481306005934, -0.08536944308463949], [-0.1630998620137731, 0.14623778249177527, -0.21021584044350206, -0.017934255830328562, -0.151474161359174, -0.05148664197402395, 0.09645743523629924, 0.13974945596394803, 0.07861395765436181, -0.027251390472055315, -0.05639305640747667, -0.04637954425502119, -0.06236713349125972, 0.14586807061438017, 0.04654574584481641, -0.08569643418528775, 0.15561645046447017, 0.014956583690371778, 0.07295328105485856, 0.26323832735009406, 0.09455089777903153, -0.037483500143548475, 0.07331402950262685, 0.01759983001220832, 0.10965348807358144, -0.022501403304935035, 0.05496620913072832, 0.198943682794456, 0.1251298837469034, -0.08067903553329973, -0.15108270860857825, 0.06551850907739343], [0.04589311016897597, 0.17187131055636093, 0.024343535989553397, 0.1005383840938858, -0.17958818023260706, -0.06208823632880293, 0.08316132207472691, 0.09828419762551345, 0.11227265909964917, 0.13820542046823264, -0.04793699615451162, -0.047538420053491466, 0.03819535131982422, -0.04919070239029578, 0.009494073244976406, 0.10811616726748557, 0.1797265256848869, 0.1894270002062642, 0.08439211562834154, -0.13010423635678686, -0.027795692068204772, -0.02553276331293315, 0.04699503733511444, 0.1349144362631879, 0.1788943329385247, -0.04030447572410904, 0.020308835748520722, 0.11722123067658011, -0.08946345342924777, -0.0368804904363899, -0.028213950238277875, 0.18694307652064196], [0.2420769030043829, -0.053373762988580785, 0.08149359239510671, -0.1401928096906224, 0.28402490100095323, -0.15111408588031083, 0.01710513919563483, 0.14800719321784273, -0.17243837621200508, 0.029365008332637013, 0.39834655719939505, 0.1020096883687827, -0.0493083108665283, 0.04742633871361779, 0.0324778504848606, 0.07779552942703101, 0.049757152912123945, 0.17473461360851306, 0.07256456864337513, 0.04774420591888101, 0.21237129207864344, 0.04467967373444796, -0.09118217658118298, 0.006076729484297752, -0.09101931570599746, -0.01781296486821063, 0.1062492790383033, -0.04367246051430244, -0.2788385007291493, -0.09835612944673423, -0.10198466618646233, -0.07700091834417111]], [[0.0882472179547147, 0.0774179978267117, 0.055562033702714626, 0.03120771288248293, -0.13617305472572844, -0.21796470212248537, -0.02884167220790707, -0.16338990598713618, 0.18857320485514562, 0.010202468498877936, -0.19678415230420826, -0.03144171966614791, 0.0014943386461787, 0.12334193187927678, 0.09498349828014016, -0.08935790807823638, 0.05994565071875823, 0.17864861575143845, 0.051786678802222694, -0.05323663910228269, -0.007766360096089781, -0.11197134359559187, 0.07995110083041604, -0.11442710706113689, 0.06941495942117672, -0.02090714952307563, -0.05577249098613968, 0.17094516455681336, 0.0021942586652091344, 0.018415618128158652, 0.10997932049688107, 0.05498011445287017], [0.009812392375413684, 0.08050973115950791, -0.12061092863669755, -0.02827726381650891, -0.1866760408326755, -0.12206037413193219, 0.07015836396225558, 0.07587442688746746, 0.07599524026771179, 0.23539982802238948, 0.2091489794329098, 0.06625228647925993, 0.01768765075847693, 0.018395561291841243, 0.0983131262261078, 0.13565886438020885, 0.01581701897115697, 0.05059926368710386, -0.07336093596531945, -0.14884788936158275, -0.15470326004975007, 0.16706851052825117, -0.12092383982849389, 0.058670271668802045, -0.02562676686215727, -0.2331819553515471, -0.030725958673904426, 0.13723906280418627, 0.1313400694823461, 0.017009976912455833, -0.13530544842418143, 0.1766521886862342], [-0.12516471296227796, 0.010589570569961406, 0.14260749367887907, 0.004781281378969142, -0.04984931742590548, 0.09220203596746747, 0.022116841465818233, 0.029925776671393, 0.024106539882579155, 0.01919769074894066, -0.011390105260579828, 0.03089182744034967, -0.004878814176593481, -0.15672247389031063, 0.11668296900685612, 0.11062334299413987, -0.016478938348517505, 0.11966555473081529, 0.15389474127016564, -0.05981858454897757, -0.00748162593934641, -0.04887890717070727, -0.017460242963665905, 0.127946521363254, -0.034091601851906364, -0.10670494123742606, 0.10883279227076961, 0.14382580447121504, 0.12392444230324877, 0.113431784190458, -0.10925260016370224, -0.08534814522586094], [-0.20218001436263328, -0.10728574282047897, 0.17416476940754608, -0.12945343706684365, 0.11495685035371649, 0.2588967420155734, 0.06432779674453637, -0.04918328679450859, -0.359052092932085, -0.049785775723525105, 0.06878066361557085, 0.23092947792379487, 0.19314973517731426, 0.16422844958337762, 0.16079225540771716, -0.1397620466332157, 0.020575640842936668, 0.22795052659637896, 0.013495362546118758, -0.03205522443264668, 0.028425431538917658, 0.027791200983816336, -0.08879487598943715, -0.018229700873370017, -0.14700451546436816, 0.16061159160362834, 0.08992708052951885, 0.051591769599441534, -0.07732631486221839, -0.023645580547967067, 0.12231581655808363, 0.06568578514743953], [-0.10711265251425106, -0.02089436817362182, 0.10226366944970722, 0.024757007653251898, 0.013796084987029535, -0.20811585061961868, -0.293216704472948, -0.08302275770726956, -0.054780187239284774, 0.03945204305159641, 0.13186673472419547, 0.16387782027695943, -0.04489382847408449, 0.1450975832438655, 0.05548020723835063, -0.05236656303409108, 0.06629153272825307, -0.1725537863161452, -0.18276520658884124, 0.09636711802184063, 0.12083004970639186, -0.4248320341017059, 0.14704598965603347, -0.13266863678468183, -0.09561564646871784, -0.004237029935789322, -0.1039969128276634, 0.13465914914290594, 0.2360122997510345, -0.1685043528059401, -0.0707316596584663, -0.10702531603201634], [0.04412187043834925, 0.22514873218654033, 0.10077954184879623, -0.04056930669273201, -0.25160378325476274, 0.03300001828308161, 0.17670355118043968, 0.12413312647222646, 0.08392792256825615, -0.008066489332295042, 0.18828284951276122, 0.18693623692676184, 0.06830542582799833, 0.1584757081937772, 0.12099374441560999, 0.11159565178181217, 0.1386490794608791, 0.08061237191095513, 0.23366331708042035, 0.09533865525412538, 0.09365584204924149, -0.12631733957280317, -0.12113273442742388, 0.019884497640166327, 0.04687002683875764, -0.1048240101440646, -0.036052158367408035, 0.13417841413041845, -0.024530265929171298, -0.04566997276927083, -0.13649958669613946, 0.055938513364580666], [0.15020408501092727, -0.11729962605323359, 0.009415428449949319, -0.0018272308221738225, -0.10694164463732152, -0.15958951585068792, 0.05319005550072312, -0.15656313553027157, 0.051780172769187775, 0.09780611155974445, 0.13724656128226292, -0.12598965684351876, -0.12004860488832315, 0.08277025063350277, -0.3402724776684511, -0.025081113105084735, -0.1326991151576983, -0.0836847585948252, -0.19144596412279816, 0.12368189244307072, -0.030353916948309235, -0.016607906936567007, -0.05896449571682275, -0.007900101646554946, 0.006152740368967805, -0.14052408094401658, -0.0985245852517785, 0.0815321169465591, 0.039025750004433424, 0.16475772663834595, -0.01690075991215928, -0.040189862766872586], [-0.2015924513759467, 0.09085806854379594, -0.05711191284391452, -0.016041058633440824, 0.03224768471930085, 0.08299628136314358, -0.018359564501827186, 0.15845420808670765, -0.1916834829960949, -0.09213439379105842, 0.1759988498832799, -0.20868362717118863, 0.2692467149346488, 0.28296115134352295, 0.12447828864992905, 0.04812163234878318, -0.019692373911130313, 0.1409677649743983, 0.10887896943365606, 0.09571976019694305, 0.11284673555747639, -0.04948432435739901, -0.02464438666266022, -0.11428597010582824, 0.004005605109546284, -0.046434766311264614, -0.08119520365841583, 0.0788186307898311, 0.208721841789055, 0.08164598213665765, 0.041724946441248266, 0.37523175889297394], [-0.0654839026437135, -0.18420711123052058, 0.22234747212179043, 0.143869553555062, -0.07182959354479376, -0.1920979102648241, -0.040986699623919015, 0.0028236796713115926, 0.060227962628360075, -0.07467327550947442, -0.13102182281785987, -0.129683634904198, 0.0635784652077339, 0.009343530793305795, -0.2773183379262413, 0.15201262000718097, 0.013394514353089844, 0.14915675972801876, 0.04132456908889724, -0.00032905434575197226, -0.11498121305550879, 0.042404750846775835, 0.008867468459669821, -0.04775945345458206, -0.005020447329323088, -0.1157169948412439, 0.011980787773546437, -0.02693807489536714, -0.10570357212339451, -0.0009406560124471586, 0.07427784604889764, 0.0799331226164976], [0.12214082366067915, -0.03585635406466304, 0.0015046692080482537, 0.02182880198125525, 0.042582670184148096, 0.02804118383200132, 0.016103537311297333, -0.06258474180165771, 0.11861510158749394, -0.03354601559321726, 0.04527083310813441, -0.02825809317028424, 0.007178299909597255, 0.06499103125424548, 0.0923245719806728, -0.29781003411125767, -0.018433040974244804, -0.11844503636681572, 0.17471182817117, -0.23405369815104338, 0.03458911845298792, 0.07491772302440862, -0.028446747139011696, 0.11019989378459778, -0.20469706521134381, -0.18201041535858598, 0.18301284346787267, -0.1492194690494817, -0.021549786056082234, 0.17020727665822186, 0.09498444318043801, -0.2166177370324941], [-0.17397679123355825, -0.10511535305706973, -0.04049309923071085, 0.03893980874150048, -0.2657933509922026, 0.12194635368333169, -0.037271098835482595, -0.16629043533019064, 0.0693452410492897, -0.007571716076835208, -0.10554788673768208, -0.11115316513944705, -0.026848296257994026, 0.2722980801862147, -0.20126147959469884, -0.028246348443690682, -0.11651863276138281, -0.09521896998011913, 0.03171591819693269, -0.09542958733069817, -0.1882036160088653, -0.13878770600930496, 0.014122154598218993, -0.005724498555888542, -0.11851735960061358, 0.09234275299439873, -0.04256777806582523, -0.05103347423281191, 0.039581540004314575, -0.02683422215832409, 0.04586933345237724, -0.0497779103414469], [-0.15361741275959653, -0.25589352159323114, 0.14875509385529653, -0.34697686183523924, -0.10437361733717099, 0.0711188532635467, -0.044812186255675616, -0.09987338838564394, 0.13775671650878588, -0.10294690930913178, 0.04350262761636545, 0.4058868829629335, -0.09846020749715967, 0.0058495893785744995, -0.09400734041873376, 0.10943937196807901, 0.005367565802946345, 0.14151412820207443, -0.07438414323021493, 0.050036186245661224, 0.050419142469189326, 0.09768501411442963, 0.02255843319652437, -0.06913537767275565, 0.12279115105630385, -0.06259385160701318, 0.158777944714827, -0.014463595944726087, 0.08393957816885142, 0.07690018665957915, -0.06996371007864402, -0.06771597217914954], [-0.14483080810355015, 0.15263083108274358, 0.08438416346206443, 0.09158764748022219, -0.019718740447553722, -0.18752521784509132, 0.0867726163626358, 0.004138143258213136, 0.2185362209525142, 0.10690678930354704, 0.086675588752178, -0.0264369419615148, 0.0901179958130318, -0.08495957042167501, 0.1339632188712183, -0.17124938433762413, -0.01666983446720031, 0.14174105734919862, -0.10652946108652865, 0.00022455873836610329, 0.1651354148488327, -0.010400881392048492, 0.02767942030903502, -0.24589868881933644, -0.012992460490158928, -0.03991479703685164, 0.06234525593414062, -0.031862383072183045, 0.17945749854289722, 0.1012768751168522, -0.02018501977898394, -0.13880518443356188], [-0.05900862022912959, -0.11713857017989548, 0.03471453625575424, 0.15050488687294983, -0.18366495693221802, -0.07483424404245577, -0.11706927764233514, -0.09957731265684396, 0.047619389123346866, -0.19576202498180614, -0.0453991030017796, 0.02095527547860445, -0.27998196889856136, -0.033237810320637315, 0.04564168177337604, -0.006859018571516079, -0.04082959514197699, -0.04826026423524262, 0.006901920456190223, 0.14673123098209165, 0.033666834389474806, 0.1507834073433206, 0.07879975299630071, 0.02050303383518417, 0.010534880677437127, 0.26263982361914323, -0.09272866228354876, -0.0785044312318205, -0.1110770234461842, -0.0028648925379563743, -0.0136668349628319, 0.027095157268092612], [0.0074215426084139205, -0.10048112035226765, 0.10327978814446169, -0.04348210338722074, -0.04182759907281902, 0.02374826768307776, -0.001090725875364085, -0.006176384633318128, 0.03557301994974891, -0.0643540974755239, -0.07756169706779469, 0.19225244181704887, -0.027051317204840736, 0.004194948561796956, 0.04016711315417356, -0.09851618731489586, 0.012879893385920257, -0.08095809378900104, -0.12007454879086155, -0.24109737275208545, -0.07442698392751736, -0.07035979072955989, -0.002541176981111578, 0.03505356446824834, 0.08894816823574524, 0.020965911304881315, 0.0807209989717206, 0.05688798884547593, 0.2556119973937226, -0.09118177830891044, -0.11245607376156307, -0.11357441868857093], [-0.25713974757678626, -0.002372959304046854, -0.1357911387299966, 0.06559956667737785, 0.026278266487541783, 0.13274203793677686, 0.13375854361979456, 0.02594548246658764, -0.13343378843763465, -0.15833688026289872, -0.17996794353403806, -0.042512583348052975, 0.15905340343016577, 0.0443502157330628, 0.041985963209712956, -0.18306667036427388, 0.05165507520953245, 0.11387089604175814, -0.05095306611989094, -0.0028017748615000713, -0.08504327565495405, 0.07322946664883999, 0.04332209749528439, -0.0907757785129573, 0.11711603715125476, -0.010865337187711255, -0.010092644740916477, -0.012926511335217227, -0.2131897226279052, 0.02270996030099478, -0.14424496160747974, 0.02404860304248075]]], [[[-0.09742983178288929, -0.03517467824102315, 0.030186977338032224, -0.13937114081207266, -0.09912385740783854, 0.07666304689417675, -0.06453296172820525, -0.027371314213449426, 0.3086751490149385, -0.13589292794064037, 0.08048917185497168, -0.137360265140265, 0.18355856154374, 0.03314134087708141, 0.04444791069210528, -0.09198098384407602, 0.05075224127280143, 0.12529664057374285, 0.03846582759252454, -0.11223133115976827, 0.011209615922961958, 0.14879540629970872, -0.14026728059726887, 0.06986468266579085, -0.11638692461991117, -0.3068812695726348, 0.123593293105427, 0.009311211498856239, -0.20092280758213069, 0.15049486931754025, 0.12065163909884938, -0.08731686789169961], [0.20667953349684, 0.08829417884163246, -0.27739623209723924, 0.06690352342373332, 0.03399590463882107, 0.09166074208075588, -0.07446727631173607, 0.16096092252146735, -0.06105442281618407, 0.01735942738949896, 0.01821457829798639, 0.2702424158242179, -0.023141183599326223, 0.090631061494553, -0.17045345311124432, -0.020979312422186255, -0.10774929693266173, -0.01248596466558453, -0.03689386219095498, 0.03347241526897311, -0.13322377033830327, 0.14705350701264533, -0.05415689222137513, 0.009572307377295941, -0.0920016472535698, -0.16673749814793282, -0.062431400478562056, 0.09428689757815187, -0.009061635581850651, -0.2416153364430507, 0.008776367414553303, -0.27549725523499285], [-0.043335952743457286, 0.21124633453744673, -0.18950197475696598, 0.09792513399748187, 0.01817906109031945, 0.07688973723669705, -0.10820341975219917, -0.2665585038704162, 0.08477541796869689, 0.013234648897318823, 0.09384070106603358, -0.09686059071328118, -0.1827887854992128, 0.061955883398207345, -0.15217810141325036, 0.008839882638741319, 0.06573775494425739, 0.036344889456692876, 0.006068053808995576, 0.037597990564242435, -0.010825501764149337, -0.057405721734384206, 0.05701417653603232, 0.05070396798565972, -0.01367395285469163, -0.16835664985051624, -0.09622724842565702, -0.2707696859383347, -0.016065222296619767, 0.04785805715763572, 0.17090777946947985, 0.06567659279820355], [0.10025213269174958, 0.1853795490741821, 0.12954226392421173, 0.12727957880007984, 0.25919146024752215, 0.021391268854121293, -0.06298416917929563, 0.008332717061687681, -0.017339625234358152, 0.07936018185275417, 0.1173837550156361, -0.0063926810868484224, -0.05744054965744903, -0.011577080426629879, -0.09960988916151221, -0.029254117495470088, 0.13471405324780594, -0.13347663620784042, -0.2659339880002064, 0.013402088129426414, 0.08566156695081768, 0.06706047102299117, -0.02114977549976703, -0.045517934463574494, -0.21341283399836156, -0.15674087540859585, 0.01619953269011281, 0.12104026348731176, 0.29285564555270216, -0.018649714738035686, 0.052580144449265884, -0.05617252030395769], [0.0583032117970592, -0.02061066004123418, 0.06484707254714722, 0.015512696309183093, 0.0165567774370192, -0.11280940798746093, -0.09683044732596878, -0.16146257812814802, 0.001934185437085626, -0.0029466776478205836, 0.1579207820711125, 0.23594340347514597, -0.04226572256031249, 0.10362826554182117, -0.07257213449491602, -0.024876904352578184, 0.003806941125038028, 0.17609003907898205, -0.18426896762672665, -0.09608577021592567, 0.020526812314886, 0.08901309158755857, 0.03486988410556326, -0.07389320715635136, -0.21510317024860584, -0.20581194597012856, -0.14218442231026837, -0.053432775284785586, -0.12199146315472517, -0.1480384867129791, 0.14829921075668553, 0.07218595016137495], [0.08241096201838784, 0.01756809540598245, 0.09699802925798594, -0.09986103004738697, 0.14474799696948962, 0.06616832202202362, 0.09743372532560075, -0.09621071577062631, -0.028095330589108333, 0.31016815142508003, -0.16141702595042387, -0.038008127730990625, 0.07402903474961228, 0.059335353516508524, -0.15219967142803764, 0.1164326899138334, 0.03849142227034565, 0.0768868772040308, 0.14518031394117262, -0.03190915775388542, 0.021426943991341034, -0.3029383505208935, -0.1870054379684088, -0.08926847156851073, 0.0873554809958975, 0.016653967714252864, 0.041536200815789154, 0.07691413336580663, 0.10976728337384015, 0.18852331837179184, 0.10028601263843304, 0.10471937052241022], [-0.021149778244457008, -0.029198144704187464, -0.029354668276046395, -0.11038983937261894, -0.08931603346007118, -0.08118956465844217, 0.04994535323764606, 0.026576535255712918, 0.03207873044010766, -0.16051996735997784, 0.1780109138570331, 0.04596633100750674, 0.04256684461332595, 0.010705361444391734, 0.12791223451378614, 0.0475288156457738, 0.04758524510598262, -0.17786907670913776, -0.11004636186064701, -0.09513718441308291, 0.1209221858993812, -0.08939808988195082, -0.003249744661026628, -0.2337763826081919, 0.05357515972530794, -0.018668412516189753, -0.02149729718928355, 0.12440973316234075, -0.0005433157986443716, -0.0479293447824204, 0.08395289415736225, 0.055716065239325666], [-0.020407993059328604, -0.1124440535342256, 0.19661310945491686, -0.11227098578657162, -0.015213482046124802, 0.23767583760126887, -0.09663617583239455, 0.029566261633302483, -0.12004815448722149, -0.05235974894964209, -0.13788187831772813, -0.1206238451954917, -0.14085407126819835, -0.01123861365531055, -0.01792545991190246, -0.21554716206533586, 0.15155677169798726, 0.018528918759908804, 0.09313713044682728, 0.13018269159281023, 0.24371089553692368, -0.02796577183165752, 0.06625876040675277, 0.12169125914089156, -0.11631278235065055, 0.010537684648992462, -0.06777933736447375, -0.20005058509676651, -0.14796426929668516, 0.12488794520609058, 0.04079520950362544, -0.16061497960427767], [0.016764593783623025, -0.1791625311408051, -0.034576813530028096, 0.15175428947705438, 0.05894341611449289, 0.06698249325658075, -0.030133605769282024, 0.08109660808021724, -0.05608536276747814, -0.2064461688322968, 0.2665711536938864, 0.10244107655765085, -0.02008631508965985, 0.11877448429632306, -0.004319238708174663, 0.29155723611491435, -0.08625822928833173, 0.19560657630950504, -0.07365360563121899, -0.07050389718565737, -0.28013077985683926, -0.16628428278195712, -0.06309555432030582, 0.09462473462956576, 0.03751605821053549, 0.06563597043925436, -0.2633156455641001, -0.03195111169854016, 0.0019143594300579303, -0.05866251510578775, 0.1169067037543789, 0.15709273747994257], [-0.13429074077545605, -0.18042038253453563, 0.20900893605383805, 0.015925396565259417, 0.07108444545955724, 0.17422002856271543, -0.0274176038396007, -0.0307863889744196, -0.03302368883623823, 0.2819316419846073, 0.24873804528503138, 0.07802249060039713, -0.11792670707068312, -0.054629506422226394, -0.09348970305553539, -0.03759093801313055, -0.05733259775012287, -0.002011366591455046, 0.024634350688789077, 0.18554694048340467, -0.051076799582412916, -0.03437913133765169, 0.11673281112352049, -0.03264988959300769, -0.09060531756193162, -0.14780452116618545, 0.0336423570612018, 0.0988263857111163, -0.15442031424393998, 0.06889544338700083, 0.184569118663322, -0.08858666104223506], [0.07696556778340956, -0.0798471441820696, 0.09914485826836579, 0.18715780310374838, 0.18690645831867692, -0.01644542471490714, -0.15205801603980854, 0.09233490573950191, -0.08094833584251036, 0.05827679672772656, 0.17011292507413336, 0.02255355829488025, -0.018504729624011878, -0.013231295454802065, -0.1396800917265235, -0.07159843191641495, -0.10063454583054383, -0.0539719644104988, -0.07889272155396387, 0.09040317083524402, -0.08515060887278215, 0.0007429874482325088, -0.05447520980326741, -0.06524155597406504, 0.15635430755148363, 0.03556822704557127, 0.1299362234941431, -0.11552114153816433, -0.05694509531150257, -0.07755835976221019, 0.029100201287518782, -0.10934360690499136], [-0.010171154509243701, 0.09162509641014982, 0.049930898707903654, 0.026263658150552725, 0.1353186241093844, -0.027611889952203206, -0.1601312022686609, -0.009879527547696894, -0.10848366669876011, 0.28358357578563387, 0.07608558851761645, 0.08603316192560155, -0.02938355418379382, -0.05522495871596961, -0.06327507613342344, -0.263708228823947, 0.056655931878833735, -0.08868293860927483, 0.09298921114248859, -0.05347091721872487, 0.041592883919968585, -0.24343762740782943, -0.1646339063983475, -0.17408276009466014, -0.13124556781232238, 0.01606036280677416, 0.12329845747804856, 0.27316054909163684, 0.025517570512934757, 0.04773415855130503, 0.06790182760649707, 0.07118300581293986], [0.018621473747849494, 0.05064407247473474, 0.10577280687420994, 0.06449533625101528, 0.1041808008557192, 0.05118577297165438, -0.013963893972496302, 0.013940527339337493, -0.08124065636365015, 0.016956957217296162, 0.19913123730595914, -0.017593606200085942, -0.21539442775186987, -0.054617777689322446, 0.01309899603825997, 0.16213641357681421, -0.05275176083956575, 0.11731491930737115, -0.0709936280327687, 0.1392519932069272, -0.05672406299386832, 0.025032380075607756, -0.05150340135670144, 0.09258556102769085, 0.16122309552905634, 0.050831095995866125, 0.16143987329912068, -0.06361716637942698, 0.03178250862865174, -0.1148056874442098, 0.04440809782070647, 0.052620149373828896], [0.11496044795600317, 0.07822777928923383, -0.1565684422917841, -0.14496250338643463, 0.08563371108003286, 0.007369815419006032, 0.08545958155497665, -0.05687648437785257, 0.08235650647093566, -0.20156255966946285, 0.2823723477937352, 0.04412889537121712, -0.12574326211432324, -0.0773022403548114, -0.2411575448400115, 0.15774478459702232, 0.031519890897440964, 0.19856552407889874, -0.016439455124772684, 0.048932348737925326, 0.07698901818599854, -0.2078261312245528, 0.23392733756522446, 0.1931103851449776, 0.08473719700993668, 0.0636077708480971, 0.08376287846561928, -0.15485107261823558, -0.009133389408385493, 0.09993116389731449, 0.012224226985926546, 0.022423598868620012], [-0.01565494993122979, -0.11809030025078557, 0.0569263035591201, -0.07107871924531269, -0.15415943113414068, -0.1456459844157548, 0.028907820106112533, 0.045125591604812575, -0.10002498056931958, 0.01000684708915161, 0.11714146968053087, -0.025646796836470878, 0.11809679016980111, 0.10429280390540406, 0.13472088403685922, 0.16253850511999973, 0.07022156343329734, -0.09120854278733043, 0.05929177992754733, 0.2716475390810329, -0.03777370220693928, -0.17973678903091497, 0.01989888419736314, 0.07316281447745945, 0.10085440435359974, 0.08129892846061446, -0.060246647374340156, -0.15112246777655539, -0.16754321505530165, -0.12347844133781094, -0.0850439662533702, -0.07580936259203651], [-0.062373935050946315, 0.011234315532820914, 0.25239713046841367, 0.11860749224379814, -0.08430013935307379, 0.031441625701565216, -0.14829895850945018, -0.2187165964107837, 0.1334193650341258, 0.1191376053564374, -0.05782999902906049, 0.0036839452999978977, 0.0336300275767551, 0.01583513357707709, -0.034848654367747686, -0.16421794335107734, -0.029872550419901875, -0.05577926250546117, 0.10659206945917085, 0.038513805927392626, -0.2320317240212226, 0.09612176334886136, 0.06880889230569846, -0.01802231002150551, -0.19709493232529304, 0.06483065875471465, 0.024822104475316895, 0.10208683190508888, 0.073040075879318, -0.19060352423396848, -0.02550403992448702, 0.06050235085216149]], [[-0.23180526759890635, -0.33167282395964326, -0.016542530205136737, -0.016715025446698117, -0.08860056178786914, 0.09849555771033928, -0.08791997480410237, -0.06376505650072446, -0.04358285478729598, 0.0954894465132149, -0.13845601333376856, 0.21465150344268547, 0.20946386457466398, 0.0809908477931756, 0.17744018430258304, 0.14348723806069966, -0.16588860433055755, -0.06711385709209335, -0.04352116569883015, 0.14015712012448814, -0.051398881610734, -0.08345986810279937, 0.12446765762995418, 0.06785276258768898, -0.19255514679507782, 0.06263943792430045, 0.04941698596593384, 0.18475265948200462, 0.031973026277650494, 0.07799229631833317, -0.02501615734369323, -0.05480316606549826], [-0.0064825550587083785, 0.15223359915060497, 0.21832807793611006, 0.020891558499564013, 0.27749174051370623, 0.09961450279316839, -0.06548963405483074, 0.08453615790298241, -0.15071089691082062, 0.25034140369882063, -0.03233791519635774, 0.11915975170241537, 0.21454549353283153, -0.07584213151809455, 0.23103130132792427, -0.06434102699553168, -0.13628613785937718, -0.23403096015179561, 0.020324739017764274, 0.08165999250389165, 0.08996042247371158, 0.1415047760778422, 0.012789613724845739, 0.08374719832508959, -0.11193575686657403, 0.014128324775840221, -0.019132762726801044, -0.09735822554102107, -0.2871478860414971, -0.007264746899075444, 0.06852364368205575, -0.24011457872373995], [-0.06340835420433585, 0.026817993516122445, 0.12821348665569784, 0.17766274990044825, -0.15605618366072868, 0.3697642520762386, -0.03803690774781095, -0.02179045989307436, -0.1417509481717617, -0.04559192996536567, 0.02163381944452864, 0.3594690557140894, -0.12161160572326922, -0.03455196894830532, 0.08607030491565704, -0.2131955635688304, 0.06228318872643485, 0.10563142038276317, -0.0350969369259227, 0.17496583091015785, -0.018053564382989672, 0.07367919102874876, 0.11896033909196166, -0.1765410173908673, 0.17922234330404424, 0.03222037031087071, 0.06758025442776507, -0.301560990658615, -0.042257306252100627, 0.027520787426270593, 0.02036271831420845, 0.0258458648582471], [0.021649777449012118, -0.009329829894637154, -0.07325811920713862, 0.009791233155898376, 0.02171109161306754, 0.1927700600807287, -0.02022841016394493, -0.027274315522707576, -0.04695379998695631, -0.05280341506979461, 0.19150522048873778, -0.048294862286374106, -0.27685692295966174, -0.07190860226464175, 0.11466098057996026, 0.2004957896997458, -0.15969283064795234, 0.012109348065541444, 0.14481458755891205, -0.18528132232098213, 0.05332041491689597, -0.09096430695359059, 0.07847036129455003, 0.03473790687604749, -0.14353146750009432, -0.10123791890898469, 0.1474986250796387, -0.0010026079941373453, 0.022819980832098595, -0.15392444467918573, 0.048377847127443675, -0.19583042490207997], [-0.18023785292228117, -0.1080082905453795, -0.14983357158581015, 0.16860088657976574, -0.2015913462575584, -0.03804464334587409, 0.028676616385439144, 0.047805841724526496, 0.05545717761317179, 0.03393653384287989, -0.2322779420332515, 0.24823723979028028, -0.16600215929646248, -0.12290119405217542, 0.10403661557559381, 0.172597140372588, -0.16432991607113748, 0.161614638542416, 0.05143849316200114, -0.18051757768510152, 0.14572223702565473, -0.065303529337861, 0.1543769763181026, -0.015562573722487092, 0.1164829634685263, 0.04737737034968499, -0.1148278220187904, 0.303024069629217, 0.0630431966245119, 0.08538856845369996, 0.2413976870895481, 0.04676971688084512], [-0.020879418983985258, 0.026292971305945042, 0.16731731079673115, 0.07699300920704927, 0.08187556621108595, -0.14485232011116875, -0.3278092291636157, -0.031160752103883842, -0.05525274344497683, 0.09844310590513923, -0.10845425860663258, 0.06435301935824361, 0.13870904131667589, 0.06647291976824073, 0.08963775637706806, -0.05812473164408595, 0.008868518295524699, 0.04046767958231817, -0.054068292178194775, 0.018288124576079003, -0.11284149717782344, -0.12835683620741292, 0.10153915510698648, 0.08102342999232566, 0.006172504821247007, -0.004935383722103079, -0.028421595360376358, -0.009271706302103963, -0.11400291339715671, 0.11369589944582686, -0.015490119031972397, -0.08505987315784562], [0.029847092293810683, 0.05102296129639461, -0.002699259917829437, 0.04586322070235655, -0.28347519965346113, 0.037063586728201266, -0.11930141909962885, -0.061780817795602815, -0.04692907454026936, 0.10842238922649117, -0.03123066372717948, 0.10798309194596607, 0.1926415687815517, -0.023100839900757977, -0.1300151725485322, 0.06285859123960665, -0.06290823955023792, -0.10990204378584185, -0.14608637150545015, 0.08631399711896573, -0.036559857103742155, -0.007769536750053574, -0.012266310035653871, 0.1836619974602127, 0.20708260616817262, -0.09753320435799781, 0.254984245317587, -0.14494185451973274, 0.12188568450622121, 0.01911345770381843, -0.022256434220560718, 0.11733911957109093], [-0.0637257888480035, 0.10633904081087632, 0.026018653763670994, -0.057199421031055665, 0.07867270009742369, -0.13972448525235368, 0.09693874957566727, -0.031754249250623534, -0.04821016817287238, 0.009270046641742536, 0.06074201297592327, 0.057240862842796635, -0.037333981310855774, -0.06548731996617439, 0.20267255056155387, -0.05969800541744413, -0.040002915111407564, -0.03582609183346711, 0.03355216084118965, -0.01403149289034071, -0.16701659175650807, -0.06280159256158284, 0.08290652819500333, 0.015422413658662829, -0.06040502202600904, 0.09180335267350669, -0.05196639844263002, -0.14272476595936887, 0.17045628287800665, -0.11898365104287706, 0.06491278702703657, 0.033697320500220056], [-0.059926178660881985, -0.004181905580652445, -0.05995590571328307, -0.18017274348637677, 0.1618927679251035, 0.013104517580129297, 0.11644574158604055, -0.0320023391200312, 0.07262770518653756, -0.025841659349710923, 0.06234179471409245, 0.1925270315794981, 0.038583870577236765, 0.07892397944611662, 0.014454613967835721, 0.13447335252673195, 0.11622098249506224, 0.12008790171230764, -0.06297438187407062, 0.020836072891474454, -0.07917217403927075, -0.09103997950124511, -0.10332707170137961, -0.01587167544200566, 0.13143146206817582, -0.06738238780835104, -0.09192323146759909, -0.0903071230760438, 0.08133451116217635, 0.001371375935739834, 0.07949678665535442, -0.09950063282874574], [-0.05006770731850595, 0.17080452100016463, 0.07730960996276989, -0.28774921542513565, 0.05285447189183483, -0.04446725853201306, -0.07649091478747286, 0.15342203986542083, 0.06356357701355926, -0.08886343320632901, -0.0439437609551056, -0.05040281039521142, 0.12185887740764006, 0.20204714132188445, -0.14107358439850284, -0.021307755445191166, 0.19388763752298535, 0.03985449605582839, -0.1017822698267811, 0.04201676258879347, -0.12858703955226228, 0.11409353421772409, 0.11236733414661167, -0.1312471738071333, 0.005743650154712309, 0.17007397303295657, 0.041778607763679684, -0.03544147654635754, -0.12661026705727957, -0.07880673337230774, 0.08023493227484742, 0.005193432482061327], [-0.04742089754406063, -0.062253459602486357, 0.043777793587967954, -0.024449632714507435, -0.02460332755773705, 0.03304156435376224, 0.0008952240762508464, 0.06162416174334401, 0.0707949348814816, 0.13780576383055496, 0.08033772024714311, -0.07627588450003071, 0.1450197880145869, 0.2649356612682927, -0.1803418495520186, 0.0806271753866296, -0.10471409551056382, 0.14528278179219792, -0.15971976199962304, 0.013633119446717938, -0.272259593458131, 0.020442671926854627, 0.06793316348357467, 0.10946075448746242, 0.032280026118468405, -0.03470459049508494, -0.0035128343988411123, -0.05829323958504566, 0.05469542020598794, 0.07605750354040597, 0.06622665277743627, -0.005496890916597916], [0.23991636917674006, -0.1271742432211943, 0.007269377080400626, -0.018267967181592328, 0.038012092696723364, -0.06485865681241278, 0.2556301462889974, -0.10378348035656262, -0.07266710868339994, 0.003662787503248045, -0.03153685700653555, -0.03277146773760808, -0.052896372596466665, -0.002390902341098946, -0.1002677877814353, -0.05926393862176451, -0.018430488151531765, 0.020868704330345527, 0.1742611305563736, 0.006210163558891313, 0.035682577863860365, -0.12247796574753607, 0.03785475404371077, 0.07628367973253694, -0.07942094832221774, 0.18991673720650587, -0.13840086590060427, -0.05496906858910779, 0.1804343926041946, -0.11368061023818149, -0.05419559983826481, -0.14073118064071583], [-0.0164834916447798, 0.2062242059195526, 0.0676629763896364, 0.12668465478900884, -0.14561109397787106, -0.07622612741587499, -0.02183609091404744, 0.06002799706803366, 0.011298044598264145, -0.01963058966973609, 0.025792207209047607, -0.017443941712777584, -0.1256858042975878, 0.12035563775214368, -0.14481090178067638, 0.013992639473545187, 0.13845397419794203, 0.1643361756355597, 0.14087458855631327, -0.14804691875259934, 0.17797388663318645, -0.08607368605692185, -0.040723955237140175, -0.026618387511907947, 0.12445876443999578, 0.05141951927696962, -0.027926633413894716, 0.03974160181841557, -0.1774621210555734, 0.08808839231666536, 0.07309446773708915, -0.05818416278178457], [0.08251908112505271, -0.22243230273375292, 0.09332075507924285, 0.108397074863787, -0.10412637498375132, 0.143747722886368, 0.33995780620826666, 0.04987966310237459, 0.035595227166256446, 0.0013365094928163566, -0.006447271458423803, 0.07095626033357717, 0.08356301437108375, 0.14539376169079238, -0.03500370247846593, -0.07551271630877135, -0.07075703650777064, -0.01066244953337081, -0.16845834848112679, 0.01784287715462684, -0.22671076444875884, -0.06360851887971679, 0.09120863366317392, -0.02479161720323285, -0.09199398867069462, 0.055443866711484435, 0.08471628353274548, 0.09822523942635439, 0.05578213112516478, -0.07418313445553892, 0.0977886226774905, 0.03481444790558088], [0.18687169148454374, -0.21474314511079806, -0.028982853308534298, -0.1114683307746203, -0.29399250179960057, 0.01852664316211964, -0.09832302521954725, -0.07510012347279754, 0.0394972922972956, 0.026920017389488165, -0.007621755595749945, 0.018818230671103657, -0.15962188163412652, -0.027447235859404406, 0.07378317567272295, 0.13186582631147356, 0.059917001977950426, 0.09403132596583606, 0.03432668007932823, 0.35820471122843967, -0.07639477392028224, -0.0987440010429335, -0.011846374310759335, -0.053428792442158556, -0.07464443091031144, 0.033225016821463615, 0.021367281954469734, -0.24976790446650088, 0.18032754853326688, -0.05362039221429792, 0.18287714601005003, -0.0808915498897922], [-0.04548310176849675, -0.010563981642208398, -0.17707699483443226, 0.002580818316710752, 0.09886166867203963, 0.056915922388300844, 0.1885592624578834, 0.0625516859352042, -0.16402015148390683, 0.06988165172920001, 0.04297988604223552, -0.1658817783528863, -0.09622327215958171, 0.09400489279062074, -0.11170352321447148, 0.08819751055903378, 0.16052418268018712, 0.07875421054968883, 0.010555393322455446, -0.25400441602633517, 0.10067337107204376, -0.08789774212642211, -0.07479732248635787, 0.17618213185391243, -0.060322399518930286, 0.03284106777953916, -0.17108900073832284, -0.10903049654589321, -0.09000014181412522, -0.09845032247961848, 0.012128613155956902, 0.05135030553964412]], [[-0.008793585856129335, -0.18054089309509871, 0.011207187457634748, -0.043682104149639564, 0.09019043218639473, -0.12291261576033173, -0.026366756047661317, -0.024255411522228466, 0.11993587493403927, 0.12826728088737868, -0.04119634622901434, -0.010590068018821884, 0.1255628694289924, 0.027210676671008058, 0.2134625513773698, 0.1426567414236712, -0.12775411953929805, 0.3644395344441917, -0.056484473913792084, -0.17055772254890264, -0.14365341895696232, -0.0029098523118076727, 0.06549591343258634, 0.006723540934494841, -0.06695974981219932, -0.15201979905164667, 0.21662178300213594, 0.14130970377454286, -0.08192087450960574, -0.26537015749406634, -0.1527544654456259, 0.04057185358257519], [0.13908738741841553, 0.03967006499120861, -0.1851899647672067, 0.19951309497910039, -0.06016993848905132, 0.02039480537097401, 0.24415324751359688, 0.0715807985308072, 0.08782079302819877, 0.1017743062616376, 0.06882715308939877, -0.26217243020513986, 0.08217269447373884, -0.0036208602785561496, -0.27385471628206665, -0.04924942476630545, -0.1256752176251597, 0.1604479817586353, 0.03349571640319237, 0.08899115828964248, -0.029277996409453794, 0.054215047689110535, -0.07642662713720165, 0.01518231508540037, -0.15849417091346982, 0.20489960360419043, -0.0773881530294186, -0.12074583742997935, -0.2539896994849024, -0.11330851541957326, 0.07476925430281467, -0.2632130719392046], [-0.004171206400344154, 0.25487042014348554, 0.018507686478551222, 0.3610923469518125, 0.1593514555008383, 0.1740358324252066, 0.17140092861371295, -0.15991917002194464, -0.010104506538351198, -0.03457169254862491, -0.02720634973315442, -0.08984033935335095, 0.0658628853179094, -0.1463469174455281, 0.03305869486606773, 0.16437554709408575, 0.2146091201239613, 0.017576015060227865, -0.30514952200035844, 0.1279573809699196, -0.017621377118427945, -0.10456854873662533, -0.024456623872701276, -0.1636871877570522, -0.11350322693077353, 0.21052362176836265, 0.1917926227213773, -0.11833763757101744, 0.07623190347068297, 0.09481746696065543, -0.04839923658417788, -0.19980432943920626], [-0.26867549067078283, 0.10674450757959843, -0.0908811968707998, 0.09976785258468139, 0.07884209842064262, -0.023361734934238213, -0.1690143821104895, -0.14623526445442414, -0.033305621186606474, 0.088905508447437, -0.20408545741361, 0.10365274781407448, -0.017425351873124297, 0.052728152252817004, 0.21929198879225983, -0.0003546796104231541, -0.001972916327450213, -0.08568519483777483, 0.06556972755438027, 0.15631734102928552, 0.005050579170151073, 0.05055107268444199, -0.11319795671402932, -0.02496742241326086, 0.18321078649510364, 0.029972976127210588, -0.021491851345783866, -0.11178147578774983, 0.07972957194934037, -0.13700905236081296, -0.0907316729423493, -0.060257204311944354], [-0.1036919328029939, 0.037747904900919, -0.07683511104495637, 0.14517372134614878, -0.09336972502628339, -0.1623146837209133, 0.18071664926023234, -0.07195831994165276, 0.01174116756039386, 0.01837248149039863, 0.004250707046372012, -0.1827962583978456, -0.041809196184729995, -0.019063495930819616, -0.05991517601242889, -0.14977875350514525, -0.02407080585760021, -0.22423882710352291, -0.007242666853909114, 0.06818354057979904, -0.11978669515840161, 0.042934657516546945, 0.030329843214350106, -0.033314173340460856, 0.0532272105795304, -0.009933109631135617, 0.04641401053207577, -0.14108388766507304, -0.04325508996315558, 0.011584758211291494, -0.12379783760281791, 0.04650666312737056], [-0.16180018692097362, 0.11576575019092052, -0.09149742562408925, 0.14802774377140998, 0.036304450592628205, 0.02122155363642695, 0.028216360711435278, 0.05877145342508412, -0.12548205211737506, 0.10227787690650908, 0.1731796878096109, 0.2559879819020197, 0.009401185157240666, 0.10726489424915925, -0.13759058808761776, 0.0013767151037126404, -0.06764755954950666, 0.2484941466990916, -0.02860268843488322, -0.010072475985606679, -0.08291803992811886, 0.1795579897991314, -0.12718942942598274, 0.2274506086637977, -0.1969631640295337, -0.2701709750142516, -0.15828242193457093, 0.1562237590097254, 0.08879403417814737, 0.11809652981291312, -0.007542217177681613, -0.011677943880702854], [-0.14268532990080285, 0.17957064844041756, -0.07814578491634719, 0.0212566990701623, -0.1174124588106022, -0.05331023003840365, -0.093297908858572, -0.04728373707312342, 0.06985127814397271, 0.04889449691435869, -0.03525121181992802, 0.14543345782111694, 0.07632654976077896, 0.0844536683942635, 0.11380791367591692, -0.13882342047130078, -0.07295029461541783, -0.0686443728274602, 0.20062856114589914, -0.23856156808061918, -0.02043416668176641, -0.26688940642328074, 0.0968018794736756, 0.06618855229953649, 0.045996092592967844, -0.143579489294903, 0.04621035301054134, -0.11271561226094207, -0.011463301751099907, 0.07037656198960913, 0.022792781814425022, 0.03183629139382321], [-0.12081069540620831, -0.04643422612686528, -0.13577189375656137, 0.03243888283008903, 0.13747231286722866, -0.09569426167139986, -0.035064116167477385, 0.15098235399220178, -0.020237107938798956, 0.03209620684508673, -0.008783763894106834, 0.017701163125903766, -0.060709990654295234, 0.10091687440114273, 0.09320085869975982, -0.04801513400237206, -0.04919528464614318, 0.06382596293661925, 0.15135388714638165, 0.13005815330153114, 0.0927512820588779, 0.021606852400912768, 0.05852007624928444, 0.21338269036726593, -0.031324568875347236, -0.10540628841165608, 0.10079808686141352, -0.025275103363402447, -0.03721207552908136, -0.14589227189837592, 0.14403630249528873, 0.02247574114534249], [0.11194224017958003, -0.05441165150549336, 0.017862579088328494, 0.04988781469876724, 0.04881682962795649, -0.08845449852343419, 0.2079901244355074, -0.21335490602091192, 0.07231522806942946, 0.18654451543581133, -0.23830279646570118, 0.07510356077859882, 0.05157870913552674, 0.020373613506852063, 0.019613377014740738, -0.03463540042882379, -0.0008095374447407062, -0.14919904659403235, -0.23639064239974947, 0.014590276309938546, -0.15025192266618945, -0.28088277713756543, -0.12052262433809663, -0.18577170121741418, -0.06551466110292574, 0.12408517382170642, -0.15243520204582803, -0.04558653109579153, 0.0058661151706191645, -0.12729037258507128, -0.11702323085998897, -0.1623787028600417], [-0.14029600389483055, 0.13847832907304938, 0.060628220137799206, -0.004114117990118329, 0.048110717793722155, 0.07121363283489701, -0.05702354228063133, -0.10744569859752841, -0.21066613271450718, 0.14360509106907585, -0.11151352364370913, -0.10372829560662941, -0.10198521536873771, 0.0732049731618054, 0.39544261273597453, 0.12470422156234733, 0.2753339520515419, -0.029507273676426155, 0.09941219908145972, -0.04841080037811848, -0.0048929710519502855, 0.13521582978441285, -0.06740143215508644, -0.12898446280798676, 0.030916228577224973, -0.021470611676357453, -0.05430396566138461, -0.029708503795150935, -0.0425395404534538, 0.04137789105284954, -0.12647364407678477, 0.2248132968631982], [-0.045422801537390596, 0.19257577434300865, -0.08837503696213721, 0.08630186226212651, -0.0033543047681376713, -0.0690136989018679, -0.10086101986129727, -0.0255336885713382, 0.2616345047697865, -0.1600615493129675, -0.3526534931614035, -0.06290914142636779, -0.005521032468586352, 0.16970379809139463, 0.16216293190090553, -0.09744018360627518, -0.03111775348367781, 0.004762164181998765, -0.03460380632810501, 0.02564521663611413, 0.0002509269487334742, 0.14404573267223977, 0.07990247783882874, -0.1467418639275674, -0.0441644698430722, 0.025240383692916497, 0.06038472543755198, -0.02584004557916, -0.24753653481611737, 0.01636444246575351, 0.022026155373917923, -0.17662937160751907], [-0.037545382301583156, 0.01395174956541101, -0.1219026069261896, 0.042477343324058496, -0.09612298056663444, -0.012806853775104026, 0.05232060005224237, 0.10385332310233605, -0.07332488583801315, 0.10092860363884479, -0.0028232350620165164, -0.007391264064773021, 0.1631348265246556, -0.10736296645227211, -0.14983885985427553, -0.18189897723007378, 0.16362416470959174, -0.054139297231976656, -0.13039398426393206, 0.18389614134489907, 0.009165105516300205, 0.06694454267790319, 0.09066423456104426, 0.0982268209682631, -0.018214836537502912, 0.025610583731919663, -0.14623279618231502, 0.1738794428968152, 0.12290206304182448, -0.004809571435233866, 0.09725703321462552, -0.152478458494387], [-0.009880861443396257, 0.023509334204663373, -0.10078948134327093, 