{"conv_kernel1": [[[[0.8655482171941977, 0.09314651572704707, 0.1515208397153779, -0.010942245060128754, -0.6537212833672953, -0.10307069795447084, 0.2882796652449517, -0.014114967924551419, 0.0815707840682077, 0.45425834473823085, 0.4311675434097464, 0.7404524705797703, 0.7216213581704854, -0.08169401437908803, 0.16664840867073652, -0.03204592244059386]], [[0.44215104101813146, -0.5995382915240428, 0.25030774992799615, -0.6572133410525981, -0.9073336063412439, 0.6578739092707175, -0.41624696854963933, -0.1635978273087809, -0.4546667486350072, 0.5129416140034764, 0.05786109418863578, 0.2054814421963326, -0.48267754683183844, -0.4541014535135536, -0.9390283187087664, 0.8816629300579285]], [[-0.5574353067048905, -0.2156102146121556, -0.20779217447008466, 0.38444687661975124, 1.1302740465669396, 0.25893922560646027, -0.40282491987133445, -0.42915954685384317, 0.20076708478968933, -0.6261047160776475, 0.16616811016750369, -0.8098405403525895, 0.11220280819318354, -1.0175506858182064, 0.2030513339792287, -0.31443296204960103]]], [[[0.10857057008486447, -0.4833225026972905, -0.12352805187335354, 0.7464040681299275, -0.32124967382089187, 0.3656533453624647, -0.30695770670346023, -0.2677971803286785, 0.7313024603291772, 0.18484528615802107, -0.5424580998917358, -0.8583350708193599, -0.43588367829147223, -0.3768244519775181, 0.5031945410892983, -0.6890669120283376]], [[-0.019172687451677214, -0.7729320760083439, -0.13462413927797184, 0.7370245240507626, 0.07736824872315749, -1.2904415675834424, 0.40941025327010955, -0.06206780153618039, -0.17166245757239174, 0.09942840552939304, -0.5790682802395656, -1.1878321720387397, -0.40447215457313956, 0.3377651810406367, -0.7450095382801871, -0.32506131931451576]], [[-0.08746976252840666, -0.16708475202713738, 0.9698244618651056, -0.27659571244706666, 0.4455456850611935, 0.34098886601636, 0.7317467618474737, 0.30347655036372906, -0.025092906655351882, -0.49357903364203104, 0.31048034012164344, 0.1681876511783463, 0.29032229638701085, 0.13835175925470442, 1.3517562358227107, -0.3777461992443597]]], [[[-0.19915841934532652, 0.439513791416815, 0.7694279593018417, -0.3363820086525456, -0.27821104292793086, -0.6000728920947994, -0.2957010708776326, 0.04770483197734619, 0.07636153164890591, -1.1051787784940488, 0.6326634096772505, -0.8809786947136041, 0.8842813968639877, 0.062354014796077085, 0.5994451703704743, -0.8534487955715031]], [[-0.22736338396411515, 0.5914285066074938, 0.2675900090706048, 0.6419163793485338, 0.4523467469224704, -0.18012643529730085, -0.3766454367380054, -0.7677675065527463, 0.4488102641932287, 0.7700388992846937, -0.25660740802948384, 0.2474905453314271, 0.17727922064518065, 0.05160518054000746, -0.12932299842390305, -0.0600168570556595]], [[-0.21670740465317542, 0.22685077997293254, 0.6291226433687741, -0.7262063053587181, -0.10367915270107846, 0.04634392340868164, -0.10879066560819081, -0.23491180092037434, -0.22626501916356345, 0.34943253744758124, -0.2581497474023134, 0.1353105484575637, 0.147602974629377, -0.5930880474477718, 0.7571636123563282, -0.9594791167646856]]]], "conv_kernel2": [[[[0.009003062613760066, -0.06892834939147054, -0.024571936059312943, 0.05602329421139101, -0.06276549697661928, 0.022390752435537814, 0.07655825903923191, 0.18038041512526598, -0.15165174175200358, -0.14134710126316374, -0.14838756811738635, -0.1251326546146191, -0.059536499006432604, 0.0803017262043926, 0.07728522311461114, 0.08820034878478628, 0.06436371644615768, -0.030602047258534232, 0.06743377362997721, -0.1965237524441332, 0.025088140286215706, -0.025359746131472058, 0.051783422598247954, 0.024322398899427482, -0.19968254878820857, -0.183972938368476, 0.09242835439793072, -0.18513452730605698, -0.08230598193806966, -0.12667486793058527, 0.06346113101251054, -0.09329062209574666], [0.05029763730848942, 0.05896922932999654, -0.13577632276446966, -0.1017255030795969, -0.04277808396852567, 0.11928630459440287, 0.01654798332506436, 0.00982552224731405, -0.01784697966460868, 0.05332570355363327, 0.20068952477693863, -0.09718660853890505, -0.02380549948561286, -0.018219407216795918, -0.3890536677176017, 0.15167462831198383, 0.0351572802552798, -0.11125539430586272, 0.13135142860412438, -0.04308468661418903, 0.23998125771111345, -0.04125904357161005, 0.01867855561094407, 0.05260067955436381, -0.08970037329613562, -0.28982254377037575, 0.04863796446543091, 0.018810731248091593, -0.14409766426118945, -0.182547695310451, -0.007488187239268105, -0.03773241139577309], [-0.020557396271099104, 0.05537243594959297, -0.15350052049881824, 0.4226186390189632, -0.07203525783871557, 0.060848687477011554, -0.1517044556862462, 0.15966674432381608, 0.2533804923655634, 0.2603623938600791, -0.04341784938059694, -0.11635767169633254, 0.06314466551300041, 0.054402165604253885, -0.164636964732148, 0.01262690676980499, -0.03414994239478014, 0.049625609698654, 0.016773093893724954, 0.2304601969142801, -0.035188975021857055, 0.027535090937689393, -0.1143807741179151, -0.03470963594841027, 0.02415613804665885, 0.17480436085234788, 0.15352318519310748, 0.03422646336508654, 0.07163831903101033, -0.0942525524828839, 0.12249790795156967, 0.13418706875144892], [-0.036762790748059375, 0.07008348634053621, 0.1267651177358529, -0.09368395355203986, -0.04136435015732185, 0.07618095519468147, 0.025158464436995744, 0.0005316455229609169, -0.10737524209315845, 0.15085307563447226, 0.26214575846237453, 0.0415850051875905, 0.07061242028171555, 0.08301809761275411, -0.10262674818702407, -0.009688219979851977, -0.11136800877463426, 0.043807697324927536, -0.00771383309508923, -0.12989048943753856, 0.017366943089827277, -0.1646056330936064, 0.10344718145016843, -0.29296146431245623, 0.13948627512248207, 0.04298502212478506, 0.10069814220359428, -0.08529341160653812, -0.04193400103013301, -0.30734703138169067, -0.028861526598168378, 0.09119059956777778], [0.1732153017629225, -0.020886935702210205, -0.1185663097931479, -0.1147206306326486, -0.03994013606304807, 0.034158570434299956, -0.2234084013771155, 0.07088233119033006, 0.04026693864900078, 0.008867524334414017, -0.07541592937165781, -0.035720008069522684, 0.011229874530505122, -0.046102770569191445, 0.1195125282849689, 0.2196167204582045, 0.0919609252655013, -0.0033252048733700464, -0.06550813072280968, 0.011644070442984414, -0.08273487894773283, -0.10192196888170647, 0.0025345343385433368, -0.08585563966005186, 0.08070167108599215, 0.18250843000742237, -0.05715319807984522, -0.008966948861877783, -0.03430689399694251, -0.19957259525270282, -0.15318860042468818, -0.03197518145658363], [-0.19546028684820557, -0.09014072272673615, -0.010071364083628699, 0.03512831111977188, -0.47674628702955896, 0.06640194385357225, -0.24171519983572337, -0.06700562907598219, -0.0036791295562641287, -0.1124631372836099, -0.06175358479574725, 0.22077382120667544, -0.007228788529836509, 0.01174310592486999, -0.08773256312285478, 0.07489248122548996, -0.21766189361837607, -0.0859063058333266, -0.03779573730589106, 0.0788860011252808, -0.03364795478076069, 0.17167994930553898, -0.08724986717743868, -0.0823634903073248, -0.21171742431793908, -0.14966531849057962, -0.18291121502909916, 0.18974858725526828, 0.16293981278704692, -0.01631138424774277, 0.16432155935535925, -0.10633700554536783], [0.03437241947956488, -0.15606376929870236, -0.018353283352783807, -0.12101501686361507, 0.1306522551747484, 0.24801662568600266, 0.09939104134704785, -0.00836220257906438, -0.12354734740523086, 0.04856983063713768, 0.16641490821146435, 0.03371744372903746, 0.12853730781012604, -0.10515799547435913, -0.08138307797641174, 0.04786331859038718, 0.0027873039430362477, -0.18247631951698146, -0.049187719546884626, -0.000729913489681798, 0.0016701083416845145, 0.11829896520050656, 0.03658608996330563, 0.13281256676435188, 0.0589087853699347, 0.06824998323721637, -0.04439897867305306, 0.15943205945679412, -0.1813377591565537, 0.002142582367322082, -0.2555453291602233, -0.16823809098197712], [-0.09035908526586259, -0.21372229847867008, -0.00834686346351489, 0.15718476079712446, -0.004025498896916085, 0.005801713340477763, -0.0389955270072387, -0.06822838915622997, -0.0032324008233148445, -0.11380337035792273, -0.09465795712478206, 0.2605595481609155, 0.06866503932921661, -0.1340045497624262, 0.06349330238257711, -0.03703421914265572, -0.06434125019549536, 0.03323728750920808, -0.08889167653961914, -0.01351693350517812, -0.1274706833754133, -0.0718522511994056, -0.0038835113460223415, -0.1539321673578965, 0.13982038490273008, -0.14785507630855918, -0.08985875488569411, 0.0895142702866387, 0.1752193352465714, 0.15208092872312354, -0.18423677510300782, 0.06264645543785159], [-0.1927995534865222, -0.004668335578202048, -0.05387379202633945, -0.04367827843520798, -0.3038780492048288, -0.1257106617340236, 0.020231969993371426, 0.04579486518986241, 0.24331232285042853, -0.0802768044983785, -0.08184621285046352, -0.12044159880076893, 0.031074409801509207, -0.13593401884613018, 0.03178067947249169, 0.1342234351447456, -0.07498991676732439, 0.08993747324475225, 0.06197929676477892, 0.16671600246308182, 0.10328002512284686, 0.08096313770502414, 0.22702144900463458, -0.00821553578644608, -0.05300052722300688, -0.050608665279483524, -0.022982461850425618, 0.18103575098186814, -0.004576885397367433, -0.01957206257485871, 0.08397596077429424, 0.08813379366523612], [0.19574771107647365, 0.14164348251282724, 0.059903244912984946, -0.05371706632921177, 0.10587033245628326, 0.047104646379986424, 0.12009734555282671, 0.05648203848200739, -0.009616814860972885, 0.2688549099475989, 0.059714186303607086, 0.09939995758910096, -0.013022399252247501, -0.03735911910989281, -0.10213589443889412, 0.01198501537876164, 0.14835355970415157, -0.09994794376130417, 0.05400786742603568, -0.1637903456071241, 0.19628724670446032, 0.2921522757271973, 0.1306036145391188, 0.09904780216750603, -0.021953363829980796, -0.06226877531103464, 0.12628294532709386, -0.058113782245846915, -0.008111857540679024, -0.08994057913194159, -0.01790052926157964, -0.016220248786623703], [0.22857431938304446, -0.20662301052799759, -0.058635437359849794, 0.10538249045693375, -0.17030681776711348, -0.12403055197103904, 0.22414963581759836, -0.07014421434643137, 0.12132550861953574, 0.1861593782440744, 0.07792914524203022, 0.12239092486390091, -0.17625099026643334, -0.0012862121096590886, 0.1687701654141162, 0.1190300087990594, 0.07131435346155263, -0.165229414554491, -0.18346236594190254, -0.10337445428128934, -0.08085244666231621, 0.09217630980730546, -0.1707920477443116, -0.03508298132028779, -0.007879985265470086, -0.13735507858322393, -0.2129210854133641, -0.15565059978125864, 0.23135029889700182, -0.04772510710992782, -0.0755172632897615, 0.28401166618831397], [0.01755328652866808, 0.10972325598435291, 0.11282127137826523, -0.0156255499520999, -0.08295077536495375, 0.05797665872951746, -0.10435246430103039, -0.18757306178613037, 0.06817983962306254, 0.029344088853185946, -0.213563505911207, -0.014059526644977578, 0.07816525750337508, 0.03123327659186327, 0.07633313223459498, 0.2057577091592169, -0.18607321444807398, 0.059535453297809786, 0.07504073467654022, -0.04893006798375335, 0.0423703711166452, -0.08629721878238027, 0.14137561769037738, 0.03895959770439533, -0.08473320149809341, -0.06713705245503386, -0.005896539335850976, 0.01955359737514697, 0.12627025040924744, -0.06385776088360096, 0.040943864036577404, 0.05537674068161006], [0.02048340490109758, 0.06823849939718704, -0.04927216415693263, 0.16748934458600923, -0.10299515267075114, 0.2751301675929129, 0.13851374330456437, 0.030411748320207096, 0.032559820993844066, 0.04413371641452763, 0.07439951190896525, -0.2273666962460008, 0.208231733522615, -0.06496508987016074, -0.10327553304839336, 0.17593528629236796, -0.28064348456626376, -0.08750186743698961, -0.055154032737706804, -0.17012353488635812, -0.07561186032535659, 0.056743439520193235, 0.046071047691684526, 0.2259998382030414, 0.04926443421421709, 0.057999861589078404, -0.2491032298489147, 0.08589315123643584, -0.0101881063910298, 0.10647570221129662, 0.1099945660082776, 0.07184454549985217], [-0.03594236229610616, -0.1485456197341434, -0.0858982037619101, -0.1189941813482762, 0.030198684590072754, -0.2050398595271536, -0.02744886716263196, -0.044614097850235596, 0.12586800429035136, -0.1251234950963554, -0.24598873526246404, 0.2902557771794749, 0.023526891030989008, -0.13292925486530865, 0.012038649419725291, -0.02936186333020604, -0.016190200679547607, 0.12040259081652054, 0.22169027863633214, -0.02713412587172249, -0.2043136621704614, -0.1343766984177832, -0.45484585886485657, -0.035914265203088824, 0.1771769322995617, -0.18730248706112848, 0.0026163523672405793, -0.10742717708655261, 0.18710761025305847, -0.09880984871746833, 0.05847507421397731, -0.027037947998267937], [0.0551682098416847, 0.08337588902602551, -0.1762275647574514, 0.2889993750688104, -0.09241008294212277, 0.14225016074256644, -0.026866937632166583, -0.11125137627902645, 0.2900335935431332, 0.15551090979928628, -0.09273159694772788, -0.2740019510844869, 0.10368211460848839, -0.02076398798259709, -0.30886841586126323, 0.03541054846193402, 0.027545038176748513, -0.029888277965436298, 0.14613526931913934, -0.008556297731052558, 0.1609589900224971, 0.14955466221802693, 0.021530245034948332, 0.020292325629201424, 0.027494548215729882, 0.009773756062691158, 0.18488609548768561, -0.06625019318378605, -0.07040516862075884, 0.07690583599566371, -0.0048114786343053115, -0.043243408155770414], [0.058290589551136085, -0.08744426635746337, -0.013425511982417586, -0.06972751744103975, 0.009904592676486005, 0.05801815007715915, 0.14468115548306482, -0.22787178356048834, 0.18395023286707055, -0.2404274298687178, -0.07899537753748917, -0.028230979967071194, -0.14785954370208265, 0.11363790119577251, -0.07271461961546712, 0.07482185268672385, -0.15000763858804772, 0.1395937099328815, -0.15079802833026526, -0.09011127454982243, 0.15946058512442593, -0.08526040553221921, 0.1936297521535384, -0.14303957667521855, -0.14484980171728437, -0.018265539386530676, -0.015720185767636185, -0.037627869412133245, -0.12742520548964684, 0.09458115268228276, 0.0698299465626651, 0.15550509684718353]], [[-0.15740617549687727, 0.11619492857174066, -0.20529777792604484, 0.0786532921167863, -0.1847391410940231, 0.139216713910407, 0.08342921186154408, 0.2028922856541121, -0.0648616507593803, 0.0171164995653099, -0.07711075106738821, -0.18978962453368875, 0.06773857731953223, -0.15069036691195156, -0.03074936277537863, -0.0912575874868753, -0.040324341774271646, 0.09682204187734755, 0.12735767148034968, -0.05194123513154993, 0.10335221800051035, -0.09691739697248841, -0.23494570132848833, -0.053688782387289975, 0.24887441195440518, 0.1463938822888768, -0.3456158462113781, -0.20105691420524205, 0.003186932915740565, -0.000496476888056792, 0.11222550803964927, 0.09039185405827059], [-0.022234554191149777, -0.14116225557271497, -0.025602093032067376, -0.19677841728779055, -0.01848988903850278, -0.05909071642757111, -0.1117950802083998, 0.017114442277515438, 0.013144467488260097, 0.11961152720800783, 0.0029418160757613806, 0.34831541245188685, -0.01032787219947375, -0.09130930807583054, 0.09903180979927065, 0.06626228043705037, 0.016346146555146206, -0.15185298439611175, -0.11723308142071379, -0.0803976858877479, 0.10865552537733074, 0.004744532489833319, 0.050299361823546225, -0.03182688472035751, 0.0382144974430265, 0.14897820984024074, 0.22339927482797628, 0.21474350821832852, 0.014445494864595163, 0.04474597152034569, 0.015042297742608098, -0.09083136661442645], [-0.07989200370358927, -0.033512833902773036, -0.01729262257913235, 0.10871460929915304, -0.024326340344113268, 0.059620433258769215, -0.14243849911730475, 0.22075707304072223, 0.16357788470682336, 0.02942196945856189, 3.597314781813883e-05, 0.17041277159706214, 0.03268532308634837, 0.11949078676479427, 0.3673611900400146, -0.09032645412665416, 0.011378474370328765, 0.36684216930350716, 0.04192999626660687, -0.02515629912331151, 0.08707838969129872, 0.06726184398433621, 0.24210830366576183, -0.015844245512373376, 0.08717915235439322, -0.10081314808299266, -0.026171729481976658, -0.058336996019899626, -0.0620815266203203, -0.03544428157468409, 0.11171998866655686, 0.10479861434622201], [0.0711994127850589, -0.12359300243667602, 0.16635542917993676, -0.002501947355048924, -0.05239704393873504, -0.0010923847882689946, 0.12291600335177871, -0.06874461382933614, 0.13088399961048858, 0.10009081280056668, 0.3164731392959449, -0.19744122272104117, -0.027377658229042597, 0.0029932179304257766, -0.030037485991862352, 0.019848563752566013, 0.09765793948949235, 0.17842090507106134, 0.03154814358833435, -0.261826515531171, -0.13648966827462022, 0.08622416980649629, -0.014365808634348602, 0.08162795444554512, 0.09301761857582865, 0.011118730900840354, 0.13639097269004924, 0.02441484946419352, 0.06779692359734947, -0.015401604671651938, -0.0196992947797924, -0.0706333334604151], [0.12463199759079314, -0.03267025045358584, -0.08757911102754083, 0.03553459819363745, 0.01633950488492356, 0.021655586621226148, -0.014876273067900663, 0.203586096856073, -0.10778038796109889, 0.028427229458812483, -0.07950228667099896, 0.011234335216947087, 0.011151775900436645, 0.26958667131446545, 0.154485576576615, -0.12409557980649133, -0.2431528044028571, -0.009124058592225712, -0.02243430230322871, 0.21228174299734323, 0.07230134570681819, -0.06501497696623999, -0.0428508212958496, -0.15705305824568064, -0.20774436316586767, 0.1519231427927124, -0.08004821844552062, -0.19431934796918574, 0.07038308770124463, 0.06651883536791352, -0.10577288000533557, 0.044928139425724566], [-0.05056186433489887, 0.0631019177199445, 0.02855198839063881, 0.2436832607892319, -0.13396536580878693, -0.15410684861855295, 0.030185932391825484, -0.07372190348281174, 0.0890528486587038, 0.013562116804768983, 0.04095037927068681, -0.0279423355013957, 0.1522582793498837, -0.030385697160694565, 0.0052636874832119596, 0.06124406658530203, 0.20471790626708933, -0.12316184681813075, 0.14667615425900635, 0.0862430715165715, 0.0008265161945503288, -0.12262443214228115, 0.12730352683226154, 0.12881535783814366, -0.09505154995492444, 0.16443328925781692, -0.09405262330829678, -0.14500661655210012, -0.021132226192509304, -0.09966789037575643, -0.009839625778214331, 0.13838604911453947], [0.10503217344394983, -0.04868088569485641, 0.23685487120532062, 0.11117064139579591, -0.002381259922892934, -0.21746854833708348, -0.12722299744542084, -0.15937794515738843, -0.025104291874723465, 0.024426862160935384, 0.007097688774843686, 0.21555643888648526, -0.0782822855499209, -0.10395081118102614, -0.007675364017717628, 0.15536359733166855, -0.02504824406154739, -0.020405838278882694, -0.17531583976597737, 0.08175914738106753, 0.026417133394308106, -0.0015487829315986182, 0.12228609681147641, -0.12328752244999587, -0.15824466006700819, 0.09383433303331729, 0.1649826988376458, -0.026112105834878368, 0.01846749990579035, 0.06303271992843991, -0.07032513823503901, 0.014173449173781391], [-0.03861472127926504, 0.17959748192345437, 0.08254747180887759, -0.1341781293051599, 0.027559127391347294, -0.21111642053111357, 0.10977210082293358, 0.05349676037053225, 0.008621624644190114, 0.16164593159112722, -0.015850835371395658, -0.022514474351191166, 0.06298212987491655, -0.0813317528959141, 0.004066945996593074, -0.07713277718629719, -0.11753257149006566, -0.00891259832619284, -0.031735672459207956, -0.10864451814158137, 0.06962665481642974, 0.17238937224471673, -0.026022620425966307, 0.06738292095982656, -0.18431503370343522, -0.16614796916831595, 0.12635067108737053, 0.2088218592246021, -0.004351984378736842, -0.06849277112226108, 0.0826668139090952, -0.25910056240255663], [-0.05144284949518491, 0.1644645669374174, -0.09671717068842396, -0.06673080279156693, 0.0712999291479109, 0.044586433202830685, 0.11417228111284619, 0.04229687344578165, 0.25885134861157205, 0.033285469215069065, 0.05690677648369016, 0.08020861802299514, -0.1467787872687252, -0.13965302881503144, -0.12624265318322922, -0.07841095421032544, -0.24384004091404016, 0.13172262022782355, 0.14996581780471302, -0.012365742307914124, -0.13840338170615638, 0.10010487796119932, 0.12403803873403121, 0.07710249011288432, -0.021723812689355464, 0.1943487650298083, -0.09530813371162594, 0.0500753122399199, 0.05219597368717599, -0.20097750889576846, -0.11097813957743603, 0.07857217915569205], [-0.05908353171803896, 0.008050798309646471, -0.050215528651474696, -0.07336546147837371, 0.12454893281362169, -0.006691684808051546, 0.13603428885828292, 0.010317773375936621, 0.12958691434597872, -0.025398637150638, -0.008363742705813302, -0.05730543075442085, 0.1183835183945469, 0.0692529541243534, 0.1207454891999693, 0.13882550533087454, 0.06520607682070997, -0.08745797680430577, 0.07007013803033593, 0.07093678324968335, 0.13062865612596644, 0.03268083151083206, -0.18678411610388412, 0.04381783452242055, -0.09454621683213668, -0.24525441303290588, -0.09896244565107336, 0.04334378087519606, -0.0804607490765988, 0.07215785185253787, -0.0012819483761954775, 0.0769417637635222], [0.13097784914623575, 0.07240149887232, -0.045741489943853346, 0.0546251028745644, 0.11110085799676282, 0.24040940076840564, 0.03252921094548, -0.043491063260978874, 0.20284588609440946, 0.1533427093784085, 0.048403502212518545, 0.18025640110069208, -0.07469670445338238, -0.20361713626890304, 0.004902320402463065, 0.05984623573843694, 0.08613507248441411, -0.013516516989912838, 0.06224256696125365, 0.13489395507925336, 0.13852799278201006, 0.04790845058311784, 0.008039549289078983, 0.15857069009638752, 0.050798461005829826, -0.10861360616636066, 0.22708513645755174, 0.027387607545440732, -0.07220727106881099, -0.15955040953890465, 0.0008224167100766807, -0.09446238180901534], [0.06932388554072151, 0.028039995572362985, 0.1448590198546225, -0.10142296463223523, -0.06947893430812596, 0.058084836194500174, -0.13824611545794355, -0.06144071274813213, 0.05713939883282092, 0.016978860323665607, -0.048226800279868275, 0.09574924219198229, -0.18403235193626863, 0.02683651222229448, 0.04656424303386719, -0.18220957014393807, 0.04813019627035954, 0.005040482449693649, -0.08170159803335107, -0.01281869371529815, -0.2471520923808747, -0.00828869635307026, 0.0947197489520578, 0.21993459559966644, -0.25084887158777114, -0.19462986735217822, 0.12960791252405743, 0.1759484433669247, -0.2015345687820479, -0.22351285298363818, 0.09324427030886899, 0.06735022091549499], [-0.17283434972622083, -0.10134992260285948, -0.010922693086717866, 0.18999072469491032, 0.09488535910698524, -0.00672023126510365, 0.021017796566155482, 0.13853732591727652, 0.2349711556116506, 0.27786200649043324, -0.1403627246485986, -0.03776125858136789, 0.01383874726955674, 0.07588416226653494, 0.060512777275934564, 0.2678763452841283, 0.033293307709722976, 0.02427086657235946, 0.15802878823976768, 0.016554747814093905, 0.07465011968758314, -0.08788524638476225, -0.04676839086922604, -0.12324803439717215, 0.04826102864675284, -0.15370545799599947, 0.1980630719717738, 0.21995004083838174, -0.022373166859657463, 0.2154101715046959, 0.04334558460483621, 0.02398340216616151], [-0.03629037394962219, -0.17488797185602073, -0.13792094424450949, -0.18751574880208263, 0.08060064165905251, -0.035371693343962445, -0.14429435686867884, 0.12156114968871463, 0.024191117094157166, 0.1110562739814517, 0.12664409486600242, 0.11508069377563483, 0.09627021025271905, -0.14232886004383122, -0.04676963876554433, 0.05183276657974043, -0.18781081304349045, -0.1394749187330364, 0.04899808382629522, -0.12730986153844856, -0.057443421727928566, 0.20061055479343184, -0.15820091966237682, -0.10448612897397933, -0.002172872915479188, 0.31063510353227997, 0.12471031593558825, -0.07483628642768059, -0.0425372798817383, 0.012424718519637648, 0.13241481667264662, 0.03134260642363466], [-0.3177608504444666, -0.2868380543155282, -0.25523887997208144, 0.1045270064142541, 0.11544528697021521, 0.051061429704277024, -0.26126600713156195, -0.0204736781684435, 0.06754219483268657, 0.02380631104955212, 0.014928056102112166, 0.1984333635248311, 0.22550534957937704, 0.06301420613928015, 0.07125828054614802, -0.05947217023764293, -0.0815594847824242, 0.12616466558009581, 0.05049991769435697, -0.08093724123868956, 0.13725197405608053, 0.25870597973166154, 0.33544079555944123, -0.013559115445423636, -0.11318316038667793, -0.04157459408118456, 0.1876217711755536, -0.09085962696526108, -0.08616756650395428, -0.10483560053138599, -0.15465178809697525, -0.1237081419955809], [-0.013792220134811822, -0.15941110707435222, 0.05383052075526128, 0.26130687709707545, 0.04891247723117272, -0.13468748099875089, 0.0955914452160424, 0.1476092064981152, -0.09216223534804406, -0.05252035279336154, -0.04609305502807512, -0.09642309106970873, 0.008071278579718554, -0.17328911551467885, -0.2473291815361684, -0.09461875727966676, 0.016855128045305402, 0.12955580320396887, -0.10167476361927208, -0.01989869973519359, 0.1893681825369645, 0.0720216880325167, -0.047140075153750904, -0.19769895705285692, -0.001121350532052906, -0.0983871838845769, 0.24983296108048325, -0.0939127706249022, -0.025637589745046874, 0.03185572137780996, -0.0367433568575628, 0.10151502048039106]], [[-0.0395628861414904, 0.10544596085446338, 0.07982251557679144, 0.1438955350089105, 0.005014247453149599, -0.14437138784931638, 0.2009418764937193, 0.10479747583500225, 0.11409504366415252, 0.16686065404325862, -0.15274870382089267, -0.13146632722242685, 0.011974450561929714, 0.032603480875966345, 0.23327540659598361, -0.0949683010963063, 0.07243519327518215, 0.005342115483378601, 0.02369990800770116, -0.11589216297210674, -0.10879845138793498, -0.06586024553858415, -0.10674106460383041, 0.0017410809941934345, 0.08622479463251226, 0.03558091562675566, -0.2088663850762855, 0.07370719359360177, 0.009121312187189952, 0.2562842037715818, -0.2227147757129041, 0.28841233420765194], [0.02224473520132932, -0.0006462485325729017, 0.02179691863373505, -0.057586977899393176, 0.0002620332482078655, 0.021063860576500674, -0.16804978652258637, 0.03700510632272496, -0.06327022773398013, -0.141398677859157, -0.3414214157574269, 0.11622706617554951, 0.19812178355437776, 0.036274109994418484, 0.1254394449960613, 0.004332235402022856, 0.14182358020693853, -0.015315417670895814, 0.06248097373241544, 0.04135690977890972, 0.2363754251970364, 0.05086436370317718, -0.21179856040491124, -0.14830818094477025, 0.032830811042182675, -0.07260315900664696, 0.32811848279655004, 0.1081789215811369, -0.08680078275401304, -0.06600640030842359, 0.23097864199970605, 0.01825162373678613], [0.04814458816390723, -0.08988154163330789, 0.05290129194340806, 0.013752842469400511, -0.07975495594904414, -0.11016501527251191, 0.08111022359006992, 0.13803634595441286, 0.07597277385980812, 0.08150872540164313, 0.01818009919099181, 0.07822116099454561, 0.07963722822963057, 0.11658771509237707, 0.10891823617822903, -0.04601745916147317, 0.10737847558990932, 0.0048897010459113014, 0.11679747524292003, -0.02444416696844269, -0.2512520214537935, -0.11958024226479255, 0.10527241004948404, -0.0898633976877345, 0.027302213501771658, -0.1802496716591812, 0.13546331509415388, 0.12221537335459863, -0.1358732280653708, -0.14269550198625086, 0.13691120564645387, 0.1741966442786631], [-0.1681288835304205, 0.09375335724829706, -0.05192980350189436, -0.06018703286346202, -0.08376980765009845, -0.10420733146672054, 0.23461306173118837, 0.18319139830400955, 0.03744579795740896, 0.027445466663011186, 0.20205420789241801, -0.24599611795015736, 0.040025858669393045, -0.018566064046736226, -0.013164628361305228, 0.0003740625099820415, 0.12816577744980015, 0.10412840253048658, 0.004354714252152179, 0.005965889440803693, 0.01679688662694707, 0.22151923211532354, -0.1268152270412721, -0.03985024314207965, -0.019367053327699446, -0.12587538518508798, -0.049938503201377334, 0.26917925664888714, 0.27872444903886906, 0.060699561585402254, 0.02714528276476617, 0.07673294058500367], [-0.1162356830074078, -0.24725099200362846, -0.0009779525811837919, -0.08458491673439972, -0.012960418769619562, -0.05052179714440022, 0.014713510871563265, -0.06207137651829404, -0.1508038121947867, -0.06094022471729143, -0.04156435352354526, -0.08902621778432966, -0.09126889139697879, 0.09619861268248121, 0.05851779603731409, 0.04645266186252004, -0.013125852693148164, -0.10907486575513801, -0.024748147223058993, -0.16566808195222824, 0.06410153989069023, -0.055867045334113505, -0.17297344903969333, 0.059523877435446654, -0.02406791251912923, -0.11311558724554446, -0.07151830135478246, -0.08145917602309999, 0.040711840008059975, -0.10246257459835859, -0.0005057009204196217, -0.013603447133824645], [-0.01706572778942564, -0.28466078575738635, -0.0010496917734579639, -0.19237307885840063, 0.07017753531268331, -0.009650198959077583, -0.05148893948667368, -0.006125566414488226, 0.1231458189163053, -0.14451681762384613, 0.06517116953675214, -0.08267892912688223, -0.08061000842894646, 0.06709213768800786, 0.004519517692741606, -0.1808414660306982, 0.04096812140662117, 0.08811439866559068, -0.03725179103301744, 0.05847172986394401, 0.024826822294241623, 0.08946366774488757, 0.15146977210281923, -0.07294155945367237, 0.12097206689389708, 0.13453724289541422, -0.08560747604807302, -0.03746960704334637, -0.15903872017828022, 0.11662401966445127, 0.046444793784737815, 0.1388756400585276], [-0.05227629456558444, 0.008264623299003833, -0.0102451119412866, 0.03913082675651675, 0.0832404054934788, 0.04324414907844653, 0.11566878814339478, 0.03228410797376498, 0.048127646760865554, -0.01042223601612784, 0.06897147854253145, -0.02002970469713603, -0.2318528762155611, 0.15448438696298122, -0.004196274812975654, -0.06954523791942169, -0.02320919624262382, 0.15168815321384924, -0.16754438206894753, -0.12075628474999456, -0.21109711328257472, -0.13938698829137228, 0.05191968906485632, 0.11830622197649551, 0.4136013699132068, 0.04496049196337387, 0.16264801863795086, 0.06456970491099182, 0.031931984334249534, -0.09343786782839791, 0.08771366499738958, 0.018415144594532945], [-0.13857953724080974, -0.0032393964671585517, -0.21426427606052753, 0.14724640213339033, 0.2330121213564319, -0.009697034811238797, -0.045556945511092135, -0.01472369501579979, -0.09836055634948326, 0.08388843395579627, -0.200916552300985, -0.10897069010172783, 0.02066831528597213, 0.10780637446743382, 0.19015946121823707, -0.04710378906523397, 0.01710900190600062, -0.00756432281844844, -0.16683616652444996, -0.041443237847579244, -0.17399179352962366, 0.10843070037149588, 0.017418819179603535, 0.08939299249939468, -0.0761672473961711, -0.08615141025392453, 0.17512011337096578, -0.08234974073439567, -0.19446310464784872, -0.037406567223657525, -0.11103193281850442, 0.09704966443407301], [-0.01827648810255787, 0.07628050048043232, -0.13865863131842668, -0.04656221824523229, -0.013306973985017904, -0.32021616759020627, 0.19587641570754008, -0.14363553242334784, -0.05915153168626508, 0.07822045006384837, -0.1566578089544261, -0.06418399614239455, -0.13550168684612246, 0.05836917310880895, -0.06429997839486097, 0.10676602885564138, 0.04637489659563503, -0.13083581630847593, 0.14967199003454149, 0.018746905283385247, -0.02650507477014605, -0.12233308211929839, 0.08546279967916245, 0.02409609356278194, -0.17228189794123774, -0.011474275770841029, -0.05019838891391665, 0.08319051656672484, 0.14302028279032097, 0.04007237030254153, -0.14239837075246936, 0.062057187799382255], [0.03690892002215285, -0.17136144072838705, -0.148122157355812, 0.0032306551916469733, 0.2509451098123806, -0.12517633176583917, -0.07534523415745187, 0.20947463737606165, 0.07736273789380327, 0.2505472151116006, 0.3453223314448229, 0.2058389579636724, -0.006540391209470596, -0.018706760304737672, -0.07392405060582953, 0.03547880377669947, 0.03530630889922802, -0.048434736239595114, -0.09675915223617529, -0.07402082980422739, -0.01608241832254298, 0.11610828163839836, 0.22902407133817662, 0.1261622254069143, 0.13974936786111733, 0.11659918468248773, 0.1442065292665398, -0.09932330776074473, -0.02973621121009213, -0.06482465451948853, -0.17495503736680945, 0.07686080678826855], [-0.056172206637445474, 0.14066697076351647, -0.08632730464810585, 0.154649248985255, 0.27765407871476194, -0.13466094812201934, -0.12479608899362989, 0.07741632151202404, 0.0918930080130232, 0.028555715419713967, 0.1462107592177008, -0.008248575663527696, -0.001507929730050655, 0.08195377985725398, 0.17284613917876132, 0.0007782138151969703, -0.11169016452706584, -0.0037500078802068016, 0.006485934394030766, -0.12483534928729335, 0.11508586005730044, 0.1140883081741938, -0.08560705094015546, -0.04207885243842421, -0.004797294838521172, -0.09676342926280071, -0.02671955818669198, 0.24558145348445512, 0.10568380788125857, -0.13792028871440515, -0.1103175160428094, -0.11091582318156588], [0.05057040716338613, -0.06193891953314926, -0.09927907165655217, 0.16551703456015696, 0.06239530966002627, 0.11533473840477734, 0.034199780448777195, -0.23887672923074396, 0.022220613210532432, -0.08009460893228923, 0.056492407349542605, -0.08060596372780782, -0.15101760750747456, 0.02479261221598781, -0.028799518621815057, -0.16892588943004297, -0.029724950674772942, 0.02749941845140067, 0.1737332728804717, -0.08275240753332075, 0.030265332963669903, 0.03999431645800952, 0.08910522052613795, -0.09818767364630396, 0.09119795497960644, -0.03730757118022084, -0.2504026929409522, -0.00426841385882307, 0.21410259122263486, 0.16989276579764762, 0.13710144339731725, 0.00825781746262561], [0.06947504413314236, -0.11417425716693015, 0.04621446263571709, 0.02184500163058399, -0.13064870801811604, 0.0063581070727290225, -0.0239184249033713, 0.18408762577373108, 0.09728150611157955, 0.0486001792769386, -0.21963328305252178, -0.00017998625403545842, 0.1601881231696054, -0.08113050313071123, -0.016557937351875912, 0.03659084042178271, 0.06885262019614043, -0.014463497793880247, 0.17543941141866315, 0.02294904944651828, -0.02034941981534362, 0.13315678429026861, 0.08889535177920121, -0.03129685424167536, 0.08341415145208023, -0.2238979624609703, -0.13382464739865255, 0.002818513923783468, -0.05221633933480728, 0.010699095073870877, -0.029052438282098605, 0.011520896800652282], [-0.012731007623036373, 0.156429649902519, -0.07468433872134243, 0.18922944960937368, 0.05342695704691843, 0.10701650877416224, 0.006885127073680274, 0.27538857234497416, 0.21640064341237691, 0.0013200770157911696, 0.08063167517748598, -0.05152866679461815, -0.14048746862429448, -0.15339734212750686, 0.020996210726335215, 0.15742296237781478, -0.04950932441074971, -0.06382767484152202, -0.008392260421970988, -0.14512996046236631, -0.16416230662508807, 0.011835876341333183, -0.0964193263644805, -0.07126647783436571, -0.14280134055587923, 0.08171615335660536, 0.009341132150663851, -0.05399014885984541, 0.04749163951295243, -0.08386729837372783, -0.15741296860316464, -0.013436546005371554], [0.0015083546512734785, -0.06777042509430595, 0.188681427654354, -0.060971006090735295, 0.20306132368088495, -0.2661603334856616, -0.1250407775585612, 0.022228867831049725, 0.13728456779342635, -0.06746674553887806, 0.08193110794118047, 0.05511480992434752, 0.07836540279430068, 0.20243994550209687, 0.2706646005716342, -0.04074445332440061, 0.01372608182601293, 0.24122386988462816, 0.06911127587035924, -0.25190880337644683, -0.09299889586389315, 0.32137350789716246, 0.0629544646383335, -0.13051967351311441, -0.012629297150958941, -0.11714523201206631, 0.10395644360923771, 0.15549273642179284, 0.1523429528740617, 0.0957599453635796, 0.08391989634082314, -0.01869631628787024], [0.017896866478557445, -0.12326821605126195, -0.05360745132682359, 0.04941490138437303, -0.010188882376426367, 0.10229537987186574, -0.06358995368909551, -0.04347891682186769, -0.28980239901580573, 0.02702436535991276, 0.19881094974068547, 0.006186111957268305, 0.01535504073210012, 0.11144972973780566, -0.07732572290582165, 0.07730318532892827, 0.047218105062439605, -0.015249938315207573, -0.1585993897632102, 0.02164306487468305, 0.1769527466486438, 0.1317579977509333, -0.03665685139414734, -0.07111371427516328, 0.07090599958882962, -0.07995060711217107, 0.0640509616149797, 0.10194146506557877, -0.08465088035103484, -0.19692862149727158, -0.07760311951847147, -0.04241465421811828]]], [[[0.1075747025524804, -0.009793487236956753, 0.07645554292539979, -0.14611672513897458, -0.06729341180125632, -0.07611506359215033, 0.18190052464922027, 0.03191949787741663, 0.1412289665674909, 0.014645101769160925, 0.2146830995338314, 0.10628378642774387, -0.07159765851463822, 0.011866072078252654, 0.04357093471118456, 0.03354666843987507, -0.16019638337050268, 0.045124920987102836, 0.10221722212769505, 0.06833382463736189, -0.09946387291211684, -0.06211923264310348, -0.28733442796015324, -0.09158663160792244, 0.026183956744396886, -0.07143728156795863, 0.03128508233836615, 0.26768119706320204, 0.017222425369453852, 0.024295704070451882, 0.03521625902169329, -0.14575766343005217], [-0.08521955711239058, 0.0951790276794896, -0.07449080727353692, -0.03813518953993351, 0.07936460151810125, -0.02918936200655755, -0.016301079396356482, 0.012445943674820888, 0.020109801736298373, -0.049999729511182894, 0.020705814490597624, -0.06622789083570842, -0.10873521613527326, -0.09207098639885666, -0.038372246762671265, 0.02067642471087448, -0.3132316381400669, -0.03653429520526774, 0.00879762884707173, 0.008285463273105215, 0.07768733997346451, -0.04435814935454408, -0.014274427228426373, 0.1396952061875134, 0.1854216763119153, 0.07929542629755673, -0.14348628604594071, -0.005865526112517211, 0.07120148860651045, -0.13927177013584843, 0.08047225653373244, -0.013942108670131096], [-0.015060260202398262, -0.26796765935867145, -0.09680058694184643, -0.11900931203696939, -0.09081948615092028, -0.027300010138776813, -0.03624108239825364, 0.05402981438614861, 0.12389670929232187, -0.12114619901546923, -0.2166755089326418, 0.00880237077748313, 0.05648725024852125, 0.2772436007052757, -0.19656614005729997, 0.4821959618539963, -0.13297477093686394, 0.2978616425589178, 0.08322240336730037, -0.021725751425497764, -0.18497031265048466, -0.08825605367049036, 0.06115238495815834, -0.14798639870983316, 0.04028048099066213, 0.1403308108227605, -0.04407594480312486, 0.17673433897446103, -0.05916921648937316, -0.18814616863192246, -0.13408037150420793, -0.023999488217423693], [-0.05956601852689784, -0.2062837894899324, -0.052504254488679014, 0.08247845185121214, -0.012935076683476236, 0.01060078228758595, -0.0741583564090975, 0.052900412329449, 0.07110681525868856, -0.08602633415150125, 0.009345408132491552, -0.1079393873598538, -0.2487184262759114, -0.043407135513536414, -0.013132388520378041, 0.07144408281444306, -0.11441908303719167, -0.043345936875969424, 0.12658261773705035, 0.11413004223540969, 0.035470932984278, 0.25371965306496314, -0.037238211077359376, -0.04210926547354895, -0.03219941160958129, 0.06149911767893043, 0.19824847451299435, 0.24989958662955844, -0.14938700230398902, -0.08921606604302108, 0.05140597540036941, -0.077517073962368], [-0.25517536041164596, -0.007412854832648054, -0.007342421112224997, -0.14619748861586032, -0.12308291223562483, -0.07459989934283018, 0.16397336161638398, -0.004779973783897449, -0.12812320463109578, -0.059335012446667834, 0.0033089799641410297, 0.0695758533085445, -0.006226712055855358, 0.22323802908502094, 0.12698441583536085, 0.1771595394285357, -0.03580317288730652, 0.2889625584128313, 0.0955961403977116, 0.29102015417841764, -0.10026397506157778, 0.12954054623707978, 0.04733849861111737, -0.08627825582687533, -0.00782586786032119, 0.0607673256957931, 0.1742326898947643, -0.011852079936366616, 0.18438720091898914, -0.03514585619528366, -0.03573764859260393, -0.08177437378497901], [-0.2015312771925206, -0.05371577975709856, 0.012198879771478472, -0.08585735010928991, 0.39097010882639394, 0.21198347822478253, 0.17912386905894814, 0.14081547735920405, 0.08860128981333101, 0.09738024984037817, 0.14447056454690077, 0.20671766842772268, -0.10504210865430673, -0.010043812972514714, 0.15061383576392656, -0.054056815224817915, 0.08635720378594645, 0.05914642162895957, 0.009488568040251624, 0.2116830200816406, 0.08888173793763622, 0.1784836288646155, 0.14559131580572024, -0.07116930683443198, 0.15406227989349197, 0.03201620854625493, 0.11345782932916186, 0.03981930890942655, -0.01858390079995079, -0.29012115636119973, -0.14311214352170032, -0.22929535884421656], [-0.0816406506084101, -0.17084176135647464, 0.16204242571893282, -0.09999600035243592, 0.11541050791211087, -0.027338953361862466, -0.0858863173246747, -0.08440037379581969, 0.07740674436165979, -0.18182995001971738, 0.12912972751414759, -0.01074125071151226, 0.014968837632627059, 0.08887726962096143, 0.05442241626987621, -0.023582323426112, -0.007745098486514107, -0.18251733530487366, -0.074057730192848, 0.17536309771775832, -0.009521023355817596, -0.0021957033228489626, 0.16731758300905863, 0.08151987125409282, -0.023778573047495075, 0.08399816605988424, 0.2873116015125251, -0.04946472752251689, 0.13168711694256005, -0.10677437375697063, 0.053888295302569875, -0.05094495828104509], [-0.05053258825168082, 0.041480553455140366, -0.08782762280475552, -0.0013427472271796595, -0.07940482582031698, 0.051769627255711936, 0.07055020269517173, -0.17688260897703306, -0.013372626635769033, -0.10830664576404284, 0.10956043749394932, -0.08023507999838206, -0.07555266338052155, 0.19062762580827114, 0.08557698831627784, -0.09231090513577886, 0.007010291103204429, -0.056507521638725404, 0.08736753157544046, 0.015447822450857853, -0.2510738908305678, -0.08242665321736924, -0.01802749346646371, -0.09412387069884531, -0.012004973727216994, 0.11028695869734215, -0.04301970626322074, 0.11821697754008342, -0.1354494411885044, -0.1996817569547374, 0.027447842949847527, -0.06029306655009851], [-0.10426384376051241, 0.3278344164385943, -0.16705075823729956, 0.07164105970679484, 0.15541377774635304, 0.07240671296254285, 0.14111441382680304, 0.14713885362669155, 0.017085324560397085, -0.030892880544893253, 0.14732674153228414, -0.17768266385696982, 0.04143685130321841, 0.07224445567328353, 0.053860733418790614, 0.1569790827000197, -0.07144302290851721, 0.010448006445469685, 0.1036950620054985, -0.10615205650779726, -0.0055943684616572, -0.1361203739992436, 0.13527439763698418, 0.1425747058765494, -0.07343171120631972, 0.12302970376814522, 0.07611287028691784, 0.06535591266526689, 0.002071650636630611, 0.1734192416380224, -0.05390166074625355, 0.06974222911530424], [0.028776932119238343, -0.042915608437384116, 0.13015990694941496, 0.055625916552370785, 0.19237036978863872, 0.10730815458837126, 0.1783379270737467, -0.00463047734452648, 0.20725307568337967, 0.002478727644154645, 0.08231379949178708, -0.07443773108258163, -0.1395073218860696, 0.04429316497885612, -0.029016650233073437, -0.005858956708154649, -0.17049937266576864, 0.14214109639126643, 0.13881077432301442, 0.175275905969287, 0.16432034384848224, 0.007968851664700327, -0.026630859653372755, 0.10924065671721914, 0.09500577611798808, 0.07251541004385308, 0.09291476252495162, -0.09619673272993136, 0.0997916337817962, -0.07781198103295081, -0.2562633678027938, 0.08602006394622096], [-0.011622858548846378, -0.009947549089493564, 0.0855239344772934, 0.002675590024988051, -0.11932965650923351, 0.04592762370069701, 0.004230854971962172, -0.03018492002090246, 0.10721582271607047, -0.006590292964424008, 0.013302233800373419, -0.1763393884240061, 0.251303114381794, 0.06075052274411796, -0.03979365287028091, 0.04550985783955461, -0.013276628686227823, 0.023831194232443446, 0.0781223622167231, -0.05210300048416815, -0.05642338518766613, 0.1196304055815822, 0.055043271626845754, -0.08450602809297063, 0.10759615758699931, 0.01846650202830964, 0.1334203995295496, -0.08792286559368966, 0.04272672455527923, 0.1334443507023246, -0.058163380359827134, -0.07336737934525067], [-0.1443845321691661, -0.033284153916088154, -0.11339632624432804, -0.047844647959625106, 0.1933941920005505, 0.1486812984685037, -0.14208467236423292, 0.05572562161167498, -0.12259931734679694, 0.052802521522902664, 0.10389411152853592, -0.038945224758901276, 0.11934276223536142, -0.11040814188233507, 0.23704322931747684, -0.0016182735039156036, 0.21923106263455125, 0.15749793830563322, -0.007693130839252217, -0.22755895460782066, -0.04611484999591865, 0.19543758589047175, -0.14314456746214455, 0.0986113441158703, -0.1366699111029433, 0.0512656650397456, -0.020321891898761317, 0.012693321398328329, -0.04149395233788854, -0.08912256535743818, -0.02759055028279475, 0.11409523594455787], [-0.18313450349056767, -0.1434365433101935, -0.044653355107915474, 0.23376283650987958, -0.03960537088364364, -0.027762735087565556, -0.05903409433318262, 0.08432065000161587, -0.12031718746193514, -0.04204305207235416, -0.012717983165926263, 0.05223967752811172, 0.029166234503095356, -0.03158610595019423, 0.1804469421112231, 0.08975310244707703, 0.21788174212657355, 0.04866766436801095, 0.41099004898673464, 0.14755188427907148, -0.12334881593369475, 0.017131467176700485, -0.005620442084010724, 0.0999358079019867, -0.05949317849557311, -0.0066974747729505076, -0.06503388923813086, 0.10387209732363016, -0.15710457781530604, -0.08727028576489622, -0.0221362915870298, -0.11284599192145021], [-0.0590263625622412, 0.0897405058063673, 0.17963144124665473, -0.10246376697468777, -0.04232485495237936, 0.11324154443119973, -0.1954610821132113, -0.16576749500024698, -0.021245474900363538, 0.10148683150275536, 0.18067155904032225, 0.17924129366747796, 0.0495303583056032, -0.014020650724554407, 0.19620314625039997, 0.16775075553217336, -0.11223363708324709, 0.21421202137315384, 0.15157683062781543, 0.0110662801791314, -0.19294897558241297, 0.0202260078593157, 0.018024583557993266, 0.0355146919629395, -0.05143376890365806, -0.07917597649136802, 0.13529562717728044, -0.08500280768072525, 0.16930016550633534, -0.06102839621549247, -0.12479410864892623, 0.07576685672576645], [0.10777836693377082, 0.08226320159481057, -0.0444137292836362, 0.012965826861240159, -0.09543740212306949, 0.2870737198098701, 0.23470672436249654, -0.046903360315565266, 0.05809959445465347, -0.06219442382316196, -0.03214456430692133, 0.02882006444875456, 0.08629858933998548, 0.11781424035959442, -0.22440288219555696, 0.03746823458930528, 0.07583626190371248, 0.256810676418637, -0.11395114361951934, 0.09187725097718787, -0.00646916270095268, -0.05517955814004575, 0.0950114046363041, -0.06665721524840933, 0.06651967442962424, -0.061692020516170516, -0.01063444236265407, 0.11823308573425667, -0.17276393808252946, 0.09381280408412555, -0.06341908867505909, -0.1759900108424009], [-0.08317128522042411, 0.15130108400958145, -0.02787118824384432, -0.02752650587424547, -0.2005761297196589, -0.17792128979853195, 0.08912667126076994, 0.10170981131503704, 0.16836690989225722, 0.14866232153785233, 0.08677669423851714, -0.1589566070987064, -0.07713096800790509, 0.020915971289271525, 0.11100026975464469, -0.2062560264298042, -0.08026188302746198, 0.014423486933701476, 0.10278110088528918, 0.21993431174354058, 0.10485216108778483, 0.05969405357994625, 0.05347023228269062, -0.35391661327292084, -0.17026264315112843, -0.05394300859445722, -0.01690456763875017, 0.2874881255936096, -0.016070743774543657, -0.17411953277626446, -0.02675873904403577, 0.026804749447912196]], [[-0.03524315198401053, -0.18261190353221118, -0.018559877451145443, 0.03499785659787452, 0.051372327436373814, 0.3006550892291314, 0.06472153261251841, -0.052377998378949485, -0.02755608558773983, -0.06198485369670673, 0.04541681094001656, 0.10297301899848522, 0.119786483864809, 0.007838593498756223, -0.19682057244049642, 0.02304627306136214, -0.24022955464356816, 0.07294115604213283, 0.2005089569617676, 0.07491059275601791, -0.014085904481013363, -0.1512655534697393, -0.15463078572774072, -0.1616275692581762, 0.14879703284676862, 0.008230568778503011, 0.16389086025858918, -0.18801742365847143, 0.030218895354135737, -0.01994378459916891, -0.051425173677176104, 0.1479662165777847], [0.26222095561192327, 0.05317633211111805, 0.009738095419971678, -0.20780792977480056, -0.005014175936186567, 0.0778862526439375, 0.05809182664074002, 0.015008552226488786, -0.2196591146740302, -0.16790213369582202, -0.2222689571211176, 0.06256405304858277, -0.2994150947835071, 0.1958378014295116, -0.1894120506941277, 0.023221772911397685, -0.07047273572207481, 0.03512422384528707, -0.14885571492355773, -0.06087023757389884, -0.1267734237953058, -0.18588476470696158, 0.08285018968781556, -0.11535770656358812, -0.1174809702186548, 0.17102408518594764, 0.09239950396722402, 0.1610834465100132, -0.05649779649346037, 0.05829358962133531, 0.0071613196544193505, 0.0937748223986895], [-0.07590340062368924, -0.020964271030373214, 0.0661590324589996, 0.07380411967006327, 0.24830733862001486, 0.27004493250709133, -0.1666356977999289, 0.15459911254504438, 0.13593773965349873, 0.1923964411067928, -0.011569063927793157, -0.1317597397617028, -0.06549105690647825, 0.22336769088418293, 0.07581872958049779, 0.2568429433019484, 0.08133166041937527, 0.07080406975888333, -0.05150185188560182, -0.024277435665016046, 0.035432008520815225, 0.1293123719990899, 0.029496260873840732, -0.012029263556101236, -0.09997495259326913, 0.07195745237972426, 0.1607064025140848, 0.2163866137238956, -0.1686487441497808, -0.08716067787880347, -0.28407980515904235, -0.039160856998049026], [0.1347757036253452, 0.06243824933062765, -0.0871936480634535, 0.010280777146080488, 0.10187445808170748, 0.017741415741196198, -0.12206587255603037, 0.1870307923848112, 0.09407911524463249, -0.1057897583896166, 0.26927859384385616, -0.05682515545750639, 0.027519158045832746, 0.000728221718558719, -0.19162943778859964, -0.2520718463510244, 0.10321361098174996, 0.03443786005622447, -0.19503571098511993, -0.027972791130826652, -0.017028974480627162, -0.006706119966344379, 0.04562914550775705, 0.039354828374010935, -0.1314702608115239, 0.09939284633580432, 0.02753698188058833, 0.06517979427513343, -0.1114693303038386, -0.066371565090709, 0.02130935543424093, -0.07326468364840197], [0.07815121132461142, 0.18152622732612733, -0.0482149749277863, 0.16362157814658, -0.097476985540708, 0.24548191199352143, -0.22436726966619755, -0.03565625778634524, -0.07284305250840133, 0.27734133800493627, -0.11265635062225324, 0.007325727782333458, -0.23401803914122876, 0.01702541166881951, -0.022967811448706417, -0.0997103932264961, 0.10863739164220218, -0.028520342418573503, -0.14377788677480688, 0.08142847203148258, 0.033426865921339456, -0.041573410381895576, 0.20372299973535318, 0.12497759641603343, 0.02175342645726921, 0.03087603468476247, -0.007041109573975507, -0.02059397026285504, -0.10808016037607951, 0.0031285096846649665, -0.09712864271407076, -0.09700664083499493], [-0.04233181458257588, -0.1272082540892383, -0.17882237159799177, -0.06101447463340478, 0.011303098329986511, -0.008403340820464606, 0.1000552599482638, -0.023683328373616662, -0.15435462873228822, 0.12244114356235096, -0.084429915636521, -0.03369300352302297, 0.0012629484045765902, -0.005126798086073563, -0.05828722602123343, 0.02365620074609108, -0.2253525254542436, -0.03733881826606308, 0.12978661539062286, -0.01060860490575034, 0.0544216171016612, -0.059893292322940765, -0.08070881975664006, -0.11039594343349315, 0.16388439069135902, 0.17590769847289953, -0.05647620289889909, 0.023113733391165292, 0.12865580296280024, 0.06629887461004852, -0.07951849377462061, -0.11894195052987126], [0.11882436542621537, -0.08183160529600014, -0.0043505856409124044, 0.1424692923631416, -0.05239017847681651, 0.11560607325952162, -0.06491988802820588, 0.03742574210157432, -0.15125794261914716, 0.034036003135197515, 0.08703228735425238, -0.022750697719773748, -0.0029634322326678028, -0.06778515798477697, -0.016258853544056085, -0.07308658832030868, 0.19820077964947275, 0.07027461515035621, 0.14467820032914946, -0.23803992061257953, -0.08518762777933235, -0.2762857969934236, -0.06761142909113839, 0.072910862840123, 0.06148796735335414, 0.008100610241720145, 0.042529340964704655, 0.057369479517136356, -0.15960376993712927, 0.08770684529182485, 0.045058097912585054, 0.08701479521067887], [0.1096010370105934, 0.11574005106304613, -0.09190149701034997, 0.004951887792755266, -0.01166410240272483, 0.06316100894214165, -0.14210156237239757, -0.02544911510637063, 0.13428487782769444, 0.16885197347541864, -0.0026731050979793658, 0.06087924459888058, 0.03906475633856184, 0.027102133028834522, -0.26504115726076377, 0.28021216193028364, 0.07067599587093047, -0.0009449618293917244, -0.0030186291490467143, -0.030603624877581014, -0.06752836916050181, -0.07811939119115535, -0.0027247588026622473, -0.11290222287958072, 0.19218399176843284, -0.0050391550953235, -0.28876697656446093, 0.2631160550112452, 0.0758039659693633, -0.16045673703842567, -0.08527886669691784, 0.34436443488745355], [-0.10319386748745848, -0.04603887903499407, 0.2590932338314402, -0.10663286382572547, -0.29523341677698434, 0.2942869494884809, 0.10081182675716018, -0.029146564946506862, -0.022566598399703312, -0.19785766451602757, 0.03035663743495775, 0.02772310005521666, -0.014040343869265387, -0.05136547838275051, -0.008221250019254002, 0.23618165293072826, -0.015875468285923663, -0.07642111361984757, 0.16513280450389128, -0.1314494737455342, -0.2267801505265554, 0.03136087329175575, -0.024727066045335193, -0.006228841894296944, -0.0838132845534626, 0.0410579564202075, -0.09460632619867437, -0.07929319922302513, 0.03222546852454046, 0.14767100683709702, -0.08388817455240932, 0.06020430693933488], [-0.08044900314215118, -0.01586878263870256, 0.061750158521395, -0.05498884661465979, 0.011462938773151358, 0.004417968887060683, 0.008686953451437954, 0.13363810593995923, 0.09860946727396162, 0.09999029842467003, -0.2248554447792767, 0.14681317112881284, -0.0935657166492301, -0.03135900755612804, 0.018030231996458798, -0.03359297873130929, -0.08856778933019063, 0.011368183662023345, -0.012381306639559527, -0.03351747470785761, 0.04535999243511397, 0.15781057822442535, 0.0033394617621465674, -0.08547590303820278, 0.08590161858455284, -0.08987495123135791, -0.0874092035249546, 0.191511377341113, 0.0379388425528348, -0.19229630016147253, 0.14258678439851508, 0.18827684498458147], [-0.03516893198851205, -0.0028873086418771494, -0.12333167159375324, 0.03461075702756973, 0.06422497644835479, -0.06689820651954145, -0.1201796855642359, -0.028544956149788796, 0.13993139614359532, 0.17775856946665672, 0.018519243676051872, -0.12534417643026635, 0.16417936940349018, 0.06444185710577609, 0.026497125915567476, 0.04559937097359561, -0.15175941525411768, 0.1698343208783049, 0.18899746839900988, -0.03834172158113136, 0.0305318750539944, -0.08060924404359376, -0.10270455143811628, -0.02230277503333764, 0.036657502947023406, 0.16280989640831817, -0.06968566336458804, 0.03882243316076573, -0.009467045812052384, 0.02722625677631998, -0.2513243797703549, 0.24174494811869943], [-0.08936378766601406, 0.19210602399657017, -0.15685302670496484, -0.07944222154761214, 0.08706667969293133, 0.12360697857525456, 0.17076505585670881, 0.03608674225080372, 0.2610815631770441, 0.11784462553439569, 0.03523895473244878, 0.014273694052689027, 0.09701997897725799, 0.0373987234454255, -0.14384483318470775, -0.08823922037734518, -0.046994049127731995, -0.03016363833643625, 0.0908575493798686, -0.09771652700817307, 0.09638823454213168, -0.04075287003994993, -0.03534694434480184, -0.030470109677521628, 0.14466278858445, 0.08466982301490707, -0.15430273007686326, 0.27987756368064387, 0.03559255380715613, 0.021497686294400634, -0.13403952981908432, -0.23477297041657574], [-0.0518584662518952, -0.0137225639980252, 0.011710587901236906, -0.0443043224062352, -0.08252477345619197, 0.05779411215357576, -0.14891851420288899, -3.233806160213572e-05, 0.06861312000060377, 0.06564278568125323, 0.019405955554249975, -0.009242781468578239, -0.010218978396430118, -0.12475547278547411, -0.010110144982477491, 0.0287604339314488, -0.02461535395584658, 0.1655286860868221, -0.07661414759705583, 0.11673143714722317, 0.04923043460293647, -0.10741342014524066, -0.10700992596674924, -0.020560037888197498, 0.09351748549257188, -0.001999681290301504, -0.02772727345129079, -0.1118215945525346, 0.13748055874108198, 0.16348915136377085, 0.21285758370346447, -0.08566590186588602], [-0.1630946551603541, 0.14623984444704138, -0.21009282905523005, -0.017900142900313776, -0.15150906600255276, -0.051419728488491405, 0.09650661462572258, 0.13974187705441424, 0.07855034759842604, -0.027244470435737057, -0.056190356485602416, -0.046263165588847244, -0.062332049100729994, 0.14579878637928784, 0.04652317044760961, -0.08567869124178884, 0.15559214164315088, 0.01511283721068219, 0.07302390071035762, 0.2631964321476698, 0.09455183723771021, -0.03745908962337916, 0.07337496639651812, 0.017636675358581082, 0.10957762537716274, -0.02252179638012519, 0.05500702099509269, 0.19906172613870227, 0.1251460987917914, -0.08067856977323408, -0.15104463247173613, 0.06553230078057433], [0.04596965745260616, 0.1734558324936161, 0.030785363340992765, 0.1037327754692328, -0.1798276522990707, -0.052781336655294685, 0.08075865962020894, 0.09217057289163354, 0.1138064944139037, 0.1422353026020417, -0.0485880390237358, -0.038614648677377884, 0.04249335942601126, -0.04046663813585612, 0.022703502652356388, 0.11669420334641917, 0.18569874437468073, 0.1958075754758, 0.08045525422769775, -0.13095232210365915, -0.02920732514535641, -0.024925907250818554, 0.053927887464099454, 0.13549525822304553, 0.17842014760071104, -0.04275881554350443, 0.02495110645996841, 0.12365728638403921, -0.09305116125787996, -0.03486499820474529, -0.03261812598651132, 0.18399891657962], [0.24207782503616207, -0.05323864248459055, 0.08149624715939652, -0.14157161236440832, 0.2839885584767805, -0.1518299533413817, 0.017522616136879367, 0.14916377686536017, -0.1723497461778316, 0.02793141534698402, 0.4003854176431649, 0.10123816607840945, -0.04749748366718259, 0.04563452768197371, 0.030280031361662203, 0.07655342790143713, 0.049406544325357536, 0.17221429074312286, 0.07517245645788641, 0.04759582622065497, 0.2141224077350048, 0.047439525689819385, -0.09286820514899678, 0.0060803115274818955, -0.09034657560230726, -0.017263839524808658, 0.10718543477592866, -0.04248916600226277, -0.27811763838002007, -0.09844573296191869, -0.1017140049091044, -0.07507560992564646]], [[0.08824512584858826, 0.07617751163722672, 0.05411625800128135, 0.029483255517538002, -0.13585175824050186, -0.22130863276549387, -0.030097176749976477, -0.16421623295687351, 0.1921972170827903, 0.008967567138797233, -0.1973824589311403, -0.028955507788213087, 0.004476340500195064, 0.13058317452422152, 0.10308753781631899, -0.09211960170343947, 0.06323597421612402, 0.18274105213100494, 0.0557697883208375, -0.05345883932641755, -0.007154102160015497, -0.1086461353487371, 0.07968243482613911, -0.11426306675096636, 0.06899721398739779, -0.021923789285450728, -0.05510516992946598, 0.17600552415285292, 0.0020552604182836796, 0.019414140409461624, 0.10823514111507171, 0.05870624389763163], [0.009811189033173094, 0.08490746397508045, -0.12029860647797469, -0.026835029958542134, -0.18694228335228408, -0.11544998290829399, 0.07222302057172969, 0.07586107417719162, 0.07901435667003712, 0.23807231297977022, 0.2074909732544986, 0.06316871107537486, 0.016517407396538404, 0.018244994945763756, 0.09074581817476465, 0.14151933708840742, 0.011308923467774509, 0.050375997991424316, -0.07359339248956207, -0.14708462457018592, -0.1549048738634869, 0.16655994945938468, -0.12257370701470495, 0.05885808347959871, -0.024317252028745115, -0.23268698590941608, -0.028709201631663808, 0.1387223105843855, 0.12849511712049688, 0.017514086847880677, -0.1346787212072114, 0.17624652681163389], [-0.1251901346179925, 0.0152303777300237, 0.15254086189137528, 0.011886410952896448, -0.05170532638166398, 0.09794929283483954, 0.02139502290009632, 0.029791043757177175, 0.02734720263426648, 0.028472250638297385, -0.013184670209772643, 0.03722440001983775, -0.0010945695342923854, -0.1576594513502701, 0.13033051135640458, 0.11555760365057685, -0.01176974470209835, 0.1270952406437469, 0.15471060951963497, -0.06349983653157967, -0.009246212886661961, -0.046659867296399024, -0.0119792731196765, 0.12836690663949343, -0.033736280058296715, -0.11130624011919145, 0.11766096944306567, 0.15100432946741, 0.13130094175869875, 0.12108808833393016, -0.11274709302545079, -0.08820072749533493], [-0.2021951858275097, -0.10836747276952778, 0.1781825895410475, -0.12638617763444987, 0.11529343083997606, 0.2605596002309182, 0.061911195612160325, -0.04999668598070179, -0.3580933635186574, -0.0441980543111576, 0.06887844646950755, 0.2373121852391369, 0.19617507648601717, 0.1690741534073245, 0.1713161253436015, -0.13873534226936743, 0.025470565078831175, 0.23204109366334796, 0.01411671586274327, -0.03313117251300985, 0.026968852142354248, 0.030534373707781323, -0.08655614334699337, -0.017983725101463233, -0.1468497980261205, 0.15827107654466843, 0.09434362406237828, 0.05514623957622849, -0.07907726300314477, -0.022493061030147025, 0.11931554953424262, 0.06501955619981106], [-0.1071523847175337, -0.021212700638052716, 0.10866538302689761, 0.025856408308857885, 0.014426820482593807, -0.2081933417818738, -0.294926086959536, -0.08398667538698196, -0.05830034193286488, 0.03659534174553166, 0.13405923531594807, 0.165589722569254, -0.04757025581077355, 0.14201858619100183, 0.06631486498839742, -0.05756048496737129, 0.07089162285377949, -0.1765361050784049, -0.1832559629107506, 0.09338521407564011, 0.12136157273811446, -0.42462506793075966, 0.14962636178697974, -0.13236564359061692, -0.09572062952005377, -0.007011893396965546, -0.11193463042411646, 0.12778036391949155, 0.24680412602265905, -0.16493683637510553, -0.06986963956419814, -0.10959133898132122], [0.044108990953142774, 0.22352752501503612, 0.09849448744715901, -0.040949124258989195, -0.2513325088745122, 0.030084054505783057, 0.17516731482622178, 0.12794308467266524, 0.08660281605308266, -0.010156801500814721, 0.18919742707550913, 0.1838816679084251, 0.07209289460368871, 0.15997266699346388, 0.11692875279283446, 0.10855135352017453, 0.13770742052019894, 0.0798607460853927, 0.2392676682452122, 0.09459903498159387, 0.09428497148891433, -0.12211735191594882, -0.12401922767780897, 0.020150060008355404, 0.04506989841286978, -0.10517800021790781, -0.03341477287618895, 0.1381784013617113, -0.02230117493689015, -0.0447702366732397, -0.1356880873936128, 0.05806713029544279], [0.15019972855119884, -0.11791132098784012, 0.011669412798273361, -0.0015890622012201823, -0.10693180089271943, -0.16020436520586662, 0.05323741539370953, -0.15522652435850995, 0.052213394388429604, 0.09767858947866749, 0.1370670471534419, -0.1267937771727662, -0.11928921892509743, 0.08187291567504507, -0.3396336131416257, -0.025979737084947215, -0.1333478044400651, -0.08329537841983219, -0.19056795190902925, 0.12327026841627564, -0.030057433644522676, -0.016020403121458842, -0.059465251203861084, -0.007521775768841175, 0.006617454894303838, -0.14080912722134006, -0.09852866574116514, 0.08350828109977537, 0.039874741613817946, 0.16573095292757972, -0.016707271111749994, -0.04014557520363102], [-0.2015921319603776, 0.0908640688574609, -0.05711248312881168, -0.01600468295902135, 0.032246621675582135, 0.08306005485115045, -0.018340156121320932, 0.15842397102971797, -0.19169494395746825, -0.09212306078293005, 0.17603204640693992, -0.2087288686640731, 0.2692304894196669, 0.28284620369621644, 0.12450383990523445, 0.04813612407890739, -0.01970029478495787, 0.14096796476099585, 0.10888675299083052, 0.09571662898887644, 0.11285094829706983, -0.04948755577293017, -0.02464639283447665, -0.11427872012463569, 0.003997516794868228, -0.04642066562553065, -0.08113672701732881, 0.07883543100992164, 0.20868333668187647, 0.08167053589660803, 0.041726212941460505, 0.3752367818095604], [-0.06549148434932661, -0.18384125314982727, 0.22430284148589857, 0.14765716025826858, -0.07184743254967939, -0.18772292060394088, -0.04269286974235782, 0.0011453111913256216, 0.06295342678645144, -0.06832563549198745, -0.13276062415819473, -0.12636755450523737, 0.06450407519015186, 0.01144361252620746, -0.2701994822656474, 0.1560295592892729, 0.014652259370837454, 0.15192803952508133, 0.04090678638679207, -0.0008800358998810759, -0.11641693700555313, 0.04247216109880378, 0.011684285559038127, -0.0476950574708691, -0.0048436669424637676, -0.11777639756192536, 0.01688620398962787, -0.02481805480750783, -0.10781976109994633, 0.0001847738806365966, 0.07191327223201455, 0.07943927027339309], [0.12214132258161418, -0.0365951241308718, -0.0006068818557583405, 0.02715222085967988, 0.042530502389978526, 0.02949468463044031, 0.016404132030668376, -0.0617896454052688, 0.12430990045156398, -0.025708546967832906, 0.047045762515595904, -0.02934524545031082, 0.008769555243624699, 0.06782805634045766, 0.09848691519716098, -0.2981661224828685, -0.02034252395668406, -0.11977916246605604, 0.17732817604982906, -0.23577302452935367, 0.03391025138753809, 0.07863636614348546, -0.029661207427977967, 0.11068132041814113, -0.20363265494537353, -0.18234638593701707, 0.1890456775351719, -0.14674253724694167, -0.021686124384867132, 0.17406651441240234, 0.09334707819969046, -0.2152718313915659], [-0.17398564251000564, -0.10578902438661696, -0.041990864963015684, 0.04029295233057282, -0.26534568821022536, 0.12316896284502099, -0.03843721428104501, -0.16581558699573887, 0.0723366104272515, -0.0072030387034101055, -0.10533659375061848, -0.11251735096430308, -0.025814210054277507, 0.2734614868430279, -0.20194094594025458, -0.027187004236830722, -0.11708933918319113, -0.0953111346459107, 0.034515479793210777, -0.094740505134548, -0.18752867716314836, -0.13741128954713763, 0.013901822756217964, -0.005611153530737982, -0.11888736431925304, 0.09244070347817948, -0.03999841477814236, -0.04975283499784034, 0.03852906464416476, -0.026812259205653236, 0.045315185086971035, -0.04803063905027016], [-0.15362299157911455, -0.25519184960350494, 0.1492642008137142, -0.34981779623290177, -0.10446815074559272, 0.06973073771399543, -0.04259753428463594, -0.10020681739452696, 0.1379595284882889, -0.106319140938113, 0.04414235687338376, 0.4054463404363358, -0.09771604646830166, 0.007589776245813001, -0.09607956918022181, 0.1072658217518834, 0.005002160650262427, 0.14070644404392188, -0.07292331652224618, 0.04946644572835978, 0.05126665430421038, 0.09901779368968638, 0.020297496476338685, -0.06914646858028516, 0.12366343822601028, -0.06249591424746582, 0.15816839419902137, -0.013438361595841974, 0.08589023246571822, 0.0772755693459688, -0.06935690642187467, -0.06619016130953664], [-0.14484339699963517, 0.1557020244278693, 0.08600922824859528, 0.09674981428296822, -0.02029781482306117, -0.18153078826395547, 0.08673952195428276, 0.0022033725438674154, 0.2237700065829486, 0.11304369106801604, 0.08371806674037933, -0.02493720906734022, 0.08947248201087239, -0.08424932181738487, 0.13788682231488722, -0.16585696191475824, -0.01615082748811542, 0.14497867681004406, -0.10698042124974938, 0.000682406319316031, 0.16476512239786958, -0.010772559457258484, 0.031032885189983404, -0.24579929368382372, -0.011961159381328265, -0.04132788091661538, 0.06674357549505248, -0.03145011767296471, 0.17905422555094738, 0.10349800656447687, -0.022467781230230726, -0.13896698151092335], [-0.05900837896042348, -0.11720753657464603, 0.034842585016871104, 0.15054025523023054, -0.18366358175498465, -0.07465555975899542, -0.1170338994616413, -0.09957247458030266, 0.04763943714205599, -0.19568684187141572, -0.045418094879071245, 0.021004310230857793, -0.27994002829111125, -0.033303350336623544, 0.04574119268190373, -0.006756753960909562, -0.04090966008299385, -0.04824467205846084, 0.006893462065714431, 0.14680892051167063, 0.03367359083880229, 0.15076880932626227, 0.07890296213732187, 0.020500536542056903, 0.010409998356782165, 0.26268838833541724, -0.0926765026634452, -0.07839918801139784, -0.11115184923227812, -0.0028885329927192884, -0.013665038139223644, 0.02711040092888478], [0.007372484400162791, -0.09693637900181354, 0.11109791750617781, -0.0375833004461959, -0.04309813356004987, 0.03080214374038589, -0.0009693768728979487, -0.004472069596470099, 0.037964929640764984, -0.057963059561164876, -0.08011740125377517, 0.19329586064846352, -0.02743449882935982, -0.0013391529904845602, 0.04614848500341264, -0.09353765276723905, 0.014864913571848678, -0.07808406405950079, -0.12008117240857352, -0.24448195496339556, -0.07538558537776294, -0.07070465982437597, -7.514142200916674e-05, 0.03511580352388475, 0.09097156679769972, 0.015652258746057336, 0.0853544026240395, 0.059446468218678904, 0.2634790193335711, -0.08427402892654476, -0.11488778512793271, -0.11760335796369428], [-0.257139628377769, -0.0022622637562894443, -0.13609368106010244, 0.06395463991135034, 0.026216569598328972, 0.1316209285260702, 0.13417105157664438, 0.02737091678188732, -0.13301674721430776, -0.15988998199308374, -0.17954820577974795, -0.04396274459530282, 0.16109521536816374, 0.04327407934842331, 0.03898907832995941, -0.1839579105609727, 0.05080727520975171, 0.11323689357813806, -0.04793292621557702, -0.0026376530913501525, -0.08475751279177543, 0.07522551261676348, 0.040771757929868174, -0.09076297062381802, 0.1163874489926315, -0.010694299829617787, -0.009750829173489125, -0.010613538975465395, -0.21305826296708408, 0.02248203617760624, -0.14358505111077985, 0.025960432646940916]]], [[[-0.09737692819292412, -0.03594344617244327, 0.029756197833615477, -0.14102736973514157, -0.0991330961795253, 0.07842094780161704, -0.06443431633703195, -0.0244807169223516, 0.3099659308437429, -0.13657151322650143, 0.08214661299509578, -0.14047029503608865, 0.18527249385019087, 0.036495078598607324, 0.041441381076894934, -0.08908225440963148, 0.04818054955545635, 0.12954922759113804, 0.038300431137693755, -0.11186041664759594, 0.012430263535404227, 0.14856427318977872, -0.14243691359223729, 0.07120072135202563, -0.11664433570083327, -0.30503117963976906, 0.1242510264253428, 0.010271745863108759, -0.20264508570248627, 0.15038965623057166, 0.12084324912925766, -0.09020189073422313], [0.20714415652140059, 0.09315705946174145, -0.27831668333180076, 0.06680495273381729, 0.034439502089733905, 0.08970181319488904, -0.07545051235060891, 0.16036396548049975, -0.061283267452821734, 0.02005516186538333, 0.017743999422485713, 0.27130314917278414, -0.022784323772126996, 0.08722810286835637, -0.1735264350789565, -0.026563827695403157, -0.10758283995918097, -0.016525662012388972, -0.03544938935883318, 0.033490695178913954, -0.1333018036362172, 0.14793680021903718, -0.05600009278049425, 0.00881485964742862, -0.09045501491360537, -0.16667164024550443, -0.06256195086545982, 0.09396257241387819, -0.0088703231578975, -0.24166106435987048, 0.011797117265904215, -0.27495194847534127], [-0.04288641139492039, 0.22056483610204164, -0.19279216092146859, 0.10009310788022602, 0.019348528873084997, 0.08433306884685005, -0.11230035869754161, -0.2758909361123944, 0.08501285647760244, 0.006419839553911437, 0.09601690449049538, -0.0912747088204111, -0.1918519488338923, 0.06903317565060396, -0.16017616331853396, 0.015931713430665535, 0.07073967806397297, 0.04928507488250073, -0.002594619389202309, 0.04504337289132415, -0.011233690906347269, -0.06445650069079761, 0.06128844291063043, 0.052665113235177016, -0.01567778411554758, -0.16477391230733165, -0.10109011674526366, -0.28981485847339283, -0.02182186163343815, 0.04781550473704309, 0.17523299112219803, 0.06327583448966988], [0.1001392232436423, 0.18713424051808028, 0.12628866694939192, 0.12549170062714485, 0.26003688587266216, 0.02321326879699689, -0.06419866730842215, 0.008180006492406187, -0.016100997579528296, 0.0766397268214865, 0.12276822402854512, -0.0052405331861765875, -0.06007579585926531, -0.006778965245582505, -0.10776827098104107, -0.026789731621657265, 0.1350706331518093, -0.1276372869747571, -0.2691631885172545, 0.015648301830251066, 0.08561048057157905, 0.06538517525658404, -0.022353309542845565, -0.042647861188966955, -0.21471454261571402, -0.15547222444671144, 0.015565748613730697, 0.11753417486107903, 0.2897608373791036, -0.01883790238410568, 0.05443004890204224, -0.05801308155577747], [0.05802078811925727, -0.019684935775763777, 0.06476622573302014, 0.015678044245619565, 0.016759106090390843, -0.1136609729429832, -0.09692999853669942, -0.16842859113346123, 0.0015109461635993715, -0.0010465709734118075, 0.15657088621975818, 0.24817446960237488, -0.046788400773555575, 0.11437179197133497, -0.06854312451150339, -0.024746455045881136, 0.009630662537742597, 0.1851184022890206, -0.18913589727021107, -0.09828019523785057, 0.019960491337330404, 0.08325850058316321, 0.041009403429149, -0.07422142987582017, -0.21604193920840284, -0.2071157526641425, -0.14401764732171304, -0.058808201707850935, -0.12719697239590105, -0.1479736197086943, 0.14902493161393293, 0.07129039957182215], [0.08231937391452594, 0.015470128056473494, 0.0970492426987944, -0.0995147140878774, 0.144707146174607, 0.07128342151097529, 0.09687216346034082, -0.09534377297469084, -0.02488551609930273, 0.3122034965239745, -0.16085215888474638, -0.04053469296629646, 0.07777933140404725, 0.06146346604076978, -0.15291610095810135, 0.12023711447882818, 0.03716786137376061, 0.07740580204547681, 0.14489497430521323, -0.03076880242002003, 0.02140001089922967, -0.30322338398002163, -0.18591248990180276, -0.08929130076653484, 0.08832144975825311, 0.01640918288868573, 0.046909766386710364, 0.08435902941092784, 0.10759688142678789, 0.18854023140791795, 0.09966936209075941, 0.10437179398551062], [-0.021316766720544462, -0.02850344820785272, -0.029388361385575507, -0.11002826405640238, -0.08910309730507532, -0.07927123001308413, 0.05017166134933101, 0.025556921585045217, 0.032186718470363695, -0.16086469816420418, 0.1792884901831291, 0.04747120581748807, 0.041764939888108095, 0.011725918863692, 0.12799259484411607, 0.048767527963924626, 0.04739111725610219, -0.17633431800295035, -0.11058816721518511, -0.09401947651130133, 0.12103532996959637, -0.09030158263280337, -0.00262524710424525, -0.23366597502190836, 0.053611479409940474, -0.018545152802838274, -0.021684652703519807, 0.12421000713500847, -0.0015702328584064036, -0.04790546056401953, 0.08542490838891235, 0.055597289451274554], [-0.020403529039329547, -0.11238687810821076, 0.196648485229934, -0.11227656929242717, -0.01523061748046148, 0.23767380740740002, -0.09661952118818772, 0.029557140332669655, -0.12005348723650479, -0.05237723302228829, -0.13785169016814955, -0.12061715252930516, -0.14087125833267763, -0.011209421011683972, -0.0180036445549246, -0.21551414097031552, 0.1515656126393823, 0.018541549378770075, 0.09315284760641675, 0.13019814951628836, 0.24371387054414143, -0.027972522815572397, 0.06629813024396726, 0.12168637943601845, -0.11631523908782791, 0.010520751362861827, -0.06774532025767772, -0.2000410807710872, -0.14791241699844507, 0.12488889837389938, 0.040860212671896004, -0.16060128801699158], [0.016880478984779346, -0.17727395502828627, -0.03761071027606271, 0.15176793633745217, 0.05919024629798108, 0.06849144101644294, -0.03191189409274096, 0.08097065899604469, -0.05470467186517114, -0.20876713114187145, 0.27119468520235485, 0.10255531858841108, -0.02300978338130514, 0.11908651692359908, -0.009030939742351012, 0.2931314719220412, -0.08603426149977114, 0.1984125402566852, -0.07580750696283427, -0.06918298186671948, -0.27985387493978087, -0.1675105959171753, -0.06342048184893692, 0.09672930902540641, 0.03750408519167289, 0.06659706327507162, -0.26508289208050767, -0.0382965675748188, -1.9560161154016342e-05, -0.0588195379462743, 0.11885510721889925, 0.15592200598407593], [-0.1346464872186245, -0.18001839340279172, 0.20691536178689734, 0.018148082526764944, 0.07125347171432153, 0.1780438177199529, -0.027320623571880937, -0.031154452060977257, -0.0293378847305173, 0.28338916743712983, 0.2542363382103117, 0.07601763541767151, -0.11789964844662656, -0.05241402698474347, -0.09543632279477332, -0.03512604921628308, -0.06008458933888983, -0.0036020109666992273, 0.022165280773984584, 0.18884751374678688, -0.05079413021397966, -0.035778088605413844, 0.11630985705023324, -0.029788323935108565, -0.090862320628744, -0.1458383053483792, 0.034070923702730065, 0.09717479146582252, -0.15676717713676855, 0.06881614618314826, 0.1862973255187659, -0.09028022834074541], [0.07688468542446793, -0.08101279457322436, 0.09790036208599896, 0.1879092752857016, 0.18690900436028843, -0.013687969128415686, -0.15257033666137523, 0.09414060556461376, -0.0788676615920791, 0.05973177242317198, 0.1704777402144013, 0.020521462157549283, -0.016041280936947455, -0.013538164289777358, -0.14176629418733375, -0.0702940994936147, -0.10200040408595205, -0.054123208569677825, -0.07786847485779272, 0.08983797182256605, -0.08440659339489626, 0.0009646805122601426, -0.054706733571865486, -0.06534720798335722, 0.15764850684433804, 0.03584817004138389, 0.13211757285879439, -0.11192484788358018, -0.058142298714304264, -0.0775545138224961, 0.02878212006361178, -0.10963589747654907], [-0.010346384436658102, 0.09287034330829952, 0.0514500180984165, 0.02554585493093453, 0.13533213622317097, -0.02856213852856134, -0.15906878419977372, -0.010313359321002143, -0.10849817829936731, 0.2872930315458912, 0.07451952350248137, 0.0870023926806361, -0.028497760729947783, -0.05352641510674178, -0.06312624165229715, -0.2649770217043761, 0.056763361888366094, -0.08685881951890045, 0.09391922494154904, -0.05384669405446206, 0.042311393807822395, -0.24261934884033007, -0.16530576855106016, -0.17427317248952914, -0.13109189092489584, 0.01682897113815924, 0.12377366472278559, 0.2754451970661127, 0.025452894415159064, 0.04780657404418558, 0.06877883167683274, 0.07007795822950538], [0.01899623056285634, 0.05548044229600837, 0.1034436202052556, 0.06576076872367263, 0.10457663819394163, 0.052393479702486534, -0.01594411460987538, 0.01154027846183195, -0.0802208334573584, 0.016091523293810923, 0.19985553787867963, -0.015448248026506092, -0.2186822360499341, -0.054423407535515333, 0.008419970159885331, 0.16202915461540546, -0.05164093319320167, 0.11979280967547533, -0.07313136918075785, 0.1407251764847953, -0.05589740770361166, 0.023887539446692283, -0.050995562325735204, 0.09353451970208106, 0.1621222137313657, 0.05292205319846921, 0.15932684981117354, -0.07162919378089398, 0.029785699793259013, -0.1148426855709775, 0.046046676984146946, 0.0512901668139393], [0.11494496511839941, 0.07828563179688175, -0.156549226632108, -0.14495878628679187, 0.08576160330733025, 0.0074626481802666155, 0.08547841926451154, -0.056813072693102686, 0.0823777298771637, -0.20150469912362415, 0.28255583271175494, 0.0442633719539615, -0.125734570156728, -0.07732923111610597, -0.24122463478610828, 0.157748307809223, 0.031499028036776976, 0.19854870331901034, -0.016372334890548797, 0.0489031580262702, 0.07699190186532562, -0.20781483027572187, 0.2339020522245219, 0.19307545706913107, 0.08475348229722295, 0.06363548580453741, 0.08381823070677842, -0.15482785656858195, -0.009086126856578221, 0.09992914952422875, 0.012240386129175523, 0.022484188477042016], [-0.01568713935373687, -0.10843416466780474, 0.05451835581169654, -0.06788781234430122, -0.15326569127059067, -0.14259789265924758, 0.026296365251749717, 0.03525474828541246, -0.10011095612190965, 0.007706175518772605, 0.12090078867380201, -0.01656318670193036, 0.1071438812245949, 0.110508131574881, 0.13251538524285666, 0.16508232503953527, 0.0761890144836094, -0.08239120723957451, 0.051078180612023016, 0.2763188504685759, -0.03841105096944601, -0.18668883360471325, 0.02700222178201326, 0.07420924668058666, 0.10101493342441616, 0.0820943563797964, -0.06396317562454429, -0.16973992830292445, -0.17183793502544964, -0.12328414213239818, -0.08226677169990627, -0.07689348936030137], [-0.06236621178820048, 0.011301190123701996, 0.2527658807629445, 0.11781195024763359, -0.08435162851124427, 0.032424949501117926, -0.1480011484946419, -0.21761285875689956, 0.13447634061464947, 0.11952349077233432, -0.05793430806398336, 0.002673561287413606, 0.03589574912114082, 0.016239011202039667, -0.03609864347750318, -0.16411560939477624, -0.03019471936063366, -0.05394262384978544, 0.1076386900543655, 0.03835344730244521, -0.23191728005779247, 0.09701098347654992, 0.06809787354464121, -0.018116025935857764, -0.1973431377286669, 0.06486801571450711, 0.02718012776418684, 0.10818468782586425, 0.07274717915002427, -0.19062089764210263, -0.025643368186199833, 0.06052832328211758]], [[-0.23174095959380867, -0.3330703112096996, -0.018219271849248903, -0.020677085067683766, -0.08857023690474738, 0.09977562346844053, -0.08853425147635534, -0.06447076330531659, -0.04167542787770526, 0.09156388930547757, -0.13965548650935475, 0.21579324967005792, 0.2112955317903626, 0.09078805860075265, 0.17134566442769958, 0.14661800445430723, -0.1647852752664084, -0.05977636678873357, -0.04528005009580861, 0.13976246398033193, -0.05138118292235197, -0.08535829490869067, 0.1257686217119782, 0.06777897043634526, -0.19386931384949813, 0.06246473512983222, 0.05157387685250432, 0.19017023552573475, 0.028353988129260575, 0.07805770707432737, -0.024938415644111412, -0.05563650278067783], [-0.006652351171572577, 0.15702310180884926, 0.21654574970740367, 0.020964714686795373, 0.27822902139678096, 0.10023085183233542, -0.06533939640110756, 0.08494417807906984, -0.1504530958870731, 0.2501265437151895, -0.03150145978089525, 0.11676765535524172, 0.21497648543214437, -0.07836053175651254, 0.22607982803428747, -0.06681642519443771, -0.13796967413801167, -0.23746025582032873, 0.020756546998667535, 0.08383431385574856, 0.0902602419194733, 0.1424964225528559, 0.010917699730408922, 0.08383312079995027, -0.11154553207439488, 0.015784242939928424, -0.02031345514877872, -0.09799041910962468, -0.285792695367238, -0.007221906914702262, 0.0733337337958291, -0.23979431969275142], [-0.06286548644057109, 0.04022632805111747, 0.13194307067092295, 0.1852626615268253, -0.15534667465356083, 0.3855895258000469, -0.03851564093244863, -0.03719489688613761, -0.14062807557539084, -0.03908502978675136, 0.02011511662694673, 0.3682943157034658, -0.1320393893074719, -0.03510774084774921, 0.09469511443705844, -0.20311906267732702, 0.06631448924052055, 0.1121192169991347, -0.04631920853605089, 0.1829720114599585, -0.02018066372913454, 0.06725962061408315, 0.12981948682877656, -0.1758460319305055, 0.18094344114745237, 0.035548197775023986, 0.06753321628089042, -0.32192612530567166, -0.03986287021493574, 0.02991836603426333, 0.023546490292119113, 0.022765186179967447], [0.021480577326847074, -0.007055921418634976, -0.07377036610127755, 0.011558344172386584, 0.022180147795080332, 0.19696201472890973, -0.02090636742343154, -0.0327363091850285, -0.04758247472195261, -0.05411340955052174, 0.1930258516905569, -0.04258069922724539, -0.28055119227041936, -0.0664664452070386, 0.11301317278825829, 0.20457252556082767, -0.15732578505467082, 0.016657420987510763, 0.13999815454286724, -0.18138647716550865, 0.05295756469060855, -0.09465225153523746, 0.08138387894908232, 0.03492960116333148, -0.14436208294416475, -0.10065120805662446, 0.14700834819910744, -0.004944559175579945, 0.018369790308384697, -0.1540321123019271, 0.04872983253985776, -0.19634664844663474], [-0.1801539991816365, -0.10406463760170831, -0.141782663882086, 0.1722330854863119, -0.2016552501918437, -0.03869484405578878, 0.029363817666366157, 0.04162247839376492, 0.05417563908380038, 0.044536568972555576, -0.23197430808187616, 0.260623563160368, -0.17079107372998462, -0.1232463094446432, 0.1235581707949587, 0.16882751943415975, -0.16010594205894949, 0.1575004485412015, 0.0485050500416501, -0.18295375710190417, 0.1438674490498051, -0.06642435020794743, 0.16047908926000432, -0.015420527023382528, 0.1163539125200339, 0.04597012451345554, -0.11447231738512238, 0.29390873485665786, 0.06760170347039123, 0.08718006316453514, 0.23769188244463554, 0.04473179654053113], [-0.020786531579506103, 0.026078768648556846, 0.16831330453858026, 0.07754957782859707, 0.08165519642053724, -0.1416175753841333, -0.327895904165558, -0.028844695693458475, -0.0513736052331886, 0.10227305082730784, -0.108796406139986, 0.06332661961694082, 0.1433421627855045, 0.06897068729913855, 0.0889418181101699, -0.0542077706207716, 0.007674484020517915, 0.040604825427266754, -0.0523502988628245, 0.017094559391535185, -0.11362696445263495, -0.12657547780971817, 0.10063421733954311, 0.08082599551789008, 0.006286752810756698, -0.005567110450253691, -0.02119133401089927, -0.00016007591071580125, -0.1158091204446549, 0.1143442232537196, -0.015993151923138074, -0.08537812998457125], [0.02986320405963014, 0.052029942842853776, -0.0022513487506050024, 0.045284788504476196, -0.283495107006403, 0.03925993429245879, -0.11847662825103195, -0.06237557295418652, -0.04618686576955821, 0.10975971178180625, -0.0311418609452136, 0.10839747068121959, 0.19266995880977839, -0.022967503614920205, -0.1304897528716883, 0.06502153886813268, -0.06358069516941366, -0.11001403795621972, -0.14652496925683506, 0.08697715970562518, -0.03672888933625827, -0.007504468549808104, -0.011889861931210855, 0.18359611031205222, 0.2074297917194329, -0.09704219099976519, 0.25550903233047517, -0.14437678962348202, 0.12206051362133633, 0.019357358110038286, -0.021809165660694425, 0.11661314738555918], [-0.06371925930658676, 0.10644418990678571, 0.02603654952085389, -0.05718043289794461, 0.07869430299299215, -0.13970688257322542, 0.09695648807175082, -0.03175921531403122, -0.04819183778353083, 0.00925710690442406, 0.06078800324099771, 0.05720286066058601, -0.03731769340379366, -0.06548583540434115, 0.20261363173874783, -0.059607925666336006, -0.04003047094130868, -0.03583995626877792, 0.03356809842126646, -0.014038546945288709, -0.16702953885876923, -0.06279398557893312, 0.08290971754607522, 0.015438048433157206, -0.06043465036377044, 0.09184684074465024, -0.051969428485976146, -0.14273038779856434, 0.17040716780536969, -0.11901919032243029, 0.06494710941658519, 0.03369469630537534], [-0.060142365522756064, -0.001991347517369086, -0.06073014099765613, -0.1782727998826776, 0.1626480342626776, 0.017816804734454794, 0.11543559439907287, -0.035534725493737485, 0.07373722063017257, -0.027894612597446397, 0.06562963793761042, 0.19449217739634284, 0.03494834835257166, 0.08070929171351023, 0.012943394296513496, 0.13816311321035352, 0.11671422816687647, 0.12289199654260427, -0.06692902090737958, 0.024226898874661857, -0.07946978678142778, -0.09388670110389825, -0.10131371558697749, -0.015071938107492378, 0.13050192764778007, -0.0664641274773962, -0.0929005108044764, -0.09532015707601572, 0.07864894196803886, 0.0013943641883518956, 0.08182139111793167, -0.10007007904536433], [-0.049635436770979785, 0.16937236599664435, 0.07472426969137183, -0.2861972765518381, 0.053554765590499126, -0.035030767106046856, -0.07664315798214097, 0.15179008174844508, 0.06813118022498997, -0.0898280107547415, -0.04449666965041051, -0.053112181611554295, 0.12236667671274931, 0.20878726539232967, -0.14412876909222463, -0.014699424004492393, 0.1936378978421981, 0.04065817832227419, -0.10375621746313331, 0.043952427998571304, -0.12822930322782808, 0.11265466961480365, 0.11295188319799378, -0.13156257323290294, 0.005437022210449248, 0.1707642709553706, 0.047844813126734366, -0.03528574258948104, -0.12759123818850684, -0.07867740178215664, 0.0809416870541679, 0.004316466345506035], [-0.04714449627024363, -0.06217030283363909, 0.04310515297928684, -0.02435820866361147, -0.024396353072268666, 0.03463702555515863, 0.0006079486376919774, 0.06345687427824254, 0.07462306222455099, 0.13873788839958315, 0.08244853420653699, -0.0772774477790915, 0.14730915244069864, 0.266473617766119, -0.18208654786194994, 0.08200241740233707, -0.10604375859993796, 0.14528868577259219, -0.15852139363518347, 0.013072238896367008, -0.2726512681178043, 0.02075452340914909, 0.06729939612726497, 0.10967633301453852, 0.03180850950953997, -0.03493617251095526, -0.0008100199167525696, -0.052797071589577256, 0.05244198732449412, 0.07616993625352798, 0.06742418957065179, -0.005464446762440652], [0.24011795681493958, -0.1262684680557233, 0.007860794063968729, -0.020587797188058594, 0.03832783462829977, -0.06614157854640118, 0.25634512699461376, -0.10273752044620886, -0.0727345778687855, 0.0031108179010517073, -0.032247384468590004, -0.03300733388696409, -0.0497512124061428, 0.0013819373479014986, -0.10299513971555813, -0.060072458401946936, -0.017659859513687877, 0.022211509666734047, 0.17461000536786073, 0.005655381544854231, 0.035853834705201405, -0.12172683429786668, 0.036917189915539314, 0.07614501397834744, -0.0800080580568067, 0.19051523453087973, -0.1371149559192417, -0.051422142487764555, 0.18189984852628957, -0.11343113585245497, -0.05411834666221883, -0.14137240198949608], [-0.016274083648997666, 0.2115244083640028, 0.0676808252737761, 0.12950749839901202, -0.14488076483700915, -0.06997910011495694, -0.022491155305075727, 0.055543190141393584, 0.013607953450703593, -0.02020955641171844, 0.027186241700211423, -0.015656093599826882, -0.12838010555860815, 0.12154301153705345, -0.14521880241328414, 0.017107961644821926, 0.13930316762315692, 0.16605067909786764, 0.13732358810341103, -0.1449015409758493, 0.17723933510760542, -0.08821461259162441, -0.03819825098872291, -0.02577412916573007, 0.12424432616149446, 0.05277143504240725, -0.029382228539282084, 0.03330011628650879, -0.17675571004440044, 0.08894947021747492, 0.07605207433455025, -0.05920227464955464], [0.08254440805567241, -0.22232287244478882, 0.09333272656316341, 0.10843708751587575, -0.10406526202470841, 0.14385103595555346, 0.3399158691511892, 0.049968665016077704, 0.03556566714848987, 0.0014146980750000952, -0.006333786498074835, 0.07095311634075151, 0.08358769708758212, 0.14528877686295716, -0.03504135833800706, -0.07548404315316956, -0.07077588984817076, -0.010754955641343605, -0.16839726353952153, 0.017865531530453994, -0.22670648074524213, -0.06354703446165293, 0.09121550764524539, -0.024810472143968858, -0.09210069359050338, 0.05550897308005714, 0.08466099310854582, 0.09823674504740697, 0.05578943159889411, -0.0741944841113565, 0.09778094185514215, 0.03486288483432034], [0.1874432305631362, -0.2017732920206767, -0.022201561524359568, -0.10518424033280115, -0.2930049921950399, 0.031242070874463897, -0.09771773401388985, -0.0869106219932919, 0.040181762398180124, 0.03305627940690783, -0.003771442224677063, 0.026780353438463824, -0.1682485240965618, -0.031591978311347406, 0.0837133096942446, 0.13824324703491223, 0.0625273111895476, 0.09275159696714205, 0.026370998006514063, 0.3651951184786535, -0.07877276881298019, -0.10216407925022752, -0.0057011059620516, -0.052300934906667484, -0.07352380381432179, 0.03625039157436593, 0.02012677048624885, -0.2680632280098244, 0.18624918969424634, -0.050344888532412375, 0.1842157511697339, -0.08438807120330913], [-0.045465305300797426, -0.010448762692088307, -0.17685902013039223, 0.001542949619386217, 0.09888429578867589, 0.05734898763943464, 0.18821978137977452, 0.0648570677815634, -0.16269384730792208, 0.06935037092527709, 0.043142554096620205, -0.16731879646096293, -0.09205169287564083, 0.09462873213530561, -0.11422942313458145, 0.08857534687992899, 0.1599562690901861, 0.07922268843736072, 0.011860932606130484, -0.2540504837559514, 0.10071777962181235, -0.08672926594874936, -0.07526205445040005, 0.17610167854621722, -0.060252906877423885, 0.032588773713100844, -0.1694002823289794, -0.10209977509948695, -0.0905178005947272, -0.09840380037986271, 0.01213085402891474, 0.051954494740832254]], [[-0.008806782270471922, -0.17964062161334785, 0.012639199115807555, -0.043192474118198314, 0.09027342108519733, -0.12146657636093748, -0.027397425915435335, -0.027816070980157228, 0.11847361823671537, 0.13288477612109859, -0.04217201439805193, -0.0029369313145546235, 0.12642682322913165, 0.033507619906632896, 0.22030302461381368, 0.14304431712295365, -0.12387971843784035, 0.3701170943386257, -0.05857461776276013, -0.17053312412451269, -0.14454074180815127, -0.0033188039582550785, 0.06901187409565457, 0.0066683913196725906, -0.06656558002895828, -0.15377400525639046, 0.216941561924613, 0.14335616665238973, -0.08549559651005735, -0.2650622662594097, -0.15686201184504203, 0.03975962154878959], [0.13937707351844128, 0.04354025693278337, -0.18938320296513897, 0.19828559421645114, -0.0595293029923282, 0.022680913234667165, 0.24597525281865318, 0.07128041234492402, 0.08925318633773997, 0.10064122776693037, 0.07024188661414787, -0.26516864496609, 0.08336712908595728, -0.003420090959991502, -0.2788663600976382, -0.049306499507879194, -0.12686714422638493, 0.15956912212136523, 0.03347713852155169, 0.09272324310575639, -0.02853516591855418, 0.05497751547847162, -0.07846910187768368, 0.015145842794561284, -0.1582785311287408, 0.20847330132751116, -0.07807545340611671, -0.12094320999948485, -0.25455520906838514, -0.11429339126217555, 0.07810145692083473, -0.2625164491153125], [-0.00326342421808572, 0.2685782913746728, 0.026405146955126964, 0.37093240460888793, 0.1573849027922319, 0.18836318736137392, 0.17666053772865525, -0.1681278866564851, -0.004601033208747765, -0.02362412404429335, -0.029483872367649898, -0.08696421962395857, 0.06084860826167855, -0.15246802233674273, 0.045382791552547805, 0.17441834711887047, 0.21501821290712544, 0.015423457692486138, -0.311419862365367, 0.13585215270049553, -0.019258652244068687, -0.10577560863464126, -0.019284588023019387, -0.163835122549343, -0.11292046154983988, 0.21384529109594305, 0.1993755770371992, -0.13082080989273182, 0.08662294049685343, 0.10181568450719931, -0.0450946849677104, -0.20261943820772674], [-0.2685752303584177, 0.11186622381939439, -0.08740180849812157, 0.10414403065419521, 0.07884059886441938, -0.014704964336599916, -0.16797170665244585, -0.1504728720539861, -0.031109185201289788, 0.09618258441256446, -0.20396378750975172, 0.10754970793963115, -0.021028524284186598, 0.05168258287727347, 0.22479900595310015, 0.005295617616120498, -0.0012008194469887458, -0.08394637159433381, 0.06211856025069059, 0.15816019773409953, 0.0033716052751536388, 0.049535450476222646, -0.10855155903212577, -0.02496206541481444, 0.18648694837108423, 0.030098373415342022, -0.019717195075662032, -0.11757676042779369, 0.08008085149395332, -0.13497131619680877, -0.09301256572900118, -0.062320655012962904], [-0.10352915966483908, 0.03908021271614464, -0.0716807750929493, 0.14746911522712333, -0.09501309867871144, -0.1630760696503889, 0.18630738634648658, -0.06971953825056676, 0.010245648426574777, 0.018265126907200967, 0.005300688610829921, -0.18446411552354033, -0.04550110571479358, -0.022699894237251533, -0.05342052397347755, -0.15325887063933658, -0.025641143789059014, -0.22865491099802907, -0.008250746230669992, 0.06587704034836613, -0.12009844569778881, 0.04368132319459303, 0.03155346297678246, -0.03318652438258114, 0.054237929375076634, -0.010810830598810732, 0.04676517896067748, -0.14442708259262965, -0.028999477331044778, 0.01841216049293974, -0.12297602955982102, 0.04492275793674447], [-0.16179934568583967, 0.115886199703387, -0.09138095543732024, 0.1506018196830883, 0.035810512412022134, 0.020761908367348692, 0.027824535829027337, 0.062058328729194354, -0.12420079844783241, 0.10466259691006184, 0.1730102642517659, 0.25445004652930586, 0.011644286935336073, 0.10689204390084844, -0.14011163801134358, 0.0006775233296052749, -0.0687927481595341, 0.24925088251466904, -0.027568018895368755, -0.010989994296952256, -0.08288716705204341, 0.18053107608647334, -0.12931369857354563, 0.22777269997777244, -0.19722683232368704, -0.27045941704358234, -0.15578302477421033, 0.1634692692298844, 0.08630652367790377, 0.11971696178052635, -0.00819675436246817, -0.012063161721334863], [-0.14274004619651007, 0.18125739884182762, -0.07845247043462944, 0.021440116692462586, -0.11799887923085771, -0.05231701988145645, -0.0916009813910101, -0.047400025359638324, 0.07085058819685593, 0.05047423199631271, -0.03622693885490311, 0.14557023266199803, 0.07563186759677566, 0.0856993290795474, 0.11398809462544482, -0.13791446646523634, -0.07284586905903133, -0.06881269953776209, 0.20030950443428036, -0.23796240510190683, -0.020479106129786755, -0.2674492325071266, 0.0965998371635233, 0.06605938585145033, 0.04653404368538428, -0.14315558690795527, 0.04663596583593612, -0.11157747450835762, -0.012254464480515759, 0.07157217263360365, 0.0225706401429533, 0.03184291529188657], [-0.12081296170529583, -0.046351874046520004, -0.13578952929608068, 0.032499409106387565, 0.13749837409888563, -0.09565472014847823, -0.03498239266182711, 0.15097511461395996, -0.020163990023714832, 0.0320898488847861, -0.008851502268333712, 0.01764316942326609, -0.060749429466250844, 0.10091224471742703, 0.0932474628215119, -0.047914879766924975, -0.04914293364091912, 0.06381016680172072, 0.15136096373739413, 0.13013863149207638, 0.09276572278226153, 0.021609363030237524, 0.05848424563885963, 0.21338689312053635, -0.03131447271302169, -0.10539847974111388, 0.1008461994932549, -0.025269202358157647, -0.037266662045853, -0.145878735169558, 0.14403641530873243, 0.022497862117641237], [0.11223472105133213, -0.050121273188886914, 0.019349929960341048, 0.05335995006061363, 0.04912895526481886, -0.08027809720039891, 0.20880829704066753, -0.21871891713136596, 0.07409019407091837, 0.19125731988064198, -0.23916046650501885, 0.07698422624134944, 0.04835095769333899, 0.01926584553014433, 0.024867070826208756, -0.029331220429188946, -0.00010048692441207664, -0.1473436335186362, -0.2397063561130744, 0.018062906457468143, -0.15125528733374982, -0.28273040229817303, -0.11639193161540483, -0.1857735978989312, -0.06370668583365749, 0.12496454434506776, -0.15005289212499698, -0.05223400048473274, 0.006293300855482476, -0.1260335624273863, -0.11713980121946872, -0.16385503529534012], [-0.13981166171255005, 0.13925785478726455, 0.05975352460245417, -0.0001868110834981321, 0.0480855430883936, 0.07633408279331733, -0.056069718611269005, -0.1085140346351638, -0.20744121406519522, 0.15232318360679925, -0.1102187244154979, -0.09950486974798768, -0.10043403295946964, 0.07742859752876617, 0.4010165242447429, 0.12967997367966716, 0.27846762426652766, -0.027336680979243817, 0.0976014309591301, -0.046962159389652945, -0.005568747088098839, 0.13664189213810168, -0.0660184957183944, -0.12904177841166692, 0.032451608719343855, -0.019482889493299266, -0.04979077775982394, -0.028056010540524083, -0.04831599190458345, 0.042219613628895855, -0.1288461939653906, 0.2240277336847009], [-0.04552751231314943, 0.19350180594000777, -0.08914235249200153, 0.08673821236255415, -0.003331878080278201, -0.06693876139545082, -0.10132090215979346, -0.024386733672415103, 0.2630042395433894, -0.15940122922479918, -0.3531738534095088, -0.06385628278176392, -0.003999231816777864, 0.1705517491267789, 0.1609695681919524, -0.09737610864106702, -0.030906652603611005, 0.007184771296180392, -0.03447932867015568, 0.025962365061034318, 0.000562982606133184, 0.1443967940470036, 0.07989357605639678, -0.14668543299789782, -0.04354115071347411, 0.02491163375976599, 0.062026525563025105, -0.022558398246034294, -0.24954556911172576, 0.01678453986732493, 0.021774065270442317, -0.17667511956920845], [-0.03739488117604663, 0.014483469198795082, -0.12321694497366172, 0.03951693011350013, -0.09624561217166373, -0.01562866529845405, 0.0536743391544494, 0.10374479874649029, -0.07503330429603218, 0.09912589374112325, -0.003057299929834345, -0.006364261849593358, 0.16604031178696904, -0.1041783393397085, -0.15249103232659114, -0.18415064434262787, 0.16460844212282982, -0.05385684866199175, -0.130233837337015, 0.184193653779111, 0.00938317798332738, 0.06827401570342417, 0.08970310768045453, 0.09814542030109488, -0.018249819052015934, 0.02571862026460464, -0.14737436426750647, 0.17839556698107092, 0.12304748771837476, -0.00462169666692108, 0.0968966933734582, -0.15118801393989928], [-0.009584790921319059, 0.028751483096513406, 