{"conv_kernel1": [[[[0.8647302827433395, 0.09390449557441469, 0.15176491754831523, -0.012569711822577505, -0.6538026312820996, -0.10167650323166702, 0.28807484465937083, -0.01412978827505154, 0.08255923598730516, 0.4534262064798143, 0.4328572558619824, 0.7400245762321833, 0.7227178853304725, -0.08169051452768189, 0.16692701106283891, -0.032873558600237066]], [[0.4413244162319576, -0.5994121391586993, 0.250217007253164, -0.6583215402232486, -0.9073204809209284, 0.6587109764104844, -0.4168921680002182, -0.1635978581622576, -0.45236502319428296, 0.511535961035454, 0.058425593051012636, 0.20495779240474732, -0.48238001902324246, -0.4541004880475037, -0.9392904802915804, 0.88216693668752]], [[-0.5581447077448096, -0.2157874906420742, -0.2074261136341455, 0.3843247497043487, 1.1310597420532675, 0.2578583243421545, -0.4022324322360087, -0.42910115415972955, 0.20449227613684584, -0.6281415434071504, 0.16633159596903543, -0.8101589286530216, 0.11076032621086877, -1.0175559379610613, 0.20279232135978167, -0.31405235271773185]]], [[[0.10800838024862747, -0.4826140932841752, -0.1229926456240423, 0.7449316414239746, -0.32123674530218205, 0.3666299624721634, -0.307069634451369, -0.26779594955271635, 0.7329194150925433, 0.18472777162181536, -0.5412440937435258, -0.8585036304886258, -0.43393035024254967, -0.37676762692356097, 0.5040375962239473, -0.6892336257357764]], [[-0.019979596019329745, -0.7729760560413986, -0.13446869932509212, 0.7362767843298206, 0.07775844879144321, -1.2905733793609793, 0.409581043701536, -0.062130984629939885, -0.1684631092674728, 0.09895017849320062, -0.5781114347568429, -1.1879531778452688, -0.40259685173305254, 0.33807551833376376, -0.7448484098084427, -0.3247849940366856]], [[-0.08821294642217846, -0.16786853125535503, 0.9693535097217233, -0.2767988643314965, 0.4465855395285158, 0.33950138664307017, 0.7335490006524584, 0.30339242032453817, -0.02157771879804042, -0.4965003069344033, 0.3103548581445095, 0.16734943106552744, 0.28967020407768573, 0.13852126611964938, 1.3516723197932736, -0.37748588913169495]]], [[[-0.20004709206872592, 0.44037796037755483, 0.7695211183290697, -0.3367907828119244, -0.27853619448140565, -0.5999388926402353, -0.2948983996004953, 0.04765713249438124, 0.07679051712414661, -1.1052268784004526, 0.6331099050367129, -0.881116007585909, 0.8874618568835391, 0.06213872183900548, 0.6000744037922349, -0.8534583471013389]], [[-0.2279511377775926, 0.5914488262787168, 0.26747064999019343, 0.642124008341166, 0.45204545448640826, -0.18056957046600935, -0.3746082800257513, -0.7677806619216179, 0.4507635322053141, 0.7683262877755505, -0.25665481789980016, 0.24699177456039403, 0.179370701274277, 0.05214547989009085, -0.12915481404928675, -0.060019416156233046]], [[-0.21736613736246407, 0.22699395516687426, 0.6287717301581857, -0.7265315177447575, -0.10364183885736919, 0.0472389839891926, -0.10668625313099285, -0.23503044806170795, -0.2247558871574521, 0.34532112557288963, -0.25831121500674836, 0.134606040220938, 0.14716233987387345, -0.5929045979949701, 0.7577274296827703, -0.9593802077969595]]]], "conv_kernel2": [[[[0.0007730367377285489, -0.0717452766897557, -0.021365603053376373, 0.05357166548934839, -0.06201471160695529, 0.015487296432188557, 0.06794308059744972, 0.17726189133247391, -0.15666644187909118, -0.13997720579097167, -0.15396843926343537, -0.12114894219702427, -0.056944160315917994, 0.088613439111082, 0.07590465092653018, 0.0839424263135514, 0.0650163033359955, -0.015696927932348944, 0.06294433751889836, -0.19391006550732867, 0.020868523130931717, -0.0315250652868758, 0.04710620453749969, 0.026392233584647366, -0.19308250167767685, -0.18828897580914902, 0.10063534266297847, -0.17993397269144987, -0.08304256296578276, -0.1268902734602122, 0.06689619642487127, -0.09499557935838271], [0.05012501717303192, 0.05859644203646198, -0.14112933211721798, -0.09297196875735131, -0.04160842529574817, 0.11931565202619666, 0.013217454636250939, 0.005674458271848912, -0.02801738427507381, 0.04747172365756589, 0.19600519476757408, -0.0943482696485226, -0.032089176304989066, -0.022363659397424917, -0.3839683261944915, 0.1450194723041828, 0.03577491771139565, -0.11282863058839386, 0.12954290919455533, -0.04646238020441093, 0.23700761081357877, -0.046452958053181316, 0.019745973940517914, 0.05148296573543962, -0.09222576263287051, -0.28763079185789814, 0.026456490761463947, 0.005564189832738833, -0.1434049582790938, -0.1828857718398068, -0.006759676023211649, -0.041307497608730294], [-0.022511542878450537, 0.06249279057370216, -0.13438979785942062, 0.38667039114495916, -0.06633841178141563, 0.04082917672675441, -0.15969924171087857, 0.12462014998583383, 0.1953312619291258, 0.22570976293616574, -0.047172458726646674, -0.10248930558071193, 0.03924829144925183, 0.05204836125803139, -0.1475403379829394, -0.017947297104237238, -0.02218800105432437, 0.02181880106241957, -0.023548370803238496, 0.23341028212421128, -0.05278643162499676, -0.002399250286941661, -0.10106499834850212, -0.036923870501385264, 0.01039290301734666, 0.15758734339352562, 0.12218618884887911, 0.010740304016693823, 0.08176929643121832, -0.09665110228377519, 0.12892855873577738, 0.1076706798228788], [-0.03809201499356904, 0.07099335164510125, 0.1337248210398391, -0.1084908744183854, -0.03978944442478788, 0.06355838680728974, 0.015429072361760424, -0.01040927564643938, -0.12776703795998565, 0.13883479587017974, 0.2514938200311922, 0.04456715944044439, 0.0677430843213606, 0.09034904317476558, -0.09648376942042208, -0.0215695531989628, -0.10250244934956107, 0.048406184822627166, -0.02304013304714591, -0.1299916139151176, 0.009131434243315771, -0.17462062324306737, 0.10718325889542203, -0.29359721776795944, 0.1351093238156439, 0.031979183712868994, 0.09758224186388692, -0.08490748448518214, -0.03871609968661239, -0.3074009180197047, -0.026128513837380598, 0.08061325377724153], [0.17348564766741717, -0.019569419779272904, -0.10695798303057336, -0.13198431689278664, -0.037230239070133314, 0.0173071328720245, -0.22544442067606052, 0.062067917833869335, 0.0354856760131665, -0.007117391162618861, -0.07553543088771339, -0.031891746203913114, 0.00801715462505119, -0.05394467033282239, 0.11320330165263859, 0.2136092479975455, 0.09674797494963569, -0.0431517658779777, -0.07436103465762733, 0.01422229428401341, -0.08672215041713323, -0.09370039807985268, -0.0026973632306629184, -0.08596331573302042, 0.05633755333260189, 0.17087608828619275, -0.04102611510230321, -0.010976884042722217, -0.030738518298925724, -0.20098988099124823, -0.1517558330499996, -0.04316632131141315], [-0.19660912233804168, -0.09211000283616082, -0.007358481425655662, 0.036743753950323095, -0.4766367491428472, 0.06628509584516164, -0.24514469516404916, -0.06765044712558847, -0.0037191275139613665, -0.11996892050095477, -0.0652322427415894, 0.21880333012789324, -0.005740531406478533, 0.012708157458253102, -0.09477852138586118, 0.0784830488974186, -0.21659342882144977, -0.08419000017268718, -0.04269636603579035, 0.0819365627043666, -0.03535001722965528, 0.166182793344107, -0.09218589490504851, -0.08092091789570116, -0.20557923033871472, -0.14893081767011368, -0.1797403657193214, 0.19024684420439705, 0.16066617641343578, -0.01674289555874625, 0.1661520959979217, -0.10984431677660203], [0.03303734765692002, -0.15593576729494465, -0.01727966258095473, -0.1225650400845826, 0.13105638498138314, 0.24862791282350777, 0.09989931552735938, -0.009755180388700255, -0.12432921377678506, 0.045228171198049845, 0.16326642069982664, 0.03203590215612738, 0.12745632373708288, -0.10328726124571451, -0.08028916660948085, 0.049621656093551396, 0.0038659004594840626, -0.18543487172330209, -0.05254303837934295, 0.0008287472472178597, 0.0006090168069074811, 0.11520482509428222, 0.03204713084090151, 0.1328741104074258, 0.057551141552686945, 0.06761616083618655, -0.04727079551941354, 0.15663845109773053, -0.18174459838919083, 0.00158965415382246, -0.25489530656010084, -0.17198939725876639], [-0.09032897233150086, -0.21371826930438156, -0.008363351683149833, 0.15738031797793217, -0.004049370672453707, 0.0057639289889456855, -0.03909307705302117, -0.06825999802096462, -0.0031975939617144397, -0.11383543956278658, -0.09464313124008246, 0.2604611728999717, 0.06872981042179348, -0.133976988080451, 0.06363462242572447, -0.03712915011510561, -0.0643248412300322, 0.03315097867677362, -0.08901946824002469, -0.013518058583127853, -0.1275417743808931, -0.07196302008166183, -0.003857570533772125, -0.1539831031939269, 0.14003130658268675, -0.14785966193406075, -0.08993538582550135, 0.08944939543534579, 0.17527278390310222, 0.15203740337226648, -0.18423066143771757, 0.06243163171285496], [-0.19480942029535067, -0.0026841305993173465, -0.04870421589191256, -0.052409325125797705, -0.30268851903494653, -0.13653222878164972, 0.013452366060689069, 0.03350836325422483, 0.22303299580273525, -0.0861008121199519, -0.08993426613650556, -0.11500531986884371, 0.026291911985126967, -0.13225932570599414, 0.03782245769542238, 0.11823594236740469, -0.06771597871508066, 0.0923548713822168, 0.04810041859331882, 0.16502897509024372, 0.09780018420918905, 0.07466997150439358, 0.23072685652208266, -0.00877457134344271, -0.05335590680312366, -0.056994565435211704, -0.03365139605070861, 0.17793994619515074, -0.0010944681554823285, -0.019985962694915708, 0.08690841904232066, 0.08120675123321497], [0.19105323565093263, 0.14043700923154082, 0.06331750555498943, -0.046410161168281255, 0.10745401309027391, 0.04563180806519032, 0.12041516503009321, 0.05542392053636683, -0.018815710701762897, 0.27506776007965594, 0.05427579372978122, 0.10230650082570948, -0.016155040794695336, -0.04207964573461526, -0.09726269125919362, 0.006406399550950195, 0.1487318836215504, -0.09246382255061568, 0.04631734881395035, -0.1624099761595231, 0.1957423963823684, 0.2763201385849256, 0.12231459455983307, 0.09903685122181347, -0.01797517783412207, -0.06393371043646323, 0.11898587114502543, -0.06275601579447819, -0.0057797059866610805, -0.09019069074913547, -0.011587777861288008, -0.013961494597728413], [0.225775803101948, -0.20762850704598523, -0.057816777468192415, 0.10785456912475307, -0.16996030258023886, -0.1260804304372452, 0.22074387615712343, -0.07169854293532266, 0.12096853503145023, 0.18527202484234914, 0.07431814630234973, 0.1227107365231644, -0.1741982667240143, 0.0028570271800851914, 0.16583058988236393, 0.11744049458295756, 0.07507460210652767, -0.1589461784407774, -0.18576766524558827, -0.103292862893102, -0.08289744653055747, 0.09134776022599866, -0.1744940669482896, -0.0343258173876276, -0.0035639845386326394, -0.13770546210372475, -0.21157182320280882, -0.15123454704368255, 0.22960450208392297, -0.04813646791450162, -0.07317436387723679, 0.28077116621637016], [0.013081369900993444, 0.10931610968163225, 0.11064775084223362, -0.01244132697435621, -0.08225773620473531, 0.06226216654374525, -0.10814369278204537, -0.18525355821040637, 0.06740743186659308, 0.02930149341455508, -0.21362674669932602, -0.014533903641298146, 0.08078145757900415, 0.02947576992247589, 0.07727801828957935, 0.20964416589800466, -0.1891230013282962, 0.05979269341044329, 0.07673354413199743, -0.04888777762908081, 0.04053111049876792, -0.08757927509757084, 0.13709395076158948, 0.03997134659452902, -0.08528981788836623, -0.06660468772947632, -0.003805418955427157, 0.02018151768226126, 0.12658524203620694, -0.0641114934036831, 0.043984603510925945, 0.054133245327501814], [0.015592713518696028, 0.07095826287989412, -0.04451511481419128, 0.16014077869654542, -0.10035406334957153, 0.26385751355287457, 0.1328186122813271, 0.014780105204190994, 0.0060142179116860735, 0.031856073765713276, 0.0695619808127698, -0.2178361376792329, 0.19909148776367705, -0.0658335728743616, -0.09690039990556153, 0.15974810972903528, -0.27503992586413334, -0.09307276867902474, -0.070342861113697, -0.17096185141566778, -0.08412366489666764, 0.04936062986262274, 0.04862897077174215, 0.22519644303334027, 0.04261292590463116, 0.052762404248723534, -0.2643127628445574, 0.07576616592727348, -0.004718161253592901, 0.10530984314265365, 0.116413098329142, 0.06185043140596061], [-0.03592989109785679, -0.14862894677367505, -0.08601236522968923, -0.1188110957494214, 0.030208174343889838, -0.2046370061070452, -0.027869776981205234, -0.04460525548283332, 0.1257370230667498, -0.12517166173591343, -0.24625121225871796, 0.29014938135875906, 0.023586701214722665, -0.13301678431066566, 0.012082593016683019, -0.029263491791557114, -0.016162998667334946, 0.1206455912353391, 0.22172354472124017, -0.02702713216379272, -0.2043984148130496, -0.13448460581053287, -0.45501860077444584, -0.03604401073510579, 0.1771736792256115, -0.18734778198040006, 0.0029092481274741225, -0.10726583446547533, 0.18701989109023678, -0.0988117822283425, 0.05867833730821334, -0.027190176491673494], [0.05360261506995101, 0.08916351800537016, -0.16009916250924194, 0.2607959602461466, -0.08744241358061795, 0.1283574112698445, -0.03022890448568539, -0.14270523169187854, 0.24687817513698448, 0.12462752170967445, -0.10374150179095017, -0.2663764590862644, 0.08228598573571719, -0.03818423141357348, -0.30022380014249805, 0.015393425046913638, 0.038143916970887634, -0.06713914459992312, 0.10949996994893925, -0.00479159024928942, 0.14539581343465552, 0.13882607321568655, 0.022455738545323223, 0.018572887842819033, 0.0033331375708912803, 0.0011194886765624236, 0.15021934673882698, -0.0941940613543878, -0.058045299681912806, 0.07360320144998146, -0.00022149229818878833, -0.07032325961151382], [0.05785697948793018, -0.0885754457793483, -0.015821160535078708, -0.06693570988084192, 0.009991662222220539, 0.062364475008333364, 0.14218188808067486, -0.2269404549889922, 0.18438932790131277, -0.24150064879363747, -0.07922272808879904, -0.029129259025337573, -0.1479508546028336, 0.11569520916829792, -0.07243068786010998, 0.07893348173937006, -0.14945270910013955, 0.14231784204309222, -0.15168174364908749, -0.08918641132322458, 0.1581084493502995, -0.08784409641794651, 0.1934261205036349, -0.14087169940272087, -0.14145095185295145, -0.018141710663218166, -0.016749798925492936, -0.03918979389309476, -0.12970693413359424, 0.094682704008788, 0.07145136804778016, 0.15311161699998851]], [[-0.15725299393705178, 0.11814119598996715, -0.19748427828074924, 0.06340222745876217, -0.18339803285879427, 0.12245213171045856, 0.07736127995198144, 0.1975281317077965, -0.06819307720654535, 0.006950784100513909, -0.08000745391393792, -0.1852117482009844, 0.0708634785665218, -0.13892782025646525, -0.028582162121239235, -0.09408538363545772, -0.035618487417596455, 0.09732863527921556, 0.11786372617096587, -0.05359487843136009, 0.09342268560817552, -0.10468209493774337, -0.22762872512135526, -0.0526935809143082, 0.23879625940885904, 0.1339212641094218, -0.3335364888416656, -0.19773632088591134, 0.004041846116672214, -0.00017556124580951128, 0.10935156238588029, 0.0760332699260217], [-0.022263315858240616, -0.14145702489331485, -0.029813117616363398, -0.18794113579281482, -0.017752260060555972, -0.05877203850484959, -0.11074883374422198, 0.012426905609272025, 0.007888301815750986, 0.12219091877780658, 0.0007880230072379891, 0.34795356961520213, -0.022820863787891128, -0.09592979750314003, 0.11027928359815779, 0.06427705284940906, 0.014136784303971597, -0.15015887676724712, -0.12355949296204193, -0.08138953752098985, 0.10876863460906934, -0.007965362430992984, 0.05669875137947951, -0.03157562444903977, 0.0409722339133676, 0.15161563452124405, 0.19026670206016902, 0.1949683862103134, 0.01600045581287462, 0.045922022102738276, 0.015562579388829528, -0.09296018982645907], [-0.07958470242247984, -0.027034828376458177, -0.004892939040603654, 0.0847839161014781, -0.019103174418477233, 0.06619199661463926, -0.13686104514377612, 0.19994119901897361, 0.11483946762406624, -0.00223949780326533, -0.0012342591056182916, 0.1554644547703477, 0.0038299977116016378, 0.08554430599424648, 0.3364525464581163, -0.09373238836746707, 0.002582328314006821, 0.31651606544734406, 0.0015011944642194849, -0.01904486567857458, 0.07626512860036515, 0.034499832104909575, 0.23143348766254113, -0.01670210827318287, 0.07738473220587434, -0.10719571771303853, -0.06863010004652269, -0.09890936871754473, -0.05819701222517542, -0.04128959293083431, 0.12383801172945008, 0.07184237890884801], [0.07138704766814434, -0.1214883069574253, 0.17676590791953609, -0.02357950476562157, -0.049812309781949844, -0.005772213262801082, 0.1214082686785855, -0.07935110818791877, 0.1100005662771473, 0.07855208961167828, 0.3103689017904194, -0.19551095514689434, -0.03019811247789342, 0.0011113696244461752, -0.02768321705451784, 0.016166670079872995, 0.10482523132836423, 0.16780728027980438, 0.01448515263030017, -0.25967605028944096, -0.14445980829291158, 0.07356408773126222, -0.015627036546973765, 0.08188199955405882, 0.08245938678023396, 0.004834404911817895, 0.12060333257749924, 0.019180250403406512, 0.07279004174147925, -0.016781869083467786, -0.016911227692521173, -0.08686813412642543], [0.12505643571273695, -0.0309321489828031, -0.08248267199985376, 0.03623570987931812, 0.019524900718765018, 0.028803905837478935, -0.012887851187634379, 0.20707505564734197, -0.10397874278648823, 0.03182963508787245, -0.08434393162620833, -0.0002338605455632605, 0.015874122426655188, 0.23828532822650156, 0.1127768586230095, -0.11231795492693329, -0.2533739266347136, -0.03419226059523075, -0.01682833947074433, 0.21440963936761565, 0.0687762365782014, -0.05517911528316808, -0.07517783457424074, -0.158370957522509, -0.2164204839966893, 0.1521604282005582, -0.06487621221429432, -0.1997624632550265, 0.073106415542315, 0.06274652898782523, -0.1030681619204577, 0.03374550784689118], [-0.05022548928819286, 0.0628466154257052, 0.03051135579427373, 0.24112852607420102, -0.13182263110492318, -0.1488844836508569, 0.0239828887983142, -0.07335623046989044, 0.0936978683226748, 0.007230654377717368, 0.029568505679031628, -0.029363226614166404, 0.1534784346114586, -0.027822256579556188, -0.00813966733000147, 0.06660078011876369, 0.20834133204944572, -0.11750820349410353, 0.14398386872355634, 0.08652483948853654, -0.0019427642397364336, -0.12873372654603282, 0.12940573423111681, 0.12862467906867892, -0.0950997291115918, 0.1619749599277041, -0.0885668556273965, -0.14724653859144418, -0.023888882386983695, -0.100397906680294, -0.009824936220978867, 0.12905791650071388], [0.10504796326326948, -0.04794264028486469, 0.2377283828657018, 0.1089495884555835, -0.0023883285357459063, -0.21746073493367496, -0.12500473327229042, -0.15814036573967002, -0.02633817264605223, 0.023444429710396234, 0.005291865372367493, 0.21484767970713176, -0.07812811360417911, -0.10124903854929963, -0.013031519796883145, 0.1577194800279075, -0.0258657290942554, -0.019300897832637744, -0.17940356074146152, 0.08216961105341083, 0.0261909103392583, -0.006302282264042421, 0.12078775629826977, -0.12328587323068853, -0.15647932879685883, 0.09321865863395982, 0.16330754735963843, -0.029538020573526436, 0.016862882688345793, 0.0628400881241597, -0.07099906242616054, 0.009828975571549435], [-0.038616003124206356, 0.17959746650315114, 0.08256141167200176, -0.13410819067092578, 0.027541234269142307, -0.2111153397416018, 0.10979824494421829, 0.05347835803140881, 0.008531681219578306, 0.16170795746959946, -0.01592652004584394, -0.022393460054590333, 0.06301598555429203, -0.08119103565611062, 0.004233836029185495, -0.07726899360041158, -0.11737045253255253, -0.008951551638221153, -0.031726399144691865, -0.10860867326176425, 0.06959363461329095, 0.1723164405435149, -0.025902533270153384, 0.0673825475878059, -0.18431956051362758, -0.16619522426655117, 0.12639471501994382, 0.2086910095241037, -0.004341822404530156, -0.06842809757812171, 0.08263220912388498, -0.25922857245039793], [-0.05147224698641845, 0.16651313880336308, -0.0894913848585973, -0.08018999735474303, 0.07379909575489818, 0.03908546588666244, 0.11467355343340445, 0.03146764706558159, 0.24248162640563928, 0.020990103545053432, 0.05584586917666659, 0.08192896252626997, -0.15390966800669498, -0.1408490036320985, -0.12205784142070983, -0.08574425828261346, -0.2394798104718895, 0.12289597225163307, 0.13523609659661034, -0.010178014535086035, -0.14461036593543578, 0.08689269781487823, 0.12491754164075014, 0.0771360520522603, -0.025798695436748155, 0.18982053019736336, -0.11035914230117037, 0.041809163246043286, 0.05571528146805467, -0.20153933099148977, -0.10785856617773927, 0.06957914787779206], [-0.058948069591713656, 0.009472229211111202, -0.043466041139206824, -0.08923188778168253, 0.12570503815160602, -0.011010590469169742, 0.1354940930793142, 0.007291744347277134, 0.12438903481701213, -0.04182519756535705, -0.008792250059055403, -0.0633505925012457, 0.12159362014089391, 0.07056267951035124, 0.11019455517857024, 0.13843935099027013, 0.06552328027194254, -0.08404050362235925, 0.06001135011890853, 0.06772017579436708, 0.1281639551806931, 0.018317815692790732, -0.1882387749357716, 0.044714787871506984, -0.10291792003692275, -0.2493253249171372, -0.1053038816293445, 0.04384873412087261, -0.07945101860987498, 0.07155553915963944, 0.002949517683179033, 0.06867666059176125], [0.13109476064542594, 0.07350255114603775, -0.042703485808649244, 0.054188239960478925, 0.11245943935929, 0.23392159651917088, 0.028473436071526286, -0.045886580588933704, 0.20269952770044822, 0.15146890129609725, 0.042475541247844674, 0.18369920320203467, -0.07385239416425231, -0.19682017807499236, 0.005454709274280502, 0.056019624305063395, 0.09068692609299396, -0.005081783929446025, 0.061459922919874906, 0.13636817163707185, 0.13549387528524492, 0.04400082073661328, 0.010729843050935713, 0.1589873362076376, 0.05228090225122939, -0.11143164391105187, 0.22878657103504182, 0.025827633993333887, -0.07178544338640046, -0.15930001322682152, 0.0006314801642718569, -0.0995865716726578], [0.06942530299457332, 0.028520970961938084, 0.14323430850833777, -0.09831874748863104, -0.0690004125159392, 0.05892708930118375, -0.14064531276121975, -0.05892744021198637, 0.05870595416461031, 0.018228527980527737, -0.04814836060632642, 0.09288016009070213, -0.18171159610948712, 0.02440118174009514, 0.04676101416845737, -0.1790336166143876, 0.04216093521237589, 0.007593203147920466, -0.08080086763855861, -0.013402597347151613, -0.24838045773458695, -0.010656637569871045, 0.09359333972227905, 0.2208948695697734, -0.25187587067315403, -0.19628981062211814, 0.1318286732503102, 0.17554823345910933, -0.20045201218525724, -0.22257296508539348, 0.09391491791024759, 0.06317847541673237], [-0.17293091899906207, -0.09832145911329992, -0.004830341801209305, 0.1853091198680611, 0.09708159399416613, -0.013496637950484815, 0.021086551812250144, 0.12854557037106404, 0.21374310011232253, 0.2667636606768006, -0.14158343814405447, -0.03821850193457371, 0.00017563846577277277, 0.062264733627953484, 0.05947413670301508, 0.25948554473144164, 0.029601480822643994, 0.010585281126791078, 0.14257714196121787, 0.019449010751153108, 0.06662020926906383, -0.10509205705525007, -0.0492915908232737, -0.12308074699371413, 0.04726517448197957, -0.15772299283436758, 0.17898812640185152, 0.20008677910960776, -0.018467092714970962, 0.21378907002239333, 0.04801601023779127, 0.013620729012308975], [-0.03629592025575193, -0.17483560445066826, -0.13803343700243267, -0.1872710101647796, 0.08052279400769999, -0.03529954808457358, -0.14452417333675818, 0.12154606694915614, 0.024098279556853435, 0.11103809170693545, 0.12627481601034185, 0.11514260164450466, 0.09646075464150508, -0.1421410628648467, -0.04678547737587417, 0.051831186054728765, -0.1877744671009379, -0.13883854647259702, 0.04868559090567313, -0.12715152840741703, -0.05765874429349411, 0.20058560765251132, -0.15845671966445632, -0.10447576093371558, -0.002067948484075242, 0.31076787667918093, 0.12467175720373778, -0.07495811333514886, -0.04248783504972432, 0.012421192029718215, 0.1324027391219481, 0.03111303078970006], [-0.31773880531848875, -0.2830712501326547, -0.24763801245945002, 0.09308251131943616, 0.11864213155888233, 0.06275180450723282, -0.2554719456552167, -0.03350670677605655, 0.028629428421655473, 0.0030969807744244283, 0.006768224824406624, 0.18283279286540846, 0.19985725165976026, 0.031114051385305395, 0.031899307164792765, -0.05787535470453472, -0.09479032027679911, 0.09306660568355708, 0.01784989150080618, -0.0737456907506554, 0.1297653359307926, 0.2253970019092036, 0.31764055268987545, -0.014939618025185326, -0.11303114312500614, -0.04435043241614724, 0.15183821701610123, -0.1307695293115474, -0.0829075274066727, -0.11177495687751447, -0.14421253831150932, -0.14587642634185216], [-0.013780164598749504, -0.16086340727003698, 0.05350960996713741, 0.2657376219071528, 0.04904104863249771, -0.13194517042191914, 0.09206855930714648, 0.14856505669038322, -0.08981582491469968, -0.05251214342546043, -0.04905536000841002, -0.09586696685516072, 0.008540588166362429, -0.1716557574828496, -0.24405118882555188, -0.09317805124497845, 0.01775698125941045, 0.1319972443162711, -0.10182838115667803, -0.0201854817502469, 0.18849917623256174, 0.06934146682512882, -0.043994510753182246, -0.1967520638187684, 0.0015165177636979235, -0.0986626366496643, 0.2488553449025789, -0.09670269738712596, -0.02558290189483602, 0.03260811727372515, -0.037817266313798246, 0.09663594038293204]], [[-0.039410198229602386, 0.10611056688778196, 0.08698206704589612, 0.13282373786881677, 0.007283255750392548, -0.14943967006197661, 0.19096848521060406, 0.10518323461606675, 0.10318585985170524, 0.15464236249026328, -0.1589633098454679, -0.12915418799319564, 0.015326026654011057, 0.025818741976846117, 0.22180368542584233, -0.09304827133987396, 0.07776797322510462, -0.00846741002123329, 0.018174447578772866, -0.11803112172792983, -0.11691918661014244, -0.0656418434920823, -0.10943518389950799, 0.001740338833389978, 0.0746012389169682, 0.027853685945353448, -0.19408131215749352, 0.07597729703698024, 0.012638841441568118, 0.253908814512216, -0.22489621677417518, 0.26760467613669353], [0.02223764779436843, 0.0008098108168827511, 0.0145703818668622, -0.057951066293207114, 0.0012604944091619413, 0.021469550878926057, -0.165324702580271, 0.028971832008100936, -0.0664284451106736, -0.14062051346329663, -0.3402825558379254, 0.11580671662923768, 0.18537734818626325, 0.041730895405864436, 0.13583087881606856, 0.0033704850209110397, 0.14157682540013844, -0.01668820097057779, 0.04976852247802727, 0.04041086420064898, 0.2384775106634825, 0.03662699692637535, -0.1971156480347465, -0.147912009256506, 0.034185261432759115, -0.07098211627451227, 0.30336050705630546, 0.08798349037562968, -0.08701373620513896, -0.066329256626412, 0.2317630388814959, 0.016213492612860387], [0.04865072805140856, -0.08502808104594173, 0.0496706469095723, 0.010138430379559232, -0.07936639699363743, -0.07626648199945339, 0.09371383390132113, 0.1129253858596246, 0.05005494982885445, 0.07483001787259609, 0.013492628575028367, 0.049991064953673815, 0.04340407462662167, 0.08457273874302085, 0.06116361602631465, -0.024569706735466698, 0.07171492019829478, -0.02899485987354258, 0.07629498679519016, -0.013013093691715591, -0.25212705141380226, -0.15992675425261194, 0.0892549377991686, -0.09103328713766166, 0.044047408321215925, -0.17435825071377453, 0.111485731135581, 0.08752974556892623, -0.16417041706351737, -0.15064080176154965, 0.14316874408965835, 0.15336242573890857], [-0.16798250596544684, 0.09657132051811039, -0.0483389686150315, -0.07116693231710604, -0.08176904438303248, -0.09600214922582342, 0.2382744196150184, 0.18011199678217987, 0.016987394180002377, 0.011772233495233559, 0.19095842446037328, -0.25493334835779086, 0.032235551495044035, -0.03437389304898793, -0.04450381905576129, 0.008896686145732058, 0.12251124884278349, 0.09148279448136613, -0.010756326616439545, 0.006984895331937048, 0.01601535371226003, 0.20454525245427235, -0.13287738637992966, -0.040129778472295465, -0.020321495449865654, -0.1262737059722089, -0.0593378039824136, 0.26480442224934325, 0.27997919281043354, 0.057341723234120553, 0.032352644141342146, 0.06099523095630601], [-0.11591903342516344, -0.2464580709151377, -0.009347116176738461, -0.07505865072578687, -0.01637335736419254, -0.04853721192243594, 0.025342356573673157, -0.05770291841830016, -0.14253387395304715, -0.04607461108612031, -0.043468427196113935, -0.1046936456133744, -0.09672088424183008, 0.08536905236761126, 0.01981381879766857, 0.05935796357355525, -0.039534640869109496, -0.10411084599660062, -0.02730260417338296, -0.1667649253783444, 0.06634662883017986, -0.07135367874987393, -0.18918540141733337, 0.06017776965536104, -0.020549861759745217, -0.11162786800074215, -0.0564113352240134, -0.06716431587704487, 0.028647881086433274, -0.10448027680791624, -0.006588178127452342, -0.014932404527982125], [-0.016593908942082396, -0.28477796266913435, 0.004927476104145685, -0.19340622355595835, 0.07235041818078729, -0.007465455388319159, -0.05634220093952603, -0.009818715488569767, 0.12181119024408664, -0.1448106223841775, 0.05145606410930929, -0.07950364885441213, -0.08220019866116383, 0.0742662149139139, 0.00738935821604075, -0.17899618022279165, 0.04601542244320184, 0.094094138563315, -0.0426903577631102, 0.05688900587510707, 0.022977980418574625, 0.0827376621399513, 0.15577080473416843, -0.0723877529903648, 0.12405434914588208, 0.13473645140826074, -0.07881472355778292, -0.029509283335778982, -0.1638443814143892, 0.1181510084369237, 0.04170180830972741, 0.12907909411508017], [-0.05220870104984527, 0.009510070652246532, -0.011027939682134169, 0.03758534028711301, 0.08292659110874692, 0.04166254823130421, 0.1173749185557634, 0.0293104367344618, 0.047894127492987514, -0.00975531665557229, 0.06723679110072733, -0.019106272955231745, -0.2335795923216008, 0.15651832281726338, -0.0077183363148437675, -0.06796349655578372, -0.024498024556574783, 0.15267464326249647, -0.17189373028766433, -0.12137691753396761, -0.21242375434002297, -0.14213369429248077, 0.05353153920660881, 0.11839604798231644, 0.41267866252897795, 0.04346701675488435, 0.16462015585287929, 0.06402969762386143, 0.029546349448216096, -0.09330578130345782, 0.0841036685856657, 0.015209945436984687], [-0.13858073575291194, -0.003214220537421922, -0.21417723260030314, 0.14721497835706504, 0.23307473654651056, -0.009717794203320751, -0.04545187628007253, -0.014760743622434487, -0.09834169341464098, 0.08383568851708191, -0.2010949597527766, -0.10896422976490236, 0.020629792753539183, 0.10784427350425572, 0.19023509980409592, -0.04719360697847954, 0.017000877471827183, -0.007627028143105553, -0.16688411012839216, -0.04145030718467989, -0.17398235067861229, 0.10832970920395875, 0.017491773075619506, 0.08939839754321628, -0.07629103869620803, -0.08612242890951478, 0.17503209606413409, -0.08249388794521022, -0.19448517081375427, -0.037406809888705254, -0.1110775619585016, 0.09697390830911139], [-0.01816923610517897, 0.0791182688229538, -0.1364785557932913, -0.05966562121810077, -0.011991458759453247, -0.3154901732098787, 0.20096944768455915, -0.14980847274055564, -0.07454457115767459, 0.06474952293295272, -0.1590424270022994, -0.07262173550030186, -0.1438707742890768, 0.05014541126508257, -0.08662666898768628, 0.11001554188973184, 0.042281563357038074, -0.14399786580847204, 0.1347485031842802, 0.018972531959350968, -0.02637898460293551, -0.136711641324683, 0.08104660095762253, 0.02373542894457261, -0.17652915186824303, -0.011892448561194468, -0.06683352060657255, 0.07332860993412088, 0.14298199991223928, 0.03698056391731034, -0.136932613538028, 0.05178579808992589], [0.036735391395766495, -0.16667863674696048, -0.1462541272384471, -0.01839736145675122, 0.25115669265388635, -0.1263133331916112, -0.07923833037050801, 0.20487243882292888, 0.06915808345477258, 0.22830851519885936, 0.32915135183680155, 0.20649190335527312, -0.006180813153275984, -0.013888837697223292, -0.09012902871880835, 0.03969756182450398, 0.03347837249372536, -0.04678035398291409, -0.10441323819357264, -0.07481451897034584, -0.020052839191753498, 0.11409789082170983, 0.23126701991728946, 0.12533315760791777, 0.13082303959313016, 0.11317004767906336, 0.15356658711543048, -0.1003068011187585, -0.03326699899671489, -0.06983553446259179, -0.17213110493080272, 0.06426661021532201], [-0.05577364246050959, 0.1412318655687223, -0.07947950618251039, 0.15050474163379918, 0.2796800575396798, -0.13778840310466733, -0.1270382823433596, 0.07597130039844856, 0.08778790689304922, 0.022589145700578243, 0.1416239949613331, -0.0060265371910827835, -0.003487851938890633, 0.08336609277725723, 0.17313734048725116, -0.0019600361027510664, -0.1063417469778074, -0.003897556247254753, 0.0022439107005087972, -0.12614530486775782, 0.11500682342374853, 0.10903700702094943, -0.08348787379107471, -0.041472430397561946, -0.007250438635340061, -0.09674374650206001, -0.029216688763242495, 0.24846958118864615, 0.10826187945272009, -0.13728409692005808, -0.11207760080342738, -0.11770977703995601], [0.050134704404006906, -0.062320518960792326, -0.10322624083761388, 0.166607856318142, 0.06288183764213195, 0.11216256601684403, 0.02824066976729965, -0.2360017390350633, 0.02183363098500747, -0.07949654073262762, 0.05394633520679576, -0.08038747314648671, -0.1493083151496784, 0.028133276809843868, -0.026070172434305913, -0.16764299289253345, -0.03223935859207391, 0.029766886216322185, 0.17455143099532794, -0.08368958683084071, 0.027776096347273554, 0.038560877749664345, 0.09207391482911102, -0.0976454563700142, 0.08557992222478165, -0.0414282887243069, -0.24816371166641862, -0.006098723588271032, 0.2155525101865075, 0.17071635917681613, 0.1347629180433084, 0.00208306649072713], [0.06950491856572551, -0.1113908035473393, 0.04665757401715964, 0.012421555495389886, -0.13051563892899137, 0.011520294369463037, -0.019048852594780664, 0.1744902934501073, 0.08364955675652049, 0.03565930044330284, -0.21816220163208233, -0.01116745113844135, 0.1447543497236668, -0.09299473052568183, -0.03344870179610903, 0.039663517746895055, 0.05726634821135615, -0.03260531744481953, 0.15559187715611836, 0.02591144015129702, -0.02039507723457027, 0.11550392316639482, 0.08401549643461348, -0.031105616644167982, 0.08120854365934593, -0.22280384360315986, -0.15259865867682013, -0.01516301156559991, -0.056348069046744505, 0.007773907250646393, -0.025339814998784353, 0.0017626429600810065], [-0.012731253837015441, 0.15644750684273176, -0.07471989837467623, 0.18913698995537184, 0.05347820776168052, 0.10683663922308652, 0.007013172367538403, 0.2757100428702383, 0.21615088030952723, 0.0008524531597117909, 0.0804118167213939, -0.05140066191832677, -0.140598982548942, -0.15299270994126807, 0.020856038772856522, 0.15752860556885045, -0.0494861726269975, -0.063321788010184, -0.00874554984405578, -0.14512500654239377, -0.16396288118888458, 0.01150979823797105, -0.09635551358745177, -0.07126648041917628, -0.14273040919535568, 0.08180869873462697, 0.008829895582064932, -0.054304910875116325, 0.047473320018319214, -0.08378858402428352, -0.15740783441176756, -0.013462162219473977], [0.0018449354893241424, -0.06219556124870155, 0.18082873017997728, -0.06501652401123198, 0.19846151445459836, -0.24543308839144815, -0.1080180869204626, -0.0010877963732857099, 0.1224700412117817, -0.06822761840919198, 0.08371259833996081, 0.03499582732255134, 0.04698617461927019, 0.18217984443193108, 0.23441276009880824, -0.023148535922945992, -0.02380469212261137, 0.22223947705758243, 0.028013130648355575, -0.24597300150135581, -0.09215147471843238, 0.2780633551836724, 0.053883695618921125, -0.1305661664491802, 0.0003902201994694759, -0.11059225181957229, 0.07638466841329314, 0.13320907925048547, 0.12424012581381585, 0.09012696766734452, 0.08513378054432312, -0.03118156102634269], [0.01787317780874899, -0.12382844287030234, -0.05371228113894488, 0.05243023171679276, -0.007583000461135598, 0.10353602223274247, -0.06888358792277623, -0.04284593476002799, -0.28894057272829593, 0.02879131502129431, 0.1927826900934879, 0.007991287029728181, 0.013548010677955163, 0.1148814030380615, -0.07221767179254414, 0.07746053830317697, 0.05017524725436008, -0.01265660356426156, -0.1589047626649213, 0.020702481727862893, 0.1753393292350384, 0.12733819349532338, -0.032071903684979114, -0.07074050612096916, 0.07342689432776915, -0.08025313998387903, 0.06371601034428563, 0.10037464794611561, -0.08228183754857882, -0.19576029587990457, -0.08027765324314826, -0.04800430687096855]]], [[[0.10666984549867653, -0.010443572380090832, 0.08057624093658144, -0.15817662388582135, -0.0655973753563957, -0.08304337428348361, 0.16898404707854764, 0.021241253845032424, 0.12608128159794207, 0.0008125177958298374, 0.2047699473373385, 0.11224912230314464, -0.0765980776672455, 0.01955679020524715, 0.046239968956997286, 0.02784353873376733, -0.158863226492045, 0.05347513782997364, 0.08817943498358552, 0.06766281919233272, -0.1073236269435675, -0.0680450185720672, -0.2801904124336063, -0.0934330750383817, 0.018866687462167422, -0.07906840978580429, 0.033621029957790566, 0.27055977625097477, 0.019970726827397447, 0.023691440724972167, 0.03517331737295548, -0.15098210645822555], [-0.08565703181357259, 0.08729256991885141, -0.07248711102182943, -0.031839491839680135, 0.07811297889591473, -0.03352089804681898, -0.015702135521341063, 0.01778343266262557, 0.026153802157051664, -0.04553917878404214, 0.010581471233085164, -0.06696947009503992, -0.10843532990018066, -0.10158374065898307, -0.023991187980404442, 0.01362478621395003, -0.31615073615845524, -0.03796603870783428, 0.010909325361754166, -0.001654050846708406, 0.07777464047884011, -0.04401425418369032, -0.015839444961913297, 0.13691552146679778, 0.1887568847396847, 0.07985876853061034, -0.150095374415336, -0.011243354094340435, 0.07605707730625172, -0.1385799629122237, 0.07504345328888623, -0.01382668160637515], [-0.01567289653734244, -0.27074878195291924, -0.08347038066559172, -0.13066954849687282, -0.08742877223861613, -0.07799426303244014, -0.030612761726000606, 0.03959211204268422, 0.08508191036142318, -0.10831689950953452, -0.21243560373301318, 0.009184123588722629, 0.04194885418688646, 0.23308431521992634, -0.16483891249079508, 0.4226694040307008, -0.13220204989595724, 0.23147066986422274, 0.08430549163458056, -0.036322989596961154, -0.1892059370138704, -0.08983224392538132, 0.04815229980243609, -0.15267486104721245, 0.0365680757354897, 0.13117765689793978, -0.07425560971133782, 0.15149230626854374, -0.031242324174311015, -0.18813514927807984, -0.1352506565856694, -0.025913640715230155], [-0.05962245042916195, -0.2027150201250153, -0.0501823963909336, 0.07832871087136499, -0.01267365850774699, -0.00381430887039106, -0.07687243223522627, 0.04033757939630745, 0.06235240304479017, -0.08559331461684051, 0.0007379777915532624, -0.09852350799886785, -0.2554878892046363, -0.049696250557935015, -0.002818705000154351, 0.05583248033141433, -0.10858389612395442, -0.04528446893241396, 0.1216908098563834, 0.10761366267145712, 0.030532775013311836, 0.2516799943741341, -0.03174003161321756, -0.04709581072683885, -0.037469518308199286, 0.05550658119420726, 0.19209347319266254, 0.2442909668334718, -0.14354617929437846, -0.08912192713558473, 0.054266745365486396, -0.08085812568753376], [-0.2551898015087157, -0.00862323495287411, -4.476618395698298e-05, -0.14683474385933717, -0.12148260871661283, -0.079794374919596, 0.16674518573268068, -0.0005161494102188243, -0.12473955068813981, -0.0531195060688921, 0.005210217256644679, 0.05781928726218368, -0.004473462505450501, 0.18793479949339872, 0.12182699927266014, 0.17152250018241702, -0.04646428528240888, 0.2542907565064614, 0.10037604918516765, 0.29715097701604115, -0.10100287389629774, 0.13571714979184224, 0.025769816033682873, -0.08574550852432518, -0.0175977040082753, 0.0625076602064276, 0.1817354972879884, -0.012105048665973119, 0.19349053916753767, -0.03671812881314634, -0.03524222289716796, -0.07945849881326535], [-0.20159394277629136, -0.054024376296625154, 0.014831606089463675, -0.0932102327970505, 0.3929059940022219, 0.21447645585096076, 0.17602977194038014, 0.13503835803917794, 0.08043357369059842, 0.0800461350788915, 0.1384285325942814, 0.20355934511044033, -0.11240192902986602, -0.006462577742772382, 0.1518342412637007, -0.053942178638230844, 0.08542553917792425, 0.06253657440226738, -0.007332174918982936, 0.21511339468480045, 0.08337964852929375, 0.1688857736058519, 0.1428768563218228, -0.07134010307971714, 0.14731485049845064, 0.03249777218859473, 0.10099238896498554, 0.03367495105162573, -0.0181624611274251, -0.29056986667849055, -0.14090989001822168, -0.23722546150622936], [-0.08185145866436133, -0.16989825034726594, 0.1618308981322081, -0.09924811607815637, 0.11600186130711641, -0.02939657236140331, -0.08725776677524441, -0.08524695417413113, 0.07597685757003769, -0.17914671167901228, 0.127657794094441, -0.01065752432341908, 0.014113032220120838, 0.08641989137417608, 0.05485901595549753, -0.02500343832712506, -0.009272840340688114, -0.18352579077901784, -0.0768414195854787, 0.17752561824230081, -0.00953084536149378, -0.0011527096520453739, 0.1645111815326126, 0.08153197979290354, -0.024947318930761794, 0.08489108799913339, 0.2849171724776496, -0.05448875642552143, 0.13358706111479948, -0.10678047683748321, 0.05325325836754626, -0.05130084483167884], [-0.050544379789254835, 0.041494661780560556, -0.08790151161474744, -0.0012201303207103522, -0.07932213775799261, 0.051816234474217245, 0.07057868280685282, -0.17674159417406893, -0.013305301859691553, -0.10824846886013187, 0.10952022988877035, -0.0801082310381715, -0.07546815237145928, 0.19058818671149852, 0.0858079579934279, -0.09234821585160921, 0.0070832198064106205, -0.05635175503056874, 0.08732452613786847, 0.01549963549326528, -0.2510960533482182, -0.08239130416679982, -0.01805434600124962, -0.09419079492048989, -0.012063238313839587, 0.11028838185524385, -0.04299438609083435, 0.11795728031596384, -0.1354787028726192, -0.1996597142045093, 0.027413447372171506, -0.06033969011928114], [-0.10443540117072596, 0.32976484509519394, -0.16304179582007125, 0.06836244155719576, 0.15539908040062528, 0.05411990751673742, 0.14059367162432312, 0.13823438825458392, 0.008680756660669949, -0.02471718048529972, 0.14041987267505515, -0.16869588623111792, 0.0392930926464321, 0.06626856222355859, 0.06397036732633678, 0.13512550435230966, -0.06541379044922735, 0.0035053955560198605, 0.10435857994623278, -0.11380080985532919, -0.008165822925383861, -0.13377847483213154, 0.13555574514032487, 0.1375511169608952, -0.07414552002098662, 0.11843779307382073, 0.07115942587961684, 0.0649029733110075, 0.00862992653555851, 0.17370209886882848, -0.0523568921013884, 0.0690867979462466], [0.028125147059346763, -0.04039130983385252, 0.13607795710240275, 0.05073819736830794, 0.19418480079068526, 0.0938195764966317, 0.16947961213659027, -0.005378955896742511, 0.195952037542746, -0.003906733193776199, 0.07476885999310352, -0.0771912679517531, -0.1426695043867944, 0.04329353329398526, -0.020614021717875915, -0.027053956363022644, -0.16829047716511106, 0.14558440174391804, 0.13794891039492121, 0.16938869345305613, 0.15952990947787493, 0.007116448960632168, -0.024944710404272666, 0.1068029170812925, 0.08838519755985044, 0.06585215424535897, 0.09076159670392953, -0.09593602976941695, 0.10841808410673373, -0.0779815387100688, -0.2554374462775664, 0.08296421043377832], [-0.012075802715520194, -0.010352506962877208, 0.08916054289037699, -0.0006788447595412354, -0.11861759331061289, 0.045135851695253505, 0.002474698962658981, -0.03523210011502645, 0.10019992569594294, -0.013613788330348556, 0.0017198320795682623, -0.17327779871955862, 0.24889365283974701, 0.06515991882981384, -0.03646110955547797, 0.04141803290229129, -0.01146286272403226, 0.03023324678085265, 0.06843167317844594, -0.05177970898076279, -0.0598046440695131, 0.11361229498369878, 0.05596051757169974, -0.08777413268412462, 0.10358741553208525, 0.018987096031205516, 0.12663645287843642, -0.0897839287202798, 0.043858419717897716, 0.13343661649095928, -0.05868234634133153, -0.07799886444332534], [-0.14488214333574057, -0.0362291070078367, -0.11368947758099082, -0.048498000609488015, 0.1941195324880564, 0.15479913075222598, -0.14955893737765888, 0.05950177565590408, -0.12487888604360599, 0.04672942258848407, 0.10384359327581989, -0.044661880632153025, 0.12012703841350633, -0.11241987370396268, 0.2383946141509925, 0.0014094449891465283, 0.21433375339910482, 0.15780093545724358, -0.01198150498020376, -0.22770220507108513, -0.04875714963129688, 0.1933461298044599, -0.14154549210483286, 0.09768218487183242, -0.14122059370672665, 0.049943960101708144, -0.01773639434613074, 0.013722472608359971, -0.04136283883664393, -0.08911299380771726, -0.030088294621537295, 0.11206893813443132], [-0.18395490269903042, -0.14673474971724643, -0.03695827589626844, 0.22982298462913323, -0.03916024776788546, -0.04873532323770484, -0.059913365055767095, 0.08070690182284082, -0.13511057409816382, -0.035849909232804476, -0.020162982349755842, 0.057062912371488535, 0.02876258251614692, -0.05007946659000974, 0.1964697369979774, 0.060668627409377916, 0.219588094196171, 0.02938375055408906, 0.4136976096212874, 0.1376968880548549, -0.12604007478834262, 0.01938056098640045, -0.009356699104543805, 0.09477610441891168, -0.06052961522414352, -0.011062766305797058, -0.07653428579327612, 0.10058634171812313, -0.14802439031568734, -0.08713424935477712, -0.023429776018074975, -0.11410449969410102], [-0.05908655793914855, 0.08971978886250874, 0.1796269410328889, -0.10240350054300762, -0.042321177004671515, 0.11313888828238751, -0.1956773166085671, -0.16561292490622187, -0.021310998522378128, 0.10164109162074157, 0.18028194243795037, 0.1793358967245363, 0.04958474447459811, -0.014088434168934768, 0.19636523698716324, 0.16750651066156094, -0.11199278031547727, 0.21430117230264564, 0.15155007003778923, 0.011232880402341595, -0.19298191117642566, 0.020200770043100613, 0.017997812401926883, 0.035498725533783415, -0.05146962664233962, -0.0790572593841676, 0.135194532046095, -0.0854654275301976, 0.16925361935193814, -0.06097774730849281, -0.12497727443477012, 0.07576064092192], [0.10735793242221284, 0.07874287762080842, -0.03467403339030198, 0.010444984177898619, -0.09336516260241162, 0.24914267957132752, 0.2395524841444301, -0.05229158063904479, 0.03622776335619136, -0.050610830791394085, -0.030855444943856, 0.021308193081393634, 0.07938458440400599, 0.07040291535058908, -0.2086754425046184, -0.007408990000536737, 0.0700710961364441, 0.2001716787612518, -0.10598030124644063, 0.08248827094134191, -0.008149796050747076, -0.04427713959434121, 0.06924077136993101, -0.07050407030687987, 0.06294591071377696, -0.060537561637501645, -0.035517939855057364, 0.0999186237255243, -0.1484777867448304, 0.09335229567282287, -0.0623296045616972, -0.17637827771567915], [-0.08328938386048618, 0.1497826265793441, -0.02833841903301114, -0.02644224828709128, -0.2003241751552047, -0.17250939661939502, 0.0858425813459935, 0.10050723681595883, 0.16612506584140674, 0.14431148837813737, 0.08406866920270599, -0.15899457903031336, -0.07951728602096747, 0.02261328799417539, 0.11522751650102905, -0.20299873977424335, -0.08065185829399955, 0.016453472301736875, 0.09569692388562946, 0.2204079820888392, 0.10224740984646377, 0.05310180624420519, 0.05496169429767141, -0.35398666595592604, -0.17171624100828686, -0.05504532291842469, -0.020825072115030208, 0.2849901657458552, -0.019008373481443734, -0.1741204880086612, -0.027013899402630957, 0.021895101409883776]], [[-0.03527729972062384, -0.18057910548029799, -0.014354717442717086, 0.026837540483785782, 0.05361734517802337, 0.2951405235709123, 0.06275935532863723, -0.06295959167265447, -0.044778869446553834, -0.06704991251321575, 0.04359999660191376, 0.10872371489735165, 0.10982865882534326, 0.00015612258711076636, -0.1873989251859793, 0.023800312416001262, -0.2378225919844436, 0.0663656734287948, 0.1826423499006152, 0.07753022877090428, -0.0239739746747396, -0.16260153554845647, -0.15005475269993443, -0.1620015782367995, 0.13457628446538902, 0.002284173514343928, 0.15612287271113479, -0.20101940854563155, 0.03457687365052265, -0.02054005171170895, -0.05360939343710983, 0.13791925471827243], [0.26202588781839603, 0.045102550914769335, 0.007487137816417011, -0.2078284951200271, -0.005463484652022893, 0.06064879598640979, 0.058460225654887905, 0.01750945429544202, -0.2168158922527793, -0.16652954113720886, -0.22673816054813542, 0.058781999223620644, -0.30062674814796403, 0.19650812282076816, -0.17206691479591332, 0.010648184389345693, -0.06976742192564905, 0.03855616134327948, -0.14816426587844728, -0.0714399057403387, -0.12694974809293338, -0.18546094488348103, 0.08409412655862679, -0.11532805747552645, -0.11684059191173292, 0.168667643124196, 0.0877840732959582, 0.15788936208294144, -0.046522314004210724, 0.05906347489194873, 0.004884248267439942, 0.09436693333511495], [-0.0761302245177747, -0.030193912434644476, 0.05602741252102551, 0.05510300407284743, 0.2517049020774858, 0.23579839936055322, -0.1539338527087306, 0.15971883536368203, 0.1104291056179084, 0.17866251718913134, 0.004521910058344462, -0.16602327673420217, -0.08188953091461318, 0.17844013452465193, 0.04418133324978031, 0.2182359007591641, 0.061003314561071505, 0.009931472314494158, -0.04484634959738898, -0.03222708952046712, 0.04010066269715361, 0.12605525444812143, -0.0006250063244277154, -0.01251948474463611, -0.10309882235452861, 0.07820338873179954, 0.12141440698942603, 0.18318295714308785, -0.14584816582496626, -0.090379221473024, -0.2686376109036635, -0.0400198421205077], [0.13464102112971377, 0.06687905168411008, -0.08256740924967404, 0.010897826727362916, 0.10262223914330808, 0.0029642429991195846, -0.11802160175958694, 0.18330132611691494, 0.07538965226301335, -0.09854980277521856, 0.2773941988455819, -0.06271300458724387, 0.01963357809442387, -0.022019015609736636, -0.1862632169519836, -0.267826818405781, 0.10018100274627591, 0.014036579205978877, -0.19948963678327125, -0.027790680732901737, -0.01808969816378428, -0.00943668310014253, 0.03760614756692781, 0.03982789181918914, -0.13363577143591848, 0.1016461363204757, 0.008604240622627936, 0.04898753976910717, -0.10306056200441821, -0.06667644751496857, 0.023657465746178732, -0.07461230525539862], [0.0780908025980693, 0.181786232386841, -0.05823669851575754, 0.15879432264331456, -0.09766967695320265, 0.25166745087496967, -0.21979952406283979, -0.017682094285467298, -0.06472600011794634, 0.2739535182657398, -0.11326908834166638, -0.02637000005278789, -0.22538142846528988, -0.0017239476913316644, -0.08321731673107498, -0.08435223826046129, 0.08498622555809142, -0.03223634404981622, -0.13716833732058473, 0.08400592547411376, 0.036916533208605724, -0.04075485992700493, 0.1798266628908163, 0.12395558886174286, 0.021604990049533222, 0.0340297785326768, 0.005524877754798778, -0.015456111262643405, -0.10952856669507428, -0.00034806422578154497, -0.08898866341482144, -0.09555572617328914], [-0.04235026582702967, -0.12582590921766618, -0.18041158551769915, -0.0692049061918616, 0.011731364296196957, -0.003543923477751928, 0.10136807339064519, -0.030580244802576005, -0.16372657893557352, 0.10463217490245366, -0.09321670829431454, -0.03463430835367765, -0.008856968846232289, 0.003474771852234255, -0.06917216310566691, 0.033423959809197094, -0.22274021148499457, -0.025308691480763375, 0.1097042193916628, -0.009366442110792057, 0.052214535934144754, -0.07353111406356912, -0.07456755705208656, -0.11083137397021985, 0.16130083769390435, 0.17577412929583508, -0.06978143299160004, 0.014236243704977905, 0.12488950811859248, 0.06375082249585534, -0.07654516862856245, -0.12692494982264202], [0.11880348427732183, -0.08178319064651246, -0.00979385896091795, 0.1403865515550275, -0.05182301514747662, 0.11461205652879469, -0.06482352258795987, 0.03655987959139856, -0.15298610439433602, 0.031265214459289994, 0.08641367613524358, -0.02732772887898695, -0.005338120762029719, -0.06678705197036779, -0.022969894754258136, -0.07032800249775785, 0.19628540907677366, 0.0711471012151499, 0.13980904599356755, -0.23718713937423555, -0.08494229057820823, -0.2799202341060189, -0.0679706511278585, 0.07277533314451178, 0.05818075870128527, 0.0086078827482404, 0.04042252935803464, 0.051921550730298714, -0.1582830880281726, 0.08810143451060651, 0.04663761521113845, 0.08679775062435245], [0.10959369076740408, 0.11580114799645154, -0.09195991398352885, 0.004911415905049498, -0.01166532686702103, 0.06309528727435139, -0.14211569634356014, -0.025359245436202528, 0.1343425699000941, 0.16886706292882495, -0.0027900063354745885, 0.06098784246020177, 0.03908225747480289, 0.027187290487555502, -0.26493436498774126, 0.28026089730603143, 0.07071523147286252, -0.0008496070123720779, -0.0030426758745057798, -0.03064870091899142, -0.06752150424003871, -0.07813113677418598, -0.002809641772282737, -0.11293564342512415, 0.19223301225047967, -0.005017726435972535, -0.288630021806651, 0.26274843433745915, 0.07577741137745873, -0.16039248966705155, -0.0853667660319593, 0.34439185027478886], [-0.10331424779553817, -0.04411532702786565, 0.26322964792806564, -0.10826399653889059, -0.29443085314302675, 0.2722971030067797, 0.10332736734098573, -0.032300262073814694, -0.03484064398007352, -0.19314619946868067, 0.03349428607978199, 0.024679975145622365, -0.018298930097952183, -0.06332116327942368, -0.0009338364557688282, 0.21409415078407015, -0.016130364067329, -0.09215620062245893, 0.16731379967019322, -0.13499211891238105, -0.22781528781087595, 0.03206681253759017, -0.032078341823199796, -0.006015968009821734, -0.08518122052127755, 0.0401159901573842, -0.10442244272110285, -0.0895030661879472, 0.04344515135398002, 0.14753483368019535, -0.08299887539896483, 0.05961235280599491], [-0.08051175837802343, -0.016208023192789703, 0.0633837400332846, -0.07358396541905231, 0.01324324704396286, -0.011606101780664202, 0.007786869742559806, 0.1291572260896486, 0.07711979029090049, 0.07726421956603804, -0.22634941713291637, 0.14361072067279868, -0.09722613296099146, -0.028025283876783946, 0.017189024850820103, -0.04813986430836553, -0.0863556476368471, 0.017136991650843668, -0.02230741336377001, -0.035807584853911535, 0.04029579691671538, 0.15505098108868182, -0.0011550315685871539, -0.08589577231327032, 0.06938721711428354, -0.08927289984163413, -0.10373779763105408, 0.19012690631161236, 0.046268842753582236, -0.19319209971458903, 0.14778120430172131, 0.1831156804582066], [-0.03533895317099538, -0.001106014589959737, -0.12068293559633889, 0.029514802970557752, 0.06445121509507355, -0.07076978975202637, -0.12038246654611912, -0.03578830478960428, 0.13138593251279634, 0.17307741121823184, 0.008158868579130946, -0.12321636970620026, 0.159846935155043, 0.0699990827111334, 0.030762821752005162, 0.04514096366299862, -0.14815101888680443, 0.17539081202001455, 0.17790024822040493, -0.03892966599821608, 0.02774897518706185, -0.08896646638953287, -0.09755484925797199, -0.023218167194483916, 0.036253930270136896, 0.15800690151978394, -0.07626359711283973, 0.0321324642560913, -0.00840240185318364, 0.02609417432045358, -0.251846348969066, 0.23516802877672546], [-0.08938940451750012, 0.18994930023260165, -0.1601048551150668, -0.08076702430899464, 0.08772038790100992, 0.12830136138499462, 0.16530890002206322, 0.03684018030709857, 0.2623881932251601, 0.11487222159801165, 0.029434251710146235, 0.010283117223287423, 0.09501768980541601, 0.038999130384890134, -0.1417878102584519, -0.08068407187894155, -0.0506601628346458, -0.026695502824622446, 0.08450626570642436, -0.09781219308324526, 0.09034172662220813, -0.04528658671006954, -0.03341395233656743, -0.030635727374616478, 0.1369943945702997, 0.08228157245575742, -0.15028544839528585, 0.28176900150178014, 0.03326253150857504, 0.021969849391864898, -0.13676922212532724, -0.2384876516272469], [-0.052110855321582834, -0.017697228437868133, 0.013030195305566724, -0.054313747094060276, -0.08155434532331783, 0.034886824863445416, -0.14772911080642134, 0.0016215320660760426, 0.055901960722939376, 0.062356614300006746, 0.015828235385795517, -0.021040639856283357, -0.01487679405216419, -0.13887979227334718, -0.006284323255301557, 0.0053267679764732985, -0.028759828043943926, 0.1460940637232979, -0.07439127554989791, 0.10887634912414018, 0.047253872384392576, -0.10911621852894575, -0.11510530593077203, -0.021288449980814146, 0.08870239619287822, -0.006809323579249851, -0.03688180504388822, -0.12125657576828619, 0.15208728646557776, 0.16304427211483546, 0.2149727009083546, -0.08820524431350085], [-0.16310631900540326, 0.14617314286698674, -0.2103262465854238, -0.01797099980100362, -0.15143966065124762, -0.05161217269114423, 0.09636467337203102, 0.1397815310873736, 0.0786598241082888, -0.027251102329617704, -0.05669848079030666, -0.0466286866128673, -0.06240397436704279, 0.1459063514880544, 0.04660687693942045, -0.08579060008224254, 0.1556677036115271, 0.01477398301143848, 0.0729095668060958, 0.2632175766389492, 0.09454933837403996, -0.03750762306867476, 0.07319177824064309, 0.01757762783352527, 0.10986415965599655, -0.02249263136861782, 0.05489142039763778, 0.19869274707436102, 0.12512625423041923, -0.08067743716392532, -0.15117313759507123, 0.06551371030496383], [0.04578524325326943, 0.16650411996911935, 0.014074789678746652, 0.09294226079256074, -0.17804651259098475, -0.0861091773478063, 0.08911156243019625, 0.10335882008705662, 0.10412634926584267, 0.13167119037893354, -0.04449864029421044, -0.06888876780046903, 0.031172084267043168, -0.06811875163276672, -0.019958389688959594, 0.087288221418174, 0.168579154014867, 0.1658971472412684, 0.09183037570558646, -0.13500362826597478, -0.023948801548742505, -0.02905443268767964, 0.029185040261946793, 0.13424577834639417, 0.1785286090010546, -0.036087897764701865, 0.006188192475047904, 0.09808267954390901, -0.08181030799887593, -0.03785877209551605, -0.018160674947612827, 0.18760193712111659], [0.24207468766057808, -0.053485692787674004, 0.08153878592695633, -0.13920596077050898, 0.28404347787868867, -0.14929530210395683, 0.01666883366203487, 0.14569855926664863, -0.174666390879978, 0.029287959578644048, 0.39431616670902186, 0.10293462600663479, -0.05212165246069695, 0.049819081080554745, 0.0355627571947184, 0.07972621057388227, 0.05023513371199016, 0.17818884182765304, 0.0661055483924811, 0.04871623480596816, 0.2099095452374499, 0.039876996960799466, -0.08962494664555737, 0.006075712352332343, -0.09202032718950971, -0.018262067624329272, 0.10414196642097757, -0.04549371355894163, -0.2798905474213352, -0.09844203400043094, -0.10265594392156885, -0.08018726355313208]], [[0.08824814735389065, 0.07752685469754118, 0.05795376443293773, 0.03201531873453391, -0.13636249310910317, -0.21294624649361382, -0.025760134767915922, -0.16662837326445945, 0.17573461448828026, 0.008062428194842904, -0.1954872016985082, -0.03756575980164878, -0.004567279344984175, 0.1058345188363762, 0.07965970277256451, -0.08537460353736057, 0.055537341500472626, 0.16480211383789617, 0.0407192685616847, -0.0535107372511478, -0.008434590593240135, -0.11906383696619452, 0.0752392359211306, -0.11463928483040539, 0.06875983441456722, -0.019712304830956713, -0.06032275259687247, 0.16088531702073872, 0.0023285873942970998, 0.01656424057486043, 0.11343546733636328, 0.04943563988637949], [0.00981398153443376, 0.07375325258301393, -0.12150270007327506, -0.03077818821368054, -0.18596668813570472, -0.13523039011517077, 0.0674672812200581, 0.07620033828392553, 0.07297152172041269, 0.23237031997458524, 0.2103172085958944, 0.06944416465393233, 0.01944202882709847, 0.019135030712564567, 0.10897314746976872, 0.12358210114605285, 0.02206854335139111, 0.048819536073458306, -0.07275385126350002, -0.15336210683389057, -0.1543340213469773, 0.16816248701676845, -0.11967591244121106, 0.05837472377068092, -0.028936335043210908, -0.2332930596954458, -0.03432681836252869, 0.13388002001576116, 0.1363303317511839, 0.016133279126321433, -0.1353527865935812, 0.17673443057368726], [-0.1251298644214356, 0.0016198830577787825, 0.12300225031972899, -0.013164241375516016, -0.04667333086368093, 0.07428163576491585, 0.0209612280339079, 0.025210812723176695, 0.016109841413875746, -0.0006600426170871457, -0.004518614455401724, 0.012938038159556523, -0.011549562662508166, -0.15784264391383443, 0.08113011963644913, 0.09435254547829645, -0.030752543551222693, 0.09301339021350012, 0.15135682872517855, -0.059330048157063095, -0.003096174256292698, -0.05643227427727453, -0.03335540983751776, 0.12696202484535582, -0.03800031957366807, -0.09617367537690936, 0.08421574108327387, 0.12268794643845801, 0.10175746868909084, 0.10435494156205935, -0.09808798485294214, -0.08337208386361064], [-0.20216204151795622, -0.10649157308800287, 0.16701480622787054, -0.13628667894657703, 0.11521987441684398, 0.2524747089951211, 0.06909709928644041, -0.05073801336065487, -0.3649370107501473, -0.05907894635014493, 0.07052820873773376, 0.21763141586515464, 0.18810424121341837, 0.15266591185995532, 0.1400696322778589, -0.14348912551936432, 0.011315211552983605, 0.21597270490741946, 0.011187717086589256, -0.03218534444596446, 0.031483753080446486, 0.022248398547374943, -0.09604221866145937, -0.018455379852791085, -0.14792250656669637, 0.16450139630806457, 0.07910836378802014, 0.042421915480108756, -0.07587266474969671, -0.0243819246135606, 0.12934469936256393, 0.06578582672780467], [-0.10704894092086283, -0.019373958164880405, 0.08696632573245408, 0.023216298256400144, 0.011269938566987452, -0.20863495080976377, -0.2945621885751102, -0.07958922240008548, -0.04497076541569414, 0.041037765226251105, 0.134049404370575, 0.15860822328762395, -0.04108855813708133, 0.15464962531325832, 0.03306969169384576, -0.04402179832418445, 0.05267692109876712, -0.16461665691677643, -0.18310752107299086, 0.099939974261206, 0.12107379026454276, -0.42615363459559574, 0.1427752834852009, -0.13330374361197334, -0.09265471215181097, 0.0017753556225599439, -0.09091124805153071, 0.14256666727436984, 0.2093172927438635, -0.17170541807520057, -0.07119621162383656, -0.10434299303189136], [0.04414207635528622, 0.2268373118107717, 0.10455463094056847, -0.04163901909147231, -0.2526181737104589, 0.03876501456496298, 0.17847878185666866, 0.11491028563476104, 0.07720521102659315, -0.0075939817683707955, 0.1886071328348483, 0.19005481216877426, 0.060585909282958164, 0.1534056824488889, 0.12420378766833963, 0.11659423887922116, 0.1403854905937438, 0.07762387566174798, 0.22050421352503347, 0.09690955035053081, 0.09313587225611829, -0.13552353238967502, -0.1184079775888548, 0.019364286372034748, 0.0512294848686538, -0.10412533671970241, -0.04183192789406226, 0.1265892024890001, -0.031618534730067836, -0.04707143817677041, -0.1373376441761524, 0.05234127583196401], [0.15021315495073978, -0.11607705341758774, 0.005598225366652984, -0.0024867774970644694, -0.10705680282361507, -0.158728247697838, 0.052395708456091816, -0.15951084401033636, 0.050099205497464445, 0.09741327448740422, 0.1382507441446921, -0.12483550242515631, -0.12146111849567744, 0.08392244955822054, -0.3421804382589113, -0.023518274919011834, -0.13206354276065016, -0.08533229584416467, -0.19417435533110286, 0.12428984016928867, -0.03072549794016737, -0.018182681064825165, -0.05849356786116926, -0.008425813216294091, 0.005907100610907978, -0.13982324514123123, -0.09917119194292962, 0.0768593680223187, 0.03595279238343905, 0.16349296728198018, -0.01738136415491742, -0.04033040069180628], [-0.20159251721270338, 0.09086001327214636, -0.05709849571214822, -0.01607788183507817, 0.03224522585442351, 0.08291986455837698, -0.01838605971938256, 0.15847764474969095, -0.19169736399859327, -0.09213612629323076, 0.17595603054483444, -0.20860618343473422, 0.2692760217659748, 0.28314500196631576, 0.12444298815053054, 0.04806939410832531, -0.019687785092496097, 0.14097506190963885, 0.10885339871405299, 0.09571447811618396, 0.11283591009994146, -0.049475419125775, -0.024662101566523837, -0.11428787880715201, 0.004054639561898368, -0.046452124934958934, -0.08125174410782447, 0.07874942309953831, 0.2087741249426967, 0.0815919633314912, 0.04172554782258861, 0.3752261364144338], [-0.06547678790380886, -0.18609137346586468, 0.21883321391979366, 0.1365383707600362, -0.071077165937797, -0.2031388884440236, -0.03721831456123684, 0.0030211782121073436, 0.052838210476667376, -0.08468505564235085, -0.1272569147508949, -0.13799869989079389, 0.06155262844054222, 0.0027616001399716314, -0.2917828457984856, 0.1423930000689798, 0.010082511572886267, 0.13900093118462448, 0.04089089145380494, -0.0014019325687425522, -0.11256037558480919, 0.04148845793218633, 0.0013007666209642725, -0.047845951369594325, -0.006914371098824885, -0.11205847522047552, 0.00011196670510126547, -0.033713878386694617, -0.10268317233593169, -0.001953142837302946, 0.08018562811436215, 0.07953075543936795], [0.12214573385694154, -0.03652616276538431, 0.003769624140581759, 0.012043001770600149, 0.04317302001991366, 0.024598245292226817, 0.016069234389752215, -0.06574450479465803, 0.1046785680159153, -0.047053712801695166, 0.041674324638747554, -0.027675070261030388, 0.0033303837903075877, 0.05700399736598934, 0.08111328130912704, -0.297858088156729, -0.016126484698701815, -0.11984546135484304, 0.16686174525901126, -0.23200192031184413, 0.03564673492398516, 0.06670538886840717, -0.028431384316983062, 0.10930753375132665, -0.20846353328224393, -0.18131070139812283, 0.1689774031238639, -0.15561012487037076, -0.024767243370862634, 0.16487999964138259, 0.09925603469326837, -0.2199174470609619], [-0.1739660269371937, -0.10504761482718589, -0.037911923677060436, 0.0365547793991969, -0.2667071642323238, 0.11967848830361079, -0.034766230788254734, -0.16973880119944518, 0.06224207458685069, -0.00996100467909488, -0.10500693238148456, -0.11109384689819313, -0.030038451197642927, 0.2685965140727823, -0.2016283923789423, -0.031180496935281073, -0.11551950814090532, -0.09794888415478004, 0.024353174200528523, -0.09693334580512764, -0.1889800662893345, -0.14179524979852293, 0.012292545146716892, -0.005880500388933489, -0.11731578248130207, 0.0921147579397841, -0.04774573860014894, -0.05469986507582757, 0.040795293295147, -0.026882385174456718, 0.047317639973173696, -0.05289330916693869], [-0.15360720506305958, -0.25674824589513606, 0.1473771533157657, -0.343462460687938, -0.10427707036725471, 0.07319972353288676, -0.04838355611270906, -0.10011329558675015, 0.13556866448333074, -0.09983523956767185, 0.04138851785386039, 0.4066208339418033, -0.09972303646244103, 0.0028421363506218825, -0.09144633975804436, 0.11271882129625241, 0.006198707964287823, 0.1419451653060912, -0.07902101710236471, 0.05121280908241603, 0.048781555397674634, 0.09438849755180462, 0.024662071043935845, -0.06914799818056966, 0.12097345307898703, -0.06253180670430841, 0.15925523602036204, -0.01666645956551213, 0.08066315783418902, 0.07602003258520154, -0.07147449581134876, -0.06983451406767618], [-0.14481615146653373, 0.1464621331917037, 0.07972017127928561, 0.08167967218797775, -0.018754751141216868, -0.20171016622090931, 0.08698595046015484, 0.004055009092268157, 0.207667982022997, 0.09541339520968212, 0.09263220167794256, -0.033675714048942304, 0.09019092020454345, -0.08788724875052072, 0.12310639171811093, -0.1854229190924363, -0.02023174911680717, 0.12933568176038412, -0.10747423529444848, -0.003670748064342017, 0.16596616625953703, -0.010951237295772333, 0.018331895543625222, -0.24604957581772977, -0.016931588418550938, -0.03661306176721962, 0.05087319298457115, -0.03703523767888092, 0.1784457162284833, 0.0986351559188968, -0.01401499266287321, -0.13999270029216118], [-0.059009312634967094, -0.11705874462242398, 0.0345189860065606, 0.1505091015693199, -0.18366729591833553, -0.07514270283079832, -0.11706201046978557, -0.09956451022956779, 0.04757809787245113, -0.1958195290668694, -0.04534314482803499, 0.02085286255471269, -0.28005403583489946, -0.033150095313269415, 0.04558016296069221, -0.007075975853425652, -0.04072334416016002, -0.04823080002256031, 0.006895947307625841, 0.1466246853193492, 0.03366540090085272, 0.15080352659654425, 0.07864372187116142, 0.020505472973439375, 0.010740076626045217, 0.26256361264373324, -0.0927763852967844, -0.07875072705737096, -0.11094223370753313, -0.0028060432930199124, -0.013613964100324625, 0.027086025739552076], [0.007485602918030837, -0.10724010399912906, 0.08651565230969113, -0.057873233468888084, -0.04024377070603441, 0.004770771641790342, -0.005929677535134765, -0.012986371029628956, 0.03083862958295902, -0.07770284998612821, -0.06760572247373835, 0.18328245640800622, -0.02710328607904487, 0.013787966774939549, 0.019827876199081433, -0.11428728281243312, 0.002780419866701946, -0.09833967534517256, -0.12128408590145529, -0.23982743298854264, -0.07190534419564341, -0.07260564651258267, -0.01230093237477733, 0.034602041372300746, 0.08361267234482668, 0.03256999737982518, 0.06550132340919065, 0.04363824945740358, 0.23189471089373373, -0.09930465963774307, -0.10471874183579459, -0.10899524177641377], [-0.2571400887813224, -0.0024481506172121747, -0.1351958150201235, 0.06718260871706155, 0.026580972438642735, 0.13458235611394984, 0.1336539025485214, 0.02230882357977245, -0.1355737231809539, -0.15742191599505007, -0.18060078104036367, -0.04070703569816844, 0.1555901083108689, 0.045139013350349755, 0.04516637564369293, -0.18137136583165442, 0.053569608588376574, 0.11374692626366344, -0.05732767586941844, -0.002782862926754152, -0.08539249563128831, 0.06933127873354139, 0.046003674995140305, -0.09081080943547305, 0.11864768262911259, -0.011098208881028322, -0.010947055410794425, -0.016121181441198618, -0.2131252660156238, 0.022856958267815045, -0.14534265231939494, 0.021570683969713133]]], [[[-0.09735825228305195, -0.03601502901368573, 0.03118254568320576, -0.13636011750317803, -0.09941429536843865, 0.06784234090812612, -0.0658063631363845, -0.035382111285585036, 0.3038348456304202, -0.1355310787493771, 0.07822930614840251, -0.13308900383354919, 0.17876536515415317, 0.025390010991444563, 0.05050927174638854, -0.10116163052757476, 0.055572969143806585, 0.11647880002131306, 0.03681978733538576, -0.11282414825661118, 0.009844190737774733, 0.148288155049979, -0.13592213718634918, 0.06817909323081076, -0.11611898764724625, -0.3096449704907176, 0.12119534000742611, 0.0033688972076206334, -0.19744809818296288, 0.15094554443801209, 0.1194074158329705, -0.08726801960094631], [0.20614455032150922, 0.0799627011634001, -0.2783862794090369, 0.0669644413031508, 0.03359249398857781, 0.09501776863257429, -0.07313815237190653, 0.16500518415497592, -0.0583215157163437, 0.014881835730773346, 0.016160006183008873, 0.26783585369281804, -0.023437000923361297, 0.09745654574411386, -0.16587553571063685, -0.012240552688321872, -0.10880442331070919, -0.006332164531484035, -0.03970351220910099, 0.028885470163479934, -0.13323704046280205, 0.14603793657947994, -0.051744527092428626, 0.011864612297428885, -0.09482268759061108, -0.16687333379447786, -0.06047287473418362, 0.09525467628981583, -0.007759147976908099, -0.24172850293985237, 0.0006584781774583491, -0.2767828620015006], [-0.043790564283570414, 0.1887528983449884, -0.1866693002962309, 0.0927179518876573, 0.01705305971125032, 0.055829978137717014, -0.10204258961891366, -0.2522175546409004, 0.08277617692810489, 0.031162820867552076, 0.08846258258923524, -0.1144876484990427, -0.16930319956635145, 0.04985395637715374, -0.1370226839529272, -0.01673180351788329, 0.05516371646371328, 0.007584237561613815, 0.019484698480587866, 0.008846337719917165, -0.01014579053140883, -0.04580899442258206, 0.04813895410776445, 0.04969018093813726, -0.012466764383100733, -0.178154866666018, -0.08487340933317052, -0.24176925387493944, 0.00036998269086681876, 0.04756318962370407, 0.15688658374106126, 0.06325383441521064], [0.10221846141616736, 0.18060117971678719, 0.13471046636726186, 0.13112296151177943, 0.25799310953024185, 0.015413518930375562, -0.06133929395802775, 0.006401623153561329, -0.021456107604578674, 0.0872621374846891, 0.10863408519987616, -0.009924884008491739, -0.055003363441243805, -0.02285304233451145, -0.08471741749777632, -0.03932122012027281, 0.13395017680112478, -0.14597075138271248, -0.2617995200675498, 0.006133674171056383, 0.08572242439025883, 0.06819367872765889, -0.020364695837795953, -0.04913190373129884, -0.2107852680568315, -0.1600245084329677, 0.01769229500805343, 0.12418871434532303, 0.30164339993061995, -0.018210065310846037, 0.046387974261228995, -0.056584787671388435], [0.0589810042969847, -0.025283148556973188, 0.06570457630414707, 0.013815630678819978, 0.016721768874462164, -0.11497673832002181, -0.096260556242821, -0.1533418697440674, 0.0020683989895393193, -0.005648258155925477, 0.15936627221678365, 0.2127609064627852, -0.03460755815589258, 0.08742466165109243, -0.08009076976431437, -0.028352924072139234, -0.0063268161083884075, 0.1542149559054225, -0.17558168520876788, -0.09619720506381661, 0.02152565138373702, 0.09926552710752026, 0.022068843299526082, -0.07284337192205127, -0.21496774817079228, -0.20565286274676906, -0.13962071823203434, -0.045755734140412445, -0.11080223927097795, -0.14808901971933253, 0.14577395724030462, 0.07316923232807412], [0.08258750227196184, 0.018546575654722564, 0.09756216320330297, -0.10107308465507615, 0.14502657357633839, 0.055179046947471846, 0.09839637411618068, -0.10008687412946869, -0.035008475149921184, 0.3053151077200893, -0.161316843441218, -0.03588159999468192, 0.0674950483860125, 0.05445051223112879, -0.15262691738017312, 0.10760030294784494, 0.04144040247683764, 0.0719217269060014, 0.14626096811385528, -0.03294206105758561, 0.021643120513017897, -0.3029150775344463, -0.19028035704429463, -0.08920550736356109, 0.08490866677385246, 0.017827078222465337, 0.029720414121905438, 0.06208513438702467, 0.1135416112665321, 0.18866110774943143, 0.10104912833603999, 0.10425024282862258], [-0.020800359928947514, -0.0310900318915685, -0.029609132176101092, -0.11112152608726733, -0.08982862038618192, -0.0847844783917266, 0.049136339301447805, 0.02808148440330562, 0.03211518999756534, -0.1607517277596594, 0.17609556525212253, 0.04259336967060882, 0.04382018142930084, 0.0096336421096474, 0.12751291538000967, 0.04419453429404239, 0.0480574401279001, -0.18142024954482633, -0.10875938569296557, -0.09664031118354455, 0.1209039078172961, -0.08788386288494482, -0.004991331475761024, -0.23376999325693607, 0.05368522566301247, -0.018786114550733524, -0.021555420422605446, 0.1244066478921438, 0.0013902264739430045, -0.047933823877163335, 0.08085623840628789, 0.0556802606783039], [-0.02038895468728324, -0.11254473644557686, 0.19655002255256146, -0.11228989506711137, -0.015198137033347955, 0.2376518407440104, -0.09667517626555043, 0.029577999516892967, -0.12004287603137208, -0.052345968400922094, -0.13794749791592642, -0.12063464004259737, -0.14083434896201863, -0.011265076784055222, -0.017872956467636647, -0.2156101576102466, 0.15153129827723028, 0.018528025209332433, 0.0931229830335411, 0.13017517501177453, 0.24371105995022432, -0.027958370546273974, 0.06617204632021667, 0.12170348859663216, -0.11629420390020177, 0.010556293992464593, -0.06783078972661118, -0.20003919815791962, -0.1480229918151912, 0.12488418052901963, 0.04069603744875667, -0.16064652793864212], [0.017973089588261788, -0.18487236718497532, -0.030159092125448032, 0.15231720439369154, 0.05910273154218624, 0.062174122762731196, -0.027995550381383523, 0.08101798877087994, -0.059158081407144396, -0.19956573281532836, 0.2583342688955134, 0.10089361745326886, -0.01648631085653655, 0.11634727377743294, 0.005183604482431964, 0.2844572610875482, -0.08795180818445053, 0.18938996649221332, -0.07129633270247471, -0.0770362170260271, -0.28040462938639077, -0.16451683397280945, -0.06335689874009517, 0.09215362867230757, 0.037945534002847794, 0.06308261820338963, -0.25927636451817837, -0.022801064005335995, 0.00798741268111878, -0.0583423195484517, 0.11074666154774129, 0.15580988526066256], [-0.13293110800346716, -0.18413722495134985, 0.21170884647875896, 0.011631184331997028, 0.07069584926615118, 0.16524286872313287, -0.028630566073876006, -0.03159855870807914, -0.040124872513811534, 0.2808720647197173, 0.24112823721624446, 0.0803855916197763, -0.11980547360664152, -0.05815283515574905, -0.08999390079452282, -0.04614907827529793, -0.053317492546502546, 0.0006581624704343681, 0.02826276401376597, 0.17722050560726366, -0.0515801923622463, -0.03334109652736928, 0.11766321807152348, -0.03658172992259263, -0.09138573393424312, -0.15189030509108528, 0.03350047647801273, 0.09936232937269843, -0.14969891436367957, 0.0689612272873551, 0.17891672760186486, -0.08893048271215576], [0.07766082690397975, -0.08021509432394675, 0.10143901073484857, 0.18567690370184747, 0.1870387409135314, -0.022961552283109976, -0.15191472823933264, 0.08884427872321955, -0.0856714127719362, 0.0550175213535626, 0.16913263774417836, 0.025506546795026442, -0.022588116564489214, -0.013625922139008926, -0.13735056044151098, -0.07506627289980215, -0.09791329785799474, -0.05584345358416571, -0.08139027070249673, 0.09180212689171577, -0.08608642335363366, 0.0003782368791165552, -0.05515183291668622, -0.06472096231065298, 0.15413761434883513, 0.035750386951339454, 0.12547913776089653, -0.12298510648622372, -0.054450756396874314, -0.07744125640108597, 0.029002875455268935, -0.11056455967778821], [-0.009748426345816533, 0.08940944245559264, 0.04720455678886357, 0.027432700720972796, 0.1351628815761702, -0.02746696850391259, -0.16172665715266224, -0.009864294073996808, -0.10850756911369291, 0.27655982088612624, 0.07747981338007315, 0.08484238734540578, -0.03146754338809109, -0.05831303255553324, -0.0633994261776887, -0.2627598574198391, 0.056541086379540716, -0.09161328198490669, 0.09121876402966733, -0.05279327910496542, 0.04072194532871347, -0.2451606352496536, -0.1630559687549421, -0.17379229932359241, -0.1317239735084054, 0.01557071310489501, 0.12098578618453906, 0.268282973154637, 0.025577883729844056, 0.04774349920995319, 0.06563987899724416, 0.07176345106746533], [0.0185689443131101, 0.03963413747920831, 0.1073246717410986, 0.06183428496751594, 0.10404227666671742, 0.045639177303296544, -0.01170123515181629, 0.018933882042911916, -0.08288212291764008, 0.021216078296498093, 0.1958866351669641, -0.024420746124434435, -0.210888349529519, -0.055296657704739065, 0.021003779358532638, 0.15672463297103606, -0.056485060726143406, 0.11121569260314017, -0.06925182734243152, 0.12922628218086624, -0.05768217849058053, 0.02735979476522899, -0.05276739606078336, 0.09249843721305992, 0.15902724370209356, 0.04676554490678978, 0.167222557258403, -0.051229335373008056, 0.038332656636566674, -0.11472581988701339, 0.03838388725103396, 0.0507986322126773], [0.11509494034973408, 0.07810466209188936, -0.15663743589505053, -0.14504667485200737, 0.08537122295610446, 0.007270607575232789, 0.08541860971637638, -0.056960040767972994, 0.0823549466405508, -0.20164876335496817, 0.281978986886034, 0.043998571146302456, -0.1257498317953253, -0.07720665120618947, -0.24107009308361815, 0.15771104830212562, 0.03152048885039127, 0.19856623681795088, -0.016559156200017393, 0.04896917406841275, 0.0769788194213627, -0.20784844266709934, 0.2338929111859379, 0.19327146634067707, 0.08474320697207625, 0.06358669534305861, 0.08369842542676806, -0.15488085745577165, -0.009131359480436852, 0.09993060122013098, 0.012114889965781406, 0.022311779144015324], [-0.015256908418768563, -0.13936893584011234, 0.0575904865530891, -0.07807947303648272, -0.15486020327079353, -0.1584326915908892, 0.03283448712014412, 0.060946050639728654, -0.09927884506195168, 0.0189667090645647, 0.10832023582965918, -0.04857517699616791, 0.1345515311039097, 0.0955454218643982, 0.13797093444858785, 0.1453022243150245, 0.05631727446117226, -0.11204113385347858, 0.07227490644528611, 0.2500757358484672, -0.03663421836942449, -0.1676219040430612, 0.006842805753040279, 0.07314416638033269, 0.09903860665928578, 0.07633757782567364, -0.050851656058127435, -0.12074597089918945, -0.155612319683774, -0.12406954051161727, -0.09577832960557256, -0.07747094122945575], [-0.06238895292028165, 0.011139114481122444, 0.25206765360852285, 0.11970622875965897, -0.08429383906797705, 0.028940081383833922, -0.14850966338379412, -0.22115515779100745, 0.1315122949932061, 0.11769339639810224, -0.05760390533499373, 0.0051613434203047455, 0.02977596539573345, 0.013453288005714034, -0.033353291287531624, -0.1646567155539442, -0.028501875043560707, -0.05988453840028634, 0.10564471982465186, 0.039516133021478314, -0.2320805451975355, 0.09442736058619179, 0.06913810864737514, -0.017811419298602697, -0.19697596111176102, 0.0656149416389104, 0.019438321805144352, 0.09085664686608438, 0.07346423992132706, -0.19048879018101356, -0.02551174661892657, 0.06018240419284385]], [[-0.23187604364333395, -0.3319344395207667, -0.012819246867891564, -0.010175692364542547, -0.08841562496306271, 0.09345751423220534, -0.0865815913196967, -0.06742276538250438, -0.04982183909901043, 0.10246220623463675, -0.13497050449407574, 0.20977063805622, 0.205323677988414, 0.060413578804155814, 0.1869618139762009, 0.1343900615223181, -0.1662384941564701, -0.0860721268820416, -0.041006352342538036, 0.13859601876227076, -0.05143057506129408, -0.08235978609145299, 0.11999221756772276, 0.0682000661069587, -0.1905005910530494, 0.062260828559953144, 0.04328918359229299, 0.17166318653250986, 0.039788212987920714, 0.07805125880715622, -0.0255853934728504, -0.05491868155654226], [-0.0060636176708887095, 0.14274003612960126, 0.21878193889906572, 0.02001678289288513, 0.2761572199536475, 0.09785623037130968, -0.06698378627903002, 0.08525957045031152, -0.1495689027651171, 0.2511771747987834, -0.03569284207870994, 0.12242936431504099, 0.21493500840043553, -0.07018345488147103, 0.23816174245051625, -0.061088784634134904, -0.13314992545399443, -0.22818378427147745, 0.019800524321744117, 0.07523102922004736, 0.08877779562527953, 0.13946646527204146, 0.016513849434442788, 0.08399391406857576, -0.11440144385437741, 0.010020408053855458, -0.015426913626476078, -0.09652975031086714, -0.29143374882938605, -0.008172325957157316, 0.057553183958137015, -0.2407532457952158], [-0.06442090531306187, -0.001733322674797004, 0.11339719852387303, 0.15895769825951042, -0.15700083660507255, 0.3334540621800974, -0.03732694934151118, 0.003568250493559601, -0.14243865781639964, -0.0553546857831268, 0.021139223608259875, 0.3347303645258648, -0.1044775235523832, -0.030490812502724743, 0.0672347085455101, -0.2439890442585902, 0.04965333487018857, 0.08876853167439566, -0.014823446614990894, 0.1482615803815547, -0.014374789069471577, 0.0844985014480803, 0.09936166301471125, -0.17684466613761443, 0.1706107706823734, 0.02424107901922681, 0.07040796974980539, -0.2716642902989381, -0.04933904771715256, 0.02340733549324204, 0.01263085830263048, 0.027148892300817136], [0.021834637166662944, -0.016027033701030063, -0.07241232339455447, 0.0070026579787351075, 0.02091502856513693, 0.18281147076780563, -0.019057755250511923, -0.020437555104680958, -0.04711121169876936, -0.048764357786067594, 0.19063927660407054, -0.060953433120764317, -0.2706307457088528, -0.08133935994600294, 0.11714275747077403, 0.18754504655758936, -0.164466331560892, -0.0008900337356975746, 0.1540274473536603, -0.1966916415450722, 0.053963320593063684, -0.08550898405297688, 0.07093612426580595, 0.0348524800015202, -0.14256541400737052, -0.10329693304696282, 0.1477425527816576, 0.0038763301966246192, 0.032263287018206424, -0.153936933819479, 0.046412476265979635, -0.19575782950556195], [-0.18035580846605634, -0.11482393360668532, -0.16884499137443734, 0.1613707799216251, -0.20119047931522238, -0.0404759640599438, 0.027687385950841237, 0.05911102916568737, 0.05931931198933154, 0.01682660471683918, -0.23421830524657913, 0.2283490353312672, -0.15918229942583711, -0.11864179368125224, 0.06582792494000933, 0.1781135086568413, -0.1753547711557173, 0.17212502145191552, 0.05606206495149453, -0.18008513976709917, 0.14942480447697132, -0.06406319951655297, 0.14612586654917903, -0.015667838419799473, 0.11557225079657289, 0.05022292686147462, -0.11733731818118637, 0.31459695889512956, 0.05116317777968918, 0.08350268272943241, 0.248985429562493, 0.049422910227025406], [-0.020943724757968196, 0.02542937044190768, 0.1647703724314855, 0.07687224890018629, 0.08281726060086958, -0.15190649869102846, -0.32746114920212405, -0.03704109298414769, -0.06369539306558042, 0.09219707138014518, -0.10733228286202169, 0.06478623309110217, 0.1314248598955921, 0.059825706448702304, 0.08789151693770132, -0.0659890997457162, 0.012189875488501922, 0.03632541012856668, -0.05641488237704262, 0.020270850041727007, -0.1115993123960586, -0.13201881984988015, 0.1000451650723808, 0.0813711051509453, 0.0059166280176769824, -0.0032805024741753394, -0.043248762555541276, -0.0272328011725568, -0.11202313372152367, 0.11316413752471702, -0.013485496450278318, -0.0848295154318862], [0.02978184747368427, 0.04859866327047512, -0.004874615240703048, 0.04652678869015332, -0.2833266570231337, 0.031767861543044694, -0.12060985461939212, -0.061305540455327295, -0.048249897975644704, 0.1053776420518904, -0.031307837947892006, 0.1070940670386383, 0.19260302723507888, -0.023024594807486767, -0.13089519310302708, 0.058150227828396954, -0.061918236328400975, -0.10998388293804663, -0.14555743076221328, 0.0856380080368719, -0.03609651898721923, -0.008647558742474217, -0.013446059895929422, 0.18364990646706814, 0.20668252766659065, -0.09782263852105529, 0.2538106247333864, -0.1466266955028812, 0.12097578422979037, 0.018873450447073035, -0.02261381834711494, 0.11826118228052418], [-0.06371578249620088, 0.10618795570920025, 0.025969184158599463, -0.05724162791023762, 0.0786471455942584, -0.13976264626696958, 0.09691824733216399, -0.03173645153203632, -0.04826527288204519, 0.009267179772334662, 0.060669884072237876, 0.05728855431063841, -0.0373459601917155, -0.06548876124388614, 0.2027353951352974, -0.0598004930555494, -0.0399640634308901, -0.03578983109895179, 0.03352150865650224, -0.014018860555557254, -0.16700537922447353, -0.06281605563507117, 0.08290465207530602, 0.01540709690849312, -0.06034525534342448, 0.09175446146722929, -0.05193277679485849, -0.14270011146391656, 0.1704821228375011, -0.11894731051090608, 0.06482670191221078, 0.033697780138749474], [-0.05959304852265038, -0.011044380589944447, -0.05937184481867373, -0.1837879667978374, 0.1606580956275371, 0.00292889447818496, 0.11782292005768259, -0.027072633981536892, 0.07006001558712545, -0.020334248047071745, 0.05805110765954585, 0.18610634918461633, 0.04460873388241284, 0.07663205835988336, 0.01690608936173618, 0.1234657657088349, 0.11417326457552857, 0.11254376043967641, -0.055467912069095134, 0.010249253073468871, -0.07886945248395495, -0.08640036267589135, -0.10782848242579521, -0.01651062835617942, 0.13188221138961784, -0.07039086256806294, -0.0893056386853533, -0.0829098873647165, 0.08709133419604662, 0.0011035223098383835, 0.07312605219811855, -0.09977642744206168], [-0.05017345503652818, 0.16828803871120507, 0.08055272414770251, -0.2907790477852531, 0.05134838631938717, -0.06196664217067455, -0.07695375815121126, 0.15311861779076794, 0.05380970783414869, -0.08791890092826771, -0.04204104419556023, -0.05046893817620203, 0.12075363187618471, 0.1896086025009928, -0.1377892135434612, -0.037209003928923325, 0.19539984628383716, 0.034123450577972565, -0.09758853449596154, 0.03733289678346274, -0.12942733036216197, 0.11534466491963738, 0.10949357672430993, -0.13076531607597713, 0.004847880606519044, 0.16773705239774636, 0.03159348129935896, -0.03825385016098302, -0.12692785193610684, -0.07949849581539394, 0.07882557966519488, 0.005530038472341652], [-0.04745533889620941, -0.06383636492963497, 0.04517486152238681, -0.023907786893411102, -0.02442175918603135, 0.029436271930821226, 0.0015372222128375759, 0.0574675986532471, 0.06345681412194402, 0.13684994556879695, 0.07739313679562974, -0.0751347140602679, 0.14131971332558427, 0.26126823760690526, -0.17878133136067673, 0.07780140917465729, -0.10167506395993725, 0.14269506483850372, -0.16137841661290167, 0.01387709489551608, -0.2717364417579835, 0.018928589309220485, 0.0675167537803287, 0.10954148066898577, 0.032817677291939434, -0.03455272900832803, -0.010222574194828754, -0.06910315271028544, 0.05893746060432727, 0.07618731684578574, 0.0631586801414911, -0.006366440138112593], [0.23985307396910607, -0.12865379167827465, 0.0064145630640255824, -0.014469531387367965, 0.03735170249291105, -0.06388706644991787, 0.2545799518425597, -0.10686131652316828, -0.07291142750588968, 0.003647233307774673, -0.030719749698647034, -0.032183635445037446, -0.05832602118207731, -0.010488271335559187, -0.09630326667431946, -0.05865825326341616, -0.018773804231948587, 0.017470442294205493, 0.173224419362145, 0.007059748324032052, 0.035419110679922435, -0.12491810446620288, 0.03939045819033767, 0.07646020762409876, -0.07873369471908588, 0.1890001518926485, -0.14114132722111378, -0.06270647703397712, 0.17693856163616797, -0.11430196690492328, -0.05469955425240216, -0.14016001564052188], [-0.016603382366169695, 0.19390156107007814, 0.06463975952970935, 0.11986026626482017, -0.14662771110638081, -0.09028589133146851, -0.021018955663316824, 0.06766175700813981, 0.0079068933564662, -0.017043264181303874, 0.022395643202875827, -0.023817113740716933, -0.12148092762352303, 0.11993308349991647, -0.14521600346645802, 0.0045330221918703706, 0.13509382314020507, 0.15975202459241222, 0.14731222761844237, -0.16001563313963352, 0.1789275284944283, -0.08298600016984588, -0.04433301500363251, -0.02702633891155461, 0.12216929261567892, 0.04710660638799271, -0.024276065079763827, 0.04865697530996892, -0.17905499437092462, 0.08642100446223676, 0.06481206244309476, -0.058731064428397636], [0.08253510483943459, -0.2225956200514224, 0.09320604672420793, 0.10833857858515909, -0.10421805602835402, 0.14359935310366423, 0.3399858534751537, 0.04977366276896734, 0.035590071451032226, 0.001242152228651966, -0.006607314934974671, 0.07094124975139558, 0.08354180453237692, 0.1456028151119403, -0.03491299170640893, -0.0755622139364533, -0.07066600216935613, -0.010463521522836352, -0.16852921866157303, 0.01777774435558087, -0.226714249954061, -0.06369824398031666, 0.09119013427770718, -0.024724923185425896, -0.09180030046077742, 0.05536854351409217, 0.08478218913433304, 0.0982013081335507, 0.055773891625468586, -0.07417528370117535, 0.09773853693529445, 0.034739235244210125], [0.1858339290075416, -0.24076632975810638, -0.049652525937331604, -0.1265430860419247, -0.2957853981887436, -0.011364298936947336, -0.09990944032880814, -0.05348910481157356, 0.04078209410763315, 0.017459365413331904, -0.016606628455544673, -0.0006278233987444652, -0.14494404894671373, -0.014410964881833322, 0.05291234223803069, 0.11150274893183518, 0.049107508258786355, 0.09497401218832136, 0.04921558904322074, 0.3357534628483464, -0.07213222476092548, -0.09287013486871998, -0.021695992012148887, -0.054484977047333204, -0.08071498422934727, 0.026306343718790114, 0.02654362324009557, -0.2219645394252161, 0.1659312034393543, -0.05822641015300056, 0.17859108729985662, -0.07863400071742424], [-0.04550696210941427, -0.010787587965654858, -0.1765620608624474, 0.00425401883551453, 0.09905845794360492, 0.055501254861780314, 0.1890993465168666, 0.05786830539786883, -0.16687609922421082, 0.07046149152950522, 0.042845153208152825, -0.16383927302794865, -0.10259955853144752, 0.0908140609613557, -0.10861207733293056, 0.08789069558922478, 0.16231728862501069, 0.07567331021410623, 0.008796386207710439, -0.2537436477118573, 0.1005692813197287, -0.09009605571853627, -0.07560828800385329, 0.1762587340833608, -0.06038771658034641, 0.03353294997291072, -0.17487044396344473, -0.1216394952678721, -0.08904976532859656, -0.09845864583148933, 0.012280379159222065, 0.05076093028552766]], [[-0.00877413210864403, -0.18267968310727947, 0.008113955281563456, -0.04398484915689893, 0.0906924280879257, -0.12844105368363118, -0.023959678881742583, -0.020850198312363823, 0.12070369373538901, 0.1217673657802984, -0.03868491364541506, -0.025466654685970706, 0.12406044917813622, 0.013115910273341353, 0.19947175617030433, 0.13843085325047963, -0.13457901533140534, 0.3494012585401286, -0.05158320134212765, -0.17289592220356056, -0.14152995118781408, -0.002410361912903535, 0.05510774200827112, 0.006935530634297572, -0.0686256659639946, -0.1488774207304574, 0.21426259682645998, 0.13560735869525428, -0.07450861356115449, -0.26540476784028305, -0.1443961261302911, 0.04176454990645456], [0.13867287275038026, 0.030322086627721682, -0.1793992103274696, 0.20033818594318775, -0.06189808452801226, 0.015956961347887922, 0.23986750287174463, 0.07221086337615207, 0.08556583891582237, 0.10264972205915299, 0.06397636651711987, -0.25945442544051195, 0.0811789448762449, -0.00315351152270113, -0.26645613302094157, -0.05083187031541496, -0.12283518319975757, 0.1606557875180926, 0.03368194838505427, 0.08204578939817285, -0.03130309860200811, 0.052396319163889586, -0.07342588583377685, 0.015241608986200975, -0.16059729898124628, 0.19724294287946953, -0.07385192013846045, -0.11962839544603035, -0.2552400046436791, -0.11288918387404105, 0.0667955513584046, -0.2644045379349324], [-0.005755534555135986, 0.22408700526007858, -0.003551573882428091, 0.33827723720089276, 0.1620708385809566, 0.14008614410053186, 0.1586309436395177, -0.14377198491735121, -0.01664505717237184, -0.05778079645285352, -0.02612099288941628, -0.10543519780467352, 0.07277310095671889, -0.1276292125481639, 0.0067449059692616, 0.13885886910720519, 0.2069972137275091, 0.01856311344173215, -0.29526613684685676, 0.10789991228147144, -0.015061596908833711, -0.10649249992456021, -0.03223008048352605, -0.1637043134232603, -0.12146991212675189, 0.2056165621451736, 0.1798288850278313, -0.1015900802303211, 0.04693580046515309, 0.08297609834379054, -0.053738629822044005, -0.19973860646910005], [-0.2692953406263065, 0.09666598711903077, -0.10165025997886483, 0.09115697560057989, 0.07919181723530296, -0.04332305214180399, -0.1703206395674069, -0.13970759627056323, -0.03531423952065217, 0.07677213395025279, -0.20573905982826485, 0.09371119229385731, -0.011555646703100499, 0.056965979374439174, 0.20715758648717444, -0.015933168889665582, -0.006104293018944133, -0.09013993650025118, 0.07183093953555264, 0.15134187949403713, 0.008278383808767952, 0.05224575864537353, -0.12217402094442713, -0.025200718132563766, 0.17720855266621943, 0.030519640797379562, -0.024354130436465907, -0.10457976645357404, 0.07631810918933861, -0.13972260348736795, -0.0851127938801757, -0.05839174955629132], [-0.10394597597667696, 0.03187192887988767, -0.09066226036693903, 0.1400397598909646, -0.09137326329944, -0.16113642241420173, 0.16733345966990393, -0.07605014824142407, 0.014772009491520044, 0.015643972684011975, 0.0044272891747795425, -0.1805780098858379, -0.03819723732250752, -0.009298392104779915, -0.07150233584707363, -0.1435007100973983, -0.02629508997990118, -0.2165828135849054, -0.008253347936055581, 0.07119662402180309, -0.11895252928448949, 0.03853567055817973, 0.029775077022866577, -0.03383348609756222, 0.051799217307126416, -0.006694631542248741, 0.04481983058768665, -0.1410089869836257, -0.07877299519492745, 0.000618440545794245, -0.12431873178271916, 0.04847072848290815], [-0.16178774097365772, 0.1154736362549292, -0.08984476146161528, 0.1448534225520563, 0.03734677095536069, 0.021066038719896887, 0.027627477215103988, 0.0512161801136691, -0.12954251698827904, 0.09911254610700448, 0.17530137430294962, 0.2564162905116365, 0.005219080698564917, 0.10592740816655982, -0.13598058263475638, 0.0018391647324567171, -0.06595068256025353, 0.2425095186330941, -0.030566677332873996, -0.008525452663884195, -0.0829203153000474, 0.17629841835499757, -0.12671618229725992, 0.22687004290575033, -0.19644494397756582, -0.26935545901784264, -0.16560435772842816, 0.14092484033665753, 0.09191855800044386, 0.11580194050076276, -0.005741059221926732, -0.01127907292849534], [-0.14263380067466572, 0.17629908574975645, -0.0781845557271625, 0.021177912617625205, -0.11579952947362675, -0.05507744888166059, -0.09667091310650935, -0.048132970316766506, 0.06795578392734014, 0.046174781660480176, -0.0332631671931967, 0.1446713193451032, 0.07702015089506982, 0.08268324141514606, 0.11336700785983496, -0.14070654421152343, -0.07313600642704264, -0.06968834222430444, 0.20102701808432524, -0.23902431189497905, -0.02026753657652569, -0.2671590968528503, 0.09626036420983392, 0.06625953453312824, 0.04534613739993431, -0.1436835469075157, 0.04520660260052519, -0.11540670468028545, -0.010910944472361982, 0.0681148175054458, 0.023561551634565733, 0.03204281136033243], [-0.12080252477373343, -0.04658680473551232, -0.1357499955308895, 0.03233231047132694, 0.13745083970835545, -0.09574681854942854, -0.035201868521938746, 0.15097620668451278, -0.02034539368977265, 0.03211050824028828, -0.008691368753530423, 0.01777963363657156, -0.06065542972503585, 0.100939787252063, 0.0931164192084721, -0.04814458040104113, -0.04925659738606496, 0.06384459861609683, 0.15135968686634557, 0.1299749855878562, 0.09272654875363256, 0.02158509082878784, 0.05856441487515735, 0.2133679660717348, -0.03132486081581963, -0.10541092259308879, 0.10073028937288309, -0.02527181532752079, -0.03716383908384701, -0.14595171165038107, 0.14400840053362132, 0.022449201285474746], [0.11118561466368974, -0.06450525075477263, 0.011946518397408599, 0.042354680280465316, 0.04829707399124911, -0.10594038805144444, 0.20684099921217808, -0.20495797610974328, 0.07007218626506717, 0.17873170335141667, -0.23813975412048138, 0.0677740705950885, 0.05713971489286042, 0.02406147926122691, 0.009145541775225455, -0.048956176883941493, -0.0038270248695236467, -0.15372646715062435, -0.2304152298438688, 0.005798734151091224, -0.14847887612765356, -0.27734250776524155, -0.12805796528754243, -0.18585023371028328, -0.06978292731812293, 0.12235563592419892, -0.1557864006910676, -0.03588965623943199, 0.003100248332760485, -0.12918711292519602, -0.11611004106414198, -0.1612419121444439], [-0.14069563784932218, 0.1352362919793198, 0.06160097357078486, -0.009144215960656368, 0.04838519219370672, 0.059970677753044356, -0.057892554710593395, -0.10615006075479341, -0.2164129524268064, 0.12971458095762267, -0.1129953070250683, -0.1136371533179451, -0.10425240314718327, 0.06505123181404122, 0.3862975430938781, 0.11410160020610935, 0.26880815501715405, -0.03432070141405948, 0.10235236562768077, -0.051781857484340756, -0.003929644537390057, 0.1321269100095344, -0.07217236452860945, -0.1287932108533706, 0.02762526693149224, -0.02472733558983994, -0.06367116506602465, -0.032506050709700494, -0.03270230138510714, 0.04122294514744006, -0.12091830494196186, 0.22437277027765695], [-0.04520995670345501, 0.19082571766737627, -0.08664373198694696, 0.08517229650515398, -0.003123693622443539, -0.07295413289061216, -0.10063978314646294, -0.029912910320157134, 0.25767360404172085, -0.1601932834361452, -0.3509576615099626, -0.06303906029105176, -0.007957554102913026, 0.1667860809338511, 0.16130035073310092, -0.09900800657818519, -0.03121600318725156, -0.003327541169086897, -0.03441275095416231, 0.02480414700693819, -0.0002080515178145488, 0.14289104316720874, 0.07791831374237172, -0.14687403646101718, -0.04508526599227281, 0.02499614057571376, 0.05654141928231157, -0.033805209124567595, -0.24464759700810232, 0.015761725668938124, 0.02192344146599882, -0.17636628983686486], [-0.03771450710564095, 0.012640063948452109, -0.11871634583113438, 0.04807882416019904, -0.09579972190412203, -0.008362295450144892, 0.05024940668379597, 0.10301913268446927, -0.07132349401753448, 0.10333981804586824, -0.0030715894740005276, -0.009228351685143955, 0.15868208437943493, -0.11585335578653913, -0.1464307784731407, -0.17790052918326196, 0.16251861246827795, -0.05752480515149644, -0.13035039315052938, 0.18334054944911898, 0.008933347014342993, 0.06412418033596942, 0.09029977323140125, 0.09841303661074376, -0.018243872523559378, 0.02569636087262353, -0.14492510278200701, 0.166307464023683, 0.12223104288786059, -0.005392498258365861, 0.0981355122075232, -0.15360068695880863], 