{"conv_kernel1": [[[[0.8655485193673318, 0.09307508190989375, 0.15143360164259664, -0.01079817212997795, -0.6537004700646204, -0.1032341683449912, 0.2882808085798695, -0.014113690000702428, 0.08136394495566475, 0.4544090628112414, 0.4309014407749831, 0.7405316105748636, 0.7215496159898238, -0.08169428750773458, 0.16658516891434239, -0.03188621170605564]], [[0.44217944952828536, -0.5995485690000689, 0.25028738104452325, -0.6572188555097873, -0.907318690618541, 0.657783586428692, -0.4161649388253522, -0.16359776756347805, -0.4549979958406672, 0.5131656734522348, 0.057737741334449255, 0.20558629359826935, -0.4826342529267301, -0.454101376792596, -0.9390008634814454, 0.8816197216354972]], [[-0.5574123063156777, -0.21558794968793343, -0.20783421062730079, 0.3843088540580296, 1.1302082438880552, 0.25905733333741066, -0.4028795084196628, -0.4291676836075721, 0.20032638773517947, -0.6258309024118786, 0.16610640439122254, -0.8097809837566451, 0.11246338389928758, -1.017550289471715, 0.20311997881563554, -0.31447650535840516]]], [[[0.10854268745181318, -0.48340553576027956, -0.12363984061130434, 0.7465034343096573, -0.3212494921854692, 0.36552025232551916, -0.30696018546239223, -0.2677972746553639, 0.7309868563693311, 0.1848597926567695, -0.5426537160369512, -0.8583119315176587, -0.4360477448773873, -0.3768285196266314, 0.503085190582996, -0.6890367205182468]], [[-0.019144467901646478, -0.7729486856553607, -0.13466356921790396, 0.737010408377063, 0.07732673658577237, -1.2904252055719172, 0.4093899470831322, -0.06206012528752972, -0.17212466138754753, 0.09945959487214652, -0.5792224566844892, -1.18780928033393, -0.4046170968467233, 0.33772100671138056, -0.7450374048212942, -0.32510392655918496]], [[-0.08744415379447398, -0.16698285326298046, 0.9698862137958297, -0.276680789429108, 0.44545574964868695, 0.34121985205866956, 0.7315730444724833, 0.3034834111032588, -0.02557121257213228, -0.49331797713265296, 0.3104957757547719, 0.16832939897233537, 0.29049000534051894, 0.13832999441721666, 1.3517957804442295, -0.37780233579656164]]], [[[-0.19913128110262543, 0.43938396833024307, 0.7693897549669175, -0.33637927230029485, -0.2781812025985119, -0.6001043680782138, -0.29577207631998953, 0.04771198088503078, 0.0761426116968032, -1.1052291052556438, 0.6325722472883741, -0.8809586322771475, 0.8839316473431837, 0.06237900518318694, 0.5993741611410707, -0.8534481225286839]], [[-0.22735660169982858, 0.5914290946114173, 0.26763312975465253, 0.641857147704838, 0.4524020460158186, -0.1800643896291157, -0.37686357735473375, -0.7677649515646946, 0.44852818045673887, 0.7701276797267971, -0.25660947142494467, 0.2475735838425681, 0.17703846791804945, 0.05153034099090178, -0.129366235454858, -0.0600178869538416]], [[-0.21668997807903728, 0.22684582069209608, 0.6292231750090564, -0.7261681292343205, -0.10362909800726622, 0.046316269813894334, -0.10898761942298173, -0.2348939924301892, -0.22645274535633708, 0.3497255334214623, -0.25814921533157387, 0.1354661799444337, 0.1476719844859821, -0.5931158922761707, 0.7570433091454453, -0.9594939742455412]]]], "conv_kernel2": [[[[0.009702653927556645, -0.06861782244225766, -0.024837257788924937, 0.05664227412186848, -0.06275919270430151, 0.02353256253805963, 0.07723635804392834, 0.18100991592454674, -0.15122411914167394, -0.14154154263452373, -0.14820103409586735, -0.1258558338842803, -0.05989262323336615, 0.07987207168339219, 0.07768997327280684, 0.08899779554907146, 0.06415703236053691, -0.03217997608378506, 0.06790803057925128, -0.19650108094421342, 0.02544437801897879, -0.024821428613531094, 0.052913917540489915, 0.024264653109189224, -0.20015826138095558, -0.18348715408799376, 0.09166386065305207, -0.18567717289924687, -0.08220878080944273, -0.12665452029548366, 0.06350877209228932, -0.09320774837036713], [0.050315597593182396, 0.05884139504113083, -0.13503669474935867, -0.1029593359025496, -0.04286488526839482, 0.11892988542075648, 0.01689682171594144, 0.009639551118928627, -0.017407528671302977, 0.053622630775313256, 0.20141147655091118, -0.09733820523778834, -0.022901381732905603, -0.01839850982950869, -0.38952182890300147, 0.15176434292123284, 0.035106311270596324, -0.11151561774751467, 0.1315688974254718, -0.04277170333419883, 0.2403940313259424, -0.0410007958659552, 0.018318758574349534, 0.05264218690765098, -0.08937597665044823, -0.2898757620749759, 0.05032581360690332, 0.01987014977674501, -0.14410693057835927, -0.1825185103825964, -0.007542468959262023, -0.03756414249972506], [-0.02036452326295468, 0.05374693918191708, -0.15479849443841323, 0.425804049373278, -0.07231602921886332, 0.062322475061048765, -0.15093840962308472, 0.1615358279505134, 0.2564725497138327, 0.2618311623064667, -0.043542024804810356, -0.11806407436532938, 0.06494251070461221, 0.05268011161143174, -0.1663796922377814, 0.014374484806654979, -0.03516036494184397, 0.0516442950981752, 0.019101395668515635, 0.23022877451779913, -0.03300233493547817, 0.02987087582722791, -0.11592445208097404, -0.034334475485184486, 0.0253920664169058, 0.17664052138989528, 0.1553208717652851, 0.03569115538221156, 0.07075270336921798, -0.09403640395449077, 0.12199422834383578, 0.13590374438285288], [-0.03662555020735159, 0.06973315954741921, 0.1262509620731084, -0.0919653263743715, -0.04140634713911042, 0.07768926473096165, 0.026019801581728445, 0.0016849332535116542, -0.10586583029602079, 0.1516340494599094, 0.2633263198715453, 0.04131097373088409, 0.07079746155585136, 0.08217714863718567, -0.10298186464751852, -0.008596658245031289, -0.11214126145085464, 0.0433165362106538, -0.006663142949709425, -0.12978489757676726, 0.018427221810969036, -0.16370533017316374, 0.10329949220232416, -0.2927889236546343, 0.14001397327919765, 0.044263849600605976, 0.10095518965712141, -0.08565870262952135, -0.042056708853392855, -0.3073440761908555, -0.028892423062667212, 0.09190609042178868], [0.1732392884766134, -0.021240142866007866, -0.11963637784028402, -0.11322153557356897, -0.04011437903030449, 0.03560378292003117, -0.22324058095418303, 0.07122633427526415, 0.0394888140113833, 0.009822074795020683, -0.07551506617867831, -0.03621233558426932, 0.011154697477592119, -0.045816034363886475, 0.12007181488186215, 0.2198249376813623, 0.09139832079025995, 0.0002780641118472577, -0.0654454727004257, 0.011547419215826228, -0.08229746856332097, -0.10319272384376128, 0.0032220199326304577, -0.0858264693278873, 0.0826516126636336, 0.1836536035531436, -0.05958589802229925, -0.00900011588558004, -0.0344352480974241, -0.1994509023854949, -0.1533882613136182, -0.031520594720026315], [-0.19533621835271492, -0.08990827215140709, -0.010343522824556218, 0.03521060346987031, -0.47672346864208964, 0.06661188423914495, -0.24129682733948604, -0.06683655018555754, -0.003552953702715398, -0.11151204751484918, -0.06153994803417537, 0.22079205398812138, -0.007337398343153346, 0.011664415852522626, -0.08701479887205692, 0.07466182380823883, -0.21796296157773534, -0.08608474918989786, -0.037252611568522886, 0.07859901506363205, -0.03356620079483451, 0.17209426970669728, -0.08631702973394861, -0.08242732087622738, -0.2124268801389797, -0.14980903282916677, -0.18327484615549725, 0.18989889534942175, 0.1632781216525554, -0.016321161276893273, 0.16436219953493106, -0.10587670646440898], [0.034480664064380294, -0.1561567385805263, -0.018467073099279023, -0.12084573530559668, 0.13067162553788206, 0.24812454095486758, 0.09931107201332563, -0.008336839761227085, -0.12363146047578391, 0.048968738739713094, 0.16665630797451828, 0.033881495552725266, 0.1286433705892538, -0.10548081446593464, -0.08139881969783935, 0.047569594007809614, 0.0025243976094210044, -0.1822929405157746, -0.048922452700734254, -0.0008426484945944354, 0.0018098063535519934, 0.11860101602250704, 0.03709753089184133, 0.13281355576360057, 0.05905561627230705, 0.06832743263767982, -0.044159039466547534, 0.15970497948531173, -0.18130420776855782, 0.00217746992388965, -0.2556385647665291, -0.16776992313946779], [-0.09036275856105706, -0.21372606718914894, -0.008344157844136694, 0.157157406757595, -0.0040218962238777875, 0.005805834790354953, -0.0389882521529942, -0.06822358491793919, -0.003238166389173591, -0.11380070064164063, -0.09466778132562649, 0.2605719663511957, 0.06866124575656846, -0.13400717822772384, 0.06347457678577137, -0.03702509386983064, -0.06434773047581634, 0.03324977183749438, -0.08887024045971814, -0.013516865349639614, -0.1274615131932825, -0.07184680535944608, -0.0038915155161659168, -0.15392985948587748, 0.1397933483169191, -0.14785700421832434, -0.08984745601005407, 0.08952199765424644, 0.1752115107775529, 0.1520835739648308, -0.1842384822624406, 0.06266947734284659], [-0.19261846142964226, -0.005191456119133631, -0.05416503351131772, -0.042793848470187724, -0.30390789753124725, -0.12454292480556003, 0.020688165171556815, 0.04689703240822402, 0.24474375624238814, -0.08017345560910524, -0.080924263412376, -0.12097850632423633, 0.03142687575449368, -0.13657646614390348, 0.031317454023632736, 0.1357503802134594, -0.07567080594426309, 0.08955481656490545, 0.06296802899702275, 0.16697024780801697, 0.10399463217384719, 0.08145116207636888, 0.22665142317396822, -0.008034543752102387, -0.05296847641743523, -0.04983681294061772, -0.022169738688276604, 0.18088368919268116, -0.004786367434548115, -0.019523963547873356, 0.08380108777247322, 0.08850978231399145], [0.19614984532662919, 0.14170800708768455, 0.05968611406603296, -0.054566818257676966, 0.10587619826513332, 0.04780131343065493, 0.11992903835126492, 0.05620991809808751, -0.009435959467479507, 0.2681704207889965, 0.06023605785606429, 0.09869306232936248, -0.012830889298941595, -0.03674575596913082, -0.10242157044220505, 0.01252154881552712, 0.14840368964556078, -0.10109613362459283, 0.054673508452852036, -0.16391511938787862, 0.19626301633819868, 0.2936227118397674, 0.1317579661469569, 0.09910353091888198, -0.022103041116349368, -0.06220903125263802, 0.12671467693016958, -0.05809262856753485, -0.008324723454832601, -0.08994567336071864, -0.01837161916785846, -0.016696186295183595], [0.2288208931483029, -0.20666148477478383, -0.058761670694345215, 0.10535879188151338, -0.1703319961797018, -0.12372048121496952, 0.22443244153163946, -0.06981754525174831, 0.12154117702412559, 0.18639935947772157, 0.07832522302629667, 0.12224676750647084, -0.17641274294461193, -0.0016207323557096587, 0.16905084211551585, 0.11927226878889402, 0.07069120263080167, -0.16569000447276358, -0.1830641848096787, -0.10330553019520398, -0.08071340430253296, 0.09224800230755792, -0.17024633866256858, -0.03512948963883071, -0.008314082941368003, -0.13730094152757624, -0.2130868043127271, -0.15623261972102484, 0.23152427447173254, -0.04771432906345187, -0.07560778940069551, 0.2842906965027155], [0.017894362436283714, 0.10980388554845703, 0.11309504952510323, -0.01588187547270539, -0.08301116851306863, 0.057672528933377876, -0.1039847685339239, -0.18780919521553247, 0.06812156934552933, 0.029277889403402823, -0.2136344376199714, -0.014059349990970377, 0.07789466400779041, 0.03163530078893375, 0.07630281283626089, 0.20528176339613452, -0.1858084869061558, 0.05939805642709382, 0.07496461032865989, -0.04882904707302598, 0.0424309002596294, -0.08633334569248621, 0.14203875323799428, 0.038850735389851176, -0.08465742401001736, -0.06718853717091391, -0.006234219907744679, 0.01940945470913241, 0.12624411948129477, -0.0638400851070666, 0.040748542622215764, 0.055605134472609556], [0.020904113900856086, 0.06744647695059947, -0.049494555353680324, 0.16815492020934664, -0.10316638719599444, 0.27600949960234467, 0.13886069696684694, 0.03136226759069791, 0.034023461712845045, 0.04473764060448548, 0.07496642092806405, -0.22841244395490298, 0.20884222606819264, -0.06557411073728085, -0.10391832177531517, 0.17713936727245544, -0.2812659363888189, -0.08728846601473836, -0.05412883252369746, -0.16994091487700963, -0.07459140834730231, 0.05712966616840767, 0.0457451898617847, 0.2261375709352491, 0.04991721715892, 0.05866614783126108, -0.24828775770371495, 0.08630179188688843, -0.010704132550310035, 0.10659583287611646, 0.10945610425984482, 0.0723479765847263], [-0.0359434383173302, -0.14854372156284307, -0.08588626712644377, -0.11901619173572593, 0.03019858905784232, -0.20509759146542098, -0.02740588719816749, -0.04459302569902751, 0.1258823424582143, -0.12511631508795787, -0.24595527493996125, 0.2902686363769623, 0.02352110226552097, -0.1329176033474868, 0.01203652218628654, -0.029382669401388287, -0.016196929182017688, 0.12037451575732311, 0.22169859951693754, -0.027141306785909796, -0.20430785691933104, -0.13437115027617963, -0.45483121044964286, -0.03590748888853849, 0.17716785991096004, -0.18728937611881227, 0.002579383350266809, -0.10746092773372323, 0.18712322362979558, -0.09880892814196679, 0.05845347069183957, -0.02701502433560769], [0.05532357074710896, 0.0819713789130857, -0.17738264454869582, 0.29133488597592666, -0.09270834507949897, 0.14291554702164838, -0.026860612025314926, -0.10979796600901709, 0.2916131509027194, 0.15675805278600632, -0.09168176994324014, -0.27484918924831386, 0.10540584681345688, -0.020796112606976978, -0.309890704624753, 0.03604189491854842, 0.02626186717379342, -0.027411293171736732, 0.1483833833802714, -0.008783489456865181, 0.1630019339629712, 0.15000327928272378, 0.020900762163256436, 0.020613116216971036, 0.029652109059745056, 0.010764082650475548, 0.18695148712903334, -0.0643914972815935, -0.07154936513453435, 0.07725586644980213, -0.005267798749904138, -0.041254462974058825], [0.058334175278501925, -0.0872316437792043, -0.013168049821568772, -0.06989333399038841, 0.009894156105948536, 0.057671942485206795, 0.14499996482109354, -0.22785342832065048, 0.1840794648740545, -0.24024439164272723, -0.07904372852060572, -0.028196807159133634, -0.14775066913502466, 0.11351165655653496, -0.07276897537386262, 0.07444782398456448, -0.15013271806435663, 0.13941877255436627, -0.1506520026200353, -0.09019663107748276, 0.15950314062960436, -0.08500703745379365, 0.19382677148617114, -0.1432157829216478, -0.1451783859827141, -0.01827043870570668, -0.015607724078438771, -0.03738651750829629, -0.1271984194532478, 0.09455396095877075, 0.0697925900224707, 0.15582739597624917]], [[-0.15736741192891154, 0.11605472333855403, -0.20597132479501945, 0.08070933180254589, -0.18479367908110536, 0.14095629622980865, 0.08400104542579026, 0.20362957837952067, -0.06482678667922989, 0.01776175463591566, -0.0771126078350467, -0.1904661705539573, 0.06724041943026267, -0.15188582606945708, -0.03110406369383505, -0.09094855991519445, -0.04067420283580673, 0.09683317381933236, 0.1277356826435778, -0.05169330811673855, 0.10457689434960452, -0.09629569216712154, -0.23541293355673554, -0.05361594777378734, 0.24990520475577294, 0.14759525134289045, -0.3470530871823887, -0.2013167233842021, 0.0032416037321053907, -0.0006106973716250933, 0.11280328976404295, 0.09146883815881666], [-0.02223149437307819, -0.1411444375320431, -0.024925233110461166, -0.19809010168190022, -0.01843677223171352, -0.05945405886075159, -0.11190209818617894, 0.016870622895183977, 0.013102427580710146, 0.11911315626329902, 0.003270244423889606, 0.3483709531009824, -0.008760533493776293, -0.09123603553365572, 0.09773052209433604, 0.06592814707125494, 0.01685395373534289, -0.1527809086372364, -0.11667594550377068, -0.08038746984410114, 0.10869601050495864, 0.005818584820616221, 0.04928312810744422, -0.03185892974047982, 0.0380886756252222, 0.14872000218919904, 0.22623660785522975, 0.21674063433230956, 0.014254334479419218, 0.0445023184048933, 0.015022427994247295, -0.09058945206779889], [-0.0799074828389169, -0.03517755219637416, -0.018404748992256297, 0.11034219412742216, -0.02446001753731593, 0.05870141738719578, -0.1426774477989507, 0.22088826099201847, 0.1655863558787817, 0.030328087525257886, -0.00022383071014304596, 0.17131573693661833, 0.03532631970490138, 0.12086226971952024, 0.37009092192094495, -0.09091117913569083, 0.012732891024071899, 0.3701690612330297, 0.04442818413657001, -0.02592253562031541, 0.08848287057671733, 0.06953206655630267, 0.24259516758068056, -0.015716088727897537, 0.08745447860374209, -0.10028771567020553, -0.023936708799179883, -0.05491076845757005, -0.06240058436317267, -0.034944964032337184, 0.11046917958995045, 0.1076915332098046], [0.0712062036615536, -0.12412791620141889, 0.16524658401195635, -0.00037945084874066513, -0.05248003525960929, -0.000590181794389312, 0.12318605953616439, -0.06834714608872511, 0.13200016866591452, 0.1016861053953849, 0.3168932944894239, -0.19777094352280633, -0.02751257128468007, 0.0025413933844632463, -0.03019986306430774, 0.01951102980643211, 0.0967965088729674, 0.17912589217756253, 0.032413260605523055, -0.26201504100762263, -0.13545892278518934, 0.08722555470456972, -0.014109961653046005, 0.08164012518272828, 0.09402517226818083, 0.01171433825292532, 0.13745212643632396, 0.02457257431512237, 0.06742447749608407, -0.015265366420778552, -0.02014702305381395, -0.06932193904579305], [0.1246227341380594, -0.03350690461420913, -0.08836459547022368, 0.03548869131871281, 0.016237504922039167, 0.021026192811922983, -0.015075083936885893, 0.20269920791774665, -0.1086414224236604, 0.027769682617792387, -0.07888660789297486, 0.012030421643609544, 0.010416663076524554, 0.2723335469667747, 0.15907035276330195, -0.125517891245893, -0.2424298540173813, -0.007139278963973937, -0.022984767372617454, 0.21228527712116343, 0.07276088549654176, -0.06673525778202935, -0.039773987020708335, -0.15692930201719968, -0.20692241802910458, 0.1520545764149051, -0.08236852145839078, -0.1942194145454822, 0.07027832639213122, 0.06697501501154601, -0.10602010327029733, 0.04572579105126657], [-0.050529758798272005, 0.06313919471951056, 0.028189854105230616, 0.2443372152838101, -0.13405121401073902, -0.15463620016527732, 0.030881641834392938, -0.07339240323723548, 0.08895356334755383, 0.014279310488023661, 0.04206058454723624, -0.027799943812292144, 0.15228688303327342, -0.030407037551521958, 0.006632057861084488, 0.06078007695052413, 0.2042186054687452, -0.12362253278781263, 0.1471007119524466, 0.08614733741849012, 0.0012508241783567664, -0.12225311624752946, 0.12756670520093666, 0.12888903340024277, -0.0949156237573443, 0.16478983726004337, -0.0947037007825507, -0.14459288939040735, -0.02076476277974461, -0.09959844619046564, -0.00975601549959381, 0.1390074558353787], [0.10503322543110706, -0.048862151715554046, 0.2366793931019327, 0.11146316031018985, -0.0023671002105777597, -0.21734474144872143, -0.12746864005754985, -0.1594895336246287, -0.024899125824884447, 0.02445473901819665, 0.007268430624283024, 0.21553069735585031, -0.078307681218342, -0.10427844038828772, -0.007192093221339437, 0.15515467042347023, -0.024923910902823202, -0.020553046311793534, -0.17489970083256207, 0.08170852920383323, 0.02645175801183768, -0.001153375114886421, 0.1224217456005118, -0.12326983934180792, -0.15840945862936978, 0.09389875679941127, 0.1651735207061512, -0.025714630066987824, 0.018669120547967065, 0.06296041307273488, -0.07022156321852087, 0.014750601804429464], [-0.03861460127739334, 0.1795980255156927, 0.08254626097662122, -0.13418832312044224, 0.027565205893871046, -0.21111653496034585, 0.10976859673382205, 0.05350508009844547, 0.008630301245746307, 0.1616376103163367, -0.015838936802963652, -0.02253255258861557, 0.06297666888115991, -0.08135086059703811, 0.0040374458033896315, -0.0771230401330007, -0.11755131880305787, -0.008907143023222127, -0.03173901114359175, -0.10865214719465824, 0.06963153032344038, 0.1724005541689554, -0.026045865267467223, 0.06738193195950022, -0.18431213723002757, -0.16613908701525532, 0.1263495682529112, 0.20885004799592774, -0.004351662531884798, -0.06850275204926003, 0.08267122553079216, -0.25908346066991184], [-0.051423077403358386, 0.16400785169380405, -0.09736553212153383, -0.06561017621135727, 0.07122743974091224, 0.045092819718648904, 0.11421831081208283, 0.04261246647511356, 0.2594900707752752, 0.03396910882994124, 0.05681743482686464, 0.0797879939241328, -0.14629997071686146, -0.1401929850686439, -0.12668718851238242, -0.07818106403049402, -0.24437822716419724, 0.13216804900518536, 0.15070973843821658, -0.0126146836912586, -0.13764261284181656, 0.10126052772302588, 0.12394889211068315, 0.07712987826092667, -0.021357487813520204, 0.19476581508350474, -0.09426996724254505, 0.05062235698191331, 0.05186821950068124, -0.20094075378512496, -0.11130608418849261, 0.07913402535928285], [-0.0590636558430332, 0.007883011147042863, -0.050846792470010345, -0.07162570015453384, 0.12458006542204719, -0.006385323620698537, 0.13597841648918302, 0.010312391314420353, 0.12964880723987557, -0.023797815234932535, -0.008451910230680397, -0.056883819647998914, 0.11788448618517607, 0.0689105990987734, 0.12148971920221534, 0.13875785856889425, 0.06526818071225661, -0.08836141895713436, 0.07056601158767821, 0.07121255441245812, 0.13083916842144022, 0.03409729245832874, -0.1865723957737269, 0.043804010663400963, -0.09372702868894117, -0.24479560944767734, -0.098561515425412, 0.04311930525064034, -0.0806914284099049, 0.07215394778753538, -0.0014613597920926935, 0.07753214108302915], [0.13100261368146016, 0.07221312054992207, -0.04611068420274311, 0.05490102854303289, 0.11106879367740165, 0.24108049019224026, 0.033004638565728314, -0.04314106895521067, 0.20300998546024737, 0.15370193654060307, 0.04902582391330549, 0.17978112525879236, -0.0748339566101718, -0.20424160029296798, 0.004770680865220578, 0.060276411374940976, 0.08568739982059206, -0.014359586278464861, 0.06233978600889013, 0.13459643193284554, 0.13886528821362393, 0.048112756214367294, 0.008154190097604444, 0.15861232604452982, 0.05076819934396545, -0.10834818061395382, 0.2268924933025482, 0.027528991696884754, -0.07220536855376304, -0.15963573101228226, 0.0009662956200028581, -0.09412087664230165], [0.06934382562604621, 0.02809415618363389, 0.14519809789952026, -0.10162517295821859, -0.06951030761925464, 0.05801844011526452, -0.13809082317883714, -0.061653040939143235, 0.0569937380595979, 0.016735855915737424, -0.048345525401458665, 0.09606197209100108, -0.18420657237787944, 0.02724522368904882, 0.046487757037088476, -0.18244970271596278, 0.04897444367725433, 0.004773903690995701, -0.08179681455418424, -0.012684295530399712, -0.2469921419193038, -0.008064007104320927, 0.094872048113518, 0.2199243189913795, -0.2506982742162323, -0.19439669932059792, 0.1293589916779922, 0.17608096767831066, -0.2015685601972319, -0.2236474228473577, 0.0933835957732453, 0.06780345286299792], [-0.17280459478634205, -0.10201123678708368, -0.011303584194790375, 0.19008175840688135, 0.09487604657732548, -0.006196647129556651, 0.021138846806295204, 0.1386344753311812, 0.23577157738678234, 0.27819635870939113, -0.14034269655020842, -0.03807971033346103, 0.015102960815583277, 0.07645551303152776, 0.060449368087935856, 0.2682627972643564, 0.03399446995595999, 0.024821495060038574, 0.15892357782894292, 0.01616113091569771, 0.07566788699951582, -0.0865849063987027, -0.0466546380963862, -0.12317581772254481, 0.04824696595091328, -0.15334525341814073, 0.1992064751051006, 0.2216170604244981, -0.022745591287140245, 0.21555677857054334, 0.04304364592139633, 0.024685048444072207], [-0.03628983240772249, -0.1748949154711575, -0.13791241862531764, -0.18754828219768765, 0.08061032673916461, -0.03538293041325182, -0.14427223899307323, 0.12154745965871122, 0.0242064471554719, 0.1110435013913717, 0.12668322971356574, 0.11507273762088453, 0.09624818018614377, -0.1423455102035676, -0.04677141928501779, 0.051814916317818954, -0.18780942283933325, -0.1395468522039614, 0.04903980966566314, -0.1273280633846453, -0.05741966485747662, 0.20061576616809348, -0.15816865745050732, -0.1044867806927966, -0.0021742438033054653, 0.3106306367205003, 0.12470449126939834, -0.07482925918588205, -0.04254257749754367, 0.012425388787318086, 0.13242373208488573, 0.03137213758543934], [-0.31776390008165595, -0.28822765952706036, -0.2559729076547627, 0.10481594788499152, 0.11547715539652718, 0.04987951586129911, -0.2615446191204385, -0.020893684282409276, 0.06915053533017058, 0.024104705569791184, 0.01571940554701665, 0.19940832393932814, 0.227846880063155, 0.06467458458881453, 0.07521663371950843, -0.06030939438456375, -0.08001845180975523, 0.12791846823510225, 0.052593779583423, -0.08175471552405521, 0.13824371371012661, 0.26118532625908475, 0.33659288435877815, -0.013393544117022118, -0.1136015794528862, -0.04130264658709474, 0.18949003765170175, -0.08750163141790467, -0.08631368364045687, -0.10407331038993202, -0.1557087177016226, -0.1218286322287504], [-0.01374699571413162, -0.1591602452023959, 0.05390447221084569, 0.260928399670697, 0.048928478252328135, -0.13500142213909636, 0.0959650335499789, 0.14765216744132345, -0.09222767521683559, -0.05244419747134288, -0.04584872721213108, -0.09645239014108453, 0.008135521429771865, -0.17344494164189378, -0.247688453473933, -0.09471769726617954, 0.01674189141071014, 0.12943764927228216, -0.10157463600094943, -0.01991534060460382, 0.18950417081558252, 0.07224056229348304, -0.04730766765250532, -0.19774809779109986, -0.00133598899956687, -0.09832521997851157, 0.24994794391658262, -0.09348227829675983, -0.025613077059527426, 0.03174683195226905, -0.03655994814724958, 0.10202235635529547]], [[-0.039494889462987064, 0.10510743071964389, 0.07886905725472731, 0.14562035008487395, 0.004958313296154109, -0.14383646866054184, 0.2021364641190042, 0.1048013552141641, 0.11490870214793898, 0.16774296522171228, -0.1522292703612307, -0.13183770069047787, 0.011460133224241551, 0.03279952243242646, 0.23455943557409017, -0.0952907730796989, 0.07179619500744185, 0.0066427371000218, 0.024156048502443402, -0.11562809101773426, -0.10779110731302469, -0.06630548407240944, -0.1063071210032622, 0.0018230562417366582, 0.08711244231156923, 0.036404666729661216, -0.2107520905366753, 0.07338497533560633, 0.009059661808553877, 0.25652437082673113, -0.2225939815181687, 0.290071628753074], [0.022247352477560482, -0.0007312031993108297, 0.022754717747672487, -0.05790097592945553, 0.0002634045826878003, 0.02053643299536047, -0.16835819098676252, 0.03719462118950298, -0.06356011283396022, -0.1416841601742481, -0.3413719730421692, 0.11633404229989552, 0.19960724780116137, 0.035258916967624856, 0.1238821544991132, 0.004234502037142589, 0.1419568187347332, -0.016064351938608248, 0.06354168303676165, 0.04142346283530124, 0.23615276918910055, 0.05230812871184562, -0.21372460031811125, -0.14836588719288968, 0.032793622951243356, -0.07274930280441963, 0.330101621238647, 0.11010920470246184, -0.0868387218234763, -0.06597111643994422, 0.230891498817489, 0.01858918460933384], [0.04810933756354591, -0.0910301938164979, 0.05315110516182513, 0.012852425957799233, -0.07962150048800172, -0.11409686972462327, 0.07974621982067957, 0.13908617621538988, 0.07682070178222682, 0.07981622580705167, 0.019339663928148943, 0.07994310776173197, 0.08338984573251283, 0.1186217115012935, 0.11245692271843229, -0.04856787164465539, 0.11071566839163895, 0.006486693272484654, 0.11959776455975368, -0.02581665696908206, -0.2510193057168644, -0.11664962524005378, 0.1057111689635565, -0.08978643199357876, 0.02553486251183234, -0.1808432222158623, 0.13609016818162992, 0.1250834781652125, -0.13328534761141478, -0.1416556599362048, 0.1366945370442229, 0.17622533909905647], [-0.16814307032960665, 0.09295792053222136, -0.05256058096311191, -0.059302610438225774, -0.08387738606947764, -0.1046765888999538, 0.2344110870954495, 0.18312673750669714, 0.038981891303900645, 0.02843325679621808, 0.20328922577236824, -0.24526218768393024, 0.04078537687832274, -0.017500550791258607, -0.009674662669360396, -0.0007271237895068184, 0.12886330075496988, 0.10514596805481531, 0.005427689312234846, 0.005778506435071227, 0.016948696858059824, 0.22279228013944485, -0.12625574593489633, -0.03983807464132385, -0.019478062511476706, -0.12589380961648444, -0.049526050159118415, 0.2694999647715571, 0.2786060407642496, 0.060988045113418994, 0.026463924968312263, 0.07841003634943863], [-0.11626353761841027, -0.24751939954102217, -3.385803005791044e-05, -0.0856185905809882, -0.012679730957885849, -0.05044976814611361, 0.013137104988804995, -0.06257234107307803, -0.1514226714935942, -0.0625534034428213, -0.04076986909169531, -0.08792275728610223, -0.09085994598118524, 0.09763571613205678, 0.06280810450272453, 0.04513195260427451, -0.01062000391562158, -0.10953291105653519, -0.02482484941606207, -0.16556843775331792, 0.06394404843285395, -0.05466416390072559, -0.171683121961618, 0.05941122358880693, -0.024145835690410285, -0.11328164474585309, -0.07343124133937182, -0.08354057832207103, 0.041645106052630755, -0.10199275486131154, 0.0001238091335929378, -0.013639794225542849], [-0.017059569754132347, -0.2847257342227614, -0.0019288414626332472, -0.1921445287946649, 0.07002835087736459, -0.009836646678947276, -0.05103897379128275, -0.005585042333721164, 0.12350374743655784, -0.1446196011845252, 0.06662451390908848, -0.0830643473160488, -0.08041827886090958, 0.0663994106210583, 0.004409730819887037, -0.181291982381233, 0.04019214203039251, 0.0875737778078385, -0.03660205480917498, 0.05868396976499594, 0.025243840893193096, 0.08991438854304261, 0.15112379340611323, -0.072996807674754, 0.12079541509887867, 0.13452365427654683, -0.08644194730858827, -0.038177717336501084, -0.15842260802960656, 0.11645167697039562, 0.04698801490159833, 0.1396152649026331], [-0.05227437322968699, 0.008095928924535143, -0.010247981604880179, 0.039343724251515805, 0.08331124474171875, 0.043474954719778275, 0.11544639596218019, 0.03262093092857924, 0.048241389172876646, -0.010613113997463576, 0.06933977776064065, -0.020206030004472325, -0.23169160123894017, 0.15435930598128206, -0.0039851929337613, -0.06969672199631283, -0.02316952054249052, 0.15156667584752345, -0.16719151974301635, -0.1206905585985186, -0.2109133496874061, -0.139143856806069, 0.051727036048507216, 0.11830456789985101, 0.41375557343953717, 0.04513991387277461, 0.16239146195200432, 0.06465465479544491, 0.03211085125244243, -0.09346378381270183, 0.08811256849789147, 0.018794292365501234], [-0.13857935241499847, -0.003244791134458015, -0.21427465500485088, 0.14724515809721359, 0.2330041291967023, -0.009694886364155806, -0.045568163527304924, -0.014720359815472307, -0.09836485551393984, 0.08389564596094161, -0.20089384102212382, -0.1089700218491544, 0.020683707746806414, 0.10780822045510102, 0.19014433382525656, -0.047096064904596835, 0.017114312320703845, -0.007550975456683512, -0.1668382874659594, -0.04144259032423169, -0.173992118735427, 0.10844358848493266, 0.017406057684200903, 0.08939251400938422, -0.07614637217881427, -0.08615424999169016, 0.17512688166294577, -0.08232629021538818, -0.1944616188475566, -0.03740652584302229, -0.11102175794078728, 0.09706376006671219], [-0.01828718361939595, 0.07561759705603975, -0.13895540268222797, -0.04547916670742774, -0.013328639230165256, -0.32064745314095555, 0.1954376581591477, -0.14357420308385008, -0.05847796896218047, 0.07900830398396118, -0.1563827577812712, -0.06350029262436141, -0.134809415228095, 0.05846290213768068, -0.06216224706144966, 0.10627606483158245, 0.046765694912646, -0.13006272787477152, 0.15057054937023862, 0.018632946870501165, -0.02649251282571177, -0.12121861343520311, 0.0857557207331287, 0.024113596629968145, -0.1721098263695515, -0.01145382233048335, -0.04919374199079528, 0.0839381620708369, 0.14290922587018, 0.04035551027829917, -0.1430058468208846, 0.06306519272214883], [0.036982903867884664, -0.1720852088966815, -0.14859582599066395, 0.005998350000564139, 0.2510289604121265, -0.12502471210725272, -0.07508015861436072, 0.2100394175629105, 0.07806840069419436, 0.2527209945375165, 0.3474360098223644, 0.20569615817732398, -0.006782025496852932, -0.019622534672893807, -0.07281930728836214, 0.03508150868475218, 0.035288391964104875, -0.048899149445146506, -0.09608144002346462, -0.07399052646803525, -0.015506994052179104, 0.11593181829836827, 0.22895252034048927, 0.12629363132234617, 0.1405487737433955, 0.11700905840890438, 0.1428847246128278, -0.09945460430109926, -0.02938160939940636, -0.06417690633227349, -0.17524242038680388, 0.07778096043220761], [-0.05617038351965325, 0.14049657360071616, -0.0871263056549475, 0.15513275989472458, 0.2775538252407719, -0.13447351531923335, -0.12453727698461506, 0.07756381520889948, 0.09230973869182756, 0.02928080988040039, 0.1466659802769999, -0.008483522864647937, -0.001359684860756677, 0.08163722017707759, 0.1730385690766563, 0.0008949694021222098, -0.1124181735821749, -0.0037042969094482764, 0.006881303576212997, -0.12477127830250537, 0.11519362395999802, 0.11450231546812761, -0.08572322067961073, -0.04212835241080872, -0.00451219029866647, -0.09679394511512167, -0.026671912214971172, 0.24523502587042387, 0.10543220110473368, -0.1379943146379412, -0.11009241022157772, -0.11044538756778505], [0.05067072164494547, -0.06181804489378171, -0.09878527079591146, 0.16568971791453985, 0.0623765616915417, 0.11564663925789927, 0.0347429626994621, -0.23910845132677874, 0.022300036928665893, -0.08035069297277668, 0.05683064809968493, -0.08053568891625684, -0.15114686760738769, 0.024451155672282367, -0.02916363745319333, -0.1690625950430192, -0.029478430917925142, 0.02732833236293761, 0.17374420994073178, -0.08260294694728067, 0.030567902059228887, 0.04010193757093398, 0.0888793480217431, -0.0981909199612946, 0.09186041259128935, -0.03681710355573619, -0.25069814906263377, -0.004018709966880948, 0.2141572504983783, 0.16984974132396602, 0.13730801381553293, 0.008775690861564071], [0.06950933408575334, -0.11473748471820898, 0.046358649469687555, 0.022404536522434834, -0.13051976920248015, 0.005337738177724155, -0.024492338666346133, 0.1842287866162752, 0.09752792832796559, 0.04915111532096911, -0.21956328532193187, 0.0006606925992449031, 0.1617790337883463, -0.08071006916410163, -0.015455037517489527, 0.03605376860447228, 0.06995480324151869, -0.013632859998710327, 0.17678178230967725, 0.02252875406378096, -0.020313086752224686, 0.13458542176537439, 0.08893937869692244, -0.03130742949419863, 0.08352470268816134, -0.22401586556402225, -0.13292438180033989, 0.004280499530600335, -0.05192994660735896, 0.011080961798473302, -0.029321026170667924, 0.012313683922458176], [-0.01273099102576074, 0.15643179595355142, -0.07468135798147953, 0.18923896085866634, 0.0534251313452454, 0.10703655170746855, 0.006866086178938651, 0.27534945270920264, 0.21641667171724777, 0.0013793372555278318, 0.08065945996577639, -0.051536999268042005, -0.14046780616613153, -0.15343683394150248, 0.02101934324605615, 0.15739474808443302, -0.04951561363613519, -0.06388145720059459, -0.008353786597670719, -0.1451380006654872, -0.16417514343389383, 0.011877969306939143, -0.09642909226302156, -0.071267927237444, -0.14280349677637233, 0.08170729893914062, 0.009389108056628945, -0.05393932943021849, 0.047495941894196626, -0.08387759167223266, -0.15740801869897708, -0.01343078905897323], [0.0014714590870430688, -0.06893440223799148, 0.1894323937648889, -0.0615426461566546, 0.20354619813015715, -0.26857615199558765, -0.12726057117943232, 0.02296068386067441, 0.1371948650348404, -0.06914100724674563, 0.0827895093515682, 0.056000908482058485, 0.08141940338199846, 0.20376991240408057, 0.2733503282417559, -0.04287896879412907, 0.01710353215308627, 0.24145293008783011, 0.0717764545403103, -0.25263258198390626, -0.09301207098296642, 0.3249796380737397, 0.06275215154261851, -0.13056764171351307, -0.013734209965668565, -0.1177365115200355, 0.10527012827201572, 0.1568017667265412, 0.15456048047599608, 0.096544009860109, 0.08408651164263471, -0.017383249740284077], [0.01793776590342934, -0.12318551335226083, -0.05360767519489615, 0.04918412867411565, -0.010377200868808617, 0.10215315366452703, -0.06293711327660328, -0.04345654384724705, -0.289724919193503, 0.026851607960949934, 0.19940445771309012, 0.006046039842027899, 0.015689082938528102, 0.111092232587462, -0.07772607041372828, 0.07723146856180552, 0.04685660444106002, -0.015413146252731796, -0.15839826057822914, 0.021754466285733007, 0.17718207230142963, 0.13211164568586736, -0.03697979723206423, -0.07114590493688762, 0.07067010560264804, -0.07992208744919871, 0.06411771252514743, 0.1022624243480825, -0.08475943727622703, -0.1970166315804056, -0.07735201308167552, -0.04185869146660963]]], [[[0.10766029229559339, -0.009981982273217062, 0.07623420218139851, -0.14481241060859645, -0.06740558966370497, -0.07559738491338552, 0.18298916139006, 0.03291299564579777, 0.14218388073369642, 0.015401361187387183, 0.215660688236145, 0.10576398494480402, -0.07130781320592733, 0.010966286730776488, 0.04347636711236242, 0.033890388800474555, -0.160290763277111, 0.04417239145463275, 0.1031953048034232, 0.06868039446536832, -0.0983997811333282, -0.06157753807190798, -0.2880051930125046, -0.09133023551824881, 0.026931724329324568, -0.0704516096314668, 0.03082728076825849, 0.2669320497865174, 0.01707171111760003, 0.024372674469255583, 0.03539690433942297, -0.1457074170686756], [-0.08513925443147417, 0.09601173097676026, -0.07461627841944864, -0.03876779958121183, 0.07950116341520874, -0.02882074132323612, -0.016302267019641745, 0.011820652748186665, 0.0197267934224658, -0.05017058768491275, 0.0218864414195818, -0.06639578626709979, -0.10878270063260582, -0.09117036846261821, -0.03996681793004957, 0.02109434375897955, -0.3131048313192843, -0.03679777625263675, 0.008646158085405631, 0.009259696518989622, 0.0776824391348993, -0.04452503772110999, -0.01426334204941798, 0.14009745408682397, 0.1851194082208164, 0.07916118537392099, -0.14279107122611776, -0.005455842129541417, 0.07088000613276907, -0.13938133274742615, 0.08089632783127822, -0.013973046574580704], [-0.014935027809411921, -0.26878165779871377, -0.09718570846790142, -0.1178829081130189, -0.09096619550481584, -0.023097472283746697, -0.036688820357620076, 0.05354338612992641, 0.12633601591735247, -0.12315371720135276, -0.21646780725219, 0.007766575782280559, 0.057484389616824366, 0.28021667170657566, -0.20009508697733466, 0.48647428076829025, -0.1326743234876283, 0.30339706471436484, 0.0820178001551744, -0.020688714105080424, -0.1844552803747478, -0.08873632883340264, 0.06217659372793092, -0.1473915718673335, 0.04032127212809253, 0.14093586145506498, -0.04223742410258359, 0.17798955154280863, -0.06157081904865873, -0.18819263606778372, -0.13405171878182212, -0.02503421273684427], [-0.05955299942264089, -0.20725978441856374, -0.052459560080707214, 0.08288893672095488, -0.01292856792867765, 0.011725119232210673, -0.07399873528832465, 0.053511844573362555, 0.0711309924778531, -0.08652865301805153, 0.010536867472025197, -0.10905318379209658, -0.24843237446478886, -0.043348494560378155, -0.014278300628769237, 0.07244367273562406, -0.11484602265138007, -0.04349616036238606, 0.12661777903870133, 0.1149316688608254, 0.03601797848263972, 0.2536750741952307, -0.03793503478251131, -0.041482522882933866, -0.031675876141224635, 0.06208406235865117, 0.1983575011110312, 0.24963661798453163, -0.1499393735027521, -0.08926061128658262, 0.0510815963129298, -0.07782312878083383], [-0.25517191682496454, -0.007582873701956335, -0.007914453596833916, -0.14633702295921983, -0.12310463058022128, -0.07422129201389148, 0.16363308952779135, -0.0065506292682571176, -0.12965301405908095, -0.06028216243900249, 0.0030884612747448486, 0.0703266282111378, -0.006747647033369854, 0.22640914858050765, 0.12751564197313103, 0.17701878018111394, -0.034642576050339435, 0.29116590556139915, 0.09468729659123042, 0.2904989951091621, -0.10023743275921157, 0.12844788559421397, 0.04938654243194988, -0.08634914622389678, -0.007071259653561, 0.06031432971225543, 0.1726493611748331, -0.012517920749647915, 0.1835259905326837, -0.034995064962294535, -0.03588786958206506, -0.08244851012743279], [-0.20153002094278055, -0.05372497261997869, 0.011957724295575374, -0.08534612857682428, 0.39089503365173517, 0.21186508618253047, 0.17941773408576733, 0.14117579365887978, 0.08874676741688393, 0.0987612493258035, 0.14488271390926621, 0.20699078460940884, -0.10428872541535848, -0.010653286186747692, 0.1504580535748245, -0.05407281160935534, 0.08630283038276147, 0.058402162336739026, 0.010830996895210375, 0.21138214513796047, 0.08964956287400397, 0.17949282071433484, 0.14570411801205269, -0.07115500261534502, 0.15464749036115652, 0.03202035292344662, 0.11446874535573456, 0.04029903336364053, -0.018612573212141714, -0.2900689693467311, -0.14332724910709296, -0.2285272701271814], [-0.08162324582898225, -0.17108288308209352, 0.16216689639699328, -0.10013691475642998, 0.11540797324389204, -0.027177403316970147, -0.08577900190912181, -0.08441492251139764, 0.0774755387172503, -0.1822555823633268, 0.12930993339389363, -0.010844942433089368, 0.015089018257672861, 0.08904060237168877, 0.0543028996608748, -0.023438293810248114, -0.007539368621057455, -0.18271860145492536, -0.0737853074232749, 0.17527546283402415, -0.00952740112592636, -0.002333611891622246, 0.16743737135439452, 0.08151097718348022, -0.02369992305458272, 0.08393489614837421, 0.28743841406622145, -0.04910044056172701, 0.1315242880517902, -0.10677933083165128, 0.05397648347023819, -0.05096804671004729], [-0.050529904480519805, 0.04147890346863763, -0.08781532708617104, -0.0013627141127285612, -0.0794127042939378, 0.051759077691996516, 0.07054677731368952, -0.176902646099145, -0.013387438361820981, -0.10831733567137203, 0.10956713144348591, -0.08024921988735852, -0.07555958498544811, 0.19062184922248143, 0.08554677035147709, -0.09230626108751191, 0.007004479004651821, -0.05652790165826806, 0.08737017244997951, 0.015438846741926774, -0.25107045920750126, -0.08243110094886336, -0.018033723022984553, -0.09411701781682931, -0.011995815136396115, 0.11028673714884209, -0.043027082631186216, 0.118242500235107, -0.13544820553355044, -0.19968400830131525, 0.027451422559571403, -0.06028668544065215], [-0.10421623215538582, 0.3270501451058804, -0.16717798856712934, 0.0720042824389948, 0.1554286146661181, 0.07393996157724468, 0.14099599924024728, 0.1476460677681622, 0.017405734652495206, -0.03172841027394992, 0.14838606428529785, -0.1788024039510336, 0.041316312754186575, 0.07227985429250817, 0.05283811671186241, 0.15869670839855776, -0.07200854795904797, 0.011025431259673564, 0.10339470428274765, -0.10533657056640985, -0.005308703348254203, -0.13653803076138185, 0.1351194530094791, 0.14321254837509853, -0.07344872783068282, 0.12347654960534449, 0.07629198967441121, 0.06473010085506684, 0.0014771290138613693, 0.17335997339810952, -0.054077536047852856, 0.06924981658650808], [0.028833540702431167, -0.04372693691403365, 0.12975187539984118, 0.056240438385354294, 0.1922470341420994, 0.1088103886364939, 0.1791150017877157, -0.004693422707460806, 0.20808211119488193, 0.0030446647775888135, 0.08333434239967623, -0.07421714035696447, -0.13911772113918955, 0.04443266970237244, -0.029893001537796168, -0.0037132944178858416, -0.17055441883516295, 0.1415600599611228, 0.13888659461294808, 0.17577274291147213, 0.1649743312281186, 0.007915368278982328, -0.02698110943903872, 0.10964168817980267, 0.09585853210030318, 0.07322750442037546, 0.09311640855032748, -0.09655843610641822, 0.09920101109127999, -0.07779534421097337, -0.2562933151153802, 0.08591459999205274], [-0.011542311382256027, -0.010014993350913609, 0.08519761523765654, 0.002882525246519413, -0.11932184777866613, 0.046094023453730176, 0.004252246241210723, -0.029722674200541786, 0.10747061508279594, -0.00606860691898669, 0.014491955363526553, -0.1766908686242686, 0.2513695579548578, 0.060048840111313825, -0.04010173488785853, 0.04589451374115729, -0.013589963135019333, 0.023026966483595254, 0.07878011964563869, -0.05208548698710937, -0.05594997971402775, 0.12032019177193727, 0.05481855307550597, -0.08406617458899637, 0.10795733361367504, 0.01843269177223788, 0.134081459543008, -0.08787767582428793, 0.04263442269934222, 0.13344645233117808, -0.058146894737642334, -0.07293348008826944], [-0.14434301269209937, -0.03287048430635339, -0.11323875343622028, -0.047822598969032515, 0.1933447725551023, 0.1478734682237774, -0.1413816358136017, 0.05530313765125705, -0.12246391976323924, 0.05313047523187209, 0.10360716324924191, -0.03818136157157989, 0.11926486543850318, -0.11009671345945521, 0.23697894427489316, -0.002019744299436269, 0.21991926477824805, 0.15739436621052902, -0.007274706844452282, -0.22749812126488772, -0.04574386757565657, 0.19547046997373269, -0.1432856392157175, 0.09872309804365331, -0.13613438292256633, 0.051548856053462495, -0.020618731550944118, 0.012627819180152287, -0.04139696642489572, -0.08912703686943285, -0.027257455303384623, 0.11425229944766394], [-0.18298232229770972, -0.14357960707477196, -0.04505452413908629, 0.234209571617706, -0.039587345822735494, -0.02608579984106709, -0.05909980527179884, 0.08403152684195604, -0.11938278613959719, -0.04291145219637719, -0.011613494445027175, 0.05139132225806965, 0.028823361089936432, -0.03035460942202804, 0.17878508126025194, 0.09184211435926716, 0.21778334950179398, 0.05007929993278291, 0.41029842335281286, 0.14845214019065334, -0.12297319279817315, 0.016569125118173263, -0.005451121709594702, 0.10067242824544542, -0.05945495830738868, -0.00627332309033864, -0.0640960349773342, 0.10347973959977265, -0.15778948850404598, -0.08730127980200025, -0.02207879274030345, -0.11326087257634655], [-0.05901653513201427, 0.08973736179398696, 0.17963562132446895, -0.10246382165478841, -0.04232871693789502, 0.11325514376897684, -0.19544026655101124, -0.16578587042312973, -0.021242615759622056, 0.10147090210879357, 0.1807191732809511, 0.17923457985728666, 0.04952952351983117, -0.014018127788078006, 0.19618827586042314, 0.16777299702706402, -0.1122570253331219, 0.2142090781900256, 0.1515887111532967, 0.011037548317460889, -0.19294502488276752, 0.020221969069798566, 0.0180260123643964, 0.03552643418538317, -0.05142726812065106, -0.07919036001880263, 0.13530122338517117, -0.08496343482582705, 0.16930509452702786, -0.061036092887204275, -0.12478330702447821, 0.07576624532498936], [0.10788995243336347, 0.08169101166465226, -0.04467213794778944, 0.01326260880962967, -0.09551837718881225, 0.2898071945444117, 0.23422876274075546, -0.048220529909845496, 0.05917368581803532, -0.06383757643291389, -0.03163865386338743, 0.028541710732653533, 0.08654960067606136, 0.12147348047645405, -0.22628724100728315, 0.04053246223062558, 0.07648687332903606, 0.26109272049260845, -0.11537109694456961, 0.09261515848766742, -0.0062763961041491945, -0.05682834938018673, 0.09734062363621279, -0.06617348156602929, 0.06642515101106324, -0.062164284682433645, -0.009084998949825765, 0.11898598576144633, -0.1748822202077429, 0.09382094828375144, -0.06349585863912749, -0.17680422925686778], [-0.08316321564497445, 0.15154696330690948, -0.02780446927092583, -0.027874758677970297, -0.20057314307514001, -0.17840307912253, 0.08944334902417071, 0.10185531976660442, 0.16834526186295837, 0.14883290799420767, 0.08674154858017978, -0.15885915762450814, -0.07688912418532029, 0.020679196516009954, 0.11060506353287075, -0.20662447618483398, -0.08019945514223611, 0.0141433214904456, 0.10333613515751482, 0.21996322455933953, 0.10531533493582504, 0.06037388718721859, 0.0531865917504398, -0.3539117683145884, -0.1701215379774487, -0.05373795342959683, -0.01660363333688572, 0.2877592690756117, -0.01572875910314052, -0.17411969680231476, -0.026717428750314135, 0.0273694543104944]], [[-0.03524206421941861, -0.18302157927358642, -0.018909327773903067, 0.03569835824494192, 0.05125102821240533, 0.30125650132187237, 0.06486990441565402, -0.05210532071015442, -0.02703580911960962, -0.06221336321684957, 0.045355258555557665, 0.10230458456655342, 0.12043744321825019, 0.00818588583677055, -0.197902278725104, 0.02252459051829835, -0.24042186414086536, 0.07312071427637219, 0.20133666166322636, 0.07472166937051264, -0.012833304527270311, -0.15040431971946003, -0.1551805922510069, -0.16154535624159228, 0.1502771241427189, 0.008834782486434442, 0.16395382780111634, -0.18716121176303055, 0.02982864376316996, -0.019919721801880938, -0.05134549697494943, 0.14856744495490404], [0.2622520440244936, 0.05406038469930236, 0.010028647656952272, -0.20759319481038727, -0.004961787038757686, 0.07958703948618792, 0.058184158707575914, 0.014870551914141874, -0.21960016108692254, -0.16776603520984903, -0.22169946603061993, 0.06276191856962292, -0.2991794211728716, 0.19595120775744237, -0.19163541018650387, 0.024362858659509577, -0.07073839565164522, 0.034558729307367204, -0.1488961675011917, -0.05997845381946497, -0.12672117029403915, -0.18594093816688925, 0.08264554030892057, -0.11532620719342461, -0.11743561114321026, 0.17129829192325194, 0.0930907678797208, 0.16134053887278504, -0.05721428790162545, 0.058203336333210974, 0.007437210305386526, 0.09366757483185703], [-0.07586598188132852, -0.020443658155589406, 0.06781695865833279, 0.07537116637414645, 0.2483040053514611, 0.27225219594060246, -0.16752062322654424, 0.15232632219483302, 0.1372577851654704, 0.1934350542379536, -0.012911901589437787, -0.12892945842775497, -0.06383987401627594, 0.22676930216431776, 0.07843922073720407, 0.2596810437164603, 0.08320901611186832, 0.07537721285816652, -0.05284419651913502, -0.024381493971653973, 0.03499485377512825, 0.1290012196844657, 0.03222148543849139, -0.01192459652253065, -0.10027418812636947, 0.0711208300232898, 0.1632559053836574, 0.21876579141978533, -0.17061364455666594, -0.08656813364772455, -0.28540500610138214, -0.03972109280694874], [0.1347922315999882, 0.06136683563413511, -0.08730975138438675, 0.009955163316821378, 0.10189198048009292, 0.019231507153142324, -0.12243716060092187, 0.18639751594024984, 0.09506384738489355, -0.10699895380260281, 0.26860697661908456, -0.05657175446543599, 0.028167549288146618, 0.0022889555425905147, -0.19261016257023836, -0.2507670787495186, 0.10379142937681061, 0.03571666495182592, -0.1952231287928835, -0.02830290052111648, -0.016965136565915744, -0.00660558994510918, 0.046300125879442766, 0.03931881562986892, -0.13122877264952026, 0.0989371085285994, 0.028870657183494432, 0.06632904205061776, -0.11232765694042195, -0.0663899472269889, 0.02106506978983423, -0.07348220594477546], [0.07816006033961695, 0.18123855477356265, -0.04730418228252248, 0.16433556891344914, -0.09737217192914481, 0.24474221373645413, -0.22479406937232443, -0.03782064120720958, -0.07356416003576424, 0.277820316553321, -0.11248269606343544, 0.010609583576141472, -0.23497170529440858, 0.01920005382278088, -0.017133105161780588, -0.1011238110217642, 0.11091336756146801, -0.028523124892348546, -0.1446270794568899, 0.080974105499278, 0.033071806140809644, -0.04192996039388386, 0.2062041006089418, 0.12508202173607116, 0.021749023319069506, 0.03049081064156844, -0.008862077896415915, -0.02157850506055469, -0.10780318677362212, 0.003656552918847428, -0.09794895603649477, -0.09726413887789301], [-0.04233077386492956, -0.1275484497344253, -0.17879224783839767, -0.060378959477923475, 0.011308732297997302, -0.008606064847277148, 0.09994634174595024, -0.023249250295119452, -0.1540021584501706, 0.12386750318420202, -0.08364795699462953, -0.03362538180905093, 0.002146483470665061, -0.006272061680993352, -0.0574091187916623, 0.02273516498645043, -0.22570876372450596, -0.03881251877659704, 0.13132486890459671, -0.01068572083093096, 0.05471170656148788, -0.058582099907459315, -0.08161285040979546, -0.11036251309595431, 0.16417360666744704, 0.1759144197087326, -0.055521890538277614, 0.023678018376211946, 0.12894809794648296, 0.06658424403660279, -0.07987820177977205, -0.11815743199436493], [0.11882599509484978, -0.08184841114832109, -0.0036893531720434713, 0.14276830078860217, -0.05239050009388341, 0.11568985230055495, -0.06493190419088787, 0.0374196427567604, -0.1512643277756342, 0.03431854109481349, 0.08712002962792093, -0.02218525994953515, -0.002759301179535792, -0.06788911023626036, -0.015716901259849654, -0.07332941619423028, 0.19836354563355818, 0.07013102364130276, 0.14500251456863025, -0.2381371675180575, -0.0852087022051457, -0.27590099507385346, -0.06764414601968816, 0.07294471251978973, 0.061867271274870426, 0.00806715154255839, 0.04251883207423672, 0.05774734971328426, -0.159818759383961, 0.08770655100081873, 0.044974694789253866, 0.08698625369963409], [0.10960227001377171, 0.11572658889617425, -0.09188814073567274, 0.00496327289263179, -0.011665947436025803, 0.06316807308279103, -0.14210108145765224, -0.025463912209125205, 0.13428149693833685, 0.16885723577428535, -0.0026593210680014466, 0.06087135583989565, 0.039060601760744065, 0.027090653948286858, -0.26506193380374093, 0.28020373873963206, 0.07066630235826095, -0.0009523010942010604, -0.0030136994382058135, -0.03060116448530407, -0.0675285268511702, -0.07811654812614154, -0.0027180529467073964, -0.11289328102054752, 0.1921746305935083, -0.005042756200595549, -0.28878413680736037, 0.2631548154740069, 0.07580501668840665, -0.16045996057977904, -0.08526925080888038, 0.3443655820982516], [-0.10317810327355181, -0.04675228140812402, 0.2590010921197472, -0.10651044313401783, -0.2952250368024229, 0.29640030086301716, 0.10060524877493834, -0.029541462576786096, -0.021835865330635286, -0.1984821480187076, 0.03029628527735724, 0.027578454082405782, -0.013768667131454217, -0.050729539523805635, -0.009275734828787827, 0.23803316023940582, -0.015743456809343505, -0.07545712286949714, 0.16467999287010732, -0.13137018768299474, -0.22668932393904043, 0.031092969006615515, -0.024081796551512696, -0.0062508869500136665, -0.08372744114409532, 0.040978085823963825, -0.09398436228664535, -0.07871776769211593, 0.031181232343564718, 0.1476466737731795, -0.08395888771052708, 0.05991836468026488], [-0.08044051830045554, -0.016056838470339445, 0.06149243830640792, -0.05291339115656179, 0.01141196847479026, 0.006019356175753626, 0.00872359262058738, 0.1335042595494639, 0.0999441350991392, 0.10202953214064552, -0.22472685701329434, 0.14694893573958626, -0.09358609331162702, -0.0321103729540714, 0.01774260015389584, -0.032553780040601096, -0.0891706644357309, 0.010250609904183984, -0.011858599055583556, -0.03345673295630605, 0.04606487859149709, 0.15818938782834766, 0.00360975861502018, -0.08539505577201849, 0.08750914434700098, -0.08987147601801658, -0.08622725376458881, 0.19120256211042974, 0.03710232354981244, -0.19212951538359999, 0.14210216658301655, 0.18842056419959302], [-0.03514343202534308, -0.0033873581127578252, -0.12358195172426217, 0.03515083681403562, 0.06422541387081587, -0.06627495528083285, -0.12018839865203869, -0.02798349607077915, 0.14037435814277835, 0.17811495502272295, 0.01970194375491215, -0.12559115112372607, 0.16455531606948673, 0.06363723233220114, 0.025952488729372853, 0.04554544616939444, -0.15211961233196097, 0.16907962557890244, 0.1898026753741141, -0.0382596577023848, 0.030903513667589796, -0.0798229538839192, -0.10340909093201706, -0.022134885929655936, 0.03672877411692722, 0.1632938969174241, -0.06906028120826438, 0.039253955409734004, -0.00960936254624969, 0.027333988458704554, -0.2513293733824867, 0.24233775299463794], [-0.08936217083597077, 0.19248451327360486, -0.15647573039560828, -0.07935976062728352, 0.08700356121623223, 0.12317089255196381, 0.17125695146883063, 0.035983627255310645, 0.2606442782133898, 0.1178239254763876, 0.03556473429418111, 0.014825255056626824, 0.09721431540373633, 0.03734896862389258, -0.14415224175746766, -0.08923687588513428, -0.046653279287655516, -0.03038483861472732, 0.09127010164135914, -0.09764870360509996, 0.09717937772190867, -0.04034595666803369, -0.03565217418060787, -0.03042925602246418, 0.14546063919072497, 0.084973440503498, -0.15485587062149045, 0.2797070468953607, 0.035912273101969455, 0.021456854394290025, -0.13380780631411598, -0.23457052259277208], [-0.05181976355844323, -0.01360479778406747, 0.011869979471161408, -0.0432044597354814, -0.08251320976310965, 0.059731975178723924, -0.1489462331506791, -0.0008917074802378872, 0.06940028154703254, 0.06587220949918601, 0.02006128335051086, -0.00838341886334139, -0.009818386992708381, -0.12357215543570615, -0.01075256683117718, 0.03049663451510627, -0.024242298045306504, 0.1668692378727578, -0.07703138111452319, 0.11709395330666658, 0.04956867853869228, -0.10751676024292343, -0.10628745014820115, -0.02038686331256056, 0.09393560671054474, -0.001536811091573782, -0.027169916197456862, -0.11134486048262547, 0.13631274523718379, 0.16360956507764937, 0.21265193344728842, -0.0858616468844846], [-0.16309265461268718, 0.14623681756963516, -0.21005128977307888, -0.017885904548646504, -0.1515199561612121, -0.05139682139122337, 0.09652181680079554, 0.1397380317302798, 0.07853176858189492, -0.02724114548876959, -0.05612641349838763, -0.046224624608128734, -0.062322965048969114, 0.1457777547897995, 0.04651809787457722, -0.08566843657302765, 0.15557877767283676, 0.01517072959246586, 0.07304104675766378, 0.26318032826273513, 0.09455200354136016, -0.037453254423575374, 0.07339334086886415, 0.017652447075611886, 0.1095599670416844, -0.02252696182375753, 0.05502065367906642, 0.19909321898509585, 0.12515422201903184, -0.08067809850617683, -0.1510365734666934, 0.0655381460242318], [0.045999043101019925, 0.17391630184681595, 0.0328800026943448, 0.10472067163415669, -0.17976452573214974, -0.05020084154764266, 0.08026883206694731, 0.08992366126748663, 0.11400633823332218, 0.1432476501732017, -0.04846216816678087, -0.03593872827037576, 0.04376721043449787, -0.03839323799670829, 0.026495633786824367, 0.11911931906460466, 0.18725425473831997, 0.19747912878801702, 0.0791143876418512, -0.13133412276194087, -0.02963515663208107, -0.02492971133564808, 0.056156545085236854, 0.1356648775048019, 0.17818210228056747, -0.04353531865617489, 0.02564166242229505, 0.12515441349090703, -0.09384402166529532, -0.03417529597612708, -0.0337950290147211, 0.18298352504222024], [0.24207773900529353, -0.053194741291513824, 0.08149910161015982, -0.1420728319858763, 0.2839817456594937, -0.1519731859097991, 0.01762937423036775, 0.14947914840790208, -0.17241865046901933, 0.027394636289197326, 0.40090312817282536, 0.10100994921493112, -0.0469365218494835, 0.045054178025690284, 0.029640509652667228, 0.07617822905766738, 0.049304633436453416, 0.17151423794773596, 0.07583695345732325, 0.04757627149552281, 0.21463760785357985, 0.04826182987144822, -0.09343820266557196, 0.006080480259260952, -0.09012316832770421, -0.01713273241918159, 0.10744283020621621, -0.04219307057552497, -0.2779185265188394, -0.09851231415429529, -0.10165498191704683, -0.07451196334576037]], [[0.08824427013315571, 0.07571266777914724, 0.05373701768001833, 0.028806410179123575, -0.13571195065141434, -0.2220749565923543, -0.030444365887781842, -0.16468329856453112, 0.19289428075882512, 0.008351145472543257, -0.19762493373652854, -0.02827846449313483, 0.005393052002352518, 0.1323929534064225, 0.10549994598251858, -0.09286764659690591, 0.06421597845755402, 0.18388962014321908, 0.056685674846304865, -0.05352999730138186, -0.006977864145572985, -0.10783087710046986, 0.07969226274852037, -0.1142219777600671, 0.06877028297541592, -0.022303163980589187, -0.05521353711976959, 0.17746601409892276, 0.002096543490496784, 0.019621525827333123, 0.10768316055883963, 0.05973531015014924], [0.009814072541962355, 0.08629231613416459, -0.12016738243264533, -0.02633815716753886, -0.18700311678876808, -0.11369653806675716, 0.07286134660792946, 0.07577514769095288, 0.08000302868666302, 0.23885685385551822, 0.20705571426841152, 0.06233312947099898, 0.01621364181511518, 0.01826295255750386, 0.08853680846937972, 0.1431269446979171, 0.009922487019135657, 0.050250102508848885, -0.07366887777795962, -0.14658653755311193, -0.15494900680869955, 0.1664674767641476, -0.1230729894844047, 0.058892284068811286, -0.0240057862528484, -0.2325635251766476, -0.028099245340155714, 0.1391293624501976, 0.12774339810912871, 0.017695572806962438, -0.13439738247254276, 0.17610289490344522], [-0.12519280499630656, 0.01671763329812933, 0.1555435908655272, 0.013839445656051268, -0.05210289116762965, 0.09925753963850435, 0.02113481555150168, 0.02928836561059658, 0.027992827971981542, 0.030588946606528774, -0.013277799935620409, 0.03911924903059171, -8.185972080793763e-05, -0.15827518721514866, 0.13409170210835014, 0.11699904651737744, -0.010868809463690688, 0.1290423285668704, 0.15465012857221144, -0.06457512910878216, -0.00975994567635698, -0.0463462662803286, -0.010444375482726994, 0.12835236601270716, -0.033936671631284505, -0.11253477724053203, 0.11960701638772628, 0.1525439074861195, 0.1334786901845282, 0.12337671906666359, -0.11361009818189241, -0.08903251829211213], [-0.20220024689640265, -0.1086434205401734, 0.17939040556388575, -0.12553382706040836, 0.11545815156226968, 0.26107879140143064, 0.06130425069083255, -0.050464628537148476, -0.35803115606395886, -0.04264452376562358, 0.06902693942183802, 0.2392650161355137, 0.19709291827461295, 0.1702130211919829, 0.17441442286130213, -0.13838569930049766, 0.026690470008451296, 0.23313910138074143, 0.014094657854631458, -0.03347223851606009, 0.02652892050318842, 0.03130475506023464, -0.08577994991345682, -0.017927183087530333, -0.14685182350824913, 0.1576258457192779, 0.09527223888548847, 0.05614284497618845, -0.07961012996990693, -0.022121186981627773, 0.11854116485108797, 0.06476674423888211], [-0.10716428551705337, -0.021224553322845254, 0.1102832688233106, 0.026179811092804293, 0.01457862863260973, -0.20828613403502527, -0.29562287917282104, -0.08422827937185647, -0.0591059890445321, 0.035713313621980075, 0.13509952685348423, 0.1660296185169227, -0.04851554802396451, 0.1413191521104949, 0.06943481809436358, -0.058951027853983234, 0.07181561949295757, -0.1775134891452246, -0.18363750640619017, 0.09246691855651079, 0.12152209811541974, -0.42465565859126564, 0.1504247228322588, -0.13233502067065278, -0.0957367827197239, -0.007770116754412906, -0.11427518847848794, 0.12550971610147538, 0.249946743172385, -0.16387320502632471, -0.06950284116065283, -0.11029250364847792], [0.044105166518527396, 0.22298044873342796, 0.09785178845329141, -0.04118289189276344, -0.2512604791990922, 0.029355884163358926, 0.17466604629629828, 0.12885531483532614, 0.08723404864127013, -0.010906307302109087, 0.18947875175018075, 0.18293708348783758, 0.07309894856830731, 0.16027816831723798, 0.11566742634207179, 0.1077786400542691, 0.1374213524799435, 0.0795232184281799, 0.24064074853524142, 0.09438434369075728, 0.09443057239210137, -0.121083920012219, -0.12484820718798363, 0.02020424461460166, 0.04453412736764269, -0.10530793435405619, -0.03268229710117502, 0.13924416040803111, -0.021650810990001042, -0.044589825909386184, -0.13548810289441823, 0.05871283149077218], [0.15019874003273792, -0.11809747167304285, 0.012354461723033278, -0.001528787246635858, -0.10692230392202351, -0.16036601432930916, 0.05320626218353451, -0.15489710416626354, 0.0523393436362342, 0.09761504697656113, 0.1370781220684545, -0.12697200589507393, -0.11907846242898762, 0.0816099457213366, -0.3394691219213017, -0.026202839632180393, -0.13358937121833056, -0.08316333385830083, -0.19039097985311923, 0.12315859419639859, -0.029997766643801157, -0.01586485398733205, -0.05959049362769691, -0.007430120936033045, 0.006789098404999354, -0.14089271651949975, -0.09856760596119293, 0.08397042127303415, 0.04009152590894784, 0.16599280157662702, -0.016653214802621306, -0.04013518118756519], [-0.20159194850862594, 0.09086921078243927, -0.05711383495196711, -0.01599216314722193, 0.032245864328794394, 0.08308058460248287, -0.018335879750715503, 0.15841290129122423, -0.19170147007440824, -0.09211696000240158, 0.17604261423372577, -0.20874134152128931, 0.26922482642118006, 0.2828124694518892, 0.12450988029272791, 0.04814011821294158, -0.019703944745255005, 0.14096758750770633, 0.10888766086038133, 0.09571511246956094, 0.11285249251729079, -0.04948907052865281, -0.024646760240855974, -0.11427676346339848, 0.003995972658757427, -0.046416292396999986, -0.08111963841864703, 0.07883774017389285, 0.2086689657869298, 0.08167449443574296, 0.04172555303402694, 0.3752389118128243], [-0.06549356585366167, -0.18371811437086386, 0.2249272881321187, 0.14877809474156733, -0.07178191196510388, -0.1865579767717992, -0.043114622033614707, 0.0004734183189883029, 0.06361160471083369, -0.06657500325059662, -0.13318597573514188, -0.12539337905940634, 0.06477100577314306, 0.011790553871734945, -0.26812734721723425, 0.15715507435366272, 0.014824910714760678, 0.15262764538187162, 0.04065167838203299, -0.001069067160592773, -0.11685318292889493, 0.042474974150704496, 0.012561159262090123, -0.047701218993698995, -0.0048806976839174164, -0.11835178797587405, 0.01800478681484013, -0.02427921691666567, -0.10839503776710521, 0.0005530817339053578, 0.0713093047065901, 0.07918905949555512], [0.1221412214638668, -0.036867555340848596, -0.0012339878505364806, 0.02858823016355111, 0.042589721266897036, 0.030101395216611673, 0.016500428587889544, -0.061584948646868636, 0.12562017207611081, -0.023511357058996322, 0.04759861784271086, -0.029649173473967515, 0.00922810047202871, 0.06852183139484781, 0.10040160988708954, -0.2982896600509668, -0.020986436975805815, -0.12012033773193258, 0.17793979326343431, -0.23620890222360352, 0.03366685577659703, 0.07959539467880335, -0.02991565387792544, 0.11077518305062553, -0.203442322708042, -0.18249711921653206, 0.19054728290141776, -0.146114501610403, -0.02180244756162809, 0.17524884779104014, 0.09286820063354019, -0.21496954007915176], [-0.17398678428652764, -0.10602287208464316, -0.04243660730528048, 0.040724433351979006, -0.26521752913375796, 0.12354089925039376, -0.03879229679532665, -0.1658448544068108, 0.07308351795669747, -0.007163687539117957, -0.10528297359136082, -0.11299145194670854, -0.02558415604913249, 0.2737115898009282, -0.2021534598920619, -0.026853450977599138, -0.11730541998504473, -0.09541875541039282, 0.03515885672271968, -0.09458348722405763, -0.18733948534506953, -0.13708225076639402, 0.01387933942245471, -0.00559229928128959, -0.11899935968470551, 0.09241919819588393, -0.03934992870966306, -0.04948337803538235, 0.03825644538057121, -0.026839643470691392, 0.045152204356109164, -0.047513954904533015], [-0.15362484645627622, -0.25497930828642723, 0.14938794258398053, -0.3508007600563369, -0.10449378727393716, 0.06935410600987134, -0.041971774180277546, -0.10033786722586122, 0.1379070715334064, -0.10740479708200155, 0.04427331612815785, 0.4053433079912759, -0.09741461965536571, 0.008116918990056902, -0.09667632991059928, 0.106607943645962, 0.004936247432055342, 0.14052252346211055, -0.07255937108867579, 0.04933662981564127, 0.05148317419609332, 0.09934268607874311, 0.01960479240535212, -0.06914500636447928, 0.12390767925318762, -0.06250820184621944, 0.15796942963795035, -0.013203157694957087, 0.08647036585445488, 0.07734934085466336, -0.06920803721274403, -0.06575319508372943], [-0.14484325871656392, 0.15665294437602836, 0.08648857745421137, 0.09831039140751462, -0.020408034885830203, -0.18000006551500103, 0.08672877013836089, 0.0013674077083260026, 0.22515086955561034, 0.1146353676811667, 0.08300607370768455, -0.024538454630581085, 0.08924633412858005, -0.0841746030848427, 0.13901044990350644, -0.16439011086060565, -0.01623548163856456, 0.1457878199816417, -0.10728832141523316, 0.0007762880649252716, 0.16464047322560615, -0.010961383600858583, 0.03206490894430191, -0.24580850460385828, -0.011858709229880198, -0.041739837147718395, 0.06774404776462654, -0.031524272781836185, 0.17904590488977526, 0.10416572458782773, -0.023032376296473766, -0.13905984069599342], [-0.059008154299985835, -0.1172252202992381, 0.03487823100776581, 0.15055002561297445, -0.18366294812853232, -0.07460034033240581, -0.11702020975671037, -0.09957178883730632, 0.04764127706741032, -0.19566134920675143, -0.04542312335257456, 0.021027902807274512, -0.27992980958374974, -0.03332122777507939, 0.04577784827124723, -0.006725713689271317, -0.04093539786167211, -0.04823867740364319, 0.0068897979961455875, 0.14683069205083382, 0.033676953774516495, 0.1507642844496348, 0.07893469597876465, 0.020498647702193888, 0.01037275076186405, 0.2627015721294832, -0.09266367306925255, -0.0783714143222933, -0.11117321982319807, -0.0028922902447353393, -0.013662441958625277, 0.02711590771074404], [0.007360860129783144, -0.09579088931768397, 0.11340377035359493, -0.03584931175356612, -0.04335265305199372, 0.03247501871696263, -0.0011328915139946893, -0.004446935777827817, 0.03855435721648972, -0.05646256357754167, -0.08037826654667113, 0.19364203686744708, -0.027656588803016056, -0.003119062106571727, 0.04759571522850663, -0.09221088900578046, 0.014957579022008588, -0.07748562593068206, -0.12034083015965513, -0.2454313418362037, -0.07564265285872798, -0.07100783934149979, 0.000503732629544169, 0.03499107849149356, 0.09130315608073658, 0.01420165009467198, 0.08626744872378445, 0.059700919949465844, 0.26578776452332736, -0.08223637306286168, -0.11543187014243354, -0.11872806537384992], [-0.2571395807733495, -0.0022392016534077634, -0.13618219481707486, 0.06340698474840875, 0.02620784806734956, 0.13131842171927538, 0.13430331567288892, 0.027702658918222756, -0.13297968781564695, -0.16039297904187363, -0.17947217452622335, -0.04439089182145222, 0.16173433418045066, 0.04290550422938605, 0.03804619702644655, -0.18420568599077905, 0.05059732379560472, 0.11302992862218597, -0.047112384839322306, -0.002583997170377765, -0.08467492585207119, 0.07572493466846338, 0.03998873356786088, -0.09075938410797334, 0.11619258921954795, -0.010657230695773715, -0.009659656086188807, -0.009933178913805884, -0.2130015067689189, 0.022387629615543372, -0.14344944380946573, 0.02660620662919123]]], [[[-0.09734886798794495, -0.03636606658196655, 0.029808141796975857, -0.14142218175505183, -0.09913335472855918, 0.07890403919521392, -0.06441616544636393, -0.02387136326854503, 0.3101750404015956, -0.13686181005048428, 0.08270489868966424, -0.14124836928185047, 0.18556072045668964, 0.037234842946166725, 0.0406718388301608, -0.08864722855308285, 0.04752309602445166, 0.13077851089654532, 0.03810523942213049, -0.11168235793428426, 0.012734741073453928, 0.14836734070486768, -0.14299986563951206, 0.07158294028313666, -0.11673256020816089, -0.3046129338733362, 0.12408753098617577, 0.010341941292368144, -0.20318206748823014, 0.1503046872861024, 0.12094496618664752, -0.09112105366957736], [0.2073025533817464, 0.09459037363782304, -0.27864488533553267, 0.06673905009637002, 0.034624925265271375, 0.08908716586110832, -0.07571867263591146, 0.16016064688956022, -0.06124420566603134, 0.021004662038762074, 0.017591433415539263, 0.2716244812389668, -0.022733949206194443, 0.0863281209292669, -0.1743253076481111, -0.02811182664245058, -0.10755353554653202, -0.017705797227385103, -0.03508182028685096, 0.03327151052826825, -0.13331476752119886, 0.14822068065828758, -0.05657307243601071, 0.008613351838970811, -0.0900397468174127, -0.16663349857217938, -0.062489414217952406, 0.09387348853259433, -0.008734750756005287, -0.24168162703107357, 0.012573608496631968, -0.27486588488785424], [-0.04269291000158746, 0.22300902616550144, -0.1933938524109937, 0.10076750887094618, 0.019785300369540352, 0.08635458935497514, -0.11348958718373034, -0.2792462074034424, 0.08516850073844423, 0.004901571788879948, 0.09698686370611774, -0.08963286276067078, -0.19446994359072614, 0.07102795402235958, -0.16207397023008116, 0.017550768895482537, 0.07232256452375707, 0.05312420177813717, -0.005387144364314989, 0.04655842739626536, -0.011318014828884929, -0.06667612175697421, 0.06260206218493115, 0.05339240253986088, -0.016363707263033298, -0.16411024453736087, -0.10269408601376247, -0.29558376182865975, -0.023072185613473083, 0.04776173227141122, 0.17621319889420523, 0.06227897516474806], [0.10023804910048646, 0.18747335694480316, 0.12550832962168218, 0.12510627460051124, 0.2603258933641417, 0.023896183710348767, -0.06451048198109527, 0.0076413901843197666, -0.015839619871864802, 0.07605193548156589, 0.12448324324930062, -0.004842802724323073, -0.060936207744450514, -0.005633841318733351, -0.11010020369903899, -0.02634041465721205, 0.13515260977644022, -0.12608849165696012, -0.27031140055868885, 0.016312991847775977, 0.0855796263424479, 0.06469344723886838, -0.022819038702662248, -0.0416355783615747, -0.2150640471716075, -0.15525034290265133, 0.015259480505904484, 0.11626912748959942, 0.2890323854236682, -0.0189167472584964, 0.05482425747697752, -0.05863928005590988], [0.057975104216024635, -0.01947706325706054, 0.0649157359311128, 0.015729763693099415, 0.016876037416528197, -0.11414059147975393, -0.09695613364224638, -0.17069809347858583, 0.001536099728690784, -0.0005060845058819451, 0.1562624739145182, 0.2517163355027941, -0.048005443144836145, 0.11765958797794863, -0.0671694780136322, -0.024535892555942525, 0.011267417337429054, 0.1877288953696623, -0.19061816612914606, -0.09912649344498221, 0.019768791537071884, 0.08162473286579998, 0.04300107466036826, -0.07427768402859117, -0.21655019252171026, -0.2075993117730535, -0.1445763479039071, -0.060336182010511406, -0.1285062683540895, -0.1479375710068643, 0.14918399587830597, 0.07099058139432016], [0.08229870592973298, 0.01480181479018665, 0.09716828752848508, -0.09933149793068027, 0.1447313908395244, 0.07267335254957126, 0.09673186209676528, -0.09528964871655407, -0.023976170004128192, 0.31263178699108474, -0.16059580254361863, -0.04123977179309663, 0.07881737539911621, 0.061894575982148516, -0.15317641421685163, 0.12119503078782212, 0.036811911997914545, 0.07751017071135857, 0.14487153326184046, -0.0303867972617185, 0.02137663139389847, -0.3033358359454982, -0.18550551126180265, -0.08930116812193621, 0.08852470115308779, 0.016344225992041807, 0.048328579722551855, 0.08643907162154181, 0.10692920149730056, 0.18850324368772672, 0.09945492378824354, 0.10422744240476792], [-0.02135204509337553, -0.02832043242978879, -0.029348480174537096, -0.10990565294874326, -0.08904967717605952, -0.07874028946686024, 0.050232324612932, 0.02524385848338525, 0.032235902519313436, -0.16097175800500788, 0.17969733129357862, 0.047918122605639185, 0.0415451593756243, 0.012018265713015475, 0.12808265026284643, 0.04907044630095017, 0.04740304020639662, -0.17592313083839461, -0.11072637684633606, -0.09370758999027509, 0.12108149035340675, -0.09053743792043313, -0.002433376467942602, -0.23362400637664324, 0.053613347728970785, -0.018541598681521856, -0.021787579028716277, 0.12416525042398588, -0.0018413883149076174, -0.04789849621803861, 0.08582977018313068, 0.05559768465541186], [-0.02040081955618681, -0.11236909684781192, 0.19665923124017223, -0.11227946413472757, -0.015236427923284047, 0.2376720729088657, -0.09661399221084926, 0.029557386515815, -0.12005499477970945, -0.05238466907407487, -0.1378457420281443, -0.12061731960343146, -0.14087463788303206, -0.0112004967630599, -0.01803005784663741, -0.2155055678662823, 0.15156705221517502, 0.0185388818840436, 0.09315681264356294, 0.13020065113101617, 0.24371551482800727, -0.027974406397509952, 0.06630628341785513, 0.1216832979726455, -0.11631439333365284, 0.010514155846284803, -0.06773624532273385, -0.20003071086394258, -0.14789317295754173, 0.12488903343152495, 0.040880519469411666, -0.160597771894698], [0.017018346026265768, -0.1768814255749972, -0.0383680553505834, 0.15187687820419138, 0.059314989160227496, 0.06904097694977719, -0.03240915514456989, 0.08065304811992612, -0.054357808414120495, -0.2092695696437259, 0.27264897076681055, 0.1026022289633123, -0.02395616902409849, 0.11904521879417347, -0.010321454733157858, 0.2934035169588595, -0.08601871837949994, 0.19917749913691812, -0.0765610677630084, -0.06886428939064337, -0.2797785411632884, -0.16793530097713896, -0.06363487737090638, 0.09739979545156593, 0.03752517954230522, 0.06676577516915108, -0.26569321402552887, -0.04025756895919647, -0.00046733125924279555, -0.0588636701309816, 0.11935514637964269, 0.15549554523296535], [-0.1347027363156802, -0.18013742260291063, 0.20651174228301866, 0.018722192255864866, 0.07134375548902384, 0.17912524578702008, -0.027302947550511825, -0.031431981188606094, -0.0283456396563314, 0.28389812080735094, 0.2560313466078342, 0.0755627345842963, -0.1180207335585712, -0.05193714955848182, -0.09582652614760959, -0.03484774258548892, -0.06081033571212196, -0.004036660691070013, 0.02146058241342483, 0.18966290730178167, -0.05076387536780946, -0.03629794147042627, 0.11622803640784465, -0.02881497985646009, -0.09101115102773977, -0.1454136190497238, 0.034065001947142244, 0.09668340135904373, -0.15743248374260432, 0.0687269807097043, 0.1867230915323282, -0.09083409087521693], [0.07689869226198588, -0.0814364156955147, 0.0975909892269357, 0.18816453733274688, 0.18695367870608445, -0.012931679603231933, -0.15270045165367707, 0.09456737457683599, -0.0783125491037181, 0.060070231617462, 0.1705754051912601, 0.019973469296218124, -0.015375324081910032, -0.013727353612599491, -0.14245995102386222, -0.06998059827505043, -0.10240021038125185, -0.05421231639574994, -0.07761762586739732, 0.08972869251472233, -0.0842132194056422, 0.0010424165718087434, -0.05476961846298275, -0.06543824585883642, 0.15801261003160003, 0.035929071114892575, 0.1326798992099121, -0.11094323889544754, -0.0585188652027142, -0.07755758886509749, 0.02867283541030946, -0.10977327465054121], [-0.0103889215904769, 0.09318926078974313, 0.05193044737509527, 0.02534854092707934, 0.13535293756379332, -0.02889108055334404, -0.15874191507693663, -0.010403476683550076, -0.1084936125001572, 0.28833179572980167, 0.07402240405807041, 0.08736954209095396, -0.02835041849070929, -0.053079307877542684, -0.0630023217680518, -0.26546877251203177, 0.056817326936385124, -0.08628142328551536, 0.09418836379784554, -0.0540139433038039, 0.04250011694762578, -0.2423839174125808, -0.16544393317972797, -0.17434542569569228, -0.13111180917231466, 0.01705480425616934, 0.12381581570635157, 0.2760921197340615, 0.02542392706485589, 0.04778282860087522, 0.06903835460668704, 0.06972519152963809], [0.019155006826202987, 0.05675737758199441, 0.10285606536268604, 0.06617948190298058, 0.10476402329242065, 0.052688310052927574, -0.01649311968255628, 0.01061718592504291, -0.07990031001532526, 0.016012734116373665, 0.20013254392128912, -0.014852794875060624, -0.21979057554643444, -0.05438754661067619, 0.007172325665705802, 0.1618529958921886, -0.0513570019436525, 0.12053164047029656, -0.07392127232647924, 0.1408441455194632, -0.05566371232139972, 0.023536477990562885, -0.050863924722583755, 0.09379521043394877, 0.16232761004075544, 0.05342243106347443, 0.15867264122637068, -0.0740280855821193, 0.029360143354324575, -0.1148542510707752, 0.04646786740890579, 0.050759083911123166], [0.11494897502551822, 0.07830007585695208, -0.15654645311972326, -0.14496050691297224, 0.08580163985991897, 0.007491214392726932, 0.08548672298112128, -0.05680438597084086, 0.08238778405693421, -0.2014886277332061, 0.2826061603174954, 0.04430721272581089, -0.12573225845382757, -0.07733499309389553, -0.24124515191247745, 0.15774683918643687, 0.03149211710206122, 0.19854046205401743, -0.01635726371200578, 0.04889661814470975, 0.07699377169653131, -0.20781180273006936, 0.23388538286156696, 0.19307205288224455, 0.08476077372190413, 0.06364514270851031, 0.0838330891039505, -0.15481731819928793, -0.00907202995687276, 0.09992800864233205, 0.012239253164110982, 0.022500112243613656], [-0.015607734588247029, -0.10576618428671618, 0.054044128208134264, -0.06697267147238825, -0.1529219340543788, -0.14197966384332183, 0.025566596510963602, 0.031891287743688296, -0.09994530421968716, 0.007354295825088441, 0.12228906579849064, -0.013998999469489392, 0.10389304417034399, 0.11241706440080018, 0.13228175170507006, 0.16544568976615212, 0.07789296800299737, -0.07983224887988674, 0.04847926557140441, 0.277109263850707, -0.038516063900855345, -0.18865890616832376, 0.029214783335485876, 0.07458536707220549, 0.10085815502144348, 0.08202773143543439, -0.06516655613056012, -0.1751288215307023, -0.17277065765263158, -0.12323555440173671, -0.08167161309320053, -0.07734853614534762], [-0.06236413436376078, 0.011310838893726288, 0.25292131548152186, 0.11756789593807035, -0.08435726183483025, 0.0326818629075953, -0.14790077100288146, -0.217266734693024, 0.13480787356359072, 0.11957565003887527, -0.057962025583229465, 0.0024011139894248587, 0.03657539740630924, 0.016271657075582226, -0.03652151782256365, -0.16411263618960786, -0.030237953705791937, -0.05342764266160942, 0.10797924549216968, 0.03833718701783149, -0.23190606809666234, 0.09724953367689486, 0.06791766665232232, -0.018136239441121072, -0.19742161023008273, 0.0648999133330889, 0.027817402389315224, 0.10991514249944698, 0.07264680213412174, -0.19064120944083127, -0.0256631871230747, 0.06050527923142627]], [[-0.23171970626360833, -0.33362058501738684, -0.018560537372406184, -0.021774048672006423, -0.08852439833605816, 0.1001193187879568, -0.0887166100281672, -0.06504910139445395, -0.04122472373534878, 0.0903737222695947, -0.13995872057749892, 0.21606527094536648, 0.2117872826319212, 0.0933474302515379, 0.1694759236720669, 0.1473812261048273, -0.16447793185970483, -0.05772123991696908, -0.045986151274461, 0.13957558180593688, -0.051407995200522014, -0.08610271931287775, 0.12627311602269073, 0.0678159958659915, -0.19427352376518603, 0.062313037250319364, 0.05196749603142807, 0.1915386050896352, 0.027393156999685767, 0.07804226728092067, -0.02497280863307145, -0.05602934080556151], [-0.006727879109668048, 0.1583589818094865, 0.2159861127794284, 0.02081277787562898, 0.2784634097951908, 0.10045437845007464, -0.06533586114823572, 0.08506709054278494, -0.15036113903406656, 0.2500760585416248, -0.03124915604709126, 0.11612806255455728, 0.21515774835192164, -0.07902771380007775, 0.22473940908756493, -0.06767376394972, -0.13831896952800668, -0.23845708458948747, 0.020859075516942344, 0.08432722329196277, 0.09034249816510576, 0.14273945210294198, 0.010404554155718948, 0.083885764607124, -0.11149883884416549, 0.016244824260949264, -0.020565344917067296, -0.09814974917184482, -0.2854647846854635, -0.007258943038092197, 0.07461912405141104, -0.23975317002861474], [-0.06276222043435907, 0.0439655434534369, 0.1329601355341209, 0.1872239187204266, -0.15506789368554713, 0.3897191287093204, -0.03850837867942083, -0.04198520045922247, -0.1403481377396702, -0.0372503595461306, 0.01989866729735931, 0.3707663239967847, -0.13507359572856778, -0.035169622384228515, 0.09764849012002674, -0.20067459442206995, 0.06745313969185722, 0.1140969357228346, -0.04962593029948215, 0.1847381939852079, -0.02073277945331991, 0.06530058063692981, 0.13315593649235416, -0.17555476787954252, 0.18118446524310067, 0.03637913898115309, 0.06752796385754582, -0.3280432688149616, -0.03899066387710499, 0.030667071716648626, 0.024356757049837086, 0.02159999285767145], [0.021442316128002223, -0.006493860542299346, -0.07369997712988059, 0.012139204432667434, 0.022318155291586386, 0.1980592318635243, -0.021114652748639672, -0.034530880359424525, -0.047753138809298414, -0.054271339457482054, 0.1937177943908455, -0.040922790493192564, -0.2815280714561004, -0.06499236597958959, 0.11270203636116256, 0.20553774095167238, -0.15661928707422093, 0.01795233669219645, 0.13861134289353136, -0.18052800125523685, 0.05287556979156726, -0.09571603250795219, 0.08235377454293587, 0.03504312833315846, -0.14463402797855052, -0.10062004179243911, 0.14671310113360983, -0.006200099869914374, 0.017266186281232544, -0.15406134436150123, 0.048787049335485055, -0.19652829993117407], [-0.1801568491691551, -0.10293084348470623, -0.13973622715277897, 0.17317022601579213, -0.2016452387119006, -0.03909883121121536, 0.02960973105514499, 0.03987750815735752, 0.05368406390204321, 0.04752852047735964, -0.23181712585885428, 0.2643981452843963, -0.1723297472084591, -0.12317217147556928, 0.12944004032185868, 0.16773004095204894, -0.15918220358864066, 0.1565529815333476, 0.04763230619702552, -0.1837975269468253, 0.14340170487039477, -0.06673721289606345, 0.1625702974701187, -0.015358473919904926, 0.11616436958542413, 0.04561805518616156, -0.1146161375789115, 0.29120752308892894, 0.06890002890210116, 0.08784665876155319, 0.23683875571473081, 0.04411079565246274], [-0.020757409608203648, 0.025972305331200884, 0.1685527341042456, 0.07776757754721876, 0.08165394918027365, -0.14070567251707905, -0.3279035038860668, -0.028315147111176872, -0.05045683629615982, 0.10325591003382704, -0.10887626692110793, 0.06308232683985765, 0.14469805174680708, 0.06952870495441424, 0.08854744707692745, -0.053175605490549456, 0.0072476541333943165, 0.040472579757738644, -0.05194613848714968, 0.016778623040978186, -0.11386781853508889, -0.12611609428298662, 0.10036355859284181, 0.08075202278685448, 0.006356443269547289, -0.0056924861965686946, -0.019355601090541935, 0.002482386081261574, -0.11635432221492653, 0.11459974267358687, -0.016115324587039112, -0.08549324682221875], [0.02985765118707747, 0.05230529263522903, -0.0021990006709046595, 0.045106182773419115, -0.28349444175842153, 0.03985090585872404, -0.11825590411259132, -0.06261222421062655, -0.04600918052672983, 0.11006595257021534, -0.031083673031339725, 0.10851966865815271, 0.19264271235722785, -0.022917046572951974, -0.1306753893135295, 0.06559685147499943, -0.06379837592941925, -0.11005204262244657, -0.14664688817241267, 0.08719285874168345, -0.036756220869076935, -0.007462073624540335, -0.011792112864369274, 0.18354995367043442, 0.207556342119085, -0.09687156036537471, 0.255644032913689, -0.14424698750224027, 0.12209573865690741, 0.0194542512664835, -0.021628242116199518, 0.11639670369643598], [-0.06371600901750643, 0.10647887484807812, 0.02604231726527275, -0.05717829456676787, 0.0787012330226743, -0.13970054853844266, 0.0969606274371339, -0.03176145809812865, -0.048188244230393695, 0.00924631974909081, 0.06080290820727576, 0.05718756406333385, -0.03731309180010976, -0.06548614128362108, 0.20258963788829698, -0.05958119152653857, -0.04003839198573554, -0.03584358026705379, 0.03357172960499066, -0.014039238785182597, -0.16703346179650508, -0.06279172625148419, 0.08291017489976706, 0.015441118252694414, -0.06044071939455084, 0.09186129942544341, -0.05196893672756011, -0.14273122387209944, 0.17038968304218843, -0.11902861101266529, 0.0649576674536923, 0.03369301250026145], [-0.06018464375974128, -0.0014953129377732696, -0.060814853662127355, -0.17774684193164927, 0.1628716916710906, 0.019122554185257146, 0.11512893626945868, -0.036729706648884135, 0.07409483206113338, -0.02829862553500869, 0.06683653994628083, 0.19505252117832875, 0.03397003972439918, 0.08123147369653831, 0.012641708842566898, 0.1390616404349685, 0.11690361481583024, 0.12374386368099857, -0.06810668408416641, 0.024987959066773657, -0.07954799744369341, -0.0947538688091375, -0.1006860744330769, -0.014740003420821254, 0.13016691170172454, -0.06635433388096254, -0.09321621405751275, -0.09688072116413382, 0.07800750969838638, 0.0014005538026427321, 0.08239895355709978, -0.10028605405647034], [-0.04953774912087113, 0.16874976763811736, 0.07398275279287415, -0.2858014860037198, 0.05376608302945326, -0.03235824816778019, -0.07667744500885841, 0.1511316211052142, 0.06933865024402584, -0.09020675966264531, -0.04458941098188324, -0.05401809204514955, 0.12249714057611809, 0.2106304028473217, -0.14510406650922053, -0.013012700476021172, 0.19362207948761687, 0.04075395564015474, -0.10435354161286692, 0.04445704963825732, -0.12811416948518403, 0.11214084309807719, 0.11324630200338519, -0.1316516840327226, 0.005304945710271026, 0.17088184875589668, 0.04953533996476578, -0.035346736505202786, -0.12795182956685713, -0.07869554743939186, 0.08112144903413325, 0.003943187959917241], [-0.047030727624033944, -0.06222659934618116, 0.04298990237575843, -0.024313432450434252, -0.024282331860786502, 0.035144503985922323, 0.0005348961766231819, 0.06388235327684838, 0.07566937146914515, 0.1389984816370703, 0.08314307360869665, -0.07752474146786409, 0.1479975221498072, 0.26683055655250826, -0.1826830480197304, 0.08235758645636339, -0.10647560162357095, 0.1452650803017582, -0.1582540730400725, 0.01287792042064957, -0.27278450143783106, 0.0207440148183069, 0.06713024561344193, 0.10977072152771447, 0.03166298484714726, -0.03505196211998741, -0.00016957731581764316, -0.05121135801806387, 0.051826340431220384, 0.07620753053323107, 0.06771936055332291, -0.005509696312481334], [0.2401709025127429, -0.12602991575136144, 0.008064817935108819, -0.02129995470109062, 0.03842628709817458, -0.06652402971078995, 0.25657979471952436, -0.10253232979917426, -0.07280100022990302, 0.002854225120765423, -0.032482947990920094, -0.033044335882059094, -0.04886350072975881, 0.0024053626418051237, -0.10379187110352764, -0.06036993025302292, -0.017399549545330954, 0.022587387326209404, 0.17463288219365214, 0.00549697987695976, 0.03588915043133503, -0.12157267981638079, 0.03675571835972184, 0.07611095562975685, -0.08020841809558835, 0.19067692651934257, -0.13678774943667626, -0.05041960049021222, 0.182291287633867, -0.11337781779507383, -0.05410440267849509, -0.14162553346148907], [-0.016211205540939758, 0.2128729181460293, 0.06778198065018683, 0.130168011902256, -0.14462187157216055, -0.06822087268612029, -0.022664501391851243, 0.0540880780622723, 0.014327826739750148, -0.020291115066144814, 0.027768386280376485, -0.015073866933657165, -0.12913943541904774, 0.12196221041562429, -0.14510094949238078, 0.01779113919061742, 0.13963213393676796, 0.16670073330639434, 0.1362462007410512, -0.14421074888624355, 0.17704035439195057, -0.08895494207991983, -0.03728780406482251, -0.025402608788130412, 0.12402005577259621, 0.05302282883520788, -0.029757179300291415, 0.031389034508763305, -0.17643488364165294, 0.08917878893608829, 0.07679924183403208, -0.059673246222859876], [0.08255423258777154, -0.22228930809487338, 0.0933346592805509, 0.10844445966355826, -0.10404646428640504, 0.14388266427411825, 0.33990160404256353, 0.049993051631727535, 0.03555175323881884, 0.0014416945357018345, -0.006293761710414097, 0.07094570741589384, 0.08359554441958182, 0.14526087024041223, -0.035047834398034716, -0.0754736083415557, -0.07077792814450078, -0.010780138389700353, -0.16838400882971438, 0.017871258709560266, -0.22670425325978383, -0.06353161728740135, 0.09121694585605546, -0.024814628142140485, -0.09213295022488938, 0.05552898100351499, 0.08464404005986305, 0.09824052420855735, 0.05578777497743979, -0.07419921281813359, 0.09778112983034602, 0.03487716776315797], [0.1875603448326051, -0.19813502008586417, -0.020397618067967957, -0.10369884095810605, -0.2926922348198833, 0.034487801810712065, -0.09745853601327126, -0.0905193533745065, 0.040272678406598546, 0.034730591850449834, -0.002386315036102601, 0.02919027535975285, -0.17072744647801832, -0.03247231139779596, 0.0871167740439109, 0.1396727149098268, 0.06320436840197677, 0.09255843295646606, 0.024071735488043474, 0.3667428977373045, -0.0793916045349256, -0.10322400356859102, -0.003785246369457885, -0.051855401535579757, -0.07335154725525818, 0.03700593852717756, 0.01982410345691379, -0.2735633381670451, 0.18816374538711997, -0.04922269785253999, 0.18463353456640583, -0.0855712918605539], [-0.045460513079876266, -0.010401836789930313, -0.17673348986284676, 0.001258588617949232, 0.09892261626322041, 0.05744830999544001, 0.18812798641840325, 0.06546407249709421, -0.1623533067900116, 0.06914642014010278, 0.04319591216150012, -0.16771958825283445, -0.09078059267474825, 0.09468801056269803, -0.11505401244872154, 0.08868212437102077, 0.1597948827664703, 0.07927518142215852, 0.012221603106889882, -0.2540490636813309, 0.10072880496989696, -0.08638783250759788, -0.07541710213042868, 0.1760681505363038, -0.060229095205488095, 0.03253311517539739, -0.1689769028495594, -0.10004060478303518, -0.09066500411220688, -0.0984004318275035, 0.012120951477148685, 0.052116607516410306]], [[-0.008810742293890854, -0.17938749808949275, 0.013127961189501613, -0.04299913753978999, 0.0903574843665138, -0.12116110789495606, -0.02762447399061886, -0.029046863108553634, 0.11795755720400836, 0.13424487024424667, -0.04242780029187066, -0.0006667656483429107, 0.12668581666698817, 0.03508597206787331, 0.22230410500278158, 0.1431414549396705, -0.1229408530027844, 0.3716772435091033, -0.05926711127911402, -0.1706144470294374, -0.14476300456071767, -0.0033965546157847387, 0.07013387296021441, 0.006644071185483938, -0.0664961003620584, -0.15425386261864896, 0.2167804426745731, 0.1440127885525299, -0.08637887531444627, -0.264946936992178, -0.15796422018361067, 0.039470564229989104], [0.13939434545516616, 0.044554033127970585, -0.19064157522545902, 0.197810022527104, -0.05936750955538347, 0.02336708245115853, 0.24647153140755218, 0.07127774797735606, 0.08959180013975669, 0.10020377432684684, 0.07049401684327268, -0.26612385980189635, 0.08382135686533045, -0.0033534943826592344, -0.28030145031869197, -0.04951866877622525, -0.1270751750111641, 0.159145167787019, 0.033465440665028344, 0.09370717242656113, -0.028363277695770187, 0.05522250720671813, -0.07912448099090678, 0.015138871105007065, -0.1582734804454397, 0.20944104737575364, -0.07822001411665845, -0.12096801708146777, -0.25481295225764633, -0.1146100892591974, 0.0789317049271453, -0.2623436616885844], [-0.0031189819162041055, 0.2722717369469533, 0.028465508960001825, 0.3734353867785503, 0.1569143665484616, 0.19206371313722245, 0.1781908009570902, -0.17041628129524122, -0.003304072341314463, -0.021232698625933945, -0.03007082902068787, -0.08630624772541186, 0.059456777473428264, -0.15381627510216853, 0.04919165872207034, 0.17681873487812588, 0.2150144637457587, 0.014818201128215367, -0.31329619666990344, 0.1378954210250911, -0.01976839128698677, -0.10632210480220312, -0.017816260292486178, -0.16392343936910275, -0.11315749196207828, 0.21480284857014106, 0.20150067590629972, -0.13472409043091751, 0.08960934965405445, 0.10389277054360267, -0.04416136081676385, -0.2036588560426894], [-0.2686014566234882, 0.11333564422513669, -0.08655678435283476, 0.10540257286096615, 0.07887362278146826, -0.012435898454566123, -0.1676059404918211, -0.15189879335304746, -0.030554819143566933, 0.09816484579289941, -0.2038669625982626, 0.10863522880418529, -0.022106658969214567, 0.0514239331491137, 0.22660591656818257, 0.006676135280277864, -0.0011024912893484045, -0.08345348552644054, 0.061132177105619516, 0.15864669965687173, 0.002955585860525384, 0.049199988893219845, -0.10719525108335667, -0.025013441343724872, 0.18748230770992183, 0.03020673582440247, -0.019259803395449353, -0.11940368800999997, 0.08021325191044638, -0.13429222981290487, -0.09357725741316256, -0.06303953711323136], [-0.10351100001662222, 0.039296657629910636, -0.07036504720316861, 0.14802049667920514, -0.09547596117794914, -0.16333159542389786, 0.18776636859330087, -0.06912707880150758, 0.009617055793257643, 0.017896955248842918, 0.005725265938865883, -0.18491365460568598, -0.04671557694631112, -0.023634949450867925, -0.05136971356827367, -0.15429569586010752, -0.026318062730685786, -0.22984463710630157, -0.008714450104736256, 0.06522389097042655, -0.12023145288031242, 0.04373074607789493, 0.03201504556273205, -0.03321165358689669, 0.054520490299792314, -0.011042081048710427, 0.046861317163530675, -0.1458465865314709, -0.025017629346181642, 0.020356297418325786, -0.1226493369849827, 0.044421017459472786], [-0.1618003358785271, 0.11591429231585465, -0.09122601897262876, 0.15149501226656228, 0.03573457321105735, 0.020600476645717868, 0.027621845230225803, 0.06289659227720804, -0.12393227343529659, 0.1053083341841062, 0.17308619663384542, 0.25390368716954487, 0.012264526003907424, 0.10660769264614156, -0.1409910105848967, 0.0004915500957216547, -0.06922518922125008, 0.24933153762436389, -0.027350315878415098, -0.011203811882611511, -0.08289995689985058, 0.18074040395793511, -0.13005968214837266, 0.22781934682537222, -0.1973326123568053, -0.2705333965696378, -0.15527441523245872, 0.16536889471286512, 0.08560015828860479, 0.12015541793661508, -0.008377646179230201, -0.012175652127975547], [-0.14276267036060622, 0.18170077572489854, -0.07854868512924212, 0.021523307287138957, -0.1181294904085744, -0.0520360224972184, -0.09114696937825491, -0.047487731011927714, 0.07108589411789054, 0.0508481838985844, -0.03651634790718097, 0.14556561925962175, 0.07542221819227805, 0.0860754711703189, 0.11398832441242553, -0.13768076941969906, -0.0728309342046838, -0.0689064822475026, 0.2001533667808398, -0.23776492478618066, -0.020485250326090124, -0.26766504069834574, 0.0965160072524574, 0.06599290920740634, 0.046675746593888, -0.1430203676299498, 0.046719827963787985, -0.11126172441565556, -0.012493086465978322, 0.0719310718424081, 0.022520770849205576, 0.03184241056592886], [-0.12081360066109906, -0.04632850638611273, -0.1357944432852522, 0.0325173250028337, 0.13750732481299385, -0.09564594410821785, -0.03495735995888122, 0.150971089879114, -0.020142742895544838, 0.03208451699840829, -0.008870428196936151, 0.01762553392403267, -0.06075959087858265, 0.10091121071916562, 0.09325955596768282, -0.04788997727032074, -0.04912577723791624, 0.06380563076302902, 0.15136264996709484, 0.13016343425428278, 0.09276975604233288, 0.021607786722559495, 0.058472843969057726, 0.2133881647243361, -0.03130907541206654, -0.10539623668993178, 0.1008592850946117, -0.025267452193607435, -0.03728577966645743, -0.14587825817162398, 0.14403485640134525, 0.0225048763253568], [0.1122742283383464, -0.048944513336678104, 0.019666462600313725, 0.054338665750488395, 0.049234828902952714, -0.07811072611515156, 0.20908943505370212, -0.22036697749854403, 0.074557894337409, 0.19255989939088933, -0.2393757933064904, 0.07744211679126438, 0.04741432666996305, 0.019027269779732858, 0.026563337312606277, -0.028018541187382326, 6.462401104794658e-05, -0.14682205454721992, -0.24065998275755707, 0.01888915236734224, -0.15151160380921908, -0.28326263990145784, -0.11511288635147661, -0.18579169238063217, -0.0631877466029022, 0.1252285104445676, -0.14940123275285275, -0.054224943172871236, 0.00644962863327999, -0.12562527413269883, -0.11714695949680046, -0.1643620695175885], [-0.13967650775463103, 0.13942375937315732, 0.05944445786980913, 0.0009971231285538188, 0.048114851910066654, 0.07776868293717143, -0.05568294006909828, -0.10882336306185542, -0.20667038246903582, 0.1547680435821232, -0.10979505649091066, -0.09835709679110606, -0.09997165129697692, 0.07860974798512364, 0.40272842731333275, 0.13102740836745153, 0.2791494629259356, -0.026826042688136525, 0.09695908519326057, -0.046587136116914465, -0.0058108186814721545, 0.13699378092348335, -0.06561348630053206, -0.1290553242194335, 0.032886264353522224, -0.01888345213815748, -0.048830071062977355, -0.02746400863897351, -0.04989162231812075, 0.042593871797937735, -0.12948376083312835, 0.2237610935727966], [-0.045573397617523284, 0.19377392838139335, -0.08929110356338407, 0.08688244120854181, -0.0032799841349728347, -0.06635528591295359, -0.10147827807243615, -0.024154927805870828, 0.26337965411758446, -0.15920057785688427, -0.35325212118866994, -0.06416706622895242, -0.003545615120741279, 0.17066486646524565, 0.1605202605767945, -0.09735804018705622, -0.03088466695306909, 0.00777164311580508, -0.03448917062647779, 0.026067217020833974, 0.0006775221794559568, 0.14447722189951512, 0.0798991975481022, -0.14669779924648585, -0.04334042492686977, 0.02479639286902954, 0.06239129178738579, -0.021687446445320096, -0.2501299360954331, 0.01686703937979965, 0.021694110090044898, -0.1767084254913446], [-0.037353299759351435, 0.014636095238767834, -0.12352783038990121, 0.03870360051763796, -0.09627202284815231, -0.01646939972110327, 0.05408901282318233, 0.10366147723560228, -0.07560912441209312, 0.0985787646893534, -0.003201821901358138, -0.006038097496056914, 0.1669932749611083, -0.1034207613065534, -0.15333572480581106, -0.18481639374379727, 0.1648505869749621, -0.053893028199916315, -0.13021548008883152, 0.18430260940235554, 0.00945275365507692, 0.06864919446546769, 0.08941851200736521, 0.09810886689256662, -0.01825280084038981, 0.025731499884216802, -0.14781594861298233, 0.1798325590470557, 0.12310910157213867, -0.004577852406214139, 0.09680728843278685, -0.1507977091347613], [-0.009566793836441911, 0.030125528648918893, -0.10056640210649034, 0.01216207372648222, 