{"conv_kernel1": [[[[0.8654470648193978, 0.09347091983132216, 0.15184675650567456, -0.01150584193917705, -0.6537892338493154, -0.10244270529810082, 0.2882210249133419, -0.014120889113656112, 0.08207573365500699, 0.45370840836649856, 0.43215501489460045, 0.7402048647825143, 0.721993747301613, -0.08169286712708852, 0.16692353376351723, -0.03256859619264959]], [[0.44200525072906394, -0.5994915069295975, 0.2504402804228084, -0.6573699040854915, -0.907365437804678, 0.6582339478218169, -0.4165847323727839, -0.16359793824760874, -0.4535265723738241, 0.5121196312585541, 0.058236705189724486, 0.20515039081020264, -0.48273168548188355, -0.4541013870473287, -0.9390540806207044, 0.8818708160473921]], [[-0.5575785720226736, -0.21575025877100443, -0.20749883397807364, 0.38475526899697304, 1.1305546938554687, 0.2584173069216795, -0.40261300818558166, -0.42913011370019283, 0.20244733071988896, -0.6271452079956531, 0.16627715861524398, -0.8100379248510714, 0.11132274082433109, -1.017552809182536, 0.20296012444087794, -0.3142850480913833]]], [[[0.1085490293198864, -0.48300580123072634, -0.1230778006997132, 0.745960623838521, -0.321255852729445, 0.36608896093331, -0.3069793877828736, -0.2677965984406417, 0.7322199479141095, 0.1847730056702577, -0.5417508785646693, -0.8584210963840798, -0.4351054392243327, -0.37680972048714, 0.503672963564114, -0.6891649452530024]], [[-0.01937109792479002, -0.7729361673931875, -0.1344032475778599, 0.736969104800655, 0.07751627854223661, -1.2905325689305696, 0.40949635516145383, -0.0620972371245721, -0.17007684029472045, 0.09925290945034632, -0.5785333732240475, -1.1879050156687587, -0.40374209699943364, 0.3379160509131512, -0.7448517735849275, -0.3248967858089868]], [[-0.08767018967193994, -0.16756560134200726, 0.9696711017118771, -0.27642809530822576, 0.4459383259138453, 0.340171150568774, 0.7325458058751503, 0.3034381419830841, -0.023425905197379356, -0.49480659942352107, 0.3103774775359052, 0.16772457775699057, 0.289891982266159, 0.1384243161942225, 1.3517154282926538, -0.37756143695756655]]], [[[-0.19941144513858716, 0.43995996062735343, 0.7696291545133535, -0.33637184140299725, -0.2783928564527706, -0.6000225903407339, -0.2953607711875109, 0.04768027743298731, 0.07676040116328209, -1.1051025715336158, 0.6329518140991195, -0.881053536880189, 0.8857652677945451, 0.06224474113047824, 0.5998071135238521, -0.8534519548246366]], [[-0.22749804199679233, 0.591442088514523, 0.26750800426944327, 0.6422020941069945, 0.4521077052792763, -0.18034752005800006, -0.375711053876568, -0.767775871023782, 0.44966338205127965, 0.7694509268783808, -0.2566544537617621, 0.24722657040322626, 0.17831058429868796, 0.05187858500292035, -0.12913053740753452, -0.060013430277276306]], [[-0.2168773273738692, 0.22682764889186727, 0.6288818984492487, -0.7262643414251878, -0.1038055689942783, 0.046582725305287155, -0.10784240903907784, -0.2349847079544975, -0.22566591693179539, 0.3478788937771013, -0.2582348240794634, 0.1349111223013436, 0.14746039796190544, -0.5929930038109301, 0.7576102912587825, -0.9594201378215725]]]], "conv_kernel2": [[[[0.005309955186130556, -0.07000849047749784, -0.023338980228717204, 0.05485211972679582, -0.06262289321483172, 0.018454736035360825, 0.07367046248368608, 0.17847138859737494, -0.15359534092624713, -0.1406154305501526, -0.15017397626534293, -0.12283209532528784, -0.057829886263918794, 0.08257359466984905, 0.07632335087393063, 0.08568443340695665, 0.06479392487502655, -0.023828187896001187, 0.06532508919379974, -0.1961024773062241, 0.02294852901760644, -0.02737783672558011, 0.048182591556237594, 0.024480911973370354, -0.1978026549826842, -0.18627967797686437, 0.0956725339006511, -0.18301325054770595, -0.08230619209381011, -0.12680086209094932, 0.06446660233174482, -0.09329655640850439], [0.05021269668493813, 0.05913249791785907, -0.13856162534064953, -0.09700163927292207, -0.042295294388650054, 0.12039828086055657, 0.015092599517283055, 0.009665305006147814, -0.02083061982641228, 0.051307614689136624, 0.19789553067382853, -0.09583187525786464, -0.027836831332599208, -0.018676421206160056, -0.38681670814707253, 0.15022639579272015, 0.03532934688575403, -0.1103716175141524, 0.13059639928044559, -0.044291166997947246, 0.23855600376917094, -0.04309938689312251, 0.019991597196374916, 0.052221333126077116, -0.09103419591256096, -0.289325598440769, 0.04009340577777124, 0.013853237341851475, -0.14399208946340658, -0.1827967031537301, -0.007323906968777756, -0.03900730397262272], [-0.021580746470717248, 0.06132506165978196, -0.14638990346201788, 0.4098873694738603, -0.07015784653716546, 0.05471021786309976, -0.15517704509991576, 0.14856058534866068, 0.23615480602035221, 0.25058674697267835, -0.04479894783220107, -0.10848740561017393, 0.054982944613871654, 0.05742779762426041, -0.15594011223530463, 0.00278818500411001, -0.029157077845753037, 0.04270314554562644, 0.0037972634712151974, 0.23144488810237407, -0.04431830687863623, 0.015902120096393316, -0.10731074162642636, -0.03642840418089929, 0.0179888845265172, 0.1660060324472412, 0.14294785554564887, 0.02683903984820683, 0.07581162764729232, -0.09545035423991467, 0.12563286408637328, 0.1256732490635262], [-0.0375015253314655, 0.07131557318086224, 0.12947266804798144, -0.09981163334843393, -0.04091325521892247, 0.07075534443639084, 0.021510386052924848, -0.003935387554296601, -0.11462393071920872, 0.14695309376139917, 0.2571835816710639, 0.0430269984047942, 0.0698239380578587, 0.08596031941438236, -0.10015962702657392, -0.014683637317809667, -0.10762481048883299, 0.046755347973419015, -0.013214405675561654, -0.13036082117452383, 0.013067641175246418, -0.16851883510211127, 0.10458889281372528, -0.293774335287595, 0.1369839803160598, 0.03724592438863137, 0.09910444921848445, -0.08442072825689333, -0.04086418258627741, -0.3073764371154911, -0.02781141673070536, 0.08839060225648099], [0.17309163713647394, -0.019731759768579327, -0.11355425172845521, -0.1212323800526356, -0.038922555176828744, 0.027657854386929782, -0.22437930141829754, 0.06811450597204805, 0.041251285062530514, 0.0035196812522607737, -0.07569181527672393, -0.03367606950497188, 0.010718031254305482, -0.04894686426193736, 0.11744522687239303, 0.2181498234013371, 0.09466187566504998, -0.018366262303702658, -0.06741193873284622, 0.012553569577277632, -0.08477489421824365, -0.09778499478549436, 0.00016363566217302784, -0.0859705519035193, 0.07118169621939677, 0.17756290648461007, -0.04857107982305835, -0.009062662191625307, -0.03314086974042827, -0.20013465292923585, -0.15210987709816956, -0.03558642742371978], [-0.1961878225978322, -0.09120256153261928, -0.008692704432281474, 0.03561454285883734, -0.47678593539451103, 0.06587967621038453, -0.24327901160622678, -0.06761022473445885, -0.003932466961352149, -0.11621220449532754, -0.06301054695356383, 0.22003913729653168, -0.006506763372512563, 0.012004250834822948, -0.09058395428572208, 0.07637562932391315, -0.21680792107245528, -0.08482205903340743, -0.03984664800974031, 0.08037020485047196, -0.03440271173949681, 0.16974631808822185, -0.09045549596581298, -0.08197025300875162, -0.2090624847053273, -0.14919135822120955, -0.18143853022702078, 0.18958082062390783, 0.1621388851523839, -0.0164426452350329, 0.16471772888817382, -0.10829483239562418], [0.03379204301753706, -0.15580162197951833, -0.017868444105978914, -0.12156576917070415, 0.13069250119739687, 0.24798001934971536, 0.09967043539324288, -0.00874791509189943, -0.12343112086353468, 0.04706567287535714, 0.16507897729040297, 0.03300602315285384, 0.12812484099923502, -0.10420182692639145, -0.08092018946405416, 0.04899101292038166, 0.003595347449421427, -0.18318211983537525, -0.05042737369178811, -8.390047710076031e-05, 0.0010765078607642674, 0.11700522710058445, 0.03456285926525448, 0.13281164699606687, 0.05822250579180755, 0.06796033918718457, -0.04549583698276156, 0.1580699295569538, -0.18143228687686996, 0.0019271005769038877, -0.2551571287115896, -0.17013145217143852], [-0.09034605705987696, -0.21371450836133557, -0.008358500352687835, 0.1572917003985488, -0.004037123473041599, 0.005779344139420761, -0.0390316465037296, -0.06824392929101401, -0.0032091323046293525, -0.11382152095805566, -0.09462873041891806, 0.26050674486489295, 0.06868398331087354, -0.13399291052825532, 0.06357061211101696, -0.037065619963304285, -0.06432807642229788, 0.033196019913803256, -0.08897314783041009, -0.013514584024201127, -0.12750591770273959, -0.07188925162241877, -0.003858557948181148, -0.1539513602845682, 0.13993047370701567, -0.14785074276073457, -0.08990658554909658, 0.08948429921485578, 0.17525224515793636, 0.15206324271797644, -0.18423086549525822, 0.06254633790351459], [-0.19377143223983778, -0.0028195416386117547, -0.052070059800454864, -0.04681453522314221, -0.30352474936273416, -0.1301878986503109, 0.018029746337639676, 0.041037993806479565, 0.23636930915243143, -0.08154957224487079, -0.08570972783546132, -0.11770032888144176, 0.029575772757465563, -0.13391839029848285, 0.034322922799224526, 0.12746294052175533, -0.0719029430331527, 0.09211110286290759, 0.05697450032529103, 0.16565048150348485, 0.10047953059893068, 0.07857286435070208, 0.22875695806372667, -0.00904447608582376, -0.0533587591090652, -0.054165718095785055, -0.027246916719688163, 0.18083037537594496, -0.0032715151015563705, -0.019786183670602732, 0.08525906319802776, 0.08657572811275525], [0.19360733908014366, 0.14134848150231474, 0.06110732044355928, -0.04970284001251097, 0.10623694700792578, 0.045592024746423966, 0.12079294447847032, 0.056942624797768224, -0.011733945737508357, 0.2717356904831575, 0.05719649191113458, 0.10177791201928214, -0.013811066801577511, -0.03994512972629598, -0.10002638604256953, 0.009836028379136991, 0.1483202326509454, -0.09529141791113674, 0.050938363104037744, -0.16312150619383572, 0.19588447104533305, 0.28575575123422653, 0.1262836293771535, 0.09869911404831734, -0.02111457074534397, -0.06292472517872352, 0.12358975480793455, -0.05928752559160356, -0.006975365174947615, -0.09007676073348529, -0.015421254178599202, -0.01441463224256465], [0.22726105088694065, -0.20682882728305177, -0.05805672729350862, 0.10625955156075567, -0.17018806898204705, -0.1250657033015883, 0.22298534172689496, -0.0711315871716933, 0.12082256488325076, 0.18539109649920787, 0.07632272041454437, 0.12267298261285044, -0.175372626779861, 0.0002324318608992707, 0.16768620274707177, 0.11822768816686469, 0.07335622592755847, -0.16265691945571492, -0.18465863236218977, -0.10351880313749856, -0.08162006096643028, 0.09196982508554713, -0.17284018740444904, -0.035037275454415304, -0.0061032048560010314, -0.13767306224662093, -0.2124421423801079, -0.1533964393490292, 0.23083720634033286, -0.04787937491828829, -0.07471967280866983, 0.2827826248689782], [0.015687480093600402, 0.10944525751890984, 0.1116921937531546, -0.014263773062993378, -0.08267808515751407, 0.05960037238339683, -0.10583127935646681, -0.18657789239605801, 0.06811657333893789, 0.02936017324019122, -0.21348551157888135, -0.014236876027061968, 0.07934151803889226, 0.02984019356004494, 0.07668510145509348, 0.20774968573380453, -0.18733333409818423, 0.060004744003072714, 0.07539935146832291, -0.049005717796914504, 0.04171221085050726, -0.08649896752442889, 0.13910161813653632, 0.039372044741604634, -0.08506792089605877, -0.06688357077737508, -0.00477859268694391, 0.01997581687235959, 0.126469771271287, -0.06399588999656415, 0.04200693849125069, 0.05449126430965069], [0.01832228815030111, 0.07089054101698666, -0.04770053831359462, 0.16534952115392335, -0.1020260468196005, 0.27143288477997196, 0.13674101427807983, 0.02532184949950026, 0.024367942261451343, 0.04037128649810442, 0.07190082107824444, -0.22241986375570538, 0.20523740294896065, -0.06388905750407448, -0.10015021002306285, 0.17005819637098393, -0.2780930028164065, -0.0878026281398442, -0.060387018931191465, -0.1707889301082275, -0.07967613643900373, 0.05418357327312979, 0.047699915913134196, 0.22513864076106355, 0.046210088258647274, 0.05485735376997794, -0.25420643041525987, 0.08326842391415991, -0.007840460659785121, 0.10584800681912382, 0.11275744423349528, 0.0690841860662289], [-0.03593989033435169, -0.1485715678756682, -0.0859549357641523, -0.11890770964598533, 0.030201138924636696, -0.2048155827873911, -0.02762681110475357, -0.044626951859689484, 0.12581863569431972, -0.1251539809342925, -0.2461020061194766, 0.2902095241180016, 0.02354032435770884, -0.1329781920511233, 0.01205628857396282, -0.02928383252385617, -0.01617037300943753, 0.12051489720802923, 0.22168940721253372, -0.027093667319720564, -0.20434462165675354, -0.13441055612091077, -0.45491478650028344, -0.035960050016287215, 0.17717545038296323, -0.18733929555753953, 0.0027419126457259558, -0.10731683412571646, 0.18706167016726113, -0.09881421956021148, 0.05856607221568758, -0.027120082506524135], [0.05431073697975295, 0.08833521956012015, -0.1701995022674291, 0.2791684155152814, -0.09068391749623617, 0.13880929650917317, -0.027768699006897997, -0.12066070686386628, 0.2790009452403558, 0.14669739222188083, -0.09802448563829602, -0.26958880186689643, 0.09593253543708206, -0.024712947753528797, -0.30390150434940033, 0.030573866632796952, 0.03281444258881867, -0.03999489375516161, 0.13397745767516786, -0.007281648596064492, 0.1529511916617947, 0.14577182597080104, 0.024004128186700564, 0.01882835362467585, 0.017245188923305295, 0.004959848127923982, 0.17304856170345187, -0.07547430558401433, -0.06532439906728656, 0.0753085295799211, -0.0023950353466221934, -0.053002538803728835], [0.05801957616937259, -0.08822597778094592, -0.014525552476636424, -0.06862183690475993, 0.00994103556334362, 0.059741488219156424, 0.14350745204220977, -0.2277068755684259, 0.1837216983746575, -0.24109362849095872, -0.07898374433456745, -0.02862848983595409, -0.14808209682895077, 0.11425475403272106, -0.07242045263237835, 0.0764957832664416, -0.14965207614995144, 0.14056121898155077, -0.15126668455185086, -0.08966209087076867, 0.15896424454002764, -0.0862560798860322, 0.19310380345320824, -0.14223545991667755, -0.14345962904454906, -0.018241318909963868, -0.016152608052801526, -0.038491714330517006, -0.12828857469401814, 0.09461515109921749, 0.07018317562904422, 0.15425485852506315]], [[-0.15762369778628868, 0.11720663731812485, -0.20200701108299787, 0.0715061930619887, -0.18436249196543036, 0.13231077598006774, 0.08088648531861556, 0.20002661129807464, -0.06532467756796886, 0.01384964519833444, -0.07782976035410548, -0.18741949739239291, 0.06981121352046052, -0.1460205417673993, -0.0292359364362045, -0.09268716269211756, -0.038245730542784497, 0.09756483851097197, 0.12455535072198999, -0.05290828008487151, 0.09810963557584325, -0.09974081501819095, -0.23252376811539371, -0.05380257438909187, 0.2443244668829291, 0.14086621652195486, -0.34008196422963216, -0.1996675144901808, 0.0034957212846235533, -0.00025651840015024363, 0.11083640459822058, 0.08518399122079738], [-0.022250360363571944, -0.14122754625127612, -0.028015307417266988, -0.19186931127581086, -0.018427219682577507, -0.05768653686647916, -0.11139443553503307, 0.016782065980801206, 0.012415583488274099, 0.12109216816333848, 0.0015933704775846155, 0.3485421433073495, -0.01650902536700648, -0.09263337707206944, 0.10472090339117064, 0.06676025279309851, 0.014673018750880295, -0.14873732529784525, -0.11976365617982233, -0.08045485477539539, 0.10850623248127761, -0.00025285378295178325, 0.05430658173099477, -0.031715152569781295, 0.03908993170130908, 0.1500634814970449, 0.21016793766058683, 0.20600605394764482, 0.015201477678426315, 0.045419050804925025, 0.015116554123102258, -0.09190523237686868], [-0.07988210274232069, -0.027932483919253695, -0.011875311707752315, 0.10142536837234828, -0.02290681664269992, 0.06465406140735781, -0.14120666174126456, 0.21668865441388696, 0.1502060782797477, 0.021591316894613702, -0.0005569211328501188, 0.16650438184319571, 0.021789467422449423, 0.10940208029631372, 0.3566351548452216, -0.08869858315820667, 0.0065368840923200324, 0.35257412786229, 0.028311364948311657, -0.021961537803987186, 0.0811136515902688, 0.05467095411987875, 0.24105624456181765, -0.016480682776168546, 0.08442809712282871, -0.10390636803413426, -0.040040455716534445, -0.07397422664585432, -0.06035497081402662, -0.03794651481254691, 0.11674107706638104, 0.09155505029502445], [0.07115582681882324, -0.12179874896644315, 0.17112149746599778, -0.011240950319328319, -0.05166313514136784, -0.00287265400876596, 0.12175655743304313, -0.07178199910617887, 0.12479282695494792, 0.09231075219145263, 0.3138972820798445, -0.19608235785334366, -0.027321534378155668, 0.003406277769207208, -0.028688812409038207, 0.01997173215895935, 0.10112069355581235, 0.17597656312787208, 0.02638633536749121, -0.26093631767350056, -0.14073219022311043, 0.08145359883515982, -0.014680172823321626, 0.08157479416866749, 0.08843911832307584, 0.008133295274697076, 0.13084744445091406, 0.023110257271485468, 0.06975736157733543, -0.015980249249450813, -0.017798448198777676, -0.07704565621250122], [0.12464597097707929, -0.030482566120650492, -0.08462498882297581, 0.03585448303243166, 0.017266290286908608, 0.024837180992982655, -0.014118149213401385, 0.2068522532083102, -0.1050571175328385, 0.030222191838879777, -0.08207086032010491, 0.00756351453404882, 0.014028269607756836, 0.2566730725943846, 0.13584498075934853, -0.11787564934080563, -0.2469935416416444, -0.0176980093991251, -0.019963680928374868, 0.21315010470152818, 0.07028968040996794, -0.05947800567046595, -0.05530523101182594, -0.1576795490805546, -0.21159133842765343, 0.15175177654899935, -0.0720994831874629, -0.19567868468947472, 0.07126999714244307, 0.06480273367074739, -0.10462984144253124, 0.04074931461059997], [-0.050717744269658645, 0.06294384141089528, 0.029949677034946984, 0.24201524905006006, -0.13334980626137763, -0.15167052484747384, 0.027369435600573196, -0.07428793694418422, 0.09018490203075645, 0.010619240179300077, 0.03625439244185281, -0.02860884714834352, 0.15248278354645609, -0.029833572421262906, -0.0004636894013178918, 0.06350804095276064, 0.20656728533706367, -0.12079876383115658, 0.1450104309324298, 0.08661607689209178, -0.0008728052204974816, -0.12461534159177426, 0.1272317073076024, 0.12850202865508242, -0.09542829623702166, 0.16307334053418562, -0.09156620756538408, -0.14655057853721512, -0.022227430486726093, -0.1000052523690522, -0.010003508975295314, 0.1350565661322237], [0.10500553065538475, -0.048066029802902296, 0.23746715614878952, 0.11014199829391084, -0.002437846242374358, -0.21763766608274918, -0.12619477325269685, -0.15873533782952615, -0.025810188878840453, 0.02420879026388577, 0.006332662729911595, 0.21544635990486855, -0.07814298323624257, -0.10273657509305484, -0.009600578255867994, 0.1563886524005668, -0.025494580000043194, -0.019672688353772862, -0.17708659203461452, 0.08200462757338516, 0.026118786402056407, -0.0032947416139816822, 0.1217930423530798, -0.12334756166061957, -0.15750897227873523, 0.09353257908693442, 0.16406975188352496, -0.027711375030597916, 0.017832191705556246, 0.06314052070138804, -0.07059813055899498, 0.012009412946429323], [-0.038615327190057204, 0.17959753985157464, 0.0825563260824565, -0.13413843602133252, 0.027542388056520012, -0.21111548777807765, 0.10978815810315085, 0.05347690200988984, 0.008584549430438588, 0.16168200747212066, -0.0158895296234099, -0.022447392841804168, 0.06299729125743343, -0.08126378070940789, 0.004166711586856107, -0.07718274320124058, -0.11746139391361957, -0.008935738741218082, -0.03172741410630491, -0.10861752104623522, 0.06960450826570876, 0.17234791919047632, -0.025943389350728735, 0.06738476936125692, -0.1843266380981836, -0.16617904954097973, 0.1263599127460305, 0.20874455556814733, -0.004349314456965024, -0.06845494322641898, 0.08264761026783084, -0.25916551652942565], [-0.051513144598651334, 0.16622553173102977, -0.0936685282364293, -0.0714891173547004, 0.07198679340737046, 0.04260951649205884, 0.11401699953412339, 0.039343616369656394, 0.2546578638109038, 0.02940955489030803, 0.056483161233428045, 0.08187858707169546, -0.14903737176793314, -0.1387775250102067, -0.12388470902191398, -0.08030422982203668, -0.24172085150771433, 0.1301402408474538, 0.1455580249861943, -0.011333879466618598, -0.14172370400703527, 0.09486416485714386, 0.12475533320730701, 0.07696759949547659, -0.023593443961371127, 0.19219693564957904, -0.10066948461063359, 0.0473141961488991, 0.053744305585472156, -0.20122779149414402, -0.10941814718485139, 0.07547471935756517], [-0.05920565056991118, 0.008787802894275522, -0.04712272238198064, -0.08010054579933991, 0.12469073357734206, -0.007873255710934352, 0.1360445916161477, 0.009662881139913287, 0.12858583570204007, -0.03241734218530803, -0.008133765862148234, -0.05960951194073699, 0.12016593654259333, 0.07001316047325404, 0.11759481732794733, 0.13923524710182433, 0.06496003294044779, -0.08380221321321842, 0.06679117652484011, 0.06961504313433779, 0.12921053464797452, 0.02685999623312134, -0.18716602621735748, 0.043900900012748, -0.09817280546139083, -0.24713190730142665, -0.10145624592854556, 0.0440002257918925, -0.07923357166336509, 0.07201761830368024, 9.097774957732059e-05, 0.07387371181653225], [0.13083937531365192, 0.07317164790119988, -0.044175177471710826, 0.054215711916590886, 0.11148192867568682, 0.23772302628516592, 0.030628258146575753, -0.04478302676816751, 0.2026035196080548, 0.15210312624967098, 0.045796032594005845, 0.18210282930732907, -0.07423523134735865, -0.20093369430455593, 0.00551428373732884, 0.058059554413864074, 0.08808841761043341, -0.009742234211099049, 0.06196227560736058, 0.1359680279274733, 0.13690740390884829, 0.04671385960053847, 0.00823091403483466, 0.15850518235000235, 0.051097416564750635, -0.10994424693493376, 0.22778661539717882, 0.026672422348056283, -0.07188114444716985, -0.15935429109295232, 0.0005783149435343768, -0.09620661024598388], [0.06921626495199021, 0.02799513132591737, 0.14376890043482551, -0.10022066691417073, -0.06931726052617362, 0.0586030263497897, -0.1390181659080705, -0.06033195164445235, 0.05771999992066152, 0.017687701309951363, -0.04791310874509075, 0.09439938914953545, -0.1831457177352944, 0.025198483570992365, 0.04693861949406877, -0.18102630572173378, 0.04502211621328426, 0.006174981663605225, -0.08138003049972188, -0.013188191833826694, -0.24787428550996496, -0.00915535538425383, 0.09421325423785319, 0.22007320644118608, -0.2514303070716742, -0.19550161282162834, 0.13038820280458843, 0.1755305710384594, -0.20107120242819712, -0.22301855615873714, 0.09317934668544285, 0.06553502904769312], [-0.17298181929338968, -0.09897091841352292, -0.008728708047431538, 0.1894714402898442, 0.09539308699652084, -0.008518491791982996, 0.02059763098436644, 0.13650031888497455, 0.22932162469039669, 0.2749806928222743, -0.14108517271141735, -0.0365820525529859, 0.0084609403090768, 0.07160528449957818, 0.06130333354976702, 0.26555805882835587, 0.030991195497437212, 0.021692920029439896, 0.15304806367778823, 0.018164820886579853, 0.07029390989602627, -0.09441230897363229, -0.046702524971747116, -0.1234679606009296, 0.04790581862399566, -0.15566714714979893, 0.19151978776714562, 0.21216563156022136, -0.02071388927932522, 0.21463654632721854, 0.045041513701856474, 0.020375161439101817], [-0.03629285868114217, -0.1748610314031871, -0.13797005327027664, -0.18739448507972858, 0.08056273506114482, -0.03531504734417418, -0.14439246451710597, 0.12156430993790995, 0.024161941277516776, 0.11108281819665008, 0.12648016771857462, 0.11511735128826972, 0.0963369172968953, -0.14227705948418978, -0.04677313696207598, 0.051894921099748595, -0.18779871333973755, -0.13917206787630812, 0.04883687849315868, -0.12722355116454495, -0.05754523247999973, 0.20059468694253055, -0.15832277502746198, -0.10448095012519457, -0.002141142366544317, 0.31066613691908546, 0.1246953619132331, -0.07487520043721528, -0.04251681392031261, 0.012423787485772397, 0.13240634288994352, 0.03122281738214935], [-0.31778234424387725, -0.2826198506882958, -0.25177082282123653, 0.10233906173289542, 0.11605061869699329, 0.057516088354229535, -0.2597802756657635, -0.021522308667898067, 0.056714108920912436, 0.019472198770721, 0.010550431106399945, 0.19411839960926366, 0.21570954164799483, 0.05271503381660311, 0.05588537631165309, -0.05637481640201077, -0.08787554724169752, 0.11808338903730856, 0.0393729960676402, -0.07731245102600283, 0.1327399227894701, 0.24577991151860398, 0.33141236029037396, -0.014328241152289369, -0.11261403533715834, -0.043306419699252516, 0.17592991793938187, -0.10648860967966255, -0.08494241252785566, -0.10807917959776556, -0.15037489751768665, -0.13212474259552806], [-0.014016394078359274, -0.16033457680816035, 0.05362118018094047, 0.26320117159364637, 0.048896304720689454, -0.13343250493870148, 0.09402265761507164, 0.14770741000904813, -0.09156754279082999, -0.05284014768365047, -0.04720500261211447, -0.09632181035736186, 0.008022727423776703, -0.1726343657023711, -0.24588440364643016, -0.09415506896150322, 0.017407538980192646, 0.13032252433097183, -0.10199480417824784, -0.01985965384827938, 0.1888484925837982, 0.07107163291151511, -0.0462089909507871, -0.1974243469001888, -0.00010993888754256036, -0.09864559223607444, 0.24939555727692578, -0.09539718849987004, -0.025600043051944313, 0.032211798844456865, -0.03733665614553161, 0.0993335452289783]], [[-0.039879747546209696, 0.10621917330018664, 0.08364687496365068, 0.1380922126130402, 0.005638339645659938, -0.14625681718814837, 0.19597342037714796, 0.10526942367551338, 0.11044804491249532, 0.16251107001502915, -0.1551372478918092, -0.12991275419003437, 0.014289569356285723, 0.03083763518930175, 0.22816019986319586, -0.09360948024403402, 0.07512961756177544, 0.00048372495856090295, 0.02186471852571684, -0.11682533070539065, -0.1127560625059722, -0.06494312034936399, -0.10767177680089701, 0.001489410006415949, 0.0820348613691683, 0.03193503507457554, -0.20150917835259036, 0.07493888485037349, 0.010175734422611962, 0.25511456365649116, -0.22336525092043985, 0.2800721656680258], [0.022233538111317376, -5.653535529719802e-05, 0.018346812297014185, -0.05659506985206571, 0.00048738586896343486, 0.02263507077358684, -0.1667795142631389, 0.03473343890350006, -0.06310219879786942, -0.14059865087977658, -0.3414100699765973, 0.11615585735749077, 0.19197148552804846, 0.03943415261000045, 0.13158762069360244, 0.0044258680103911084, 0.14157159836630923, -0.01331685696916818, 0.05726824401034149, 0.04120699309272269, 0.23710101071249037, 0.04451196274970798, -0.20417651977800444, -0.14809675469249095, 0.033300497245152993, -0.07194931049793185, 0.31857848507974257, 0.09940416855244318, -0.08632646763899059, -0.06628978969724574, 0.23119744282163754, 0.017044856678156955], [0.0482833576868088, -0.08633801526518037, 0.05225323691266434, 0.015684458078500926, -0.07976432121263215, -0.0934025369121128, 0.08674306246214923, 0.13089367872013757, 0.06890337032104887, 0.08473914296159997, 0.013406237464690414, 0.06953312079273635, 0.06431939642160216, 0.10508311033570479, 0.09307428266947172, -0.03458019383185807, 0.09208746320156022, -0.003197180955734665, 0.1019115948195738, -0.018602992601947182, -0.25257522147238903, -0.1351624398790736, 0.10327493508105397, -0.09046938644133756, 0.034289863733910395, -0.1779442804033108, 0.12927804460317735, 0.1084944070429534, -0.14556298710772272, -0.14714675190161272, 0.13789854218566577, 0.16561772996228616], [-0.16810120209422008, 0.09617823957457995, -0.049673347657583786, -0.06408722136527893, -0.08315274267841782, -0.10097822109852277, 0.2356812429998857, 0.18317616277812476, 0.029849446573101464, 0.022499719069412928, 0.196756085868822, -0.24916532019921642, 0.03713282371978749, -0.023893149167870633, -0.02669351963178088, 0.005052142063394974, 0.12533237868484895, 0.10047015543699396, -0.0009861945276527478, 0.0067427831223644446, 0.015939261178085674, 0.21489453477139256, -0.1283812658062613, -0.039997361175892025, -0.019327190070090795, -0.1261768497675113, -0.05301502196404435, 0.2676588692197483, 0.2795923576246454, 0.059241453214776835, 0.029517851222486974, 0.06960400721804604], [-0.1161087010146378, -0.24648243055634855, -0.004858596238865044, -0.08062695434371853, -0.014308571044116643, -0.04994120955516659, 0.020637683396069816, -0.05968608790000979, -0.14791242698619173, -0.05409170440372092, -0.044113141629535446, -0.09431184383116832, -0.09324172477085735, 0.09036566128989101, 0.04140695334086785, 0.0522306971286807, -0.02457399859485702, -0.10670705977790845, -0.025392278167430043, -0.1660733119696727, 0.06460973430821708, -0.061298967492988056, -0.17869023062696884, 0.05989760738421048, -0.02332277389185354, -0.11248613280114886, -0.06436361677423921, -0.073742088113614, 0.03721011393236171, -0.10439762880034328, -0.0031009923961793505, -0.013908058156212967], [-0.01708587572531956, -0.2845573026565541, 0.0021681154816023773, -0.19304464486319597, 0.07094406998638365, -0.008662811679040752, -0.05350701013568895, -0.007967123245888236, 0.12201258921225167, -0.14410560424524052, 0.05894108309269835, -0.0809576100459751, -0.08138739040487933, 0.06985029563487932, 0.005163925009271758, -0.1795797661242551, 0.04387615373115046, 0.09066753830161975, -0.0398678179026674, 0.057680805743804554, 0.023455640720204982, 0.08721402775620937, 0.1531113124289996, -0.0726994166552117, 0.12202132082024963, 0.13436799652439846, -0.08225467803073663, -0.03433191990185885, -0.16108731188238626, 0.11708667398790364, 0.04420529525887663, 0.13509931899822794], [-0.05228702782439659, 0.0089633254949191, -0.01035711431030523, 0.03839087575943552, 0.08306953505194913, 0.04252920908513852, 0.11653103884624524, 0.030921744179268622, 0.04776861815832121, -0.009725560823179288, 0.06771427140515274, -0.01941102790471036, -0.23254940775192695, 0.15504274910910046, -0.005347670465860732, -0.06885807718371463, -0.023575177290815156, 0.15216984896443103, -0.1693234482121068, -0.12099680828230319, -0.21186303654598368, -0.14053260042033572, 0.0527320325742063, 0.11830323019893704, 0.4130801209115346, 0.04421817074185425, 0.16361349211156648, 0.0642677170843634, 0.03142528339638038, -0.09345020615450855, 0.0861161639555064, 0.016960067087689847], [-0.13858019995367968, -0.0032232163333841502, -0.21421668939558136, 0.14724219345811007, 0.23304184200767386, -0.009696150992089867, -0.045508601408437044, -0.014741292355439951, -0.09835007734380337, 0.08386459195918491, -0.2010050335854913, -0.1089707129454725, 0.02062734166674818, 0.10780866480160942, 0.19020741559997234, -0.04713664389440413, 0.017075275840762683, -0.007619155406136191, -0.16684474529086263, -0.04144378344120502, -0.1739879059906186, 0.10838297320028169, 0.017470133776508304, 0.08939510622807988, -0.07623474902852467, -0.08613749434766407, 0.17508405016324013, -0.08242499931807289, -0.1944685822589849, -0.037407288140525644, -0.11106302995513749, 0.09700280103215522], [-0.0182633985447917, 0.07851618521029305, -0.13733207258366242, -0.05130358076068584, -0.01300160336187755, -0.3178241822126564, 0.19779909279643906, -0.14485576076528447, -0.06361041922447648, 0.074035250959718, -0.1580435821676957, -0.06720863290586816, -0.1384829564577226, 0.05660516398766753, -0.07301845912284019, 0.10898612789001658, 0.04457531161687419, -0.1341709601132113, 0.14471190002982848, 0.01920021264235934, -0.02674636220909323, -0.12814562311964914, 0.08475189096113121, 0.023907961819398915, -0.17350567518573454, -0.011699912981065043, -0.055979609251351085, 0.0795361837795547, 0.14358700940457808, 0.0387127658492661, -0.14010000357174868, 0.057493357571452464], [0.036576337926003205, -0.16873616601291166, -0.14633280006761315, -0.007015626032109665, 0.2508632098135745, -0.12554361051769553, -0.07687223316734948, 0.2073539805083193, 0.07437886787734792, 0.24161591462918788, 0.3370759031343207, 0.20651326933826267, -0.005785126800582813, -0.015650704235156857, -0.07912750587032823, 0.03750966861426797, 0.034763354888310914, -0.046551470555874976, -0.09969552760169655, -0.07394268266483464, -0.0182441806704359, 0.11571141954902155, 0.22996208477775862, 0.12562455575460732, 0.13614821962042328, 0.11477930765489251, 0.14909991684541712, -0.0995281541545469, -0.030482270841920154, -0.06743809076260777, -0.17377507783158377, 0.07195966612139368], [-0.05619004023724338, 0.1412040448163552, -0.08304519050071593, 0.15295903081766207, 0.278258530754913, -0.13548778626016245, -0.12587362948316724, 0.07684620814747105, 0.09028615603387354, 0.025633135756144565, 0.1442163192640577, -0.007065617887057795, -0.0022277007948735073, 0.08283713253709041, 0.17243829003212022, -0.0001347698628079311, -0.10879177988877073, -0.0034300079563892956, 0.004726215561322944, -0.1251856311033761, 0.11479136975669077, 0.1122324375137218, -0.08465723448317697, -0.04186831553176861, -0.0057818042297101005, -0.09676580303300995, -0.02735318915453726, 0.24706395401127837, 0.10689716040309276, -0.13777426588685077, -0.11122631800341026, -0.11351824591546494], [0.05014230579518734, -0.06232187588050644, -0.1011554026323459, 0.16561344973231693, 0.06252477420727263, 0.11410403247164946, 0.03169612358839971, -0.23774664971285214, 0.0220771311804499, -0.07935248069558427, 0.0553203180545925, -0.08059636763645206, -0.1503787584962518, 0.026155990984066523, -0.027424829704559155, -0.16833235941496122, -0.03077229562726508, 0.028475485452081045, 0.17387883717925867, -0.08326998905276073, 0.029014491951021713, 0.039529894987339644, 0.09023590977294071, -0.0980837984008094, 0.08866397319414016, -0.03936171789503922, -0.24923815678832315, -0.005175023187552211, 0.2144497318230525, 0.170067140698982, 0.13624469699326608, 0.005772025960304954], [0.06931404841315415, -0.11221923443714457, 0.046317507613199006, 0.019228297231370393, -0.13081258897608433, 0.010233131376662982, -0.021716155552652536, 0.18179973345881847, 0.09433672470563251, 0.04496289418443621, -0.21980581497320198, -0.003939786119256821, 0.15368671239264314, -0.08467877072870673, -0.02155605156878203, 0.03895662438953201, 0.06389871215734892, -0.018578990228794296, 0.16829750260696583, 0.024694815175000343, -0.02070658874712664, 0.1259909595027823, 0.08884450311488316, -0.03134028464627173, 0.08263043667773054, -0.2234610910535744, -0.139646300591336, -0.004031422473410335, -0.05303597331534322, 0.008987133288244015, -0.027963371493347926, 0.00763327464417669], [-0.01273109506521277, 0.15642375282239085, -0.07468979374045466, 0.18921203045107096, 0.05344392374181886, 0.10696635600380601, 0.006956381773418261, 0.275546510829836, 0.21630807165060345, 0.0011151553933248716, 0.08052467106601696, -0.05147044685081178, -0.14056489782325413, -0.15322421277170523, 0.02094118039434219, 0.15749414113273855, -0.04949673313845748, -0.063589211776158, -0.008552815440625566, -0.14511365790802064, -0.16408416332218664, 0.011680320087328737, -0.09634800714891897, -0.07126323400109488, -0.14277953858541476, 0.08175472274855256, 0.009115157248575607, -0.054145519160121405, 0.04748611755314158, -0.0838284906339497, -0.1574285355650165, -0.01345647312137011], [0.0016459983967005507, -0.06398622922925064, 0.18580516961066446, -0.06002980238204268, 0.2011418345510582, -0.25583935627497834, -0.11647916085327331, 0.01610999045995843, 0.13435792085398598, -0.06304823010191268, 0.07915176278901041, 0.04974024566030188, 0.06535178441495748, 0.1948153792055625, 0.25892556478342965, -0.031295820080655505, -0.0020860834565477157, 0.23890795756542302, 0.05407144116898654, -0.24885161119027685, -0.0933970953586556, 0.3040563462559147, 0.06340282129154967, -0.13057376436432058, -0.007668164752294325, -0.11453011994592037, 0.09525345581977117, 0.1480815563733388, 0.14364900954209817, 0.09221367076736355, 0.08347201227741834, -0.024148159722660326], [0.017721317131676614, -0.12358463032530487, -0.05363843683147251, 0.050677708555570876, -0.009264493311860767, 0.10291618069262862, -0.06614812618392929, -0.04340634741989048, -0.2897979566506842, 0.027719198326692077, 0.19627123835011562, 0.006918248646610342, 0.0142415549292675, 0.11292656290997158, -0.07543321903195761, 0.07745963911614887, 0.048639732241288494, -0.014307558062068862, -0.15913915581854057, 0.021178514370109643, 0.17604144500512217, 0.13015977223317643, -0.035009426150581634, -0.0709623615481662, 0.07199207662399015, -0.08016055410000175, 0.0638781490385997, 0.10078285324413568, -0.08398764977579887, -0.19653663658517, -0.07868284387320292, -0.04494175588906799]]], [[[0.10712213449753455, -0.009324367669830351, 0.07782908672188625, -0.1508854330101338, -0.06665280393072956, -0.07814327431654683, 0.17716898685786645, 0.02795277671859706, 0.1362229582768741, 0.010223436629598187, 0.21043109467738255, 0.1089656244245194, -0.07329635703441874, 0.015230176681715614, 0.04469511714238939, 0.0314513861899796, -0.15966739806386163, 0.04970815976440922, 0.09730229809221717, 0.06707216171115783, -0.10345147279716305, -0.06433106964287204, -0.2842184463369409, -0.0928722979619343, 0.022578556781389002, -0.0757414798508711, 0.03245416851013472, 0.2701633204445926, 0.018279949823507394, 0.02396862910622598, 0.035354591885379504, -0.14601259834124594], [-0.08548642417295244, 0.09142286656078781, -0.07362218709794506, -0.03536939037972475, 0.07880770698080468, -0.030593214752448174, -0.016155587249116643, 0.014663855390922038, 0.022273251020577426, -0.04858568342446438, 0.01609486438853936, -0.06602689095403967, -0.10858989713558675, -0.09602048064686305, -0.03208945773694937, 0.01886340123358911, -0.3140771234778064, -0.036126947596330596, 0.00904637478676316, 0.0043667816377689385, 0.07772462523921309, -0.04396467747300143, -0.014354838110126545, 0.13832954178638127, 0.1866935661216302, 0.07968861361919821, -0.14665167565222845, -0.008268579567506467, 0.0728837739313271, -0.13893472524273534, 0.07831127800098828, -0.013842389780112043], [-0.015479830826513078, -0.2664566132041019, -0.09256880944591378, -0.12259277546084983, -0.08966418209037351, -0.04521337455509344, -0.034112967917354166, 0.05187683258014388, 0.11170312369250532, -0.11409504602368942, -0.21686248161720692, 0.012879242684714515, 0.05156768292363426, 0.2612697575568156, -0.18192194703036604, 0.4615187353596238, -0.13318318028845907, 0.2746048270563929, 0.08563547927330913, -0.026296010673997724, -0.1873019717781715, -0.08842592570276876, 0.05759476421204092, -0.1505101212247406, 0.039161579820011894, 0.13649504727134545, -0.055227193372476384, 0.16900626007347522, -0.0483028566718372, -0.18833847485171437, -0.13433972067609332, -0.02182387573277572], [-0.05963956424066872, -0.2033357530109495, -0.05183625628703632, 0.0810598565204355, -0.012801184998290386, 0.006124965197727554, -0.07509492247609027, 0.049129941051674876, 0.06981915270066552, -0.08491666636336449, 0.004686502181388802, -0.10298599131758256, -0.25069887508054917, -0.045055974705592645, -0.00811582134183016, 0.0658704356770066, -0.11205872199852651, -0.0426293659078373, 0.12553370288411356, 0.1111217270326496, 0.03318457996013539, 0.2530653252405226, -0.03429139939403097, -0.04463407405602332, -0.034593276285011104, 0.05845972000997615, 0.19626358119697945, 0.249432301823771, -0.1469626029594866, -0.08926237584918408, 0.05299250635723532, -0.07702148951300071], [-0.25518545053731456, -0.007243936878766312, -0.004388327986741474, -0.14563585987437694, -0.12268114461281358, -0.07588559300155717, 0.16510633938976085, 4.257513864236641e-05, -0.12346379927656549, -0.05600279002573842, 0.003801411760238279, 0.06577148741681692, -0.004563101878816198, 0.2087527065326151, 0.12505901213567688, 0.17713270677424683, -0.040393341357714926, 0.27851095895421557, 0.09865012128056348, 0.29373378555676555, -0.10073777346177076, 0.13281922855772266, 0.038926436288308046, -0.08606244867559132, -0.011939243088724112, 0.0625813016837239, 0.1789696453633373, -0.010495000211898165, 0.1881657622514277, -0.0358442838439322, -0.0350612112175983, -0.08023929996892995], [-0.20155607553255336, -0.053479398671868884, 0.01326781494248606, -0.08830759769872044, 0.391582143588809, 0.2128224182047107, 0.17774355036505063, 0.13887193578619023, 0.08706722932454647, 0.09093893152547766, 0.1422282029488316, 0.20555585669267412, -0.1080860674433146, -0.007797291345485383, 0.15159477008063665, -0.05373396532831238, 0.08618604061574961, 0.06250014947415716, 0.003105231774720713, 0.21291746456704497, 0.085952898672659, 0.1744135041157736, 0.14517117744210273, -0.07127279710642916, 0.15119000793919735, 0.03193814785870488, 0.10865897230441936, 0.03770342496279048, -0.018441594105469694, -0.2903069486443423, -0.14208283474674854, -0.23255104346250285], [-0.08173873706504195, -0.1700610915382112, 0.16170085345668428, -0.09938083035732177, 0.11556319173765932, -0.027964880491204547, -0.08638904332282202, -0.08449130366329116, 0.07709251583225137, -0.18044753585980677, 0.12844194220827812, -0.010321602950575723, 0.014603811554032325, 0.08809854893989291, 0.05495292919273886, -0.023994273369150738, -0.008659707550573197, -0.18186791516364345, -0.0753236899919608, 0.17603147579542064, -0.009482696336027496, -0.0016897927765722972, 0.1667339793124098, 0.0815015188203106, -0.024219769923864345, 0.08433672540838143, 0.2864585858726765, -0.05119710769932473, 0.13248917198250817, -0.10675126544326256, 0.0535562874119915, -0.05092398759177394], [-0.05054194993840095, 0.04149332424739592, -0.08786712400152137, -0.0012751336646473503, -0.0793674510658698, 0.05180657143145139, 0.07056553531991883, -0.17681516559552446, -0.013325361414919213, -0.10827748063169869, 0.10954235387235349, -0.08016466505444271, -0.07551827449952107, 0.19063498669394405, 0.08569735306439039, -0.09233411927093281, 0.007038302108661803, -0.05642147215599698, 0.08735238646718867, 0.015484500006617483, -0.25108547091419153, -0.08240908971832972, -0.018020281453043824, -0.09415238472423228, -0.012038533833362348, 0.11028672496936935, -0.04299756395343277, 0.11811019958867913, -0.1354580386358919, -0.19966995791775036, 0.027434184588638496, -0.060314537452297146], [-0.10442157284148909, 0.32993741353289746, -0.1656323138459486, 0.0704157527607131, 0.1554048911465902, 0.06590135845184335, 0.1414562520349102, 0.14428444249605632, 0.01502229200640265, -0.02787327130961046, 0.14346422035249612, -0.17279946711988592, 0.04138664423869737, 0.07072098702688186, 0.05829427524043202, 0.14855017160268186, -0.06878081027907396, 0.00822752415465846, 0.10453554720504966, -0.10941258228135951, -0.006757542405362421, -0.13489670591590786, 0.13581091357519215, 0.1399666663153331, -0.0736105220253252, 0.12070951483626666, 0.07422082359245347, 0.06667496492530194, 0.004753856543296016, 0.17350923085521594, -0.05300768209034218, 0.07109427781517015], [0.02847028271280657, -0.04039076883040517, 0.13240075435513926, 0.0538530310010485, 0.19307232540201438, 0.10162696834710985, 0.1748873397966668, -0.0042568247737171435, 0.20357554444440323, -7.426303876049018e-05, 0.07857308896667048, -0.07513544526095302, -0.14088313098273217, 0.04369198168906833, -0.025119390172077583, -0.014794143178857742, -0.16990441389644767, 0.14496274304997894, 0.1384179003101871, 0.17277687160502966, 0.16189000494609093, 0.008075819250643016, -0.02519678134348396, 0.10778388999286825, 0.09150921901103688, 0.06911981259888338, 0.0917220610695072, -0.09520473545368217, 0.10299618507379035, -0.07787222642600983, -0.25561827408135895, 0.08635550855135612], [-0.011924022957850782, -0.00973517502848617, 0.08714719643751966, 0.0016276688717016979, -0.11920303500679821, 0.045504999380565514, 0.0038892637271030527, -0.03218441437145701, 0.10547149367726867, -0.009105023308980198, 0.008273851347489022, -0.1749716441240671, 0.2508095839501219, 0.06329057013574127, -0.03824249886534564, 0.043834622207813444, -0.0121802272867572, 0.027244542429235876, 0.07463904704668908, -0.05198383225309781, -0.05814334246959984, 0.11696484365019483, 0.055814469943666005, -0.08624495421026744, 0.10572045388030174, 0.018467807335305876, 0.13049193293159897, -0.08824132739133157, 0.04313267306012631, 0.13344145951039435, -0.05815940861368668, -0.07509096557212729], [-0.14461861762308273, -0.034790723749983904, -0.11381357076553075, -0.04788101511074037, 0.19363658734621036, 0.15188854787543532, -0.14503784112123505, 0.05755392595977162, -0.12323923668681015, 0.05089550656262341, 0.10463977726280249, -0.04177653371223058, 0.11963640609196911, -0.11153617571896066, 0.2375417794082834, 4.254798210387675e-05, 0.21669133764085532, 0.15796951974734041, -0.009674757709269432, -0.2276784182027892, -0.047326607416455696, 0.19513295042943019, -0.1423625073031492, 0.09812034969596559, -0.13894973648187323, 0.050253552286850044, -0.019189171813651987, 0.0129392482488463, -0.04147642480833306, -0.0891085193881435, -0.0287892175404606, 0.11356246183341755], [-0.18367086588101406, -0.14386980522861248, -0.0417851264978754, 0.23236194584743694, -0.03954325641580757, -0.03498214737870051, -0.058838319113266736, 0.08412769761732024, -0.12497716545084515, -0.03895344961189031, -0.01665023078870142, 0.05567192734927196, 0.030030004076459973, -0.038404582693700666, 0.1874524053603528, 0.07950442751030373, 0.21869378941713702, 0.042272592324670635, 0.41283353360514286, 0.14401064753926693, -0.12474726932984644, 0.018626126298474304, -0.006405557981077648, 0.09699279493433544, -0.060012078875404176, -0.008886322913621944, -0.07003771077845274, 0.10393416929327935, -0.15371705256547483, -0.08729049357186579, -0.0224598364816993, -0.11180194827233493], [-0.059062837891776965, 0.08973758551056638, 0.1796319715087622, -0.10244544810729497, -0.04231268259037958, 0.11319989454658794, -0.19555201637006453, -0.1657060462876447, -0.021265766407440528, 0.10155571160930901, 0.18050938199075584, 0.17928950077481162, 0.04954280879497555, -0.014029066336510422, 0.19627431205195164, 0.16764131414147765, -0.11212793163037894, 0.21423422679195517, 0.15154327455847028, 0.011187691020137055, -0.19296653436090658, 0.020217256960377364, 0.018022557400226038, 0.03549308540910594, -0.051453500776238476, -0.07911745878245723, 0.13525285380049262, -0.08519668093050353, 0.16927838228825048, -0.061002418016627695, -0.12485080255195846, 0.07576856748945275], [0.10743949512996505, 0.08285401581314869, -0.0413164181621188, 0.012761891849994073, -0.09472053146723576, 0.2745497404971817, 0.23692674985900097, -0.045179353539653924, 0.05216846749537284, -0.056437056211785505, -0.033144672685113376, 0.029258835795031687, 0.08458977069033193, 0.09974300610424816, -0.2167576881256418, 0.02274312044653567, 0.07328271051697342, 0.23802287774252967, -0.10948315407931546, 0.08912984117092264, -0.007385982894533787, -0.05000220513822317, 0.08587540260038815, -0.06875008377855332, 0.0655667576414363, -0.06064043462061514, -0.019974369725806265, 0.11315742357581056, -0.1632059462158207, 0.0934989691902041, -0.06308681938462421, -0.17459086787828323], [-0.08322282695500433, 0.15046375997208072, -0.028132111539110858, -0.026442374100996546, -0.20052968569912005, -0.17565494568089995, 0.08771346741546968, 0.10117537946953338, 0.16811914293002064, 0.1476376901667963, 0.08628004224534928, -0.15920511610397917, -0.0781092884287617, 0.02188348305204487, 0.11288362686644522, -0.2047842066734481, -0.08043686050168805, 0.015552747494366444, 0.10008210790998753, 0.21993043823220246, 0.10341354875664693, 0.056942161301263804, 0.054392220639122836, -0.3539420466702039, -0.1709892043575019, -0.05466118079803467, -0.01837560176265122, 0.2863564889127582, -0.01745344529562355, -0.17412009374928883, -0.02693521191107476, 0.024616759391046617]], [[-0.035257667426389735, -0.18093077244694875, -0.016888352913015884, 0.031911579135124754, 0.0521483393381618, 0.29882221308095613, 0.06365645056034648, -0.055199639826076785, -0.03149557336693446, -0.06216114075782529, 0.04489959082524178, 0.10597218862717825, 0.11648837888629111, 0.005247333850249989, -0.19204083930973354, 0.02442631689101913, -0.23929064376501566, 0.07249259333062476, 0.19524936800297615, 0.07580154504481594, -0.019155535202956427, -0.1556554270370745, -0.1519934682554516, -0.16190440437650813, 0.1424052453198916, 0.005347274065358584, 0.16203083347128822, -0.19235872282055094, 0.03184845108924067, -0.020221781440099645, -0.05164234410998985, 0.14464959086222207], [0.2621303600829, 0.049490069958397054, 0.008789622900176073, -0.20812221618009263, -0.00517972381535907, 0.07084668071575104, 0.05793368983781637, 0.015575926038913201, -0.21915136424446563, -0.16775750946059453, -0.2244185762661951, 0.06160857308772469, -0.30024111512871443, 0.19570081743048567, -0.18078122804648739, 0.018499637833164932, -0.06983370817336675, 0.03739521484540166, -0.14881679065936068, -0.06508346887391009, -0.12693103676656087, -0.18565990558296427, 0.08374401326160827, -0.11539659703015964, -0.11750657754404004, 0.16979394342110068, 0.08976104203623345, 0.15979188220795723, -0.052696179539701446, 0.05867088741871248, 0.006020586897525109, 0.09427916526320843], [-0.07600958380927864, -0.023668984700376313, 0.06095783634977947, 0.06761720243357956, 0.24915587474189735, 0.25933667831203105, -0.16208179786438315, 0.160427932392851, 0.1286283561912161, 0.18708629682119673, -0.005644305652617205, -0.1433139920805001, -0.07208894092697594, 0.20622102230862266, 0.06486239593647072, 0.24428262563925415, 0.07264516960013419, 0.05114386847393442, -0.04764173116184896, -0.024934268890890548, 0.03709953158073952, 0.1286697156582015, 0.019484172526682685, -0.01241625467016082, -0.10006628037469034, 0.07497543763908307, 0.1462723825827241, 0.20493065572014021, -0.15906657479413422, -0.08923634900947718, -0.2781701451166571, -0.03831321583616069], [0.13470945926037287, 0.06598100200421429, -0.08573619725678731, 0.01150241749635329, 0.10208967666034742, 0.011813552353336185, -0.12053925674791349, 0.1875889441311459, 0.08867659823440402, -0.10177522895153157, 0.2721203517572043, -0.05792517131679208, 0.02466657562420915, -0.007273899471474274, -0.18794388244261223, -0.2577022541694318, 0.10108845299261465, 0.02889917135834734, -0.19553043238230283, -0.027057642667802084, -0.01756325484745531, -0.007754633317649097, 0.04355887942940136, 0.03954788125701348, -0.13257162361299005, 0.10080852694994956, 0.020221094144663637, 0.05960067387667855, -0.10784481925510965, -0.06650281815465862, 0.022202572189025896, -0.07342911841626684], [0.07812215905302353, 0.18230649039595062, -0.051894713346313084, 0.16113047536896985, -0.09771120223545361, 0.24876622952220714, -0.22237664703083287, -0.026965476752133934, -0.06976674536206977, 0.2754970671741252, -0.11319699741904758, -0.006934486979720026, -0.22994100494761135, 0.00794448763887365, -0.04754739378603869, -0.09291212070997985, 0.09826348600254277, -0.02859215484340834, -0.14067463960222568, 0.08320063467598932, 0.03472541139750667, -0.04061639012301993, 0.19441125692904643, 0.12447012974203928, 0.02140065900504166, 0.03248821904213333, -0.0011980363486642546, -0.0172159750056501, -0.10851892887908599, 0.0013585000459383554, -0.0935450723626327, -0.09595642843966233], [-0.042339813319899555, -0.1261310860358421, -0.1791000541812348, -0.06408682247809233, 0.011375967494703494, -0.006606172056434582, 0.10041254128257589, -0.025951120624534155, -0.15702911326916813, 0.1158712907423519, -0.08809957376152906, -0.034009062173952165, -0.0027359009210698327, -0.0009137998061760897, -0.06182815631068484, 0.027811899807847738, -0.22417576572705286, -0.03098182103820008, 0.12251096282044763, -0.01021281039902009, 0.053182015069737174, -0.06563432790571008, -0.07711126200296739, -0.11060483748826143, 0.16265348310615796, 0.17570163157068036, -0.061308672973165126, 0.01983536234132529, 0.1273909953552186, 0.06512030332828508, -0.0780990036646217, -0.1222769860146372], [0.11881479207088498, -0.08175552228848522, -0.0069352271600046245, 0.14154485001278597, -0.05225103173484241, 0.11541664360238063, -0.06490694642912335, 0.037262892961428894, -0.15151876083086968, 0.03289824778784361, 0.08674914371035296, -0.024809006208982097, -0.003919018145245048, -0.06747802694233128, -0.018572084164072997, -0.07205207148019464, 0.1972963429834997, 0.07091766103234223, 0.14289624206989576, -0.23765515233483778, -0.08517750054640545, -0.27783595297310676, -0.06741495854737908, 0.072805804328003, 0.05993915532850205, 0.008255419223106734, 0.042017090860784916, 0.05550600695681673, -0.15882613764693976, 0.08778094484023519, 0.04560758884683286, 0.08706097340686035], [0.10959694583084796, 0.11577835363744036, -0.09193785589591554, 0.004921245403156765, -0.011659422941590147, 0.06313585372813782, -0.14210439986118048, -0.025397467992581062, 0.13430808290529703, 0.16885391092457713, -0.002726735296973001, 0.060933298888765634, 0.039074164042835306, 0.027146598688123847, -0.2649679179481423, 0.28024214635918243, 0.07070189527348224, -0.000897549476644622, -0.0030407493937216214, -0.030615967187646444, -0.06752590678939409, -0.07812643550092631, -0.0027583223864435353, -0.11292786785712508, 0.192211732908239, -0.005027770960666641, -0.28869944836978795, 0.26294562392708304, 0.07579251024105506, -0.1604367247016605, -0.085323437505546, 0.34437137270116897], [-0.10324959995774963, -0.043791870203690735, 0.2603703970133686, -0.10668738516004572, -0.2950188475250878, 0.2855463638545171, 0.10167210411822944, -0.029006149049690035, -0.02616395609966496, -0.19557808387223474, 0.030859449720707085, 0.027973809086401027, -0.01541497347000888, -0.055252175082616005, -0.004200032345082983, 0.22795163707154775, -0.016281990081521182, -0.08062409324232377, 0.16653108966301303, -0.13215325255842858, -0.22735675462167973, 0.03185522757033775, -0.027056326458241728, -0.0061737381873535335, -0.08439591767494668, 0.04091864218633396, -0.09835532039103448, -0.08253470260447607, 0.03683027749385202, 0.14762228064474803, -0.08361144126969128, 0.06073652988350075], [-0.08047935844686767, -0.015180892545196565, 0.06280834865108813, -0.06315282801857516, 0.01200932484470611, -0.0022085175048957963, 0.008208225653062904, 0.13277747788561395, 0.09156014507377114, 0.09078520208107878, -0.22555948743238818, 0.14620899064048395, -0.09430342946365773, -0.029038767112334503, 0.019104746255655343, -0.0386767590215259, -0.08671839629431087, 0.015783841941672806, -0.015383599812283672, -0.03409863966603689, 0.04270067683409442, 0.15655207793159412, 0.0021468137711946546, -0.08572991770185123, 0.07876836932907805, -0.08995242439968601, -0.09361077746857058, 0.19215689523496124, 0.0416514221585417, -0.1928085903981119, 0.1448971824591117, 0.18700674910365456], [-0.03525331212583777, -0.0013468297168427721, -0.12216647978562227, 0.03250779941177366, 0.06429754641337743, -0.06883215244080092, -0.12029421495361914, -0.031271493144515876, 0.13742681327908138, 0.17634836115567526, 0.013694336176287888, -0.12418507346851818, 0.1625283365706026, 0.06736621938498893, 0.0288535136619184, 0.04573888023620521, -0.15024149479316268, 0.17308008850609272, 0.18504431471734661, -0.038744486427550115, 0.029031716702550687, -0.08410614591107647, -0.09985338444176754, -0.022858864476634762, 0.03631242040529078, 0.16058000710796216, -0.07254702720630335, 0.03630219990316184, -0.008886767106877339, 0.026779065297170182, -0.2513513809671787, 0.23924076669786706], [-0.08937564685222656, 0.19083423023960697, -0.15834852923621212, -0.07982582797850941, 0.08736385681529624, 0.12588402018611644, 0.16845067477019904, 0.036449429255641194, 0.2625443414360808, 0.11758503365969487, 0.03337872089456475, 0.012245047447681364, 0.09609054890495407, 0.037698359072176155, -0.14249315589865835, -0.08437431607334099, -0.04850790457169026, -0.028766368113512727, 0.08874107359096668, -0.0980189932550939, 0.09332275826019523, -0.0424679375849764, -0.03423228954753912, -0.030579656339214497, 0.14134034639142184, 0.0833412227483873, -0.15220344682936873, 0.28065134539238457, 0.03435856683803617, 0.021684329660925233, -0.13500227134578366, -0.2358131927837885], [-0.051978082751630045, -0.014550912314738738, 0.011888023865430499, -0.04806649103948172, -0.08228982337530527, 0.049546936533970284, -0.14871222195206063, 0.0019933382023111343, 0.06482754086408594, 0.06471655164401655, 0.01704499750586569, -0.01285106682043605, -0.011948419317181887, -0.13049046766658576, -0.0074165405351182614, 0.02080343289381657, -0.02631543504679709, 0.15984647205862224, -0.07554746764252576, 0.11447452220896706, 0.047889561085215256, -0.10779618233024546, -0.10952225689144209, -0.02108845435787596, 0.09139489903760507, -0.0042511297673537346, -0.03111649849102567, -0.11476187360324126, 0.1431792927206997, 0.16312043596546388, 0.21374188491118645, -0.08550902427983709], [-0.16310047690797957, 0.1462309111157078, -0.21023416345706025, -0.01793946196131859, -0.15146824158772795, -0.05149887355410673, 0.09644736584990517, 0.13975250516699372, 0.07862382659500157, -0.027254106699876438, -0.05643357416985561, -0.046409893103424915, -0.062374072810816104, 0.14587913162809432, 0.04655096398382326, -0.08570130926383739, 0.15561886181452395, 0.01493208010647056, 0.07294223219721939, 0.26324160805302016, 0.09455080447639674, -0.03748798719341081, 0.07330119671514766, 0.01759224069559554, 0.10967701778949875, -0.02249988841139333, 0.054956280769001054, 0.198915158353744, 0.12512834972520823, -0.0806788504675745, -0.15108986427207016, 0.0655172240500945], [0.045881128418515056, 0.17128200351367534, 0.023214956650782045, 0.10017875554921168, -0.179468568059404, -0.06411352784044526, 0.08364345447168442, 0.09919322185522202, 0.11179424099361719, 0.13761729630311795, -0.048139586391580724, -0.049175640664542115, 0.0374366285629282, -0.05123940445399874, 0.006808648518220069, 0.10639628914175274, 0.17842375281808714, 0.18807954127950177, 0.08516161501547133, -0.13017420772486354, -0.027457065696437098, -0.026151237449154874, 0.04586162390756661, 0.13476618579155178, 0.17869308232348785, -0.03978143914660742, 0.018732165891220173, 0.11534560966974032, -0.08836456932807314, -0.037033747807091906, -0.027157240137549873, 0.18725608236797128], [0.24207676900003158, -0.053387948015718896, 0.08150001318506363, -0.13997531950978603, 0.2840210578311971, -0.15093733670110412, 0.017031993277323174, 0.14774766397158487, -0.17249670920294236, 0.029571896037283888, 0.39791804682428095, 0.10214827739595116, -0.049639816658840194, 0.04775867368882965, 0.03291172046775672, 0.07803110627499449, 0.049811210995306894, 0.17521888853948323, 0.07196918505049055, 0.04780457700544994, 0.2120094875987628, 0.04408637431599791, -0.09088254386391666, 0.006075770034870636, -0.09113501489877456, -0.017904793065952482, 0.10603301540871117, -0.04395354951414128, -0.27892965939820075, -0.09835951104073211, -0.10204201478420041, -0.07738466641249993]], [[0.08824755409314457, 0.07754844312008083, 0.0558779736539374, 0.03157566876950824, -0.13622244349418516, -0.2173128962742407, -0.02857297837657502, -0.16352038662901974, 0.1876662702608398, 0.01041761854356644, -0.1967284482969604, -0.031917726545125605, 0.0010399575027779428, 0.1216808381172368, 0.09353135415453508, -0.08871099090003262, 0.059299717745001396, 0.17780400553120396, 0.05084425805678771, -0.05324638238820231, -0.00792618080648058, -0.11288856370337066, 0.08008495548204658, -0.11446222957968144, 0.06947646499433141, -0.020748864470412572, -0.05619580520703693, 0.16973069787345899, 0.002336108751245563, 0.01822560678198258, 0.1103922150855, 0.05422212736464339], [0.009811255871261894, 0.07967818517817644, -0.12065406431792855, -0.028595712268631356, -0.18660941178445095, -0.12343603106011358, 0.06974194854351072, 0.07586330254428032, 0.07544105667354344, 0.2349870407802711, 0.2092483872039496, 0.06683110146125523, 0.01794022487343304, 0.01842490723219181, 0.09967054701616103, 0.13441332265498035, 0.01675329141184849, 0.05054054360274419, -0.07331298109414736, -0.14932070565480976, -0.15465449253201025, 0.1671936324143709, -0.12061705550558306, 0.05863287274909053, -0.026010816591329537, -0.23326155315445252, -0.031211466614895232, 0.13686427690404113, 0.1320171917079314, 0.016937873603034528, -0.13543725188933564, 0.1767071810874883], [-0.12516108060827907, 0.009565077899571563, 0.14093401592651186, 0.003464275383561212, -0.049584300173060154, 0.09073426113347154, 0.022281490329331584, 0.029603098679624233, 0.02323982175846964, 0.01764849816265769, -0.011668890676014116, 0.029643487088037813, -0.00538680265588078, -0.1567514125144403, 0.11359934774110847, 0.10941860921136944, -0.0178288482066578, 0.11789211686028012, 0.1536187933886938, -0.059227293007403106, -0.00710365164425734, -0.049917173560607576, -0.01829312380444943, 0.1278263280787329, -0.0345012245523493, -0.10573788422010544, 0.1063553728521656, 0.14171997279823983, 0.12283948064486444, 0.11229323175628685, -0.10833108163041474, -0.0850180372898473], [-0.2021775031613554, -0.10714550105031836, 0.173395148518071, -0.12993819992564898, 0.11494657113298809, 0.2584539007951756, 0.06487266164164908, -0.04927563990814047, -0.3593969643449719, -0.050749587492805524, 0.06872695337995444, 0.22972323120008467, 0.19261059863902683, 0.16307781444002295, 0.15876007261788494, -0.1399519482140731, 0.019502297096665837, 0.22721343277942052, 0.013276072414372201, -0.031902395540584404, 0.028729683300269183, 0.026956198531286824, -0.08906838701382584, -0.01826841819645287, -0.1470857172386541, 0.16104643119255305, 0.08867218472398326, 0.05060416719845758, -0.07683037535035488, -0.023761046584479372, 0.12304069817928542, 0.06570235808967095], [-0.10710401183558968, -0.020748958219685296, 0.10110349760285686, 0.02456887801881535, 0.013540870259523576, -0.208107768196608, -0.29294869213388336, -0.0827551408519208, -0.053938946437812586, 0.04000695014396227, 0.13137601966841647, 0.1634610839363436, -0.04425099752452726, 0.14593800157190626, 0.05308343012827012, -0.05134625848285241, 0.06479807038861488, -0.1716252454712533, -0.1827087544408154, 0.09694002256176436, 0.12076991811847383, -0.4250243895338818, 0.14674078870481125, -0.13274195225153573, -0.09538521170187182, -0.003626198818623418, -0.10248327775708178, 0.13593957137386364, 0.2339830508220395, -0.16899450891471574, -0.07074967276114694, -0.10654593139323751], [0.044124782024445135, 0.225434485701507, 0.10131461409015786, -0.04054935809920906, -0.2517167070119366, 0.03361354929216297, 0.17699460577582635, 0.12322813757038219, 0.08327850654337561, -0.007687739859937956, 0.1880618582997732, 0.18746740821000507, 0.06763464394811891, 0.1580596943832553, 0.1217219328024415, 0.11218422389821243, 0.13870876453019626, 0.08062813795631972, 0.23239916619337872, 0.09549102988147438, 0.09352311274924459, -0.1273560204307864, -0.12050032147229423, 0.01982505832858739, 0.04734345310596847, -0.10476499792001931, -0.036678150018780074, 0.13328295447085378, -0.02495557206811383, -0.045823065200404654, -0.13664374986147976, 0.055507242068114374], [0.1502052163902242, -0.11717994656342763, 0.00900382259229887, -0.00189258333771797, -0.10696389429602535, -0.15946838959749862, 0.053177761481541436, -0.15687353639905255, 0.051659195441169974, 0.09782376528347587, 0.13726491977797636, -0.12584622649959484, -0.12015033940434125, 0.08294914238692165, -0.3404125705772858, -0.024895039746478262, -0.13262034707235462, -0.08379726292951553, -0.19164954930247768, 0.12377347911608443, -0.030419366477517168, -0.016799610963323976, -0.058826714175112434, -0.007966983230527792, 0.006112057876196256, -0.14045922235123565, -0.09856421429803851, 0.08101266338745874, 0.03887522254826014, 0.1645948766007922, -0.016927204464777815, -0.04021268200033499], [-0.2015925053549937, 0.0908564795380866, -0.05711341049138344, -0.016047103888003025, 0.032247560598987104, 0.08298387651406998, -0.01836400229073253, 0.15845822525052022, -0.19168329334290188, -0.0921368513837116, 0.17599226611548524, -0.20867529741257992, 0.2692493650293508, 0.2829841310630971, 0.12447250884165653, 0.04811889008246465, -0.019693900505283007, 0.14096768466141582, 0.10887632172826378, 0.09571968684518771, 0.11284545960943865, -0.04948329454833193, -0.02464467187229715, -0.11428643305652482, 0.004008296100577589, -0.046436883410151585, -0.08120643738222501, 0.07881139456990899, 0.20873083208253404, 0.08164003549134559, 0.041724565227643055, 0.3752308863171127], [-0.06548300215506626, -0.18437363495286752, 0.2220004978461034, 0.14326458315806162, -0.07178673104667535, -0.19309203140227582, -0.04060686433662693, 0.0029567327126136704, 0.059604865074377754, -0.07578284087817354, -0.13080201826261897, -0.13029593552980026, 0.06342190798905788, 0.008798812261722432, -0.27869532095802824, 0.1512160974745976, 0.013133237758838153, 0.14862366662200355, 0.04135144995762416, -0.00030696786196152066, -0.11470417045017209, 0.04217669111172171, 0.008429753618454, -0.047774090493839336, -0.005168068535334615, -0.11530821961331014, 0.0106653308616664, -0.027601417158074477, -0.10514153806676686, -0.0010778617564176313, 0.07483242842176706, 0.07991812050561121], [0.12213888215396092, -0.0358129518557888, 0.0019137441623060577, 0.020838337725271962, 0.04259837829641423, 0.027700066550781857, 0.016045063118779707, -0.06286424913461587, 0.11737521114943367, -0.03497590174390854, 0.044726365216828656, -0.028008250767965075, 0.0069425970155835145, 0.06429500295803729, 0.09127453824518036, -0.2977537872645519, -0.018019896504265873, -0.1182438150061515, 0.17405179223225833, -0.2337812889992018, 0.034661549670362383, 0.07390427620194025, -0.028082745331479485, 0.11009252081857678, -0.20501492682495648, -0.1819740408736512, 0.18164806100280342, -0.14988073482793088, -0.021444190372856456, 0.16955549529102046, 0.0953749186144577, -0.2170034215660008], [-0.17397530519982296, -0.10503580604790702, -0.040166723536801514, 0.03869830422892482, -0.2658997270663821, 0.12169498080821285, -0.037026175570699024, -0.16656917164496443, 0.0686817513647104, -0.007657865382426373, -0.10563623124324224, -0.11094396257303503, -0.027046788922992816, 0.2720163384748384, -0.201130052815209, -0.028460897608471102, -0.11643825686223976, -0.09524223491677161, 0.03104796022163086, -0.09561224884686477, -0.18834110498887774, -0.1391504571464593, 0.014180693419247803, -0.0057432346494127404, -0.11840902975171287, 0.09232457794403556, -0.04322621487990992, -0.05143718963353922, 0.039840355779173026, -0.02682758260011816, 0.046004542092003275, -0.050133853892252], [-0.1536170716879771, -0.25601564191601, 0.14864705233542, -0.34648770628057873, -0.10436310093473021, 0.07138181687366031, -0.045279164694818325, -0.0998912662079138, 0.13770718084874317, -0.10232061083909463, 0.04330093737092377, 0.40597911788773827, -0.09852265756868123, 0.005519640067303862, -0.09361487589341567, 0.10988846175133166, 0.005441662749563957, 0.14167163662531568, -0.07476161079759391, 0.050136068954661585, 0.050206489387747084, 0.09733653285814503, 0.022967166088794764, -0.06913543292765097, 0.12261507600437331, -0.06260701367172854, 0.15886616206025309, -0.014717406034896104, 0.0836225553611306, 0.07682419860235312, -0.07009286902372533, -0.06799089610048267], [-0.14482904251008685, 0.15195120147289387, 0.08412132732132664, 0.09066840728914101, -0.019642830512450266, -0.1888852489804426, 0.08680145842911383, 0.004256960635624571, 0.2174351835220354, 0.10582177476882246, 0.08695779907837371, -0.026786095459680727, 0.09031432276373959, -0.08518845521390396, 0.13307505324225555, -0.1724305613314403, -0.016826150371169322, 0.1410377001934109, -0.10651796717047902, -3.05705417818047e-05, 0.16519672312484684, -0.010547379396625279, 0.027105484473598947, -0.2459213596698069, -0.013396040168268062, -0.039619470980074796, 0.06113829138692683, -0.03226963273924898, 0.17977306478213173, 0.10096189609363836, -0.019641633872565532, -0.13889540270386194], [-0.05900873330700981, -0.11712844611006118, 0.03468979713347762, 0.15050434552234906, -0.18366542680688577, -0.07487121338085757, -0.11707409869744767, -0.09957580982492935, 0.04761558326149519, -0.19576953966976388, -0.04539554621371541, 0.020944591051347335, -0.2799923479978873, -0.03322710260152752, 0.04562745387822454, -0.00687698456671517, -0.04081343553771886, -0.04826029755161931, 0.006902709745818626, 0.14671476181613805, 0.033666392354020316, 0.15078657807349416, 0.07878135195952418, 0.02050503610912411, 0.010556154303071606, 0.26262991620416093, -0.09273805087512138, -0.0785311767719235, -0.11106234232015195, -0.0028588072298542048, -0.013667347269538416, 0.027093524569045953], [0.007429645586039471, -0.10118257040134769, 0.10203634345668135, -0.04457766175573417, -0.04171445574915064, 0.022062377867691076, -0.0011621816331801231, -0.006788074516003477, 0.03502276442767579, -0.06540324724081312, -0.07752519739607663, 0.19194247534334682, -0.026741916640636233, 0.0053063885301121655, 0.03858630431455189, -0.0996789388895055, 0.012107536201889701, -0.08171037475148901, -0.1201161966272988, -0.24054730567379515, -0.07418597555557477, -0.07073508800003728, -0.0028666663875159325, 0.03500993668794718, 0.08834764216109219, 0.022080479114511605, 0.07925631032154826, 0.05573887188426799, 0.2543822639950927, -0.09220911609126237, -0.1118036744777509, -0.11295499689341314], [-0.25713977391001624, -0.0023885979321920047, -0.1357245328250114, 0.06586531670352246, 0.026299293195798552, 0.13295458891503126, 0.13368388608946163, 0.025578681981157963, -0.13358808535608016, -0.15806090713514234, -0.1800542040240597, -0.042251382341300776, 0.15868494710796016, 0.04449042082014149, 0.04251275907574902, -0.18288690180455652, 0.05180554035997538, 0.11394960290755947, -0.051637573449982564, -0.0028322248120200852, -0.08511325091790935, 0.07280092974709557, 0.04377697543557094, -0.09078042805164241, 0.1172840745849436, -0.01089834035618503, -0.010173018298943903, -0.013391001404688558, -0.21317489702778605, 0.022747113539651562, -0.14438561083742452, 0.023739775701475688]]], [[[-0.09743603581363926, -0.035185626105302396, 0.030330353395688594, -0.13891863698863915, -0.09914979613318896, 0.07617099811280693, -0.06464661435149195, -0.028054917364754104, 0.3083945947944305, -0.1357065121863108, 0.08008381250374473, -0.1367705057717859, 0.18319333023941559, 0.032188605840275386, 0.04512913880394457, -0.09264555394790017, 0.05130620158687181, 0.12434070245876268, 0.038401278865670914, -0.1123337512221895, 0.010970963276515543, 0.14856343793452956, -0.13983243614378282, 0.06951393327355859, -0.11651490249825909, -0.3072089003787402, 0.12329115673084025, 0.008714635548659375, -0.20052575629008182, 0.15052544506825785, 0.12068627483118552, -0.0870493489287669], [0.20658603959604882, 0.08733487460690523, -0.2773131813347694, 0.06704028669833582, 0.033911213077028206, 0.0921026828112443, -0.07427976165139256, 0.16115726063860888, -0.06092517254293545, 0.016978677873274617, 0.018070002871986297, 0.2699637999601166, -0.023217871040537505, 0.09135222866961708, -0.1698165611636873, -0.019817835695172956, -0.1077654718721368, -0.01174847707988271, -0.03723035282794579, 0.03324209928882818, -0.13321682450300867, 0.14690419353376147, -0.053717271587699136, 0.009788764299771558, -0.09233553120901007, -0.16678040166032287, -0.06230888139362876, 0.09437863449207631, -0.009035616239576947, -0.24162983824886727, 0.008070546631159988, -0.27561488147124513], [-0.043463207555749374, 0.20890009204795965, -0.18893175737368126, 0.0978459309631018, 0.017940033776380027, 0.07527767852689168, -0.10755759094598502, -0.26491270188057187, 0.08493790542514594, 0.015164910332836363, 0.09261321548703831, -0.09811939628757137, -0.18090271054699117, 0.06036899547696209, -0.1502677142236206, 0.007277701861582979, 0.0647778877567328, 0.0338411450771365, 0.007597783480747854, 0.03541572825571163, -0.010724898538484821, -0.056398467366557056, 0.056566078844715095, 0.05027889591233111, -0.013796596458276059, -0.1693137940591327, -0.09548916919318096, -0.2672152443197035, -0.014682103953498803, 0.047825177853401186, 0.1699206762040393, 0.06588632798659928], [0.10037890118862662, 0.18486414854049177, 0.13011497508426365, 0.12788654945757458, 0.25896810747982907, 0.021027647575370685, -0.06278164563444066, 0.008248658187804294, -0.017569515065500797, 0.08024533739044983, 0.11611472208489236, -0.006722482828867416, -0.056903303580279084, -0.0128457045665238, -0.09785350190422441, -0.029869327047807075, 0.13465548652416964, -0.1346975290320631, -0.2653485214302222, 0.012711668219286749, 0.08565685498884383, 0.06710316945870891, -0.02087540424303634, -0.046102348581283197, -0.213289165623534, -0.15703803525247062, 0.016227328270264962, 0.12143786116771162, 0.2936136983303613, -0.01861164634978059, 0.052157613931738615, -0.055981154314581026], [0.05836086295186655, -0.02093458319147923, 0.06494887326248534, 0.015630534614314018, 0.016559709197323295, -0.11272995267942203, -0.09681627318533746, -0.16035604097739872, 0.0020771706315574853, -0.0032387108152547744, 0.15783440772931284, 0.23350025729345303, -0.04130953073558733, 0.10165482257415101, -0.07332400708230934, -0.024857673850798147, 0.0026632456364838, 0.174384926621616, -0.1832293911244287, -0.09582027986031351, 0.020661471886058633, 0.0901205559088789, 0.03388129951537773, -0.07380294676996757, -0.21507702486866312, -0.20559138549877587, -0.14197035906209288, -0.052329132816211064, -0.12080859005577901, -0.14803600018880833, 0.14811181515666483, 0.07236558451157499], [0.08243267432373769, 0.017862945877815256, 0.09708417481816731, -0.09985670030044312, 0.14476531169629764, 0.06502987596927721, 0.09752220844889942, -0.0965521572203644, -0.02874212903021012, 0.30972496570423164, -0.16155378679748447, -0.03752383010271535, 0.07329868763168476, 0.058869967640474, -0.15207258950061223, 0.11566746849835757, 0.03884236604651043, 0.07672456038208539, 0.14528627702195612, -0.03210445447404366, 0.021450435641537285, -0.30298915635596024, -0.18719768752600988, -0.08926837657366156, 0.08706675122108225, 0.0167652818736774, 0.04025883164287008, 0.0752544133579721, 0.11025200001688296, 0.18853151464090767, 0.10039271747936401, 0.10467086139516871], [-0.02111298515707799, -0.029378629027260926, -0.02932181716449121, -0.11044927907293181, -0.08935738895210997, -0.08156292633709601, 0.04986420134712955, 0.026775603548334, 0.032094707371613705, -0.16047806589092292, 0.1776923214649194, 0.045647002260531665, 0.04272918936311093, 0.01050575637577303, 0.1278672169618016, 0.047253271548084695, 0.04762879445084497, -0.17822272038763842, -0.10991111182005601, -0.09535298319476614, 0.12091208992404656, -0.08921833213198786, -0.0033683092912402185, -0.23378930229342698, 0.053540562608514204, -0.018681546732700748, -0.021469140482267664, 0.12445557690785841, -0.0003286167500179604, -0.047927655693465986, 0.08362028209118429, 0.05571865460600878], [-0.020407412116033273, -0.11245370035287083, 0.19660542467307043, -0.11227115535564564, -0.015210613533006796, 0.23767546266833525, -0.09663990695367432, 0.029569070141736074, -0.12004757935774875, -0.05235761838579161, -0.13788871042734296, -0.12062478217263656, -0.1408510148847611, -0.011244386360739581, -0.017913979804406753, -0.21555483181375384, 0.1515564328079008, 0.018524598555816018, 0.09313535937583425, 0.13018046581328432, 0.24371012459306382, -0.027964692139046243, 0.06624900400411197, 0.1216928597410886, -0.11631270579839996, 0.010540203297192501, -0.06778634185783994, -0.20005112941876085, -0.14797283557533358, 0.12488745078172975, 0.040782401510033366, -0.16061843992673674], [0.01680786941053312, -0.17972823168305513, -0.03403113406229049, 0.15197095363070287, 0.058872271454194366, 0.06669061251813713, -0.02982864435951728, 0.08110428726873775, -0.056333224121399, -0.20572733716653036, 0.26546733427313174, 0.10232724512880258, -0.019496721325942427, 0.11850684751496496, -0.003235778975733632, 0.291175323448072, -0.08632275446415043, 0.1950001000997004, -0.07332660250317974, -0.07099618663462841, -0.2801851900826212, -0.1661919253893778, -0.06300322654004635, 0.09418493013764881, 0.0373737801790192, 0.06539708923223912, -0.2630363781234201, -0.030862444512383777, 0.002384327835959607, -0.058638090816202935, 0.11647247488814765, 0.1571766118501506], [-0.13421038527397375, -0.1807046103533798, 0.2094379141685957, 0.015500336467384383, 0.07102034203816861, 0.17335184476881352, -0.02757003458999971, -0.030743238286324952, -0.03373213016043777, 0.28173937795904413, 0.24752888391903397, 0.07838317146059914, -0.11796782038236539, -0.05519053351534903, -0.09303900566766428, -0.038244171682458174, -0.05680320305732632, -0.0017201282350701446, 0.025092120360517993, 0.18471011859494188, -0.05116003442365627, -0.0343139814940624, 0.11688239126901885, -0.03322560361669147, -0.09070140768144419, -0.14822952007915333, 0.03354054556272475, 0.09895298306685371, -0.15392452094486284, 0.06889002713626934, 0.18423778874389193, -0.08844067603375434], [0.07700649553508454, -0.07971699692941994, 0.09943780544061939, 0.18714165575900352, 0.18691436850743484, -0.017051428951005677, -0.1519873703910942, 0.09193646904373547, -0.08139127875955884, 0.05796535956699785, 0.169999199051821, 0.022933617692037157, -0.01898258707501808, -0.01322718522419507, -0.13927932966727957, -0.07186630041576039, -0.10028234549403464, -0.054019555439031, -0.07912123176669077, 0.09055586917908541, -0.08529931072166272, 0.0006263089396996533, -0.054435379971898644, -0.06522315190332323, 0.15602643185087042, 0.035567445806979736, 0.1294350748228896, -0.11639461971366462, -0.05666780885944143, -0.07755197100035674, 0.0291444586967404, -0.10940753502314028], [-0.010135911104102419, 0.09135360869756366, 0.04965868448908993, 0.026443872884552796, 0.1353193746368772, -0.027481988900519182, -0.16033104993072755, -0.009795253631876808, -0.1084733155573909, 0.28281059303754175, 0.07633279296160292, 0.085855334206382, -0.029589053072285727, -0.05557510743436298, -0.06327678544882889, -0.2635082514886841, 0.05663328762201574, -0.08909425837694308, 0.09277877326955371, -0.053437468077931066, 0.04145271491618477, -0.24363970124410664, -0.1644604817198028, -0.17405121567369827, -0.13132909209304092, 0.015932107778629256, 0.12314745088947905, 0.2726356024362682, 0.02552687911903924, 0.04771839699127765, 0.06773686098249264, 0.07130084722385985], [0.01855033029459194, 0.04946860794985332, 0.10615066753347344, 0.06450218140365578, 0.10410784273487277, 0.0509430343034305, -0.013663272989802999, 0.014417097543655564, -0.08137356875117473, 0.017373116328812284, 0.19863164655269672, -0.018107352243648202, -0.2147543857805247, -0.054765964451853145, 0.014158142779913781, 0.1621019752767852, -0.052959181996536965, 0.11679770446264048, -0.07072577444773086, 0.13863103661489515, -0.05688455086976829, 0.025111415995641734, -0.05143003053472438, 0.09238680476219763, 0.16080439887785747, 0.050351806776396585, 0.1618339639169007, -0.062146639497509724, 0.0322917770834646, -0.11481070303030605, 0.044012531091320674, 0.0527051876477301], [0.11496873047784648, 0.07821817954928319, -0.15657535932770184, -0.14496233471283443, 0.08560835298195307, 0.007352697156130344, 0.0854557443663368, -0.056888382890306836, 0.08235735706944958, -0.20157249730431823, 0.28233363796181477, 0.04410366304340261, -0.12574540398958944, -0.0772933284887095, -0.24114390177988726, 0.1577426956702715, 0.0315217655433818, 0.19856357238613134, -0.01645292692126232, 0.04893662219881564, 0.0769873571786065, -0.20782775434268305, 0.23392814467957984, 0.19312684724024468, 0.0847357711441893, 0.06360373520199382, 0.08375541085633605, -0.15485560474629512, -0.00914330591307228, 0.09993091644461621, 0.012216223342839509, 0.022411453431554245], [-0.01567621289301891, -0.12036545858232532, 0.057360925381994256, -0.07142590609473211, -0.1543413824905425, -0.14638039967738045, 0.029303343840206886, 0.04686062114833862, -0.09980673669803762, 0.010895274067536933, 0.11570560898570657, -0.027608653887184302, 0.12028808197619463, 0.10300294839721842, 0.13532916981888313, 0.16185971289285495, 0.06894469188514576, -0.09283966480677638, 0.060798442356807494, 0.27010600166720533, -0.037602565380077745, -0.17851978494273324, 0.018890975610990932, 0.07292373331294834, 0.10035957345523057, 0.08092138923288095, -0.059635542973414585, -0.14743491370497, -0.16653263441096441, -0.12354288208789951, -0.0857519351880657, -0.07569885142159544], [-0.06237456857455257, 0.011211090325816719, 0.2523637573909952, 0.11880802631078544, -0.08429685317944204, 0.031177778231659767, -0.14833578023579977, -0.21893998237314735, 0.13320488496936617, 0.11904661089180645, -0.057794528046575394, 0.0038754770399168177, 0.033186486916306816, 0.01565963026503945, -0.03460485397270757, -0.1642638113484882, -0.029762736413981025, -0.05618613578686049, 0.10641192003284343, 0.038569359815838825, -0.2320475773761211, 0.09591170680784694, 0.06891265646434985, -0.017999916726805492, -0.19707080646929132, 0.06485924077626587, 0.024278372655938567, 0.10078982918233816, 0.07310839873631447, -0.1905909585831375, -0.0254633515062491, 0.060449858411731616]], [[-0.23181383484935, -0.3315818810311193, -0.016211466708955433, -0.01573975777393693, -0.08858263297592585, 0.0981980036577099, -0.08779786814758737, -0.06386199361676853, -0.04392809317419181, 0.09637165433828672, -0.13828554236397478, 0.2143523537394067, 0.20919406111168803, 0.07882786290212965, 0.17870818229544838, 0.14286662752813295, -0.16598869127144472, -0.06860925395493973, -0.04316546068487404, 0.14012442438396291, -0.05140427881067484, -0.08334753972876524, 0.12433630881940835, 0.06783977929388446, -0.19236235347035505, 0.06271113340726805, 0.04873504456795971, 0.18340905253588247, 0.0327994088808008, 0.07799635880839939, -0.024987282472977077, -0.05480832080111048], [-0.006476785890104288, 0.15125508792717382, 0.21861156804391552, 0.020884931474724536, 0.2773297862175718, 0.09945060104908152, -0.06562751618022028, 0.0844701727965641, -0.1506824307780023, 0.2504206442071549, -0.032703214756752697, 0.11958345733358931, 0.21454650066195866, -0.07533229746259358, 0.23201172358233735, -0.06380667662887145, -0.13585333044732367, -0.23342312201720705, 0.020235679475058537, 0.0810462560856258, 0.08986869049568402, 0.14124706586173047, 0.01330509049457006, 0.08375119112640432, -0.11210012909654858, 0.01369599579819823, -0.01881889637636575, -0.09722739373632432, -0.28746136995168625, -0.007361630555832945, 0.06751494483863887, -0.24017827311098153], [-0.06358934526386101, 0.023810604025943274, 0.12727417914868286, 0.17624103502238078, -0.15620425681954767, 0.36628677727663367, -0.03810739968944577, -0.018965796340185036, -0.14184898026309467, -0.046549190058537734, 0.02103147630753102, 0.3576044035434354, -0.11943747558256669, -0.034322817916979456, 0.08443909102324446, -0.21535602386110178, 0.06143670234864384, 0.10442532667442772, -0.03287285550123522, 0.17265989057303133, -0.01761171351659289, 0.07470034396239264, 0.11731966961716643, -0.1766548620305717, 0.1782584348864853, 0.031369795259543344, 0.06732121502220742, -0.29770552444556675, -0.04254451785413411, 0.027016202470671317, 0.019803908194352442, 0.026368347971371157], [0.021667563009164035, -0.010026350900426684, -0.07309667196460028, 0.009563312399498406, 0.021619184841130092, 0.19188347349883775, -0.02013118953696787, -0.026311924426587113, -0.046753990007065475, -0.052345417740839596, 0.19100323652861573, -0.049458091902522476, -0.27607371773095746, -0.07300653816526669, 0.11512042228412908, 0.19964403767216465, -0.16014394378829228, 0.011306218906055526, 0.14577202676224849, -0.1863214775764127, 0.05341671547814653, -0.09035317166280049, 0.07809014111956596, 0.034660515038775506, -0.1435094516838565, -0.101419094528185, 0.14740266870283417, -0.0002657322228506259, 0.023846520311801542, -0.15390837044243413, 0.04830631174016431, -0.19575660758424487], [-0.1802682108755031, -0.10876059409046517, -0.15152103516122134, 0.16793223097251037, -0.20157517467458408, -0.03804173800327786, 0.02851580550129217, 0.048990655226800975, 0.05576388057111537, 0.03195058923049858, -0.23253493295386995, 0.24586448722886392, -0.16508046207903754, -0.12265139183079948, 0.10002781235721485, 0.17336411811894797, -0.16538060281069727, 0.16269641315804667, 0.05204253047072072, -0.18030137530652088, 0.14609771265523086, -0.06517593592703365, 0.15345152211634788, -0.015584146976078829, 0.11636549833471976, 0.04766233615027448, -0.11507232662598112, 0.30468581531320343, 0.06221537401041645, 0.08510871179522245, 0.24225678020171648, 0.04719151161762837], [-0.020891724377953884, 0.02625882293749111, 0.16708217261386868, 0.0770410003736962, 0.08195241313238869, -0.14551216396796343, -0.32779468792698313, -0.0317718198552564, -0.05613150538674751, 0.09776872641866959, -0.10839488246917084, 0.06454332698802819, 0.1378640238888965, 0.06586160903036678, 0.0897131232887846, -0.05890567403172961, 0.00924508862422196, 0.040364552357581754, -0.054425935212858836, 0.01846848630819695, -0.11270841522108103, -0.12885120329575878, 0.10170412211461752, 0.08105919972220348, 0.006132679615812245, -0.004781030824205806, -0.03007294628517994, -0.011348708344304941, -0.11355208708796818, 0.1136320628225818, -0.015335003602164327, -0.08509034430840169], [0.029844401380715327, 0.05079695769532592, -0.002796594386383749, 0.04598481156843895, -0.28346553174312905, 0.03654586191044498, -0.11946795317430754, -0.061681536915153205, -0.04707838934245789, 0.10814012895571821, -0.03128601576422352, 0.10791505333556183, 0.1926596911655604, -0.02310003169657208, -0.12998581923077196, 0.06240415185339148, -0.06273016491381513, -0.10988283205753022, -0.1460119290981024, 0.08616276724158613, -0.036517503775197246, -0.007880958934610627, -0.01236097225146591, 0.1836617588389935, 0.20698483027526432, -0.0975915533911547, 0.2548379834503021, -0.145120937534145, 0.12190789056806049, 0.01908254894680968, -0.02230789698525625, 0.11748358642833016], [-0.06372545333917033, 0.10631983485023751, 0.026015547432753118, -0.05720609808359027, 0.07866867942774991, -0.1397286398284982, 0.09693641291615313, -0.031753460272537164, -0.048215913455477634, 0.009270337635712686, 0.06073357937611223, 0.0572466532903704, -0.037336581295781476, -0.06548770036922642, 0.2026827848852068, -0.05971282638450148, -0.03999737978707728, -0.03582470569759143, 0.03354818730400074, -0.01403190684063044, -0.1670141708686278, -0.06280310249211568, 0.08290496629713717, 0.015419555134694883, -0.060396809341101663, 0.09179542211522476, -0.05196412134717241, -0.14272339920929591, 0.1704638953927305, -0.11897765583323734, 0.06490379525554131, 0.03369738950911917], [-0.05990744267309761, -0.004841964561533759, -0.059790443916474284, -0.18047441185533766, 0.16173256343785505, 0.012117860367468246, 0.11657583903214581, -0.03139296001992589, 0.072490341390718, -0.025256221659354795, 0.06146405534822092, 0.1920686524207401, 0.03935277002588621, 0.07857385567321815, 0.014843883088189071, 0.13367599123258958, 0.11609313796238654, 0.11960310964435054, -0.06218371374938731, 0.019932431620308347, -0.07911622477598462, -0.0905810615513792, -0.1035812124113201, -0.016035610925449702, 0.13142749736155682, -0.06765808203027615, -0.0918080407445051, -0.08934919996532284, 0.0819403614143022, 0.0013471517174348184, 0.07898575953086405, -0.09942497665183589], [-0.0501367575272164, 0.17086047265749021, 0.07776405710464558, -0.28794527276744963, 0.05271326921503648, -0.046407696746359195, -0.07654922283100894, 0.1534993571091175, 0.06265572629753885, -0.0886732854139794, -0.043925669288016576, -0.05000489856446132, 0.1218934315750778, 0.20067198779485393, -0.1404306806519741, -0.022616978723177767, 0.1941138437785345, 0.03972382747944693, -0.10132783688835478, 0.041493415358496266, -0.12866773939988832, 0.11420066332805102, 0.1123664871361673, -0.13121348060835752, 0.0056857191797785945, 0.16993815229854908, 0.040387598708053196, -0.03566433366590914, -0.12640788294380795, -0.07887515588879422, 0.08011707196582668, 0.005260388462027371], [-0.047455724571554295, -0.062367133611584864, 0.04395225578273556, -0.02433995819095754, -0.02462594180971819, 0.03272206425428951, 0.0009557040294477787, 0.061191629331018245, 0.07001257262104592, 0.13769824730760602, 0.07987978460523168, -0.07603226855936665, 0.14459520059724176, 0.2645597145425186, -0.1799833790082926, 0.08037533558068431, -0.10439674417450862, 0.14520475946221234, -0.15998441848536205, 0.013677577818112189, -0.27219868983497447, 0.02024389429114654, 0.0680966362835805, 0.10944320022740915, 0.03234151009309179, -0.03467433025369184, -0.004224903201284086, -0.0595377617313068, 0.05522929477727014, 0.07606120103289868, 0.0659612678682216, -0.005594227399768797], [0.23988839712292645, -0.12733298097536902, 0.00717573090979656, -0.017779869054498566, 0.037949657940038045, -0.06464646194961605, 0.2554958530507747, -0.10405903613711584, -0.07263597651991065, 0.003769197019346208, -0.031432904222356395, -0.03275005658850971, -0.053486240172326005, -0.0032569272063686008, -0.09971852632467942, -0.059094954604946896, -0.01853675183027258, 0.020547245780606543, 0.17417450243145988, 0.006264851430407939, 0.03565483038246502, -0.12275546532902457, 0.03806304779600392, 0.07629987871973709, -0.07933290223726634, 0.1898422339664829, -0.1386932636673295, -0.05582624491597233, 0.18012429819031572, -0.11375257771572096, -0.05418348942876504, -0.14066814405130196], [-0.01654550117081183, 0.20499372723421164, 0.06761486627724478, 0.12616079879944378, -0.14576879348258898, -0.07757743002782061, -0.021785550805923, 0.06081870585313021, 0.010962664501848471, -0.019339745391976425, 0.025086197827690507, -0.017842617209008406, -0.12510408645710064, 0.12012591173656946, -0.14461922089080986, 0.013375996115284079, 0.1382879298556925, 0.16400569114353217, 0.1415331435296103, -0.14898697595587354, 0.17809984576964952, -0.08584561717076644, -0.040956025754979856, -0.026739621024782754, 0.12421114650216869, 0.051035521358726195, -0.027752612467895097, 0.040906558399498874, -0.17753364525923684, 0.08787767616190237, 0.07247435787084024, -0.05806204935609913], [0.08251586800116872, -0.22245426694019643, 0.0933156039685459, 0.10838879865945755, -0.10413860168322867, 0.14372727360010865, 0.339964362186553, 0.04986248265282309, 0.03559680215318101, 0.001320001484897337, -0.006470403194529022, 0.0709565011635109, 0.0835587819311485, 0.14541294298988794, -0.03499123935764416, -0.07551651182803604, -0.07074666879799354, -0.010647527456838049, -0.16847086511918008, 0.01783579906902515, -0.22671174517414566, -0.06362092060044064, 0.09120697443343548, -0.024786222209492746, -0.09197101261432448, 0.05543214456008614, 0.08472613545555611, 0.09822173983657508, 0.055779298407810526, -0.07418168674007065, 0.0977879079490712, 0.034804601100741774], [0.18669654809141845, -0.21753668574223575, -0.030558023150566122, -0.11270656315898767, -0.294224735750866, 0.01570651282733175, -0.09859760374474831, -0.07281520567125631, 0.03938352865013489, 0.02599730594572921, -0.009174735192052502, 0.017204134049875565, -0.15779861875110335, -0.026479439222938418, 0.07185830684826396, 0.1304736885213011, 0.059233731133092146, 0.09433857872694001, 0.035921010387185745, 0.35618836959823874, -0.07592441257405246, -0.09826830689484992, -0.012637833175667187, -0.05363369225732958, -0.07537605330315138, 0.03246318321670519, 0.021480913451283452, -0.2463108391588112, 0.1792939222573703, -0.0542072438820525, 0.1827244309397198, -0.08021503352233686], [-0.04548559134053204, -0.010588474523502272, -0.1770648825317551, 0.002829589143505419, 0.09887157275800146, 0.05677829797611318, 0.18863254462281187, 0.06203825674307872, -0.1643115628177537, 0.07001046987528398, 0.04294694922524545, -0.16559932498098498, -0.09700656349035905, 0.09378937104780805, -0.11124290223652787, 0.0881475699565455, 0.1606753314352741, 0.07855170581583243, 0.010296327563188901, -0.25399647794428787, 0.10066547781422037, -0.08817134277065969, -0.07475631064226083, 0.17619255842671597, -0.060322203002058955, 0.0329163651302289, -0.17147791738045992, -0.11051173320375549, -0.08989217559981538, -0.0984536493771453, 0.01212053409628392, 0.05120183779326026]], [[-0.008791994945642978, -0.18079055034325953, 0.010927490233270117, -0.043598166034347276, 0.09022264008119364, -0.12325859116780959, -0.02612138544792485, -0.023728602253046318, 0.12019380070151187, 0.12754498713246973, -0.041083644105602064, -0.012071176140105309, 0.12543221422490394, 0.025783606997061365, 0.21209850586192813, 0.14259626641533887, -0.12854873135293643, 0.3633702792812582, -0.05599934427294966, -0.17067588915858473, -0.14343510584168614, -0.0029659380254702557, 0.06490631883989399, 0.00674161056594158, -0.06715147144770002, -0.15165733449719274, 0.21629889611077574, 0.14079724308344418, -0.08105978586402485, -0.2653706425298885, -0.15185698817709717, 0.040694436983967595], [0.13900961459024203, 0.03883875606211872, -0.18443296921113564, 0.19970203003576173, -0.0603396059594772, 0.019872647961499665, 0.24370796316040866, 0.07158239404235724, 0.08751816180878347, 0.10196168699024327, 0.06836550897400638, -0.26169750658462276, 0.08205734486172875, -0.003606940391524059, -0.27284994550797165, -0.04920903548570462, -0.12534794448855144, 0.16053128971380257, 0.033498151047150676, 0.08817525478538393, -0.029462754148753732, 0.054041137471211906, -0.07593919408038698, 0.015190398478029443, -0.15862811183204206, 0.20407018124963047, -0.07715410998121164, -0.12063398781746262, -0.25391353830968144, -0.1131806681824521, 0.07407216011479825, -0.26334048922235803], [-0.004402926423887675, 0.25191975365137403, 0.01685093255867331, 0.35906128084118477, 0.15962512804074405, 0.17069805669862856, 0.17026801854654225, -0.15838014699207406, -0.011214224342814967, -0.0366692547987415, -0.027781894307543485, -0.09071763668025329, 0.06706026637205258, -0.14476624421907677, 0.030459337715673534, 0.16227133633690727, 0.2144764422903732, 0.017975684320399973, -0.3039702035544744, 0.12596733775274807, -0.01736509787515127, -0.10473719183133924, -0.024933994214932836, -0.16367763887790504, -0.11429500429376979, 0.20971148713586923, 0.1900695647273699, -0.1160610934444321, 0.0744984679171071, 0.09361443019298384, -0.04893357841255332, -0.19944603316196854], [-0.26873071202538035, 0.1056563144522423, -0.09172308660048771, 0.09891745920397914, 0.07884475505728022, -0.025332539513486938, -0.16924654550786516, -0.1455107066744165, -0.03369086154000389, 0.08757402034246997, -0.20444178496472912, 0.10285727598267451, -0.016664963161122565, 0.05305926614434666, 0.21819839094726243, -0.001608040102069116, -0.0021732803841578666, -0.08603896503510637, 0.06625565626906472, 0.1558340428248733, 0.005407241249459567, 0.050652910237896594, -0.11401647657173494, -0.02499056940020557, 0.18239631686451505, 0.03000510408921032, -0.02198404997731248, -0.11081353709127205, 0.07980013194170317, -0.13736042090460945, -0.09014802491605665, -0.05989202489924507], [-0.10373014219394522, 0.037373753655560414, -0.07785373625637038, 0.14467970312298223, -0.09317901937963852, -0.16219726064024065, 0.1795892464020884, -0.07243868250940604, 0.012001823208925583, 0.018374564483338223, 0.003797691845770183, -0.18254402332324832, -0.04099876839973162, -0.01818766727566768, -0.06122245352161836, -0.14903846904971402, -0.02396430232028461, -0.22339489965563425, -0.007129453312953508, 0.0685451737075234, -0.11976024585882068, 0.04253845747453021, 0.030373847490339473, -0.03335503116027641, 0.053011303596205095, -0.0097089037963143, 0.04630811435625098, -0.14072175879397317, -0.04608303062465529, 0.010396285765456082, -0.12386834006155553, 0.0467355080114393], [-0.16179978353060281, 0.11574945868483312, -0.09139075769219701, 0.1476422924501087, 0.036368990204032337, 0.021323836289674845, 0.028289679320306835, 0.058029982294676534, -0.12583554322583962, 0.10198406334052798, 0.17321173974920567, 0.2562022066336302, 0.009005218916384729, 0.10723471020496353, -0.13720306957386388, 0.0015453300565526952, -0.067479481805392, 0.24819399126972574, -0.028827509785260542, -0.009815928572458464, -0.0829301809804933, 0.17919354823619885, -0.12681384227161469, 0.22737828931065912, -0.19691265717741233, -0.2701044633288616, -0.15893699599394379, 0.15458066007722615, 0.08939649739553238, 0.11788101011225702, -0.007417783753865698, -0.01167890113599398], [-0.14267501553227882, 0.17923630174166497, -0.078074688641599, 0.021234471914208762, -0.11727356862785866, -0.05350909136500248, -0.09363663371189095, -0.04730917581736444, 0.06961003145934092, 0.048576727433023645, -0.035080364266002306, 0.1453802948940351, 0.07646505568848394, 0.08423490108161868, 0.11375563514410868, -0.1389966901060164, -0.07292776324938231, -0.06865471039685693, 0.20068102726176693, -0.23867677470462487, -0.020419981330710556, -0.2668679109266225, 0.09685978789108979, 0.06620508672826948, 0.04588033018431312, -0.14365323391087237, 0.04612485281815736, -0.11295502909788349, -0.011258851994833747, 0.0701619830639513, 0.022858806424996415, 0.03181859657361757], [-0.12081040874589917, -0.046452451461685404, -0.13576753013174409, 0.03242608788450086, 0.13746933306913892, -0.09570133290106062, -0.035080360499264496, 0.1509821935296932, -0.020250676952047745, 0.03209679203996191, -0.008771337630975642, 0.017711019502159857, -0.060702663238844795, 0.1009182616651068, 0.09319138683139755, -0.04803489185839445, -0.04920368773567303, 0.06382802743337916, 0.1513530659924591, 0.1300452878452954, 0.09274815232596241, 0.02160441614935668, 0.058527606832785295, 0.21338147750486516, -0.03132664311442699, -0.10540698918880857, 0.10078764519744919, -0.025276022551541464, -0.03720342653332183, -0.14589659603474456, 0.14403674317421034, 0.022471556174789173], [0.11184946109497447, -0.05541398136383069, 0.01747687036025572, 0.04921612760978247, 0.04874995412520189, -0.09026022507475928, 0.20777663037922559, -0.21239808068268287, 0.0719734860573446, 0.18569158827355375, -0.2384130968678972, 0.07465737885271165, 0.05227845660182785, 0.02071438861381767, 0.018591860207601143, -0.03577800619317961, -0.0009374633506602975, -0.1495378777497444, -0.23572963463587715, 0.013701409231863899, -0.15004455165207478, -0.2805528936921163, -0.12117285669900783, -0.18578071118424241, -0.06605875175836315, 0.12388872681030809, -0.15304234437189795, -0.0443539846103335, 0.0058560371448491706, -0.12751470109014787, -0.11690031987163937, -0.16209614438106823], [-0.14036992642193452, 0.13822543032123705, 0.0607519999862264, -0.004711756047486369, 0.048149687050786094, 0.0701643676960045, -0.057153546957594954, -0.1073561730017569, -0.21134383941087784, 0.14200849106770255, -0.11182661517105344, -0.10458371254747052, -0.10227267368867579, 0.07235404050779021, 0.39440367405211146, 0.12371838673974037, 0.2747570131127611, -0.029818031814186616, 0.09970736206173571, -0.04878380598945156, -0.004802958408546925, 0.13484145551530372, -0.06750899348732559, -0.1289666890710605, 0.030497498461642646, -0.021889990922810184, -0.05539691074004165, -0.030057833928487095, -0.04114870356907198, 0.041352754442583434, -0.12589350493554996, 0.22485219630734782], [-0.0454201153095018, 0.19236820155354056, -0.08815761686598098, 0.08626790214891254, -0.003363516346367241, -0.06940668096479684, -0.10080146897422743, -0.02588713501758921, 0.26129524521932584, -0.16009180436504497, -0.35254556177545776, -0.06276517090055807, -0.005759341558588691, 0.16946702996451762, 0.1623510114139747, -0.09745074039042503, -0.031167703719573617, 0.004165351435195378, -0.03460239706865817, 0.025595168335902817, 0.00019878796288991143, 0.1438616507764758, 0.07995142684320744, -0.14675713384331604, -0.04426333136964541, 0.025266382724100665, 0.059940882810530526, -0.026652682605106698, -0.2470959531641271, 0.016312325146359295, 0.0220731710514229, -0.1766483444247018], [-0.037573420792184495, 0.013823917703533589, -0.12158276717645305, 0.04313123388120673, -0.09607111191517546, -0.012255442224901963, 0.05206335008250267, 0.10378068930345644, -0.07301442411985594, 0.10128098722450736, -0.002812300884411761, -0.007561307519639084, 0.16263596871482694, -0.10817082417824837, -0.14932872211179699, -0.18138612806391974, 0.16344662602431456, -0.05422239652654165, -0.13040019061480795, 0.18382957270661804, 0.009128338297975462, 0.06663814832434627, 0.09086000815397953, 0.09824467222629109, -0.018200973313994954, 0.025596996200661408, -0.14603991485110482, 0.17298853607773237, 