{"conv_kernel1": [[[[0.8655502513681516, 0.09309705381697772, 0.1514737772891927, -0.010848718326818768, -0.6537069982267262, -0.10318327624801402, 0.28828273106195845, -0.0141141174387941, 0.08143195355304995, 0.4543599926102211, 0.4309904270782104, 0.7405075682347844, 0.7215829240084912, -0.08169420571790664, 0.16659501014570705, -0.03193423562359755]], [[0.4421717805772773, -0.5995455274618608, 0.25030410716740503, -0.6572174779237092, -0.9073230303668616, 0.6578150443102403, -0.4161897857754793, -0.16359779481303047, -0.4548913664099882, 0.5130941667213869, 0.05778514362253827, 0.20555465798485228, -0.48263944523004404, -0.454101404308325, -0.9390175586588542, 0.8816361459178759]], [[-0.5574162047315739, -0.21559396308304707, -0.20781098116524593, 0.3843465210497787, 1.1302291159914037, 0.25902605074262464, -0.40286634994208775, -0.4291650579684508, 0.20047456152191473, -0.6259116724204536, 0.1661340890919307, -0.8097986924350755, 0.1123931382315264, -1.0175504454406026, 0.20309563261419547, -0.31445936753720116]]], [[[0.10855414291677894, -0.4833800694962515, -0.12359258579653812, 0.7464668056341127, -0.321249144350619, 0.36556356681541263, -0.3069588541292842, -0.26779722799169065, 0.7310875072738954, 0.18485356719363183, -0.5425912216090114, -0.8583188560064436, -0.43598875379512836, -0.3768269251330132, 0.5031100191861828, -0.689045200433883]], [[-0.019150157640693555, -0.7729431631866099, -0.13463929963137752, 0.7370098196408358, 0.0773390106758304, -1.2904294237714002, 0.40939582812566083, -0.06206275928254436, -0.1719799490235106, 0.09945295456706846, -0.5791712611757577, -1.1878160199622219, -0.4045634831991799, 0.33773513322527937, -0.7450323513750281, -0.32509001856074343]], [[-0.0874459774626636, -0.16701388354799215, 0.9698776633831084, -0.2766578611206448, 0.4454778366549849, 0.3411482994755763, 0.7316242297123723, 0.303481792102881, -0.025414046408097503, -0.4933830338713908, 0.31049246765609706, 0.16829101191662812, 0.2904470142743442, 0.13833653333737486, 1.3517878067753284, -0.37778348835574405]]], [[[-0.19913634237841912, 0.43942548834523326, 0.7694115880751783, -0.3363868197297468, -0.2781918466530884, -0.6000925704538751, -0.2957487092328634, 0.047709884575925406, 0.07622069222841821, -1.1052141522230943, 0.632603381378388, -0.8809645141878655, 0.8840520980756845, 0.06237456876471502, 0.5993913025188983, -0.8534483200261651]], [[-0.22735658365622252, 0.591433594557262, 0.26763197699009184, 0.6418725526769916, 0.4523831088593436, -0.18008934370054785, -0.376798178866791, -0.7677657834248669, 0.4486242380611938, 0.7701089992854262, -0.2566032239977504, 0.24755304541491738, 0.17712289909312937, 0.05155591066908622, -0.1293514009540958, -0.060017506485475235]], [[-0.21669067329820071, 0.2268524436618276, 0.6292021393094668, -0.7261855180027719, -0.10365118770827346, 0.046322872567379235, -0.10893328355871647, -0.23489865813156924, -0.22638578548029986, 0.3496469139921257, -0.25814667206000186, 0.1354271745361036, 0.14765634033415356, -0.5931070496032799, 0.7570856998592326, -0.9594892662375287]]]], "conv_kernel2": [[[[0.009498964168263329, -0.06875692096330992, -0.024756356938304715, 0.05644795816614536, -0.0627622089519589, 0.02321132211123605, 0.07696900972988303, 0.18080060880099164, -0.15136013404039997, -0.14145403292206016, -0.14823726364547923, -0.1256281283587839, -0.05976077249527225, 0.08001443507942595, 0.07755055026489849, 0.08876142768314807, 0.06422685910031836, -0.03169494030786556, 0.06778642862129562, -0.19649872340408805, 0.025333084784071445, -0.024957276528548303, 0.05256303326592603, 0.024308099019456204, -0.1999570983876828, -0.18364681242656158, 0.09189180108505328, -0.1854818822627017, -0.0822651047213823, -0.12666216239664374, 0.06346267062499701, -0.09328000894453485], [0.050310398684766125, 0.05888706157525068, -0.13527174367458947, -0.10256819206921856, -0.04283726229277431, 0.1190287678194984, 0.016768671410590876, 0.009696896175032816, -0.017547300050863017, 0.05354378358674464, 0.20117331293416452, -0.09729781188127837, -0.023188296286391887, -0.018317401365894877, -0.3893897391079716, 0.15172256162994044, 0.03513688054683468, -0.11143365839197446, 0.1314844122531496, -0.04286330380117468, 0.2402555100824781, -0.04107469922470877, 0.01843099443874342, 0.05263404211642489, -0.08947231347676546, -0.2898517339437599, 0.04982886095864328, 0.019567034770371205, -0.1441020706292538, -0.18251924382257004, -0.007521382846240505, -0.037615436795927035], [-0.020415741062713665, 0.05421937381278737, -0.15442464024717645, 0.4248773500884762, -0.07221905544650216, 0.06188252362113634, -0.15129904106164924, 0.16089649986788468, 0.25545265282320734, 0.26148341670605907, -0.043380780687405134, -0.1174965391814626, 0.06438398226130207, 0.05331582339112907, -0.16594697263316346, 0.013750760722579074, -0.03482229583483466, 0.05090588390481028, 0.018359263350673675, 0.2303425628718339, -0.03372805154485333, 0.02928774068979786, -0.11546536215234747, -0.03441951325724332, 0.025229280914184665, 0.17605458409275815, 0.1547852023162068, 0.035362252432333235, 0.07103235780636004, -0.09408963479396666, 0.12210017980571808, 0.13525350105234996], [-0.03666578398232325, 0.06982476025044315, 0.12640462247985942, -0.09247810505963328, -0.04139400393740785, 0.07725737420846254, 0.025696927528463757, 0.001304199876492358, -0.10633090288512946, 0.15144154161581833, 0.26297238691294644, 0.041418890714432284, 0.07075243298769596, 0.08246554807318543, -0.10289080106421455, -0.008941312200243759, -0.11190693266292408, 0.0434514454858962, -0.006960525626568893, -0.12979226547012016, 0.018082386158024957, -0.1639497958457864, 0.10336316760575759, -0.2928197200070344, 0.1399359390161381, 0.04386378194508093, 0.10087348926977821, -0.08550056647716137, -0.04201671031504686, -0.30734755700034627, -0.028909743273621967, 0.0916436858272243], [0.17323429655228773, -0.02113302130832966, -0.11932868252152806, -0.11367239308111737, -0.04006054604355965, 0.03515966217086054, -0.22332057055521748, 0.07109374635673796, 0.03968205687458339, 0.009541448493843443, -0.07545100750426735, -0.036070331784946535, 0.01115316079804205, -0.045869664484691465, 0.11982804145378721, 0.21971431173352804, 0.09157460549374134, -0.0009113507803695739, -0.06549036520891602, 0.011566763223056352, -0.08243448292588212, -0.10277240789657391, 0.002976445964185197, -0.08583305330431143, 0.0820788478498007, 0.18328075559938392, -0.05884811228752651, -0.008975338458151844, -0.03442452316143479, -0.19948538352711187, -0.15334915701682933, -0.03166936767676962], [-0.19536907272815598, -0.0899919229684375, -0.01027042981991264, 0.03518734131542736, -0.47673059625458636, 0.06654410650428036, -0.2414439741675817, -0.06690048090367648, -0.0036005766445441167, -0.11180657698137417, -0.06158802021961868, 0.22078009186020414, -0.007309721367009377, 0.011674895244147396, -0.08726914802051057, 0.07472821316913239, -0.21786036488466595, -0.08605541935903983, -0.03741591500453807, 0.07867255011861163, -0.03358661371148777, 0.17198334234101056, -0.08663169394705224, -0.08240682714751324, -0.21220216788960392, -0.14976649215845836, -0.18315582429765098, 0.18987048570546758, 0.1631474192100764, -0.016314977367960247, 0.16432467647854707, -0.10601994245369903], [0.034448011453778606, -0.15613447759407936, -0.01843273905904156, -0.12089304759111552, 0.1306659394364481, 0.24808224108374902, 0.09932395600474524, -0.008342053199834923, -0.12361259842888066, 0.04884450686547833, 0.1666055577387707, 0.03382386304962428, 0.12860646437381656, -0.10537822276905609, -0.08141060722050963, 0.0476480407450975, 0.002609253734930465, -0.18235862040463371, -0.04900907657727786, -0.0008175082926705774, 0.00176368116338374, 0.11851730809114987, 0.0369336158344255, 0.13281335989348397, 0.05900467933487575, 0.06830186526060276, -0.04423665752179161, 0.15962622788356254, -0.18132061649071338, 0.002167709249781473, -0.25560824132407445, -0.16792428925604821], [-0.09036155342891802, -0.2137249119063347, -0.008345015579109494, 0.15716634876869284, -0.0040228175246557075, 0.005804914828983715, -0.03899102282802822, -0.06822511939595767, -0.003236244812914198, -0.1138016414334813, -0.094664903998625, 0.26056783557587637, 0.06866200098866072, -0.1340062342485259, 0.0634807699214568, -0.037028214774521076, -0.06434556487294948, 0.033246246436614786, -0.08887635261323713, -0.01351707596476294, -0.12746435678256884, -0.07184826209378102, -0.0038895174046112983, -0.15393030694532178, 0.13980163109731422, -0.14785644558413202, -0.08985075566792892, 0.0895196735825735, 0.1752134046701418, 0.15208279789296844, -0.18423792930100624, 0.06266259006834012], [-0.19267154505849957, -0.005041500858846753, -0.05408187837117933, -0.04304586035554399, -0.3038971198135432, -0.12487360006535267, 0.020500080785426276, 0.046533897824018296, 0.24429828215429447, -0.08016362967070711, -0.08119257437533296, -0.1207965954292235, 0.031331689916665954, -0.13634632184044007, 0.03144256415190024, 0.13527126625147165, -0.07545035373702329, 0.08966280910222221, 0.06267614530680991, 0.1669113925046954, 0.10375388789163018, 0.08133133649869612, 0.22678127522076613, -0.008065991409743366, -0.052905122444750444, -0.050077310636324035, -0.022410518777802275, 0.1809794311978405, -0.004718005884897516, -0.01953715936240984, 0.08384268200504502, 0.088358527351429], [0.19603072460391885, 0.14167557891304994, 0.05975974459514147, -0.05432023353782395, 0.10587407407815366, 0.047577097443806185, 0.11994598288271575, 0.0562716800976936, -0.009506116455249973, 0.2684098866561842, 0.06009872581029554, 0.09892528165645857, -0.012881256341603635, -0.03690608095059274, -0.10237888112586324, 0.012291466825782572, 0.1483946928977557, -0.10077244831101702, 0.05448268230048316, -0.16387466184886396, 0.19626978964241773, 0.2932124066542949, 0.13139135936564783, 0.09909860560109549, -0.022022828841034854, -0.06222611806095539, 0.12656777096310096, -0.05805898410094742, -0.00826882216962208, -0.08994338910219944, -0.018250265776801132, -0.01657658705083388], [0.22875208405537414, -0.20665426044991, -0.058724431776999875, 0.10537112213841784, -0.17032443279849332, -0.12380932817450303, 0.22432465270614715, -0.06992523368601408, 0.12146928745422333, 0.18633664955023777, 0.07820883922728149, 0.12229174186994551, -0.1763703019454769, -0.0015155877447687474, 0.16895561036289006, 0.11920892381598305, 0.07089168841720639, -0.16555613854304302, -0.1831719568954282, -0.10332641382665317, -0.08075755745284326, 0.09222949540461103, -0.17041487199729885, -0.03510277586483665, -0.008168589491518007, -0.13731949555035908, -0.21302399255511695, -0.15602896436953728, 0.2314570991463785, -0.0477132694832547, -0.0755967752360122, 0.2842062927558723], [0.017792794466834693, 0.10977652305791757, 0.11301023671847052, -0.015812203168487072, -0.08299214038221145, 0.05775634876483079, -0.10411581873812706, -0.18773921030977045, 0.06813714406817488, 0.029300948904664583, -0.2136154539523156, -0.014063842734363381, 0.07797289853431928, 0.031512142751418185, 0.07629633461020405, 0.2054241943816249, -0.1858893749505424, 0.05944145984845494, 0.07498453360075853, -0.04886017023863454, 0.04241092705433594, -0.08631909973706652, 0.14182439212468217, 0.03888509817471512, -0.08467744158621275, -0.06717041105272988, -0.006135862464355224, 0.019454408848288404, 0.12623255221736487, -0.06384615337983228, 0.040794198279126614, 0.05552744141647324], [0.020783349863169043, 0.06767641349207477, -0.049436815134572036, 0.1679674414191569, -0.10310963445464605, 0.27575618763175685, 0.1386909721464174, 0.031038164425546244, 0.03354862072296232, 0.04461205496268153, 0.07482117791563082, -0.22807701593855487, 0.20865135290809295, -0.06533307066815763, -0.10374558783226402, 0.17674025639268218, -0.28105300141440026, -0.08737900420606617, -0.05445722302409013, -0.1699664943663645, -0.07493352339010838, 0.057063012295995724, 0.04585834696794063, 0.2261226792357823, 0.04980772426000037, 0.05845441504902013, -0.2485132721078014, 0.08623606418267007, -0.010550646748625828, 0.10656747402539807, 0.109599072873249, 0.07215053077324], [-0.0359430351009833, -0.14854381744760328, -0.08589018462695285, -0.11900802365286459, 0.030198743296317127, -0.2050794713066376, -0.027419308959972365, -0.04460004583372853, 0.12587900528893345, -0.12511704195041762, -0.24596515397366553, 0.29026456227312264, 0.023522649986206467, -0.1329209521308337, 0.012037163873705188, -0.029376564701323233, -0.01619484040456101, 0.12038407009107725, 0.22169623496509927, -0.02713926756804708, -0.20431051312145113, -0.1343724377481464, -0.45483583989589704, -0.03590894802506567, 0.1771718707011076, -0.18729312316211588, 0.002591165700690726, -0.10744851311536804, 0.18711862845287103, -0.09880901123481775, 0.058460564722562704, -0.027022437692342128], [0.055281783066793336, 0.08238048717566174, -0.177047897606137, 0.2906758004965283, -0.09260801901664273, 0.14271744131730058, -0.026955058250598716, -0.11028199181303422, 0.291051910040836, 0.15644985500721345, -0.09190307505186548, -0.27457878928176016, 0.10485762984077772, -0.020696374704322836, -0.30966082087766317, 0.03575159743417158, 0.02669007343549342, -0.028285530326725924, 0.14764891150428588, -0.008703674693062092, 0.1623224409795729, 0.14997610824292706, 0.02105438097762479, 0.02054313600730314, 0.02913353355449302, 0.010455685978973096, 0.18633271483059258, -0.0648732870908382, -0.07120671374957258, 0.07716204026783273, -0.0051591417907462245, -0.041945782555484395], [0.05832563307130214, -0.0872943304329234, -0.013245210104698016, -0.06984277013217424, 0.009897358752226089, 0.05778065434688183, 0.1448944908003409, -0.22786006181162585, 0.18404079972500995, -0.24030287701319225, -0.0790275195434354, -0.028206307161276083, -0.14778654968401997, 0.11354941822363605, -0.07275623471610429, 0.07458026588717803, -0.15009874908654922, 0.13946930226270926, -0.15069667665437633, -0.09017175325037774, 0.15949268021923457, -0.08508518819234569, 0.19375929471491327, -0.14316303859360616, -0.14507730281957926, -0.01826888932047905, -0.015641109751807367, -0.03746016952149021, -0.12727586442328667, 0.0945639135734492, 0.06978906503070116, 0.15572511416299117]], [[-0.15737272096769522, 0.11607832450993669, -0.20577390381281563, 0.08006880713189789, -0.18477580939453636, 0.1404345954351693, 0.08377499774450409, 0.20338087272721359, -0.06484509578161686, 0.017575558277109705, -0.07708333301057724, -0.19024815692080965, 0.06738747924719822, -0.1515146195776326, -0.03102423853992689, -0.09102944176622982, -0.04057173289916855, 0.0968042564959177, 0.1276439152240268, -0.051758853184653, 0.10418293499693174, -0.09646134268450882, -0.23527405556197528, -0.05363290189817108, 0.24965022184276212, 0.14719624291073277, -0.3466216947356846, -0.20122604716974166, 0.0032114251566272905, -0.000572743537631411, 0.11258639519877131, 0.09111184855953171], [-0.022232141122317122, -0.14114367011865991, -0.025135568799373783, -0.197674286713226, -0.018456184914860313, -0.05935685026870362, -0.11188435640926807, 0.01695235368588118, 0.013127837573046157, 0.11926693861723274, 0.0031668701430176446, 0.34835915695892006, -0.009237990878886432, -0.09122576669448089, 0.09811833108770067, 0.06600976370409428, 0.016716164253711696, -0.15250870180701445, -0.11685904273213271, -0.08039153437163572, 0.1086782012286266, 0.005500783792865645, 0.04958952407081211, -0.031849915149758705, 0.0381324580534394, 0.14880681003343788, 0.22537468618475837, 0.21613566584417707, 0.014320962291111357, 0.04458956076337842, 0.015038658478817956, -0.09067193384189323], [-0.07990122112273548, -0.03464519497680007, -0.018093678321791054, 0.10992482747999009, -0.02440213220809081, 0.05892465324371417, -0.14268539236096756, 0.22079398384936358, 0.16487261951992158, 0.030087590619371246, 2.129372283746549e-05, 0.17100354172939103, 0.034472993276301184, 0.12052731792022063, 0.36910980689049433, -0.09085525475955936, 0.012379729100470343, 0.3689734922894806, 0.04360920373404511, -0.02568475501228435, 0.0880109705864064, 0.06900371771779323, 0.24231083704719233, -0.01575962097541164, 0.08749449512121103, -0.10044859690918741, -0.02457882033718551, -0.05585122022243839, -0.06233317474230415, -0.035073073426302566, 0.11083214785491373, 0.10672199259519242], [0.07120514209910093, -0.1239755945032359, 0.16559484008511355, -0.001023762424036145, -0.05244603111609132, -0.0007695174760259976, 0.12305301867928967, -0.06849593262263179, 0.13161124451792258, 0.10121061643038014, 0.3168207989918509, -0.1976654952168846, -0.02747811976354587, 0.0026945165912937593, -0.030202120151543835, 0.01958637775823287, 0.09706375577481742, 0.17883707164292376, 0.03213485198579954, -0.26196598036305774, -0.13579298133183906, 0.08698722749065838, -0.014215463811834063, 0.08163564519680559, 0.09376981363870952, 0.0115203672420719, 0.1371056029975979, 0.024556021241262087, 0.06753125425279792, -0.015308160552609992, -0.020020338990302453, -0.06975424442261494], [0.12462735570499096, -0.03324082977340314, -0.08812424856283312, 0.0355203822705294, 0.016286443274860583, 0.02123056335023844, -0.015050176724913544, 0.2029639446465035, -0.10844385254855918, 0.027977177232794685, -0.07905320933477095, 0.01174689287191873, 0.010623881274956948, 0.2714979032514811, 0.1576307019270316, -0.12513287646691956, -0.2426268294074146, -0.007803992596279574, -0.022847733848059798, 0.21227437992570453, 0.07262074008073564, -0.06615222154680368, -0.04082045848291083, -0.15697080954269577, -0.20718265161359514, 0.15202901641477995, -0.08164771176092554, -0.19425395216485594, 0.07028032638229437, 0.06684103302906554, -0.10594533494764664, 0.04549620999970634], [-0.050536125275649484, 0.0631157874685637, 0.028287496913244073, 0.24414103972834467, -0.13401765528883272, -0.15445155561025367, 0.030654506844693147, -0.0734865897416621, 0.08897656119438577, 0.014053485766944268, 0.04171033520242115, -0.027857617916277413, 0.15226724613709852, -0.03042216280445091, 0.006204771548827144, 0.06094382392253411, 0.20436364957377176, -0.12349122615419889, 0.14698897308730416, 0.08619015792275452, 0.0011246635098968356, -0.12235274690002695, 0.12745425081679304, 0.12886610466462892, -0.094951657885691, 0.16466444803492353, -0.09450425712177095, -0.14471495555986583, -0.020896237337210678, -0.09961903843557689, -0.009797265161634395, 0.13884486680676564], [0.10503391360091845, -0.04880613905558033, 0.23672700677901384, 0.11138290339468664, -0.0023715253666561527, -0.21738502230243464, -0.12740063700624635, -0.15945413246127593, -0.02496218902395697, 0.024443149915457565, 0.00722027640440585, 0.21553229703357565, -0.07830605393996397, -0.10417683409527863, -0.0073443546085719125, 0.1552145612715185, -0.02495780131352401, -0.020522691563851555, -0.17503099754074927, 0.08172002767084591, 0.026440378012522022, -0.0012717640670834077, 0.12236048030376472, -0.12327445255394763, -0.15836488256501335, 0.09387891711544874, 0.16511186244849965, -0.025835103904807283, 0.018597176362012986, 0.06298605029118413, -0.07025092540979505, 0.014576925639191248], [-0.03861463761082886, 0.17959772509823327, 0.08254690074709879, -0.13418488303978165, 0.02756286141654864, -0.2111163428248116, 0.10976958762275184, 0.05350276693357313, 0.008627336662476599, 0.16164038420295873, -0.015843263574635624, -0.022527263313651524, 0.06297848069690035, -0.08134455430431248, 0.004046570036126139, -0.07712608082886005, -0.11754571075723158, -0.008909175779104753, -0.031737849494717384, -0.10864990055114691, 0.06963011789090905, 0.1723970584239831, -0.026038430227351864, 0.06738221326939826, -0.18431260412324338, -0.16614181634191366, 0.12634991184516692, 0.20884141671845727, -0.004351538486713266, -0.06850019718072876, 0.0826700849501183, -0.25908857730359214], [-0.05142848464158928, 0.16414607405102696, -0.0971639627974314, -0.0659387593319885, 0.07125604045886685, 0.04492391254251704, 0.11416776438323649, 0.04250009227087666, 0.2592693149088849, 0.03377831948173712, 0.0568970823692302, 0.07993475000101796, -0.14644921536719427, -0.1399903569890715, -0.12659857786942608, -0.07828391920921732, -0.24419691259272722, 0.13197283561713885, 0.15046866998795377, -0.012532658118944108, -0.13789566476443857, 0.10095802304364905, 0.12396135715039709, 0.07712111956649693, -0.021410087454028653, 0.19464151398903312, -0.09458650626263185, 0.050492638052392104, 0.05197457456110078, -0.2009484513663479, -0.11121332829267262, 0.07892285730356983], [-0.059065100631397006, 0.007921090783780844, -0.05064955158379777, -0.07214425250683017, 0.12457166971905737, -0.0064834307687451735, 0.13595949293386664, 0.01030841395455722, 0.12963687678878524, -0.02430367796565074, -0.0083936992271351, -0.05703334748123538, 0.11804467261199537, 0.0690313665467092, 0.12122294381157651, 0.13876727881769477, 0.06526736001195174, -0.08812258251807346, 0.07045520354698762, 0.07112571934608321, 0.13075685556820707, 0.03369148786269838, -0.18666782086447659, 0.04381207589475706, -0.09392988277338907, -0.24494909331521858, -0.09868051250924562, 0.043213891600233596, -0.08061756828645432, 0.07216389715625522, -0.0014261162045467617, 0.07732869512892775], [0.13099791081801965, 0.07226343347881767, -0.04600288770959116, 0.05481393565639495, 0.11108335468170419, 0.24088536103018415, 0.03285045019142264, -0.04324464275911838, 0.202968677899093, 0.1535981245516766, 0.04883367886500806, 0.17993149657636787, -0.07479431242241884, -0.20404023324374165, 0.004802527550927555, 0.06014352846108971, 0.08582385038137717, -0.014104758597428723, 0.06231178827708179, 0.13470191573580537, 0.1387583795133483, 0.048065589784871375, 0.008116662491525598, 0.15859954078935765, 0.050801605268125105, -0.10842864363824874, 0.22695418724822883, 0.027504455077357094, -0.07221450422993607, -0.15960889602353273, 0.0009007276560116506, -0.09421359967026813], [0.06934259101745685, 0.028070620077459772, 0.14508820340008508, -0.10156403756165686, -0.06950101503932408, 0.05805315581561228, -0.13815434566703183, -0.061595530459926225, 0.05703709224471857, 0.016811337208740895, -0.04831892243166357, 0.09597455615266691, -0.18415276396547153, 0.027114440280299117, 0.046516260854491044, -0.18236260763782552, 0.04871953088689123, 0.0048516478373741, -0.08176217806514416, -0.012720356246790077, -0.24705017891928624, -0.008134960282298473, 0.09480936026976383, 0.21993072837817157, -0.2507336324568402, -0.19447591733533434, 0.12943183923420823, 0.17604158419630034, -0.2015633725613202, -0.2236041553686853, 0.09332255268714336, 0.06766099691160356], [-0.17281060287630748, -0.10180357399059434, -0.011200471841976804, 0.19009107884415208, 0.09488498281568263, -0.006377396743497462, 0.021056127556843923, 0.13858296992498753, 0.23550911331828442, 0.2781359646797282, -0.14028972679792612, -0.037975974385317655, 0.01470740306590865, 0.07633290947290748, 0.06039488039228338, 0.26808694299202573, 0.03381448663584421, 0.024573039814767654, 0.15862727527277642, 0.01629182038135301, 0.07533578645025694, -0.08691815330628286, -0.04673086338621901, -0.12319744983298515, 0.04832689911254964, -0.15344689773244904, 0.19887344702703932, 0.22116108339901006, -0.02263162844083028, 0.21552316922423548, 0.043114569426422195, 0.024422269912965745], [-0.03629000648754081, -0.17489249264153928, -0.1379148314895383, -0.18753756536433058, 0.08060703607614161, -0.03538104718607457, -0.14427911933703982, 0.12155195679049365, 0.024199933574048055, 0.11104838950415943, 0.12667116793963024, 0.1150753596706674, 0.09625484291476646, -0.1423397585049464, -0.04677115888160343, 0.051819255350415566, -0.1878099040506195, -0.1395248560778027, 0.04902629906151407, -0.1273233446931541, -0.05742695158515568, 0.2006143405069629, -0.1581779923856852, -0.10448672926613965, -0.0021738406576621845, 0.31063200264898994, 0.1247064134370708, -0.07483133921156909, -0.04254079441646293, 0.012425221898927327, 0.13242108667735153, 0.03136292938517662], [-0.3177628482113818, -0.28777606372980047, -0.25577281777133026, 0.10480813197070075, 0.11548501501062568, 0.05019969824188431, -0.26152635203879226, -0.02080620923808213, 0.06858256143961088, 0.024057017491925747, 0.015600449534908632, 0.19907677658970968, 0.22708870799875452, 0.06423842176239804, 0.0739045378613476, -0.06016840859300464, -0.08042784098166575, 0.12723942963933546, 0.051901854358744746, -0.08150751674356968, 0.13791009681423363, 0.2605606946566909, 0.33611098458145744, -0.01344884216123293, -0.11339682713521922, -0.04135972182135633, 0.1889690341773143, -0.08844677266214619, -0.08629458553681744, -0.10428514382592013, -0.1553860410835402, -0.12246767569035065], [-0.01375778091186096, -0.15924241191736574, 0.053875612513406466, 0.261042718354633, 0.048924289609966205, -0.1348960617997031, 0.09584961733770049, 0.14763978528042254, -0.09220983505078524, -0.052471834769961076, -0.0459302879762504, -0.09644492154622385, 0.008109491337922976, -0.1734032541969314, -0.24757862354375315, -0.09467599149237403, 0.016776231059584583, 0.1294694392983496, -0.1016040410989096, -0.019902875231159863, 0.1894630173268952, 0.07217145382727977, -0.047263688292012884, -0.1977318097523165, -0.0012688624806291232, -0.09835065146334686, 0.2499108240908167, -0.09360911469304917, -0.02562816114087382, 0.03178080904889328, -0.036626898044835224, 0.1018760661429151]], [[-0.03951323332683281, 0.10519580282554962, 0.07916305066817719, 0.14510485926854663, 0.004986118484242961, -0.14399740720207335, 0.20173336255951316, 0.10477337709450889, 0.11460447713133688, 0.16748153164556245, -0.15236250110334384, -0.13175054923179735, 0.011600182350822446, 0.03273079074353687, 0.23412810800649966, -0.0951881759079862, 0.07198282986968212, 0.0062067380870334116, 0.023996701653764472, -0.1157076543884585, -0.10810924162181398, -0.066125839772325, -0.10648543243215501, 0.0017950494387908062, 0.08687215009410627, 0.03612258067122624, -0.21017963004712129, 0.07350708929912485, 0.009043154488882533, 0.25644809618354475, -0.22265969796368737, 0.2895593270637966], [0.022246621197686434, -0.0007035871923941278, 0.022453172901393183, -0.05778611906790717, 0.00025913815923236716, 0.02068247946527727, -0.1682790526480617, 0.03715037474818733, -0.06344612904651215, -0.14159950009060665, -0.34138335062139274, 0.11631735123278857, 0.19913731967134324, 0.03559957729816574, 0.12436213758285339, 0.0042497641220029005, 0.1419334432526344, -0.015825464967229898, 0.06322365000299447, 0.04139294746409255, 0.2362100798274215, 0.05186773101210552, -0.21313696220031317, -0.1483482043313487, 0.032802403091951114, -0.07270678746697981, 0.32950498514932636, 0.10952607972440483, -0.08682304952532414, -0.06597366474769234, 0.23092947503811803, 0.018470213183551493], [0.048120675926246984, -0.09064432742627443, 0.05294579998570107, 0.013255380594801289, -0.07963301106403917, -0.11288406943682802, 0.08008926875981436, 0.1387695995682302, 0.0764994388894184, 0.08039532525615312, 0.01911525519748371, 0.07940099681943916, 0.08218834777766533, 0.11804176222450326, 0.11132291386109817, -0.04784528344297416, 0.1098227159134105, 0.005854693125491539, 0.11869324841128237, -0.0254195337229496, -0.25111166931946527, -0.11740902768347394, 0.10543650085916256, -0.0898175103010139, 0.026113158052845413, -0.18064822962041913, 0.1359430630018391, 0.12426117262326562, -0.13413785193751027, -0.14194052783995714, 0.1367394104528645, 0.1755660991667988], [-0.16813946229667137, 0.09320753912325501, -0.05238074073079997, -0.05954666776669846, -0.08383094135254568, -0.10455822331214545, 0.23444807512793722, 0.18313352533197458, 0.03847026303228387, 0.028120577399650334, 0.20296131905925632, -0.24553494611200477, 0.040530138113227886, -0.017810078162509096, -0.010797300013271087, -0.0004352440617546931, 0.1286709196462155, 0.10475062368377025, 0.00508889821122026, 0.005825238734907054, 0.016895360558994703, 0.22244995370172704, -0.12651716218524878, -0.0398439596796765, -0.01943864170686367, -0.12589037368586087, -0.04964359315524136, 0.2694498767479414, 0.27861107881354025, 0.06090167939017834, 0.02667359806854741, 0.0778923310052934], [-0.11625607687668614, -0.24742438582872686, -0.0003974971213868983, -0.08528196718400355, -0.01274917822895018, -0.050452250064886364, 0.013582587222802428, -0.06240822165717752, -0.15123113352753015, -0.062021867422942564, -0.041010367315757176, -0.08825689515919, -0.09098887589958017, 0.09719156378657537, 0.06148386786083659, 0.04552905591471401, -0.01129864744650969, -0.10944204975344561, -0.024804630142308125, -0.16561707152856076, 0.06398397893841941, -0.055027017067415196, -0.17211601334397292, 0.059442720909179146, -0.0241412745782604, -0.11324012417623404, -0.07283924736136832, -0.0829291748431586, 0.04132519875759367, -0.10212476288881928, -9.316191632859633e-05, -0.013619232717472096], [-0.01706163692311655, -0.28470692153034455, -0.0016767916785976214, -0.19220624362793587, 0.0700870651574028, -0.009762959397899883, -0.05119885712605017, -0.005745111828379016, 0.12340144587868089, -0.1445756274736447, 0.06616409518991652, -0.08294534543276538, -0.08048192301884138, 0.06660579353183103, 0.004442873445033262, -0.18113379775069455, 0.04042856797118665, 0.08772424080734814, -0.036794522212425955, 0.05861686977045984, 0.025107787255067234, 0.08977287011995029, 0.1512197063618727, -0.07298135410121868, 0.12083239255037098, 0.13451694494558789, -0.0861871374667617, -0.03796614112805275, -0.15862195970049595, 0.11650664612381101, 0.046817608854628365, 0.13942953089640345], [-0.052274502363074606, 0.008148970368129574, -0.010258356038125813, 0.03927509698208957, 0.08329286569174355, 0.04340512842131471, 0.11550802625465201, 0.03252546818890668, 0.048208872007144916, -0.010554104331301498, 0.06922343324403002, -0.020141109207952996, -0.23174274436950476, 0.15439063739194528, -0.00404830062982985, -0.06964858676503592, -0.02317030341705915, 0.1515987341747894, -0.16729301931117085, -0.1207154108930426, -0.21097447093614619, -0.13921887612424488, 0.051783194465276745, 0.11830561523632396, 0.4137011687556392, 0.04508153736950473, 0.16246410496463878, 0.06462456969603268, 0.032049680278585874, -0.09345514917106898, 0.08798154367676406, 0.018684871068346175], [-0.13857942022287922, -0.0032430649699617792, -0.21427111425245618, 0.1472455979923067, 0.23300656440365153, -0.009695307446181868, -0.04556501789703717, -0.014720680907860483, -0.09836383565466052, 0.083893560882288, -0.2009010037312335, -0.10896992872382062, 0.020678923503696666, 0.10780723391953297, 0.19014881588229196, -0.04709845455441682, 0.017112989195982694, -0.007555022497168829, -0.16683681989424132, -0.041443056185082726, -0.1739919730866735, 0.10843996343855425, 0.01741012588411059, 0.08939262385622702, -0.07615358052593177, -0.08615316282109749, 0.17512508971897717, -0.08233393944068788, -0.19446239979672836, -0.03740675817649885, -0.11102497658867709, 0.097058722816949], [-0.018283835528081264, 0.0758249879876215, -0.13887711018740811, -0.045785581932371776, -0.013315340142571097, -0.3205399920553711, 0.19554710070412515, -0.14360312796689206, -0.05871317317372323, 0.07876020758408672, -0.15641352558288044, -0.06374091306848091, -0.13503425128216376, 0.05844816207411006, -0.06286645195019512, 0.1063804274092355, 0.0466711302940075, -0.13036243822155558, 0.15029407893597985, 0.018661296311560802, -0.02650411774264509, -0.12151884729564601, 0.08560381781895603, 0.024106622569427374, -0.1721418261000388, -0.011461814437012314, -0.049490481927135274, 0.08375322187554636, 0.14292770729001436, 0.04027535072681136, -0.14282279084149602, 0.06273614940778469], [0.036960843460653724, -0.17187097204582236, -0.1484719716105627, 0.005168148828854272, 0.25101288159390206, -0.12507407335148585, -0.07519078371461849, 0.2098559303567805, 0.0778514169187452, 0.25203547927818815, 0.3467972218488744, 0.2057388518700218, -0.006719043635512447, -0.019342093720412228, -0.07318417618506548, 0.03520159969893956, 0.03530768631791191, -0.048771322713439286, -0.09629147890085468, -0.07400253439178989, -0.015691213990917646, 0.1160195345341941, 0.22894151803333976, 0.12624916499887354, 0.1403284234622501, 0.1168657859231507, 0.1432839308974583, -0.0993989628758339, -0.029524868114035777, -0.06438071593919086, -0.1751672559477533, 0.0775009881118692], [-0.056169447911164204, 0.14054077550429678, -0.08687910036652359, 0.154984021360643, 0.2775929426009648, -0.13452984739200324, -0.12462882109952149, 0.07752532946731928, 0.09216122401668446, 0.02905717316985693, 0.14652876839846102, -0.008414353806341522, -0.0013984235063471428, 0.08173122835495672, 0.17296121748980905, 0.0008594008133444443, -0.11219243253108514, -0.003749631949415003, 0.006774321705337042, -0.1247886833601287, 0.11515564257266292, 0.11438405126161647, -0.0857043941472947, -0.04211364720032877, -0.00460141343185696, -0.09679345741415922, -0.026676582496091224, 0.24535929389120942, 0.10550964446143149, -0.1379690620743848, -0.11016937414144949, -0.11057357307756151], [0.05064066839643647, -0.06186340165385411, -0.09894530734708235, 0.16563378700186288, 0.06238147455964133, 0.1155464419324997, 0.03455703653220275, -0.23903990570698636, 0.022277898744749603, -0.08026535029065525, 0.05670937846221912, -0.08055275241261156, -0.15111081657590397, 0.024557349331217268, -0.029060603123061288, -0.169011263238472, -0.02955818125329178, 0.027389029877178516, 0.1737317694356557, -0.08265286266510152, 0.030472736443053153, 0.04007143475560001, 0.08894336966093053, -0.09819004609951386, 0.09166147515398321, -0.03698851166751415, -0.25061318114730524, -0.004098436691634101, 0.21413088424767368, 0.16986143807039106, 0.137232334880351, 0.008625709767089243], [0.06950050070086596, -0.11456422338648743, 0.04627494754857896, 0.022278587000723847, -0.1305556341955869, 0.0056505226171710415, -0.024357321842334724, 0.18418422643380492, 0.09741334168357728, 0.048993584259039435, -0.21952265895427242, 0.00040034369688248477, 0.16127083755229124, -0.0808171129776177, -0.015840972986913972, 0.03618379591213971, 0.06966701112566237, -0.013955247143500672, 0.1763676648596188, 0.022656488925358816, -0.020336285673966958, 0.1342081523233029, 0.08886398393527789, -0.031306769802509064, 0.08351537469080038, -0.22398783358136484, -0.13316669233733402, 0.003867600708552957, -0.05204120433742828, 0.01098216529415264, -0.02924995863285168, 0.012041465137916797], [-0.012730992307968229, 0.1564313094155981, -0.07468120057066319, 0.18923610338896354, 0.05342567967979505, 0.10702913481734619, 0.006871732845390053, 0.2753614603536874, 0.2164114066954759, 0.0013609386799670366, 0.08065084627960356, -0.051534309527366276, -0.14047366755462473, -0.15342400586402627, 0.02101168447758347, 0.15740170815471502, -0.04951299705473261, -0.06386492745674073, -0.008363642737078033, -0.1451352142068109, -0.16417095116857913, 0.011865081013207662, -0.09642687021173305, -0.07126753601411194, -0.14280286704894993, 0.08171024846971257, 0.009374796765900462, -0.05395378431481889, 0.047494452858703524, -0.08387426054933937, -0.15740877300265865, -0.013432285299260844], [0.001482886528843897, -0.06854595373747487, 0.1890864441980109, -0.061293275236570424, 0.2034163567457587, -0.2678464720778341, -0.12665193707936154, 0.022760483438634405, 0.13718900885729945, -0.0685694083092029, 0.0826161796082411, 0.05574238980017561, 0.08044939738790823, 0.203386065574229, 0.2724688388601518, -0.04227252977120906, 0.01620963232829626, 0.2412543300640045, 0.0709481218600386, -0.2524486054246985, -0.09302785657791403, 0.32396381371755406, 0.06272407091819723, -0.13055593050847217, -0.013373334156595775, -0.1175595238272358, 0.1048891538991567, 0.15643553567140955, 0.15381979030049597, 0.09633157014950522, 0.08401627736281393, -0.017827604419260845], [0.017924617301913946, -0.12321199306396767, -0.05360791382750016, 0.049257655881424604, -0.010318194793941082, 0.10220925248542122, -0.06314213554181608, -0.043460772129007216, -0.2897499177801302, 0.026907750106684485, 0.19921101398966137, 0.006088784772626977, 0.015581499584955753, 0.11119580807903112, -0.07760482849348668, 0.07726408292670407, 0.04696537061312722, -0.015358702666849883, -0.15846642107419123, 0.02172577969814478, 0.17711220678768563, 0.1320008296680281, -0.03688962368349869, -0.07113660298020212, 0.07073680537874326, -0.07993498117186586, 0.06409681075878775, 0.10216028291226285, -0.08473026096447175, -0.19699139742685762, -0.0774263438695013, -0.04201045167173239]]], [[[0.10763846114509772, -0.009955861317006568, 0.07628729104232199, -0.14520806236178277, -0.0673686501005458, -0.07570491110453194, 0.18259205326989444, 0.03257721049028138, 0.1418882725178494, 0.01521698752894293, 0.21534874759053152, 0.10594313468482724, -0.07138335659443404, 0.011270306552647873, 0.04350356033124266, 0.03379490945230788, -0.1602586216170314, 0.044478198004750565, 0.10292153675330219, 0.06859746779723216, -0.09875568197575137, -0.06173795768035471, -0.28778131629565745, -0.0913774156532398, 0.026773631922911195, -0.07076184404074934, 0.03095372294249485, 0.26718679359728786, 0.01712566693231843, 0.024352755998026877, 0.0353301973438509, -0.14576346825963196], [-0.0851641244305028, 0.09577892853719548, -0.07458574034583133, -0.03855566998283833, 0.07945359893171561, -0.028934922749757987, -0.016303700716688692, 0.012014904539613439, 0.01983468884745116, -0.05012375247126694, 0.02153789069707887, -0.06636586999394137, -0.10876943453101785, -0.09144019079163143, -0.03951595011260172, 0.02096863786986606, -0.3131509286988014, -0.03671141430214982, 0.008686371988060647, 0.008958115442402582, 0.07768474045576146, -0.044467110893756386, -0.014269238288828558, 0.13997696888718522, 0.18522260272567093, 0.07920231600130437, -0.14301626896897363, -0.005555365414556944, 0.07097715947168726, -0.1393454437526474, 0.08076995209100392, -0.013966502733681935], [-0.014969846181735968, -0.2684661448270629, -0.09707840391308022, -0.11816543716358022, -0.0909269242630993, -0.024395665225695726, -0.0366009711292112, 0.05367468872742518, 0.12552356352129046, -0.12241244936613102, -0.21641447539904302, 0.008090450012547623, 0.057145421857894035, 0.2794619211030776, -0.1991650261009422, 0.4850208362369244, -0.13274644060667432, 0.30156264650855036, 0.08232627212356952, -0.020969754392420006, -0.18463932952257422, -0.08845488592512538, 0.06186597692141246, -0.14755117386803057, 0.04052211300384242, 0.14075285667011278, -0.04277394335613748, 0.1777592231974451, -0.06082412446615637, -0.1881656261200926, -0.13408853268035717, -0.024790113467474312], [-0.059554431143053435, -0.20694635038252573, -0.05248786258396756, 0.08276789429149799, -0.012928397990379727, 0.011389039636060992, -0.07408762973075252, 0.05331036024538045, 0.07111219430819943, -0.08632714187837995, 0.010167271247231489, -0.10870800349953331, -0.24853420869972012, -0.043308250791504826, -0.013965601303017888, 0.07212048294053273, -0.11471739620012902, -0.04346705195190298, 0.12659108603630947, 0.11471161658236252, 0.03582564920464819, 0.2537109008772008, -0.03770934918220678, -0.041650139708190086, -0.03175794031256401, 0.061901786093333, 0.19832376309094996, 0.24976636414120731, -0.1497617161271411, -0.08923783532926265, 0.05115716162092888, -0.07774646069416753], [-0.255173252225137, -0.007529183721971799, -0.007730577035129501, -0.14626962522279427, -0.12310132702703369, -0.07438383375017925, 0.1637249757366661, -0.006018641176838217, -0.12922174714469398, -0.059958967305513436, 0.003222903847962371, 0.07007738038151179, -0.006602537976478055, 0.22546201318659898, 0.1272630053227661, 0.1769451146640091, -0.03498499728897062, 0.2903830388688058, 0.09493740150603691, 0.29063234329186355, -0.10024699535712385, 0.12885285098405044, 0.048711063930895054, -0.08632732955236572, -0.007283846105426688, 0.06046231730034027, 0.17312087470100418, -0.01226952244556439, 0.18378583671623638, -0.035035135674086955, -0.03586074703303806, -0.08225687284031535], [-0.20152987895367674, -0.05373560599748264, 0.012038395381191617, -0.08547452869401996, 0.39092246884219467, 0.2118899714824917, 0.17930259243282756, 0.14104977209715974, 0.08868431954500078, 0.09832622838833525, 0.14479485065686046, 0.20689877815094102, -0.10449893692705853, -0.01046804209310637, 0.15048037945539605, -0.054077437023367314, 0.08633651830933595, 0.0586120846269637, 0.010434092397423362, 0.21146011446940496, 0.08939742766462667, 0.17920707059124727, 0.14563855591648822, -0.07115568854344465, 0.15448133652449061, 0.03201831278932467, 0.11415731544354248, 0.0401750420501561, -0.018599938492733104, -0.2900820125895708, -0.14325727980040495, -0.22879157980032128], [-0.0816285023190529, -0.17101072944899864, 0.16212806931811558, -0.10008705916713097, 0.11540734115014616, -0.02722482488312139, -0.08582157050396164, -0.08441424809118567, 0.07744478008040358, -0.1821161848899972, 0.1292604370347278, -0.010813414410666447, 0.015064444085258932, 0.08900111456753892, 0.054335513453167006, -0.02349460152921609, -0.007594387550946446, -0.18265609875838737, -0.07386488092846216, 0.17529529545140046, -0.009531056545696557, -0.0022837546422977708, 0.16737714637739076, 0.08151585556435412, -0.023716148463264624, 0.08395284356050092, 0.28739946664614413, -0.0492034801036428, 0.13157616712588724, -0.1067760047783662, 0.05395398812253264, -0.05096605892270536], [-0.05053064148722986, 0.04147972781872096, -0.08781881362050213, -0.0013563944444557087, -0.0794103718305862, 0.05176263122508817, 0.07054775867595678, -0.17689598711662108, -0.013382267080461727, -0.10831393066720649, 0.10956499728862223, -0.08024465009931742, -0.07555739733870637, 0.19062358646254768, 0.08555631637509489, -0.09230720560299298, 0.007006926703248372, -0.05652036719669763, 0.08736951689988375, 0.015441841934248315, -0.2510717700799725, -0.08242937927680916, -0.018032750743874077, -0.09411890920938502, -0.011998693031098222, 0.11028677118309839, -0.043024705640937945, 0.11823457915140316, -0.1354484341647423, -0.19968344980714886, 0.02745082956464206, -0.06028886085558773], [-0.10422690397720523, 0.32730977374533066, -0.16715267672259074, 0.07190394499208574, 0.15542565093699173, 0.07348903152624492, 0.14100009238071015, 0.1474739919648191, 0.017295294645472567, -0.03141744019295431, 0.14806684766734599, -0.17846149937040026, 0.041338671322427016, 0.07231495666398124, 0.05311376689562574, 0.15815960949099472, -0.07183375100447224, 0.010835298688489288, 0.103473816041369, -0.10556229480697976, -0.0054144378838993515, -0.1363890144817589, 0.13518401808493358, 0.14304526260470768, -0.07336594292804967, 0.1233296240659179, 0.07624705384704454, 0.06497197113351913, 0.001663901920860002, 0.17338586603986206, -0.054032830091543964, 0.06938702085806774], [0.028817158431628756, -0.04348948065803509, 0.12987404777223419, 0.05607109787791607, 0.19228121547055685, 0.10837092021180104, 0.17884127457236715, -0.004702887782471826, 0.20781113697588954, 0.002901929200784561, 0.08301215158959184, -0.07426639064583843, -0.1392212266763971, 0.04443639093074153, -0.029634555421135973, -0.004372545561256, -0.17052986759329597, 0.1417034111697966, 0.1388756219652492, 0.17563632768304263, 0.1647592322247676, 0.007939435383159504, -0.026849588178782895, 0.10953613774432797, 0.09565437621329897, 0.07301223342772659, 0.09302840473931243, -0.09641278757593752, 0.09939247009160677, -0.07779893735951103, -0.25629151718625476, 0.08592206893206254], [-0.01156367178888573, -0.009996659535082369, 0.08529918533673654, 0.002828452875521799, -0.11932130617838703, 0.0460481313679725, 0.004222596467417343, -0.0298805754322618, 0.10738934685047422, -0.006220350604144047, 0.014143927198791786, -0.17659299257284194, 0.2513664424977221, 0.06026611921953889, -0.04002642703925496, 0.04577870305297005, -0.013487638404677864, 0.02328810855514348, 0.07858420665005211, -0.05209060433880124, -0.056108801514891816, 0.12012341170830669, 0.054872337116092525, -0.08418990789903978, 0.10787008456441262, 0.0184382192151694, 0.13387841539751907, -0.08787426930189103, 0.04266737876204144, 0.13344772224483403, -0.05814890905774966, -0.07308383806445702], [-0.14435535003833747, -0.03301607078830805, -0.11328972471935761, -0.04783015262487424, 0.19335801442255637, 0.1481341321712938, -0.1416204693823841, 0.05541781037720587, -0.12250110788181202, 0.05303810274677792, 0.10368679790072804, -0.0384227340829119, 0.11929502699261005, -0.1101874835441822, 0.2369925887838956, -0.0018901621799500825, 0.21970649814415005, 0.15742129535764354, -0.007404187821580531, -0.22751808867503118, -0.045865899561925175, 0.19546180043875677, -0.14325266347659224, 0.09869827589552968, -0.13629713133354665, 0.0514532078497247, -0.020542581038980077, 0.012654915643467964, -0.041433737347389504, -0.08912564295281249, -0.02735658145982036, 0.11418508886123517], [-0.18302359553519407, -0.14351230563005585, -0.0449433838209844, 0.23410021182521093, -0.039595414955237336, -0.02658040285186224, -0.05911555580906468, 0.0841030466467014, -0.11969454084209509, -0.042585159726711536, -0.01191651258492927, 0.051644278325025564, 0.02891633147293767, -0.0306720524215146, 0.17923029763335208, 0.09116636695757832, 0.2178161210556261, 0.049618812551352816, 0.4104857808522955, 0.1481941002181922, -0.1231072747770077, 0.016786155972681235, -0.005490593334312291, 0.10047370948102642, -0.059361026298771165, -0.006408142294969692, -0.064384221602887, 0.10367907168861878, -0.15757807174784663, -0.0872857537723601, -0.022105636856061494, -0.11315682176385394], [-0.05901937647952493, 0.08973906130957164, 0.1796335864360356, -0.10246455850764681, -0.042327891651705994, 0.11325172231942168, -0.19544675890104324, -0.16578052492252926, -0.02124370831203385, 0.10147590854968142, 0.18070505658078848, 0.17923620329704565, 0.04952991469019865, -0.014019069438400616, 0.19619193728177217, 0.16776676363081355, -0.11224986005352143, 0.2142107117222358, 0.15158555910861626, 0.011046307679676072, -0.19294636866715797, 0.020223201732457105, 0.01802505102087511, 0.035522860800654636, -0.0514293310643727, -0.07918666635947669, 0.1352990477102456, -0.08497541140037523, 0.1693038728064457, -0.06103378403279021, -0.12478493129203504, 0.07576637547845898], [0.10786144363608084, 0.0819214643627896, -0.04459203239020405, 0.013231917490485924, -0.09549693320045764, 0.2889424113210871, 0.2343287670678711, -0.047817861466275785, 0.058784396070461466, -0.06324905115592863, -0.031694015265236776, 0.02860761491206351, 0.08645092239448447, 0.12046991867809036, -0.2258330726246616, 0.0394751806182263, 0.07633203455296667, 0.259656766587791, -0.11499177167041065, 0.09239557081165278, -0.006351728426244075, -0.056215422727398434, 0.09658874046420193, -0.06629843088735371, 0.06661931114309959, -0.06200989260691029, -0.009529737679481664, 0.11888648316884885, -0.17423185915060693, 0.0938340469113801, -0.06348972535706175, -0.17659427377178297], [-0.08316551275008309, 0.15146102953041146, -0.027824649392099023, -0.027757815611219868, -0.20057374069892253, -0.1782545136875509, 0.0893336745471177, 0.1017990815484406, 0.1683507018346549, 0.14877341626540286, 0.08675651891294332, -0.1588894405462323, -0.07695906907720586, 0.020753599429562328, 0.11072425044057191, -0.2065044636480956, -0.08022013748679765, 0.014238775135446028, 0.10316921792738422, 0.21995719156074428, 0.1051657437287979, 0.060165400913828784, 0.05326564430023535, -0.35391304139073504, -0.17016873732688986, -0.05381133840548049, -0.016701503411623096, 0.28768277551358423, -0.0158381557095047, -0.17411961149162133, -0.026728210316607205, 0.02718023849027589]], [[-0.03524226236505078, -0.18289757925455652, -0.018800994397445432, 0.035494106462542266, 0.05129207205904111, 0.3010328999969354, 0.06478620796196186, -0.052212933222552396, -0.027229521277144474, -0.06211321391827346, 0.04541000312584139, 0.10252286420115017, 0.12022204625653704, 0.008118300899333976, -0.1976077123234207, 0.022624368985935, -0.24036032158036147, 0.07303320705308639, 0.20106715323406774, 0.0747822292493403, -0.013246613149900525, -0.15061690886629076, -0.15500358559289015, -0.16157039698358325, 0.14987646255918144, 0.008644834837479526, 0.16391313114031028, -0.18741518380964808, 0.029946915330078084, -0.019921021502263957, -0.05139066196349686, 0.14834203125681295], [0.26224116345595133, 0.053807317363543765, 0.009922352312405852, -0.2076485440712696, -0.004985761069101565, 0.07906776025193911, 0.05815274354914522, 0.014910192110005572, -0.21963010698869267, -0.16780989581364233, -0.22187628757927952, 0.0627102881303262, -0.2992499064437846, 0.19593463882257794, -0.19097093444356925, 0.024021311839294592, -0.07064414006538376, 0.03474676123038929, -0.14889159058483212, -0.06025480867804801, -0.12673975078607422, -0.1859184784665909, 0.08271735492088995, -0.11533624326760757, -0.11743006011402661, 0.1712090955427351, 0.09286305246472285, 0.1612816287043722, -0.056999738196184146, 0.058231690509286956, 0.007355721277051863, 0.0937040356190883], [-0.07587904170333874, -0.020560013394475527, 0.06724734118335544, 0.07497388279539913, 0.24829868295864096, 0.27154611065742795, -0.16729449199211352, 0.1530116293433264, 0.1367836089432461, 0.19317491685501256, -0.0123546692012006, -0.12979632931421536, -0.06435838460198062, 0.2258390266414421, 0.07747012300479936, 0.25869146183778713, 0.08272042929638232, 0.07381001021729978, -0.05248289222095542, -0.024355364682802902, 0.0351149353550689, 0.12922800223912823, 0.031304614400235894, -0.011956577534314132, -0.10003237747621302, 0.07138339213283101, 0.16253055742102474, 0.21817750320403265, -0.17001731789954327, -0.08672753467200607, -0.2850023024280352, -0.03962770475652227], [0.1347869426935014, 0.061720605768586935, -0.08726582073521398, 0.010074380464138777, 0.10188229084212296, 0.018740144987694985, -0.12233160090723914, 0.18658337473278908, 0.0947380868146792, -0.10659412961469504, 0.26886827369301847, -0.05664897567867449, 0.02796955710130296, 0.0018646822043901523, -0.1923355096635423, -0.25122915625082515, 0.10363955268784977, 0.03527586700678039, -0.19520713600512615, -0.02820064467110997, -0.017001682110342767, -0.006564362223543422, 0.0460564614989319, 0.039324780973020675, -0.1312395799398924, 0.0990959861690532, 0.02847550602929423, 0.06603371667586531, -0.11206442850647387, -0.06637846159914472, 0.02112460474871124, -0.07344388165887902], [0.07815716559635098, 0.18133672622421027, -0.04761145562427254, 0.1641585869035832, -0.09740383172900109, 0.24497245178564742, -0.2246783657285223, -0.037167791674906726, -0.07335805268164867, 0.2776836679152734, -0.11250214363641295, 0.009557689010979704, -0.23469116278133012, 0.01853910122568419, -0.018949500355582807, -0.10071223526000563, 0.11027093766379782, -0.028569012269326295, -0.14434142515489232, 0.08110820948119002, 0.03318118751729278, -0.04177878680419523, 0.20535305447902727, 0.12504580507871063, 0.021765111410186905, 0.03062115650714404, -0.008273191143701198, -0.021258402130263743, -0.10789411635907915, 0.0035078571168773894, -0.09769076438894475, -0.09719667804346248], [-0.04233108264513536, -0.12744864382017093, -0.17882028353241497, -0.06056430984110085, 0.011310419262760272, -0.008565980619066289, 0.09995662691006102, -0.023392212913179913, -0.15413153647202987, 0.12341849825699273, -0.08387565845814071, -0.03365654699231051, 0.0018636470571019796, -0.005911691401313637, -0.05768957719871384, 0.023003114912312776, -0.2255914339035657, -0.03834545078507863, 0.13085016300250876, -0.01066316266208658, 0.05461151907718389, -0.05898278642144215, -0.08134919423448109, -0.11037481045812923, 0.16408432654001834, 0.17591380715313126, -0.055820489823162754, 0.02351082199135872, 0.12885265489925013, 0.06650743832462827, -0.07976817711301128, -0.11842241340589127], [0.11882553487645624, -0.0818414250146185, -0.003901677338376847, 0.14268246513372768, -0.052391374351532745, 0.11566219012911531, -0.06493522963956956, 0.03742247274722793, -0.15125833506075834, 0.03423949434525628, 0.08709189290343648, -0.02235663336814932, -0.002819082919160909, -0.06784825889383748, -0.015873845966242958, -0.07326133189951611, 0.19832362033299905, 0.07018472940432446, 0.1449070840381217, -0.23810595684334848, -0.0852083890153751, -0.27601509967077675, -0.0676389984468034, 0.07293274984451169, 0.06175566013882893, 0.0080730686875889, 0.04252616887069496, 0.057633507246713137, -0.15974762571326484, 0.08770819873205872, 0.04499987930537393, 0.08698525240719258], [0.10960187887604322, 0.11573078678467186, -0.09189293651690582, 0.0049595386642501006, -0.01166515317936971, 0.06316586747762944, -0.14210128711505077, -0.025459369020139132, 0.13428213300448832, 0.16885580062641312, -0.0026638202686952556, 0.060873786929053764, 0.039061904458571946, 0.027094572827083382, -0.2650555697104555, 0.2802059967305289, 0.07066920002160962, -0.0009505151000939847, -0.00301580190658895, -0.030601912754939745, -0.0675286831607675, -0.07811731393127734, -0.0027205282274580843, -0.1128961425317331, 0.19217820846713124, -0.005041603959061993, -0.28877919617054554, 0.26314235988697554, 0.07580464383621371, -0.16045948557372308, -0.0852719237761886, 0.3443650379216202], [-0.1031833955596985, -0.04651034084518491, 0.2590271992850996, -0.10653170586463222, -0.29522915803548555, 0.2957352284810682, 0.10066114810136914, -0.029420967519679504, -0.022077037606493495, -0.19826058845997793, 0.030352759847081856, 0.027626849262870366, -0.01385207411104597, -0.05086778644388865, -0.008993453846556278, 0.23741173754007788, -0.015765618390619043, -0.07579653793922717, 0.16479319194269787, -0.13138264586527965, -0.22672570285227836, 0.031228020713676436, -0.024293063453157352, -0.00624697524449929, -0.08368291828326194, 0.041012005423449016, -0.09415716434641588, -0.07883873563567263, 0.031508704391301434, 0.14765818597376446, -0.0839496238446947, 0.059985217582349745], [-0.08044340296728579, -0.01599850560129618, 0.061582642129272704, -0.053548963600820176, 0.011431189421799604, 0.005485596765596234, 0.008679077440775028, 0.13353470214322988, 0.09950054456806617, 0.10139885708125668, -0.22473967488097424, 0.14691759016817643, -0.09356559169349855, -0.031849950228928066, 0.01779516730203382, -0.03290269916880514, -0.08896825279001744, 0.010582425329620618, -0.012032901583904673, -0.033481220538061116, 0.04582673126654277, 0.15811439147688514, 0.003508054807615989, -0.08541941794241924, 0.08706085405965845, -0.08986775963074158, -0.08660144730396266, 0.19132758754549722, 0.03735125905573279, -0.19217850988533355, 0.14225337380886643, 0.18835045544891177], [-0.03515199120210823, -0.003229840868422727, -0.12351272354185261, 0.03499714294483227, 0.06422662573793265, -0.06647829673094584, -0.12019772720772685, -0.02816249673254159, 0.1402161757874472, 0.17800400235870648, 0.01936128503335912, -0.12552865409685632, 0.16442879852849565, 0.06388661704661126, 0.02611054215380349, 0.04553877086086685, -0.152010751140015, 0.169312440815238, 0.18954949692838136, -0.038286056940602414, 0.030776315288481924, -0.08005446436511268, -0.10320083675115867, -0.022186965931968616, 0.03673147511664445, 0.16313900989100816, -0.06925768805185765, 0.039135436949653615, -0.009568101958874803, 0.02730697650727387, -0.2513296769304892, 0.24213729909913032], [-0.08936259597953572, 0.1923627657302876, -0.15659161833309176, -0.07937914115915608, 0.087025000187943, 0.12330330517077702, 0.17108964587925563, 0.03600842290252969, 0.26077352055745556, 0.11783504175216555, 0.03545735038393119, 0.014656748671167733, 0.09714479400262571, 0.03736851666492787, -0.14406268663972496, -0.08892246436532797, -0.046760547568515075, -0.03031518689491807, 0.09114402793116003, -0.09766705282352585, 0.09692321849256279, -0.04046402504673922, -0.03555749538404445, -0.030441508420269103, 0.14522773242081172, 0.08487075851702318, -0.15469177213163499, 0.2797504697994006, 0.035813543531481966, 0.02147008284331222, -0.13387849145023276, -0.23464298607359446], [-0.05183307426444873, -0.013621701085151428, 0.011797160983914172, -0.04351263727338049, -0.0825235452849943, 0.059133158076047895, -0.1489589059200104, -0.0006308392466269619, 0.06912859818816958, 0.06583636558104264, 0.019912403359250503, -0.008648479569509555, -0.009952850140753835, -0.12387784958124558, -0.010626940769282164, 0.02991306146558661, -0.02432115393402215, 0.1663938348105359, -0.07693324919022908, 0.11698966318408219, 0.049453990717599525, -0.10743036083574692, -0.10652486220554314, -0.020439528570443594, 0.09389736835839292, -0.0016825654073065546, -0.02731810560239838, -0.11141952555091318, 0.13666548026616124, 0.16357748564170857, 0.21271282623250679, -0.08582938057916908], [-0.1630933408674899, 0.14623813984130854, -0.21006449572460453, -0.017889774475551946, -0.15151663503458349, -0.0514039371134005, 0.09651798508414175, 0.13973872765983245, 0.07853672540209392, -0.02724260502351628, -0.056146701401710165, -0.04623665874218385, -0.062325929237286984, 0.1457849534926929, 0.04651870909367411, -0.08567262545606452, 0.15558234054325332, 0.015152198287512506, 0.0730355122694599, 0.2631846185472734, 0.09455194371404371, -0.037454569706400875, 0.07338698311713134, 0.017647189524488103, 0.10956669581159847, -0.022525611308931878, 0.05501633765726204, 0.19908401271330298, 0.12515173713872657, -0.08067822070825373, -0.15103874323478486, 0.06553623682707972], [0.04598904720923033, 0.17379545853908793, 0.032158907106113355, 0.10448412731381827, -0.17979111912860357, -0.051012676884307814, 0.08038468561141204, 0.09060794278364127, 0.11390913442089012, 0.14298139347859357, -0.04840515145354348, -0.036756214124693, 0.04335805140608672, -0.0389417407826769, 0.02523584068213742, 0.11827523573201613, 0.1868605928947993, 0.19686779053249473, 0.07949812843404422, -0.13122236630991513, -0.029513937712219673, -0.024840472294416358, 0.05539378443026809, 0.13561201796508818, 0.17837082481555946, -0.04329261623135314, 0.025498267835366916, 0.12480305826496632, -0.0936094904050048, -0.03436324935911102, -0.03343204529938223, 0.18323865174801143], [0.24207780492486003, -0.05321085571774651, 0.0814971176801225, -0.14191057811372473, 0.2839865380087041, -0.1519436333122717, 0.017592537912874, 0.14937873847825117, -0.17240957772935883, 0.027555636250597666, 0.4007493601715182, 0.1010761941729343, -0.04711785843386083, 0.0452339564221631, 0.029831673206200924, 0.07629494415035447, 0.04933535419696214, 0.17173299418207866, 0.07562582513388666, 0.04757713346299545, 0.21447007599776732, 0.04801574015622553, -0.09326970409292924, 0.006080575849831685, -0.09019566417703653, -0.017177172250361493, 0.10735661593903145, -0.04227956654530855, -0.27798041069351487, -0.09849107825445155, -0.10166825217072946, -0.07469290725537593]], [[0.0882445838715341, 0.07585930176205707, 0.053852410597755036, 0.02904342977619998, -0.1357523728604831, -0.22187188572549105, -0.03035284619243465, -0.1645647110134758, 0.19264003139498884, 0.00854978942579582, -0.19750138076088583, -0.028536341046535227, 0.005099699682056384, 0.13186223654917065, 0.10471909201707982, -0.09269792218963702, 0.06394329432526019, 0.18347207358970763, 0.05638380686045451, -0.053524756699201884, -0.007040420278864674, -0.10802003486631792, 0.07963240766548203, -0.11423783558467722, 0.06885931965887765, -0.02217829359237649, -0.055167599063503305, 0.1770537986823807, 0.0020635915343465492, 0.019568402237582307, 0.10785473987197623, 0.059388147769002905], [0.009813424542026026, 0.08586659105352563, -0.1202093992659531, -0.026496424604960576, -0.18698766783834378, -0.11424466813668334, 0.07264848431703234, 0.07581025633969377, 0.07970125503242013, 0.23862308176641564, 0.20719474367467994, 0.0626158863639286, 0.01630931639713403, 0.018263255948149426, 0.08920667208457847, 0.14263834898824818, 0.010362078266522667, 0.05031481946700186, -0.07365317468254234, -0.14674983372095365, -0.15493795916684414, 0.1665045353602428, -0.12291037486143008, 0.058883355618035774, -0.02408468816929366, -0.23261032660166292, -0.02830690019010635, 0.13901774677656673, 0.1279525304780871, 0.017631029640588873, -0.1344870621042834, 0.1761474895575001], [-0.1251915061878329, 0.01625872732313524, 0.15452383046781068, 0.01333722273333029, -0.051997096833450454, 0.09886815444250502, 0.021104774590158987, 0.02943483855219629, 0.027830960103081802, 0.029996454143650982, -0.013132187907466421, 0.03859843395930663, -0.0004023171110147911, -0.15803221598935993, 0.13284888941212705, 0.11647867204855296, -0.011030462124378535, 0.12837970464832144, 0.15463277450029933, -0.06427582385942232, -0.009624429191274772, -0.04634961354096908, -0.011024547719335212, 0.12835708037750204, -0.033774697935007814, -0.11216846059646661, 0.11907308806471137, 0.15215187405028144, 0.13271327802794816, 0.12268451964712482, -0.11332631116337287, -0.08883912820162884], [-0.20219848380604508, -0.10854826055164508, 0.17898871768562924, -0.12577085497075235, 0.11541163776416764, 0.2608908710198221, 0.061470296481117154, -0.05032470092031383, -0.35807877131651267, -0.04312192812125544, 0.06902773757296107, 0.23864201366876378, 0.1968221727758724, 0.16990473901001732, 0.17340989059802409, -0.13853017393619785, 0.02636843865703967, 0.23274468828563266, 0.0141010812514074, -0.03337095037771567, 0.026656694875028294, 0.031108858984210543, -0.08606940742510771, -0.017946311429034658, -0.14683563526568197, 0.15782149670015805, 0.09500509510131008, 0.05587867500144764, -0.07942970318194253, -0.022231744153188, 0.1187754610569782, 0.06481854878187211], [-0.1071603625347048, -0.021219416009753946, 0.10972310828726335, 0.026103666661215205, 0.014533255704637978, -0.20826473158120892, -0.29543958325407577, -0.08414133893930853, -0.05882114590902565, 0.03601483116334592, 0.13479164602275973, 0.16592794483137493, -0.04821481526433115, 0.1415185636272728, 0.06848050421169118, -0.05854245918286236, 0.07157505944058329, -0.1772346023655613, -0.18350223626163797, 0.0927177458281297, 0.1214659202844521, -0.4246277008429586, 0.15017988949039102, -0.13234554621956032, -0.09572422613188308, -0.007546049339998317, -0.1135528920207324, 0.12619823968984198, 0.24893109128334864, -0.16420429687448956, -0.06961837676776599, -0.11007225761286668], [0.04410643643059724, 0.22315411755875678, 0.09804602472990387, -0.04109173659779203, -0.25127362836274475, 0.029567170415720313, 0.17480089496247364, 0.12857680028624222, 0.0870402404800449, -0.010661190227342354, 0.189412340698844, 0.1832255330098508, 0.07277813781341351, 0.16017770303503268, 0.11606611172371342, 0.10800046701185277, 0.13753799700396024, 0.07961066507548997, 0.24020949112643009, 0.09443923764455568, 0.09437829476050766, -0.12136776698126625, -0.12461454149944624, 0.02018506014871652, 0.044699362058016175, -0.10526544059585195, -0.032930464038203905, 0.13890809577942057, -0.021867223468954276, -0.044643159143038895, -0.1355533765852727, 0.058515325695944594], [0.1501990837496945, -0.11804481630877971, 0.012145956359278615, -0.001539433075385113, -0.10692628094120624, -0.16032108305440215, 0.05320346837235691, -0.15500536976578738, 0.05230483030766259, 0.09764917143100775, 0.13707820618185737, -0.12691870189978705, -0.11914522183216754, 0.08169110131045232, -0.33951817310735705, -0.02614631496964049, -0.13350971802599415, -0.08320315891723574, -0.1904508523663921, 0.12318854032725743, -0.030019612150713096, -0.015900729732930875, -0.05955112406651062, -0.0074607824145774305, 0.006738338708753932, -0.14086724942500242, -0.09856575779863244, 0.08382317333742519, 0.04001949461250113, 0.16591108262320134, -0.016669899876357818, -0.040145102593792246], [-0.20159202991938552, 0.09086744947601616, -0.05711309915374316, -0.015995676686687353, 0.032246220512163, 0.08307426746791638, -0.018336888753236663, 0.15841616248695728, -0.19169877274248592, -0.09211847176370652, 0.1760393222042774, -0.20873773706709098, 0.26922693042953166, 0.2828236598819242, 0.1245076881316651, 0.04813891380291821, -0.01970306118635179, 0.1409677891675521, 0.10888739043580106, 0.09571534805362682, 0.11285198362590433, -0.04948845624659945, -0.024646527802193452, -0.11427748065273265, 0.003997254595200476, -0.04641733856893177, -0.08112495208196167, 0.07883729490334176, 0.20867399675762402, 0.08167318009048662, 0.04172643824027846, 0.3752381112964927], [-0.0654927346270575, -0.1837461564749631, 0.2247161694893494, 0.14846442534951318, -0.07180185958572174, -0.18693116892660125, -0.043004526562369645, 0.000670252776568294, 0.06338615721813987, -0.06711194265461065, -0.13300881976785214, -0.1256908936518564, 0.06470175212719066, 0.01171767506394809, -0.2688081067997532, 0.15678097255195972, 0.01480966951033011, 0.15237761126584362, 0.040729120525511406, -0.0010112787636173469, -0.1167243878477221, 0.04251365553562406, 0.012248054266318836, -0.04769972200540585, -0.004840230401309178, -0.1181740999987151, 0.017686211482024032, -0.024391553665883234, -0.10821990527406283, 0.00044556691683256196, 0.07149464361424228, 0.07924310624913984], [0.12214202698881593, -0.03678778079108279, -0.0010372722923462844, 0.028154489734603185, 0.042570779452171276, 0.02991117650467844, 0.016441707163260523, -0.06166439892951751, 0.12519858434744044, -0.024198213025015413, 0.047464174159249625, -0.029567379409334734, 0.009082804084530296, 0.06831753450870108, 0.09979827674425708, -0.2982810628086258, -0.020772416822334994, -0.12003132515310752, 0.17773679693828726, -0.23608956902465733, 0.03373531361670406, 0.07933602387332941, -0.029879363913906585, 0.11074472505401847, -0.20348429161383766, -0.1824502619150484, 0.1900820131402265, -0.14630300148820646, -0.02180633660556021, 0.1748872598188679, 0.09301197897919504, -0.21507967814823917], [-0.17398671100527563, -0.10593901403365918, -0.042297610601097616, 0.04060045033586662, -0.2652506182539473, 0.1234044077120163, -0.038691937007967886, -0.16583716856068487, 0.072842924916582, -0.007170853463638073, -0.10527871821875778, -0.11285139794052541, -0.02564975500569746, 0.2736334966550812, -0.20211374742257865, -0.026968802315225276, -0.11722513465939881, -0.0954008792291342, 0.0349558697037168, -0.0946339293521567, -0.187399304351963, -0.13715364121781656, 0.01387553154805246, -0.0055994349712735186, -0.1189527543194, 0.09242793710072653, -0.03955671604358548, -0.04953722488870784, 0.03833154347164006, -0.02683072499557849, 0.045203005214237695, -0.047671022588704426], [-0.15362394194770618, -0.25504530529301983, 0.14935070142602322, -0.3504903231379784, -0.10448401139741705, 0.06945055254109431, -0.0421706004648817, -0.10030341918281924, 0.137909530557429, -0.10705953092349794, 0.04423281211810201, 0.4053703712467187, -0.097518505771896, 0.00796691964802915, -0.09649457372191245, 0.10679884422228879, 0.004962592591694002, 0.1405682217884731, -0.07268024139333527, 0.049366521194025646, 0.05141282384912225, 0.09926034192290503, 0.019814996091439684, -0.0691453093424188, 0.12382990187636828, -0.06250382226509937, 0.1580238839275842, -0.013274605489084164, 0.08627205950529239, 0.07732194950733874, -0.06925322092349871, -0.06589463943075403], [-0.1448434715573004, 0.15636890688234206, 0.08631677051363805, 0.09785420193646065, -0.020374871747235162, -0.18048597433981564, 0.08669025004061495, 0.0016124798856820457, 0.22471009303234318, 0.11416091167029295, 0.08327873629807024, -0.024631347383516976, 0.08931589646425177, -0.08417187596167283, 0.13860386298261532, -0.16487320277670056, -0.01615843829932038, 0.1455022542702098, -0.10721245663600103, 0.0007320639722411352, 0.16467123558023236, -0.010852005456937657, 0.031708642809006995, -0.24580503463099343, -0.011841562339479528, -0.04161866692133027, 0.06745625263367436, -0.031436844949969504, 0.17900921411299012, 0.10396382598867708, -0.022852559791839366, -0.13905489960940715], [-0.059008247009074595, -0.11721961641758297, 0.034867044063572175, 0.15054652355083212, -0.1836632078393065, -0.07461753750306994, -0.11702563432790414, -0.09957152082434913, 0.047641170702972614, -0.19566898157550117, -0.04542118791999347, 0.021020115600608864, -0.2799323785662664, -0.03331551553873247, 0.04576620985515013, -0.006735620797965677, -0.04092838048870442, -0.048240293598617645, 0.006890554791256245, 0.1468239913483192, 0.03367581187084469, 0.15076570327573147, 0.07892482816976143, 0.02049927542123673, 0.010384293307234468, 0.2626974809049055, -0.09266790975788745, -0.0783787235788192, -0.11116652914795502, -0.002891065374995263, -0.013663218929173626, 0.027114019516461786], [0.007365261277781635, -0.09614403786662383, 0.11262825063067672, -0.036314113426826215, -0.04329464300269127, 0.031950738771952696, -0.001183343407936646, -0.004455505239468394, 0.03842822796531707, -0.05686772365520463, -0.0802247304065188, 0.19362286961067662, -0.02758485843070081, -0.0025227442832114503, 0.04708949901993893, -0.09267778806453782, 0.015020050539647743, -0.07770654849430637, -0.12028382269069494, -0.24517550516325734, -0.07558738308241347, -0.07085143393542917, 0.0002654107300283432, 0.035031338538174354, 0.09128462316743499, 0.014627938041365193, 0.08602550536902757, 0.059690295437625655, 0.26499854246102617, -0.08285890393203305, -0.1152517384856943, -0.11843135977509953], [-0.25713959815684706, -0.0022458725066806843, -0.1361581775740727, 0.06359178184699743, 0.026213142533217573, 0.13140571635215945, 0.1342617260214002, 0.027603116717531247, -0.13300173429404696, -0.16023739536389875, -0.17949397445162452, -0.04426439841890853, 0.16153211126603884, 0.043025068771150206, 0.03834048726490861, -0.18413165272954682, 0.050669965383652274, 0.1130932421645526, -0.047366186869429, -0.0025988742576165697, -0.08470055056054858, 0.0755800291811056, 0.040224992179563095, -0.09076055066511986, 0.11624305054536956, -0.010668068337463463, -0.009691759549993805, -0.010141798593721097, -0.21302581960421266, 0.022416944507698402, -0.14348860958367674, 0.026406810227283393]]], [[[-0.09735337588974767, -0.036225553820351704, 0.0297736268221325, -0.1412954427125537, -0.09913524965133289, 0.07878910639397535, -0.06445511505922144, -0.024074604381753184, 0.3100882385573059, -0.1367231673320949, 0.08255147958246548, -0.14101291934121932, 0.18543653992149936, 0.037047705263345485, 0.04087582678336768, -0.08880070730733747, 0.04772561995352502, 0.13041942258698647, 0.03814894369097058, -0.1117069071518202, 0.012625591468907392, 0.14844895421224696, -0.14277964970523455, 0.07148655047923835, -0.11663518373316913, -0.3047460074030276, 0.12413914399886421, 0.010350867833065835, -0.20300576451458938, 0.15033744023757561, 0.12089365308966271, -0.09085310926804231], [0.20725933642713257, 0.09415398726898674, -0.27852740785138785, 0.06676602644828342, 0.034568300924748246, 0.08928097889496546, -0.0756300805771115, 0.16022820396327736, -0.061263540765134385, 0.020694408867703084, 0.0176612081727916, 0.2715605355278243, -0.022748856310919455, 0.0866066641689976, -0.17408772120939692, -0.02763641510303172, -0.10753812405622512, -0.01732794048744843, -0.035191328976767015, 0.0333489192616487, -0.13331818537723414, 0.14813133492267708, -0.056414461805191926, 0.008680262336242764, -0.09015957730022497, -0.16664181346961432, -0.06252300139603201, 0.09389796603141352, -0.008767741308410007, -0.24167564267702016, 0.012338944846393638, -0.27488720460219607], [-0.04274280721851742, 0.22234661998488664, -0.1932240768704525, 0.10062713989835291, 0.019647198994538272, 0.08570228799255208, -0.11312286125873966, -0.27820334690331205, 0.08507582129111103, 0.0054370961835958865, 0.09682654711860222, -0.0900923559298388, -0.19368624347340757, 0.0704962557532192, -0.16166244700143123, 0.016918970689029426, 0.07186236353362771, 0.051788540305587716, -0.004586255194280636, 0.04612321216208147, -0.01131380531418763, -0.06590442872048831, 0.062164347058715486, 0.053206139433838805, -0.015971430050549885, -0.16431871971897027, -0.10215716406315474, -0.2936685779202312, -0.02271449269942719, 0.04778468171124067, 0.17589514983712048, 0.06254179939545729], [0.10020941596311646, 0.18739463214924068, 0.12574918491019182, 0.12524714512796198, 0.26022918769781134, 0.02368984380868237, -0.06443220809039875, 0.007803965507267896, -0.01594087639212918, 0.07629160843089978, 0.12400183666161015, -0.004958603971738642, -0.06069186127290608, -0.005945207057830366, -0.10944809163678944, -0.026512754898472955, 0.1351453286178972, -0.12657389667279922, -0.2699891671494682, 0.016123515330412497, 0.08558060670252128, 0.06494801256840255, -0.02266634534730282, -0.04192766389582564, -0.21488894077158513, -0.15533114050944488, 0.015354461983670792, 0.1167256347270989, 0.2892602574448032, -0.01889176921305453, 0.054671214288844555, -0.05846069378783438], [0.0579900966026937, -0.019520741020998204, 0.06488293120446806, 0.015739396323288107, 0.016836299219817726, -0.11401394963756241, -0.09694255524850055, -0.16999636211191346, 0.0014822861327098136, -0.00066189395326249, 0.15643816430020782, 0.25061800234624376, -0.04762439280673184, 0.11664692391031331, -0.06766057000369968, -0.024667938498543252, 0.010803889189552803, 0.18682050198154262, -0.19016484308626594, -0.09889074483124824, 0.019827322683056422, 0.08217135864561532, 0.042334046026716456, -0.07426048160388676, -0.21636715090631922, -0.20743119512928537, -0.14439657163263084, -0.059827183996933785, -0.1280974047045806, -0.14794983558626967, 0.1491470164145503, 0.07106577333981703], [0.08230468075967647, 0.015015872491267299, 0.09712098054571346, -0.09938205213865138, 0.14472294084441972, 0.07225714760581002, 0.09676991660015735, -0.09530581112329614, -0.0242792460746603, 0.31249985308769207, -0.16066351772033757, -0.041019056923729334, 0.0784824850566588, 0.061788266804762154, -0.1531136413132285, 0.12089688653128172, 0.03693434382282188, 0.07747520269154493, 0.14485811337344, -0.03049869459805103, 0.02138429517778341, -0.3032791000739008, -0.1856203926492429, -0.08929893607823547, 0.08849258227095054, 0.01637102636003559, 0.047887897935665884, 0.0858152956916618, 0.1071462699644178, 0.18851728235461487, 0.0995222033987498, 0.10426808670555093], [-0.021343493170755717, -0.028367405329366484, -0.029371927805244464, -0.10993553623610668, -0.0890664834939294, -0.07890283650476569, 0.05021081160356941, 0.025338346730302833, 0.032208509956537436, -0.16093605675343212, 0.17956890474267823, 0.04777864168508359, 0.041608536712786734, 0.011935593238734046, 0.12803614505653768, 0.04897672884724877, 0.04740397122386932, -0.17605472821212242, -0.11068436384861902, -0.09380407361730518, 0.12106462316551013, -0.09046541550117965, -0.0024910016763117658, -0.2336357734559913, 0.053628127491878175, -0.018543647460760065, -0.02175723604330998, 0.1241892666361995, -0.001758406477956429, -0.04789926387374783, 0.08571443542483329, 0.05559447894016756], [-0.020401881625967913, -0.11237377590361958, 0.19665562533620606, -0.11227861693023802, -0.0152346661141196, 0.23767299571108197, -0.09661587774569022, 0.029557077608650107, -0.12005500146829061, -0.05238142410026694, -0.1378476499337628, -0.12061769046559348, -0.1408737923579554, -0.011203157025032351, -0.018022325907388607, -0.21550766870738997, 0.15156687044741962, 0.01853943718814493, 0.09315572419422395, 0.13019987781256015, 0.24371500795915851, -0.027973519955045167, 0.06630383781617571, 0.12168416178527044, -0.11631477689683171, 0.01051656332839972, -0.06773873607371472, -0.2000338003391459, -0.1478992470377596, 0.12488892870247073, 0.04087413793369924, -0.16059877038785253], [0.016983695185216537, -0.1769794813931995, -0.03813021726161816, 0.15186443408047381, 0.05927562720669983, 0.06887499545427023, -0.03227294929968602, 0.08075470911371498, -0.05447822405278004, -0.20907297251293308, 0.2722380038538343, 0.1025920145561643, -0.023680612747646324, 0.11908746597584675, -0.009982418645421747, 0.29328900434054533, -0.08600408861832558, 0.19892683043454817, -0.07634902552032297, -0.06893916162946549, -0.2798159493406632, -0.16778084471476856, -0.06357120320965765, 0.09721474495700727, 0.03757986129958966, 0.06670819794935941, -0.26549673263341605, -0.03960789778723557, -0.00032711476962372856, -0.058849603145036546, 0.11918423646591912, 0.15561691193288205], [-0.13468342152665524, -0.1800828267199988, 0.2066146973442309, 0.018550650990358103, 0.07131513004351131, 0.17882281891795013, -0.027319744409546164, -0.031355276757987494, -0.028687785193807387, 0.28376932689724993, 0.2554911202443705, 0.07570504790931415, -0.11801281000604069, -0.05205876421815114, -0.09575026101745694, -0.034947712009913916, -0.06058503338267523, -0.003917373902435712, 0.021655613614555383, 0.18944267299134473, -0.050779911004563846, -0.036143807807714784, 0.11627925039424161, -0.029103682910482844, -0.09090758475533456, -0.14554876059996572, 0.03405717812672749, 0.09684959209013509, -0.15722843475351003, 0.0687615466014894, 0.18658044986914857, -0.09066907898006589], [0.07689980400431541, -0.08130180331152621, 0.09768897086005789, 0.1880923188228096, 0.18694372676997043, -0.013145943097485777, -0.15267365644883207, 0.09442919295024581, -0.07849639218042002, 0.05997869872207051, 0.17055827244506133, 0.02015373557237082, -0.015581829705906654, -0.01363877935911966, -0.14225745527566488, -0.0700759815688886, -0.10225612087561965, -0.05417128290792294, -0.07769024305246233, 0.08977370005567925, -0.08427952271723838, 0.00103577441232168, -0.05474788479320717, -0.06540358348986912, 0.15792986950282137, 0.035909149134727536, 0.13250420816015987, -0.11122318870237417, -0.05839030307030809, -0.07755531713758358, 0.028699262527357026, -0.1097337123247101], [-0.01037430045838699, 0.09309040368729515, 0.05177861186589944, 0.025404738077297272, 0.13534806046505335, -0.02877717956702804, -0.1588545403342438, -0.01037909150083852, -0.10849978061239797, 0.28802270331326313, 0.07418088493794937, 0.08726297397942066, -0.028404891630648806, -0.05320629881579389, -0.06304643838807751, -0.26530988860135735, 0.05680546810678367, -0.08645919351931276, 0.09410499017008797, -0.053957734719298295, 0.042438009779283775, -0.24245390816806606, -0.16539392152362103, -0.17431933014596923, -0.13109330098459213, 0.016990852034117595, 0.12378980179982009, 0.2758794654652401, 0.02543288753417061, 0.04779384150377829, 0.0689603841307718, 0.06982685927512422], [0.01911781457824615, 0.056400090015428624, 0.10304671858307364, 0.06608016273751119, 0.10471084893873911, 0.052590175055397134, -0.016340482614252638, 0.010899611042190857, -0.08001899739193465, 0.016074767935823984, 0.20010648220518787, -0.015009887227559181, -0.21944905047932572, -0.05436030750868597, 0.00749895827386199, 0.16186092266849558, -0.05142083383198052, 0.12026661809086817, -0.07367996407260131, 0.14083105592808437, -0.05575268104271851, 0.02367271663149109, -0.05091967661153395, 0.0937393254379121, 0.16235266270411325, 0.05326658479784714, 0.15888330366740497, -0.07324179514161272, 0.029493359190805004, -0.11484775695865473, 0.046331853701601, 0.050907253363917486], [0.11494773952463512, 0.07829491894374192, -0.15654691616417865, -0.1449594356872776, 0.08578937616485868, 0.007482680664219865, 0.08548371825665498, -0.05680680748093306, 0.08238409792421601, -0.20149273790797728, 0.2825919015365243, 0.04429467635289785, -0.12573282072903422, -0.07733379885604845, -0.24123885214677349, 0.15774768582606571, 0.031495039934155054, 0.19854327414097916, -0.0163620576196702, 0.04889978268551845, 0.07699308611433789, -0.20781278416257973, 0.23389075767422468, 0.19307391576096397, 0.08475846828748254, 0.06364198507572341, 0.08382793400656885, -0.1548209098025488, -0.00907467095261804, 0.09992829504401136, 0.012239493535172962, 0.02249499737310915], [-0.015624565421210471, -0.10650461405464619, 0.05418054967874632, -0.0671912556122531, -0.15302948565449673, -0.1421943785037129, 0.02579679168294932, 0.03293557314112062, -0.10003299190373512, 0.007491038787686075, 0.12199058978696649, -0.014759417358582706, 0.10489836000956647, 0.11187228307617261, 0.1322039880100296, 0.16524102220208015, 0.07740127305822196, -0.0807440607736797, 0.04926350722721054, 0.2768765889946389, -0.03850189672424365, -0.18798150029433902, 0.028467380782214842, 0.07449647927736966, 0.10102397958692057, 0.08204973637785162, -0.06474623576698346, -0.17334885016182872, -0.17250899155332283, -0.12324632125504412, -0.08185715838505565, -0.07724097299889471], [-0.062364920155660024, 0.01130837041473517, 0.25286936341157984, 0.11764066101196582, -0.08435463186029843, 0.03260748026400542, -0.14793246152863926, -0.2173847116781856, 0.13469707562007488, 0.11956172617170945, -0.05794872945108333, 0.0024882039592182335, 0.03636142887280774, 0.01628011444735406, -0.03639252056813661, -0.16411321535216186, -0.030223715507679223, -0.05358350615415226, 0.1078719487331095, 0.03834020824385346, -0.23190611149104165, 0.09717881155540463, 0.0679778288941704, -0.018130005588875345, -0.1973884472205803, 0.06489390724762137, 0.02761388599301991, 0.10937913836628775, 0.07268418350085681, -0.1906337166673093, -0.0256572680425566, 0.060512572363298864]], [[-0.23172619935728778, -0.33342670427777216, -0.01844351696718441, -0.021417639068640606, -0.08854347392556006, 0.10000926670325251, -0.08866360050574014, -0.06488449117452862, -0.0413985760581295, 0.09079712837315522, -0.13982123243337824, 0.21597541373103218, 0.21161972342540275, 0.09259672772842392, 0.1700223122316569, 0.14709364744535042, -0.16455606693546831, -0.05842388076423393, -0.04580462535944253, 0.13963005500808018, -0.05140201035074808, -0.08580707290433298, 0.12612046776455274, 0.06780305126256461, -0.19408121097930878, 0.06236155451520213, 0.051845480642430365, 0.1911578942386623, 0.027694230223031965, 0.07804995003106012, -0.02498719616249729, -0.055927865694890826], [-0.006701739286077481, 0.15795636629314036, 0.21615076504768302, 0.020858631288410888, 0.2783890021529464, 0.10040407001085593, -0.06532991496161848, 0.08502421396207813, -0.1503859629027464, 0.2500730346078467, -0.031326582568995835, 0.11635097309869794, 0.21509594979048513, -0.07882600314533571, 0.22516469276786702, -0.06741624947559313, -0.1382330074843814, -0.23812886307720574, 0.020819055535757316, 0.08418044266463297, 0.09031212862729628, 0.14265550497996332, 0.010565051879438781, 0.08387184204258019, -0.11149833773432435, 0.016093438544057214, -0.02049526083521874, -0.09810248435104814, -0.28558847786263014, -0.007238103401061761, 0.07423133831093826, -0.23976082120248987], [-0.06278623315010316, 0.042866902682187846, 0.1325669454189687, 0.1866896324560371, -0.15515689293372495, 0.3884461794861507, -0.03852313719351385, -0.040501940517049244, -0.14045209413550258, -0.03783408804304136, 0.02009665987974511, 0.3700648205785406, -0.1341190226383927, -0.03511812773888264, 0.09658601503633506, -0.20151329766283396, 0.06713364848618256, 0.11336905903722384, -0.04864397191130962, 0.1841837206135356, -0.020570783097306707, 0.06595946126495698, 0.13204501547869069, -0.17563589462337337, 0.18125756097615328, 0.03611601538389177, 0.06757975244635044, -0.32600263973562454, -0.03935837405350225, 0.03045110266386591, 0.024129155397040646, 0.021927223710211854], [0.02145169623833968, -0.006632830466410948, -0.07373267811945372, 0.011988163695298102, 0.022271576247192112, 0.19771272702681122, -0.021044982185752376, -0.033974466018573644, -0.04772000237768195, -0.05419998024826023, 0.19354101455424402, -0.04143758370245094, -0.2812277065827559, -0.06541246210116458, 0.1127307321032729, 0.2051952315287717, -0.15682783142669132, 0.01747342518949828, 0.13901952233946863, -0.18079311804239867, 0.05289564088567565, -0.09534929172728995, 0.08203245454590895, 0.03501506905114328, -0.14448254788356715, -0.10063653762493063, 0.14684531010850613, -0.005744615857215335, 0.01759466444117157, -0.15405397658679545, 0.04877584806882834, -0.19649024828256406], [-0.18015371393279733, -0.10328211530511831, -0.14040608227755128, 0.17288910121434026, -0.20164570303076926, -0.038964037283095575, 0.029515577563381742, 0.0404138215304967, 0.05381374009917954, 0.04659029981347155, -0.23183912557206793, 0.26324893618588924, -0.17183502584416868, -0.12321378415863575, 0.12760548259578566, 0.168056938587826, -0.15945848971609913, 0.15685623554297146, 0.04791327556207637, -0.18355359394942758, 0.14354045551499078, -0.0666258993911991, 0.1618580922648856, -0.015376740100526693, 0.11624499755079698, 0.04572770470895793, -0.11452089745799125, 0.29207642512935, 0.06844967934518868, 0.08765624552350094, 0.23711038939855525, 0.04428180334500026], [-0.02076607587030254, 0.025999267506264908, 0.16848802646884514, 0.07770116715874414, 0.08165101573173175, -0.14097064644268942, -0.3279170753054952, -0.02849426982843624, -0.050743812792127696, 0.10295762243099754, -0.10884088688280266, 0.0631702694152436, 0.1442817479607848, 0.06936935026523541, 0.08867478298384593, -0.05349713557368066, 0.007394612177245364, 0.04053073965639986, -0.05208780098023521, 0.016878498728437868, -0.11379714979128927, -0.12622761792231077, 0.10043724184834461, 0.08077467837824323, 0.006352237035574927, -0.0056523161019851375, -0.019904404488609653, 0.0016843255642519151, -0.11618594012634181, 0.11452391330667305, -0.01608604450121038, -0.08547116176716678], [0.02985967983623605, 0.052221891760946985, -0.0022220356315243535, 0.045163061273378366, -0.28349464012641934, 0.03968225284823423, -0.11833407478675838, -0.06255076043141046, -0.04607541415531669, 0.10998270079387144, -0.031097614020390883, 0.10848606058374112, 0.19264599225978288, -0.022932765257057005, -0.13061882182040518, 0.06542024787007836, -0.06372859611160846, -0.11002808643032261, -0.14661344874595938, 0.0871257030501851, -0.03674868797154121, -0.007470815588858546, -0.011818019001894935, 0.18356516426867048, 0.20753859927156257, -0.0969273376905544, 0.25560161907114365, -0.1442878570115174, 0.1220739795877359, 0.019424109863123883, -0.021685138461911575, 0.11646272873999516], [-0.06371699310850257, 0.10646790028379823, 0.026040899982362517, -0.057179024809981605, 0.07869906230199704, -0.13970229222460392, 0.09695908576892176, -0.031760909830760506, -0.04818961140621973, 0.009249994167840827, 0.060798453645574874, 0.0571923092509126, -0.0373145483032167, -0.0654866804404087, 0.20259735596761258, -0.05958961997550411, -0.04003576801038259, -0.035842368918429145, 0.03357077399396592, -0.014039153891862275, -0.16703227969944603, -0.06279245459855791, 0.08290971146806941, 0.015440353483676379, -0.060438265117288344, 0.09185663240500058, -0.051969139896304264, -0.14273088005449405, 0.17039503380308005, -0.11902554608505278, 0.06495474982562449, 0.033693600612798705], [-0.060173587855564765, -0.0016119362012639896, -0.06080204660588925, -0.17788757621389964, 0.16279927817605278, 0.01871102951751918, 0.11523296310658271, -0.036353089959722834, 0.07396402084446178, -0.028163236047893905, 0.06650172527958313, 0.1948832569397397, 0.034262050776310504, 0.0810981274375659, 0.01267744490118736, 0.1387374281545382, 0.11684587310162031, 0.12342396284837573, -0.06776567502722163, 0.024753158273857972, -0.07952712358816559, -0.09446042433789618, -0.10089623662643839, -0.014832174669351415, 0.13033608669513888, -0.06639422564019153, -0.09309973607436643, -0.0963506172176124, 0.078188285731285, 0.0014028040574650793, 0.08222443851961413, -0.10023549417280743], [-0.049567711255339104, 0.16895590132548705, 0.0742073527671211, -0.2859182177699855, 0.05369648343003769, -0.03318027604200935, -0.07666040587008782, 0.15131952258537268, 0.06896381580205153, -0.0900817128741793, -0.04454078496769752, -0.05372013144706349, 0.12244617999936636, 0.21007921883282352, -0.1448235817242843, -0.013561841196488403, 0.19363135474528242, 0.04071391474237781, -0.10420857579103461, 0.044304681028232096, -0.12815261593753965, 0.11234622830986257, 0.11315834798252705, -0.13162605292074445, 0.005409009343572397, 0.17083823590183944, 0.04900728733127993, -0.03528332105438974, -0.1278683209406588, -0.07867985003460004, 0.08106954394227543, 0.00404609840451109], [-0.047066296177687816, -0.06220589214980102, 0.04303266396377615, -0.02432685653051299, -0.02432019494679635, 0.034992031116698644, 0.0005535585666194457, 0.06373843404626559, 0.0753241967085087, 0.13893120535593595, 0.0829443551664988, -0.07742923131060293, 0.1477782532504315, 0.2667444209984383, -0.1824992477872437, 0.08223129520343386, -0.10634184549896945, 0.14526962051366, -0.1583421844882081, 0.012938803813285445, -0.27274322526564376, 0.020764700545931217, 0.0671861082165831, 0.10974369566159421, 0.03173426315493108, -0.03501449354173349, -0.0003597931086283419, -0.05169174328966811, 0.05201835672363122, 0.07620114481750653, 0.06762103232687657, -0.00550231610153574], [0.24015489821422598, -0.12610736703344486, 0.007997329574303429, -0.02108167567042262, 0.03839092283204034, -0.06640788749102786, 0.25650304352263636, -0.10260683123504874, -0.07278753811208948, 0.002945747412047164, -0.03240120185222132, -0.03303951378245469, -0.04914651256421415, 0.002094515726452348, -0.10354163436096488, -0.06029640418840309, -0.01748372470432006, 0.022476089474359764, 0.17461355640912918, 0.005545478887598218, 0.03587837101348234, -0.12159966778586673, 0.036809073059085484, 0.07612160750810905, -0.08013258104513926, 0.19062284150446454, -0.13689357845669603, -0.05074223753330856, 0.18216522171184926, -0.11339068775637635, -0.054117340805064994, -0.14155189609547214], [-0.016228930452109373, 0.2124850100557434, 0.06771588212946969, 0.12998052425918352, -0.14470564670104058, -0.06876324262373724, -0.02260700892549465, 0.05454346609377332, 0.014078460246875094, -0.020256424471248775, 0.027652493064010325, -0.015214476044988214, -0.1289162292188682, 0.12187406379988665, -0.1451991406527167, 0.01751555828491281, 0.13953053917407682, 0.1664456022250752, 0.1365514032398713, -0.1444250510513019, 0.17709755051644335, -0.08870069729755026, -0.03759065839359786, -0.02551334770533324, 0.12416544323850215, 0.05293820780942771, -0.029631789936731753, 0.032019471437489816, -0.1765703853836565, 0.08911949173846134, 0.07656837873853636, -0.05954459097748785], [0.08255087046930515, -0.22229933355665005, 0.09333527154163737, 0.10844237037843486, -0.10405260188412416, 0.14387322329661456, 0.3399063780310602, 0.04998542311016017, 0.035555519695232865, 0.0014331717281627454, -0.006306206296472758, 0.0709483698563264, 0.08359296755737415, 0.14526916328342615, -0.035046458801293146, -0.07547698298067039, -0.07077727013365799, -0.01077202181376553, -0.16838768156775732, 0.017869368083231613, -0.22670518494781022, -0.0635362634598124, 0.09121554647882855, -0.024813282576965252, -0.09212233075650857, 0.05552288006265643, 0.0846497510085969, 0.09823932281088589, 0.055787931096872634, -0.07419784702785298, 0.09778106398327821, 0.03487254937880521], [0.187532368143199, -0.19923607956629838, -0.021035994241830572, -0.104130880439073, -0.2927917310908593, 0.03348849138259992, -0.09755684811519891, -0.08939150659961309, 0.04022693741745251, 0.03418585322344021, -0.0027148192655633927, 0.028519963156851017, -0.16995355642406806, -0.03217886158146116, 0.08596440982374419, 0.13915661437832008, 0.06301688042315125, 0.0925541292466897, 0.02475563964367968, 0.36624824130895955, -0.07920454020401066, -0.10286583134588784, -0.0044248115262434575, -0.05197796184812785, -0.07330718275114587, 0.0367630528709874, 0.01996027807498483, -0.2717663475750459, 0.18746248217848488, -0.04955447910014581, 0.18451402965530198, -0.08523081349134388], [-0.0454620191696405, -0.010415372146887779, -0.17677113217729987, 0.0013447315688244238, 0.09891003357984753, 0.05741523090306626, 0.18815333104739457, 0.06526994443542153, -0.16246675116959097, 0.0692152531776555, 0.043181470866930284, -0.16759963232079111, -0.09117260018186357, 0.09468097739677746, -0.11479095276751208, 0.08863974853930615, 0.15984860512289586, 0.07926092931768276, 0.012103981714255873, -0.2540486525537885, 0.10072269063550203, -0.08648148813425158, -0.07536473449816702, 0.17607758520366712, -0.06022924419222535, 0.03255175976222317, -0.16910893145200392, -0.10067921994435863, -0.0906142173370282, -0.09840043656184601, 0.012124079129337979, 0.052066167748997035]], [[-0.008809473114612259, -0.17945956234576638, 0.012953613983678006, -0.04303794612831835, 0.09032909346725748, -0.12126025741071847, -0.027568969425348436, -0.028679834326949153, 0.11809394723666847, 0.13384480981018704, -0.042307186072870484, -0.0013819398385636684, 0.12662223316961063, 0.034637072257349605, 0.22163552130559658, 0.14308159374006757, -0.12318163964220116, 0.3711333841767768, -0.05906167295541081, -0.1705933904897081, -0.14469993418924998, -0.003327061207810806, 0.06975467249971243, 0.006653232989629886, -0.06649982101967618, -0.15410777009833188, 0.21686511780178225, 0.14386412172819302, -0.0860982276631056, -0.2649785465425832, -0.1576308873823865, 0.03953901187465777], [0.13939399510086992, 0.04425193271161569, -0.19025936124779022, 0.19796742769022665, -0.05942342103539311, 0.023158364322801314, 0.24631899462266785, 0.07126697254382801, 0.08949665838630112, 0.10032726299265822, 0.07041172953971672, -0.2658167846378738, 0.08368983989461218, -0.0033890865282633848, -0.27982877052760924, -0.04944861685894455, -0.12703423002354353, 0.1592985588131979, 0.0334545111979914, 0.09339899076467423, -0.02841848249357354, 0.05513155631379224, -0.07892426915045281, 0.015141751706376105, -0.15824919109634816, 0.2091458343802672, -0.07819191307668104, -0.12096160174919371, -0.2547532443598462, -0.1145082907831322, 0.07869005029039693, -0.26239107320244476], [-0.003155606117804507, 0.2711371126468496, 0.027733916090015916, 0.37275811547823967, 0.15702942005976897, 0.19095501463274736, 0.17760434304270828, -0.1697015026012877, -0.0036746729119924667, -0.021974683740397877, -0.02981501741974842, -0.08641544066434001, 0.059918332429316656, -0.15340625594579893, 0.04796602803990765, 0.17603887276106817, 0.2150448163703419, 0.015008302525427513, -0.31276490174403815, 0.13723775610313435, -0.019632004416840463, -0.10614399044683041, -0.018387116960824686, -0.1638910436795144, -0.11294768290382645, 0.21448810289769163, 0.20088111203861875, -0.13343658865509483, 0.08852062834328848, 0.10324798639758151, -0.044419800620939524, -0.20336788204720363], [-0.26858868224810156, 0.1128977679915707, -0.08686238405134211, 0.10505245023162128, 0.07886035091228426, -0.013120625586230677, -0.16774425631436082, -0.1514548967797386, -0.03070403505098559, 0.09754075400572819, -0.2038568340649646, 0.10832869200534455, -0.02175769981581419, 0.051505378738551405, 0.22598656568085748, 0.006255067588742974, -0.0011205317317746163, -0.08361027400509437, 0.06143516297327814, 0.15848599337273422, 0.003081234305126159, 0.04932915617525639, -0.10763479145084974, -0.024994605478678676, 0.187214052122216, 0.03015409546433863, -0.019371445154567533, -0.11876980501585264, 0.08013271669961224, -0.13449780338983, -0.09340623355599405, -0.06282802882902164], [-0.1035147406692166, 0.03919475478559349, -0.07078624168417073, 0.14787933701275952, -0.09535574297100509, -0.16324530337800064, 0.18722707258814295, -0.06929851665109814, 0.009853580115060642, 0.01803961537566868, 0.005608962288950499, -0.18473990690665876, -0.0463197857024064, -0.023376007351727665, -0.05199611745202445, -0.15400631184659933, -0.02610330376343718, -0.2294829411922749, -0.008583929281940694, 0.06539340641152408, -0.12020402372632853, 0.0437421924425684, 0.03182552848093719, -0.03320385467037316, 0.054467343898464256, -0.01099428302528961, 0.04681670426202964, -0.14539591350306416, -0.026338495401975786, 0.019745556750697706, -0.12276048472094435, 0.044565497984349965], [-0.16179998623278433, 0.11590203289717743, -0.09128280842417771, 0.1512397808293749, 0.0357481809223026, 0.020664496018903054, 0.027654783084942926, 0.06263207125687262, -0.12400653457009583, 0.10513738999917153, 0.17306792996774745, 0.25409919473127907, 0.012077961085361799, 0.10671629012205325, -0.14070454536547936, 0.0005420051661315708, -0.06908713082040721, 0.24931274949543406, -0.027433672117184345, -0.011138351315154539, -0.08290104597017069, 0.18070045198797394, -0.12983608071379843, 0.22780378599854992, -0.19728181058295072, -0.27051453237754025, -0.15542632309845786, 0.1647951404886806, 0.08581172302390815, 0.1200210858831443, -0.00832199680159096, -0.012147210205413745], [-0.14275530427419098, 0.18155986941503421, -0.07851850881867027, 0.021505182652496676, -0.11809349193844673, -0.052119159913042674, -0.09130472514347884, -0.04746660107300625, 0.07100637260205536, 0.05074831555202371, -0.036420000220394724, 0.14556599410121512, 0.0754938877428773, 0.0859517738053671, 0.11399102918656348, -0.13776073397990665, -0.07283530738811664, -0.06888246225774153, 0.20019591039686707, -0.23783138399342435, -0.020484012421792708, -0.267593170448897, 0.09653216342175328, 0.06601437640113181, 0.046640039004147704, -0.14306677905012544, 0.046693242867595054, -0.11134685546288954, -0.012430711193443838, 0.07181502984992881, 0.022538145290465623, 0.031844825895244504], [-0.12081346533311121, -0.04633596265270207, -0.13579247343640038, 0.03251175894178377, 0.13750439634118414, -0.09564841317140495, -0.03496567366403618, 0.1509725343736569, -0.020149384943171804, 0.0320862036426052, -0.008864153354586098, 0.017631143151003236, -0.0607563874283514, 0.1009119117583223, 0.09325552109331753, -0.047897803781161714, -0.04913139573954685, 0.06380712716528987, 0.15136214220832, 0.13015606883297007, 0.0927685292261077, 0.021608324635123032, 0.058476101370614646, 0.21338781747069202, -0.03131069524864272, -0.10539700724999171, 0.10085528342254681, -0.025267401867259676, -0.03727969395521406, -0.14587812442275452, 0.1440357481852483, 0.022502990776488506], [0.1122671825298359, -0.049288552220519366, 0.019540036024605464, 0.05406628325422212, 0.04920018151683908, -0.07876499835827568, 0.20898865947058887, -0.21985692719361657, 0.07441922436049273, 0.192137566427636, -0.23927533322866104, 0.07732431628122005, 0.0477217299831829, 0.019096561252352075, 0.025988134266110543, -0.028430881910218083, 2.503573850999623e-05, -0.14699592693212263, -0.24037556005896585, 0.018633118336325822, -0.15143374962063474, -0.2830801873209517, -0.11553063715127045, -0.1857851002949469, -0.06329987075859894, 0.12514312622490886, -0.1495841066968009, -0.05355056791339059, 0.006359667205268607, -0.12574742779402553, -0.11713088326685438, -0.1642101836884072], [-0.13971644198091934, 0.1393777945997994, 0.059523643879170765, 0.0006536746863378846, 0.04809942826252273, 0.07733201001042399, -0.05582950448200024, -0.10874784812228351, -0.2069363451346811, 0.1540099910471572, -0.10991300946717587, -0.0987045774667904, -0.10009420396225528, 0.07826010299955327, 0.40219024350959226, 0.13059826293851332, 0.2789526060248496, -0.027001941092563084, 0.0971552576716347, -0.046699971421708245, -0.005736530784142722, 0.13690581891818285, -0.06576895174371976, -0.12904962429261918, 0.03277894281604805, -0.01906456452338788, -0.049115265737446366, -0.027603781461059004, -0.049410698749464396, 0.04247133589347953, -0.12928767208296232, 0.22383270997846816], [-0.045557975902007504, 0.19370031555227782, -0.08925089500936402, 0.08685355723093943, -0.0032998008845449914, -0.06653328942444109, -0.1014368530005694, -0.02423283532978692, 0.26326997998885526, -0.15925515695071804, -0.3532186059202949, -0.06406523181512155, -0.003679513506883451, 0.17064677883026486, 0.1606546208045278, -0.09736486921824884, -0.03088997672490341, 0.007588195244175012, -0.03449364548825758, 0.02603240117615398, 0.0006378098292652104, 0.14447108156748412, 0.07989073632948149, -0.14669416652920866, -0.04337554999342803, 0.02482880726127763, 0.06228615716199464, -0.02193929570875318, -0.2499538951173039, 0.016846558278199524, 0.021724279119346688, -0.17670205636822525], [-0.03736546213127743, 0.014586525955100847, -0.12342781056795568, 0.038958548587345654, -0.09626932550042563, -0.016210697264566847, 0.05395683927169344, 0.10368867158678677, -0.07544047540550007, 0.09877482732364312, -0.0031517216256440753, -0.006153922269399807, 0.16670811810105307, -0.10362995765173755, -0.15307225597082272, -0.18461660815150896, 0.16479602898365625, -0.053898430497135406, -0.13021973273420337, 0.18427208125622627, 0.00942525620828838, 0.06855553691686983, 0.08950539628397353, 0.0981200536835633, -0.018249975834197726, 0.025725588424479376, -0.1476689183678791, 0.17940648829707076, 0.12309335076770597, -0.00459432715288475, 0.09682499288863339, 