{"conv_kernel1": [[[[0.8652736534513138, 0.09359501507144788, 0.15189974058246367, -0.011790876769946132, -0.6538049729291692, -0.10218465434107522, 0.2881458670074242, -0.014123241426501098, 0.08222710583165176, 0.45352712692690517, 0.43245516459998057, 0.7401312743080879, 0.7221572344791214, -0.08169260579493984, 0.16697277459805368, -0.032713942021298015]], [[0.44183007664272733, -0.5994677702561898, 0.2504247230038043, -0.6575516345403981, -0.9073603304522079, 0.6583939018420375, -0.4167125351025705, -0.16359795757438905, -0.45313703239026454, 0.5118531003454115, 0.058375226379860104, 0.20506451179389035, -0.4826984769689859, -0.45410126952518853, -0.9390786083813204, 0.881941309804238]], [[-0.5577307895974267, -0.2157677549574394, -0.20744330117759785, 0.38475929398851305, 1.1306840943061196, 0.25819163763391045, -0.4025415188633166, -0.4291192046353024, 0.20308425323501028, -0.627540222939435, 0.16636525054200021, -0.8100917864434978, 0.11101367595771218, -1.017553859602663, 0.20295707759243292, -0.31423073655683564]]], [[[0.10842149200634645, -0.4828965638046146, -0.12298912094814746, 0.7457266318150747, -0.3212593878150761, 0.3662588947351525, -0.3070284056200344, -0.2677963064683854, 0.7324947094597896, 0.1847050589206561, -0.5415194775921256, -0.858451289737576, -0.43479021631003856, -0.37679639221171624, 0.5038173326679988, -0.6891970339486151]], [[-0.019541320172008027, -0.7729599323767964, -0.13440305443408002, 0.7368375830894082, 0.07757495164496875, -1.2905764024352049, 0.4094962015369935, -0.062108234206546126, -0.1695234071939569, 0.0991369014037032, -0.5783277099253931, -1.1879219328825759, -0.40344198979077744, 0.3379735498519392, -0.7448297663293558, -0.3248529006388768]], [[-0.08782616311439055, -0.167666875311384, 0.9695375596886052, -0.2764709043141138, 0.4461021547158408, 0.33984817121874533, 0.732847911094227, 0.30342622781384576, -0.022817601600612344, -0.49533612521411113, 0.3104207997345149, 0.16760452879596588, 0.28970782786929605, 0.13845146108867132, 1.3517123614367044, -0.37752238998065185]]], [[[-0.1995851682060017, 0.440111934800522, 0.769620789975209, -0.33640721519749917, -0.27845430330681337, -0.60000781736525, -0.2952252814197947, 0.04767198341499865, 0.07681772153519445, -1.1051347150002335, 0.6330385834567639, -0.8810716931489387, 0.8862911506640408, 0.06221864922954544, 0.5999236649356033, -0.8534536460744548]], [[-0.22762317058137402, 0.5914987870937587, 0.26744220319640866, 0.6422309236206171, 0.4520354720846165, -0.18046640501666678, -0.37537472888399387, -0.7677780730415438, 0.4500286729836907, 0.7691281604764364, -0.25664150023500953, 0.24717490537811074, 0.17861972082325933, 0.051980254795953064, -0.12910746350383312, -0.060013043994263]], [[-0.21701879543818445, 0.2269165797698835, 0.6287796562544091, -0.7263293597880934, -0.10382447592094694, 0.04668181179665912, -0.10746018679178558, -0.23500072954059012, -0.2253493131509596, 0.3471344468677475, -0.2582290309808886, 0.1348611243476609, 0.14730622585354294, -0.5929609087430684, 0.757737699055576, -0.9594043634105845]]]], "conv_kernel2": [[[[0.003929760412839029, -0.07066346572674491, -0.022887991470948988, 0.05437042232504976, -0.06249500649337995, 0.017505204399673967, 0.07189397072605783, 0.1780180092490047, -0.15443428973378778, -0.14023561739241383, -0.15110557038625436, -0.12211688226480441, -0.05738740135020959, 0.08411604264511298, 0.07614252970553916, 0.0850766233067633, 0.06487189488737558, -0.021113333694775565, 0.06461985314214157, -0.1956330573049213, 0.02232744552783299, -0.02833239318630509, 0.04717774194774324, 0.024885711757999814, -0.19668033057459466, -0.18710567884386928, 0.09717213050040609, -0.18218011477854046, -0.08232470238964001, -0.12683724150340725, 0.06521529322730221, -0.09356038546591532], [0.05017701880186059, 0.058975617534355, -0.1395067356602978, -0.09544824982883172, -0.04209722451295316, 0.12037599397432915, 0.014506706163638007, 0.008847941391354293, -0.022472471570290545, 0.050390766003901806, 0.19706631745181125, -0.09525732509666641, -0.029371304909140167, -0.01925568771295629, -0.3858283140078807, 0.14924888806940592, 0.03533227703767938, -0.11046122033166862, 0.1301791611493427, -0.044836385044637904, 0.23799063442096763, -0.04402288852399385, 0.020122046761080984, 0.05204026852554261, -0.09156085327072717, -0.2888990379992836, 0.036306704514597436, 0.011777898659715283, -0.14387423725518939, -0.18281125417585825, -0.00716215353848478, -0.03966835274064162], [-0.021911334249947848, 0.06188521811263411, -0.1433867655934218, 0.4040658385708282, -0.0692994312469363, 0.05137692202158997, -0.15728569551171237, 0.1425106750805585, 0.22676115168196098, 0.24574018227319114, -0.045436033231860976, -0.10558886960593855, 0.05079937959971121, 0.05761201569135369, -0.15206824815642025, -0.002484262079096259, -0.027102019170734164, 0.038410419753374433, -0.0031772485228332512, 0.23201100163975671, -0.04731007621256037, 0.010631846305750998, -0.10501792899237042, -0.03669165419576054, 0.015952272019000673, 0.16291280933128602, 0.1378151633059959, 0.023643719174731397, 0.07743088701859249, -0.09583529047612954, 0.12661380020139953, 0.12127191408229164], [-0.037747822427726126, 0.07123417080267255, 0.13063608720050296, -0.10222479440195793, -0.04067111400259778, 0.06885365745489101, 0.01940903291687578, -0.0058009450129006355, -0.11801183916354817, 0.1452496467850672, 0.2553755156893865, 0.04364237836496783, 0.06924356534986689, 0.08734516880906272, -0.09881080220805159, -0.016744489240299948, -0.10599594157789093, 0.04766601573238809, -0.01569978269923673, -0.13043394349401727, 0.011655592596865603, -0.1702043732319523, 0.10528784735513974, -0.2938496830108487, 0.13624252232859213, 0.03535603684506556, 0.09865332118506087, -0.08430079114060743, -0.040284140092438185, -0.30738158965396206, -0.027366104429361097, 0.08657935366981752], [0.1731373308204701, -0.01971902235510389, -0.11154018507771286, -0.12400339157478475, -0.03846365327022516, 0.024549200909892273, -0.22492042326868966, 0.06665709706585128, 0.04060680438375855, 0.0011069652250362857, -0.07567956164817569, -0.03295210258830996, 0.01018337791099344, -0.0501138587899789, 0.11657494197214835, 0.21729105012637234, 0.0956918824154282, -0.025275859556757912, -0.06907174440318586, 0.013067510003320773, -0.08544412339861854, -0.09622628712532227, -0.0005344153336326175, -0.08597182372742616, 0.06692948113043415, 0.17545561329749187, -0.04557389421437738, -0.009162950065401913, -0.03280704887681413, -0.20045475398121249, -0.15202649119298706, -0.03743695698011624], [-0.19637435955647067, -0.09170576697067674, -0.008176494940219315, 0.03595561313920648, -0.47677485412160653, 0.06594164315115728, -0.24396035210260594, -0.06774991805748755, -0.004014046656609808, -0.11759799509350212, -0.06361135182240973, 0.2197114575601128, -0.006277119506790203, 0.012179833358072151, -0.09171083763795408, 0.07720398715829743, -0.21654218234791142, -0.08445258262643002, -0.040742100928204884, 0.0810324854752534, -0.0346636707391837, 0.16879415943561465, -0.09142280092470324, -0.08171346565934184, -0.20802386456142166, -0.14910414178220716, -0.18092010041809028, 0.18971404275173073, 0.16174449528754278, -0.016561940917897092, 0.16504339623486047, -0.10874588928011308], [0.03356669165843506, -0.15581907462959924, -0.017705498670727526, -0.12180939327912427, 0.1307450146432098, 0.24805966845668043, 0.09968523866824533, -0.008989708898298908, -0.12347705432038274, 0.04651125500083596, 0.16448178892483153, 0.032747387195642644, 0.12793811892681203, -0.10386219596236222, -0.08056739482972294, 0.04927430506294681, 0.0037822767978547825, -0.18363750648799804, -0.05104614780388922, 0.00023337712059624775, 0.0009376018614165677, 0.11646800752238305, 0.03378373733435485, 0.13282592613421373, 0.05798592137011934, 0.06784663835954695, -0.0459864702527673, 0.1576010173986572, -0.18155413503187753, 0.001804285470980939, -0.25503663501300083, -0.17075449009200203], [-0.09034079684038908, -0.21371593074547968, -0.00836123587040849, 0.15732622381617672, -0.004040469145780429, 0.005771829554041077, -0.03904675202052586, -0.0682510472846415, -0.00320108674709943, -0.11382698736160311, -0.09463039278486389, 0.2604911878836286, 0.06869610547032372, -0.13398885305843963, 0.0635928382864042, -0.03708716566871393, -0.064326055093632, 0.033181707382635046, -0.08899581965461832, -0.01351415356639509, -0.12751896948064562, -0.07190803229739154, -0.0038555263751874225, -0.15395981953778393, 0.1399670101374829, -0.14785221021480108, -0.08992101175168456, 0.08947169844229835, 0.17526180074776798, 0.15205403374731857, -0.18423021065972386, 0.06250942038806932], [-0.19414394739562024, -0.0026062173482847306, -0.05121154470130818, -0.048241471888584055, -0.30335127970097536, -0.13190433309089164, 0.01657591138082946, 0.03894212467429168, 0.2330465457280813, -0.08224279059000071, -0.08711149456191805, -0.11658460121849382, 0.028731453082811265, -0.13311624198189642, 0.035608655283548465, 0.1246545193740963, -0.07062540593722919, 0.09261607945861405, 0.054627303654337094, 0.16531875479968705, 0.09954632353921641, 0.07755064559620087, 0.2294012690814433, -0.009118023732626776, -0.05339810273895654, -0.05526408332054963, -0.029042771669399177, 0.18047217803474538, -0.0026703949919404378, -0.019830175728547096, 0.08576176000970932, 0.08539343404894292], [0.19282268581797474, 0.1409718694468004, 0.0615707589306412, -0.04833354868988498, 0.10647177462566733, 0.0454159782489245, 0.12063811943053582, 0.05682090710100047, -0.013192461475700079, 0.272992989333799, 0.05619444643225576, 0.10234463131808355, -0.01442605003784216, -0.040529478344579144, -0.09898616876743295, 0.009005532132489696, 0.14836559917173642, -0.09375582726768457, 0.049547360315235635, -0.1627606598538378, 0.1958282707141311, 0.28308683846652366, 0.12477058711839512, 0.0987137282914886, -0.02028786364900967, -0.06323673669822565, 0.12240759353649174, -0.05997631368653396, -0.006489975530490139, -0.09012857203070605, -0.014170904005571186, -0.01396761618705859], [0.22679435606409237, -0.20707303876402114, -0.05791962332374864, 0.10665435513191493, -0.1701111163484517, -0.1253283212626884, 0.2223438140806151, -0.07144830451476675, 0.1207592877541162, 0.18517741830446435, 0.07571452241262172, 0.12276717106143774, -0.17498914099172538, 0.0009518210545051332, 0.1672197255910627, 0.11807485577552458, 0.07399398258903192, -0.1614450781563443, -0.1850574000440015, -0.10345862419491829, -0.08192556437874571, 0.0918153654119556, -0.17361817912848224, -0.03484386738141516, -0.005432616093743823, -0.13773893427701805, -0.21221173501241847, -0.15261824323692139, 0.23050267517941533, -0.047961711163355555, -0.07426073849330805, 0.28230374369493016], [0.014935942415814247, 0.10936102065139088, 0.1112524497357294, -0.013705345718685456, -0.08255287734294905, 0.060401360820947915, -0.10648865721789769, -0.18616040675573156, 0.0680110680001014, 0.029315008427035882, -0.2134737900583899, -0.014342689168333448, 0.07980524756312629, 0.029584123949682878, 0.07684122562716253, 0.2085081243777269, -0.18789397546021208, 0.06012556928150364, 0.07568493308767636, -0.04897473894727105, 0.04141733918956815, -0.0866711803384389, 0.13826541381665952, 0.03956983672516221, -0.08517824186170939, -0.06676187564375505, -0.004400182474898176, 0.020090715456735804, 0.12657265552189612, -0.06404518480891885, 0.042637372848798455, 0.05427662356761439], [0.017477435304378598, 0.07115605718340398, -0.04700127234882648, 0.16416781575430164, -0.10160725413476249, 0.2696323576342787, 0.1354562461608837, 0.02257405785262417, 0.01999928604638596, 0.038690095758445855, 0.07107144222112058, -0.22051504323665136, 0.2036442915814348, -0.0638094925778761, -0.09875799217100126, 0.16734506536903246, -0.2772265335009301, -0.0884978920609007, -0.06308781935965281, -0.17092183413293566, -0.08108575603813084, 0.05290639155310843, 0.04803885186447572, 0.22508960223687643, 0.04505269700052825, 0.053985431233360255, -0.25679072253831287, 0.0818612666154374, -0.006909707062452855, 0.10569245440915355, 0.11395138132151934, 0.06736758927851656], [-0.035938421348331195, -0.14858858553066798, -0.08597389510791392, -0.11888068422607546, 0.03020259146027743, -0.20474160531600122, -0.027696796449132463, -0.04463361908630115, 0.12579323259233474, -0.12516218673915885, -0.24615573078075975, 0.2901929610479913, 0.023546945866471443, -0.13299321446648016, 0.012063749733924644, -0.029262254435020875, -0.016165384097457682, 0.12055838099264371, 0.22169701302545386, -0.027075026898424986, -0.2043618110553259, -0.13443148949957312, -0.4549428014773055, -0.035981404095368284, 0.1771655225119955, -0.18734374124054837, 0.0027875688700596864, -0.10728725709681713, 0.187043627634489, -0.09881367136638966, 0.05860457551605628, -0.027149405645435724], [0.05401892043915067, 0.08879934695022917, -0.1675664344018286, 0.2746175678579409, -0.08992462131340531, 0.136446027133878, -0.028941666178776547, -0.12611522001359315, 0.2722385302360524, 0.14221422430592276, -0.09996658169286998, -0.2678048066800577, 0.09231565754335828, -0.02733565836311348, -0.3015875982003123, 0.027210222340091163, 0.034669013362697385, -0.04590685565935461, 0.12759748702885867, -0.006481269921007676, 0.15031370552459816, 0.14381864743614914, 0.024314629636184106, 0.01860280108309449, 0.013286922655834291, 0.0033974185458210287, 0.16724871213568052, -0.07960544594869566, -0.06335688064432456, 0.074733604010596, -0.0017145928558463107, -0.05762731425322686], [0.05796628093344225, -0.08846751251425371, -0.014964259604297397, -0.0681438413939551, 0.009957183983458389, 0.060557165745536184, 0.1430543844185327, -0.227584087088079, 0.18375071393134432, -0.24135575909141915, -0.07903944667887204, -0.028807673019510958, -0.14812250941779787, 0.11456840921858953, -0.07239657560622914, 0.07726087452109562, -0.14957741652320472, 0.1410377883606546, -0.15143712519588814, -0.0894541668861014, 0.15873695216665434, -0.08672066485578088, 0.19299349313227343, -0.14183438881418298, -0.1428752534851244, -0.01822767731741531, -0.016358000509769367, -0.038765784218370285, -0.1286934501393225, 0.09463084288826903, 0.07052124791781951, 0.15385224068346728]], [[-0.15757650277005752, 0.11729408543302149, -0.20068953624322583, 0.06890935410814664, -0.18416017732186307, 0.12960562436105355, 0.079614029053721, 0.19914672426354516, -0.06586694546857425, 0.012404473397289662, -0.07824741795997606, -0.18657488928196841, 0.07028677070422205, -0.14395112680582922, -0.02877866564540471, -0.09311429822024456, -0.03733620736509511, 0.09780044789158669, 0.12309027305079254, -0.053195966827732165, 0.09646029312226115, -0.1010939956675494, -0.23129836123928751, -0.053561210678464116, 0.2425571919190956, 0.13864575105960858, -0.3379801497684934, -0.19895485625133913, 0.0036249976076510497, -0.00022597713134845228, 0.11031272118476806, 0.08273589295737742], [-0.022255381034081773, -0.1413862196226905, -0.028809631514246977, -0.19018735678477483, -0.01831029778249232, -0.057688549111729354, -0.11121612791252448, 0.01602567771339191, 0.01172150946770683, 0.12167181172942101, 0.001205402691497928, 0.3485419465701853, -0.018765771575488855, -0.0932849612062988, 0.10691348575679194, 0.06647550326176356, 0.014125281732386271, -0.14826989995864057, -0.12095513679071333, -0.0805971608774884, 0.10846590637290907, -0.0025144039783920285, 0.05542822134886994, -0.03167102190670257, 0.03963374979629305, 0.15054884455867582, 0.2046395081676138, 0.20286646211931303, 0.015513645350523037, 0.04562660520013452, 0.015239693339226115, -0.0922870018296801], [-0.0798206292092954, -0.027651138188490073, -0.009922592882440566, 0.09806357910683797, -0.022153023640153365, 0.06571063120524281, -0.14084911248200124, 0.21338386261395828, 0.14234586747279973, 0.01722467182018743, -0.0005763521549990739, 0.16433241403068818, 0.01680811673161401, 0.10406429684581932, 0.3524371838360785, -0.08901190542580709, 0.005039452393325783, 0.3443237210596807, 0.021044707165537344, -0.02054884767876379, 0.0792204075229266, 0.0488231009204265, 0.23967554913153405, -0.016634500305192437, 0.08298781947433297, -0.10523378677664491, -0.046844601144077506, -0.08027547827306625, -0.05977459688821194, -0.03915125026240887, 0.11855001215159523, 0.08618974299672505], [0.07119218990137303, -0.12173815363341144, 0.17288393823667675, -0.014765697899828943, -0.05127075238795936, -0.0037505360230209893, 0.121177597566634, -0.07361543297844837, 0.12131169513205375, 0.08900634512676615, 0.31286946490607026, -0.19553175681291465, -0.027820349262188557, 0.003283120961866976, -0.027873094214492227, 0.019288662498827283, 0.10239725982130897, 0.17429704468693463, 0.023408711419047736, -0.2604645908688197, -0.14208434432027167, 0.07920381193353035, -0.01479863696092219, 0.08162468173068324, 0.08679165978915597, 0.006952593899250769, 0.1281992656107977, 0.022584379515557383, 0.07055756560655395, -0.016265697681123226, -0.01738118470705885, -0.07984893648149412], [0.12467574678366418, -0.030566446264445404, -0.08366113043488246, 0.03621973348915541, 0.0177404847833182, 0.026065473353159233, -0.013897524448730712, 0.2076033806466977, -0.10430805145621333, 0.031248976359585977, -0.08282777592775457, 0.005639647777628091, 0.014856959168463036, 0.25132429520449956, 0.12868214682947712, -0.11562792033773721, -0.24873760960737884, -0.022059739605914445, -0.019104388580023064, 0.21380463966825553, 0.06962257346550578, -0.05766398745375141, -0.06056785948468713, -0.15792865504331252, -0.21332047931899123, 0.15174862308411838, -0.06902064073841345, -0.19647388158599616, 0.07172688460680633, 0.06399938452696345, -0.10421935687142428, 0.03886740655382779], [-0.050687447656622794, 0.06271548445710262, 0.030376445218138957, 0.2416953049143874, -0.13301241161253957, -0.1506262304796441, 0.026182829192177782, -0.07413770211737696, 0.09091163884092854, 0.009653299039378265, 0.034419495751701355, -0.028843523350315096, 0.15261537142224652, -0.029401514611227773, -0.0028197567266462086, 0.06445892701856046, 0.20730939233018345, -0.11990966764066412, 0.1445867149147219, 0.08671868670608879, -0.0013744368186534833, -0.12563594798291444, 0.12760406739428062, 0.1284885315996679, -0.09563988740155613, 0.1626030638526025, -0.09046702518223104, -0.1470028114434795, -0.022669219411283307, -0.10019727124219886, -0.010059418124465033, 0.13347189580306953], [0.10501429623773384, -0.04803991044346717, 0.23763109850874437, 0.10977093882379653, -0.002444447218169314, -0.2176321691921991, -0.12584772495497598, -0.15842186731240526, -0.026035092340638073, 0.024117600597104695, 0.006054145604846361, 0.21533035239405557, -0.07811384195895643, -0.10226749894757355, -0.010494376362901785, 0.1568147683097162, -0.025633701990907868, -0.019461086444481843, -0.17778480142885614, 0.08209268560616156, 0.026061928147872723, -0.004097963838068657, 0.1216236969092649, -0.12334381398251418, -0.15724037216946415, 0.09340843446339568, 0.16390769275514172, -0.02831850376381205, 0.01752838585440259, 0.0630501595722056, -0.07075965545785887, 0.011295528373894546], [-0.038615616139028246, 0.1795998216495325, 0.082559674775165, -0.13412872920698649, 0.02753965440819141, -0.21111472030720727, 0.10979196030270677, 0.05347437903751724, 0.008567873634648821, 0.1616913205366295, -0.015899614273999777, -0.022428533244098554, 0.06300323150226106, -0.08123776542632893, 0.004195675423308804, -0.07720576544761742, -0.11743383538380049, -0.008944282123313003, -0.03172399292055151, -0.10860807361303325, 0.06959827623563342, 0.1723343470147619, -0.025924574789477735, 0.0673835212507328, -0.18432576162336697, -0.16618576636904486, 0.12636888594330545, 0.20872720332719774, -0.004346363609682865, -0.06844471367168305, 0.08264208416976329, -0.2591884944394674], [-0.05151898314683236, 0.16633667691687662, -0.0925120355737788, -0.07363262253231224, 0.07235845774680184, 0.04164131233157061, 0.11389277237186546, 0.03747748742001993, 0.25208704407196464, 0.027693886600994203, 0.05626751780129969, 0.0823130050520846, -0.1502872708751337, -0.13876068322735827, -0.1227622823707456, -0.08156986056905514, -0.2410291811373002, 0.12875991087431615, 0.1430047609460048, -0.010881748479707834, -0.14277948580863395, 0.09250221641482036, 0.12493161495214934, 0.07698552711905933, -0.024110189275425926, 0.19133301275757816, -0.10309890536536119, 0.04625401963623228, 0.05430360040955878, -0.20133012621938984, -0.1089008416586854, 0.0739669848231048], [-0.05916641476419849, 0.008742400849231797, -0.04594854090070963, -0.08274736757778021, 0.12486980613124787, -0.008505539661134903, 0.13582420727985084, 0.009320677483619677, 0.12774806265719482, -0.03498392227231991, -0.008131577557549407, -0.06058631403576544, 0.12072045510553318, 0.07022707923195512, 0.11605155501382973, 0.13924840609798872, 0.06504734662744457, -0.08312223734277562, 0.06504758344943674, 0.06917671354688028, 0.12881833898390552, 0.024385956576730452, -0.18746464492881953, 0.04409295517785617, -0.0995606890535986, -0.24791759785540946, -0.10241364535034517, 0.044247967310173865, -0.0791193756601333, 0.07185317157121106, 0.0007950508325535056, 0.07258621278708986], [0.13085540367227577, 0.07324104568717967, -0.043640132600224035, 0.054217453335598804, 0.11170902212059224, 0.23667079416826073, 0.029864064605163193, -0.04521988039819869, 0.20261566089336433, 0.15191085995766662, 0.044745612559508596, 0.18275043264293708, -0.074167077919387, -0.1996561951912945, 0.0056004720371962136, 0.05749045615048677, 0.08892459687177309, -0.008243471864190154, 0.06183635365479236, 0.13627929667095603, 0.13634816427646887, 0.04605882790085316, 0.008618048687961084, 0.15859274660138967, 0.05127679683871237, -0.11045451876117483, 0.22818547508848286, 0.026499124472981556, -0.0718349904265304, -0.15933709326800446, 0.0005564052276693321, -0.09710087017159652], [0.0692516788864214, 0.02798874543771385, 0.14344631218090217, -0.09966960067885272, -0.0692263828086198, 0.05881596814313995, -0.13942923969771384, -0.059827458080475446, 0.05799941391294599, 0.017948010396764524, -0.04788064152486343, 0.0939242925264427, -0.1827589226375694, 0.02475844304123415, 0.04697591801066685, -0.18039375121120133, 0.04399334800794908, 0.0066749414724405175, -0.08120916534340013, -0.01329075589607366, -0.24808787773614502, -0.009563150732342523, 0.09401418357516324, 0.22027261943458362, -0.25167623558281926, -0.19579651510645782, 0.13083458198196427, 0.17548275650909353, -0.2008902594155395, -0.22284416754342495, 0.0933447656281019, 0.06480571988936211], [-0.17299437197846776, -0.09881456515252425, -0.007803074588748507, 0.18902160447790337, 0.09570135945171973, -0.00970511252994208, 0.020405120524234065, 0.13486949782059038, 0.2259058680526245, 0.2735948314863337, -0.14129768026913303, -0.036508246286833905, 0.0060436876275714625, 0.06956774454160554, 0.06160572337547774, 0.2642637717892518, 0.03028146552624324, 0.01961983793977496, 0.15031659288653126, 0.018798452219474175, 0.0688733806804905, -0.09751263971356196, -0.04706340122286681, -0.12342425384382409, 0.047912671102583126, -0.15642765328659824, 0.18851250887366233, 0.2092024845950667, -0.02010169365671481, 0.21435221909863098, 0.04582755876901254, 0.01864821424012878], [-0.03629396044009884, -0.17485148318494861, -0.1379919270451012, -0.18735523037312032, 0.08055160436590354, -0.03529369298554739, -0.1444329620244219, 0.12156161583100396, 0.024151664843738815, 0.11107389008940044, 0.12640814367555353, 0.11513578982127433, 0.09637150841529518, -0.1422340438809288, -0.04677690424210655, 0.05190294782902699, -0.18779490609083144, -0.1390566304661831, 0.04878147132314771, -0.12718927114188722, -0.057587519403247675, 0.20058948898543794, -0.15837348109097044, -0.10447954046691085, -0.002124277102737599, 0.3106911129353667, 0.12469064827229982, -0.07488285726770647, -0.04250914395309405, 0.012423887157755631, 0.1324021179731399, 0.03117947331309962], [-0.3177822309485064, -0.28269361294698625, -0.25054095420654965, 0.10104996505658866, 0.11644957971425247, 0.05951265778181926, -0.25921691806345604, -0.0234017764695425, 0.050492459398441124, 0.016887498167525532, 0.009286982093289342, 0.19175672292836746, 0.21124166378245304, 0.047597746903524314, 0.04997548349275536, -0.05597307756726822, -0.0902033580787814, 0.11262631822324806, 0.03347419776543943, -0.07580051403439585, 0.13134620928504587, 0.23984577680031827, 0.32883054778701265, -0.014590664615571772, -0.11234256621569175, -0.04402512164375239, 0.17035429720776002, -0.11282578141902944, -0.08437152775156737, -0.10943135166205, -0.1487093081577183, -0.13569210157640862], [-0.0140203924516693, -0.16061281159654953, 0.05357713885504867, 0.2639945679525236, 0.04890237658806725, -0.13293359436924618, 0.09337069516541627, 0.1478886716039101, -0.09120739741173667, -0.05284851107970573, -0.04770700904370794, -0.09621118321433245, 0.00807443002229555, -0.17234816105802792, -0.24530425834389474, -0.09388033263123238, 0.01761555293728261, 0.13074862458578357, -0.10206478946269847, -0.01989186022813703, 0.18870007851309686, 0.07061812870431017, -0.04568514188602261, -0.1972466694328631, 0.0002713396722536073, -0.09870597134967665, 0.24921533585948824, -0.09591116630736037, -0.02560982846774382, 0.03233484630426409, -0.03750601299587031, 0.09849458338647903]], [[-0.03989545380220086, 0.10608362793590541, 0.08485144817536595, 0.13638924328731725, 0.005974113391901017, -0.1470775703511051, 0.19393159001730934, 0.105421511086431, 0.1084874532873351, 0.16067271015367135, -0.15602449173037722, -0.12933797695057858, 0.014873097458525006, 0.02997437096106621, 0.2263425758338656, -0.09313023952737866, 0.0762778211987216, -0.0016745810681253522, 0.02098470553639722, -0.11705730407869865, -0.1141707797762952, -0.06482174424710392, -0.10794478097198273, 0.001505928744359519, 0.0798269665416199, 0.030550190003777147, -0.19875007572873626, 0.0755938922641899, 0.010705086221373145, 0.2546111169345591, -0.22390718491939646, 0.27651032668848236], [0.022232765280287718, 0.00012003804044228784, 0.01697454733249039, -0.056570225881731474, 0.0006330875065680531, 0.022749239256150466, -0.16636226058970216, 0.03344731679070612, -0.06355638342531145, -0.14034047042532644, -0.3412229347293053, 0.11623770286784371, 0.1896821211245473, 0.040482399682254505, 0.13366287997694654, 0.004193983486078665, 0.1414326055540968, -0.013455256547024173, 0.054927868623649255, 0.041135731731643976, 0.23741379300868864, 0.042037243455672606, -0.20162772628204328, -0.14803325487592256, 0.033616882686876126, -0.07165926675429375, 0.31438855321143877, 0.09595725569501515, -0.08627114414055757, -0.06632655845473712, 0.23132733648172063, 0.01674466173010375], [0.04835937956291112, -0.08607022030249907, 0.05135362790590243, 0.015884990886790386, -0.07974468065622876, -0.08760098473455653, 0.08835688530328412, 0.12684147025959377, 0.06486613669995828, 0.08463149252010738, 0.012946039394383475, 0.06507555806963104, 0.05799991246362253, 0.09979475897636293, 0.08534739242040312, -0.030658283041460635, 0.08566520826892424, -0.009070800243992481, 0.09430963936341125, -0.016332945516013962, -0.2528740256596896, -0.14230566906101016, 0.10095861435785769, -0.0906954213619744, 0.037472219114802495, -0.17717386990356315, 0.12598275296923558, 0.102844040697199, -0.1506299125606704, -0.1484427648381144, 0.13861302502619294, 0.1624569103587435], [-0.16807260751387446, 0.09640646857613633, -0.049116567660558934, -0.06569829735508174, -0.08287086788547691, -0.09954606992988836, 0.23608771023836667, 0.18292722177697623, 0.02634067853680199, 0.02014617913968833, 0.19505497501246385, -0.25054305996751497, 0.03578489051895062, -0.02651297537454861, -0.03169554924180232, 0.006652889239191507, 0.12439993789812262, 0.09834941168279013, -0.003766686993711278, 0.007078125884958044, 0.015772396193427952, 0.21188210940265506, -0.1291046821190915, -0.04005112555567314, -0.019446539979641617, -0.1263615981052559, -0.05440818826660963, 0.267137594118731, 0.2797335030037624, 0.05855546883527688, 0.030240508119220702, 0.06703979085694906], [-0.11605355268238572, -0.24636754697783345, -0.0063220703314370965, -0.07886073650147829, -0.01485852207610441, -0.0496589983268009, 0.0224399700909609, -0.05854656404333066, -0.14627524750796778, -0.0511472007021604, -0.044219449596346355, -0.0968720395888707, -0.09417718659624709, 0.08854260088325745, 0.03458390324099918, 0.054661076824003015, -0.029480371303311825, -0.10585304873174517, -0.02593036353406815, -0.16627538947975254, 0.06494119264082805, -0.06404824202472725, -0.18123614137672867, 0.06004959478214415, -0.022597884786893913, -0.11221587556796522, -0.06138051239764002, -0.07097073511024432, 0.03503607543590556, -0.10448978526957847, -0.004234365836130317, -0.014229150782844112], [-0.017047281486265598, -0.284593929443829, 0.0031623960377485027, -0.19312972472529835, 0.07131071243240947, -0.008176820768784959, -0.054507705537798525, -0.008540999683813688, 0.12178491241059154, -0.14402118374846076, 0.056722327389336774, -0.08027703032856083, -0.08175006838664794, 0.07112924681402986, 0.005655476697863911, -0.17918500848816998, 0.04482190009806124, 0.09170035704112352, -0.04088059867173487, 0.05746983293221074, 0.023180246172989315, 0.08613067534514325, 0.1539399773662628, -0.07258786599908941, 0.12247769653021832, 0.13439051518717066, -0.08097635951568943, -0.03286418811429791, -0.16200854134593626, 0.11738693576228769, 0.04328002516824068, 0.13333715898416518], [-0.05227373307689227, 0.009180594496025039, -0.010531314642800048, 0.03813602369221253, 0.083024900685138, 0.042253411746496876, 0.11676036811639452, 0.030460575301349047, 0.047735729569656875, -0.009565328480145668, 0.06746907775695404, -0.019181940317162027, -0.23289066235325023, 0.15542415095488582, -0.006052636620331704, -0.06857026571744075, -0.023795386028883484, 0.15233485473399686, -0.17015051208564846, -0.12109210210656367, -0.21212270455740787, -0.14098115832884875, 0.05301490205055267, 0.11832091257591892, 0.4128770141766037, 0.04396383568236323, 0.16399105951142948, 0.06417052801040578, 0.030993968787719976, -0.09338944615371027, 0.08541733727814119, 0.01642539502710886], [-0.13858031502094315, -0.0032218557621665157, -0.21420231790742147, 0.1472359925216198, 0.2330518768766272, -0.009701508093683751, -0.04548869062111226, -0.014743526211652737, -0.09834652258892075, 0.08385664053127001, -0.201037846711745, -0.10897073215050797, 0.02062218947231913, 0.10781882041144088, 0.19021906962943338, -0.047152983658225775, 0.017055272438108043, -0.007632546645150842, -0.16685568063479123, -0.0414460144104531, -0.1739850246857784, 0.10836556853672087, 0.017482112949599535, 0.0893961803357452, -0.0762574155551401, -0.08613260636158213, 0.17506879938341904, -0.08244776001351284, -0.19447730586778367, -0.037407546378911506, -0.11107321381834764, 0.09699231881931474], [-0.01824181994473181, 0.07871535693175016, -0.13701799485054048, -0.053383201968625275, -0.012834999991649608, -0.3170101519211564, 0.1984773228346882, -0.14573886348102147, -0.06615192712089572, 0.07202989803050323, -0.1583379428804227, -0.068497591654471, -0.13991729189999444, 0.05528333654825467, -0.07648891629929956, 0.10963066600968555, 0.04390108620107423, -0.13635377153891878, 0.1419970855100818, 0.019387665759892637, -0.02676680189709755, -0.13065386735033985, 0.0841537171714972, 0.02383599628260503, -0.17417489878834805, -0.011859846326522693, -0.058666069940638756, 0.0779993334961081, 0.14355009482160866, 0.03808969795331904, -0.13930443668393797, 0.05588606753676794], [0.036523113701503004, -0.1680598192088934, -0.14608919621025002, -0.010547874944399712, 0.25087019270276123, -0.12561428756165802, -0.07781976769373353, 0.20662498319566835, 0.07291284396797966, 0.2380533899090657, 0.33445807872718264, 0.20678555228194992, -0.00567964314492042, -0.014637089167666945, -0.08189666550595122, 0.03834007627512513, 0.03458700324563933, -0.046275745358129644, -0.10086963383248385, -0.07403882089178107, -0.01897611044034686, 0.11542969538067395, 0.23031289274447259, 0.12547846620678652, 0.13457576119948295, 0.11413224077542608, 0.15094949573573957, -0.09965255294516824, -0.031076925027421664, -0.06837115047368383, -0.17343881911401476, 0.06980279617854389], [-0.05615153755071809, 0.14121937879063617, -0.08187242036943111, 0.15228828918896972, 0.27856163421577984, -0.13603620014031945, -0.12636335401576815, 0.07671900707488294, 0.08956505433426123, 0.024704784129048758, 0.1434805491399229, -0.006534319557502028, -0.002626087054667068, 0.08319121168226465, 0.17259772980754345, -0.0005677786104716623, -0.10779535021298947, -0.003416341462410822, 0.0038977279813913693, -0.1253401813403101, 0.11478507782545977, 0.11142841427301187, -0.0843170307207719, -0.04174700300024974, -0.006271639787738554, -0.09678479572201229, -0.027657025219998764, 0.24772001085861456, 0.1072508270779987, -0.13766882252871462, -0.11158914852753381, -0.11470976299681371], [0.050045902119375055, -0.06239612961329753, -0.101875262695155, 0.1658358575639144, 0.06259474335511904, 0.11360519077065426, 0.030560894420490727, -0.23716238968448486, 0.021999667158303458, -0.07916930032539718, 0.05491021507476361, -0.08048938082108105, -0.15009541801460233, 0.026815138462979803, -0.02696425063120315, -0.16811052423972267, -0.031175747737915045, 0.02896237044019405, 0.17406201497758717, -0.08341559507484628, 0.02858696404818553, 0.03931580821136938, 0.09076881868922797, -0.09797077171396475, 0.08762535868969851, -0.04003189689927081, -0.24885974959820692, -0.005459683622858713, 0.21469185403628258, 0.17023558835079788, 0.13579852813273216, 0.004640413067031635], [0.06930087761243789, -0.11204199151101754, 0.04627933207279389, 0.01790647315158943, -0.13082239558437672, 0.011077463976041148, -0.021110470490745416, 0.18035456822220777, 0.09225679127467128, 0.04318491213367516, -0.2194256705679575, -0.005545706674162928, 0.1509747272647267, -0.08657460454088292, -0.02409780077988034, 0.03959912179989131, 0.06185577906671094, -0.02163000190269169, 0.16462098583181092, 0.0253793415794909, -0.020792253934391415, 0.1229128667956011, 0.08813920227224781, -0.03130137414204708, 0.08234992587056031, -0.2233617139124452, -0.1425046536126396, -0.0068866808709341955, -0.05381428836742439, 0.008500746932058607, -0.02748090295224378, 0.0061195974661862424], [-0.012731135349111028, 0.15642047035608186, -0.07469415097012379, 0.1891951851667331, 0.05345329763098643, 0.10693100303134496, 0.006976284414801722, 0.2756128100098129, 0.2162698158466636, 0.001029103039790643, 0.08048062259100613, -0.05144751063391635, -0.14058152587604805, -0.1531489231029057, 0.02092104074828687, 0.15751122271957885, -0.04949494511559307, -0.06349711742685692, -0.00861294409497294, -0.1451170610507287, -0.1640462004335207, 0.011623260851788823, -0.09634063012870503, -0.07126295892395237, -0.1427652992554153, 0.08177158822320876, 0.009032093895496416, -0.054193779037766024, 0.047482044725816554, -0.08381457950416542, -0.1574287921988367, -0.013456131866801434], [0.0017084055718970537, -0.06342819054750365, 0.18407644096204306, -0.06018281512383716, 0.20034743575764793, -0.2523168391491706, -0.1139324985407649, 0.012443842542290693, 0.13226194121177684, -0.062247370560235875, 0.07981902710490271, 0.04673840653979361, 0.05984283202899245, 0.19134890049797101, 0.2529926569424783, -0.02808634838812113, -0.008839412606179035, 0.23585168548106542, 0.04636006654429066, -0.2476690678368572, -0.09336436540054402, 0.2963553100481556, 0.062165859258881004, -0.1305789380221931, -0.0050136914298804635, -0.11353073153313235, 0.09110558549017313, 0.14449579191297943, 0.1387305198797046, 0.09142240452322717, 0.08341997672387086, -0.026058580150596235], [0.017679189126500353, -0.12366038088535586, -0.05366557051676116, 0.05124976805065774, -0.00882821983177189, 0.10316063119657072, -0.0670734461341868, -0.04325542593603241, -0.2896829724108316, 0.028032084455025946, 0.19527281062534438, 0.007255213114112873, 0.013889173848996988, 0.11352404353140845, -0.07451895973416237, 0.07750713706965083, 0.04922738388850973, -0.013843081190184413, -0.15921557729656943, 0.02100018606247365, 0.17576791636476674, 0.12944302306181713, -0.034199103346770544, -0.0708874690858033, 0.07236122335373953, -0.08021542623676332, 0.06384565052643049, 0.10053120940992824, -0.08354236144303577, -0.19633104711979477, -0.07918312109602235, -0.04597523228830917]]], [[[0.1069396924704499, -0.00962816500934119, 0.07852326318803347, -0.1529232007569759, -0.06637879443565645, -0.07908902554305594, 0.17466937577203875, 0.026245357736912295, 0.13376403380034058, 0.008175635428056677, 0.20872443048200087, 0.11005867077414584, -0.07415993738405374, 0.01682599620390951, 0.04530482644565136, 0.03047430804797153, -0.15938931090556513, 0.05137466207197313, 0.09515106776188627, 0.06684034865818898, -0.10485725946118742, -0.06524401454685302, -0.28292916923358524, -0.09311988557756776, 0.021347409224769066, -0.07698805287569616, 0.03303272720699209, 0.2708099933872939, 0.01875719773066463, 0.023911431175818693, 0.03530724343724042, -0.14690131307733176], [-0.08556092877118575, 0.08986040901306533, -0.07325166289149136, -0.034249404192419355, 0.07862249194529825, -0.031221443191364374, -0.016132824271956045, 0.01551634501389693, 0.02334210793394038, -0.04779546268231942, 0.01445651100021039, -0.06607979808444853, -0.10852292991446465, -0.09765419317035999, -0.029540758577270284, 0.01772799206031449, -0.314520226984991, -0.03640971660866263, 0.009302996420951544, 0.0027262988915189397, 0.07773755240352485, -0.04390513101105759, -0.014803380857647605, 0.13788003343760394, 0.18731784551943262, 0.07969738535352082, -0.14785202402525663, -0.009238246094986836, 0.07364257542761833, -0.13882183329346015, 0.07736370776143016, -0.01377973193013416], [-0.015597654784175862, -0.2676690542234774, -0.09050627708094788, -0.12408957550820535, -0.08905232753124626, -0.0540432648594701, -0.03352205389983259, 0.048976149353790466, 0.1054986337989032, -0.11103171268063637, -0.21605793015029398, 0.013606597593913193, 0.04886397844429356, 0.2542570833395795, -0.1758603451811599, 0.4516019272126145, -0.13306676204811613, 0.263429716486813, 0.08533074779908284, -0.0285632160110748, -0.18806453006799365, -0.08879083210789039, 0.05484737522429424, -0.15119830943933016, 0.03882795372908837, 0.1346495787322402, -0.06026600118155414, 0.16545926638975433, -0.04380022769741344, -0.18824363476869826, -0.13465958255512597, -0.022031461400656094], [-0.05965777675769459, -0.2028646233345667, -0.05147540122742534, 0.08035890658727482, -0.012728624967705972, 0.003707175886921623, -0.07572495338681673, 0.04694134125247127, 0.06860427226407459, -0.08446620644854978, 0.0031831255966948287, -0.10112692110731143, -0.2519362083155015, -0.045785422938691006, -0.006155338546234667, 0.0633318459780455, -0.11112099048475256, -0.04257159529870807, 0.12482053814129387, 0.109956728149646, 0.03228002380651159, 0.2527169522360752, -0.033428261619134245, -0.04533573586441332, -0.035473724138191796, 0.05748556709290826, 0.19532204045077292, 0.24870799020202275, -0.14602442033181906, -0.0892074775805274, 0.053364741306187055, -0.07768259818279227], [-0.25518816063548677, -0.007747494774009074, -0.003176235512859991, -0.14564558954713014, -0.12241653347669719, -0.07701252305734693, 0.16545679200619792, 0.000705474648608278, -0.12255308251805548, -0.054714218037807696, 0.004032850994748933, 0.06378795753709685, -0.004294579059728838, 0.20298102045891103, 0.12439689095574309, 0.17649285856023933, -0.04215173583681769, 0.2728494215723758, 0.09934635627697117, 0.2950872781244124, -0.10078847133681511, 0.13388173621738456, 0.035334281652305156, -0.0859887924220699, -0.013450349379142124, 0.06285106872237915, 0.1804645693823009, -0.010252086297279991, 0.18961076250720468, -0.03617697844937627, -0.03505294870578158, -0.07971787419201946], [-0.20156693900381387, -0.05365721614207218, 0.013665424420532167, -0.0895886815661572, 0.3918739321932604, 0.2133010090498039, 0.17699099779082114, 0.13797372440374434, 0.08578511755609154, 0.08812056149058968, 0.14114371481755641, 0.2050550727822994, -0.10927683159766725, -0.007009152183495156, 0.15212791169687773, -0.053786898167524785, 0.08602221097826883, 0.063149083482407, 0.0002618787244886685, 0.21357177197551613, 0.08503725997745959, 0.17277939356109606, 0.14491528991279795, -0.07130777993818994, 0.15018755859688918, 0.03199978233528803, 0.10658093226113563, 0.0368293715491267, -0.018385438077607476, -0.29040351675044634, -0.14165649384932222, -0.23395295898647187], [-0.08178253560990478, -0.1699721342585486, 0.16160124000318396, -0.09921114237745529, 0.11568437413037148, -0.02832391962527944, -0.08668090547405582, -0.08462368082847753, 0.07694430229716696, -0.1798869281840213, 0.12816241458334374, -0.010270268531334528, 0.014471679154338573, 0.08784212681970628, 0.05509656244994987, -0.024180326478995425, -0.008914845093221322, -0.18191169850573224, -0.07579528636974572, 0.17644700108756148, -0.009494272086893624, -0.0014839758381756088, 0.1663326886112303, 0.08149803559231424, -0.024381096014043844, 0.08448715488220003, 0.28611435510734606, -0.051971509152425654, 0.1327937429860638, -0.10675162446085931, 0.05346316536260741, -0.05096709443731296], [-0.050544321267207176, 0.04149406260338053, -0.08788170820855026, -0.001250800407227055, -0.07935070649929729, 0.05181455385920375, 0.07057169824183832, -0.17678730829460615, -0.013313644394834342, -0.10826709830164168, 0.10953735468403714, -0.08014629334585062, -0.0755027419900335, 0.19063001859483242, 0.08573884543424017, -0.09233784000094415, 0.0070516887216632, -0.05639178553997965, 0.08734535124650511, 0.015493448606069713, -0.2510892600292821, -0.08240106435237829, -0.018021923620492902, -0.0941641831583635, -0.012045819190994388, 0.11028745843339831, -0.042990346314552695, 0.11806587884124972, -0.13546470793509224, -0.19966697395647728, 0.027428376408322883, -0.06032376032754956], [-0.10447065853153584, 0.33009093333123624, -0.16496769523853033, 0.06988811196927806, 0.15544575296861463, 0.06277826042318914, 0.14125121093844334, 0.14267268262911068, 0.013789487286044953, -0.026535451236020576, 0.1423179189536552, -0.17101124847540486, 0.04100407623048666, 0.06982684821124056, 0.06016159238439841, 0.14488774925963654, -0.06778007473903147, 0.007240045504102703, 0.10462971356954608, -0.11076453351104597, -0.007226891674461075, -0.13451166361532896, 0.13567333342892643, 0.13924377510643796, -0.07370123368960542, 0.11991021478560011, 0.07342069455014262, 0.06676442777865063, 0.005785353047977924, 0.17359650730244472, -0.052813326964776065, 0.07095942918411281], [0.028349727200767137, -0.04012634830446051, 0.13338805281766478, 0.05304121894077699, 0.1933974367445827, 0.09943085713553455, 0.1730954585220648, -0.0043895164617954435, 0.20178015637733984, -0.0007945693782392832, 0.07731294374490506, -0.0754521502925501, -0.14147319901865896, 0.04376697266480001, -0.023503995650866638, -0.01849129283005708, -0.1693965854456389, 0.14561067224439395, 0.13829644888641565, 0.17176271356926676, 0.16103371202002484, 0.0079702677800327, -0.024993222284646406, 0.10740201315028006, 0.0903960803665832, 0.06789267741695643, 0.09149232231770256, -0.0950327513627676, 0.10441764327693401, -0.07788612117761394, -0.25549128694055095, 0.08582742950502185], [-0.012011811600883203, -0.009918763907378392, 0.08774228314050232, 0.0010674416964673594, -0.11909448587373456, 0.04547909777618959, 0.0034407050881766336, -0.03297689021816524, 0.10432912251876254, -0.010243966301355037, 0.006326550797332863, -0.17438383840347318, 0.2504726087618845, 0.06409540704353735, -0.037454424011060486, 0.04309919304758284, -0.011810999851754978, 0.028411503910112833, 0.07300315259225985, -0.05189840672071004, -0.05875179507320046, 0.11596716584488431, 0.05610348915496544, -0.08675386053119215, 0.10514505972704705, 0.018552068992604788, 0.129341730120719, -0.08850134400750148, 0.04332722769422736, 0.1334285153357974, -0.05825126187928559, -0.07584266343775327], [-0.14471366526913695, -0.03539444505112284, -0.11385385300441216, -0.04796866724922534, 0.1937804926292584, 0.15303576880284117, -0.14646123080245857, 0.05828429663788119, -0.12355774212193457, 0.0499795773815443, 0.10471243981070208, -0.04277001247180867, 0.11975633974796017, -0.11180264305977937, 0.23781015381893716, 0.0006296581102066938, 0.21588454207621596, 0.1580851169008741, -0.010359785027259578, -0.22767952445601825, -0.04780437669492022, 0.1948412361828318, -0.14206621549911944, 0.09794202785689435, -0.139703650046307, 0.05003779040869654, -0.018705222185069117, 0.013098800761982327, -0.041441829206340715, -0.08910670635602531, -0.029250600442814106, 0.11322480286207082], [-0.18383387039940435, -0.14478773557282756, -0.040525150010916264, 0.2318197036915128, -0.03942725012041507, -0.038565424921450916, -0.0592093179888611, 0.0833820911679195, -0.12739808092825805, -0.037532638544992475, -0.017785860422664012, 0.05681680745022643, 0.029950921146397202, -0.04152679259273047, 0.19045147577848412, 0.07462255729588471, 0.21905655536983376, 0.039077682370961674, 0.41316304564922096, 0.14242406358779905, -0.1252408179449316, 0.019003452607852446, -0.007345264803881749, 0.09623346646082039, -0.060093763199187404, -0.009746809973103189, -0.0720338347568406, 0.1035290428723768, -0.15229699140872763, -0.08723211483428968, -0.022752929974556114, -0.11193749571792337], [-0.05907290469325812, 0.08973094978467139, 0.17963233568826195, -0.10243111606746647, -0.042309916987861816, 0.11317965952754101, -0.19559084658873274, -0.16567423186036945, -0.02127196802770428, 0.10158359475995828, 0.18044199184056373, 0.17930533514191974, 0.049555346138117046, -0.014037510366090274, 0.19630498950961836, 0.16760296795627472, -0.11208173297067156, 0.21424973297199282, 0.1515423964132726, 0.011221088861153835, -0.19297305809247375, 0.020211329172016027, 0.018013604047117913, 0.035491321843490825, -0.05144978990525805, -0.07909258049585616, 0.1352326983229224, -0.08527991659474961, 0.1692679947939592, -0.060995362652522964, -0.12488115847717093, 0.07576724313595995], [0.1073394374072542, 0.08157204982602158, -0.039775278011696585, 0.012702928119223, -0.09430683199357069, 0.26798596565577787, 0.2375421432355814, -0.04660297833749899, 0.04882382088323715, -0.053864933965055824, -0.03279015781587461, 0.028523604103244723, 0.08324596765292004, 0.09195784821249486, -0.21359416265680817, 0.015539344417167261, 0.07216836375527555, 0.22853886491312975, -0.10860342856546888, 0.08781894792061469, -0.007693320169533807, -0.04815017410255282, 0.08097102696420386, -0.0693275445546682, 0.06518190643099239, -0.060624040576025606, -0.024143081402244505, 0.11061466135493025, -0.1592813718582448, 0.09347432945382758, -0.06296295766033635, -0.17458578174313452], [-0.08324328359183703, 0.1501674014193989, -0.028219470751477144, -0.026217017200058198, -0.2005062726502508, -0.17464764285413928, 0.08708916046706261, 0.10102069678408311, 0.16779776023658952, 0.146993914283269, 0.08588103831719694, -0.15920818708346807, -0.07848692968817263, 0.02221599194509179, 0.11369398382322217, -0.20421845005356645, -0.08051862988517627, 0.01596635672001008, 0.09894697776986507, 0.22000703119712092, 0.10297703848788207, 0.055837330928875974, 0.05475981257188263, -0.3539565385271825, -0.1712028578403295, -0.054859812554943974, -0.01907121091829068, 0.2859610483569023, -0.017895764643202885, -0.17412024248941155, -0.026955082790335212, 0.02371233335156626]], [[-0.035265281935478926, -0.18080009250824655, -0.016258244329139714, 0.030560984666984908, 0.05249577973922736, 0.2979416178381155, 0.06306980628679171, -0.05695777013855565, -0.03427691210153347, -0.06256182172794965, 0.044562884130177116, 0.10713747360573662, 0.11475673540986302, 0.004302211567871467, -0.1901256148569098, 0.024727749521927633, -0.2388794161054421, 0.07177117321720398, 0.19225778520139153, 0.07631951947901573, -0.02081178027049914, -0.15766501966505064, -0.15106588836516888, -0.16196000654869847, 0.1401132436246699, 0.004308317387684948, 0.1608474584812696, -0.19421571289102452, 0.03262169234334448, -0.02032341825165392, -0.052111225525317925, 0.14293258271178874], [0.26209374755809967, 0.04793696986021915, 0.008419037619723017, -0.20807769455001457, -0.005222068399959091, 0.06791719929084854, 0.05799594917899428, 0.015926421953084906, -0.2186190888341263, -0.16745895364737326, -0.2251401275808367, 0.0610733649607765, -0.30047421747689923, 0.1958786690985257, -0.1777780281822625, 0.016333077214308194, -0.0697086751328652, 0.03796067953979936, -0.14880468467464, -0.06691781868334364, -0.1269665082876671, -0.18557737942965954, 0.08382359814128564, -0.115397739527827, -0.11742316452010221, 0.16928818151216776, 0.0889253813748687, 0.15928124468898025, -0.05100652535340649, 0.05880944341485278, 0.005638599005148757, 0.09441962745023957], [-0.07605083261620088, -0.026070050419550028, 0.059213352748790846, 0.0650517521938624, 0.24974794403064324, 0.25319678540578394, -0.160158435800299, 0.16139269430840558, 0.12474335172679674, 0.18565982276595672, -0.0028047248462059176, -0.14869906157799684, -0.07504404233276092, 0.19867719423422012, 0.06021651241223356, 0.23790165521357784, 0.06887084933462513, 0.040499140501634626, -0.04724348760652173, -0.025905335390142732, 0.03783931401170109, 0.128085324408677, 0.013988408289491746, -0.012530938129601618, -0.10036714178008678, 0.07568369567998587, 0.13984137934894722, 0.19993383540549262, -0.15531983691914183, -0.089803026170719, -0.2755490187912454, -0.038179963513825355], [0.13468055916531083, 0.06644612675648867, -0.08502327456899327, 0.011805751251117711, 0.10221544955669021, 0.009131444298385626, -0.12002891964082363, 0.18675659446569712, 0.08565701266583034, -0.10027118199950705, 0.2734811115249744, -0.05861607660021331, 0.023239306518676707, -0.010756863632486286, -0.18674807564763599, -0.26018030679227383, 0.10053879866948472, 0.025547000717820085, -0.19653598839619235, -0.026826147600404013, -0.017796196165298046, -0.008257378100741244, 0.042190326675704465, 0.03962078493048273, -0.1327803540800404, 0.10105034431473739, 0.017144116961435658, 0.057275329959180665, -0.10645251227842695, -0.06654378810754778, 0.022562502479302405, -0.07360412758616604], [0.07811243809015328, 0.1820223907571945, -0.05338193277720838, 0.16056151095254662, -0.09771487092027259, 0.24991748448105983, -0.2216242834308202, -0.023505556226400794, -0.06828995151953852, 0.2752691242723352, -0.11320635433347137, -0.012754612962944606, -0.22835349824140333, 0.00467159264254092, -0.057876441782409326, -0.09013035662000167, 0.09403346162818443, -0.02936490630840949, -0.13954364708083042, 0.08386212042601099, 0.035266338142729024, -0.04033749735008527, 0.1904043939928341, 0.12428373962703447, 0.02130119286946081, 0.032932089672466774, 0.0014432672911299316, -0.016260669687205735, -0.10869011859339588, 0.0006742592460382789, -0.09226834229532167, -0.09555573907040238], [-0.042344909703327806, -0.12602700077920828, -0.17933074501009777, -0.06541291169512341, 0.011411503030291948, -0.005736229434706811, 0.10052315737372906, -0.02693277458729997, -0.1585782284443833, 0.11297038102981102, -0.08959557160099589, -0.03410621167245664, -0.004421426514390239, 0.0007350340214544076, -0.06347434670999436, 0.029512625892664356, -0.2237918097017304, -0.02874353858749472, 0.11914596405033871, -0.010025510828350601, 0.05276983171320448, -0.06790804287476286, -0.07587236798721086, -0.11068886489495042, 0.16221753084695623, 0.17566620952655776, -0.06337909205562763, 0.018451447404114803, 0.1267985516301821, 0.06462919288882413, -0.07766946629879622, -0.12352459189202808], [0.11880996131929615, -0.08178160563558882, -0.007867413907343622, 0.14123308356027361, -0.05214233227884418, 0.11526671530033386, -0.06490752831865325, 0.03724192030869052, -0.15176604539458707, 0.032511639825212636, 0.0866651890025307, -0.025582636049722045, -0.004323962574276081, -0.06727523797688127, -0.01960245419578297, -0.07157847862045656, 0.1969180901090186, 0.07111236499667084, 0.1420477388527974, -0.23750308177571341, -0.08515400469056006, -0.27840968065016064, -0.06739680573323752, 0.07279446287047966, 0.05939154446191636, 0.008341232806950226, 0.04174067726931342, 0.05460800115875772, -0.15860587811026367, 0.08786413346182488, 0.045894765517893794, 0.08704466910649766], [0.109595353412585, 0.11578858531653179, -0.09194470322718727, 0.004912358794951273, -0.011659381632917595, 0.06312259810942279, -0.1421069598136801, -0.025381603925418626, 0.13431959786260703, 0.16885706029902078, -0.002744966886958714, 0.06095589303601968, 0.03907742371740935, 0.027161869308674952, -0.2649475348178691, 0.28024972795022235, 0.07070655716308775, -0.0008780450881671492, -0.003044018919898441, -0.03062286478115687, -0.06752406540862171, -0.07812625068665527, -0.002775061387603742, -0.11293195514765762, 0.19222063251278232, -0.0050238223400819, -0.2886741732582568, 0.26288035457031217, 0.07578756793206874, -0.1604239455856615, -0.08533872319888798, 0.3443794506833245], [-0.10327333658679883, -0.04368848548250093, 0.26102768888182576, -0.10676391244143651, -0.2948917285684877, 0.2816713841874494, 0.10197503684289941, -0.029727978666964274, -0.02805666783690138, -0.19446133775159266, 0.031400182025413594, 0.027696950728391855, -0.016233327056577845, -0.05699026087009696, -0.002752056481337079, 0.2243154547849956, -0.016320993494321333, -0.0832438030424938, 0.16671343043480044, -0.13260506779891762, -0.22757108730758444, 0.03194508882378932, -0.02845430846113391, -0.006154118401327966, -0.08454640131499291, 0.040670850857284314, -0.09992009035237186, -0.0839812949788497, 0.03865881616477386, 0.14762018948448052, -0.08346802544833307, 0.060635097463339865], [-0.0804893639451198, -0.015442383002461946, 0.06303464402833461, -0.06629642044939879, 0.012306917305623824, -0.005030844307818543, 0.007928723867890215, 0.13199142357377824, 0.08784239850960242, 0.08703948631642279, -0.22582983767240752, 0.14581551669877402, -0.0949764192067326, -0.028384338851187196, 0.01919275256463288, -0.04123920021815595, -0.08636952318074492, 0.01675706399730894, -0.01713289545523119, -0.034436719628778485, 0.041866355339430825, 0.15619423989032546, 0.0013104506448978186, -0.08580086700291299, 0.0760580415590819, -0.0898362500536726, -0.09634702254859255, 0.19227195477451794, 0.04302819905028317, -0.19301046076404021, 0.14583453804263025, 0.18610084316384393], [-0.035285162469678, -0.0011602481682645132, -0.12170116817145289, 0.031678021158058775, 0.06431436571323308, -0.06944630633012863, -0.1204583909803336, -0.032511635407378864, 0.13598968368053077, 0.17573461494350462, 0.011977185819462504, -0.12371810281387116, 0.16182299473117262, 0.06848560322434695, 0.029752781434499453, 0.045652447838732894, -0.1496117789434387, 0.17417153225249277, 0.1832603754949557, -0.038833118071010794, 0.02856975201938059, -0.08555789688237735, -0.09886566696851028, -0.023012796387200683, 0.03628261554571047, 0.159691829848716, -0.07357405234527989, 0.03522958080960281, -0.008713407020205751, 0.02655489160672774, -0.2514661092242762, 0.2381340300776512], [-0.08937998218434438, 0.19041924303553492, -0.158873505140633, -0.08002989943944416, 0.08747486012612486, 0.12685176302386317, 0.1674151449990651, 0.03666107135345802, 0.262841147207289, 0.11729578856174634, 0.03237900368786227, 0.011536472272461651, 0.09573881355934655, 0.038053409341212104, -0.14207649003823378, -0.08307230463312963, -0.04918360030187908, -0.028066638109630733, 0.0877876668203658, -0.09810572665263811, 0.09233378828399655, -0.043267571067881164, -0.03379094180381161, -0.030602555986569593, 0.14005228620041293, 0.08298649678472196, -0.15148114888425596, 0.28106357804001, 0.03401306985646883, 0.02175298471017307, -0.13553146286660406, -0.23648128851071773], [-0.0520242139472304, -0.01563052466708189, 0.012107130116397486, -0.04949266907839299, -0.08211374883592275, 0.04563173305890415, -0.14867209308803273, 0.0021365664703297178, 0.06288900657202104, 0.06461638175198066, 0.016490632784463142, -0.014648447964224388, -0.012820166059655344, -0.1327552534742726, -0.0064527922915217336, 0.016802346127384807, -0.027102165792583344, 0.1564680796568469, -0.07537927700800956, 0.1132301604532194, 0.047561627617193195, -0.10817880757730841, -0.11111885166196281, -0.021213906705386146, 0.0906775908152334, -0.005223121724606595, -0.03261139020948141, -0.11609977826630341, 0.14559534448609485, 0.1630676795270987, 0.21407777064151254, -0.08587569448656103], [-0.16310268996755803, 0.1462100474137414, -0.21027373904849472, -0.017949066727872477, -0.15145665679286377, -0.05153159442194355, 0.09642020194773225, 0.13975564109349778, 0.07864341584431483, -0.02725859091137112, -0.056519605224297075, -0.04647124619133204, -0.06238797140335228, 0.14590610472072696, 0.0465669897080232, -0.08571988510859975, 0.15563458568856386, 0.01487490047755297, 0.07292158855050265, 0.2632479303694871, 0.09455050499557548, -0.03749511990238325, 0.07326327001321105, 0.01758418543388383, 0.10973032128027387, -0.022493411065874134, 0.05493308789981974, 0.1988502870760084, 0.12512360061205122, -0.08067843196216432, -0.1511108401106576, 0.06551509242218857], [0.04584802062322662, 0.16945655110742988, 0.02046869318551889, 0.0989099816375273, -0.17914250032623216, -0.06987152259037255, 0.0848923678081879, 0.10133429220651684, 0.11053466849266878, 0.13667877353242733, -0.04738511426369145, -0.05408754459245547, 0.03536134997248799, -0.05580571565957799, -8.508983348458789e-05, 0.10145767705105725, 0.1751900804271788, 0.1826905757917217, 0.08661331026543599, -0.1306121773352036, -0.026642694128101635, -0.026827674234876007, 0.04138381030381943, 0.13451592376270485, 0.1788874764677662, -0.03886947916922106, 0.015929192544040852, 0.11140093355669405, -0.08650095233219268, -0.03754774399605953, -0.024630276766772874, 0.1880541675478951], [0.24207617846915627, -0.05344869338257065, 0.08151024825926119, -0.13952629947430506, 0.2840106381480258, -0.15045249494473847, 0.016816286661478868, 0.1471879819365938, -0.1728183405242186, 0.02992459861439148, 0.39685130771239274, 0.10247782527736081, -0.050357443595281944, 0.04855866797822491, 0.03392990828036488, 0.07855226709375539, 0.04992868825822536, 0.17639414186074073, 0.07050197285002663, 0.047975785155428004, 0.21128859685138235, 0.042700487675115195, -0.09017238931839737, 0.006072889581146301, -0.09141812420056235, -0.018070468607879156, 0.10555369884885973, -0.04440293173624916, -0.2792307475868642, -0.09837990457498334, -0.10221331870547751, -0.0782246709629884]], [[0.08824810866436517, 0.07753073264278473, 0.056537865642270486, 0.03221792018187659, -0.136329844984938, -0.21597089976378608, -0.027980846368280837, -0.16369766696257096, 0.1848131428066397, 0.01058337456209221, -0.19636980826830028, -0.03321454757281718, -0.0004280305817076416, 0.11769146648944509, 0.08983472173777637, -0.08739055842318731, 0.05793526912349629, 0.1749419810123263, 0.048160711102741234, -0.053127457507435125, -0.008150037564007933, -0.11478942709483188, 0.07971306027503686, -0.11453468114101414, 0.06945437779776902, -0.020496334971831, -0.05682834707121368, 0.16740486519430853, 0.0023635679249536935, 0.017651878033944773, 0.11118210564679919, 0.05288700851437377], [0.009813603844634047, 0.07763237612975389, -0.12080554410023654, -0.029291599382100277, -0.18644312829943385, -0.12676472648417783, 0.06886359981456036, 0.075883069362735, 0.07431990274319256, 0.23400998877012208, 0.20982258909787005, 0.06807591388345391, 0.01843408064678128, 0.018484310357428244, 0.10296044941075044, 0.1313210492310521, 0.018664384176720752, 0.050246439957905585, -0.07325949496592139, -0.15033413856244174, -0.15453769515199556, 0.16754303064209597, -0.12018326630258742, 0.058534519275514806, -0.026805903365251047, -0.2334550722226615, -0.03215374305012659, 0.13607166663166986, 0.1332610976131551, 0.016612198315669388, -0.13543806602366285, 0.17683028486891275], [-0.1251459040360561, 0.006381802442923154, 0.13575899614241393, -0.0005653422346996466, -0.048677382069839764, 0.08683405515497648, 0.02182939430103139, 0.0289358438760228, 0.021649234014658885, 0.013336128448345724, -0.009780700415834898, 0.025847592392159332, -0.007268668586964106, -0.15699865925731418, 0.10566766040143641, 0.10571327545523712, -0.0212681377641996, 0.11162571964540784, 0.15244232688048853, -0.058096817369069395, -0.006116549042050484, -0.051555509527381124, -0.02231760640309464, 0.12748214170063826, -0.03495233710032722, -0.10338579091574839, 0.10110454915581663, 0.13728738152496398, 0.11754343655606472, 0.10939983669699847, -0.10573293943602476, -0.08394059070476353], [-0.2021711458904376, -0.10701275880458946, 0.17150404405308312, -0.13136453797710476, 0.11494675826462829, 0.25699024440756163, 0.06601538225408686, -0.04918570340898657, -0.36047872459847, -0.05302902496993686, 0.0690146219647356, 0.22641335244780855, 0.19118684036798492, 0.1602683469777584, 0.15366792085969544, -0.1407705428660608, 0.016829365569599436, 0.22431949054234182, 0.012532352318134075, -0.03163021147405071, 0.029473467834423766, 0.0254764597127991, -0.09057044295373969, -0.01834963633842773, -0.14717810940123624, 0.16203738116020294, 0.08629453360068104, 0.04862399405936299, -0.07628771196198776, -0.02406438786066185, 0.12475099692339937, 0.0659741725988693], [-0.10708380552057009, -0.020587540016713656, 0.0972558573147596, 0.024063863451338572, 0.013066796327104856, -0.20801427877238338, -0.2931476732512849, -0.08182670706942931, -0.05162733538054965, 0.041086226840656326, 0.13158914855149667, 0.16238426363023317, -0.04319305838167061, 0.14814149195873327, 0.0471058738861523, -0.04895724174651532, 0.061494564199918486, -0.16970061965829575, -0.18278452484178392, 0.0982227800932584, 0.12070988837695341, -0.42529794110327934, 0.14537578247317728, -0.13293916720471718, -0.09466076630718273, -0.0021588997219935775, -0.09857599015292513, 0.13863833798986322, 0.22753457276457653, -0.17001336385878513, -0.07097880908227476, -0.10552126697477159], [0.04413140337423144, 0.22590942844908257, 0.10218803494920757, -0.04060553030519578, -0.2519573056810244, 0.03510320537569705, 0.1774048317247601, 0.12098367641211324, 0.08163731327965051, -0.007180791005000476, 0.18812277944399766, 0.1886412014009241, 0.06569455552600767, 0.15701456751009724, 0.1230590146832626, 0.11363229346877911, 0.13919271637515326, 0.08030273799528881, 0.2290840340387469, 0.09595482911855775, 0.09330812450637192, -0.1297692749784444, -0.11934166555407771, 0.019683222053529063, 0.048470715596157635, -0.10467032360544974, -0.03787552044778058, 0.13134411969961793, -0.02662119684111948, -0.04620737399237755, -0.13704226519348403, 0.05465934004568875], [0.15020788858318518, -0.11691640452036692, 0.007927243056491166, -0.002117670426141537, -0.10697003649503223, -0.15920047994885114, 0.052967076275499285, -0.15758142478414397, 0.0512429068597707, 0.09781215436356272, 0.13754413270224702, -0.12549590362334687, -0.12050325650331453, 0.08332785819376345, -0.3407771048358934, -0.024448394866604835, -0.13241548200878234, -0.08416664708549411, -0.19224521380168605, 0.12400300268000686, -0.03054030324050144, -0.017141090140367687, -0.05862099948428176, -0.00812541484463215, 0.00602271253634492, -0.14029841200120216, -0.09856887722357972, 0.07988064872377877, 0.03819751324196614, 0.16421892996381346, -0.01704379769487086, -0.04021891453013885], [-0.20159247245291168, 0.09085455819945168, -0.057111657195112187, -0.01606170423828063, 0.032247748995657674, 0.08295714863657755, -0.01837182959925338, 0.15846541004195291, -0.19168595762965335, -0.09213995753570978, 0.17598395774668144, -0.20865399844411925, 0.26925854400686217, 0.2830360406909007, 0.12446063015645764, 0.04810803694656678, -0.019693336256548653, 0.14096795191555125, 0.10886754777718032, 0.09571939454491334, 0.11284209902814973, -0.04948136109795052, -0.024649493977220483, -0.1142876659401628, 0.004016123191173371, -0.04644180092157439, -0.08122717444639929, 0.0787978039197449, 0.20874861003533737, 0.08162729377696018, 0.041725287180300004, 0.3752297721467585], [-0.06548010707668912, -0.18503075751172673, 0.22110599011756588, 0.14154129093297274, -0.07164875721761198, -0.195830160977018, -0.03975124708800734, 0.003388600513899296, 0.05799753632157548, -0.07836185615353779, -0.12985956865157033, -0.13210203083533842, 0.06286954642536165, 0.007288185409346613, -0.28212974560712945, 0.14892680176706663, 0.012241701304529928, 0.14630810446095444, 0.04109082966198625, -0.00027562946278573416, -0.11407209981018063, 0.04202684407597153, 0.006625628024621752, -0.04780638565039985, -0.005438311438394144, -0.11444299100838724, 0.007950849902763802, -0.02887136192051041, -0.10429747244130613, -0.0014784425810617462, 0.07626751227776166, 0.08004351735907637], [0.12214155336169681, -0.0360470257854752, 0.002656620547889625, 0.01817799142178783, 0.04269011333820722, 0.02688668192228591, 0.015827891803535825, -0.0632696690566402, 0.11377178662966705, -0.03855797111677945, 0.043977849855145724, -0.027704210424432475, 0.006065341007309516, 0.06246722735871731, 0.08868118408254637, -0.29764880147252176, -0.017346449091732725, -0.11817370495352436, 0.17218579474492585, -0.23302684766746265, 0.034975409930262054, 0.07174935814366383, -0.027710030004110275, 0.10980817328109596, -0.2057435006607092, -0.18189141240716042, 0.17848593986555653, -0.15106582660688672, -0.022010272527826388, 0.16788538674681283, 0.09635023446802825, -0.21767808204236208], [-0.17396977609032493, -0.10503404766664876, -0.03949503060231888, 0.03817439896361682, -0.26614039648867704, 0.120960536868914, -0.0364890163537106, -0.1672729158548469, 0.06696338369104214, -0.008048354945839727, -0.10551793790644458, -0.11055954904041825, -0.027743077609453774, 0.27119795337875774, -0.20098598100660697, -0.029105147133937984, -0.11616508779785534, -0.09569587457287272, 0.029234782800599584, -0.0959498897350774, -0.18859501235387968, -0.139895695520184, 0.013996677708936518, -0.005787595814561045, -0.11809946414261467, 0.09217181736778671, -0.04447419646586915, -0.052243901595983515, 0.040146884482449345, -0.02683053583962694, 0.04634954802336715, -0.05088428115497543], [-0.15361366674737315, -0.2563061253532469, 0.14826549479794077, -0.3454268080607995, -0.10433126157193241, 0.07195338050450341, -0.04637340986409753, -0.09980839217341193, 0.1372093286838115, -0.1010876214663013, 0.04283001777316145, 0.40623672130452715, -0.09879465599213809, 0.004868419695781197, -0.09274623938694303, 0.11088952192841296, 0.0056969707386369, 0.14206585545635486, -0.0757502448426398, 0.05049861723220594, 0.049777093779787805, 0.09643022958465815, 0.02388605529925973, -0.06914029086741097, 0.12219500612214575, -0.06261366898493652, 0.15913873749733878, -0.01514860711844829, 0.08274272032790193, 0.07657651018619649, -0.0704838204250891, -0.06848391919992804], [-0.14482155960509874, 0.14993522983356564, 0.082986309191203, 0.08827872198145939, -0.019375320158797487, -0.1924080628419955, 0.08667642312513454, 0.004625866291857677, 0.21479914170361417, 0.10310360942264218, 0.08863904174196024, -0.028019865536695183, 0.09044014804846866, -0.08587980566901482, 0.13077811717078064, -0.17578059734338153, -0.017549692112889825, 0.1382721319422545, -0.10687793885535078, -0.0006060054891170255, 0.1653880041655085, -0.010526144634153037, 0.024787773585851932, -0.24598840777920739, -0.014124482078710034, -0.038965721184584176, 0.058610991806778576, -0.032965680115728514, 0.1795354046111217, 0.10007658567319498, -0.01810935058832373, -0.13889908241159554], [-0.05900868897705985, -0.11710306075629325, 0.03463490494279078, 0.15050166605799395, -0.1836664983583918, -0.07495802777779531, -0.11708150293427642, -0.09957323262116227, 0.04760396700746089, -0.19579296809955993, -0.045380443961626674, 0.020912880479827263, -0.2800158355685646, -0.03320246074286839, 0.04559885330434467, -0.0069277197861216475, -0.040776656873024494, -0.04825923046859018, 0.006902668001570825, 0.14668419127090399, 0.03366514706710962, 0.150792614967151, 0.0787317858568371, 0.020504177739322584, 0.010611659263607099, 0.2626070479720105, -0.09275948460246553, -0.07859557103317558, -0.11102863140270228, -0.002841574611279735, -0.013658684413484315, 0.02709030982382164], [0.007454526190053158, -0.10355505436569128, 0.09757858172776887, -0.04801784555528206, -0.041117497073042186, 0.017734892286829063, -0.0023545881963429735, -0.008225784477281523, 0.034131117268588015, -0.06830271607757916, -0.0749734801755095, 0.1906528378419237, -0.0267459840166884, 0.007795142436405795, 0.03431294108238579, -0.10332353595571026, 0.009950671398212268, -0.08548614125945554, -0.120884422235359, -0.2393593521280687, -0.07359873333390177, -0.07100466225087347, -0.005504809265875358, 0.03484174872746578, 0.08737029793514686, 0.02477147939007464, 0.07622039875848548, 0.053429948057724046, 0.24870588745822786, -0.0947108973986588, -0.10992843161507641, -0.1113116866287235], [-0.2571398558356902, -0.0024197901771023027, -0.1355932570017846, 0.06650411387154509, 0.02635233841000305, 0.1334124505391395, 0.13355654488461366, 0.024742942897090454, -0.1340469577394552, -0.15760177834285105, -0.1802345069588327, -0.04160925920893985, 0.15777668955302157, 0.04485427395958523, 0.043641945495360934, -0.1824584452846835, 0.05229848980466714, 0.1140723996974522, -0.053218060955752565, -0.0028564384977707706, -0.08523494232123922, 0.07171508661937728, 0.04485903037477625, -0.0907860494784299, 0.11767456056452427, -0.010967820081053653, -0.010295479822377994, -0.014362325354318235, -0.21319530179102805, 0.022811975030962238, -0.14469241760732868, 0.02306750599883926]]], [[[-0.09745003793601022, -0.03533595604981813, 0.03051680190010849, -0.13806305059235263, -0.09916475054708716, 0.074415422941863, -0.06495921080381203, -0.02991669971725577, 0.3072672739260773, -0.1353799533745111, 0.07935466510769634, -0.13534365988264688, 0.18194221029649196, 0.030448488828074355, 0.04674530062334337, -0.0945879701875107, 0.052630575114450046, 0.12232249331878331, 0.03817234097580418, -0.11254811551530078, 0.01054253713997684, 0.14851062217783928, -0.13886186132595388, 0.06911169117406453, -0.1163338182955781, -0.30793273268657934, 0.12280988873173061, 0.007513106221650668, -0.1996343869893183, 0.15065936964589527, 0.12036740363299166, -0.08655310092117426], [0.20643174737195977, 0.08503419057812188, -0.27732020360274895, 0.06725953323024304, 0.03373069937493311, 0.09304348181602473, -0.07385939288630135, 0.16172768359776732, -0.06033533872587014, 0.016203991938253556, 0.017937791228866344, 0.26937573481789917, -0.023396362481892616, 0.09288248129673755, -0.16846293947938243, -0.017263682409193154, -0.10803486171260986, -0.010146884420330637, -0.03797046832652457, 0.032536220808435566, -0.13320302128381661, 0.14655852631042543, -0.05307750874422405, 0.01024950347831494, -0.09302215211695573, -0.16680924387820092, -0.061931546241344955, 0.09462639750949454, -0.008922701570566636, -0.24166414827864985, 0.006269802481181331, -0.27589072174236795], [-0.0435454657382868, 0.20266792758228386, -0.18776229962503846, 0.09729739202389538, 0.01756034682763011, 0.07026702913744523, -0.10601755483502102, -0.26173473716013795, 0.08517829249092834, 0.020360037212924887, 0.09174974491848903, -0.10161281096567527, -0.17708817973098862, 0.05691499662436977, -0.14611958205826814, 0.0019839203859458782, 0.06198454399704718, 0.026232551138085005, 0.01105489176446994, 0.029653527922072712, -0.010565691601440896, -0.05327264316596153, 0.053348744544462354, 0.049808801372319356, -0.012930220788414706, -0.17192268147267187, -0.09269671545865722, -0.2585048976333246, -0.011409820332169652, 0.04773463771739911, 0.16682666979278338, 0.0660591416543064], [0.1007842200219706, 0.18344634202287008, 0.13150408891055188, 0.12910679677821454, 0.2586535688399089, 0.019725452381136266, -0.062356353122798795, 0.007591167044876952, -0.018391268448359414, 0.08238261176502436, 0.11367525608772153, -0.007463925193909478, -0.05609236731723119, -0.015606285868403897, -0.09362764499781963, -0.031857046789218704, 0.13447123191332122, -0.13784777596092515, -0.26417633603932666, 0.011182219804109344, 0.08567693927884873, 0.06753147264085801, -0.02073385555099558, -0.04717289618917135, -0.21245734216302947, -0.15784766311167148, 0.01659619175016245, 0.12253420884459411, 0.29553515684164533, -0.01849373897393514, 0.05070034413321894, -0.055617538388450495], [0.05854522493374481, -0.02225949847994293, 0.06510125372271314, 0.015514112448973787, 0.016584969885372825, -0.1130837548824166, -0.09682345170776004, -0.15790876723870273, 0.002393309039973191, -0.0038731729874508683, 0.1581203466724862, 0.22746915024111203, -0.039173439644296815, 0.09711566306475729, -0.0750664738613694, -0.025361683413851335, -0.00012953796572984463, 0.1687546397570363, -0.18104023334370647, -0.0951321716981578, 0.0209513829385029, 0.09288874870535267, 0.030532118712464997, -0.0735974586696487, -0.21474209562734595, -0.2054709186497984, -0.14117383185240942, -0.049875707114706125, -0.11809771053497473, -0.1480571552238876, 0.14745385340057193, 0.07273102260143449], [0.08247501454734794, 0.018317858755615604, 0.0971294393384261, -0.10008834037628764, 0.14481295962449062, 0.062050323946417914, 0.0977722876055157, -0.09733456025409859, -0.030490350127515404, 0.3086344063558653, -0.16164653625579534, -0.03653929909168878, 0.07143126088078952, 0.05771464084427097, -0.15196418601964284, 0.11356985674224736, 0.03956649604482576, 0.07585112974169317, 0.14539520131208947, -0.032503793886504456, 0.021500561716959105, -0.30293882263122307, -0.18800219117457387, -0.08924519702871453, 0.0865103505331152, 0.01698894812913167, 0.03732974631024811, 0.07159378314465259, 0.11122138477164474, 0.1885731230971303, 0.10067383652615775, 0.10463489343349416], [-0.02102109216501321, -0.029920820495618297, -0.029347439653742965, -0.11063518946780573, -0.08947398870264836, -0.08247817163974289, 0.04965984003098323, 0.027240680456268224, 0.032116624020861455, -0.16041906307433068, 0.17717403997922412, 0.04486929849666218, 0.04308622165651782, 0.010089510194668623, 0.1277587304107255, 0.04644232215738721, 0.04772266911330691, -0.17916278151418932, -0.10960465424654481, -0.09581466941730885, 0.12090425167794638, -0.08876565681200144, -0.0038273837509817045, -0.23381103334673445, 0.05360967965913211, -0.018728904404480568, -0.0214309815852283, 0.12453173811589088, 0.00018664259994991507, -0.047929401363012644, 0.08280889825228176, 0.05574003782626418], [-0.020404442303709715, -0.1124809176573931, 0.19658765253013186, -0.11227201193479662, -0.015204665943791941, 0.2376694595202024, -0.09664988057172558, 0.029572910953088484, -0.1200445807363534, -0.052350794260291586, -0.13790556132095655, -0.1206266691924259, -0.14084448322406828, -0.011257451529184715, -0.017891192742974057, -0.2155702684428708, 0.15155186468218412, 0.018521914281722906, 0.09313064069849397, 0.13017652941663327, 0.24371067114193654, -0.02796032107180119, 0.06622604068556921, 0.12169338082761934, -0.11630929078017474, 0.01054635978789791, -0.06780304977032409, -0.20004878453565175, -0.14799055441183986, 0.1248864414565093, 0.04075463377288691, -0.16062758125626822], [0.017031173071981886, -0.18130865608458835, -0.03278885741280481, 0.1523042546686977, 0.05886627688812668, 0.06566848477996723, -0.02920172364718728, 0.08076107958591186, -0.05696415596254822, -0.20393838502999226, 0.263324149992329, 0.10215428385797432, -0.018389936941297695, 0.11797237893571569, -0.0005910469687766989, 0.2898235104841091, -0.08663307308671353, 0.1933965917299902, -0.07262174275585703, -0.07223978739367688, -0.28027807846814534, -0.16573701804429372, -0.06321019880885588, 0.09342046498072915, 0.03759840731778042, 0.06478729132326354, -0.2620437243507677, -0.028181947955876283, 0.0036175080296349483, -0.05856000169552616, 0.11504838139381998, 0.15723799205852085], [-0.13389141273210717, -0.18160359547987348, 0.21024461890593674, 0.014340826558786976, 0.07096315144780423, 0.17112016549041956, -0.027882841689051363, -0.030796220038824196, -0.035584427637374905, 0.2814901264115236, 0.24538115589011014, 0.07934214367201442, -0.11840410450486616, -0.056121448924700335, -0.09206860729177153, -0.04009073993477536, -0.055657341122677874, -0.000970782939989299, 0.026164789602219376, 0.18249961561227346, -0.05129497327448716, -0.03389865640459859, 0.11695150362958104, -0.03421019497497324, -0.09072284030514013, -0.149253612806256, 0.033430595309377614, 0.0994279893873516, -0.15272718693632883, 0.06891786835658648, 0.18287518445299555, -0.08819398338893593], [0.07715980238258778, -0.07962172522954064, 0.09998792019607378, 0.18680997813156894, 0.18691662476506857, -0.018654361396421633, -0.15190962461916666, 0.09094656855754708, -0.08258295460978428, 0.05720027468395875, 0.16974342578550863, 0.023855796280240812, -0.020166457125922098, -0.013253153044465971, -0.13848434471518398, -0.07264859625646361, -0.09959431471326369, -0.05429516755911995, -0.07979545685436494, 0.090879513390453, -0.08559205828794185, 0.0005238403764700175, -0.05456229413848933, -0.06516180971629584, 0.1555314263765086, 0.03553776760534302, 0.12838026545884482, -0.11821671962271117, -0.056072211919367725, -0.07751472032407904, 0.02924726478791084, -0.1095710532183646], [-0.010034485236665433, 0.09074044011088252, 0.04890678808822527, 0.02675142411196939, 0.13529475396222604, -0.02721140295274915, -0.16078638724366223, -0.009582110790844037, -0.10847168238143091, 0.28098628256458347, 0.07676693498523085, 0.0854955801975824, -0.030186663163942713, -0.05637190999084968, -0.06333439752655302, -0.2631544371940582, 0.056543944584818866, -0.08989414965231453, 0.09236466616405785, -0.05329357008331175, 0.04118895950214796, -0.2440554330779783, -0.1640924334656812, -0.17394993591175373, -0.1314243644228697, 0.015714076913430287, 0.12268974099676613, 0.27145758092299105, 0.02557520877100783, 0.04772294595823598, 0.06713247924169446, 0.07165662221935842], [0.01851518406755122, 0.04642592539935474, 0.10677664944207173, 0.06416737937724604, 0.10401463310430817, 0.04988318417942815, -0.01303294489103558, 0.015231388398177857, -0.08157277699961549, 0.018584813728714667, 0.1980847142754608, -0.019515125074257022, -0.21344735694929892, -0.05507775240092648, 0.01642710048080644, 0.16133661058025578, -0.05387080912125387, 0.115125513007975, -0.07016641771356152, 0.1367996135439741, -0.057198456344342785, 0.025645856666476268, -0.052139322839155074, 0.09221485028100751, 0.1604468747854664, 0.049227334618702094, 0.16322242717655827, -0.05846568659989414, 0.03356309554482177, -0.11479445868588481, 0.04270715720202341, 0.05275587873010208], [0.11499683210647375, 0.0781876526981051, -0.15658904842472296, -0.14498481218641643, 0.08553666121428952, 0.00732313645963257, 0.08544607944685764, -0.05692264882818842, 0.08235630008309573, -0.20159512851061354, 0.2822268191250502, 0.04405669026570094, -0.1257475708095815, -0.07727857778593084, -0.2411178509039918, 0.15773937457946674, 0.031522739601106194, 0.1985662654692617, -0.016484571434340657, 0.04893990290315574, 0.07698716240710167, -0.2078322154707252, 0.2339211303079068, 0.1931561276192416, 0.08473762877180395, 0.06359806216829478, 0.08373494191143226, -0.15486543189970917, -0.009154926569675937, 0.09993025521728206, 0.012195569792026103, 0.022380156523859118], [-0.015533778397759162, -0.12633697565225377, 0.058042200951180775, -0.0726149719991023, -0.15456842239981378, -0.14914271357590414, 0.03026093548966575, 0.05065130490533219, -0.09916783522168111, 0.013502906843089768, 0.11383673622368143, -0.03276532820320737, 0.12501554936699288, 0.10011727334208155, 0.13637946976805215, 0.15863256801270012, 0.0653584449073399, -0.09851382468594491, 0.06419520748143447, 0.26600996944740096, -0.03731319847337997, -0.175173723886712, 0.014757899936816608, 0.07273422626710471, 0.100407698918327, 0.07974372023312098, -0.057473298187389645, -0.13863509614802225, -0.16421673324408856, -0.12373627496449957, -0.08791888361923296, -0.07561829109326697], [-0.062378954973949546, 0.011170609995457931, 0.25220015007909413, 0.11915662166837053, -0.08429181939525277, 0.03057514156036437, -0.14840933738826526, -0.2194768572652155, 0.1327371547918293, 0.11875784964147204, -0.05774437296435611, 0.004322598573307463, 0.032069343163024296, 0.015211181236367886, -0.03411897217398887, -0.16433929670844416, -0.029469017141470124, -0.0571037310461997, 0.10602709806692955, 0.03876136193352113, -0.2320666660173598, 0.09545100130957351, 0.06907112044356795, -0.017932522127060996, -0.19697212211586632, 0.06494063281212463, 0.022919375116791516, 0.09789765842913094, 0.07323966391201708, -0.1905485286574202, -0.02544391206363337, 0.060412689235879016]], [[-0.23184234431724685, -0.3315955723243706, -0.015431824426287122, -0.013746996376384253, -0.08853763634556962, 0.09702890142148467, -0.08756138415662716, -0.0645706899467069, -0.04532992967294725, 0.09855914794982171, -0.1374837276876829, 0.21352621042615333, 0.20808670319560085, 0.07390830160786732, 0.18162489330069145, 0.14099170021446003, -0.16624254628120247, -0.0729290340273314, -0.042701599195081, 0.14015446803442713, -0.0514227066471626, -0.08282111051045246, 0.12324108517825641, 0.06788999323974011, -0.1916605740993874, 0.06256784834971126, 0.047428305768635166, 0.18045105225979108, 0.0347266624846897, 0.07803835646519898, -0.025103968569235458, -0.054617661371989604], [-0.006344543277482713, 0.1486873740474685, 0.21902748737802585, 0.020845915021087003, 0.276972912411062, 0.09903852628851087, -0.06593236426120179, 0.08449376345982203, -0.15048224489316622, 0.25070623241904566, -0.0331169170555863, 0.12063085402830434, 0.21454121717155114, -0.07404764713101192, 0.23402534923256701, -0.06277924571889018, -0.13497270985458487, -0.23181830030143685, 0.02009553382262288, 0.07969272655994816, 0.0896011776270697, 0.14069031125485007, 0.014152061521647216, 0.08378963899834006, -0.11253735287294489, 0.012712347644998396, -0.018000956196958167, -0.09693056132810096, -0.2885405168985635, -0.007594887601057174, 0.06485931659521614, -0.24033748074928593], [-0.06379397772518904, 0.015708291059445986, 0.12434453328426695, 0.1725059862086143, -0.15648305905614884, 0.35706214897446, -0.038080350934830906, -0.012148810643198617, -0.14165390848370588, -0.048492452062782285, 0.02172448468095203, 0.35236734066091646, -0.11479124261963165, -0.03395714350146124, 0.07981520606165227, -0.22234223227311126, 0.05849090856804314, 0.09948786565871234, -0.027876156853334305, 0.1673009436329958, -0.016641526187758122, 0.07768072541432686, 0.11113045565978463, -0.17678930921765662, 0.17678052179292858, 0.02916840759113335, 0.067877536273391, -0.2884124005747682, -0.04461229225790508, 0.025607582144449883, 0.018221680966668995, 0.027337740588783518], [0.02175676965474479, -0.011973495487153613, -0.07276425672689765, 0.009002742854332179, 0.021441887353816042, 0.18942384323567854, -0.0199065205059888, -0.0243865069031327, -0.046482638152348994, -0.05111105296614912, 0.19080509433733112, -0.052375805988687955, -0.27435056904649047, -0.07567239896073419, 0.11598363348653307, 0.1967315219869299, -0.16145564143883512, 0.008023621467785597, 0.14803498644247895, -0.18881306912514884, 0.05358357070606319, -0.08876613717011077, 0.07611007481086113, 0.034622654350983224, -0.14308323308795154, -0.10194540459556925, 0.14746301707192258, 0.0013908236666593191, 0.026085860092146966, -0.1539176855345889, 0.04797062857294419, -0.19556057691549544], [-0.18029354690006322, -0.11085549858532386, -0.15600355921042217, 0.1662387481757533, -0.20149772988685047, -0.038449295077505545, 0.028213472311161177, 0.052349064590612525, 0.05657056045080818, 0.027414188015584554, -0.23292476482382451, 0.24029250736064742, -0.16309385723098152, -0.1220879393848486, 0.09021801505805521, 0.17485449786581694, -0.16817040826900942, 0.16494838710019788, 0.05330288069802579, -0.1795573178366405, 0.14700271640551144, -0.064588372716401, 0.1508674335535119, -0.01564639948633523, 0.11633687081839265, 0.04842229538387012, -0.11536495473329941, 0.30842095015850163, 0.05950416715903654, 0.08431252986306698, 0.2442958508368049, 0.04815378658957832], [-0.020919887111211354, 0.0260405615241116, 0.16631310996873896, 0.07697893240800321, 0.08214411243371943, -0.14736051597755404, -0.3277774401910232, -0.03306641897099416, -0.05836387598998796, 0.0960843901224183, -0.1081047670382365, 0.06487113640221967, 0.13573423181374528, 0.0643524339996438, 0.08978625502592713, -0.060921874499370136, 0.01005996073968306, 0.03977329630651838, -0.05534465305242158, 0.019133148962079467, -0.1123797111638752, -0.12978304905871765, 0.10170937653316085, 0.08112446260522618, 0.006129172600408711, -0.004441505474379864, -0.03378098916381789, -0.015998693718205028, -0.11291220874856199, 0.11338917168679477, -0.014886470536835854, -0.08496510474432203], [0.02983713918882685, 0.05016407261330593, -0.00325388952834957, 0.046208109955664475, -0.2834371398771034, 0.0351913927532498, -0.11984269986945564, -0.06142465660430756, -0.0474747449321672, 0.1074380248108229, -0.03129788228465252, 0.10768731202569286, 0.19260771050585454, -0.023118431685282867, -0.13001937787899473, 0.06120895549221392, -0.06238642522277743, -0.10988508927453747, -0.14588867116566562, 0.08594237346220497, -0.03640698794302958, -0.008080441787611425, -0.012648623885224997, 0.18364279836634362, 0.20688292860403218, -0.09774050667572001, 0.2546022060253357, -0.14549215345210909, 0.12175517708388521, 0.018943138729867897, -0.022415437561220466, 0.1178144763586735], [-0.0637242977690944, 0.10627405557969598, 0.026001473977474942, -0.0572203209470287, 0.07866033464312663, -0.13973653297849467, 0.09693144713564882, -0.03175232084470314, -0.04822982447906062, 0.009272897238665248, 0.0607117491436962, 0.057261824699244, -0.03734267453375123, -0.06548961926093047, 0.20270641559559877, -0.05974621183531075, -0.0399847101449413, -0.035816356227724035, 0.03354010746908382, -0.014028989566014194, -0.1670094278430319, -0.06280644119039264, 0.0829047920957179, 0.01541270498659295, -0.060379261452568375, 0.09178008998767512, -0.051952740604050245, -0.1427187566285359, 0.17047693180325382, -0.1189699165183091, 0.06488298687330654, 0.03369696524585831], [-0.059788797741940625, -0.006722163770353883, -0.05948382476410324, -0.1812399951310782, 0.16141021806011402, 0.009501374605212373, 0.11688003383689799, -0.030135927126628534, 0.07201108562426667, -0.023621425456823133, 0.06039661307628872, 0.19087156262903343, 0.041016036600793865, 0.07778958628631487, 0.015573214006756621, 0.131191335567189, 0.11559979912316903, 0.11760719635179631, -0.06029034706531954, 0.017673314285553184, -0.07902105153125176, -0.08931034860080775, -0.10499535120056952, -0.016252329748624752, 0.13175750138385725, -0.06843543308840992, -0.09117039703991121, -0.08706994411077197, 0.08322246183103262, 0.0012705725255164734, 0.0775439988043945, -0.09933690653955084], [-0.05021353740063546, 0.17040966083390444, 0.07867056848090948, -0.28865061519075036, 0.05236406162973615, -0.051298725348596905, -0.07668682072809863, 0.15353227832301852, 0.06002006186558343, -0.08815775368537002, -0.04333481334439386, -0.0493745327963105, 0.12160829809826706, 0.19745189063862426, -0.1393178411252122, -0.02649866629019111, 0.19454625823609686, 0.03847687526461123, -0.10035282963374978, 0.040555426895031256, -0.12890840940804413, 0.11468456033171463, 0.11157136604037309, -0.13109931587643647, 0.005799246558058024, 0.16937832439626221, 0.03756350243978444, -0.0359630531354017, -0.1264983488604706, -0.07904178202930254, 0.07987891061697186, 0.005500401939628891], [-0.04750703750017477, -0.06276768442701515, 0.044228706206078404, -0.024224970993000618, -0.024638700952936233, 0.031728780891798994, 0.0010644188755129034, 0.06014778704156283, 0.06811078620580956, 0.1374615298628119, 0.07904352691553324, -0.07552906990709833, 0.14349347492530862, 0.2637116617909078, -0.17925329495359407, 0.07971810675441993, -0.1036457434904169, 0.14494105929363668, -0.16061200018054192, 0.013859369402933844, -0.27204892919011625, 0.01988925291569082, 0.06815276827533016, 0.10942446084541027, 0.032563112144720324, -0.03463537140534131, -0.00582631976235854, -0.062266012108867445, 0.05632563192952704, 0.0760546159033888, 0.06522910890061305, -0.005737969604326618], [0.23984017571400823, -0.12775070283117548, 0.006883934542726515, -0.016654290575078577, 0.03779189369215732, -0.06422744827231737, 0.25521185399641194, -0.1047969185975726, -0.07274782549532788, 0.003957474982771319, -0.031201930535437718, -0.03262221800892922, -0.05500730783098135, -0.005168907637526598, -0.09851898759721553, -0.05876011571046794, -0.018683277716439496, 0.019850053577833544, 0.17387565003539324, 0.006553053773269176, 0.03558166263289438, -0.12330571561077575, 0.038483890551128073, 0.07633623788508638, -0.07908102740354657, 0.18958141191704475, -0.13936250439200162, -0.057697977494657465, 0.17928059976202212, -0.11393693252177205, -0.054266355297100353, -0.1404285798701181], [-0.016577554743045265, 0.20156565793947287, 0.06716807024617702, 0.12482071212193792, -0.14607047517248214, -0.0811935303074661, -0.021622529732859778, 0.0627171037398516, 0.010257746090156214, -0.018310311468312843, 0.024551972272527492, -0.018989288053609735, -0.12397344405643818, 0.11977451492891145, -0.14459296391602783, 0.01129465347043449, 0.13754470056409632, 0.16278458093856085, 0.1430763971304937, -0.1513359287000029, 0.17837176395478957, -0.08498169840504663, -0.042484100871838966, -0.026906990633480666, 0.12398081272850284, 0.049968964036142136, -0.0267984785116844, 0.043887941461529446, -0.17816616558664689, 0.08735064695683814, 0.07064498914574942, -0.057909487504404014], [0.08251412762308907, -0.22249741768733344, 0.09329497153626833, 0.10836638140472996, -0.1041653353583761, 0.14367859175692166, 0.3399783937256734, 0.049825635863582664, 0.03559865688381803, 0.0012890000953107406, -0.006523165151617158, 0.07094863297662296, 0.08355019231768923, 0.1454617536872009, -0.03497070031083124, -0.07553312229870959, -0.07073045791123254, -0.010604488787702506, -0.16848952070993184, 0.017818084117645107, -0.22671172137253937, -0.06364902564450037, 0.09120391275453532, -0.024775910980969533, -0.09191150086910622, 0.055409505987799736, 0.08474460030660305, 0.09821402284877892, 0.055775272397356634, -0.07417890493974004, 0.0977805902271853, 0.03478120506807121], [0.18648986898821837, -0.22496234249618718, -0.03502265092398795, -0.11569424347704214, -0.2947107353317374, 0.008272591580688325, -0.09915389515200933, -0.06703504555894535, 0.039728759077577426, 0.02407102224437198, -0.010951114524802512, 0.012857550922873663, -0.15379821583527684, -0.023891786941153317, 0.0666667116314393, 0.12582297182779087, 0.05690011497278849, 0.09404607511313602, 0.03955448874848855, 0.3515354238331387, -0.07481445850691651, -0.09663975882533596, -0.016034728624068392, -0.05397388552640525, -0.07644362715850779, 0.030501908539501982, 0.022646096561443705, -0.23795214010561502, 0.175572195603036, -0.05585221997716486, 0.1820097514721574, -0.07899149685234179], [-0.04549702348782534, -0.010659654590448644, -0.1770679953002283, 0.0033389553111686254, 0.09889822802893018, 0.056473399524500145, 0.1887723457561195, 0.060855830192681655, -0.16504267226994515, 0.07022139381622161, 0.04289404148988663, -0.16497627558937156, -0.09884223922753108, 0.09321109796069522, -0.11019356222237897, 0.0880563632997983, 0.16109743900707496, 0.07806349756188308, 0.009630720682060282, -0.25393609938095724, 0.1006351045365609, -0.0887659646863268, -0.07473323535554181, 0.1762062301154316, -0.06033410313728953, 0.033047627716065175, -0.1723780619035712, -0.11384118533532299, -0.08964084991391548, -0.0984567705514248, 0.012130737048856826, 0.05097799711281998]], [[-0.00878551662783188, -0.1814993123904334, 0.010189311656382425, -0.04337128947185899, 0.09032359546819659, -0.12450707582131398, -0.02554124726934946, -0.022415330580656916, 0.12074400789350907, 0.1259030705591038, -0.04044103709304847, -0.015929393736396173, 0.12502423359483064, 0.022212126868758945, 0.2087897066304826, 0.14186298998910454, -0.13053677436308997, 0.35969483167968197, -0.054995442214554636, -0.1710353161722045, -0.14290747893290018, -0.0027806774906372353, 0.06250590914396967, 0.006766207003417024, -0.06752548677076148, -0.15080655322445813, 0.21592689712046204, 0.13966161129841773, -0.07918176002960545, -0.26541549390159064, -0.14969707569812946, 0.04119293017830016], [0.13894777533051508, 0.03648826934118053, -0.18273731300993434, 0.2002116627736492, -0.06078979698573229, 0.018714310531436445, 0.2426556036524583, 0.07171498824879012, 0.08690373106195033, 0.10242734507992074, 0.06754917124597701, -0.2606613535248054, 0.08177207632011671, -0.00358467057341784, -0.270775409385242, -0.04952398061566874, -0.12464937888425491, 0.16066330331437473, 0.033499344202559726, 0.08654558944544542, -0.029954560805296748, 0.053671694606586745, -0.07518911792359835, 0.015210010822508318, -0.15896010018847803, 0.20214029375646866, -0.07644449801925667, -0.12034983595001005, -0.2541160081270921, -0.11299086662192824, 0.0721937942451024, -0.2635797318544421], [-0.004742788073603636, 0.2434712799691299, 0.011755328956077693, 0.3537533363575166, 0.16033799770888357, 0.16247550542985975, 0.16698098291565902, -0.15394812119370874, -0.013133596068131994, -0.04217277254863134, -0.026345360055164267, -0.09351240381319324, 0.06912241813141569, -0.1408731541188894, 0.023799726429611544, 0.15615565234589043, 0.21308307349429698, 0.017942656744233027, -0.30156421782098036, 0.12167908359628991, -0.016693491489364855, -0.10461706996240096, -0.02811606765281907, -0.1636866360078061, -0.11544985841846787, 0.20793474786656957, 0.18705720413992286, -0.11041247749061284, 0.06723216103757094, 0.09011998277009174, -0.05009290943362041, -0.19870919555340835], [-0.268836274133064, 0.10269523459507036, -0.09420699445562669, 0.09691492729875087, 0.07891647084498805, -0.030491169334903426, -0.16971256177812055, -0.1435367751390228, -0.034253467413352966, 0.08454199665522535, -0.2045526509095698, 0.10051178224287656, -0.015056046932828642, 0.0536379600540291, 0.2152404148594594, -0.005435229101309483, -0.0030239610023513456, -0.08748663883835685, 0.06775128867976729, 0.1548620514697744, 0.006265970673571833, 0.05114886712272647, -0.1166744727932329, -0.025076919064761102, 0.18093956982526352, 0.02998911901566761, -0.022730492247602388, -0.10840786709840333, 0.07911082156324302, -0.13823251671206047, -0.08861006616623136, -0.0591556811229497], [-0.10379492490498385, 0.03586402231610782, -0.08124896344779531, 0.143251916125887, -0.09261544884115133, -0.16168756276362345, 0.17608708585545838, -0.07348334939999793, 0.012555971593100802, 0.01799119811887254, 0.004107387550136839, -0.18189101020717854, -0.039697963287296564, -0.015935606753970266, -0.0643892941819808, -0.14731356928550302, -0.024054930255548855, -0.22141822434821126, -0.007127015510250767, 0.06965568722077735, -0.11955101456761283, 0.04167763230436124, 0.029842104737274746, -0.0334981348035548, 0.05273978474449579, -0.009092922427858615, 0.04628145147700876, -0.1400145995749863, -0.054697285791270076, 0.0073276608183409945, -0.12397147105204315, 0.047382253037644456], [-0.16179827448642847, 0.11568286732689213, -0.0912959036370333, 0.14663917643038518, 0.036657766219992644, 0.02147412134290329, 0.028176243100893162, 0.05616825166793197, -0.12671758788153714, 0.10111428640649187, 0.17373907376198572, 0.2565303495983167, 0.007923409955609187, 0.10706768279629737, -0.13631283466307348, 0.0016889830327858216, -0.06714358311850016, 0.24704254485701668, -0.02943759041762745, -0.009357592716205154, -0.08293306405048405, 0.17849076195855892, -0.1263778699547453, 0.22718876508076247, -0.1967254750343144, -0.26993752143448746, -0.16047279398745, 0.15069627947381378, 0.09031909087019847, 0.11727613186348738, -0.007019040610967904, -0.011522340146507227], [-0.14265549341843264, 0.17841185478633736, -0.07809722817734702, 0.021146795006735955, -0.11690465138264912, -0.053998874207318824, -0.09453260061043654, -0.04739021363146045, 0.0690743570441607, 0.047801591490039604, -0.03449401195887118, 0.14523694194126088, 0.0767257857193057, 0.08372602043751971, 0.11375479991609244, -0.13948931002473378, -0.07295343613719868, -0.0687438669859022, 0.2007714797483407, -0.23884640828442907, -0.020364742097922463, -0.26679504244861296, 0.09680531469957834, 0.06622726554028274, 0.04569915449821004, -0.14377561779939582, 0.045986873838441945, -0.11356186894528404, -0.011054830844308763, 0.06956140357521148, 0.02304663261781925, 0.031901503107224935], [-0.12080941453919183, -0.04649323248511475, -0.13576231699813476, 0.032396059738563354, 0.13745929112870287, -0.09571510582787486, -0.03511927117650498, 0.15098306462104497, -0.020281366641256564, 0.032096549928098204, -0.008739966103177973, 0.017735760171233076, -0.060687356523564065, 0.1009210488966422, 0.09316747408245722, -0.04807607722914517, -0.0492225521001208, 0.06383271588927604, 0.15135401095914305, 0.13002159113390757, 0.09274143917968292, 0.021599286935846437, 0.058544734392107424, 0.21337745419881504, -0.03132782654267272, -0.10540883054495283, 0.10076749715149393, -0.025276874643627555, -0.03718489889905064, -0.14590670036737993, 0.14403483685220853, 0.022465524911355478], [0.11169710628020656, -0.05825146530894078, 0.016270843151061063, 0.04755415240832974, 0.0485947094844968, -0.09486389797068236, 0.20738603225683572, -0.2100167711661776, 0.07136577103017754, 0.18375622011181655, -0.23802867991332755, 0.07323039703232496, 0.05378297061543952, 0.021352541046664366, 0.015917511468362424, -0.039229057160487184, -0.0015705563959394176, -0.15098274600580933, -0.23429233605258953, 0.011795178138595652, -0.14957718627774175, -0.2795356493306552, -0.12349990859101746, -0.1858102954476399, -0.0670158631596942, 0.12333621736530312, -0.1540218058902224, -0.0413311509038153, 0.005208340000382102, -0.12815683352803353, -0.11658344491951624, -0.16156205170931212], [-0.1405150640933707, 0.13735938742354503, 0.06110408098188234, -0.0060712353552258855, 0.0481888845795759, 0.06726032936013263, -0.0574756682805027, -0.10678894407131806, -0.21298779434142556, 0.13815624245729133, -0.11213143598650005, -0.1069370016140265, -0.10298264204452379, 0.07023196289842708, 0.3919760616816393, 0.12097985331491973, 0.2729943336977685, -0.031029634549423268, 0.1002926914523911, -0.04948549349462308, -0.004550623098822606, 0.13412816905121513, -0.0685511627456929, -0.12893765521206976, 0.029703856894693202, -0.02284152120762621, -0.05772819131217431, -0.03069854098870711, -0.038421144483513935, 0.04118451438400247, -0.12452764032707062, 0.2249932859961162], [-0.04536798385197048, 0.19188164024694324, -0.08779395235069014, 0.08605412633951774, -0.0033151846699006095, -0.07046363939175437, -0.1007290613525026, -0.026890971575024254, 0.26039582932977046, -0.16014592709941466, -0.35205197899621465, -0.06261861942671684, -0.0064432715007133835, 0.16879020041729254, 0.16250587673120473, -0.09779600508596872, -0.03129008002077208, 0.0022622842268294465, -0.034676491906519565, 0.025464595331429463, 5.543369313895548e-05, 0.1436114642271835, 0.07958313931867511, -0.14680408298409817, -0.04449901901796012, 0.025267616010362332, 0.059085284643733305, -0.028549865628859736, -0.24631712791091284, 0.016201428798892303, 0.02213397254552453, -0.17657711481962057], [-0.03763102945906141, 0.013467510227576269, -0.1207857141076973, 0.04474233010350016, -0.09599344582760402, -0.01096952653171312, 0.05147120244130731, 0.10366213067639089, -0.07231737861172666, 0.10207117991602202, -0.0027857323656589536, -0.00803847542509275, 0.16136720165479115, -0.1101035368965606, -0.1482044049759822, -0.18024500055300938, 0.16311171678568237, -0.05472384251747141, -0.13049234597333417, 0.18374892075315838, 0.00906303482965752, 0.06589330405424217, 0.09109423785314129, 0.09827475146915551, -0.01817329259122699, 0.02558634669528469, -0.14561072682152146, 0.17092808595983425, 0.12275953617502504, -0.0049819823916069424, 0.09753961471678345,