{"conv_kernel1": [[[[0.865549163116022, 0.09317988902650395, 0.15155190396108892, -0.01098766067621586, -0.653730344472782, -0.10300121299457127, 0.28827653722132396, -0.014115436339106694, 0.08164470142885735, 0.45421624229976654, 0.4312808816019814, 0.740425954618273, 0.7216449455135238, -0.08169395326944487, 0.16668197605217325, -0.032104040282765034]], [[0.4421442143292174, -0.5995344997052812, 0.25031791826966965, -0.6572029927830612, -0.9073393035235359, 0.65791216228731, -0.416277456781027, -0.16359784666897031, -0.4545484781275495, 0.5128762308071038, 0.05791311545075729, 0.20544399354328305, -0.4826977794734134, -0.4541014964782876, -0.9390274536050497, 0.8816761422989703]], [[-0.5574431925505482, -0.2156154320065433, -0.20776839335194253, 0.38451574584513676, 1.13029787498836, 0.25889111601232767, -0.40280234755647126, -0.42915624159886506, 0.20094013714461645, -0.6261904159600069, 0.1661926583107434, -0.8098636047071222, 0.11210265620950526, -1.0175508702976988, 0.20304238379211856, -0.3144237364201969]]], [[[0.10858250476449872, -0.48328469074471897, -0.12348522058700666, 0.7463840032931665, -0.321250808176192, 0.3657054234763411, -0.30695757761126563, -0.2677971156635722, 0.7314196282167542, 0.1848510085816229, -0.5423728328054487, -0.8583430779717798, -0.4358229791324412, -0.3768225847527042, 0.5032432612415221, -0.6890783983037563]], [[-0.019182995389570055, -0.7729230231622773, -0.13460584355482214, 0.7370503958517853, 0.0773801975926559, -1.2904495734115535, 0.40941919905603175, -0.06207073611565725, -0.17149514496342208, 0.09943346987800808, -0.5790033064507558, -1.1878399173727705, -0.4044189001846761, 0.3377819827588403, -0.7449886181184259, -0.32504650992246814]], [[-0.08748525097736769, -0.16711716660541814, 0.9698073506363233, -0.2765516061113268, 0.4455701912318324, 0.34089856801694374, 0.7318216499737891, 0.3034737561596759, -0.02491396983119189, -0.49366422890311407, 0.3104730267422103, 0.16813548655254507, 0.290264698269632, 0.13836019325008067, 1.3517582349804405, -0.3777271408345565]]], [[[-0.1991708947291163, 0.43957143379142544, 0.769441709270288, -0.3363681143388757, -0.2782320260959912, -0.6000619440738032, -0.29566995637497984, 0.047702715330786696, 0.07643311626510413, -1.1051580757949828, 0.6327094027493343, -0.8809863714184276, 0.8844096517810185, 0.06234752993993523, 0.5994830854687205, -0.8534491328737835]], [[-0.22736985971804505, 0.5914418192071469, 0.26757738829968813, 0.6419571040814162, 0.45232003929922765, -0.1801553662592643, -0.37656163298392437, -0.7677683891177506, 0.4488998467374166, 0.7700197080676083, -0.25660171906981866, 0.247460623732561, 0.17737175071553962, 0.05163403571187964, -0.12929848789751622, -0.060016302088068706]], [[-0.21671755842529408, 0.22686301178395724, 0.6290912547996557, -0.72620645092876, -0.10370565749055899, 0.046348385102592836, -0.10870630707845175, -0.23491917738795187, -0.22619929045044668, 0.34933165509487596, -0.2581518406961545, 0.135253107019, 0.14758619339214518, -0.5930776082064656, 0.7572284528805567, -0.9594733177826799]]]], "conv_kernel2": [[[[0.008687083446686015, -0.0690103971273405, -0.02450777194976436, 0.055895120467361385, -0.06276776596064167, 0.02195101607883359, 0.07625816312261864, 0.18014320930341113, -0.15188774849552095, -0.1413044953494656, -0.14845198329986167, -0.12492888733062746, -0.05942774618261414, 0.08042322659206409, 0.07707167981498945, 0.08799650728287077, 0.06436215039842916, -0.03002333111231358, 0.06724690516469835, -0.19652434633937918, 0.024910764907324957, -0.025487769717402048, 0.05136064162724204, 0.02428981647512943, -0.19951044049592773, -0.18420015360635633, 0.09263846021731595, -0.18488677712121807, -0.08234065976967753, -0.12668441271443587, 0.06353855398359569, -0.09333397162277636], [0.05029185904801317, 0.05902217035280111, -0.136043093939468, -0.10124073571971944, -0.04274176490657909, 0.11944127207588875, 0.016428063577776156, 0.009854965640996652, -0.017988620621103745, 0.05319234768168006, 0.20043390549193033, -0.09710021902754805, -0.024164744954663614, -0.01822889424187151, -0.38886778241490233, 0.15153617070108555, 0.03513847136973969, -0.11113629569249889, 0.13126279509302466, -0.04319861920635583, 0.23984186182139156, -0.04135390085627356, 0.018818240912052843, 0.05256883451097746, -0.08982616571997155, -0.2898368008762989, 0.04790802382119865, 0.01841884236746913, -0.14409869809387424, -0.18256605570532586, -0.007441526580506872, -0.037803591230398156], [-0.020641944385673062, 0.05604279759081067, -0.15295842314254174, 0.42160245443818917, -0.07191323462869093, 0.060288327910308324, -0.15203774494863717, 0.15870178854265116, 0.2521576765680204, 0.2597265537551018, -0.043354152368244345, -0.11561387758888828, 0.062268427333217975, 0.05466421113737948, -0.16390688305694737, 0.011810457626467845, -0.03382243283466579, 0.04887886135118219, 0.015707066693184286, 0.23048390254316856, -0.036019186446224385, 0.026701818083698765, -0.11365430679930037, -0.03492121352789377, 0.023597941121765265, 0.17385489723996192, 0.15250506690125393, 0.03375665493418223, 0.0719254125577047, -0.09434374848631263, 0.12283417184114652, 0.13358900542520244], [-0.03682598798774886, 0.07023505420728507, 0.12696537729151458, -0.0942175216909769, -0.041344591697848605, 0.07562728478295895, 0.024798219255737407, 7.059841426506506e-05, -0.10795683325048086, 0.1505272217953932, 0.26175255155548616, 0.04167738767094432, 0.07048095015986205, 0.08323749059252246, -0.10250032513833703, -0.01013211315149806, -0.11108993240409668, 0.04400250768589593, -0.008173606679303495, -0.1299577241377162, 0.016960889540722723, -0.16493602375039673, 0.10351873385916405, -0.29305352342591817, 0.13929083960415195, 0.04239785300705777, 0.10049342927677449, -0.08517360903277413, -0.04190137411073142, -0.30734527252118504, -0.028759842461652835, 0.09093950406634892], [0.17319385687616803, -0.020750738574049913, -0.11813410294095095, -0.11529808459694428, -0.039864718238019195, 0.03353907607781173, -0.22346875722479254, 0.07067430118506991, 0.04045954549789485, 0.008449452569006434, -0.07543122569226968, -0.03545198623567798, 0.01115443200056446, -0.046392020330401934, 0.1193634726369851, 0.21945962760284532, 0.09219528254280203, -0.004720089043336744, -0.065636696873316, 0.011713806180053899, -0.08291914849319564, -0.10145952857493927, 0.0023756625242584706, -0.08587158360934402, 0.07982994253971776, 0.18203504239266705, -0.05628637652611996, -0.008903773341137348, -0.03427312917960451, -0.1996027792679183, -0.15305801932576507, -0.03212020528447852], [-0.19552571307795194, -0.09022172628096652, -0.009987173808169238, 0.0351335775336519, -0.4767537369632928, 0.06629193694837668, -0.24190390010197677, -0.06708335575109466, -0.00380081992981503, -0.112888667050853, -0.061835805728263964, 0.22074594261646618, -0.007189292548289914, 0.011706294505240671, -0.08802536047087413, 0.07500930889583164, -0.21758789535849354, -0.08586827441432061, -0.037975548557930824, 0.07899652721958593, -0.03369381285478584, 0.1715504204532688, -0.08757442824340768, -0.08234931224589288, -0.21148195375447576, -0.1496159562360082, -0.18278017021941023, 0.18973048770663395, 0.16283059084468493, -0.016299863658120396, 0.16434957608099124, -0.10651823277118776], [0.034320350213671004, -0.1560329908063528, -0.01831414273859718, -0.12107630233909528, 0.13064768389094986, 0.24796826874738198, 0.09941443689853949, -0.008384017343950506, -0.12355295625662295, 0.04839021852561028, 0.16631350048612, 0.033659584406883214, 0.12847274529501881, -0.10505901184597964, -0.08136962613393882, 0.04796193079908396, 0.0028697930939797834, -0.1825533626437459, -0.04929417857727594, -0.000689919743942287, 0.001610042924871598, 0.11818616343001487, 0.03639354115010336, 0.13280332616777116, 0.05883581001276432, 0.06822253031063219, -0.04451290767756438, 0.1593248631427611, -0.18134354049278878, 0.002129443554466482, -0.2554953382887021, -0.16840672861029435], [-0.09035783701217032, -0.21372095741450245, -0.008348092218815753, 0.1571946119038378, -0.004026604300796045, 0.005799970224744487, -0.038998336080141804, -0.06823084615455433, -0.003230599918950138, -0.11380638878842368, -0.09465432425248044, 0.26055427727731606, 0.06866713907824097, -0.13400392666230057, 0.06350145637576349, -0.0370377160585928, -0.06433933117233287, 0.033232809531135415, -0.08889955100093312, -0.013517352043176537, -0.12747397453891116, -0.07185453338371724, -0.0038810231706680187, -0.15393383218985618, 0.13983054389243363, -0.1478544478941419, -0.08986398388016506, 0.08951145342342105, 0.17522267188579566, 0.152079746352237, -0.1842358476882015, 0.06263808037757569], [-0.19287712127145257, -0.004444460292947758, -0.05375008157825903, -0.04391586835032666, -0.3038620183186067, -0.12613428116191736, 0.020031242209276677, 0.045331483160020614, 0.24278543684367, -0.08032521855518414, -0.08214206913392419, -0.12023938821675878, 0.030901486721103242, -0.1357693260926241, 0.03195641824911882, 0.13361245572113087, -0.07475353366101067, 0.0901004418323454, 0.06155027950961835, 0.16658316991648373, 0.10301463436065916, 0.08079403094977602, 0.22716798484735548, -0.00831020546420015, -0.052998155087876954, -0.05099772150699716, -0.023397144296999264, 0.18109223001085234, -0.004495961117626732, -0.019591192776890726, 0.08410068025460346, 0.08800632945551583], [0.19556202673698683, 0.14161481896556866, 0.05997612389215567, -0.053300308109416814, 0.10587657493570851, 0.04680487921600527, 0.12014699083624694, 0.05653113957886848, -0.009725693671104119, 0.26912798159068596, 0.05952195170319149, 0.09964773903630274, -0.013159470060717148, -0.0376479875523992, -0.10204748150898235, 0.011806393586618478, 0.14827623323922082, -0.09947763880360136, 0.05374098725240151, -0.16374195570522349, 0.19629702595663917, 0.29166832212157684, 0.13018869071741448, 0.09899267296988387, -0.02189502263246748, -0.06234652263028817, 0.12603822227725286, -0.05811057055365879, -0.008022020651439248, -0.08994326783994105, -0.01767215954519656, -0.01601790817346521], [0.2284626912533394, -0.20661047291814116, -0.05859446398773782, 0.1054419497670266, -0.17030020542341365, -0.12414796355573121, 0.2240291129459395, -0.07027625292870188, 0.12122278140623097, 0.18603492669429975, 0.07781531618973662, 0.12242121582631665, -0.17618949620075175, -0.0011846124977173665, 0.16866147309205862, 0.11894015941611243, 0.07151366806168602, -0.16504442488314472, -0.18358656280204333, -0.10342298940455662, -0.08091290935266321, 0.09217143480948901, -0.17099709657521153, -0.03509586302476185, -0.007721339444282985, -0.1373925145364559, -0.21288129997197325, -0.15540711588021222, 0.2312916160605433, -0.04772699180977428, -0.07543539212791885, 0.2838938189701993], [0.017393288397778536, 0.10967876350238975, 0.11269501648009778, -0.01551525856435864, -0.08292711696660703, 0.058092898227234575, -0.10450633472008118, -0.1874777252066515, 0.06816405455145169, 0.029352163274709558, -0.21354513424161714, -0.014070764210905685, 0.07825240613759488, 0.031078357531053626, 0.0763349130978119, 0.20594544797064193, -0.18619906903290045, 0.05958278189954647, 0.07507217172845711, -0.04895134873330624, 0.04233066673201576, -0.08626972115900854, 0.14113574502132456, 0.038977062354031776, -0.08477183631698496, -0.06712171223249633, -0.005790769167007324, 0.019616217741789167, 0.12627179656201626, -0.06386851506146339, 0.04103903451580861, 0.05529519405269089], [0.020305353970890984, 0.06855512037675104, -0.049157131700827875, 0.16733336388484518, -0.10292333164165106, 0.27480894129834016, 0.13836987972556486, 0.02995649819828867, 0.03200829150786884, 0.04389289538083303, 0.0742394082200738, -0.2269461928403223, 0.2079293344739957, -0.06488012883686291, -0.10302236699342424, 0.17540813310096573, -0.2804592039941796, -0.08756052165361222, -0.0556063939028516, -0.1702159608648789, -0.07599593624292257, 0.05661928569946974, 0.04622914999390966, 0.2258915831040904, 0.04899621142059411, 0.057636263589537926, -0.24955496658317516, 0.08578940038915264, -0.010005275659284402, 0.10642151902425179, 0.1102711865948679, 0.07166457416672235], [-0.03594204242829561, -0.14854672751208134, -0.08590262193814278, -0.11898403571391516, 0.03019899193202216, -0.20501795498829292, -0.027464547838496625, -0.04461685225237657, 0.1258641563959514, -0.12512462042208827, -0.24599864906680724, 0.2902504398193701, 0.023529491727585512, -0.13293467850150223, 0.012040222932182187, -0.029356552327246474, -0.016188340766561227, 0.1204128792720749, 0.22168975500576354, -0.027132755430987834, -0.20431578232404402, -0.13437808068410687, -0.45485353472956025, -0.03591825282080799, 0.17718095294367178, -0.18730684444536486, 0.0026311254833936747, -0.10741470303861518, 0.18710213187288427, -0.09881019294993083, 0.05848467262801252, -0.02704668789751127], [0.055098745326414976, 0.08395015902172302, -0.17575083935794242, 0.28821911654733523, -0.09228356984891543, 0.1419830519357859, -0.026901108575277843, -0.11197683860066888, 0.28938438250684856, 0.15494243330952207, -0.09310581135445001, -0.27356761740735436, 0.10286240388255852, -0.021118292468238334, -0.3084082706284223, 0.03500578336351556, 0.027962507839197345, -0.0308436362762409, 0.14510096990729035, -0.008507702611716907, 0.16018383022620747, 0.14941956548229984, 0.02183752519322626, 0.02011889884838211, 0.026542980671942176, 0.009240450701992678, 0.18385424866599478, -0.06687898684117176, -0.07000701152105014, 0.07677094773561521, -0.004539252972979094, -0.04396207283209707], [0.05826628515534859, -0.08753815555385923, -0.01353802624270536, -0.06964659903836605, 0.009909217743227547, 0.05816275791871319, 0.14455049877311696, -0.22787429007785193, 0.18388356021970664, -0.24051475443422243, -0.07897559564677696, -0.028262023363201848, -0.14789856288574688, 0.11368678061804253, -0.07269392202631474, 0.07498134034571387, -0.1499751597125176, 0.13966230020395332, -0.15084244746415376, -0.09006987699067115, 0.15943745230633666, -0.08534889597558346, 0.19356953477335395, -0.14297957129751554, -0.14471783376716185, -0.018262476369809637, -0.015768445653374583, -0.037720686946025386, -0.12751036599801988, 0.09459101182235652, 0.06985796784143537, 0.1553782279194602]], [[-0.15743355123456243, 0.116284512743756, -0.2050422936405433, 0.07794638312139261, -0.18471701713695635, 0.13854475723587328, 0.08316756275980856, 0.20259542220860463, -0.06496146120701364, 0.01684257040732161, -0.07712040766265998, -0.18954102179597143, 0.0678723102494332, -0.15035048648691823, -0.030626287577803248, -0.09135922354957071, -0.04018278411639966, 0.09678703066611871, 0.1271683020548728, -0.05203070605404402, 0.10288260125926049, -0.09712752081933793, -0.2347392253436941, -0.0537311921472619, 0.24846046113986295, 0.14589561938526668, -0.34513740977754226, -0.20090598323468328, 0.003137234124168304, -0.000446487979565319, 0.11211517300546381, 0.0899752768395528], [-0.022235915874224663, -0.1411541068440456, -0.025844202494799445, -0.19627386689149007, -0.018515117997097288, -0.05891386024829894, -0.1117446721672932, 0.01714882335762148, 0.013216259293787842, 0.11980996539965535, 0.0028128696824605416, 0.3483250775835857, -0.010927863477178277, -0.09137262048697144, 0.0995471853831554, 0.06630388888869353, 0.016122307724871315, -0.15147591008131925, -0.11744331910086211, -0.08037665954184284, 0.1086426710063807, 0.004372106336488765, 0.05068404328008629, -0.03181413061025937, 0.038279955161299783, 0.14906051781458518, 0.2222164596757812, 0.21401063319648347, 0.014526410828090957, 0.044823667708280356, 0.015065414448204077, -0.09092278266139232], [-0.07989449221174681, -0.03286320001345808, -0.016789103307459512, 0.10817957568877647, -0.024266864168220548, 0.06003687436220769, -0.14235871477647621, 0.22046713954199335, 0.16270776632397238, 0.02878149025270977, 0.00010799190494422865, 0.17017961669876366, 0.03161602100239346, 0.11855903495465012, 0.36646449680071924, -0.09029250839814677, 0.010775253477633901, 0.36551946336338803, 0.04076983587114557, -0.024893087834708713, 0.08651299835927084, 0.06635855390918217, 0.24203253542289968, -0.015897684813846274, 0.08691985033892922, -0.10115851857059469, -0.027291264546000008, -0.059588331990764964, -0.06201561032773021, -0.035648117500500925, 0.11226925368146337, 0.10382262038109252], [0.0711898036487328, -0.12336761421961785, 0.16678608010265336, -0.0032913954182163655, -0.05235560748946558, -0.0013175242834159932, 0.1227905502027054, -0.06899553208041051, 0.1303880270735513, 0.09940643309347581, 0.31628937138211605, -0.19725527288562514, -0.02742737923494988, 0.0030043134623934345, -0.029951141364152695, 0.01991038207971323, 0.09794992815593788, 0.1781506597379653, 0.031130741760993435, -0.2617669859375697, -0.13687437418902676, 0.08586911159750996, -0.014399682856065922, 0.0816062868388027, 0.09258152699372492, 0.01082932243587533, 0.1359183708430371, 0.024407585795866136, 0.06792122242013367, -0.015447910728481618, -0.019492698626097833, -0.07112085065659907], [0.12463088369089047, -0.03231072410520734, -0.08723073729164305, 0.03550864483034985, 0.016400503513545002, 0.021927480511719527, -0.014786739354472845, 0.20390680008883835, -0.1075371964967167, 0.02856340119406633, -0.07974876735222047, 0.010974901387963806, 0.011465793338651996, 0.2683628617489624, 0.15280535812757257, -0.12358463938640565, -0.24350958256389185, -0.009896804897063415, -0.02227888789141548, 0.2123361646575743, 0.07211151575567304, -0.06437300641259318, -0.04402268326449224, -0.15710194054469684, -0.20815563107275392, 0.15189823644669284, -0.07922607881337052, -0.19436462229170734, 0.0704090298496817, 0.06633701571570064, -0.10562336333555142, 0.044673456183272856], [-0.05058546942710476, 0.0631197822056299, 0.028682524337477915, 0.2434537519925126, -0.13391769622105562, -0.15388685686710005, 0.029902991252550814, -0.07385726320709932, 0.08908042283441059, 0.013215833087364282, 0.04053899509094092, -0.02801382384256397, 0.15227220038313574, -0.030420160398356665, 0.004740357785022898, 0.06142676490851301, 0.2048624418869625, -0.12300911165678856, 0.1465110524420104, 0.08628781622124838, 0.000656523973582002, -0.12278297341635151, 0.12720776751920493, 0.12878411851495097, -0.09509932606954233, 0.16429513880845958, -0.09380407488927986, -0.14514833454199014, -0.02128740777608369, -0.09969107949070873, -0.00982482904305905, 0.13816602279146342], [0.10502938343910773, -0.04860174908496213, 0.23692000656547552, 0.11106187619287607, -0.0023902024359177595, -0.2175095632702473, -0.12712925752256984, -0.15933610303957027, -0.02519721895193152, 0.02438423061540028, 0.007021398346878878, 0.21555392546717528, -0.07826944012413739, -0.10383061034782143, -0.007849257839750596, 0.15544474960432436, -0.025107018969573954, -0.020362652831071772, -0.17547019728627902, 0.08178960628756146, 0.02638900013683074, -0.001695511899689777, 0.12223866204396573, -0.12329507705717965, -0.15818324331157882, 0.09381050133315522, 0.16487935899673872, -0.02624407808543653, 0.018396352097678852, 0.06305731835146615, -0.07034578745287366, 0.013970070565462423], [-0.03861478052877151, 0.1795973793039162, 0.08254789687198087, -0.13417363624574705, 0.027556704888826923, -0.211115835863677, 0.1097736867931736, 0.05349288497726807, 0.008618564513193478, 0.16165012266978118, -0.015855306871392416, -0.022508114166940194, 0.06298464223105006, -0.08132472779723743, 0.00407812077594517, -0.07713663092065119, -0.11752582611615403, -0.008913582664001812, -0.031734920840126156, -0.10864199745448684, 0.06962488947096496, 0.17238539956838708, -0.026013794494363193, 0.06738326488879702, -0.18431566472962246, -0.16615204376495737, 0.12635084407037467, 0.20881108968930695, -0.00435201569890983, -0.06848898738492785, 0.08266491482409037, -0.25910708003151917], [-0.051452669082628945, 0.1646506884751554, -0.09645425122740088, -0.06710477249426007, 0.07133541384979113, 0.04437308745547238, 0.11414130506333885, 0.04207775488342701, 0.25857597170987096, 0.03298507050164542, 0.05691451964061328, 0.0804089207932187, -0.14702495189272893, -0.13958331112189806, -0.12605123788631833, -0.07856418619217294, -0.2436625216736896, 0.13155816115011693, 0.14961485628467294, -0.012283555107892375, -0.1386866776293272, 0.099709404865046, 0.12411443869026526, 0.07707922904739677, -0.02189878059994981, 0.19411580469328277, -0.09580886401264947, 0.04989882282853188, 0.0523094848051114, -0.200991788609683, -0.11082589840524656, 0.07836607208266393], [-0.05909877847075842, 0.008136138546448304, -0.049960068987555194, -0.07402043555860828, 0.12452944107601732, -0.006804054316890472, 0.1360370398387291, 0.010281008657259387, 0.12952960767573896, -0.026063724430825424, -0.0083252258410823, -0.05742641901958054, 0.11855950379417303, 0.06930457138567975, 0.12049998222263127, 0.13883937330096907, 0.0651455483021923, -0.08713970170404302, 0.06986042698735277, 0.07081764208861667, 0.1305350411909251, 0.032204606795394296, -0.1868387606241183, 0.04381277902298169, -0.09487094647312798, -0.2454298038282967, -0.09917591138917467, 0.04349505099471102, -0.08037617323883141, 0.07216469987108085, -0.0011460520036982943, 0.0767234568721567], [0.13096027623812093, 0.07249559567249372, -0.04560443568284147, 0.0545533088464317, 0.11112128339926707, 0.2401390544958489, 0.03233855706797563, -0.043640833469042434, 0.2027849487169972, 0.1531970935417496, 0.04817888733577121, 0.18042972375812755, -0.07465116152483227, -0.20343002521511905, 0.00495103118563707, 0.059672664418197977, 0.08628320753214583, -0.01319136951307103, 0.06221284188290924, 0.1350157225860859, 0.13839780550090608, 0.04784149440317971, 0.008007216199360404, 0.15855352660682281, 0.05083188122388975, -0.10874963137137156, 0.2271171785771478, 0.027345297669321034, -0.07220555075431569, -0.15951734083709387, 0.0007994361032041459, -0.09459013461486805], [0.0693111299872323, 0.02803652584749431, 0.1447318656931841, -0.10133554442774025, -0.06947078306706606, 0.058144779579488805, -0.1383255579137091, -0.06134647303132341, 0.05717559542069751, 0.017075515670777548, -0.04817725299874268, 0.09561657043050349, -0.18396806190313358, 0.026661048724343276, 0.04660055340320639, -0.1820953645186364, 0.047806059114520065, 0.005122961904043983, -0.08165409852628425, -0.012846996280604553, -0.2472223330133921, -0.008359140363783959, 0.09466787988728564, 0.2199314619011084, -0.25089077747485816, -0.19470897405911047, 0.1296787478688287, 0.17591022297153713, -0.201516711352653, -0.2234628846553753, 0.093238365059953, 0.0671633521742677], [-0.17285021811535695, -0.1010835666217213, -0.01074300495872763, 0.19003059933826644, 0.0948913384098422, -0.006913249341352752, 0.020959736946224897, 0.13838411447907745, 0.23462333105782734, 0.27766469564041085, -0.14037447764496191, -0.037599891211772575, 0.013298444125828387, 0.07548718208910139, 0.06058580765444596, 0.26764186350877434, 0.032991686091679975, 0.024062000440938744, 0.15760969596572913, 0.01670623951790864, 0.07426027867583866, -0.08834627331169276, -0.046748653680934366, -0.12328066525307464, 0.04823446157157883, -0.15393104512614755, 0.1974606509960521, 0.21933841497247777, -0.022255012346219304, 0.21534461340918282, 0.04350931170410174, 0.023748635417419856], [-0.036290604249543515, -0.1748850187557522, -0.13792428319653638, -0.18750218076704292, 0.08059636813533136, -0.035366711447916845, -0.14430274780961214, 0.1215645384979675, 0.02418646682663784, 0.11106462087281786, 0.1266288955633602, 0.11508293150640492, 0.09627882280464084, -0.14232378651768626, -0.046769162480250814, 0.051838630480966055, -0.1878101506910195, -0.13944564061462433, 0.048983897238142615, -0.12730305864811428, -0.05745251699680542, 0.20061026751597724, -0.15821205025604054, -0.10448585356733613, -0.00217059946324103, 0.310635786673252, 0.12471015418891954, -0.07483912352426988, -0.04253569783183535, 0.0124244992142371, 0.1324117736422513, 0.03133096124184128], [-0.31776085246526165, -0.28628943188812794, -0.25489454943787326, 0.10446683901436235, 0.11544112592634173, 0.05159153830940634, -0.2611706745555446, -0.020503043576910244, 0.06685461616320998, 0.023424721041939777, 0.014594675913893384, 0.1981339985895219, 0.22456994514730488, 0.06208168293798597, 0.06987033683001174, -0.05929055012032485, -0.08224651077567183, 0.1254687972471564, 0.049536198948341346, -0.0806061772763649, 0.1368464008465818, 0.257765389136189, 0.3350925210227865, -0.013620750920125739, -0.1131320811637307, -0.041791198821972825, 0.18665184142836355, -0.09211312608602709, -0.08614369495569316, -0.10515406786139574, -0.15420326613054897, -0.1243049123645091], [-0.013819182984842969, -0.1594937011318055, 0.05379441069209819, 0.26146458070736817, 0.0489109072476134, -0.13456086115334975, 0.09543311527225547, 0.14759593734064408, -0.09214637715207118, -0.0525672170171101, -0.046179383452548975, -0.0964180717956923, 0.008043337397792488, -0.17324144530325025, -0.24719584048508064, -0.09457511944032888, 0.016897487275591806, 0.1296003654630003, -0.10171328712938962, -0.019884438814803493, 0.18932045423911992, 0.0719364743217179, -0.04706587108770152, -0.19767932878953645, -0.0010224051122416761, -0.09840463959695857, 0.2497916782343651, -0.0940736808575597, -0.025641669514028742, 0.03189578702057138, -0.036794211544277054, 0.10131768900244618]], [[-0.03960328196429329, 0.10559642725988913, 0.08017856253870297, 0.1432868624405251, 0.005060603230462209, -0.1445655336801756, 0.2004668887707901, 0.10477898161486279, 0.11369782117951305, 0.16637945270043536, -0.1529096338983436, -0.13128473960017634, 0.012172224309265196, 0.03236757216930659, 0.23278526353983126, -0.09484748693981418, 0.07265381996869723, 0.004818055820051042, 0.02347586141197268, -0.11598651238658753, -0.10920133637612937, -0.06571062832150142, -0.1068435248950897, 0.0017124231605455285, 0.08581403445413714, 0.03525187754680671, -0.20811110694981014, 0.07384927000613732, 0.00912657587749695, 0.2561952367504903, -0.2227181533602621, 0.2877894522362873], [0.022243505917303872, -0.0005986192976506066, 0.021451393469810637, -0.057466251341681686, 0.0002547985539562955, 0.021273741047862775, -0.16792366070167644, 0.03688444731363611, -0.06311509805629444, -0.14128692005879465, -0.341448427784226, 0.11622491760362039, 0.19755622794601987, 0.03662967001836938, 0.12606166722160786, 0.004318857584657525, 0.14175548148221054, -0.015027963357454972, 0.06203720611451754, 0.04135102333256182, 0.23644410639089303, 0.05033171244550739, -0.2110592482124757, -0.14828386177063915, 0.032858950828888664, -0.07255386156492948, 0.3272895409510436, 0.10747742280935166, -0.08676872239702868, -0.06603442951869173, 0.23101079871212218, 0.018136383096772662], [0.04815500135588705, -0.08940948190720208, 0.052872014194549066, 0.014122410051393844, -0.07977262135191594, -0.10855198493571491, 0.08163669793785912, 0.13742600826870702, 0.07559076788223915, 0.08187830832916321, 0.017679486830235364, 0.07760696953260204, 0.0781691060889157, 0.1154921738911038, 0.10775060457638984, -0.045174803775670465, 0.10592644383448979, 0.004194686174763276, 0.11554930181675056, -0.02393586643617273, -0.2514099583461716, -0.12077139675715493, 0.10513826587868359, -0.0898998485745891, 0.02783181929555395, -0.18011920085926017, 0.13501145461280983, 0.12113879686807998, -0.13679421636344388, -0.14316655053021393, 0.13707141741316708, 0.17360234227634933], [-0.16812684097211922, 0.09406008869895097, -0.05167510569419373, -0.060540047918211715, -0.08372875504444728, -0.10398339100221689, 0.2346870868222598, 0.18316024178657156, 0.036792318058354014, 0.026893085144244194, 0.20156746771143322, -0.24625005858182858, 0.03974580007578156, -0.019109032662930625, -0.014455858019662801, 0.0007582719694102467, 0.1278435018489682, 0.10372000846792713, 0.0038647585922509274, 0.006043862238328595, 0.016702702572475827, 0.22096542411917253, -0.1269888225853782, -0.03985132022274002, -0.019394571394092848, -0.1259065087615344, -0.050159455089132485, 0.2690670766659633, 0.27874184320259376, 0.060584100216181665, 0.027422408769369522, 0.0761588336911737], [-0.11622352264642155, -0.24711485613872586, -0.001297530841747287, -0.08421506381341373, -0.013075378584936372, -0.05045626544102697, 0.015325394083352982, -0.06191065948377543, -0.15056693390309098, -0.060366446396152004, -0.041869536457573964, -0.08948847582629205, -0.09142793979922867, 0.09560358003205896, 0.05688618087033883, 0.046901268040380556, -0.014165493935465233, -0.10889510248789089, -0.02476878747173794, -0.1656740994230842, 0.06415832183302043, -0.056319174107784656, -0.17352941543380257, 0.05957171124821355, -0.024064061484936363, -0.11306516606635302, -0.07082515146836411, -0.08067861845203605, 0.04040794434128149, -0.10270751548352089, -0.0006964683383155929, -0.013599427794834381], [-0.01707432632320067, -0.28462678171429767, -0.0007344314337614454, -0.19243981717894024, 0.07025215720245545, -0.009567231351582996, -0.05166980818310464, -0.006352182967179359, 0.12296658294899775, -0.14452157236741703, 0.06462032339584367, -0.08252744995380956, -0.08070590278749784, 0.06729030131737046, 0.004546443566794805, -0.1806786846973178, 0.041213732630674516, 0.08829938565124301, -0.037534511584721375, 0.05840467013227984, 0.024665896731937295, 0.08928344244515184, 0.15158186929624032, -0.07291744704449707, 0.12101337544964659, 0.13451197153458433, -0.08527753957132042, -0.03719300046811089, -0.15928295164690576, 0.11667056763845506, 0.04624760957593869, 0.13859247541722491], [-0.05227910528524614, 0.008344168564203407, -0.010244569506387932, 0.03905094597661249, 0.083227552034745, 0.0431744019850178, 0.11575250847707592, 0.03213931090957081, 0.04807161773695264, -0.010362449553274249, 0.06883330532674413, -0.019961797071062482, -0.2319116859075971, 0.15451075128221758, -0.00427935616176108, -0.06949411199517572, -0.023242329907071695, 0.15170832057875966, -0.1676933772854365, -0.12077852705316458, -0.2111691002290452, -0.13948816014656898, 0.051994758431964314, 0.118305267078786, 0.41353585302853874, 0.04488755312061754, 0.16273463484184394, 0.06453684684091841, 0.03185883291512934, -0.09343909513198048, 0.08758502121859703, 0.018283741463601122], [-0.1385796236060462, -0.0032367941108050794, -0.21426039662801105, 0.14724656724040389, 0.2330149263185108, -0.00969690917597697, -0.04555284369655896, -0.014725401204524704, -0.09835898784021259, 0.08388571307713286, -0.20092527239473956, -0.10897089888103319, 0.020662224152380386, 0.10780516578879383, 0.19016481675463287, -0.04710671299586787, 0.017106895182163358, -0.007570542432778258, -0.16683625142513098, -0.041443358393150935, -0.17399162796810572, 0.10842540696300787, 0.01742354376692885, 0.08939318588441582, -0.07617432007909762, -0.0861502787141631, 0.17511617279409644, -0.08235780565194718, -0.19446382059526254, -0.03740639748352428, -0.11103494312822222, 0.09704435427566664], [-0.018275586988722312, 0.07654344170874297, -0.13851539054111797, -0.04698148053855362, -0.013298531999939004, -0.3200306531249631, 0.1960399184532928, -0.14373240258438127, -0.05945669690960324, 0.07779962373570505, -0.1567850328375904, -0.06440614310416336, -0.13577373819565158, 0.05821714727095562, -0.06506894115566858, 0.10690671822352114, 0.04618372188376839, -0.13116187415527938, 0.1492611361782323, 0.018791886971876746, -0.026534068372943715, -0.12281075779896963, 0.08538177777742682, 0.02408891788452112, -0.17239195065765808, -0.011504881649878595, -0.05066534977297928, 0.08292767449303255, 0.14305996016648123, 0.0399646562813119, -0.14215293903087134, 0.06171904376546053], [0.03686968263863935, -0.1710641469611347, -0.14794444665201187, 0.0021761014939102514, 0.25093849198929874, -0.12523202459829583, -0.07546492007884549, 0.20922427124057477, 0.07701061735309414, 0.24963025727876678, 0.34453126096705106, 0.20594340837715913, -0.00643021334185065, -0.018485268999586125, -0.07432927919181556, 0.035606915749222166, 0.03525286718127644, -0.048265114974860815, -0.0970525248148395, -0.07402160887445547, -0.016316070582325357, 0.11615500031284698, 0.2290830923340909, 0.12611664264482184, 0.13938320469917767, 0.1164266419015175, 0.144718320145003, -0.09926661848137643, -0.029878810890062335, -0.06505829068300921, -0.17482230487610745, 0.07653546655565771], [-0.05617839149693727, 0.14074400633066383, -0.08602015951983258, 0.15446154372171955, 0.27770297137937483, -0.13472196509580875, -0.12490040305756527, 0.07733795167162945, 0.09171374201074296, 0.02824607209784236, 0.14604151683085861, -0.008138888725544587, -0.0015600967703806655, 0.08201044293531176, 0.17278906121922788, 0.0007066183449999455, -0.11143672632017501, -0.0037946939970700732, 0.006306261645264152, -0.12484496856045978, 0.11503564415222974, 0.1139135574709634, -0.08554168547055517, -0.04205896255872849, -0.0049102402020335025, -0.09676381457665312, -0.02675602887851576, 0.24574119613978004, 0.10577803914734496, -0.1379031826156398, -0.11039148083111622, -0.11110222566061077], [0.05052237713749764, -0.0619758113137906, -0.0994684123287174, 0.1654669512299961, 0.06240935878224424, 0.11522369927139758, 0.033973822691251376, -0.23877595193435963, 0.022177836095124567, -0.08002129225034621, 0.05638524410682987, -0.08060377229337824, -0.15098565049361395, 0.024903504423853227, -0.028656476976919355, -0.16886601165159643, -0.029825645696188178, 0.027573128197945784, 0.17372225364896582, -0.08281122553184475, 0.030140205917731002, 0.0399615477930279, 0.0892081521212788, -0.09818458044892116, 0.09094290794306797, -0.03748741767828619, -0.2502741323149528, -0.0043525355850416066, 0.21407406001858173, 0.16990568546186424, 0.1370462436049133, 0.008047876494540005], [0.0694547119117856, -0.11394012656561286, 0.046204473623694245, 0.021647952574662458, -0.13068936830076025, 0.006775509648935836, -0.02370314412437596, 0.1839400249742155, 0.09715009625855295, 0.04828926051862306, -0.2196639816432383, -0.00046078298950978, 0.15957361923073649, -0.0814308114857349, -0.016891762794646995, 0.03671432034623548, 0.06836667602592793, -0.01481778567405666, 0.1748555285241311, 0.023113565739803762, -0.02039490425990959, 0.13257644505648414, 0.0889099446029595, -0.03129604328721938, 0.08332527134830037, -0.22388245882760321, -0.13427453516201912, 0.0023193263215819625, -0.052294096934220956, 0.01052850801591026, -0.028903162893532366, 0.011254620979671543], [-0.012731013707234241, 0.156429094942089, -0.07468465997153259, 0.18922566925681122, 0.053428151582786104, 0.10701204892690884, 0.006892508756161507, 0.275403338975042, 0.21639366858017978, 0.0012986916978367951, 0.08062066370716207, -0.051524576255439034, -0.1404941815472202, -0.1533829619962636, 0.020986762014732686, 0.1574300500384759, -0.04950918388111199, -0.06380828745444923, -0.0084082629076033, -0.1451262286719826, -0.16415783861462327, 0.011820931832347325, -0.0964134755680444, -0.07126575247383252, -0.1428005488591635, 0.08171933175238236, 0.009318974700856008, -0.05400453315159963, 0.0474908809806741, -0.08386306327237467, -0.15741531482933044, -0.013439349031235644], [0.0015219632973208805, -0.06729322722726053, 0.18844051537848497, -0.06074204478771193, 0.20289783989937635, -0.2651389631311774, -0.12419876140711103, 0.02177330414131092, 0.1373012387112643, -0.06696739256549201, 0.08156541956317703, 0.05481396710459123, 0.0771546188591342, 0.20171036577475224, 0.2697943025480156, -0.04005902907371983, 0.01224331545929362, 0.2410695872856984, 0.06794449631665793, -0.2516236879615549, -0.09305734292506034, 0.3199433843412255, 0.06302987753085837, -0.13050735977412195, -0.012297143801417967, -0.11697674605664826, 0.10324863097601475, 0.15500730145175298, 0.15157188259998391, 0.09538361629596331, 0.0839363831838358, -0.01907420477875815], [0.01787519375124887, -0.12329649602997249, -0.053613286935550286, 0.049512716996418925, -0.010108913658277943, 0.10235620312680943, -0.06384136139942816, -0.04349482139853771, -0.28983165567580016, 0.02705973504600726, 0.1985937232820886, 0.006241946380850266, 0.015227203264165953, 0.11156874598403345, -0.07717126781551872, 0.07733670777279222, 0.0473461178688523, -0.015188369764290836, -0.15868644989761538, 0.021606598329028844, 0.1768592737676737, 0.13161247269394416, -0.03652843292167607, -0.07109869217285314, 0.07099756402176712, -0.07996564711670301, 0.06403464788330067, 0.10181297861623767, -0.08461695590228317, -0.19689671246297216, -0.07768939859409586, -0.042642665087564355]]], [[[0.10754598981340042, -0.009661136751500314, 0.07655084556012806, -0.14653358290862326, -0.06724719417977525, -0.07627709597041629, 0.18147806525014545, 0.03151745723402618, 0.1408675358457606, 0.014349982414831085, 0.21436751414351318, 0.10649058013483369, -0.0717685519202306, 0.01212292376814292, 0.04359115087059966, 0.03339213672122473, -0.16018144903632076, 0.04548084722370469, 0.1017866519626526, 0.06818243003728942, -0.09985248071441304, -0.06229806623273004, -0.2870840272312873, -0.09173387178747679, 0.025853944317756786, -0.07188786039903726, 0.03135677167297745, 0.26798725066753554, 0.01725284682077784, 0.024265165167048526, 0.03525170088107428, -0.14575308193026168], [-0.08525088040581728, 0.09487515831704962, -0.07445924363551785, -0.03785838525626416, 0.07930674232068997, -0.029288405890875953, -0.016270606040197002, 0.012671806422376829, 0.020329517816066123, -0.049913488258284705, 0.020330879013668608, -0.06616804411480831, -0.10871067422701818, -0.0923909692787497, -0.03778230470486, 0.020557411829568207, -0.3133083333226546, -0.036386054018482286, 0.00882886610424068, 0.00792891310891804, 0.07769010159490754, -0.04427576205035705, -0.014273684884722667, 0.13956271478833235, 0.18553237524432376, 0.07931234627254198, -0.1437740419194629, -0.005987967559621687, 0.07132092625412886, -0.13923728425167406, 0.08034749023875025, -0.013932641574624613], [-0.015100320725968591, -0.26763153435367404, -0.09657411212798224, -0.11919257972025064, -0.09076872425914373, -0.02884567389348163, -0.0360010878460485, 0.053988281116733386, 0.12317692043945512, -0.12027236747366844, -0.21654268423315948, 0.009320241237438494, 0.05594140383651684, 0.2758353673653876, -0.19514301745005827, 0.4803931536837115, -0.13313071885583966, 0.29593594325460193, 0.08346583433252856, -0.022096371820002257, -0.18515242931205472, -0.08804299370249415, 0.060931384074495845, -0.148217514757076, 0.040240694015206004, 0.13980516847129976, -0.045106561306993406, 0.17637520980166133, -0.05825639619553637, -0.18816204440634346, -0.13399360039788155, -0.02359290303798268], [-0.059569562943947864, -0.20592125867261787, -0.052483990290445155, 0.08236791096888123, -0.012934766064091484, 0.010213713985280932, -0.07419498510924433, 0.05257840350425355, 0.07113421980361347, -0.08583194896411152, 0.008962800135113363, -0.10748367748425958, -0.24890517706393006, -0.043573008874853936, -0.012652681856713255, 0.0709638652578549, -0.11424896690587473, -0.04325662114564824, 0.12647920094056203, 0.1138449327297813, 0.03528434557963156, 0.2537649164031872, -0.036924285102271054, -0.042360515152926506, -0.032455022871292746, 0.06115506572890744, 0.19805777975924566, 0.2500721856521891, -0.14920713572472546, -0.0892125344470377, 0.05163710566335864, -0.07739917836147461], [-0.255176860176083, -0.007358202896734733, -0.007097190951298335, -0.14612480962045965, -0.12307442083766057, -0.0748092840736812, 0.1641230213873872, -0.004188239477514417, -0.1275931273365067, -0.05898287388001778, 0.003376743759607602, 0.06939052090712843, -0.006129754643274226, 0.22189279465457537, 0.12682234151334762, 0.1771451114464266, -0.036284281438082044, 0.2881283701130119, 0.09587765154166628, 0.2912399961755197, -0.10028069898817032, 0.13000095209793622, 0.04661154420856928, -0.08625794589081011, -0.00823804195895324, 0.060914794779504115, 0.17474695265484594, -0.01159481255330814, 0.1847110842282393, -0.035201747702045524, -0.035627090658757875, -0.08153312837119284], [-0.20153312043223706, -0.05367383566552288, 0.012300026293720137, -0.08603004328989426, 0.3910066454289881, 0.2120330448765161, 0.17899602978484597, 0.14064557767904293, 0.08854117003622115, 0.09679272239828568, 0.14430582623267918, 0.20663482322135318, -0.10533045231556942, -0.00986253505314611, 0.15067266373174062, -0.05403830507868454, 0.08633679508479222, 0.0594102259715614, 0.008950067514109244, 0.21174792910525073, 0.08859469738948432, 0.17814261127814404, 0.1455189338652859, -0.07117881167536128, 0.15378923181927645, 0.032002286676783696, 0.11302272974184971, 0.03963552947902648, -0.018580426798374603, -0.29013949369794473, -0.14301600766232325, -0.22957882146836905], [-0.08164895648715077, -0.17073497290186831, 0.1620056506263692, -0.0999198403151117, 0.11541042596437259, -0.027406128901537756, -0.08592267615459354, -0.0843968334277055, 0.077393742360333, -0.18167477917432698, 0.12907020091822644, -0.010682461335635593, 0.014932685619497616, 0.08880106943600417, 0.05447643401017889, -0.023628440777330957, -0.00784135678558723, -0.1824362363389348, -0.0741705944015405, 0.17538714423209115, -0.009516664945746937, -0.0021270833103738474, 0.16728196762701608, 0.08151778475390911, -0.02380972057152606, 0.08401817769086693, 0.2872440356391455, -0.04961278983916573, 0.13175328387390137, -0.10677343809105841, 0.05386051006426889, -0.05093851109445495], [-0.050533587375221234, 0.04148241169363877, -0.0878317007940981, -0.0013351668421630086, -0.0794023401113757, 0.05177357773925116, 0.07055160904998561, -0.17687411568117484, -0.013367386981292315, -0.10830306177406082, 0.1095580336036101, -0.0802273504636511, -0.07555040391269616, 0.19062955467292042, 0.08558975749062318, -0.09231321522611526, 0.007012232088295169, -0.056499194935143326, 0.08736686581245705, 0.015451252160884329, -0.2510750681248818, -0.08242501826976234, -0.018025087620836232, -0.09412650148007923, -0.012008201177730696, 0.11028686496186739, -0.04301746034312719, 0.11820587226175222, -0.1354495376375204, -0.1996810493781291, 0.027446414799951167, -0.060295477017902374], [-0.10427472756652252, 0.32814460219966574, -0.16697378403912716, 0.07154795814660671, 0.1554026244346238, 0.07186393279511115, 0.1411894959595107, 0.1468872720428524, 0.01702825606554931, -0.030547879402841902, 0.14700745183808991, -0.17723880539081838, 0.041426568325931265, 0.07213989197094163, 0.05428779995392999, 0.156244657829877, -0.07122971545362292, 0.010284636717069025, 0.10374333897176022, -0.10644440818738736, -0.005693789672314258, -0.13595129340910356, 0.13536781197472114, 0.14232151392427167, -0.07345029443915015, 0.12275187947328504, 0.0759196583827375, 0.06565564405712995, 0.002286561147110494, 0.1734297468917119, -0.05374404496357996, 0.06992437462628702], [0.02875144189059233, -0.04258380518912863, 0.13035117839133728, 0.05550881628459604, 0.19241634227649104, 0.10676434451968037, 0.17802938027403045, -0.004613543939417917, 0.20700146539924716, 0.002298827962329622, 0.08203561899628807, -0.07448945418054449, -0.13963713480827372, 0.044219739011595316, -0.02868885841650566, -0.006652645827598789, -0.1705053941509213, 0.14242725699767889, 0.1387624900963532, 0.1750231188601444, 0.16409106165775467, 0.00803631743945223, -0.026486044933080304, 0.10907629294189904, 0.09471195895393208, 0.07216134314064089, 0.09277497656514667, -0.09601811452134856, 0.10002571138070561, -0.07781990981683033, -0.25617711647195984, 0.08605848030772736], [-0.011649323974113588, -0.009888921973586708, 0.08565427323060117, 0.0026034968254772615, -0.11933084088816191, 0.04588471904048583, 0.004215263741852655, -0.030368474368659606, 0.10711091635110377, -0.0068087577945420965, 0.012857531969938853, -0.17621215851300331, 0.25126635032999006, 0.06099590175221956, -0.03968151095593836, 0.045364407626918804, -0.013189165797048447, 0.02414410414493415, 0.0778507159958296, -0.0521143704318833, -0.05659885961349199, 0.11939006814625955, 0.0551025525967779, -0.08468330135000347, 0.10742280968876668, 0.01846215984826313, 0.1331264706038375, -0.08792231323107257, 0.04275444175496011, 0.13344204123459005, -0.05813133538503153, -0.07353149334502564], [-0.14440302768588587, -0.03341652103369709, -0.11346062364503315, -0.04783120491457092, 0.19340948438226654, 0.14899845593039626, -0.1423622407473136, 0.05589703404636456, -0.12265193162876868, 0.05266564098207546, 0.10401695786487267, -0.03922058663055942, 0.1193545473437959, -0.11052665777298305, 0.23705840597119257, -0.0014568500920811955, 0.21896684356775759, 0.15751496508249593, -0.007864737187562568, -0.2275742358285295, -0.046245742236663744, 0.1954385308728112, -0.14308912670094637, 0.0985503393505863, -0.13687791860850046, 0.051164284373853224, -0.02021195617689766, 0.012707412039054653, -0.0415341565245452, -0.08912105138697277, -0.027692260116235497, 0.11404137757114817], [-0.1831817299249554, -0.14335013951201142, -0.04447943282943769, 0.23367673805126019, -0.03962215480734676, -0.028357016792789208, -0.058988763309660644, 0.08434067302806694, -0.12059205614343806, -0.04167167938655652, -0.013006701394634395, 0.05259105841936673, 0.029219785517823265, -0.03215475946225985, 0.1810950263301384, 0.08889469562264504, 0.21789712673803915, 0.04820788548097101, 0.4111564195263157, 0.14723110799437925, -0.1234833731628026, 0.017357871446402308, -0.005639092510139849, 0.09963603627453262, -0.05952988269988836, -0.006983682253760907, -0.06551993901110414, 0.1040761485336698, -0.1568443112081983, -0.08727177921728355, -0.022083426644815565, -0.11268139532356251], [-0.05903016972963698, 0.08974244466224231, 0.17963059661894384, -0.10246356299651452, -0.042323555822079896, 0.113236969006379, -0.19546826938820333, -0.16576057881400702, -0.02124774029487579, 0.1014919908326974, 0.18065580713479448, 0.17924515509457473, 0.04953094615094648, -0.014021141714164928, 0.19620936633574154, 0.16774207806145075, -0.1122241859175174, 0.21421433456090733, 0.15157261482456874, 0.01107886780792428, -0.19295051528337603, 0.0202275993813248, 0.018025876279611053, 0.035512099266850464, -0.05143591770834387, -0.07917094505022174, 0.1352925911279949, -0.08501854628210144, 0.16929875219721277, -0.061025539211847814, -0.12479841739188118, 0.07576713628561571], [0.1077492532774077, 0.08252216838736462, -0.044251850393074804, 0.013009190542895078, -0.09541430086827112, 0.2860406288030242, 0.2349599117405553, -0.046539901527516546, 0.057834702741630974, -0.061512570007214086, -0.0321532836020143, 0.029038346626917795, 0.08608936661954818, 0.11619765141478186, -0.22360339206118393, 0.03614719710687785, 0.07550185044820859, 0.25530691621971024, -0.11356992610728438, 0.09163447965627787, -0.0065378882024123485, -0.05451453086602561, 0.09426641812321031, -0.0668568299755301, 0.06646738876097591, -0.06171154249902623, -0.011475190018510497, 0.11806663975709175, -0.17194511411684035, 0.09378117653966062, -0.06330972543683017, -0.1756871610054106], [-0.08317532565941414, 0.15122773272591195, -0.02790155695048162, -0.02738280689631872, -0.20057593059805753, -0.1777208383421651, 0.08898684558215317, 0.10165035369229067, 0.16836471053874902, 0.14857233831249014, 0.08678002168164985, -0.1589940122670272, -0.07723228642007446, 0.0210019826262794, 0.1111581327013709, -0.20612094887213264, -0.08028151762798041, 0.014512550572564878, 0.10256187718519062, 0.21991905581615592, 0.10469783536317809, 0.05944447616703341, 0.0535544734408486, -0.35391850016312937, -0.17032296168611044, -0.05400745513069406, -0.017022003778279296, 0.2873727356181783, -0.016214912983703828, -0.17411942984900297, -0.0267666791567658, 0.026598164640232253]], [[-0.03524416708634555, -0.18244084329913937, -0.018414123734212903, 0.03475986337584506, 0.05142510875794408, 0.3004365362365081, 0.0646519998864259, -0.052588597261403205, -0.027796811391461455, -0.061900990883128525, 0.04542492766770804, 0.10327800828710605, 0.11944587339390376, 0.007544792381419339, -0.19640495430172006, 0.023168982587657413, -0.24017598780149677, 0.07287989354090277, 0.2001025387425173, 0.0749779034391155, -0.014551839774321652, -0.15155159198253393, -0.1543861352179721, -0.161662704889197, 0.14815972501806593, 0.007928641920414058, 0.16377787527448004, -0.188305839314328, 0.030322368269678653, -0.019959117872797815, -0.051407355991143835, 0.14773317323287233], [0.26220924425132836, 0.05286149268367647, 0.009636568261236086, -0.20782422109064733, -0.005036250280938646, 0.07726673671447107, 0.0580888932131279, 0.015068784575183434, -0.21961034615887753, -0.1679039023352465, -0.22239981185517238, 0.06250727964769315, -0.2994992017275269, 0.1958532399630031, -0.18853928482835355, 0.022834867177669062, -0.0703961094149723, 0.0354323766978511, -0.14883366151270006, -0.06125914224727288, -0.12679042738019494, -0.18585259342942664, 0.0829511627408385, -0.11535487973038226, -0.11746994155446683, 0.1708653029123045, 0.09215609779635747, 0.1610371376631075, -0.056196280061816935, 0.05833371383228337, 0.007090887724045737, 0.09380824741485808], [-0.07591741331091705, -0.021085143859670637, 0.06563982889687225, 0.07339636323402705, 0.2483020268714368, 0.26919460445391197, -0.16619602876194958, 0.15531970960845037, 0.1355791612055461, 0.192008310049277, -0.010894387733784424, -0.1326713147940184, -0.06612682350834793, 0.22188214060758357, 0.0750041885743565, 0.2556012115572042, 0.08047566231612964, 0.0692333764871934, -0.051129487653095995, -0.024307589773977147, 0.03559268253661354, 0.1294571809396276, 0.028692348414761655, -0.012037646612445437, -0.09986335780109556, 0.07209726641889794, 0.15946292979474302, 0.21565863481500547, -0.16781734490461828, -0.08738122970245148, -0.28349203367561315, -0.03894133305774005], [0.13476832738389538, 0.06285118342680501, -0.08709456059780267, 0.01045516643895518, 0.10186637049790852, 0.017174168944359306, -0.1219096867427856, 0.18717531533284298, 0.09372779727579135, -0.10531385620831261, 0.2695675084204757, -0.056865009882347634, 0.027241489312952196, -5.51094742207354e-07, -0.19123853598111898, -0.25262834575717186, 0.10294066945091662, 0.03399080048009718, -0.1950135899631782, -0.027866569464767146, -0.01704565084652237, -0.006716822525982904, 0.04545423446192848, 0.039373133595956136, -0.13157031287636506, 0.0994898982301366, 0.026923160865429195, 0.06477466227058308, -0.11114890121803025, -0.0663782048079482, 0.02141434263714029, -0.07320314926079752], [0.07814788307423495, 0.18168338882394441, -0.04849205970434743, 0.16334203540345146, -0.0975351731200124, 0.2457862520600637, -0.22416991566561206, -0.03485585522124382, -0.07259405616934284, 0.27708223470118554, -0.11270122550586738, 0.0060892069769433715, -0.23357537421884364, 0.01614810208754933, -0.025148506671336196, -0.0992273369110341, 0.10767520089266769, -0.02853899782422921, -0.1434822328487068, 0.08159526780512472, 0.03355298362643437, -0.04141847964324077, 0.2027908040640094, 0.1249451179724831, 0.021711380625203967, 0.03102486228036351, -0.006405042500574845, -0.02017224901045327, -0.10817012584561014, 0.002931548789068367, -0.096747643890303, -0.09689138117622337], [-0.04233259282454141, -0.1270821243062435, -0.17881710131242506, -0.06127258890847644, 0.01129547628358586, -0.008303703204639691, 0.10009167894809996, -0.023904017958359267, -0.15455066852799346, 0.12182229033126722, -0.08474958966448178, -0.03370051447286401, 0.0009075938498331803, -0.004742410865009324, -0.05859946332327896, 0.02398336179627818, -0.22524871206034594, -0.03678377251881396, 0.12917523666372271, -0.010591071931454293, 0.054292689700021, -0.06038616764241684, -0.08037973436924746, -0.11040894082763189, 0.1637205081426137, 0.17589264268591612, -0.05684830844976227, 0.022891886368153373, 0.12852207977189684, 0.06619671221894008, -0.07934923005120816, -0.11919627027066972], [0.11882346059555791, -0.08181754784097825, -0.004573887964694359, 0.14237221118730473, -0.05239166338551867, 0.11559110048565424, -0.06491365471211893, 0.037419154015706974, -0.15125114777395735, 0.033927604365574605, 0.08700151867569114, -0.02294173019334292, -0.003040311586020514, -0.06776033426653981, -0.016454073744780716, -0.07301648048826026, 0.19812320750255114, 0.07031723172279573, 0.14455286132745876, -0.23800728585407122, -0.08518447626211169, -0.2764167131640229, -0.06759969034779069, 0.07290163964226086, 0.06133712800167783, 0.00810793798248966, 0.0425177559994244, 0.05722949631394866, -0.15952826801039563, 0.08770967949594809, 0.045106634865806405, 0.08701913302106982], [0.10960053392670605, 0.11574395111941127, -0.0919054731199788, 0.004948060033784019, -0.01166340883791546, 0.06315799395280931, -0.14210149698225205, -0.025443617541019824, 0.1342868551878041, 0.1688516590443619, -0.0026776236685159558, 0.06088423770570645, 0.03906585209676874, 0.02710685246181028, -0.2650323496428142, 0.2802155160204014, 0.07067884544972684, -0.0009423649353643972, -0.0030211076208682356, -0.030604307984837743, -0.06752838865179295, -0.07812038547999275, -0.0027277356136698465, -0.11290511186526532, 0.19218765720049577, -0.0050378286702230475, -0.2887604388779382, 0.26310108757703643, 0.07580390228634136, -0.1604554608518426, -0.08528241019067279, 0.34436398760469267], [-0.10320016837998723, -0.04575782970889582, 0.25917280716488683, -0.106588749022482, -0.295235707442902, 0.293482170468883, 0.10091328370060527, -0.029068129045071996, -0.022782612072351195, -0.19757615738770173, 0.03044083759042433, 0.027816248696077527, -0.014175437263444054, -0.05169989902234123, -0.007801855683225329, 0.2354257242373398, -0.01596405560257413, -0.07672474292202904, 0.1652531031414582, -0.1315049067377862, -0.2268060073510205, 0.031488155130492586, -0.024902512391567797, -0.0062168781654362406, -0.08383534744650843, 0.04099194267272356, -0.09495049925388707, -0.07948527809406004, 0.03262298717432997, 0.1476713141215471, -0.08384770960526425, 0.060307463225833774], [-0.08045238558006232, -0.015764443932377605, 0.0618884939283002, -0.0557348045612702, 0.011489053425057147, 0.003778654357382184, 0.008680923647858545, 0.13362080975885854, 0.09804128350783425, 0.09922098037103111, -0.22489974176902203, 0.14683203608184986, -0.09361456046387437, -0.031146664170103793, 0.018197883545483653, -0.03405826785978423, -0.08837330576027601, 0.011817600466179645, -0.012634051763041984, -0.03361743206223422, 0.045118555499212676, 0.1577052805253136, 0.0032648263094691163, -0.08550178673816601, 0.0852452401125887, -0.08992851291786597, -0.08794164333405416, 0.19171192756664207, 0.0382661702029424, -0.1923472266236961, 0.14282164968107058, 0.1882118261784009], [-0.03517914429347803, -0.002701485200390744, -0.1232238095771405, 0.03443556010004909, 0.06422496288432762, -0.06711589779526553, -0.12017392517555692, -0.02881770948740312, 0.13973280177844855, 0.1776160561586243, 0.01807789668356249, -0.12523163255886996, 0.16401367278770412, 0.06472809499066948, 0.026725188262253615, 0.04562213676814555, -0.15163611143725395, 0.17013325349110636, 0.1886719125265998, -0.03840590741932014, 0.0303844422008773, -0.08090245847451442, -0.10243506304339825, -0.022357523247693113, 0.03661376351678357, 0.1625860933174419, -0.06996350745737605, 0.03864101624187347, -0.009429976695433443, 0.027187906101417476, -0.251296883866615, 0.24154084106863655], [-0.08936455768126919, 0.19198155545278883, -0.15699687336722495, -0.07945285210804466, 0.08709020050448951, 0.12381745419835813, 0.17057406910293407, 0.03610384985588085, 0.26124948159681627, 0.11786097556892178, 0.03511778424741864, 0.014085552172831629, 0.0969202618313523, 0.037397916803773, -0.1437053483678565, -0.08787784193880023, -0.04712687812077589, -0.030084981612049484, 0.0906897593741747, -0.09775991327767614, 0.0960976250582339, -0.040894390069242705, -0.035243262922173973, -0.030484248922217114, 0.1443235482714768, 0.08454433597664811, -0.15408958253280808, 0.27993765384562275, 0.035436745258639726, 0.021517764633267097, -0.13411389881922836, -0.23485556221170156], [-0.051873481998369754, -0.01372762408843219, 0.011680320771647285, -0.044578320740816406, -0.08253334251389151, 0.05707360984496118, -0.1488736609350991, 0.00021145959741952276, 0.06839752008556295, 0.06558926441565627, 0.019259831507554098, -0.009511334242239452, -0.010402207050118973, -0.12526360079983223, -0.009782708085377963, 0.028059585883528294, -0.02480224945577208, 0.16513111987195558, -0.07652292607670923, 0.11653776688195588, 0.049113801045638956, -0.10735344467621342, -0.10718753427571878, -0.02060481559454705, 0.09336340141976568, -0.00229587076801938, -0.028051424964514817, -0.11195857313253049, 0.13794421157244402, 0.16344006150350832, 0.21298784988253913, -0.08559953729510276], [-0.16309533012579047, 0.14624125856317888, -0.21010718893267855, -0.017904986697791538, -0.15150481887742892, -0.05142610359903618, 0.09650134292690775, 0.13973992404743277, 0.07855833049083527, -0.027245453893730266, -0.056213211969347046, -0.046275070373755584, -0.06233616465492557, 0.1458095158669519, 0.046526174685180936, -0.08567961184416853, 0.15559423796801694, 0.015091383821698248, 0.07301670350527245, 0.2632021605411505, 0.09455167168182473, -0.03746186501950151, 0.07336758734955022, 0.017631315879847516, 0.10958407894539351, -0.022520298953110484, 0.05500237476837308, 0.19905006133936898, 0.1251438077680414, -0.08067887216566279, -0.15104675338217508, 0.06553009134047574], [0.045958457492084784, 0.17337563212843815, 0.03009531004520262, 0.10352399751874768, -0.17986417831188373, -0.05372769425547034, 0.08103510908184351, 0.09291324738730355, 0.1138656215280444, 0.14185564855169583, -0.04849781305603353, -0.0395078166949377, 0.04203642831301758, -0.04137073349581297, 0.021405200712135666, 0.1156217323387056, 0.18497964103084868, 0.19531690373219782, 0.08087127017178551, -0.1308321164608393, -0.02903497676232583, -0.02489603988690779, 0.05325671802722889, 0.13546161486939892, 0.17852268044997743, -0.04262391555076743, 0.02445971913953211, 0.1232186435490362, -0.09268773028934821, -0.035123489302545385, -0.03205536162123133, 0.1843742950802521], [0.24207778048029338, -0.053251822330820424, 0.08149309094404616, -0.14137924918759562, 0.2839902031915642, -0.15176830375073727, 0.017475314765630703, 0.149016002072536, -0.17234057080464737, 0.028099627488302067, 0.40017979080640453, 0.10133031554320356, -0.047711211585032484, 0.04584043227328727, 0.030534946935857572, 0.07669034660509938, 0.04944365542703737, 0.17246924940139188, 0.07491231866697227, 0.04759116085239143, 0.21391673684366938, 0.047136698920878725, -0.0926781179951186, 0.0060799241609360705, -0.0904498703892578, -0.017315746059768704, 0.10709421353623468, -0.04260893815888557, -0.27821234182226945, -0.09842226068518431, -0.10173626300021153, -0.07527311499505815]], [[0.08824542214047273, 0.07635029867342374, 0.054300728779765176, 0.0297256089014757, -0.1359057728304208, -0.22097054646150535, -0.029957771112479558, -0.16411778250677472, 0.19187339877432502, 0.009069277442989708, -0.19730676116941126, -0.029196990273275894, 0.004120766727730616, 0.12974611451860818, 0.10218029084000076, -0.09188019395573756, 0.062809026831516, 0.18226544824123525, 0.055351025011152556, -0.05342693807569065, -0.007239836526474223, -0.10897113498293745, 0.0797270940440863, -0.11427216595142098, 0.06901879969182374, -0.021792418075926575, -0.05512774303595024, 0.1754791495385257, 0.0020464776990533674, 0.0193277745336282, 0.10847554008799976, 0.0583443701081629], [0.009809618304517279, 0.08439163921977497, -0.12032192700330492, -0.026953338582043816, -0.186914008599095, -0.11613660260848635, 0.07202514631064019, 0.07591066779504092, 0.07869608324343096, 0.23781431969874933, 0.20773694153225558, 0.06355545390767282, 0.01666115875058664, 0.018270416362795337, 0.09163473538707957, 0.14092411318987919, 0.011823840085133383, 0.05050967069372456, -0.07355729227030555, -0.1473023190764474, -0.15488791475545965, 0.16660996530849226, -0.12234171269324315, 0.05885242855956257, -0.024440834962462642, -0.23277409838368016, -0.028949344543469837, 0.13863341278047872, 0.1288254976665975, 0.01748490962699588, -0.13475398100004407, 0.1762977555038478], [-0.1251897443884607, 0.014759048952377195, 0.15147955076773334, 0.011283094625970509, -0.051535533805842595, 0.09747204888121558, 0.02161823259551174, 0.029915645739975124, 0.027195819148287895, 0.027593448533652705, -0.01303854143905516, 0.03668652161941632, -0.001417027557262044, -0.15755556216791639, 0.12915957722470447, 0.11487729054367488, -0.012273613545141199, 0.12652923929661417, 0.15466163493973104, -0.06312502677698927, -0.00906448436246792, -0.04676530663052225, -0.012434053212770774, 0.12838051962528121, -0.0337726486449312, -0.11097275205736772, 0.11669053330478138, 0.1505055067430597, 0.13059976369808826, 0.12021960904652616, -0.11233430908581024, -0.08777882258527112], [-0.20219335391806803, -0.10820823988077281, 0.17780182621453006, -0.12670491739511358, 0.11523132826622126, 0.26040823731268975, 0.06218299672921835, -0.04984944814999418, -0.35807761400656757, -0.04486361565038095, 0.06883656142394602, 0.2366284952924534, 0.19583670721912197, 0.1685510369429689, 0.17019534544218812, -0.13892962576103393, 0.024924290276201463, 0.23161237877741855, 0.014070469380048281, -0.03300377706170986, 0.02712037445158068, 0.030251105495592772, -0.08679987687691867, -0.017996237282516498, -0.14684721162230077, 0.15849228322977557, 0.0938733976552672, 0.05483165141675849, -0.07884934704843388, -0.02263511626552416, 0.11966027302288489, 0.06512747073320242], [-0.10714808234681185, -0.021137723525751276, 0.10804752626902951, 0.02573090411286326, 0.014394460663509741, -0.20814564901463437, -0.2946458605287777, -0.08388764831566724, -0.05799576312175712, 0.03694603843762036, 0.13368635735925857, 0.16546776809547153, -0.047225127058733475, 0.14224621433578713, 0.06512433120787502, -0.057065901654731306, 0.0703960152610153, -0.17611682174715965, -0.18311831375884982, 0.0937228906227735, 0.12128930041437085, -0.4246248795927119, 0.14933916192185093, -0.13238202753191183, -0.09578054091626932, -0.006758529976538059, -0.11106291352513446, 0.1286659551792962, 0.2456569894950201, -0.16535943496259226, -0.06994094894207539, -0.10927390805875253], [0.04411037668347242, 0.22374292122134354, 0.09875325731261392, -0.04088646583483092, -0.2513474868823541, 0.030379110953240123, 0.1753601112464658, 0.12753946173593195, 0.08633856592609222, -0.00991522015965006, 0.18905754280203113, 0.18426749844018234, 0.07171298775375315, 0.15978007264233582, 0.11739490900481597, 0.10885300151584068, 0.13776774620607166, 0.07996139647356133, 0.23871071541899186, 0.09468636053907226, 0.09420713681909747, -0.12253820689143673, -0.12371404700267631, 0.020126728773225466, 0.04522827547283325, -0.10514919776927559, -0.03369958783035097, 0.1377913821549222, -0.02252484798443397, -0.04486320303053888, -0.135748305318355, 0.05787236304726252], [0.15020002753283965, -0.11783827426602024, 0.011416185526104121, -0.001619040358571419, -0.10693224616788244, -0.1601435984849713, 0.05325601142868815, -0.15536633051680898, 0.05215981227950848, 0.09770657355721588, 0.1370594015592708, -0.12669572235554513, -0.11936336039883601, 0.08193781400806578, -0.3396959688476019, -0.025899312901104653, -0.1332698053708577, -0.08333877892994127, -0.19064395028812028, 0.1233144552421233, -0.030089476355618743, -0.016070276495428335, -0.059420056862391706, -0.007556644072735688, 0.00654372869832255, -0.14077980186883138, -0.09851807416309923, 0.0833257594210102, 0.039798394957909045, 0.16562382553073027, -0.016720782571267214, -0.04012848945141896], [-0.20159218420983988, 0.09086297200471535, -0.05711172691681626, -0.016009986571410333, 0.032247042376114234, 0.08305222285622793, -0.01834220055405983, 0.15842806956196032, -0.19169257170563622, -0.09212504294035426, 0.176028113001702, -0.20872394935502012, 0.2692325640823077, 0.2828594849254713, 0.1245019638682772, 0.04813457598642263, -0.019699506978520232, 0.1409680965843335, 0.1088862295822143, 0.09571678499980893, 0.11285032070942046, -0.04948681996700972, -0.024646237345231175, -0.11427982421520964, 0.003997712702674455, -0.04642243971317947, -0.08114387896153566, 0.07883390520662872, 0.20868801293638625, 0.08166805253074856, 0.041725926489282805, 0.3752359450597925], [-0.065490920210571, -0.18384593452097378, 0.22412096429724077, 0.14727447874571242, -0.071871607038123, -0.18816695538439, -0.04249201451093899, 0.0013735730377084704, 0.06272424428457858, -0.06902044630359405, -0.13256415527680945, -0.1266850931883025, 0.06442339469350328, 0.01125333737882728, -0.2709171799820858, 0.15552853679580667, 0.014516743528410285, 0.1516815874547786, 0.040969893600302947, -0.0008290508548338126, -0.1162568674287157, 0.0424861904499297, 0.01141339829370615, -0.047685254213890374, -0.0048356308227914995, -0.11758944067706534, 0.016350776784846865, -0.02495642626474643, -0.10755920441152719, 5.8945586432941947e-05, 0.0721753223128139, 0.07953193616346828], [0.12214066165366824, -0.03648650552137495, -0.0003355952160175255, 0.026554816716485803, 0.042502022862059195, 0.02930962138830405, 0.016411147171920288, -0.06190744600696687, 0.12373786724508486, -0.026653555688774186, 0.04683675128577144, -0.02917227889247989, 0.00863920262757901, 0.06748473063169926, 0.09779865455464254, -0.2981893304169362, -0.02014531301047141, -0.11965709869444956, 0.177070212107004, -0.23558278591989187, 0.03397532815848318, 0.07826750243604909, -0.02953461627886337, 0.1106510928870241, -0.2037674062137753, -0.18231519414238911, 0.18839265348843573, -0.14695672670303925, -0.021596551391108894, 0.1736454707370147, 0.09356334975267001, -0.2153476453814591], [-0.17398466714946695, -0.1056856671791231, -0.04179134760256214, 0.04014357316925706, -0.26539235305406844, 0.1230114709448668, -0.03829831073664704, -0.16584651007239504, 0.0720263137410288, -0.0072452018190677595, -0.10535395004904921, -0.11230846934106653, -0.025919371871592174, 0.2733344001993408, -0.20184831536308365, -0.027325277763998675, -0.11704738752434485, -0.09529129772076114, 0.034238621344551044, -0.09482167517085663, -0.18761192642501315, -0.13754877641546184, 0.013932928033662683, -0.005619658703985792, -0.11886305005253056, 0.09242371866019364, -0.04026801703281698, -0.049828523978146334, 0.038653923077790406, -0.02680904283767243, 0.04539045183582446, -0.04819825735687954], [-0.15362261893853107, -0.25528990124978473, 0.14921064551830598, -0.34945158521150976, -0.10445563748910562, 0.06989546750824924, -0.04282575808143393, -0.10017250589001168, 0.1379636417952486, -0.10594893940990774, 0.044091278494880023, 0.40549903052013203, -0.0978279722859609, 0.007353708398824752, -0.09585265184232053, 0.10750611480619118, 0.005023182941332744, 0.14077480457655145, -0.07308253612534563, 0.049520309093831906, 0.0511669750594467, 0.09889739231956862, 0.02056068588937665, -0.06914516426746833, 0.12354258094691155, -0.06249930258096165, 0.15824835922161457, -0.013533043989291492, 0.08566150082532073, 0.07725340161779705, -0.06940131147398719, -0.06634086974508682], [-0.14484326409079737, 0.15538350276517415, 0.08587504582554549, 0.09624856397839994, -0.020246260087937923, -0.18212108258459905, 0.08679584439035512, 0.0024856509462591898, 0.22326672622764088, 0.11242955200518166, 0.08406116401331622, -0.02499154723823039, 0.08957705920562857, -0.08432453575479078, 0.13758524951546489, -0.16647234112305997, -0.0162065316420499, 0.14471723320173666, -0.10690304152388257, 0.00060494527783781, 0.164803739083032, -0.010687044803782427, 0.030733681839980622, -0.24578893226689705, -0.012060135361812493, -0.04123138590008677, 0.06625573700399384, -0.03134126707691431, 0.1791368806759822, 0.10325494384626813, -0.022207861881308185, -0.13889214670840097], [-0.05900841927572661, -0.11719755403960519, 0.03483037411923309, 0.1505354730312373, -0.1836638809003236, -0.07467778666245156, -0.11703847316688824, -0.09957397810389244, 0.04763904504960572, -0.1956958792836711, -0.04541612385041164, 0.020997060782400767, -0.27994409961129746, -0.0332958725567278, 0.045727155784832434, -0.006767105809806403, -0.04090110866707172, -0.048246515076225814, 0.006894899694953794, 0.1467997795433669, 0.033672797893799414, 0.1507712863216502, 0.07889119257291949, 0.020501316324796088, 0.010424625277644085, 0.26268336016008204, -0.09268359130288917, -0.07840809331434791, -0.11114386897377765, -0.002886768136395925, -0.013665620655165125, 0.02710768337171486], [0.007376127007166973, -0.09728049766112014, 0.11027965472952138, -0.03812376747098649, -0.04298268421596404, 0.030176002716283342, -0.0008026402222359665, -0.0045291532172358475, 0.03780693996665727, -0.05852686437324008, -0.07990254872466979, 0.1933655298942774, -0.027303459175115247, -0.0007642143682737828, 0.04575621522323621, -0.09417421153219936, 0.014665978291691662, -0.07817468614453522, -0.12000274045365401, -0.24413309349040543, -0.07529408708826058, -0.07054551391867368, -0.00021523113164227054, 0.03516164428065523, 0.09073883316643791, 0.0160978374529663, 0.08484994295330771, 0.05944488886349188, 0.2627109415882675, -0.08508422666967952, -0.11460736137034168, -0.11708111340695583], [-0.2571396399517936, -0.002275935027106247, -0.13605641558789386, 0.06416149173206448, 0.026222548768714736, 0.1317408706061062, 0.13412312639653734, 0.027228956224183358, -0.1330427883143311, -0.15972953693752526, -0.17957749258990377, -0.043798115773168174, 0.16084066646271047, 0.04339766799088708, 0.039340256932088355, -0.18386501436375302, 0.05088670834326942, 0.11329840785471888, -0.04826404692518308, -0.002656496435701044, -0.08480331514473681, 0.07501849976865985, 0.04105391851128622, -0.09076488547508003, 0.11645901985722111, -0.010715063029672045, -0.009787221551158213, -0.010867405811805458, -0.21308160068903081, 0.022519022248252182, -0.143642023032641, 0.025742142307566565]]], [[[-0.09737583266307713, -0.035774974432117676, 0.029760987128768127, -0.14086439793590141, -0.0991411277961773, 0.07827273737886524, -0.0644145352676256, -0.02479057883753939, 0.309897215229689, -0.13641174727498043, 0.08202480408094309, -0.14016223417619517, 0.18506267630394352, 0.036099633377394004, 0.0417714849906211, -0.08934602646232245, 0.04843603992530314, 0.12910555951259867, 0.03826343112411743, -0.11187740335360837, 0.012311251488472454, 0.14866002322511948, -0.1421850911095164, 0.07103957425514414, -0.11667830097025074, -0.305283624544046, 0.12418056026929578, 0.010328167528419618, -0.20246504789637323, 0.15040874857708733, 0.12091164156476521, -0.08984651005486811], [0.20708924250123248, 0.09260961016994444, -0.27816006307003766, 0.06683158441104349, 0.03439189621430979, 0.0899358263030737, -0.0753337052975745, 0.1604497578470448, -0.06125713257958122, 0.01973292179247529, 0.017824674700187733, 0.27121827947299443, -0.02281186394322358, 0.08759588677939861, -0.1732202276564158, -0.025951760691003106, -0.10761273363733521, -0.016023321404404735, -0.03558607248716004, 0.033530183151462986, -0.13330032813919587, 0.14782170904087766, -0.05580607793581136, 0.008883673722308045, -0.09062154393337438, -0.1667114906580261, -0.06258907135724724, 0.093999551673264, -0.00890589337955248, -0.24164868041213652, 0.011516249087898485, -0.274994728264282], [-0.0429489073501502, 0.21960650596367995, -0.19245630504263567, 0.10010612547654131, 0.019209196231128448, 0.08362767261949099, -0.11176495754490783, -0.2747983614471698, 0.08524608169277224, 0.007193923997855361, 0.09589804754409512, -0.09168795509291137, -0.19094608943438662, 0.06824521757138523, -0.15929912448990274, 0.015302914116822665, 0.07007776381358795, 0.04815659927111321, -0.0016691337583923842, 0.04431753317935265, -0.011180734519032565, -0.06360603969286102, 0.06094221712741889, 0.05239776691727213, -0.015399374395238178, -0.16535502906251692, -0.10067894444460675, -0.28750578544366945, -0.02126455286564564, 0.0478338158781972, 0.17496194942046203, 0.06363271543930477], [0.10011928160253245, 0.1870011076897106, 0.1266220432236799, 0.1256933867933619, 0.25992639540944534, 0.023011215925440188, -0.06405337117484866, 0.008285493931954262, -0.01613247385901258, 0.07696271990666918, 0.12221998215377478, -0.0053587746148204595, -0.059817663955803006, -0.007284387398530428, -0.10686643678681097, -0.026987446057995967, 0.13497084721211874, -0.12812269869023327, -0.26880017169343423, 0.015420150220909198, 0.085630025349785, 0.06568482124065962, -0.02215123192523149, -0.043014516058120816, -0.214614763353891, -0.15566339232986223, 0.015585590194067838, 0.11802237014973996, 0.29004889221326496, -0.018815734709603352, 0.054340723079421206, -0.057755196515727476], [0.05804185241738911, -0.01973623629114921, 0.0647768604526665, 0.015744295958228665, 0.016721270393654883, -0.11354487147223624, -0.09690131927597931, -0.16758020832617768, 0.001548167096899625, -0.001251476645029758, 0.1567683740980343, 0.24695599679425223, -0.04631767807587975, 0.11311891018667652, -0.06901995818620568, -0.02477302732003462, 0.008953474477397126, 0.1842097662960979, -0.18860431496616903, -0.09806113893479193, 0.020038788125404657, 0.0839335878125766, 0.040344556759105324, -0.07420162479700088, -0.21587690223517408, -0.20697080650321514, -0.14382873908874413, -0.058182353706429955, -0.1266375225548788, -0.14798448126579633, 0.14896558619647154, 0.0714025563672174], [0.0823291725243604, 0.015750513007515732, 0.09703829231198063, -0.0995479367432798, 0.1447008237528086, 0.07073473036894308, 0.0969539054741782, -0.09538040553117412, -0.02521172393658562, 0.3120539759867815, -0.1609028144921012, -0.040247163054407974, 0.07736600180998741, 0.06122922774627073, -0.15280501985622696, 0.11979984688518835, 0.03730493716521268, 0.0774061816421036, 0.1448731648361865, -0.03092635708270178, 0.02141209667349527, -0.30315566244947517, -0.1860232704175217, -0.08928513876915477, 0.08823140154529024, 0.016421237502656404, 0.04632604545771096, 0.08362414396646049, 0.10785214633894932, 0.18854638478338956, 0.0997728373681498, 0.1044310487426425], [-0.021300256444648343, -0.028567116197072483, -0.029377659195633152, -0.11005733476030098, -0.08912431565500996, -0.07947547266204158, 0.05016223300585246, 0.02566849928143987, 0.0321774609765815, -0.1608051431265984, 0.17916486987195637, 0.047324138825036846, 0.041847888732945766, 0.011615500530459453, 0.12798686281027688, 0.04864086518489316, 0.04740204702120234, -0.17647673066364844, -0.11054491655160617, -0.09416502472927765, 0.1210214562834956, -0.09020667012344616, -0.002687089911811166, -0.23368351623975775, 0.05359976390361514, -0.01855961572154486, -0.02165673695473197, 0.12424125699243542, -0.0014678973675956836, -0.04790907837893355, 0.08527754247705241, 0.055601246210030625], [-0.02040431722832142, -0.1123940074452785, 0.19664455778137965, -0.11227486945986681, -0.015228077782639576, 0.2376744499104835, -0.09662126041621372, 0.0295581087056332, -0.12005313482150022, -0.05237431695156964, -0.13785422331652947, -0.12061854089618655, -0.14086944554635988, -0.011213274241192946, -0.017992769097528904, -0.21551797360490457, 0.15156561132372537, 0.018541907705227824, 0.09315083440384932, 0.1301966501067954, 0.24371338707038392, -0.02797161193997901, 0.06629497884255801, 0.1216874777950962, -0.11631588179904256, 0.010522661811639888, -0.06774877888941314, -0.20004251833909953, -0.14791939155752823, 0.12488896772705001, 0.04085258168902457, -0.16060259308764502], [0.016854904384222484, -0.17742942495659786, -0.03729610117218315, 0.15180136508353667, 0.05914574944871821, 0.06833782312324115, -0.031694209069005906, 0.0810309012338915, -0.054760689330480505, -0.20849068277741337, 0.2707269173872356, 0.10256474989906833, -0.022707234993738046, 0.11907067354906048, -0.008530453174740115, 0.2930154280011023, -0.08609858183902629, 0.19821028211822278, -0.07557767395957421, -0.06929917868291484, -0.27987595054805503, -0.1673281266813262, -0.063337363663601, 0.09646505698030663, 0.037472575013278595, 0.06641892455446699, -0.2649300305738486, -0.03752033206106434, 0.00016117986742861254, -0.058807138266439705, 0.11873079673664973, 0.1560886195005484], [-0.13462395228721233, -0.18000263663565347, 0.2071360567315312, 0.01794763540261648, 0.07122377975699952, 0.17766331108538932, -0.027302544288780435, -0.031097999972481225, -0.02969179176958934, 0.2832335780678549, 0.2536331815996519, 0.07625764052630007, -0.11790563538162738, -0.05266922156762942, -0.09524186685147286, -0.03530808280198448, -0.05981062872688366, -0.0033468483678061427, 0.0223733101266135, 0.18853154711603876, -0.05080774143316701, -0.03558688291011897, 0.11637352261396777, -0.030150373261856295, -0.09083108482848247, -0.14607769389641856, 0.0339843745000314, 0.09745747898991919, -0.15651853084770342, 0.06884461898849717, 0.18621746475683368, -0.09004257825942184], [0.07689871429768848, -0.08083890625676568, 0.09804393085062033, 0.1878383577845582, 0.18690282817028028, -0.013975615048455705, -0.15249922754004167, 0.09397383139867618, -0.07905370976499967, 0.05962705521231812, 0.17047053309911175, 0.020734382574921027, -0.01631706437258942, -0.01350052689755466, -0.14150316061418022, -0.07042707389998525, -0.10186046382828685, -0.05406400288079164, -0.07799942608265353, 0.08988963459351693, -0.08448058716754692, 0.0009461426516865381, -0.05465826283268858, -0.06532827344869953, 0.157481366904792, 0.03580008793227645, 0.1318589337639031, -0.11226585020143412, -0.058007950939621945, -0.07755606006111304, 0.028846780991938947, -0.1095878215775833], [-0.01032758790966551, 0.09273729649695583, 0.05127932501051589, 0.025625773095877984, 0.13532568298772035, -0.028430411495536417, -0.1591886903162274, -0.010277250450215656, -0.10848856296375474, 0.2869097785016271, 0.07473650657884927, 0.08688950629215422, -0.02857994597108556, -0.053731976957611095, -0.06314629351942118, -0.2648156881665435, 0.05674830984418381, -0.08708165306408601, 0.09378976295814395, -0.05379714855818504, 0.04223493919899419, -0.2427127263624175, -0.1652412873515162, -0.1742531311855346, -0.13112426335687757, 0.016734628260324815, 0.12371815814802842, 0.27522995698390623, 0.025463381124490547, 0.04781268312541223, 0.06871557194021148, 0.07021008721358524], [0.018963566225608665, 0.05498630647797631, 0.10371704733301967, 0.06569252472764103, 0.10452447116096669, 0.0523254051313953, -0.015695863907184984, 0.011833648504039765, -0.080235309107675, 0.016192528069796028, 0.1998454567129674, -0.015623322245549492, -0.21834086140232561, -0.05445169918893671, 0.00894053834050702, 0.1621031192915694, -0.05178756817316546, 0.11962472123167431, -0.07290869597098859, 0.1406379927082422, -0.05598263989229574, 0.024011940450749072, -0.05101095115663486, 0.09340867633616369, 0.1620148503893177, 0.05258573100240063, 0.15947742436728313, -0.07066794832044179, 0.02996818411532468, -0.11483969880739048, 0.04596677820838708, 0.05147818131957685], [0.11494651336229696, 0.07827897283539251, -0.1565496833103706, -0.14495678317197763, 0.08574849612034308, 0.0074522519895438375, 0.08547610543301581, -0.056817349106299035, 0.08237370403365472, -0.20151052444074768, 0.2825355050435003, 0.04424602379009702, -0.12573529474809192, -0.07732615652801046, -0.24121672825166784, 0.1577493106362007, 0.03150219878960585, 0.1985519863029711, -0.016378089114591026, 0.04890700888615698, 0.07699154855029382, -0.2078162955729697, 0.23390588546590363, 0.19307668895112592, 0.0847503297200945, 0.06363205315851449, 0.08381227320244011, -0.15483088246006663, -0.009091546164726785, 0.09992968210275036, 0.012240460428688999, 0.0224779850723287], [-0.01569436111689062, -0.10944882406478902, 0.0547879966887755, -0.06804224017376623, -0.15337365164853559, -0.14279282154353073, 0.02665615833247107, 0.03643938918797921, -0.09995545873599367, 0.007950290769560369, 0.12056463870715728, -0.017366149678495407, 0.10831586059866775, 0.10980511092842543, 0.13274390496810076, 0.16495708150416089, 0.07548452117261446, -0.08311894987752683, 0.05197543537788876, 0.2758454633197923, -0.0383406619024077, -0.18591179067704267, 0.026281525175801932, 0.07405049760696268, 0.10103808502502505, 0.08187509549817144, -0.06362531504874196, -0.16756296061151796, -0.1714173702872841, -0.12329896415466039, -0.08241523969849424, -0.07671708043010832], [-0.062367275826849373, 0.011297846317202691, 0.2527142047895065, 0.11791620755360115, -0.08434723172691394, 0.03232621377798262, -0.14804152263792142, -0.21773951019809853, 0.1343665936737702, 0.1195089214886108, -0.05791062638603993, 0.002779445041635076, 0.035640175925223005, 0.016201592073099506, -0.03594195913142346, -0.16413812526562974, -0.030176973070098635, -0.054144849918283236, 0.10749793165406146, 0.038359996207588586, -0.2319278712880279, 0.09691666814143318, 0.06817906517287749, -0.018109283600516973, -0.19731657331692556, 0.06485280137156117, 0.026907511740574548, 0.10753159677109453, 0.07278585015824944, -0.19061733356998872, -0.02561967700305615, 0.06053426807657716]], [[-0.2317496805163795, -0.3328653911785476, -0.018055946077960416, -0.020226587837047595, -0.0885875272403285, 0.09963835151671098, -0.08845013158940648, -0.06433382344026409, -0.04181583352824892, 0.09206174708309209, -0.13946270174040637, 0.2157125807751202, 0.2110490774811904, 0.0897042378313634, 0.17204353050124077, 0.14628686211150738, -0.1649797884735524, -0.06050462707729309, -0.04509281579211691, 0.13983251241208602, -0.05136659997681161, -0.08504601888477795, 0.12566283960236485, 0.06778553913726806, -0.19372634571852712, 0.062446823152573126, 0.051338764815318086, 0.18966083839750295, 0.02873525233325931, 0.07805401083524155, -0.02490177608398856, -0.05549024318077058], [-0.006636868210734443, 0.15649001360426487, 0.21678186808334957, 0.021010605651369182, 0.2781433837499807, 0.10019452183362847, -0.06530805098231071, 0.08489356405620893, -0.15043516250690284, 0.2501612747628614, -0.03158320346315533, 0.11707356290727845, 0.21491908801162524, -0.07808609991344703, 0.22661104109589356, -0.06649910920356115, -0.13782047943545417, -0.23704436722714226, 0.020731048584646344, 0.08361584018953883, 0.09022465564647666, 0.14240847286019281, 0.011110542280333395, 0.08381125412648914, -0.11157384256058384, 0.015572546876923412, -0.020230460164065343, -0.09791607459148473, -0.2859193749186638, -0.007207478671538291, 0.07286294698940181, -0.2398061993502786], [-0.06293212222879371, 0.038812222836355395, 0.13162809650506996, 0.18475649310020895, -0.1554461766644985, 0.38402206660928045, -0.038342218691074396, -0.03542402160137867, -0.14046327448216364, -0.039758003232492296, 0.020371427294858135, 0.36762233871518807, -0.13085834526887094, -0.03500115748538134, 0.09384037951450548, -0.20409881437252897, 0.06582882214911873, 0.11163618622416556, -0.04509481359309639, 0.18210817431846452, -0.019942369540843042, 0.06798737890793488, 0.12874230047198557, -0.1759421672423617, 0.18083803505094884, 0.034969985064843466, 0.06736612115862005, -0.3194117226404743, -0.040109491466955964, 0.029672329279783183, 0.02328088226804038, 0.02319287568119151], [0.021491054834131728, -0.007272139840525006, -0.07373383200943369, 0.011430635760353396, 0.02213064291373343, 0.19655935316868758, -0.020803803979581117, -0.03210288394783193, -0.0474261591843125, -0.05398933924455788, 0.19288696703890482, -0.043124380624115166, -0.28017696834469247, -0.06706227110562848, 0.11319982234212941, 0.20419965345181926, -0.15762807008075194, 0.01628795612939173, 0.14049331761586228, -0.1817888157442591, 0.0530042860787932, -0.09423558440801479, 0.08109089708160726, 0.034904142251056015, -0.14422728184063743, -0.10076195551488726, 0.14704844482562948, -0.004413012586928201, 0.018850843507840904, -0.1540103586283218, 0.04873753481526786, -0.19627100597902794], [-0.18015877279184017, -0.10446481334133605, -0.1425668197523847, 0.17185947402874469, -0.20166238505434556, -0.03852809475851414, 0.029346494295597127, 0.042314392212669756, 0.054335442498906705, 0.043328201033717054, -0.23202079817654614, 0.2592682952765751, -0.17018755555744042, -0.12326529423256241, 0.12141481659237653, 0.1692046394334123, -0.16052631990528696, 0.15788557426447333, 0.04884227881208322, -0.18268400954624425, 0.14407098590440662, -0.0662940617536602, 0.1597605664989331, -0.015429960317655046, 0.1163627528072762, 0.046089636028813205, -0.11449849033942236, 0.2950283487567584, 0.06715710115083909, 0.08697050960382954, 0.23809759939067712, 0.04496061761852493], [-0.02079835559521694, 0.026145392302684565, 0.16824599263953974, 0.07745213540874027, 0.08165761367249413, -0.14195407638440652, -0.3278736423799314, -0.029057049979526278, -0.05172669018915177, 0.10190129767896422, -0.10874985961234081, 0.0634209682905604, 0.1428450360917308, 0.06871976125454943, 0.08909802364137669, -0.054668222526096044, 0.00778224080348903, 0.0406453602082062, -0.052517951928293956, 0.017221038149511845, -0.11353666775500937, -0.12670440770994168, 0.10077139074511342, 0.08086011785402653, 0.006253033361540989, -0.005520490598077321, -0.021976527178295395, -0.001112601927763821, -0.11558702887074442, 0.11425633582142738, -0.01592526921850765, -0.08533197553806383], [0.02986362931378864, 0.05192298430319817, -0.002274313673959133, 0.04535620023387242, -0.28349698247490934, 0.039036889167467934, -0.11854981235905412, -0.062284059969050995, -0.04625672827140369, 0.10964347568355465, -0.031142228813783226, 0.10835196070412127, 0.1926695401518023, -0.022983239338134603, -0.13039827041556756, 0.06479709385047937, -0.06351005480280562, -0.10999276182396897, -0.14648310564028594, 0.08689052747979627, -0.036712608753386916, -0.00751543285866994, -0.011923596485945584, 0.18361284345152037, 0.20736997266338625, -0.09711377139416848, 0.25543929327978776, -0.14440527865396208, 0.12205862657272143, 0.019336174475831414, -0.02187005704734477, 0.11668904720601035], [-0.06372030953705281, 0.10643138033039555, 0.02603494481112867, -0.05718214157428229, 0.07869190736789126, -0.13970790148008622, 0.09695523661138886, -0.03175803633919217, -0.048193478906935754, 0.009259510765808178, 0.06078258159637292, 0.057206562703458995, -0.03731938899666311, -0.06548607673329312, 0.20262179460471397, -0.059618975139581906, -0.04002719251361891, -0.035838183605293, 0.0335666137503187, -0.014038297080056118, -0.1670281672678355, -0.0627949925049225, 0.08290889528149151, 0.01543676970753357, -0.06043247490095487, 0.09184080813350323, -0.05196928170159114, -0.14272986306938493, 0.17041354937018552, -0.11901503631850491, 0.06494340479199832, 0.0336955164504041], [-0.060131813736656284, -0.002200967720581891, -0.06065209017520329, -0.17838823183817293, 0.16256618612539026, 0.01733079548034408, 0.11558245086831577, -0.03512729821175935, 0.07369747615232256, -0.027681004673051634, 0.06526437917056273, 0.19436766475727021, 0.03530927501987229, 0.08050935997913661, 0.013112298961054997, 0.13782625819079153, 0.11663397099924701, 0.12269170171040897, -0.06651745947697466, 0.02386443055461164, -0.07943031753457518, -0.09355258292417994, -0.10149682337868554, -0.015180467897021066, 0.13065302823869962, -0.06661130813864564, -0.09283849340990649, -0.09469971091848957, 0.07893224522582235, 0.0013959516558490993, 0.0816333048017828, -0.09997894545224913], [-0.04968164819018812, 0.1696191450056739, 0.07504251199748493, -0.28632282009333365, 0.053472565910922865, -0.036062069052734215, -0.07656554250625627, 0.15199900831771046, 0.06769370647898819, -0.08966780391822758, -0.04442548148149527, -0.052717552249540216, 0.12229566488719135, 0.20804258345429028, -0.1437280849210902, -0.015367004375588439, 0.19362838874214114, 0.04067191849211969, -0.10356717938672412, 0.043713936471433665, -0.12825527983835353, 0.11288412933825644, 0.1129286382682428, -0.13152555787829412, 0.005479936898691629, 0.1706486951068009, 0.04714491282777222, -0.035197110420584654, -0.12745075077348916, -0.07867304648778854, 0.08089579609723561, 0.004454208718385245], [-0.04718702499378934, -0.062149787576948175, 0.04318538514501381, -0.02436302210162238, -0.024430726985923006, 0.034470459152740274, 0.0006483230370316439, 0.06327976590375597, 0.07424191740613918, 0.13867245647902696, 0.08221987619271472, -0.07717571546857571, 0.1470416864933745, 0.26629990312670937, -0.18187529012785794, 0.08181809890108364, -0.10590847610925586, 0.14532678233478163, -0.1586538181116898, 0.013140928937445655, -0.27260231076870767, 0.020769935831917673, 0.0673822841934125, 0.10964354050286121, 0.03186217535426583, -0.03491629702473955, -0.0011117924063073325, -0.053394097018413064, 0.05269913957692889, 0.07615868532621724, 0.06732684635818381, -0.00544421483142924], [0.2400943836676478, -0.12636293726820358, 0.007774610426469334, -0.020325447361174087, 0.03828786478617053, -0.06599031200475293, 0.2562729777335732, -0.10284287693818474, -0.07271845084733125, 0.0032135157850119514, -0.03214863561430779, -0.032984647064880634, -0.0501142433069099, 0.0009611978827887244, -0.10269533997093717, -0.05998840608056574, -0.017772249543193657, 0.02205996786449533, 0.17457063807309703, 0.005727060373327136, 0.03584033743398336, -0.12176253394847036, 0.03700877832100015, 0.076157245420417, -0.07995506330735482, 0.1904455338627201, -0.13724937245017504, -0.05178321962472547, 0.18174201292247227, -0.11345258936851434, -0.05410060603639001, -0.14127288179084624], [-0.016309324858377626, 0.21098066989491812, 0.06769697914848483, 0.12935876076703862, -0.14497190718352798, -0.07061086674982792, -0.022358466231569438, 0.056044990679189874, 0.013464928154992372, -0.020123663475735604, 0.027061514963469254, -0.015745102137439824, -0.12811192628753618, 0.1213857660734294, -0.1451767846172636, 0.01681191538544436, 0.13918371119512798, 0.16594751918585324, 0.1377042880487357, -0.14522257351712226, 0.17732087732840232, -0.0879469654329944, -0.03846490547699163, -0.02590372526468854, 0.12432392111303059, 0.05254478350120951, -0.029317036877201965, 0.03410141183461737, -0.1768369178438432, 0.08886711734985005, 0.07580293559123724, -0.05902219434191114], [0.0825412382476669, -0.22233438889873464, 0.09333405031075728, 0.10843516663124583, -0.10407135394726506, 0.14384081536643842, 0.3399214967843452, 0.04996023812741839, 0.035571812689978846, 0.001404122997272418, -0.006347383680096965, 0.07095506090996646, 0.08358478778690227, 0.14530055156986033, -0.03503778377253886, -0.07548662353395053, -0.07077398362723183, -0.010742805223301757, -0.16840338967342552, 0.017863474004676597, -0.22670718505989176, -0.06355384661054216, 0.09121455697963285, -0.024808892700346412, -0.092088449001707, 0.05550102387672872, 0.08466848883615381, 0.09823543356959268, 0.05578927049922356, -0.07419299582852366, 0.09778301618556708, 0.034857984592688115], [0.18737059320738744, -0.20317893908643714, -0.022850355614850246, -0.10560945011298631, -0.29312372950000043, 0.03000502428045434, -0.09766285328753103, -0.08557124572592227, 0.040338019951680334, 0.03241149874195601, -0.004170772884821079, 0.026093964217080646, -0.16727478695470815, -0.031166805593280562, 0.08265728278637813, 0.13765514537639287, 0.062211311265480324, 0.09304800491117021, 0.027244368133789575, 0.3644578507824402, -0.07850978821490985, -0.10177465723391375, -0.006322411583336342, -0.05244340904798969, -0.07362472503314098, 0.03574199865355911, 0.020128236145666962, -0.265801711890205, 0.18560845364625764, -0.050716759680267356, 0.18412412595858374, -0.08393301981358901], [-0.045467849635806044, -0.010460758566381774, -0.1769007091094156, 0.001650855117873588, 0.09887245910984317, 0.05730920125841101, 0.1882588672998876, 0.06461895897318642, -0.1628157373965395, 0.06943796487354367, 0.04312430789362991, -0.16717026875055513, -0.09252020917312485, 0.09457376545337737, -0.11392164561371347, 0.0885060404640186, 0.16000877183388093, 0.07919009962468372, 0.011713962407235438, -0.25404920574302037, 0.10071315660465535, -0.08683926267394425, -0.07519411224191817, 0.176116235153634, -0.06026159344893289, 0.03260998876814079, -0.16957758116292915, -0.10288110804723383, -0.09045964913326884, -0.09840895303457803, 0.012141063006708435, 0.05188878732665614]], [[-0.008804889697635767, -0.1796952478812638, 0.012490447989122841, -0.04325980256152184, 0.0902428682188893, -0.12155987171108343, -0.02727408411747949, -0.027360589975176, 0.11870454178843166, 0.13233980506369927, -0.042027488645816756, -0.0037618219577691195, 0.1263482682630582, 0.03284566508664987, 0.21957434619614777, 0.1429633237000185, -0.1243304922742824, 0.3695373361537816, -0.05835725865504268, -0.17051284657560406, -0.14444732971506058, -0.003274410092554041, 0.06865576778200366, 0.006691619268746213, -0.06659439927154313, -0.15360879346728584, 0.21690981272997928, 0.1431905736986798, -0.08511050228581589, -0.2651016799357406, -0.1563979775945251, 0.03985034499691583], [0.13935256419457254, 0.04311933444599887, -0.1888974020472929, 0.19845795117665022, -0.05960579390653784, 0.02244531609430076, 0.24582719095285874, 0.07128444650192625, 0.08916296191322408, 0.10079210593303276, 0.07010866913038045, -0.26478171450184573, 0.08321109895964479, -0.003422608528009401, -0.278318098340774, -0.049233826471131406, -0.12679166487713694, 0.1597272438144414, 0.03348743549130001, 0.09231623194119355, -0.028605317719033414, 0.054897907580923506, -0.07822246611542505, 0.015148886718006667, -0.1582805177288368, 0.20804279864761227, -0.0780476918923327, -0.12092293108357148, -0.25447672501557395, -0.1141651906215659, 0.07774857548335772, -0.26257955805944583], [-0.003349877145114437, 0.2671465135942383, 0.025646608364279316, 0.3701423739228302, 0.1575426683700904, 0.18700463342050577, 0.17632483276288888, -0.16722736214839815, -0.004985178196288853, -0.02464447338818482, -0.02923529834906326, -0.08699471812867633, 0.06151783567288065, -0.15181629218315787, 0.0441905644482484, 0.17337097564777404, 0.21498237573703297, 0.01585682167221207, -0.3106807413345806, 0.13496304099369957, -0.01906332891857181, -0.10555219070336139, -0.019699051331368195, -0.1637941334879706, -0.11291906013199265, 0.2132366489017923, 0.19838298703556573, -0.12918953312819548, 0.0856271502248127, 0.1010543855918037, -0.045451027029393125, -0.20215925817584676], [-0.2685743986020081, 0.1113330018769199, -0.08771661261805316, 0.10372009973022804, 0.07882980496901751, -0.015570368773625077, -0.16804037311957393, -0.14993545714543155, -0.0312691510396572, 0.09541332804585108, -0.20393831323380002, 0.1072060479822234, -0.020594709216631923, 0.051821968407932684, 0.22423605821563092, 0.004715851197872311, -0.0012999845762453404, -0.08405810805040168, 0.06250264369513939, 0.15794346795213138, 0.0035534842338708667, 0.049671240748645214, -0.10902131832422896, -0.02494041184138707, 0.18610489004456976, 0.030011736699005972, -0.019959810777864673, -0.11677991744351802, 0.08008101644934676, -0.13520109521559986, -0.09277896511438621, -0.062065324249298615], [-0.10354513648093755, 0.038987083398268674, -0.07221081788299757, 0.14722046037010802, -0.09483404789455625, -0.16292803572007042, 0.1858334671044685, -0.06994178331057847, 0.010439005998507176, 0.01832975040260424, 0.005108533146386146, -0.18423675328838768, -0.044971190224982326, -0.022370734672655344, -0.054155420184093736, -0.15290290794362899, -0.025452359929881648, -0.22817442115702669, -0.008045306642646247, 0.06615567676867919, -0.12006184087232959, 0.04366067280544099, 0.03140248653993554, -0.033180418538433336, 0.05405330516746116, -0.010776699471292572, 0.046688508182515895, -0.14390043088382204, -0.03043803736979693, 0.01765263369265273, -0.1230425343442673, 0.04519642034376844], [-0.16179873353367463, 0.1158784244220858, -0.09141673066301212, 0.1502758001051497, 0.03584397530920791, 0.020823898763053905, 0.027907080070267445, 0.06173784166780162, -0.12430624212815859, 0.1044008071500981, 0.17298302116211692, 0.2546437244927999, 0.011425655872839594, 0.10695726284195836, -0.1397561099125471, 0.0007054698599912432, -0.06868195667740369, 0.24925298298562729, -0.027663956280817085, -0.010903357373824512, -0.08289055963676244, 0.1804748303846026, -0.12902671315762337, 0.22776082037140372, -0.1971936235173282, -0.2704375477770245, -0.15605123924548397, 0.1627396670892859, 0.08660787741305045, 0.11954375264141548, -0.008115233204928286, -0.011990198535777652], [-0.14273344360672335, 0.18108143401506446, -0.07841299943383331, 0.02140846103214799, -0.11795344503342492, -0.05241641426370655, -0.09175739954948313, -0.047363767454636205, 0.07074976749736951, 0.05030171271402365, -0.03612278958526437, 0.14555276342579868, 0.0757293058769562, 0.08555299159384523, 0.11397716751866259, -0.13803372660747001, -0.07287847606082794, -0.06877570118870992, 0.20035580864893268, -0.23802812482505106, -0.020479129337653387, -0.267365282693109, 0.09662781104397292, 0.06608500236911509, 0.04647821915317641, -0.1432133016408281, 0.046575186739054295, -0.11168704764564415, -0.012152501791771783, 0.07143971742558297, 0.02259274618672397, 0.031843313270152634], [-0.12081272316253994, -0.04636138172084466, -0.13578716031964974, 0.032491983444981505, 0.13749486014489723, -0.09565803186577708, -0.034991729045110075, 0.15097646320994373, -0.02017215714352641, 0.03209161575742748, -0.00884431795024799, 0.01765025066445035, -0.060745174986261516, 0.10091327501174858, 0.09324203325753655, -0.04792658024580101, -0.049149415724066836, 0.06381195913541737, 0.15136020606007844, 0.1301294757147687, 0.09276433024298845, 0.02160937784558444, 0.058488194623333, 0.21338665838687038, -0.031315917608217135, -0.10539938591734589, 0.10084138378866885, -0.025269727318152784, -0.03725927359093199, -0.14587879878201976, 0.14403756345165455, 0.022495525477708198], [0.11220831031295257, -0.05055581526949821, 0.01924941111570362, 0.053061183903222564, 0.04908952134102544, -0.08112590902674034, 0.20876359317685975, -0.21810509222834878, 0.07397452255442312, 0.19075827343183485, -0.23904177597715823, 0.07689577574380894, 0.04872861665137823, 0.019408919099424344, 0.024329836070543644, -0.02985619822114559, -0.00019047673848763205, -0.1474918767807161, -0.23934088723203695, 0.017679221078970072, -0.15114208381242494, -0.28253059340391534, -0.11681061586975883, -0.1857643944291595, -0.06390367071941787, 0.12479328004431678, -0.15036872813097046, -0.051396831710772126, 0.006275483121676361, -0.12617248438979117, -0.11713449484795997, -0.1636738801343509], [-0.13986668985589157, 0.13924155277120975, 0.059935520775279215, -0.0006425102810031014, 0.04806719077140484, 0.07580274214278909, -0.05614949897635825, -0.10837436289054188, -0.20773113098981663, 0.15133013096582293, -0.11035693399686407, -0.09993304651612471, -0.10058475313209297, 0.07696402284472456, 0.40044894975271195, 0.1290965491263933, 0.2781186551679702, -0.027536419370728375, 0.09783059486990736, -0.0471249244313589, -0.005478856727089114, 0.13652431754359687, -0.06613294627647058, -0.12902572859611197, 0.0322904433791099, -0.01974328188214678, -0.05029328123544316, -0.028221443646706406, -0.047652397203912025, 0.04209971366229828, -0.12859720986166548, 0.22414159412666926], [-0.04551723198123209, 0.19340177783494825, -0.0890561015106359, 0.08669766903595588, -0.00334839775429425, -0.06717012470990671, -0.10124343010532745, -0.02448267494297487, 0.26289203621064283, -0.15948444307674053, -0.35314433782004157, -0.06372965850358155, -0.004151332283660499, 0.17047710882538175, 0.16116852135668772, -0.09739744093974025, -0.03094128047182966, 0.006971190336882467, -0.034488843296277105, 0.02590730889728593, 0.0005267002032625481, 0.14437582455691705, 0.07991827789484604, -0.14667775601216926, -0.04360085502680587, 0.024942552841191814, 0.06183692749056322, -0.022867984277995277, -0.24930342293208946, 0.01674607434865458, 0.02181484920758567, -0.17665584202602785], [-0.03741166973716259, 0.014428602164277224, -0.12309118374357071, 0.03982487399105802, -0.09623528365863672, -0.015293318262266585, 0.05352744438799373, 0.10377519703410763, -0.07480764900133688, 0.09932435241199924, -0.003011340586374926, -0.006486192233078035, 0.16570538276416102, -0.10450616861012199, -0.15218728976624782, -0.18393695417560238, 0.16447976976618245, -0.053865062520657786, -0.13025280785877827, 0.1841632723107672, 0.009358488025171599, 0.06815274482317554, 0.08980880340016072, 0.09816176669299077, -0.01825189546636222, 0.02570136008059529, -0.14723661881009534, 0.1778614246518654, 0.12303620109517807, -0.004642569383080543, 0.0969442043790249, -0.15133787031964918], [-0.009612415732593912, 0.028226427596142238, 